-1.031911253929138184e+00
-6.995047628879547119e-02
-5.115087628364562988e-01
7.770217061042785645e-01
-3.743192851543426514e-01
-2.280782163143157959e-01
6.190376877784729004e-01
-1.099224165081977844e-01
-2.459718137979507446e-01
9.815852046012878418e-01
-3.783660829067230225e-01
-1.077638149261474609e+00
8.499838709831237793e-01
1.054205656051635742e+00
-6.636897325515747070e-01
2.190086245536804199e-01
6.506713628768920898e-01
-1.047780394554138184e+00
-3.256791532039642334e-01
8.367629349231719971e-02
-1.114987969398498535e+00
1.864416152238845825e-01
7.712681889533996582e-01
-2.557333111763000488e-01
-1.709708869457244873e-01
-3.370203375816345215e-01
1.136413589119911194e-01
4.845249652862548828e-01
1.409136503934860229e-01
-4.450588300824165344e-02
4.908476769924163818e-01
1.627882011234760284e-03
-3.706654608249664307e-01
8.587391376495361328e-01
-1.569436192512512207e-01
6.765835881233215332e-01
-1.620432615280151367e+00
1.356044054031372070e+00
2.289005517959594727e-01
-1.068112850189208984e-01
-3.813377916812896729e-01
-6.604881882667541504e-01
-2.527695596218109131e-01
-2.400506436824798584e-01
-8.941944837570190430e-01
-6.375061720609664917e-02
-2.920894324779510498e-01
-1.219918727874755859e+00
-1.069274663925170898e+00
2.163059413433074951e-01
-1.233206912875175476e-01
-2.726065218448638916e-01
-3.382261395454406738e-01
-4.916925728321075439e-01
3.261217772960662842e-01
-9.788911342620849609e-01
-7.078641057014465332e-01
4.209561049938201904e-01
2.644494175910949707e-01
-1.004905462265014648e+00
-1.071535825729370117e+00
-6.103553771972656250e-01
-8.943684101104736328e-01
-6.091409921646118164e-01
