1.140449419617652893e-01,8.352664113044738770e-02,5.426926016807556152e-01,-2.128968089818954468e-01,3.341587632894515991e-02,2.597748637199401855e-01,-4.823870956897735596e-01,-3.028224408626556396e-01,2.157771736383438110e-01
-8.513619303703308105e-01,1.491141319274902344e-01,-5.778456926345825195e-01,3.295714408159255981e-02,1.084985852241516113e+00,5.912193059921264648e-01,5.726120993494987488e-02,5.710807442665100098e-01,1.785031259059906006e-01
-1.158317625522613525e-01,5.570998787879943848e-01,-4.675464332103729248e-02,-5.108735561370849609e-01,4.981643259525299072e-01,8.441197276115417480e-01,1.008257120847702026e-01,2.374096214771270752e-01,-2.262214273214340210e-01
-4.967768192291259766e-01,-1.385863870382308960e-01,9.030483961105346680e-01,-6.844751834869384766e-01,1.066230297088623047e+00,6.290971636772155762e-01,-3.556253314018249512e-01,6.742576360702514648e-01,-3.133533895015716553e-01
3.445263504981994629e-01,-6.489724516868591309e-01,-4.633077681064605713e-01,-4.738770425319671631e-01,-4.308126866817474365e-01,-5.719327554106712341e-02,4.913950860500335693e-01,-1.945169717073440552e-01,-5.286611914634704590e-01
1.005403995513916016e+00,1.386722087860107422e+00,-1.917264312505722046e-01,-1.782929301261901855e+00,3.981971144676208496e-01,3.585087954998016357e-01,-1.798127777874469757e-02,-7.801394462585449219e-01,8.454042673110961914e-01
1.112941876053810120e-01,-2.959568202495574951e-01,-6.179450429044663906e-04,4.344866871833801270e-01,-1.011611428111791611e-02,4.928000271320343018e-01,-1.471215635538101196e-01,-7.646422982215881348e-01,-4.773715734481811523e-01
1.109853982925415039e+00,4.243477582931518555e-01,8.564794659614562988e-01,8.083972930908203125e-01,4.348081946372985840e-01,-5.488260984420776367e-01,-9.996643662452697754e-01,-4.471159577369689941e-01,-6.318586468696594238e-01
-3.595046401023864746e-01,-2.642301321029663086e-01,-1.162119984626770020e+00,5.963215827941894531e-01,1.388235688209533691e+00,1.015688702464103699e-01,1.733298897743225098e-01,2.305026948451995850e-01,4.448404908180236816e-01
5.369535684585571289e-01,-1.996784657239913940e-02,2.371247261762619019e-01,-1.245616316795349121e+00,-1.016047716140747070e+00,-8.492572605609893799e-02,5.209075659513473511e-02,3.567520976066589355e-01,-4.152000844478607178e-01
1.223630160093307495e-01,-4.703521430492401123e-01,4.107098877429962158e-01,7.054817676544189453e-01,6.462273597717285156e-01,4.158913791179656982e-01,9.438107162714004517e-02,-6.905625462532043457e-01,3.373894095420837402e-01
-3.828543722629547119e-01,4.338319972157478333e-02,-8.321656286716461182e-02,-1.545765101909637451e-01,-2.141163587570190430e+00,-4.461961686611175537e-01,-9.000748395919799805e-02,3.391272127628326416e-01,3.929437994956970215e-01
1.186338737607002258e-01,2.663307189941406250e-01,-2.948518097400665283e-01,-9.929792582988739014e-02,2.720968484878540039e+00,2.600258402526378632e-02,-2.122231423854827881e-01,2.691862881183624268e-01,7.036034464836120605e-01
-9.328520894050598145e-01,-6.682556271553039551e-01,-3.453964591026306152e-01,-4.812280833721160889e-01,-1.745139837265014648e+00,6.642175316810607910e-01,-6.308054924011230469e-02,1.102252721786499023e+00,-1.318047344684600830e-01
-5.356736779212951660e-01,-3.202775418758392334e-01,-1.416859030723571777e-02,8.036484122276306152e-01,2.204844206571578979e-01,2.163816541433334351e-01,3.681721985340118408e-01,-4.851379245519638062e-02,-4.982948303222656250e-01
4.352775961160659790e-02,-7.084362506866455078e-01,-5.429576039314270020e-01,8.341310620307922363e-01,-1.335723232477903366e-02,-8.915481716394424438e-02,8.041827678680419922e-01,6.669414639472961426e-01,-5.873748660087585449e-01
-4.744899924844503403e-03,-5.091544389724731445e-01,-3.483853042125701904e-01,7.191077470779418945e-01,-5.883311629295349121e-01,-8.234324455261230469e-01,2.071415334939956665e-01,2.279364019632339478e-01,3.946425318717956543e-01
-4.756367206573486328e-01,-5.047399997711181641e-01,2.237810008227825165e-02,1.108442395925521851e-01,6.263930201530456543e-01,7.183392643928527832e-01,2.635148167610168457e-01,3.822496235370635986e-01,1.596066057682037354e-01
-8.402234315872192383e-01,-2.612879872322082520e-01,-2.883710861206054688e-01,-4.816597700119018555e-01,2.109864950180053711e+00,1.846771091222763062e-01,1.788451224565505981e-01,2.630415856838226318e-01,5.984606146812438965e-01
-2.344617694616317749e-01,6.253613233566284180e-01,-9.518178105354309082e-01,1.039364099502563477e+00,-5.105326652526855469e+00,6.573255062103271484e-01,4.026627242565155029e-01,1.539078652858734131e-01,3.795137703418731689e-01
8.071740269660949707e-01,-9.803478419780731201e-02,1.214162826538085938e+00,-9.135391563177108765e-03,1.087156057357788086e+00,-1.065555334091186523e+00,-3.906119763851165771e-01,-4.544391632080078125e-01,-7.387226223945617676e-01
-9.591003060340881348e-01,1.933655500411987305e+00,-2.361525595188140869e-01,1.082460522651672363e+00,-2.679642438888549805e+00,3.527930974960327148e-01,-7.002791762351989746e-01,-5.119260028004646301e-02,-1.959501653909683228e-01
1.948089241981506348e+00,-4.186620712280273438e-01,7.175232768058776855e-01,1.480501741170883179e-01,-1.383796811103820801e+00,-4.002800285816192627e-01,1.359259366989135742e+00,-5.692881941795349121e-01,2.993240356445312500e-01
1.917628198862075806e-01,-1.187587141990661621e+00,-4.915384054183959961e-01,-1.561670422554016113e+00,4.096975326538085938e+00,1.933686256408691406e+00,-1.378844976425170898e+00,7.854785770177841187e-02,-1.699818730354309082e+00
-3.381234705448150635e-01,3.608148694038391113e-01,4.019581377506256104e-01,-7.036895751953125000e-01,1.640880823135375977e+00,-1.929909735918045044e-01,-3.808075487613677979e-01,-3.746068775653839111e-01,9.302022457122802734e-01
1.021526336669921875e+00,7.589530944824218750e-01,-6.944186091423034668e-01,5.961909294128417969e-01,-1.735215902328491211e+00,-1.446766138076782227e+00,-2.679345011711120605e-01,-3.201676309108734131e-01,-4.107241630554199219e-01
-6.762780547142028809e-01,1.688785403966903687e-01,-6.631238460540771484e-01,1.250436455011367798e-01,9.391438961029052734e-01,3.358080089092254639e-01,-5.833696201443672180e-02,2.108597278594970703e+00,2.104035019874572754e-01
1.047442182898521423e-01,-1.965811610221862793e+00,6.199303269386291504e-01,8.092363923788070679e-02,3.171247959136962891e+00,-3.405744731426239014e-01,2.777439653873443604e-01,1.342114657163619995e-01,-2.025975137948989868e-01
4.469759464263916016e-01,2.771899402141571045e-01,-8.803547024726867676e-01,-3.132506906986236572e-01,-3.153764724731445312e+00,5.722499489784240723e-01,-2.473104596138000488e-01,-1.158653259277343750e+00,-1.029992222785949707e+00
-5.093194246292114258e-01,6.763622164726257324e-01,7.695857286453247070e-01,1.979739516973495483e-01,-3.852672278881072998e-01,1.909393370151519775e-01,-1.816831231117248535e-01,-2.419612258672714233e-01,1.301692724227905273e+00
-6.964572668075561523e-01,2.336968034505844116e-01,-1.173785999417304993e-01,4.877085089683532715e-01,5.414447188377380371e-01,-1.446349978446960449e+00,3.325850069522857666e-01,1.174210548400878906e+00,4.573484957218170166e-01
-5.377227663993835449e-01,1.378560304641723633e+00,3.585857748985290527e-01,-3.217975199222564697e-01,-3.728504478931427002e-02,3.063718080520629883e-01,-9.560206532478332520e-01,-1.462413072586059570e-01,6.406356692314147949e-01
5.411587357521057129e-01,-4.365758895874023438e-01,9.952425956726074219e-01,6.204559803009033203e-01,-1.830581784248352051e+00,-5.819988250732421875e-01,-1.159026697278022766e-01,-2.385293990373611450e-01,1.866731345653533936e-01
-4.473253786563873291e-01,-8.253519982099533081e-02,9.714540094137191772e-02,-3.302987813949584961e-01,-3.920529186725616455e-01,7.247283309698104858e-02,-4.560938179492950439e-01,-2.239169031381607056e-01,2.724502682685852051e-01
-1.228721067309379578e-01,4.125625193119049072e-01,9.082583189010620117e-01,-4.733251035213470459e-01,2.382122725248336792e-01,1.103339433670043945e+00,-2.115862369537353516e-01,3.823978602886199951e-01,1.209437608718872070e+00
4.844059050083160400e-01,2.424097210168838501e-01,1.282225847244262695e-01,2.895372509956359863e-01,2.713432013988494873e-01,4.276306629180908203e-01,3.607481420040130615e-01,-7.684454917907714844e-01,-5.933138728141784668e-01
-1.298195868730545044e-01,-7.178109884262084961e-01,-2.185224294662475586e-01,-6.611720323562622070e-01,2.412639111280441284e-01,4.811548292636871338e-01,2.671581804752349854e-01,-5.183780789375305176e-01,9.937299787998199463e-02
-6.069897413253784180e-01,-6.901383996009826660e-01,-2.781352400779724121e-01,1.688369065523147583e-01,2.719115614891052246e-01,3.031640648841857910e-01,-2.043915688991546631e-01,3.593625426292419434e-01,6.976314783096313477e-01
-2.444267123937606812e-01,-4.947727620601654053e-01,-7.282482981681823730e-01,4.283832013607025146e-01,-4.592252671718597412e-01,2.733822166919708252e-01,-2.971456050872802734e-01,1.006772071123123169e-01,1.182894594967365265e-02
2.091295957565307617e+00,5.353366136550903320e-01,-9.205732941627502441e-01,1.207424163818359375e+00,-3.530144929885864258e+00,-4.034453332424163818e-01,9.051133990287780762e-01,-4.043633639812469482e-01,-1.323586553335189819e-01
-6.744073629379272461e-01,-2.281950861215591431e-01,1.247906684875488281e+00,-1.516032695770263672e+00,3.237092494964599609e-02,8.082465827465057373e-02,-6.584539413452148438e-01,-4.290652275085449219e-01,-6.853753328323364258e-01
-1.589986801147460938e+00,-1.069575905799865723e+00,2.285204082727432251e-01,-7.940664887428283691e-01,2.638706445693969727e+00,1.570416212081909180e+00,-3.250468075275421143e-01,-2.703153192996978760e-01,8.733997941017150879e-01
-1.015338897705078125e+00,-6.997257471084594727e-01,7.028844356536865234e-01,1.011534690856933594e+00,1.762312769889831543e+00,9.064333140850067139e-02,6.781857609748840332e-01,2.642540633678436279e-01,-5.483689904212951660e-01
-1.271564513444900513e-01,1.444262862205505371e-01,-6.372206807136535645e-01,6.626055836677551270e-01,7.793467640876770020e-01,9.566846489906311035e-01,5.333563685417175293e-01,-1.749557852745056152e-01,-3.574507236480712891e-01
5.004448294639587402e-01,-1.343462705612182617e+00,3.175410628318786621e-02,-2.787513732910156250e-01,-3.133531570434570312e+00,1.588618755340576172e-01,3.752458691596984863e-01,-4.649586081504821777e-01,1.110161304473876953e+00
-7.574430108070373535e-02,-1.870350122451782227e+00,1.014415979385375977e+00,-1.859093904495239258e+00,7.649344205856323242e-01,3.902891576290130615e-01,4.074365496635437012e-01,-1.430722832679748535e+00,6.313257664442062378e-02
8.056505322456359863e-01,1.982811540365219116e-01,-4.465321898460388184e-01,-4.709812998771667480e-01,4.241680145263671875e+00,-9.368845224380493164e-01,-2.552610337734222412e-01,3.413845598697662354e-01,-5.466045141220092773e-01
6.050292849540710449e-01,9.159994125366210938e-01,-5.931517481803894043e-01,1.179957270622253418e+00,-4.866190910339355469e+00,5.583286285400390625e-01,1.381894648075103760e-01,6.057497859001159668e-01,1.704987138509750366e-01
-4.766028001904487610e-02,6.724690645933151245e-02,2.597689032554626465e-01,3.707071244716644287e-01,-2.979886054992675781e+00,-5.733451619744300842e-02,2.595043480396270752e-01,-3.147528767585754395e-01,-1.339898705482482910e-01
-3.159250915050506592e-01,5.003948211669921875e-01,3.050582408905029297e-01,-4.690154641866683960e-02,-3.708150982856750488e-02,2.494000643491744995e-01,2.221637666225433350e-01,9.498967975378036499e-02,-6.512723118066787720e-02
4.691820442676544189e-01,-1.555821448564529419e-01,-3.669288456439971924e-01,-2.743337154388427734e-01,-1.420697271823883057e-01,1.005834117531776428e-01,-8.962238579988479614e-02,4.152120947837829590e-01,1.496566087007522583e-01
-6.720385551452636719e-01,5.471612215042114258e-01,3.307982683181762695e-01,-1.462256442755460739e-02,3.032490611076354980e-01,1.103408813476562500e+00,2.354539185762405396e-01,1.360387444496154785e+00,2.547309100627899170e-01
4.692744910717010498e-01,-3.261013031005859375e-01,-4.180687367916107178e-01,1.093554720282554626e-01,-8.753247261047363281e-01,-4.264213442802429199e-01,6.223360896110534668e-01,-1.499175429344177246e-01,-5.845185369253158569e-02
-6.557459384202957153e-02,-3.621242940425872803e-02,3.910050690174102783e-01,-7.696291208267211914e-01,5.718921422958374023e-01,3.771821558475494385e-01,-1.208513617515563965e+00,6.665598154067993164e-01,4.904822409152984619e-01
2.067497558891773224e-02,-3.085221648216247559e-01,-4.785966873168945312e-01,-2.067120820283889771e-01,1.144377350807189941e+00,8.117048144340515137e-01,-1.542704403400421143e-01,2.018684446811676025e-01,1.677502244710922241e-01
3.998322188854217529e-01,-2.366849482059478760e-01,6.172164902091026306e-02,-1.521619558334350586e-01,1.546987652778625488e+00,-4.654641151428222656e-01,2.606610581278800964e-02,-4.386473596096038818e-01,-3.702242374420166016e-01
6.431850045919418335e-02,-1.053899765014648438e+00,9.370896965265274048e-02,-3.266563415527343750e-01,2.370643317699432373e-01,-2.855406403541564941e-01,4.807437062263488770e-01,-4.049997627735137939e-01,1.801103800535202026e-01
3.290976881980895996e-01,7.267643809318542480e-01,3.877539038658142090e-01,-2.635544836521148682e-01,-1.987323909997940063e-01,-1.596670746803283691e-01,-4.270529150962829590e-01,-4.644200205802917480e-01,-2.044479101896286011e-01
3.038229048252105713e-01,7.240191102027893066e-01,4.571800231933593750e-01,-2.614494860172271729e-01,-1.526169627904891968e-01,-1.146334186196327209e-01,-3.617915809154510498e-01,-4.315074384212493896e-01,-1.740204542875289917e-01
3.571842312812805176e-01,7.403876781463623047e-01,3.383497893810272217e-01,-2.025120258331298828e-01,-1.933665573596954346e-01,-7.386140525341033936e-02,-2.957333326339721680e-01,-4.512329995632171631e-01,-1.175720617175102234e-01
5.712966322898864746e-01,7.439657449722290039e-01,-4.003570675849914551e-01,-8.096368610858917236e-02,7.870205640792846680e-01,-3.870086371898651123e-01,2.586785331368446350e-02,-1.260149955749511719e+00,-8.480012416839599609e-01
3.290658593177795410e-01,1.061912655830383301e+00,9.551776200532913208e-02,1.454007029533386230e-01,-2.845305800437927246e-01,4.022965431213378906e-01,-3.603043258190155029e-01,9.531574845314025879e-01,-2.877155840396881104e-01
-3.029316067695617676e-01,-4.633284509181976318e-01,6.049312949180603027e-01,9.440276026725769043e-01,1.135084480047225952e-01,4.763588309288024902e-01,-6.181226968765258789e-01,7.731730341911315918e-01,4.305551648139953613e-01
7.598654180765151978e-02,-6.706037521362304688e-01,-1.170369148254394531e+00,2.765713334083557129e-01,1.152588725090026855e+00,1.220407485961914062e-01,-6.983414292335510254e-01,4.516952484846115112e-02,-3.663657903671264648e-01
6.355931758880615234e-01,9.004386663436889648e-01,8.378790616989135742e-01,-1.220870390534400940e-01,1.099780648946762085e-01,6.865263581275939941e-01,2.049545794725418091e-01,-8.947646617889404297e-02,1.740328222513198853e-01
-6.990536451339721680e-01,7.957457304000854492e-01,-4.919614642858505249e-03,-9.765678644180297852e-01,-9.000025391578674316e-01,5.252146720886230469e-01,-4.884245991706848145e-01,-1.757734417915344238e+00,-1.405865848064422607e-01
6.621876358985900879e-01,4.088842868804931641e-02,-6.851664781570434570e-01,-1.143109679222106934e+00,9.833775758743286133e-01,2.862263023853302002e-01,1.427964717149734497e-01,1.562266796827316284e-01,1.676680892705917358e-01
-5.993012785911560059e-01,1.491714954376220703e+00,3.514675199985504150e-01,-1.285625576972961426e+00,-1.946944952011108398e+00,-2.059858441352844238e-01,-4.251754879951477051e-01,-5.466443300247192383e-01,1.724920421838760376e-01
8.240939378738403320e-01,1.149847432971000671e-01,-4.173187613487243652e-01,4.960739314556121826e-01,6.026946306228637695e-01,-1.842122375965118408e-01,1.084422171115875244e-01,-2.932055592536926270e-01,-5.217821002006530762e-01
-2.709124684333801270e-01,-1.819363832473754883e-01,-4.485973417758941650e-01,4.304343461990356445e-01,5.344070866703987122e-02,1.016851887106895447e-01,-1.437813788652420044e-01,8.170298486948013306e-02,-1.225205659866333008e-01
-2.951621711254119873e-01,-9.821011871099472046e-02,-6.313498020172119141e-01,1.348966121673583984e+00,1.291671209037303925e-02,5.449116230010986328e-01,7.778804302215576172e-01,8.218501210212707520e-01,-6.508905291557312012e-01
-2.401212900876998901e-01,2.043388932943344116e-01,8.793529272079467773e-01,-4.987778663635253906e-01,-2.008030652999877930e+00,1.474168002605438232e-01,1.588482409715652466e-01,8.510099649429321289e-01,-4.968620836734771729e-01
-6.995835900306701660e-01,8.173327893018722534e-02,2.031830996274948120e-01,2.002626210451126099e-01,3.226041316986083984e+00,-3.676565170288085938e+00,-5.779654383659362793e-01,-1.485416889190673828e-01,1.962047457695007324e+00
7.038275599479675293e-01,8.376190811395645142e-02,1.133248805999755859e+00,-7.001985907554626465e-01,-3.632891178131103516e+00,2.712488412857055664e+00,2.543783426284790039e+00,-1.337810039520263672e+00,-1.705030441284179688e+00
5.617257356643676758e-01,-4.959432482719421387e-01,-7.407478094100952148e-01,1.111083254218101501e-01,8.089803457260131836e-01,7.033293843269348145e-01,-1.989561200141906738e+00,1.077977538108825684e+00,9.465496242046356201e-02
-8.813607692718505859e-02,3.041645288467407227e-01,-8.554322719573974609e-01,1.338989585638046265e-01,1.203231573104858398e+00,-1.744328141212463379e+00,7.932967543601989746e-01,6.498584896326065063e-02,-1.179712936282157898e-01
-5.288298726081848145e-01,-1.470457762479782104e-01,-1.559728085994720459e-01,9.393897056579589844e-01,2.476475715637207031e+00,6.071743369102478027e-02,6.676679849624633789e-01,-1.595368087291717529e-01,-6.858927011489868164e-01
-9.921135753393173218e-02,1.366054534912109375e+00,1.181684374809265137e+00,6.263453960418701172e-01,-4.104979515075683594e+00,1.246942996978759766e+00,-8.784605860710144043e-01,-1.871159076690673828e+00,6.935182809829711914e-01
4.438033998012542725e-01,-3.822890520095825195e-01,-3.076739311218261719e-01,7.742628455162048340e-01,-4.052588045597076416e-01,-4.095229804515838623e-01,3.826815783977508545e-01,-3.945963084697723389e-01,-1.706975251436233521e-01
4.903742372989654541e-01,-3.247865140438079834e-01,-1.808460354804992676e-01,5.771245360374450684e-01,-4.225855469703674316e-01,-3.016681373119354248e-01,4.588861167430877686e-01,-2.674539387226104736e-01,-1.492036785930395126e-02
4.844183921813964844e-01,-9.788241237401962280e-02,-3.171285241842269897e-02,6.490898132324218750e-01,-3.382637798786163330e-01,-2.030940353870391846e-01,2.862239778041839600e-01,-3.328873217105865479e-01,-1.183015331625938416e-01
-6.546823382377624512e-01,-1.897275090217590332e+00,-7.330286502838134766e-01,-4.967173635959625244e-01,6.968988776206970215e-01,3.295046329498291016e+00,-3.908473253250122070e-01,-1.502988457679748535e+00,1.073827147483825684e+00
1.495123744010925293e+00,2.478361129760742188e+00,9.289128184318542480e-01,-5.412789583206176758e-01,4.269929528236389160e-01,-4.121032714843750000e+00,1.073797821998596191e+00,-2.677405118942260742e+00,4.992828369140625000e-01
-9.167505502700805664e-01,-1.111678123474121094e+00,-1.310229152441024780e-01,4.403674006462097168e-01,-6.648356914520263672e-01,5.611912012100219727e-01,-4.739442169666290283e-01,3.546721696853637695e+00,-1.492993831634521484e+00
-4.572260379791259766e-01,-6.417984962463378906e-01,-5.178801417350769043e-01,1.595072746276855469e-01,-8.821709454059600830e-02,5.067519843578338623e-03,5.256007909774780273e-01,6.831095367670059204e-02,4.648941457271575928e-01
-3.900354206562042236e-01,-4.764948785305023193e-01,-6.559862494468688965e-01,5.205827951431274414e-01,1.385851204395294189e-01,3.079349398612976074e-01,5.613789558410644531e-01,-3.188233673572540283e-01,2.710460424423217773e-01
1.171567849814891815e-02,-3.392044901847839355e-01,-4.301809370517730713e-01,5.315696001052856445e-01,-2.276225835084915161e-01,-1.798904389142990112e-01,8.293046951293945312e-01,3.014860674738883972e-02,-6.173217203468084335e-03
-6.828435659408569336e-01,2.200696021318435669e-01,9.458329528570175171e-02,1.571288555860519409e-01,7.327398061752319336e-01,-3.702852427959442139e-01,7.207896560430526733e-02,-2.673123776912689209e-01,1.155077293515205383e-01
-7.625936865806579590e-01,2.036444544792175293e-01,1.029377356171607971e-01,1.371897310018539429e-01,7.606102228164672852e-01,-3.660557568073272705e-01,-2.601887285709381104e-02,-3.392550647258758545e-01,6.784021854400634766e-02
-6.944030523300170898e-01,2.902061343193054199e-01,8.058224618434906006e-02,1.967801451683044434e-01,8.522005677223205566e-01,-3.351128697395324707e-01,2.650891058146953583e-02,-3.478110432624816895e-01,1.299203485250473022e-01
-6.219937279820442200e-02,1.087610125541687012e+00,2.289352007210254669e-02,4.144637882709503174e-01,-1.389654576778411865e-01,2.897955775260925293e-01,4.722779151052236557e-03,9.520921111106872559e-02,-3.023949824273586273e-02
-1.143101900815963745e-01,-4.600903987884521484e-01,-1.867851763963699341e-01,1.768479198217391968e-01,-2.815790414810180664e+00,-3.105776309967041016e-01,-1.493373960256576538e-01,-3.502325341105461121e-02,2.127351462841033936e-01
-3.240144252777099609e-01,6.280941963195800781e-01,2.125728279352188110e-01,7.087809592485427856e-02,4.239687323570251465e-01,3.873879611492156982e-01,-5.245698094367980957e-01,4.188610017299652100e-01,-2.234202064573764801e-02
-5.417549237608909607e-02,-5.724809765815734863e-01,1.147668808698654175e-01,-1.011647939682006836e+00,5.951220393180847168e-01,-4.007875621318817139e-01,1.647874712944030762e-01,1.720608353614807129e+00,-2.289349585771560669e-01
-2.106622457504272461e-01,-2.435866296291351318e-01,7.570155262947082520e-01,1.343756318092346191e+00,-3.547220230102539062e+00,1.611906439065933228e-01,-3.531002998352050781e-01,-3.949927985668182373e-01,-4.276155233383178711e-01
6.735431551933288574e-01,5.474259853363037109e-01,1.245014965534210205e-01,-5.549324750900268555e-01,4.961338043212890625e+00,6.247774139046669006e-02,-2.676062285900115967e-01,-1.111753106117248535e+00,-8.663132786750793457e-01
-3.855516910552978516e-01,8.535660505294799805e-01,-3.022983968257904053e-01,-4.428860247135162354e-01,-7.987999320030212402e-01,8.029189705848693848e-01,4.480872154235839844e-01,5.779504776000976562e-01,8.681612014770507812e-01
6.612884998321533203e-01,6.961081027984619141e-01,8.861412405967712402e-01,2.277505099773406982e-01,-1.881253957748413086e+00,6.290313904173672199e-04,8.078790307044982910e-01,-8.577542901039123535e-01,-7.331053614616394043e-01
-6.936881691217422485e-02,-7.586911916732788086e-01,-6.287195533514022827e-02,-1.179607510566711426e+00,8.577697277069091797e-01,3.070214986801147461e-01,3.755842447280883789e-01,2.719412147998809814e-01,-1.607288867235183716e-01
-5.866148322820663452e-02,4.884879589080810547e-01,1.833132952451705933e-01,1.579523086547851562e-01,1.330180764198303223e-01,-9.782335162162780762e-02,-4.293583333492279053e-01,-1.029808998107910156e+00,3.091117925941944122e-02
4.101355671882629395e-01,-3.320535421371459961e-01,-2.191113978624343872e-01,-3.065574765205383301e-01,-2.597390651702880859e+00,-4.174755215644836426e-01,6.006100773811340332e-01,5.821191668510437012e-01,3.983554542064666748e-01
-1.407591998577117920e-01,-1.102817058563232422e-01,3.945273458957672119e-01,1.000428125262260437e-01,-5.716661214828491211e-01,2.318328171968460083e-01,4.260826706886291504e-01,1.838113665580749512e-01,2.661032080650329590e-01
-1.229880154132843018e-01,4.785920977592468262e-01,3.228594660758972168e-01,9.665921330451965332e-02,5.200243592262268066e-01,-3.453967273235321045e-01,-2.909718155860900879e-01,-2.341969609260559082e-01,-1.376388907432556152e+00
8.673376590013504028e-02,1.156334757804870605e+00,1.592651307582855225e-01,3.213520720601081848e-02,-2.567894458770751953e-01,-4.002626240253448486e-01,1.942691057920455933e-01,4.742749333381652832e-01,2.003997713327407837e-01
2.445881515741348267e-01,4.278897047042846680e-01,6.365870237350463867e-01,2.487178193405270576e-03,-2.875196635723114014e-01,-1.404972910881042480e+00,-2.128826677799224854e-01,1.191734373569488525e-01,3.712265938520431519e-02
1.345838546752929688e+00,-1.144696354866027832e+00,4.807529747486114502e-01,-1.803115010261535645e-01,1.728334188461303711e+00,-2.703828513622283936e-01,-7.029529809951782227e-01,1.772069483995437622e-01,3.088474571704864502e-01
-1.182836592197418213e-01,-8.812217712402343750e-01,2.150864750146865845e-01,-1.167879551649093628e-01,-1.900033116340637207e+00,-5.871270895004272461e-01,-5.394685864448547363e-01,4.569807555526494980e-03,1.454579979181289673e-01
-6.229557394981384277e-01,1.069719195365905762e+00,2.620619237422943115e-01,1.849059909582138062e-01,-1.879845142364501953e+00,3.639285862445831299e-01,4.672095477581024170e-01,1.067852616310119629e+00,-1.408229768276214600e-01
1.697844862937927246e-01,2.496687471866607666e-01,1.745792776346206665e-01,2.827598750591278076e-01,7.165493965148925781e-01,3.243479728698730469e-01,5.497262254357337952e-02,2.418543696403503418e-01,8.735314756631851196e-02
4.925329238176345825e-02,1.361085772514343262e-01,6.463189423084259033e-02,1.681518703699111938e-01,6.578152179718017578e-01,2.679623961448669434e-01,3.386831656098365784e-02,1.412463784217834473e-01,7.622184604406356812e-02
-7.137417048215866089e-02,-1.642735861241817474e-02,-6.639867275953292847e-02,4.122824966907501221e-02,4.840624630451202393e-01,1.270547062158584595e-01,-1.243685483932495117e-01,-1.003741025924682617e-01,-1.170066371560096741e-01
6.529176235198974609e-02,-1.454374641180038452e-01,3.462729603052139282e-02,1.619358733296394348e-02,-5.972468852996826172e-01,-1.019980087876319885e-01,9.648729860782623291e-02,-2.768351137638092041e-02,9.508904814720153809e-02
-5.296299932524561882e-04,-2.034366428852081299e-01,-3.267059475183486938e-02,-9.646810591220855713e-02,-6.923338770866394043e-01,-1.810020357370376587e-01,-3.708234289661049843e-03,-1.069800332188606262e-01,1.046433020383119583e-02
-6.337342411279678345e-02,-2.643621861934661865e-01,-7.713005691766738892e-02,-1.161435693502426147e-01,-8.956321477890014648e-01,-1.893284618854522705e-01,-8.014770597219467163e-02,-1.221727803349494934e-01,-4.523035138845443726e-02
7.653578519821166992e-01,1.129669427871704102e+00,-4.857147037982940674e-01,1.409325152635574341e-01,1.304506540298461914e+00,-7.628838419914245605e-01,-5.251206755638122559e-01,7.111457586288452148e-01,-1.298706293106079102e+00
-2.912098169326782227e-01,-6.869295835494995117e-01,1.499599069356918335e-01,9.167758822441101074e-01,-6.260023713111877441e-01,1.528666615486145020e+00,-8.708275556564331055e-01,-9.491017460823059082e-01,3.428682386875152588e-01
4.217007756233215332e-01,8.723015189170837402e-01,-3.637805879116058350e-01,-2.549096047878265381e-01,-2.864061832427978516e+00,-7.190437614917755127e-02,2.015385478734970093e-01,-4.555976775009185076e-04,7.020503878593444824e-01
-2.184604108333587646e-02,-3.788883090019226074e-01,-9.774163365364074707e-02,-9.954372793436050415e-02,7.862274050712585449e-01,-5.806466341018676758e-01,-2.310767471790313721e-01,-4.336302578449249268e-01,-3.195247426629066467e-02
-2.985202074050903320e-01,-1.081827044486999512e+00,7.456501573324203491e-02,2.572788596153259277e-01,1.689634919166564941e+00,-1.466038376092910767e-01,2.108491510152816772e-01,5.251191258430480957e-01,3.070916533470153809e-01
1.485577076673507690e-01,1.676798015832901001e-01,-3.096159100532531738e-01,1.579386144876480103e-01,5.218596011400222778e-02,-7.994369268417358398e-01,5.845583602786064148e-02,7.089986205101013184e-01,-5.516536831855773926e-01
-1.149002462625503540e-01,7.370488643646240234e-01,3.992910683155059814e-01,2.481639087200164795e-01,-1.055636763572692871e+00,1.788206696510314941e-01,-3.006108999252319336e-01,-3.306539654731750488e-01,6.678677797317504883e-01
2.884468734264373779e-01,1.256330132484436035e+00,5.166362971067428589e-02,1.777101159095764160e-01,1.467258572578430176e+00,7.799167931079864502e-02,-8.533125519752502441e-01,3.635071516036987305e-01,-1.815184764564037323e-02
8.657871186733245850e-02,-1.156560540199279785e+00,-3.988009318709373474e-02,-1.333416998386383057e-01,-3.503034114837646484e+00,-2.042889595031738281e-01,1.424739122390747070e+00,1.772509217262268066e-01,3.731174170970916748e-01
-4.933023154735565186e-01,6.768182516098022461e-01,-4.845608174800872803e-01,-7.460764050483703613e-01,-4.897718727588653564e-01,6.133523955941200256e-02,-2.669260501861572266e-01,-9.071162343025207520e-02,9.789537191390991211e-01
-2.565573751926422119e-01,4.792249798774719238e-01,-2.722555696964263916e-01,8.881686925888061523e-01,1.678460001945495605e+00,-1.109256222844123840e-01,7.437372207641601562e-01,5.436348915100097656e-01,3.461068570613861084e-01
-9.743846058845520020e-01,-1.309208422899246216e-01,-4.441378712654113770e-01,1.739467531442642212e-01,4.246712327003479004e-01,-6.749120354652404785e-01,5.606314167380332947e-03,1.606241911649703979e-01,-7.186757922172546387e-01
4.212227761745452881e-01,-1.438220590353012085e-01,-3.393033742904663086e-01,5.874045491218566895e-01,4.489265382289886475e-02,-3.293033838272094727e-01,5.473367571830749512e-01,1.091358512639999390e-01,-1.974605023860931396e-01
4.057009518146514893e-01,-2.095306962728500366e-01,-3.190357983112335205e-01,6.029882431030273438e-01,-6.757137831300497055e-03,-4.267000257968902588e-01,5.096911191940307617e-01,-5.298320669680833817e-03,-2.978517711162567139e-01
3.326641619205474854e-01,-2.725976407527923584e-01,-4.691762626171112061e-01,6.311742663383483887e-01,-8.516750484704971313e-02,-5.058467388153076172e-01,5.439781546592712402e-01,-8.994138985872268677e-02,-4.246853291988372803e-01
8.420687317848205566e-01,2.459279000759124756e-01,-3.557912111282348633e-01,-1.278017461299896240e-01,1.488689661026000977e+00,6.538001447916030884e-02,-3.399651050567626953e-01,-9.467915296554565430e-01,-3.422766029834747314e-01
2.754638195037841797e-01,3.350780010223388672e-01,-1.603152006864547729e-01,-1.242128014564514160e-01,6.795737147331237793e-01,4.758119285106658936e-01,-2.409910112619400024e-01,-1.629979014396667480e+00,5.344334640540182590e-04
-7.073132395744323730e-01,-7.628207653760910034e-02,1.006084203720092773e+00,-1.001447677612304688e+00,-1.788300275802612305e-01,2.620321512222290039e-01,4.393630325794219971e-01,5.691854953765869141e-01,2.671872377395629883e-01
3.150872588157653809e-01,5.022131800651550293e-01,5.733841061592102051e-01,-9.591128826141357422e-01,-1.333694815635681152e+00,4.600765109062194824e-01,-9.018357992172241211e-01,6.895415186882019043e-01,8.355116248130798340e-01
3.937995731830596924e-01,2.762180566787719727e-01,7.082502841949462891e-01,6.780270934104919434e-01,-1.152675509452819824e+00,-3.307061195373535156e-01,-2.139915972948074341e-01,-6.474474072456359863e-01,8.799698948860168457e-02
-2.111582607030868530e-01,6.552062034606933594e-01,-9.587038159370422363e-01,5.204785466194152832e-01,1.222842097282409668e+00,6.260167062282562256e-02,1.330880522727966309e+00,6.336618065834045410e-01,-1.462955772876739502e-01
1.274454295635223389e-01,5.733505487442016602e-01,2.827423512935638428e-01,-6.093264818191528320e-01,1.711882114410400391e+00,-7.394301295280456543e-01,6.983917951583862305e-01,-4.869436919689178467e-01,1.584052592515945435e-01
6.094729304313659668e-01,5.484055876731872559e-01,-3.738185167312622070e-01,1.728271692991256714e-02,1.022325530648231506e-01,-3.882601857185363770e-01,-2.761523425579071045e-01,-6.012302041053771973e-01,-3.947576582431793213e-01
2.492261677980422974e-01,-3.123775422573089600e-01,-5.190203785896301270e-01,7.620148062705993652e-01,2.537885606288909912e-01,-1.785361766815185547e-01,-3.079183697700500488e-01,-6.380970478057861328e-01,-2.980929017066955566e-01
8.815371990203857422e-01,2.376233786344528198e-01,-7.897813320159912109e-01,-8.626019358634948730e-01,-4.929823875427246094e-01,3.649873733520507812e-01,-3.896752297878265381e-01,6.686753034591674805e-01,2.735614478588104248e-01
-2.415202260017395020e-01,-1.372139751911163330e-01,-1.096184849739074707e-01,-7.648138999938964844e-01,4.555864036083221436e-01,4.832579791545867920e-01,-6.850450634956359863e-01,9.646685719490051270e-01,2.898495495319366455e-01
-7.070742845535278320e-01,-4.865961372852325439e-01,-2.382557094097137451e-01,3.457704782485961914e-01,2.995651364326477051e-01,2.521470487117767334e-01,3.011439144611358643e-01,6.060864329338073730e-01,4.001427888870239258e-01
8.199490904808044434e-01,8.096375465393066406e-01,6.769641637802124023e-01,7.147361636161804199e-01,1.000600457191467285e+00,5.425025820732116699e-01,4.251767098903656006e-01,7.242794036865234375e-01,4.335063099861145020e-01
-4.104241132736206055e-01,6.325683556497097015e-03,-3.161894381046295166e-01,-5.165581777691841125e-02,6.398503184318542480e-01,-8.052917569875717163e-02,-4.592647254467010498e-01,-4.626942425966262817e-02,-3.531644344329833984e-01
-6.565329432487487793e-01,-1.324870139360427856e-01,-4.904297292232513428e-01,-2.779584228992462158e-01,4.466966986656188965e-01,-2.271720916032791138e-01,-4.486033916473388672e-01,-2.852382361888885498e-01,-5.213780999183654785e-01
-7.789824604988098145e-01,-9.949732422828674316e-01,-3.814606070518493652e-01,1.834264099597930908e-01,-6.616719067096710205e-02,5.997186899185180664e-01,2.448938488960266113e-01,9.176857471466064453e-01,9.396304488182067871e-01
1.715462803840637207e-01,-1.286086626350879669e-02,4.657190442085266113e-01,-5.168234556913375854e-02,5.543952584266662598e-01,4.876359105110168457e-01,-2.410436421632766724e-01,2.147803306579589844e-01,-9.840906411409378052e-02
2.035101205110549927e-01,2.404279559850692749e-01,8.185763955116271973e-01,-4.555208086967468262e-01,1.450577974319458008e-01,7.862691879272460938e-01,-7.812079191207885742e-01,-4.434453323483467102e-02,-2.738306224346160889e-01
2.105487510561943054e-02,8.170036673545837402e-01,-2.935877256095409393e-02,1.632019877433776855e-01,-4.606226921081542969e+00,1.298141598701477051e+00,-3.525251448154449463e-01,6.419113278388977051e-01,-4.516556262969970703e-01
5.322768911719322205e-02,1.187314242124557495e-01,-3.369891643524169922e-02,-5.058053731918334961e-01,1.894219398498535156e+00,-2.433441728353500366e-01,9.612945467233657837e-02,1.714961975812911987e-01,-1.045460924506187439e-01
-8.354917913675308228e-02,-4.919863864779472351e-02,-5.949267148971557617e-01,7.967726588249206543e-01,2.990276813507080078e-01,-8.200886249542236328e-01,1.000745415687561035e+00,-3.599762022495269775e-01,5.768309235572814941e-01
3.940999507904052734e-01,5.767877697944641113e-01,5.318154692649841309e-01,8.787565231323242188e-01,-1.062062144279479980e+00,-4.431691467761993408e-01,4.467438906431198120e-02,6.625238060951232910e-01,-5.764251947402954102e-01
-1.702737063169479370e-02,4.032404422760009766e-01,2.629546225070953369e-01,1.346282601356506348e+00,4.979027807712554932e-01,-1.366016983985900879e+00,2.469616681337356567e-01,3.294949531555175781e-01,-4.902280867099761963e-01
6.356733441352844238e-01,-8.072309494018554688e-01,-6.968880891799926758e-01,-1.946589350700378418e+00,8.097095489501953125e-01,-1.185039043426513672e+00,4.354677721858024597e-02,-2.278766930103302002e-01,8.941000103950500488e-01
2.650975883007049561e-01,-4.045453667640686035e-01,-1.426093876361846924e-01,3.572423160076141357e-01,-1.145965695381164551e+00,-2.314485311508178711e-01,-4.383153915405273438e-01,-8.805320262908935547e-01,1.008038759231567383e+00
-7.240492701530456543e-01,-1.417130470275878906e+00,-1.340000629425048828e-01,4.556574821472167969e-01,5.579469799995422363e-01,2.620320618152618408e-01,4.422961771488189697e-01,-2.550729215145111084e-01,9.315593242645263672e-01
4.028913080692291260e-01,-2.722287178039550781e-02,2.168038785457611084e-01,2.533262968063354492e-01,8.030083030462265015e-02,3.811623752117156982e-01,8.475700616836547852e-01,9.601000547409057617e-01,-1.846728622913360596e-01
-5.202874541282653809e-01,2.797588109970092773e-01,-2.151224166154861450e-01,-8.081421256065368652e-02,8.390104770660400391e-01,2.282318919897079468e-01,-1.123831570148468018e-01,-4.895681440830230713e-01,-3.202088177204132080e-01
3.339992463588714600e-01,5.357808470726013184e-01,3.083743453025817871e-01,3.297800421714782715e-01,7.013487815856933594e-01,-7.048925757408142090e-01,-1.488022357225418091e-01,5.815650895237922668e-02,1.951169073581695557e-01
5.434860587120056152e-01,6.700602769851684570e-01,-5.052616596221923828e-01,2.890160679817199707e-01,6.974447965621948242e-01,2.716204822063446045e-01,-8.098468184471130371e-01,-1.071101665496826172e+00,-7.326837182044982910e-01
-4.405854940414428711e-01,-4.907433092594146729e-01,4.714608937501907349e-02,-3.568576648831367493e-02,1.391273140907287598e-01,2.095897495746612549e-01,-6.841620057821273804e-02,1.698151379823684692e-01,4.786956012248992920e-01
-3.924135267734527588e-01,-5.460429191589355469e-01,-6.325596570968627930e-01,3.997533917427062988e-01,4.995849132537841797e-01,5.915920734405517578e-01,-1.757975481450557709e-02,1.980808526277542114e-01,5.738425254821777344e-01
-4.872522950172424316e-01,-2.274742126464843750e-01,-1.457431167364120483e-01,-3.853133916854858398e-01,6.366096436977386475e-02,9.107508659362792969e-01,7.784228026866912842e-02,3.021364808082580566e-01,5.676707029342651367e-01
-2.311747372150421143e-01,9.736343473196029663e-02,-3.048419058322906494e-01,4.316748082637786865e-01,2.359164476394653320e+00,-1.327679276466369629e+00,-2.653061151504516602e-01,2.653473019599914551e-01,2.197268009185791016e-01
5.304562672972679138e-02,-5.226725935935974121e-01,1.349540501832962036e-01,1.724273264408111572e-01,-1.083024814724922180e-01,-4.484614431858062744e-01,-2.094596922397613525e-01,-3.742993474006652832e-01,-9.722669124603271484e-01
3.473178446292877197e-01,-8.184828162193298340e-01,4.788024723529815674e-01,-1.594988256692886353e-01,-2.639897167682647705e-01,-3.677075505256652832e-01,2.584659159183502197e-01,5.976759791374206543e-01,2.933173179626464844e-01
1.553221046924591064e-01,1.429159760475158691e+00,1.172194957733154297e+00,-4.397540688514709473e-01,4.939284026622772217e-01,8.264893293380737305e-01,-5.783824920654296875e-01,-3.419731557369232178e-01,-3.346197903156280518e-01
-3.956192731857299805e-01,1.712266653776168823e-01,-1.086434274911880493e-01,2.061997950077056885e-01,-4.380847141146659851e-02,3.874306380748748779e-01,-3.119375705718994141e-01,-2.232242971658706665e-01,-1.136916056275367737e-01
2.279388457536697388e-01,4.128948748111724854e-01,-8.862522244453430176e-01,5.451298356056213379e-01,5.350392460823059082e-01,-3.455928266048431396e-01,7.053599357604980469e-01,1.195248067378997803e-01,-6.318573355674743652e-01
5.686911195516586304e-02,-3.675959408283233643e-01,2.477682679891586304e-01,-3.181018829345703125e-01,-3.469680845737457275e-01,-8.862168788909912109e-01,1.867375671863555908e-01,3.940613567829132080e-01,7.611315250396728516e-01
2.311814725399017334e-01,4.247959554195404053e-01,6.738400459289550781e-02,-8.085367083549499512e-01,8.566507101058959961e-01,-6.541132926940917969e-01,7.342087030410766602e-01,-3.747279047966003418e-01,-1.213571876287460327e-01
3.045414090156555176e-01,7.199527621269226074e-01,3.944026827812194824e-01,1.131573081016540527e+00,1.603945016860961914e+00,2.865218371152877808e-02,-5.158296823501586914e-01,-5.399119257926940918e-01,-8.530889749526977539e-01
-2.824350595474243164e-01,-6.132975220680236816e-01,-1.571511477231979370e-01,-5.239976048469543457e-01,-3.017198324203491211e+00,7.622355818748474121e-01,1.290081262588500977e+00,2.028637938201427460e-02,7.094305753707885742e-01
-1.105022579431533813e-01,4.595282375812530518e-01,1.905286908149719238e-01,2.203065603971481323e-01,1.191132545471191406e+00,-5.828212499618530273e-01,-6.365725994110107422e-01,-2.692993544042110443e-02,7.515047490596771240e-02
8.029832839965820312e-01,3.601332306861877441e-01,2.537570595741271973e-01,8.139905929565429688e-01,-1.235519409179687500e+00,-4.615107476711273193e-01,-7.537119984626770020e-01,3.104685246944427490e-01,-7.479372434318065643e-03
2.144451141357421875e-01,5.933446437120437622e-02,-2.863475680351257324e-01,5.138933062553405762e-01,2.145565748214721680e-01,-7.529258728027343750e-01,2.427955418825149536e-01,6.256613880395889282e-02,-3.786047697067260742e-01
1.791235357522964478e-01,1.646270602941513062e-02,-3.587973415851593018e-01,5.072901844978332520e-01,1.612936705350875854e-01,-7.855479717254638672e-01,2.844506204128265381e-01,4.548802226781845093e-02,-3.730352818965911865e-01
1.425716429948806763e-01,-2.291573956608772278e-02,-3.312243521213531494e-01,5.031361579895019531e-01,1.741403341293334961e-01,-7.476118206977844238e-01,2.347787469625473022e-01,6.293451786041259766e-02,-3.790028095245361328e-01
3.930284380912780762e-01,1.148763597011566162e-01,7.923476696014404297e-01,5.663954615592956543e-01,-3.574804782867431641e+00,-3.335057497024536133e-01,1.829973310232162476e-01,8.645002245903015137e-01,5.125538632273674011e-02
5.914797186851501465e-01,1.602447479963302612e-01,2.811816334724426270e-01,-2.637546658515930176e-01,2.163192510604858398e+00,-7.779898643493652344e-01,1.841175258159637451e-01,-9.096927195787429810e-02,2.022032439708709717e-01
-7.337506413459777832e-01,-3.929967880249023438e-01,2.774105668067932129e-01,-8.820052444934844971e-02,2.920708894729614258e+00,7.030912041664123535e-01,-1.109869837760925293e+00,-4.388781189918518066e-01,1.380126625299453735e-01
5.510670542716979980e-01,-1.996608078479766846e-01,-6.208563446998596191e-01,3.602055013179779053e-01,-1.634493619203567505e-01,-4.472840204834938049e-02,8.172405958175659180e-01,6.668602675199508667e-02,5.209542512893676758e-01
-2.315814644098281860e-01,-5.993613600730895996e-01,-2.242176830768585205e-01,4.044774472713470459e-01,2.171607166528701782e-01,5.446305274963378906e-01,3.390127420425415039e-01,3.502579629421234131e-01,6.684671640396118164e-01
-5.230795741081237793e-01,-5.363865494728088379e-01,1.449599564075469971e-01,-3.437079191207885742e-01,1.997913867235183716e-01,8.728811144828796387e-01,-5.004805326461791992e-01,1.083955168724060059e-01,5.183531045913696289e-01
1.061005815863609314e-01,-1.745912134647369385e-01,7.472536712884902954e-02,1.507095247507095337e-01,5.276985764503479004e-01,1.519356518983840942e-01,4.447676241397857666e-02,-1.195749640464782715e-01,-2.430796474218368530e-01
-3.898599445819854736e-01,-6.369093805551528931e-02,-2.481511980295181274e-01,3.099767267704010010e-01,1.053731799125671387e+00,-1.075978390872478485e-02,-2.231054380536079407e-02,1.177422404289245605e-01,-2.468815296888351440e-01
-2.013849169015884399e-01,-3.178247809410095215e-01,-1.852944791316986084e-01,2.350028157234191895e-01,1.580901265144348145e+00,6.233396008610725403e-02,-4.058034121990203857e-01,1.165538132190704346e-01,-1.836725324392318726e-01
3.726415038108825684e-01,5.334606766700744629e-01,-2.061183005571365356e-01,2.849087417125701904e-01,5.698348283767700195e-01,-2.857230305671691895e-01,-1.059606969356536865e-01,7.566444277763366699e-01,-4.776430428028106689e-01
5.972142219543457031e-01,4.897922277450561523e-02,-2.475812137126922607e-01,-3.879240453243255615e-01,3.336454033851623535e-01,4.767640829086303711e-01,-8.512780815362930298e-02,1.413280516862869263e-01,-4.420495331287384033e-01
9.321348667144775391e-01,8.738670945167541504e-01,1.208614930510520935e-01,5.149983167648315430e-01,-1.085107445716857910e+00,-1.591572612524032593e-01,1.214173957705497742e-01,-1.721320152282714844e-01,-6.543579101562500000e-01
5.978913903236389160e-01,-1.335369655862450600e-03,5.794126987457275391e-01,4.241726696491241455e-01,-1.457869708538055420e-01,-2.407562881708145142e-01,-4.635469317436218262e-01,1.061228513717651367e+00,4.095024764537811279e-01
-5.606059432029724121e-01,-5.333421230316162109e-01,4.840195178985595703e-01,-1.131975054740905762e+00,-2.475554943084716797e+00,7.332868576049804688e-01,3.488215804100036621e-02,4.536488950252532959e-01,1.007922172546386719e+00
6.258180737495422363e-01,3.931858539581298828e-01,5.759325623512268066e-01,-5.360481142997741699e-01,2.741151571273803711e+00,-1.052752137184143066e+00,8.507009744644165039e-01,-1.108311653137207031e+00,-5.562291741371154785e-01
