-7.247939705848693848e-01
1.681994795799255371e-01
2.755819559097290039e-01
1.428242027759552002e-01
-7.515563964843750000e-01
-6.910213828086853027e-02
5.007021129131317139e-02
-7.409797906875610352e-01
-5.809555053710937500e-01
1.308170437812805176e+00
3.919504582881927490e-01
-8.617238402366638184e-01
-3.550155758857727051e-01
-2.277022302150726318e-01
-5.378605052828788757e-02
2.625767588615417480e-01
2.771723568439483643e-01
-4.660103023052215576e-01
6.458294391632080078e-01
4.678138494491577148e-01
1.204822957515716553e-01
-4.343085289001464844e-01
1.443464517593383789e+00
-7.442752718925476074e-01
8.317404985427856445e-01
3.182796239852905273e-01
-5.093255043029785156e-01
-1.597675681114196777e-01
3.026763498783111572e-01
-3.842206001281738281e-01
-3.763944804668426514e-01
3.586901128292083740e-01
-4.137961193919181824e-02
8.234803676605224609e-01
-5.846175551414489746e-01
-1.020208448171615601e-01
6.215953230857849121e-01
1.099385023117065430e+00
2.252177447080612183e-01
5.075000226497650146e-04
-4.838491678237915039e-01
-5.166198611259460449e-01
-9.123821556568145752e-02
1.388171911239624023e-01
-2.142602205276489258e-01
-9.787287563085556030e-02
-2.432809621095657349e-01
-3.242868930101394653e-03
7.950266003608703613e-01
3.736925423145294189e-01
2.192624509334564209e-01
8.346644788980484009e-02
3.389801979064941406e-01
2.201955616474151611e-01
-5.065151453018188477e-01
-9.234596788883209229e-02
1.659788638353347778e-01
7.167039513587951660e-01
-1.441385596990585327e-02
-4.584355056285858154e-01
2.230896234512329102e+00
-4.332849085330963135e-01
-1.782392561435699463e-01
5.469257235527038574e-01
