3.960151076316833496e-01
2.777762413024902344e-01
-6.722370386123657227e-01
-5.917607992887496948e-02
-1.912498101592063904e-02
-5.212182998657226562e-01
-3.568900525569915771e-01
-2.296986728906631470e-01
-2.539549395442008972e-02
-2.896427810192108154e-01
-4.778248965740203857e-01
3.123635649681091309e-01
3.795351684093475342e-01
3.216443061828613281e-01
-3.025681972503662109e-01
4.324735999107360840e-01
-2.195807546377182007e-01
3.845888972282409668e-01
3.671324253082275391e-02
7.740877866744995117e-01
-3.544876575469970703e-01
-1.326932758092880249e-01
-3.057146668434143066e-01
4.166207909584045410e-01
1.205235719680786133e-01
-5.745610967278480530e-02
1.356308441609144211e-02
1.311525702476501465e-03
-2.733122110366821289e-01
-5.509647727012634277e-01
-7.775444388389587402e-01
3.523547053337097168e-01
-6.124736666679382324e-01
1.892158836126327515e-01
-5.360264182090759277e-01
5.379276275634765625e-01
-3.858946263790130615e-02
-2.080258578062057495e-01
-5.030406117439270020e-01
3.722753822803497314e-01
-8.487905561923980713e-02
-5.622891783714294434e-01
-4.220114648342132568e-01
-4.998522996902465820e-01
-6.739114224910736084e-02
-2.171228677034378052e-01
3.082177340984344482e-01
3.407423198223114014e-01
-3.909083455801010132e-02
-4.496257901191711426e-01
7.999227643013000488e-01
2.586646378040313721e-01
3.105713725090026855e-01
-3.397214710712432861e-01
8.823435008525848389e-02
4.213578999042510986e-02
-9.146530181169509888e-02
-1.617044582962989807e-02
-5.136905908584594727e-01
1.286387294530868530e-01
-1.631378829479217529e-01
1.651447415351867676e-01
-2.901740372180938721e-03
1.184704750776290894e-01
