-1.000600457191467285e-01
3.009582161903381348e-01
9.367573261260986328e-01
1.412359029054641724e-01
1.444892585277557373e-01
1.860145926475524902e-01
-4.986135363578796387e-01
5.146190524101257324e-03
-1.729392707347869873e-01
1.022197902202606201e-01
2.631552815437316895e-01
-2.277754396200180054e-01
-1.024643108248710632e-01
-8.701370656490325928e-02
3.137561082839965820e-01
4.941475018858909607e-02
-2.413764595985412598e-01
-2.017906159162521362e-01
5.451823472976684570e-01
2.660734653472900391e-01
5.228912830352783203e-01
-3.592073917388916016e-01
1.105180501937866211e+00
-7.175935804843902588e-02
3.657126724720001221e-01
2.665169835090637207e-01
1.428790539503097534e-01
-8.520177006721496582e-02
-6.437301635742187500e-06
-1.831630468368530273e-01
5.227388143539428711e-01
6.196442618966102600e-02
3.774251639842987061e-01
7.314299345016479492e-01
1.448332667350769043e-01
6.889799982309341431e-02
2.178906798362731934e-01
1.959991753101348877e-01
-3.198321461677551270e-01
1.478526294231414795e-01
4.522953927516937256e-01
-2.243368923664093018e-01
-2.094201445579528809e-01
7.728166878223419189e-02
-8.078057318925857544e-02
1.506579667329788208e-01
-1.429760307073593140e-01
-7.357755303382873535e-01
8.064955472946166992e-01
7.476238161325454712e-02
-1.578458905220031738e+00
-3.343085944652557373e-02
-1.192160919308662415e-01
9.301967620849609375e-01
2.346972376108169556e-01
1.521926373243331909e-01
-6.020070910453796387e-01
7.320410013198852539e-01
-1.871789433062076569e-02
-1.753785163164138794e-01
1.343093156814575195e+00
7.196328639984130859e-01
5.328155755996704102e-01
3.496371582150459290e-02
