4.346380382776260376e-02,-7.765027228742837906e-03,-6.344207376241683960e-02,-5.505013396032154560e-04,-1.211860124021768570e-02,-4.911709949374198914e-02,4.801306501030921936e-02,1.045415177941322327e-02,-5.513820797204971313e-02
-5.847752466797828674e-02,4.948867019265890121e-03,4.261736292392015457e-03,-2.168279699981212616e-02,2.364330925047397614e-03,2.505215443670749664e-02,1.181121915578842163e-02,-6.541545502841472626e-03,1.339237578213214874e-02
2.247812785208225250e-02,1.638891361653804779e-02,-4.736612085253000259e-03,4.095283150672912598e-02,8.258747868239879608e-03,6.095448136329650879e-02,3.189283236861228943e-02,3.911530971527099609e-02,7.167099416255950928e-02
3.025644831359386444e-02,3.102550469338893890e-02,-6.125492509454488754e-03,1.257980149239301682e-02,6.995275616645812988e-04,1.188350934535264969e-02,3.709411714226007462e-03,-4.231884609907865524e-03,2.344586327672004700e-02
-1.088206772692501545e-03,5.125991534441709518e-03,-2.276031114161014557e-02,-5.623949691653251648e-02,-7.573316339403390884e-03,-1.626774296164512634e-02,-5.157636106014251709e-02,-1.521995477378368378e-02,-2.524322271347045898e-02
-1.120172534137964249e-02,-3.053589351475238800e-02,-4.384249448776245117e-03,-4.180766642093658447e-02,-8.216132223606109619e-02,3.969430178403854370e-02,-1.707933726720511913e-03,4.202123358845710754e-02,4.551284015178680420e-02
-6.623519584536552429e-03,-6.008049100637435913e-02,5.414650659076869488e-04,-1.748745888471603394e-02,-6.457078456878662109e-02,-3.633793815970420837e-02,4.088339582085609436e-02,-3.294798359274864197e-02,1.754826866090297699e-02
-1.683817128650844097e-03,6.503405980765819550e-03,3.368828073143959045e-02,-3.614956885576248169e-02,6.378774531185626984e-03,-1.683642342686653137e-02,-9.721470996737480164e-03,-1.425142679363489151e-02,-2.390092238783836365e-02
-4.032463952898979187e-02,1.275130733847618103e-02,-2.925978228449821472e-02,-1.543020363897085190e-02,-2.035021595656871796e-02,-3.444086061790585518e-03,-2.003139583393931389e-03,1.895836554467678070e-02,-2.362168580293655396e-02
2.464777231216430664e-02,1.690459251403808594e-02,-2.512591890990734100e-03,2.634447067975997925e-02,4.072183743119239807e-02,-8.653695695102214813e-03,1.753751374781131744e-02,-1.840523909777402878e-03,6.032011937350034714e-03
1.132704876363277435e-02,2.740103565156459808e-02,8.672952651977539062e-03,2.657171804457902908e-03,-1.081168465316295624e-02,2.699261717498302460e-02,6.523302942514419556e-02,6.243371590971946716e-02,2.969592995941638947e-02
-2.581332251429557800e-02,-1.483042910695075989e-02,2.213302813470363617e-02,4.217353835701942444e-02,-2.512445114552974701e-02,-2.880997955799102783e-02,3.671413287520408630e-02,-6.539397686719894409e-02,-1.505421008914709091e-03
1.728497259318828583e-02,3.295286733191460371e-04,4.734246525913476944e-03,3.742814436554908752e-02,6.218292936682701111e-02,5.121936276555061340e-02,-8.179593831300735474e-03,1.337602455168962479e-02,1.947419531643390656e-02
-3.719257935881614685e-02,-1.600732803344726562e-01,-2.486785687506198883e-02,5.712911952286958694e-03,-7.761070877313613892e-02,4.330346733331680298e-02,-2.604276407510042191e-03,-3.321806341409683228e-02,-4.954014439135789871e-03
5.232724919915199280e-02,2.905547060072422028e-02,-1.057271193712949753e-02,5.627003312110900879e-02,7.151976227760314941e-02,6.365860998630523682e-02,3.720381110906600952e-02,3.624600544571876526e-02,-3.166566044092178345e-02
5.922848358750343323e-02,5.265449732542037964e-02,4.166898876428604126e-02,1.677123457193374634e-02,1.438857335597276688e-02,3.604181855916976929e-02,-2.632297016680240631e-02,-8.902289904654026031e-03,8.533654909115284681e-05
4.165143892168998718e-02,3.412887454032897949e-02,2.494042180478572845e-02,-5.791609734296798706e-02,-5.611984431743621826e-02,-8.333240449428558350e-02,1.264674067497253418e-01,3.621222078800201416e-02,-2.475463598966598511e-02
-2.988228760659694672e-02,1.322013605386018753e-02,1.838515140116214752e-02,1.554247830063104630e-02,-2.631075680255889893e-03,-1.006836816668510437e-02,4.280308634042739868e-02,2.460127323865890503e-02,-4.029145464301109314e-03
-7.080958224833011627e-03,-3.789020702242851257e-02,-9.013381786644458771e-03,2.082950435578823090e-02,-3.319792449474334717e-02,-4.918652400374412537e-02,5.111115798354148865e-02,-1.050691120326519012e-02,-1.911093480885028839e-02
-2.812254242599010468e-02,1.416780706495046616e-02,-1.101906131953001022e-02,-1.898888871073722839e-02,-3.356527537107467651e-02,-1.197107881307601929e-02,-6.492606550455093384e-02,-1.044201776385307312e-01,-4.518220201134681702e-02
-4.792271554470062256e-02,-1.490795426070690155e-02,-4.749552346765995026e-03,-3.948739171028137207e-02,-2.658003754913806915e-02,-2.236652746796607971e-02,-8.374422043561935425e-02,-6.285282224416732788e-02,1.122019719332456589e-02
3.521868586540222168e-02,-3.248856216669082642e-02,1.958091929554939270e-02,1.538826059550046921e-02,-4.188342764973640442e-02,2.420924790203571320e-02,5.758140981197357178e-02,4.842689633369445801e-02,3.346723690629005432e-02
-5.140670388936996460e-02,-6.003653630614280701e-02,-1.693362719379365444e-03,-2.207287587225437164e-02,-2.535643801093101501e-02,6.250412017107009888e-02,2.252742089331150055e-02,3.375781700015068054e-02,6.475663930177688599e-02
1.318351179361343384e-02,4.497033357620239258e-02,-4.179161973297595978e-03,-9.836238808929920197e-03,6.376613676548004150e-02,5.542396102100610733e-03,-3.854646533727645874e-02,7.395949214696884155e-02,1.045793853700160980e-02
-7.197111845016479492e-02,5.780458450317382812e-03,8.503374457359313965e-02,-3.403591737151145935e-02,7.366388570517301559e-03,1.513805612921714783e-02,-4.433619230985641479e-02,5.596334859728813171e-02,5.982859060168266296e-02
-9.946824051439762115e-03,-1.949718780815601349e-02,9.732116013765335083e-03,-2.766275079920887947e-03,-2.619689516723155975e-02,-3.311207285150885582e-03,8.801402873359620571e-04,3.519923891872167587e-03,1.862183562479913235e-03
5.054285377264022827e-02,2.576115541160106659e-02,-1.452567055821418762e-02,5.051204934716224670e-02,3.360716253519058228e-02,4.199401289224624634e-02,7.612509187310934067e-03,1.046246569603681564e-02,9.295839816331863403e-03
-8.351256139576435089e-03,2.804917842149734497e-02,-2.986678387969732285e-03,-4.023161157965660095e-02,3.882883582264184952e-03,1.859556883573532104e-02,9.646319597959518433e-02,9.909608215093612671e-02,-4.712198395282030106e-03
3.923895582556724548e-02,-1.258312817662954330e-02,-1.947491895407438278e-03,1.101208385080099106e-02,-1.242567232111468911e-04,-1.213222276419401169e-02,2.044682390987873077e-02,-2.370239049196243286e-02,1.372119528241455555e-03
5.094172060489654541e-02,5.983716994524002075e-02,3.450549021363258362e-02,1.558529585599899292e-02,3.546165674924850464e-02,7.560364902019500732e-03,2.264729887247085571e-02,2.961937105283141136e-03,-3.895097877830266953e-03
-1.749710738658905029e-02,-3.836620599031448364e-02,-7.934653200209140778e-03,-2.314627543091773987e-02,-4.310446977615356445e-02,4.321145638823509216e-02,-5.511978175491094589e-03,-5.521959625184535980e-03,2.734632045030593872e-02
1.506010722368955612e-02,3.356994828209280968e-03,1.592950895428657532e-03,-4.590237513184547424e-03,4.878777544945478439e-03,7.598493713885545731e-03,2.511863037943840027e-02,8.545022457838058472e-02,2.044120617210865021e-02
-5.015812814235687256e-03,-2.984891831874847412e-02,2.243750169873237610e-02,5.621202755719423294e-03,-1.560337096452713013e-02,1.011001062579452991e-03,-2.938068844377994537e-02,-1.787402667105197906e-02,1.173254381865262985e-02
4.734121263027191162e-02,8.437137305736541748e-02,3.051133826375007629e-02,7.438350468873977661e-02,1.211109906435012817e-01,2.945040911436080933e-02,2.922514453530311584e-02,1.032842993736267090e-01,4.328255727887153625e-02
-3.464365005493164062e-02,-3.273865440860390663e-03,7.937129586935043335e-03,-8.488260954618453979e-02,-9.313266724348068237e-02,-1.486433856189250946e-02,-5.761872604489326477e-02,-5.957709997892379761e-02,-3.284453600645065308e-02
-5.323847755789756775e-02,-2.537549100816249847e-02,-1.271506957709789276e-02,-2.485690638422966003e-02,-1.106658391654491425e-02,-5.087754223495721817e-03,-2.090796083211898804e-02,1.113834138959646225e-02,-3.857737407088279724e-03
-3.096012631431221962e-03,2.150536142289638519e-02,1.796146272681653500e-03,-8.936994709074497223e-03,5.335782840847969055e-02,-1.857655867934226990e-02,5.330794956535100937e-03,-4.262429720256477594e-04,1.574767008423805237e-02
7.646364718675613403e-02,1.330251991748809814e-01,3.277037665247917175e-02,-6.150538101792335510e-04,-5.850895494222640991e-02,-4.855071660131216049e-03,-2.092770859599113464e-02,-1.341374665498733521e-01,-9.459570050239562988e-03
-2.654240699484944344e-03,-1.521381083875894547e-02,3.605310991406440735e-02,9.599938057363033295e-03,-7.065434753894805908e-02,-4.601495712995529175e-02,-1.823928952217102051e-02,-6.210048869252204895e-02,-7.220798730850219727e-02
-4.536854848265647888e-02,-2.746123634278774261e-02,-3.323779674246907234e-03,-1.116296462714672089e-02,2.857626415789127350e-03,5.489391461014747620e-02,3.512293100357055664e-02,8.005957119166851044e-03,3.495284821838140488e-03
6.873022019863128662e-02,4.322364553809165955e-02,-3.386999294161796570e-02,1.885275170207023621e-02,4.946726560592651367e-02,1.058510690927505493e-02,3.291226550936698914e-02,4.391181468963623047e-02,-2.752475673332810402e-03
-5.949854850769042969e-03,-2.594464831054210663e-02,-2.096770703792572021e-02,-1.902746967971324921e-02,1.179766841232776642e-02,-1.958888582885265350e-02,-4.721665754914283752e-03,-7.687598932534456253e-03,-3.224731236696243286e-02
3.103563562035560608e-03,-5.543320998549461365e-02,7.952001877129077911e-03,-1.821720227599143982e-02,-8.432152867317199707e-02,-2.990044653415679932e-02,5.717679858207702637e-02,-6.077402457594871521e-02,-4.801904037594795227e-02
-9.117900393903255463e-03,-3.182571381330490112e-03,-3.107648156583309174e-02,-1.555549073964357376e-02,-4.927800223231315613e-02,1.082076877355575562e-02,1.319148112088441849e-02,-9.883468039333820343e-03,6.411184556782245636e-03
2.693096175789833069e-02,5.513278022408485413e-02,-3.582530422136187553e-03,2.499918639659881592e-02,4.415284842252731323e-02,-7.696724962443113327e-03,1.975213363766670227e-02,2.365934476256370544e-02,-3.750529140233993530e-02
-8.704476989805698395e-03,1.986366324126720428e-02,1.809393579605966806e-04,-9.740755194798111916e-04,-5.952172912657260895e-03,-2.992673078551888466e-03,5.276993289589881897e-02,4.392147064208984375e-02,5.493356660008430481e-02
-1.135865375399589539e-01,9.707168210297822952e-04,4.585991799831390381e-02,-4.494665935635566711e-02,1.702663116157054901e-02,2.657288871705532074e-02,-6.840866804122924805e-02,1.185601670295000076e-02,3.346678614616394043e-02
-2.104380726814270020e-02,1.460978295654058456e-03,-2.451513893902301788e-02,1.425142167136073112e-03,4.450093547347933054e-04,-9.686552919447422028e-03,-4.873860999941825867e-02,-4.341867566108703613e-02,-5.974295362830162048e-02
-6.320823915302753448e-03,-1.468114275485277176e-02,-4.437925666570663452e-02,-2.267217030748724937e-03,2.009436488151550293e-03,-5.648649111390113831e-02,-3.072915039956569672e-02,-4.452122002840042114e-02,2.336621657013893127e-02
1.236800942569971085e-02,6.061366200447082520e-02,7.121670991182327271e-02,8.745422586798667908e-03,5.189579725265502930e-02,5.195508152246475220e-02,-1.920520514249801636e-02,-1.380340382456779480e-02,2.847984246909618378e-02
1.957077905535697937e-02,2.708585001528263092e-02,6.935391575098037720e-03,-6.962449406273663044e-04,6.112780538387596607e-04,-1.729073747992515564e-02,5.703041795641183853e-03,6.140380166471004486e-03,-1.364188175648450851e-02
-2.728349354583770037e-04,-3.927797451615333557e-02,4.313688259571790695e-04,2.222571149468421936e-02,1.584008522331714630e-02,-1.476466003805398941e-02,-5.899677425622940063e-02,3.169484669342637062e-03,-5.366173759102821350e-02
2.037449181079864502e-02,-6.505325902253389359e-03,3.325959667563438416e-02,-2.357897721230983734e-02,-2.633464708924293518e-02,5.746010318398475647e-02,-1.083510462194681168e-02,-2.060561208054423332e-03,-4.682201892137527466e-02
-8.556769043207168579e-02,-5.500383675098419189e-02,-5.466517433524131775e-02,-6.304788589477539062e-02,1.100412197411060333e-02,-3.708860650658607483e-02,-4.767366498708724976e-02,-3.650100156664848328e-02,-4.421675205230712891e-02
-1.939335092902183533e-02,-2.677503786981105804e-02,-5.622371286153793335e-02,-9.803395718336105347e-03,-5.621913075447082520e-02,-3.544792160391807556e-02,-2.297627972438931465e-03,-5.845385044813156128e-02,-5.775923654437065125e-02
2.834577299654483795e-02,1.108047273010015488e-02,5.935831740498542786e-02,2.678165677934885025e-03,2.896120399236679077e-02,2.787905186414718628e-02,1.821391098201274872e-02,5.031917989253997803e-02,3.053314285352826118e-03
4.527894780039787292e-02,-3.208127245306968689e-02,-1.280968636274337769e-02,2.616055682301521301e-02,1.354209240525960922e-02,2.045164816081523895e-03,-2.713639847934246063e-02,-3.115208633244037628e-02,1.405339594930410385e-02
9.647876955568790436e-03,2.476464956998825073e-03,1.538080349564552307e-02,-2.029751660302281380e-03,-6.858841981738805771e-03,4.559438675642013550e-03,-3.904110984876751900e-03,-3.024351084604859352e-03,1.806955412030220032e-02
-2.867608703672885895e-02,-2.495114691555500031e-02,-7.350303232669830322e-02,1.244837883859872818e-02,-2.089374884963035583e-02,8.965104818344116211e-03,4.184487089514732361e-02,4.545563831925392151e-02,-8.414513431489467621e-03
1.902753673493862152e-02,-1.683015562593936920e-02,1.358610857278108597e-02,5.398361012339591980e-02,5.741458013653755188e-02,1.019148677587509155e-01,-3.152923658490180969e-02,-1.417829282581806183e-02,1.668233275413513184e-01
2.541289199143648148e-03,2.472407883033156395e-03,4.363528452813625336e-03,3.288184292614459991e-03,7.645169389434158802e-04,3.023816389031708241e-04,1.993362559005618095e-03,-7.574066403321921825e-04,-1.096769119612872601e-03
-1.326147187501192093e-02,-3.403646871447563171e-02,-3.015027567744255066e-02,4.616760835051536560e-02,-1.657666638493537903e-02,-3.653369098901748657e-02,2.151871286332607269e-02,-2.742669358849525452e-02,6.041524000465869904e-03
2.549538575112819672e-02,5.903398245573043823e-02,3.975383192300796509e-02,3.518132865428924561e-02,3.935947269201278687e-02,1.031759008765220642e-02,5.839624255895614624e-02,7.277901470661163330e-02,2.334392070770263672e-02
-1.117493212223052979e-02,5.506120622158050537e-02,3.683409094810485840e-02,2.516366355121135712e-02,4.507623240351676941e-02,-1.230154652148485184e-02,2.312131412327289581e-02,7.682777196168899536e-02,2.280588634312152863e-02
3.888563439249992371e-02,1.311972271651029587e-02,1.647749990224838257e-01,6.991058588027954102e-02,5.457953736186027527e-02,1.539688557386398315e-01,1.039156317710876465e-02,-2.434657886624336243e-02,4.804694280028343201e-02
-7.554923743009567261e-02,-1.276213079690933228e-01,-2.901073358952999115e-02,-9.363704174757003784e-02,-7.523635029792785645e-02,-1.556652411818504333e-02,-8.683887869119644165e-02,-6.035848334431648254e-02,-1.280295941978693008e-02
-2.464150078594684601e-02,4.242923483252525330e-02,-8.376612514257431030e-02,1.709323376417160034e-02,-7.008610665798187256e-02,1.518133562058210373e-03,-2.159711904823780060e-02,9.549280628561973572e-03,-6.180885806679725647e-02
6.188724189996719360e-02,1.527098473161458969e-03,3.261872753500938416e-02,-1.058752369135618210e-02,6.654600054025650024e-02,3.110300563275814056e-02,-2.487145597115159035e-03,-6.379601359367370605e-02,2.311648055911064148e-02
-4.565709829330444336e-02,-2.848993428051471710e-02,-6.046556308865547180e-02,-6.505844648927450180e-03,2.010821364820003510e-02,-7.546973228454589844e-02,1.967842876911163330e-02,3.774944692850112915e-02,-7.277689129114151001e-02
2.573675476014614105e-02,1.551609486341476440e-02,-2.563344687223434448e-02,1.574158482253551483e-02,3.571610897779464722e-02,1.113850041292607784e-03,-5.661708419211208820e-04,2.959128282964229584e-02,7.391203660517930984e-03
5.518243089318275452e-02,1.210207678377628326e-02,-8.018535375595092773e-02,7.354322820901870728e-02,-1.964020542800426483e-02,-1.737293414771556854e-02,-1.557771675288677216e-02,-4.626958444714546204e-02,-8.398058265447616577e-02
4.738165438175201416e-02,7.175974547863006592e-02,-6.725426297634840012e-03,-3.859490680042654276e-04,5.199079588055610657e-02,3.515041247010231018e-02,1.174292638897895813e-01,4.366154968738555908e-02,-2.128823474049568176e-02
-4.091713204979896545e-02,-9.528771974146366119e-03,2.580343931913375854e-02,-4.048698022961616516e-02,4.110520239919424057e-03,1.285472512245178223e-01,-2.432220429182052612e-02,-2.067279070615768433e-02,2.373567037284374237e-02
-1.868527010083198547e-02,-1.078558620065450668e-02,-2.157465182244777679e-02,-4.285202547907829285e-02,-3.208417445421218872e-02,3.301374148577451706e-03,-6.471265107393264771e-02,-1.674270443618297577e-02,7.256207522004842758e-03
-4.390760883688926697e-02,-3.027414530515670776e-02,-2.294396609067916870e-02,-2.662917226552963257e-02,2.638451941311359406e-02,-7.259638607501983643e-02,2.950624749064445496e-02,-1.659679226577281952e-02,-9.282482787966728210e-03
-3.330102190375328064e-02,-5.073618143796920776e-02,-6.378165632486343384e-02,6.418682634830474854e-02,8.251228928565979004e-02,-1.023136079311370850e-01,9.998249821364879608e-03,-3.785681724548339844e-02,2.497266978025436401e-02
1.761101186275482178e-03,-5.486727133393287659e-02,-1.389461848884820938e-02,-3.288781270384788513e-02,-8.205856196582317352e-03,-5.215215310454368591e-02,-4.381953924894332886e-02,-3.476753458380699158e-02,-2.653391472995281219e-02
-4.874492809176445007e-02,-1.267901510000228882e-01,-2.724146842956542969e-02,-4.199761897325515747e-02,-1.524052023887634277e-01,-8.922249823808670044e-02,-1.444530487060546875e-02,-5.522705242037773132e-02,-1.784068532288074493e-02
-4.303974658250808716e-02,6.391035020351409912e-02,-6.120456010103225708e-02,-3.696847334504127502e-02,-3.498908504843711853e-02,-7.262845337390899658e-02,-4.666717723011970520e-02,6.471943110227584839e-02,-8.723847568035125732e-02
8.000773936510086060e-02,5.607150867581367493e-02,-9.162094444036483765e-03,9.329460561275482178e-02,1.349613368511199951e-01,5.493363365530967712e-02,4.790367931127548218e-02,6.915599107742309570e-02,5.211695656180381775e-02
1.077802572399377823e-02,4.976979643106460571e-02,1.078557819128036499e-01,-4.119516909122467041e-02,4.849201440811157227e-02,1.474740207195281982e-01,3.622848913073539734e-02,9.769945172592997551e-04,2.843094407580792904e-04
1.217097789049148560e-02,-2.295969799160957336e-02,-1.140325516462326050e-02,2.871169894933700562e-02,-4.055950790643692017e-02,-1.455943658947944641e-02,-6.488554179668426514e-03,-4.382263123989105225e-02,3.514112159609794617e-02
4.959952551871538162e-03,2.652691118419170380e-02,6.772804539650678635e-03,7.631366699934005737e-02,-6.080428510904312134e-02,-3.216180205345153809e-02,8.509001135826110840e-02,-2.748586237430572510e-02,1.896405010484158993e-03
-5.762627813965082169e-03,7.975917309522628784e-02,1.718818955123424530e-02,5.588778760284185410e-03,1.839134469628334045e-02,-8.243254572153091431e-02,3.894203528761863708e-02,-4.214652627706527710e-02,-3.356463834643363953e-02
-4.471607133746147156e-02,-8.817108348011970520e-03,7.998577505350112915e-02,6.702464818954467773e-02,8.734644949436187744e-02,5.363846942782402039e-02,8.075103163719177246e-02,-3.507687896490097046e-02,5.781302694231271744e-03
-3.272195905447006226e-02,-1.159974839538335800e-02,4.913635551929473877e-02,-2.745855040848255157e-02,1.563611067831516266e-02,4.404486343264579773e-02,-5.643422901630401611e-02,-1.409454550594091415e-02,-1.257096184417605400e-03
5.335492896847426891e-04,-1.586621068418025970e-02,-8.808503299951553345e-02,4.561195150017738342e-02,-4.791761934757232666e-02,-1.216217055916786194e-01,-5.864869337528944016e-03,1.937495358288288116e-02,-2.456949278712272644e-02
-5.726959556341171265e-02,-8.629211783409118652e-02,-2.145681157708168030e-02,-9.629882872104644775e-03,-9.845426306128501892e-03,1.076436368748545647e-03,-2.858123928308486938e-02,-7.736242841929197311e-03,-5.198672786355018616e-02
-4.538072273135185242e-02,4.059249907732009888e-02,1.547350920736789703e-02,-6.062008440494537354e-02,-6.880114227533340454e-02,-2.888147346675395966e-02,1.303044613450765610e-02,4.022527113556861877e-02,-1.304778456687927246e-01
-1.723367162048816681e-02,1.812043483369052410e-03,6.774391978979110718e-02,-1.480490993708372116e-02,5.744735710322856903e-03,7.821902632713317871e-02,-1.322774961590766907e-02,3.586627542972564697e-02,8.855032175779342651e-02
-1.126992329955101013e-01,-4.482972994446754456e-02,-3.504325821995735168e-02,-3.320589661598205566e-02,-3.267063200473785400e-02,-6.320210173726081848e-03,-6.472945958375930786e-02,-6.884827464818954468e-02,-7.914669811725616455e-02
-4.591251257807016373e-03,4.020761325955390930e-02,-8.469421416521072388e-02,5.798470228910446167e-02,5.439843237400054932e-02,-1.419874373823404312e-02,-8.388154208660125732e-03,6.100932136178016663e-02,-3.468678891658782959e-02
3.727219998836517334e-02,9.875730425119400024e-02,4.115507379174232483e-02,-9.266352280974388123e-03,6.370606273412704468e-02,6.371133029460906982e-02,2.786037139594554901e-02,-6.552666425704956055e-02,1.500535383820533752e-02
5.884096026420593262e-02,3.627340123057365417e-02,5.357974674552679062e-03,7.330331206321716309e-02,3.861437737941741943e-02,-1.350965071469545364e-02,9.031164646148681641e-02,7.031567860394716263e-03,-2.898422768339514732e-03
-1.687088422477245331e-02,2.619390375912189484e-03,-5.305304378271102905e-02,-1.144204940646886826e-02,-1.038308367133140564e-01,-3.549526631832122803e-02,-3.086832351982593536e-02,-3.468287363648414612e-02,-6.614019721746444702e-02
-9.333962574601173401e-03,2.718977071344852448e-02,7.032740861177444458e-02,4.510285332798957825e-02,-2.267553471028804779e-02,9.867886546999216080e-04,1.219697296619415283e-02,5.302569270133972168e-02,2.118783071637153625e-02
5.380881950259208679e-02,7.730375230312347412e-02,-7.186828181147575378e-03,-1.273711770772933960e-02,8.098096400499343872e-02,-6.494968384504318237e-02,4.511045664548873901e-02,-2.112345583736896515e-02,-4.089056700468063354e-02
-3.069530427455902100e-02,-2.758697047829627991e-02,1.798654906451702118e-02,-5.614866316318511963e-02,-1.511404570192098618e-02,-1.853439956903457642e-02,-7.011033128947019577e-03,4.518292844295501709e-03,6.224946700967848301e-04
-1.538470666855573654e-02,-4.327942058444023132e-02,3.791664168238639832e-02,1.914188265800476074e-02,-3.156604990363121033e-02,1.568963937461376190e-02,3.239805577322840691e-03,-1.626243628561496735e-02,3.701162338256835938e-02
-2.802046574652194977e-02,6.588891893625259399e-02,9.222521632909774780e-02,-3.804338630288839340e-04,1.358432881534099579e-02,-6.081842631101608276e-02,-2.332529611885547638e-02,-1.558477804064750671e-02,-1.217300444841384888e-01
4.298823699355125427e-02,2.777177840471267700e-02,2.310680225491523743e-02,-3.219001367688179016e-02,4.277159646153450012e-02,-4.098778218030929565e-02,-1.141138374805450439e-02,-7.027356326580047607e-02,-1.090660784393548965e-02
1.378843039274215698e-01,8.196002244949340820e-02,3.946896642446517944e-02,1.252135038375854492e-01,5.781541764736175537e-02,-6.313125789165496826e-02,3.760391473770141602e-02,-1.203463505953550339e-02,-8.093207329511642456e-02
-2.883702330291271210e-02,-1.047764122486114502e-01,-3.499109297990798950e-02,-1.629882864654064178e-02,-2.227594703435897827e-02,1.501592993736267090e-02,-3.030537627637386322e-02,-7.907924801111221313e-02,-5.626225471496582031e-02
1.279139071702957153e-01,-6.691012531518936157e-02,-1.106881499290466309e-01,1.907307505607604980e-01,7.654954493045806885e-02,-4.125372692942619324e-02,1.467245221138000488e-01,-1.906480640172958374e-02,-3.215808421373367310e-02
4.541262984275817871e-02,1.186288744211196899e-01,1.265607476234436035e-01,4.757262021303176880e-02,1.183186918497085571e-01,3.196114674210548401e-02,2.873903512954711914e-02,6.964147835969924927e-02,4.103375598788261414e-02
-8.045422285795211792e-02,-1.043404638767242432e-01,-1.005497202277183533e-01,-7.542985677719116211e-02,-5.480001121759414673e-02,-9.715388715267181396e-02,-4.326756671071052551e-02,-7.063929736614227295e-02,-3.727937862277030945e-02
2.912564901635050774e-03,1.419238839298486710e-02,-5.607037246227264404e-02,2.940051257610321045e-03,-1.080269888043403625e-01,1.774781383574008942e-02,2.737595699727535248e-02,-5.355871096253395081e-02,1.841904781758785248e-02
3.842375800013542175e-02,7.093245629221200943e-03,3.154437988996505737e-02,-3.249356290325522423e-03,7.189906667917966843e-03,1.341042853891849518e-02,-9.038623422384262085e-03,-8.118780702352523804e-02,-5.228750407695770264e-02
1.174810808151960373e-02,3.267272189259529114e-02,2.740170434117317200e-02,-1.002410892397165298e-02,8.395663648843765259e-02,-1.714647188782691956e-02,-4.639224614948034286e-03,9.167353808879852295e-02,2.644646540284156799e-02
-1.783719062805175781e-01,-1.075981706380844116e-01,-9.201269596815109253e-03,5.764788016676902771e-02,-1.843027025461196899e-02,1.191317476332187653e-02,1.671239361166954041e-02,-1.519613084383308887e-03,-6.798671931028366089e-02
-1.585486344993114471e-02,6.519689410924911499e-02,2.906251512467861176e-02,-1.119645237922668457e-01,-7.568046450614929199e-02,5.112860351800918579e-02,-1.507979929447174072e-01,-1.493055522441864014e-01,7.209689915180206299e-02
-1.153696049004793167e-02,-1.905217207968235016e-02,1.667040959000587463e-02,-3.326959908008575439e-02,1.234132423996925354e-01,-5.391814559698104858e-02,3.204784169793128967e-02,1.869644410908222198e-02,-1.797708868980407715e-02
1.820464991033077240e-02,3.235909342765808105e-02,6.161086261272430420e-02,1.765203895047307014e-03,-3.702741488814353943e-02,3.507528454065322876e-02,7.525606546550989151e-03,1.668210956268012524e-03,6.115401163697242737e-02
-2.204083278775215149e-02,6.830263882875442505e-02,2.382482402026653290e-02,-1.451855525374412537e-02,8.200728148221969604e-02,1.830089837312698364e-02,2.216033078730106354e-02,6.774398684501647949e-02,3.827176988124847412e-02
-1.496178191155195236e-02,1.463967375457286835e-02,5.371467769145965576e-02,-2.187765389680862427e-02,4.959694342687726021e-04,3.445241972804069519e-02,-3.787118196487426758e-02,-1.331094000488519669e-02,1.929584890604019165e-02
-5.331390351057052612e-02,2.849943190813064575e-02,2.846069447696208954e-02,1.997545734047889709e-02,-6.442694365978240967e-02,5.007089301943778992e-02,2.167024277150630951e-02,-8.080648258328437805e-03,-6.638735532760620117e-02
-3.526400029659271240e-02,6.515289843082427979e-02,-1.079595182090997696e-02,2.853528782725334167e-02,3.091129288077354431e-02,-2.019092999398708344e-02,-2.085843309760093689e-02,3.318967297673225403e-02,4.787334240972995758e-03
-1.032867655158042908e-01,-9.908669441938400269e-02,5.790671706199645996e-02,-4.094227403402328491e-02,-1.418192987330257893e-04,2.172135002911090851e-02,2.488897927105426788e-02,-7.007010281085968018e-02,6.774184107780456543e-02
2.007782272994518280e-02,-6.647776346653699875e-03,2.193481102585792542e-02,3.143354132771492004e-02,4.278633370995521545e-02,4.932799935340881348e-02,1.159026548266410828e-01,1.651882380247116089e-02,-2.995354589074850082e-03
-1.217544078826904297e-02,8.917025476694107056e-02,3.465245291590690613e-02,-4.133486188948154449e-03,7.657129317522048950e-03,1.011201068758964539e-01,-1.723334193229675293e-02,9.245488792657852173e-02,3.727376693859696388e-03
-8.573617786169052124e-02,6.756211165338754654e-03,-3.082649223506450653e-02,-3.272447362542152405e-02,-7.582705467939376831e-02,1.002332270145416260e-01,-6.502455472946166992e-02,-9.786521084606647491e-03,5.195218697190284729e-02
2.739100530743598938e-02,1.999011263251304626e-03,1.573482714593410492e-02,1.958165317773818970e-02,1.202913224697113037e-01,2.297469181939959526e-03,3.585681691765785217e-02,1.313095912337303162e-03,2.892022021114826202e-02
-3.467947617173194885e-02,-3.764516487717628479e-02,-2.562309987843036652e-02,-9.933844208717346191e-03,-5.302317440509796143e-02,3.591619431972503662e-02,-4.036944359540939331e-02,-2.952431328594684601e-03,-2.396436408162117004e-02
7.367022335529327393e-02,-1.258413773030042648e-03,-8.983106911182403564e-02,2.718084119260311127e-02,-1.488004624843597412e-02,-1.550179272890090942e-01,-3.098765388131141663e-03,2.792554534971714020e-02,-4.621722176671028137e-02
2.668271772563457489e-02,2.887363173067569733e-02,2.555102668702602386e-02,2.107815444469451904e-02,2.177967876195907593e-02,2.071677148342132568e-02,1.558376569300889969e-02,1.646510884165763855e-02,1.632387563586235046e-02
4.663606733083724976e-02,-3.076996654272079468e-02,8.402808569371700287e-03,-1.958728767931461334e-02,-4.448090121150016785e-02,2.596644870936870575e-02,1.385799236595630646e-02,-3.945106640458106995e-02,2.598692476749420166e-02
2.295076474547386169e-02,7.238528877496719360e-02,7.811392098665237427e-02,-2.369710616767406464e-02,5.150575190782546997e-02,1.081532835960388184e-01,6.615845113992691040e-02,8.902671188116073608e-02,6.233621016144752502e-02
-5.942717939615249634e-02,2.059132046997547150e-02,2.836327999830245972e-02,-1.452706381678581238e-02,-5.346787348389625549e-02,4.439837485551834106e-02,1.824403181672096252e-02,4.456228110939264297e-03,-2.556231804192066193e-02
9.801774285733699799e-03,2.048737369477748871e-02,3.134874254465103149e-02,-6.602262146770954132e-03,1.915595866739749908e-02,6.608280539512634277e-02,-3.934810683131217957e-02,-2.498859725892543793e-02,5.025379359722137451e-03
-9.957281872630119324e-03,-2.902826666831970215e-02,-1.538557093590497971e-02,-9.773137047886848450e-03,-1.083605065941810608e-01,1.015179045498371124e-02,-5.746710114181041718e-03,1.233431044965982437e-02,2.441754378378391266e-02
-1.449480373412370682e-02,-2.033314667642116547e-02,-1.214755349792540073e-03,-4.251971095800399780e-02,7.678795605897903442e-03,-3.906480967998504639e-02,-1.952504180371761322e-02,-4.080506041646003723e-02,-6.055606063455343246e-03
8.961933664977550507e-03,3.711256897076964378e-03,1.036796811968088150e-02,9.490398690104484558e-03,-4.413896799087524414e-02,-1.583527401089668274e-02,1.052130386233329773e-02,-3.335072100162506104e-02,-4.155934974551200867e-02
1.720828469842672348e-03,1.687221601605415344e-02,-2.828475646674633026e-02,-3.720063483342528343e-03,2.984343096613883972e-02,-2.934386138804256916e-04,-3.911364451050758362e-02,-2.141976915299892426e-02,-4.734184592962265015e-02
-9.750034660100936890e-04,-1.673549227416515350e-02,2.526050200685858727e-03,-1.532919146120548248e-02,-1.435234248638153076e-01,-4.519869014620780945e-02,-3.691997379064559937e-02,-1.723502203822135925e-02,-3.726442158222198486e-02
-4.429775755852460861e-03,-6.519473623484373093e-03,-4.753689840435981750e-02,-2.616713196039199829e-02,5.326700955629348755e-02,-5.717553570866584778e-02,4.024234134703874588e-03,-1.770774647593498230e-02,-3.282805159687995911e-02
-2.632122253999114037e-03,1.564012095332145691e-02,3.037670068442821503e-02,-1.625344902276992798e-02,1.122593507170677185e-01,-2.782143466174602509e-02,-3.072516620159149170e-02,2.391506917774677277e-02,-2.723199687898159027e-02
2.409682609140872955e-02,3.048700746148824692e-03,-1.068094512447714806e-03,1.450261753052473068e-02,1.825800165534019470e-02,1.620227657258510590e-02,1.496864110231399536e-02,-1.855230517685413361e-02,2.184796705842018127e-02
3.419971792027354240e-03,-4.363006353378295898e-02,-2.247640863060951233e-03,-2.092762477695941925e-02,1.588839851319789886e-02,-1.321897096931934357e-02,7.666765246540307999e-03,-3.841163590550422668e-02,-1.504907500930130482e-03
1.661427505314350128e-02,-6.574641913175582886e-02,-2.129682153463363647e-02,2.662772126495838165e-02,-1.750185787677764893e-01,2.000455930829048157e-02,7.691800594329833984e-03,-4.155251011252403259e-02,3.169945254921913147e-02
-6.636511534452438354e-03,-3.835126059129834175e-03,-1.807587593793869019e-02,-8.904123306274414062e-02,4.605283215641975403e-02,-3.290995582938194275e-02,-4.208768531680107117e-02,-8.014517836272716522e-03,-2.337778545916080475e-02
3.961326926946640015e-02,7.796753197908401489e-03,2.498579211533069611e-02,2.986272424459457397e-02,2.100080624222755432e-02,2.405302412807941437e-02,4.656801465898752213e-03,-4.550211504101753235e-02,1.053406158462166786e-03
7.551352493464946747e-03,-2.301881462335586548e-02,-3.690608218312263489e-02,-3.003068640828132629e-02,8.849402889609336853e-03,4.753870889544487000e-03,-2.987579628825187683e-02,-6.056372448801994324e-02,-2.375833503901958466e-02
-4.535479005426168442e-03,7.880913908593356609e-04,3.571245819330215454e-03,-1.334651093930006027e-02,9.299066849052906036e-03,-8.861356414854526520e-03,3.342642262578010559e-02,2.396917669102549553e-03,4.521741531789302826e-03
1.286833547055721283e-02,2.821950986981391907e-02,-2.485989406704902649e-02,-1.405905233696103096e-03,-1.677886955440044403e-02,-3.244553506374359131e-02,-1.663061417639255524e-02,-1.550135668367147446e-02,1.748436130583286285e-02
-5.304971244186162949e-03,-4.194934852421283722e-03,-1.587465964257717133e-02,4.427240043878555298e-02,1.023892965167760849e-02,2.126545086503028870e-02,3.700069338083267212e-02,3.572734072804450989e-02,4.584292322397232056e-02
6.842671334743499756e-02,3.576318919658660889e-02,3.663301467895507812e-02,4.011758044362068176e-02,3.933987393975257874e-02,5.294264480471611023e-02,-1.185910310596227646e-03,2.242173766717314720e-03,2.942910045385360718e-02
5.475883185863494873e-02,1.731765642762184143e-02,1.593851111829280853e-02,7.486545480787754059e-03,-4.121642187237739563e-02,1.639463566243648529e-02,-3.582726791501045227e-02,5.805906839668750763e-03,2.942947112023830414e-02
-5.388358235359191895e-02,-6.299775838851928711e-02,3.075264580547809601e-02,-9.147159755229949951e-03,-7.989264279603958130e-02,1.851955801248550415e-02,-5.367437377572059631e-03,-1.628990843892097473e-02,-4.182268306612968445e-02
4.180417209863662720e-02,9.375264868140220642e-03,-1.574870571494102478e-02,2.718837186694145203e-02,-4.622396081686019897e-02,-1.661014929413795471e-02,1.329250517301261425e-04,-3.915936499834060669e-02,-5.201669782400131226e-02
1.558848842978477478e-02,-3.060863167047500610e-02,-2.466469816863536835e-02,1.760855130851268768e-02,-7.137437909841537476e-02,-7.010367698967456818e-03,-5.212670657783746719e-03,-3.889520303346216679e-05,3.542150557041168213e-02
4.517512023448944092e-02,4.266748949885368347e-02,4.672930762171745300e-02,2.694501355290412903e-02,-8.832617662847042084e-03,1.687145605683326721e-02,-1.541088614612817764e-02,1.773638278245925903e-02,1.527352817356586456e-02
-1.979767717421054840e-02,2.002230845391750336e-03,3.326286375522613525e-02,-4.915444552898406982e-02,-4.446114227175712585e-02,4.981241002678871155e-02,-1.558191608637571335e-02,-1.838147453963756561e-02,3.677874803543090820e-02
2.540765516459941864e-02,-1.539689721539616585e-03,5.661188438534736633e-02,2.376668155193328857e-02,6.130302208475768566e-04,1.268020737916231155e-02,4.766946285963058472e-02,2.943864464759826660e-02,3.601761162281036377e-02
-1.188434008508920670e-02,1.104279235005378723e-02,1.678024604916572571e-02,-1.405656896531581879e-02,7.413378916680812836e-03,3.885586932301521301e-02,6.901097367517650127e-04,-7.943792268633842468e-03,-1.189049798995256424e-02
-2.471491880714893341e-02,-3.106357157230377197e-02,-1.892402023077011108e-02,-2.051554806530475616e-02,-1.295179035514593124e-02,-3.810059279203414917e-02,-1.074077747762203217e-02,7.045386591926217079e-04,1.132777053862810135e-02
3.253918141126632690e-02,2.098595350980758667e-02,4.838877171277999878e-02,3.409658372402191162e-02,1.722597880871035159e-05,1.411371678113937378e-02,3.605057136155664921e-04,4.416926577687263489e-02,-1.159823779016733170e-02
7.006914820522069931e-04,8.075073361396789551e-03,-7.658240851014852524e-03,3.173355758190155029e-02,4.433771595358848572e-02,5.041802302002906799e-02,4.050432145595550537e-02,2.793761156499385834e-02,3.384888917207717896e-02
-2.009718492627143860e-02,-7.844332605600357056e-03,1.539969723671674728e-02,3.213447285816073418e-03,-1.495489198714494705e-02,9.916885755956172943e-03,-2.738769538700580597e-02,8.019139990210533142e-03,-2.230452746152877808e-02
4.567322321236133575e-03,-2.318348176777362823e-02,4.786033183336257935e-03,-7.617461960762739182e-03,-5.428728088736534119e-02,-3.389752656221389771e-02,-1.072226930409669876e-02,-3.765654563903808594e-02,-2.090799435973167419e-02
5.460146814584732056e-02,-2.064852975308895111e-02,5.561146419495344162e-03,2.168886177241802216e-02,-1.139871329069137573e-01,2.307979390025138855e-02,2.276189625263214111e-02,5.145607283338904381e-04,-1.199209224432706833e-02
4.973879829049110413e-02,2.121973223984241486e-02,2.825472131371498108e-02,4.398276656866073608e-02,-2.430531941354274750e-02,1.091746613383293152e-02,3.212600946426391602e-02,2.147036604583263397e-03,9.436020627617835999e-03
-1.913056825287640095e-03,1.465880312025547028e-02,7.695837318897247314e-02,-9.683576226234436035e-02,1.321945246309041977e-02,-5.048295017331838608e-03,-4.992418736219406128e-02,-4.219420999288558960e-02,-1.072657201439142227e-02
1.095640822313725948e-03,-1.056316075846552849e-03,3.112626634538173676e-02,-2.232432924211025238e-02,-7.271232455968856812e-02,-1.353731378912925720e-02,1.920598745346069336e-02,-1.681443885900080204e-03,6.511917710304260254e-02
2.447916381061077118e-02,-6.333416793495416641e-03,2.156664244830608368e-02,1.489675045013427734e-02,-7.742707384750247002e-04,-4.399797320365905762e-02,1.679138652980327606e-02,5.878407042473554611e-03,-2.603581547737121582e-02
1.908645592629909515e-02,1.596610806882381439e-02,-6.045463960617780685e-04,1.420862786471843719e-02,9.388909675180912018e-03,1.144955749623477459e-03,5.082347895950078964e-03,-2.298693434568122029e-04,-1.520100608468055725e-02
5.542663391679525375e-03,-1.601984351873397827e-02,5.132096260786056519e-02,1.541769783943891525e-02,-1.351430173963308334e-02,3.744557127356529236e-02,-2.048004046082496643e-02,-5.834121629595756531e-02,-1.537656038999557495e-02
-8.556734770536422729e-03,1.843112893402576447e-02,2.448754012584686279e-02,9.708395227789878845e-03,4.647598043084144592e-02,5.879809148609638214e-03,1.164690498262643814e-02,2.359436359256505966e-03,1.466681249439716339e-02
1.789066195487976074e-02,7.379391789436340332e-02,5.458135902881622314e-02,1.322008296847343445e-02,-4.511300846934318542e-02,1.357727963477373123e-02,-3.677118942141532898e-02,1.706443354487419128e-02,-5.507785826921463013e-03
-7.047218829393386841e-02,-3.859788179397583008e-02,-5.856544524431228638e-02,-1.059430614113807678e-01,-5.713740736246109009e-02,-8.256787061691284180e-02,-4.828499630093574524e-02,-6.968042254447937012e-02,-4.678245261311531067e-02
1.713725179433822632e-02,1.862521842122077942e-02,3.400555998086929321e-02,-2.664100937545299530e-02,-8.547961711883544922e-02,3.759438544511795044e-02,3.383963927626609802e-02,1.375382579863071442e-02,3.772059455513954163e-02
-3.344820812344551086e-02,2.288779802620410919e-02,-1.202566921710968018e-02,-8.591721998527646065e-04,2.389364503324031830e-02,1.259736996144056320e-02,-2.930657193064689636e-02,-1.534658297896385193e-02,1.168640144169330597e-02
-1.240047626197338104e-02,-2.336596325039863586e-02,-1.465632952749729156e-02,-1.740430854260921478e-02,-1.723499596118927002e-02,-1.920611783862113953e-02,-2.288292162120342255e-02,-2.384936623275279999e-02,-1.953333243727684021e-02
-2.914222702383995056e-02,-4.488400742411613464e-02,-7.947687059640884399e-03,-7.768790703266859055e-03,1.542542688548564911e-02,1.063122227787971497e-02,-3.663400933146476746e-02,-2.902961149811744690e-02,-2.140458859503269196e-02
-1.759940758347511292e-03,-1.831962168216705322e-02,-5.768850818276405334e-02,3.033463470637798309e-02,2.514041261747479439e-03,-1.838431507349014282e-02,-6.596970558166503906e-02,-4.103239998221397400e-02,-1.067620795220136642e-02
2.098775096237659454e-02,-1.564099825918674469e-02,2.652122080326080322e-02,5.870431661605834961e-02,5.232298001646995544e-02,4.592963887262158096e-05,-4.338695853948593140e-02,-3.434027358889579773e-02,-2.046715840697288513e-02
7.185524795204401016e-03,-1.178862643428146839e-03,1.097155362367630005e-02,2.192198485136032104e-02,-6.483245640993118286e-02,1.138936076313257217e-02,4.213835578411817551e-03,-1.100832689553499222e-02,7.196113467216491699e-03
-2.733511663973331451e-02,-3.866143990308046341e-03,-4.078077897429466248e-02,-5.761706456542015076e-02,4.215403646230697632e-02,-4.759511351585388184e-02,-8.126505650579929352e-03,-4.994425922632217407e-02,-4.133518040180206299e-02
-3.774880990386009216e-02,-8.178681880235671997e-02,9.636589325964450836e-03,-1.267069578170776367e-02,7.599534932523965836e-03,1.102454308420419693e-02,1.174191571772098541e-02,-7.481288630515336990e-03,-1.188139524310827255e-02
-3.362958505749702454e-02,-2.738209068775177002e-02,-3.745999932289123535e-02,-8.497826755046844482e-03,-1.037651300430297852e-02,-1.572238095104694366e-02,6.271269172430038452e-03,6.373290903866291046e-03,5.126378033310174942e-03
3.838444873690605164e-02,-1.440553925931453705e-02,1.768233068287372589e-02,6.342655513435602188e-03,1.864993758499622345e-02,1.742824539542198181e-02,-3.903285542037338018e-04,5.819938378408551216e-04,4.980943631380796432e-03
-1.219107769429683685e-02,2.913453150540590286e-03,1.088845264166593552e-02,3.965979814529418945e-02,-7.377400994300842285e-02,-1.260239660041406751e-04,2.324448898434638977e-02,6.716359872370958328e-03,-1.100315339863300323e-02
7.649913895875215530e-04,-2.818330191075801849e-02,-4.082686081528663635e-02,-6.926128175109624863e-03,4.584903642535209656e-02,-2.980096638202667236e-02,6.091374903917312622e-02,-2.605127356946468353e-02,7.972849532961845398e-03
-4.230870399624109268e-03,4.057475924491882324e-02,-6.741976365447044373e-03,1.071196328848600388e-02,8.084151893854141235e-02,-4.212482273578643799e-02,-1.778745092451572418e-02,-1.687371358275413513e-02,-2.006301470100879669e-02
2.160850539803504944e-02,-1.034045405685901642e-02,2.825207542628049850e-03,-1.061756443232297897e-02,-5.505782738327980042e-02,4.133708775043487549e-02,-4.686626140028238297e-03,-2.408088557422161102e-02,-4.474205896258354187e-02
-3.590578213334083557e-02,-3.114653564989566803e-02,-2.626034058630466461e-02,-5.779892578721046448e-02,8.419603109359741211e-02,-6.694838404655456543e-02,5.791182047687470913e-04,-1.761163398623466492e-02,-3.412926197052001953e-02
-4.251950420439243317e-03,1.580448076128959656e-02,2.687918022274971008e-03,4.177342355251312256e-02,-9.007552266120910645e-02,1.533050462603569031e-02,2.881564432755112648e-03,4.085079580545425415e-02,1.944491639733314514e-03
-1.643347926437854767e-02,-1.927598193287849426e-02,-1.477897167205810547e-02,2.538902498781681061e-02,-8.525720238685607910e-02,3.479654714465141296e-02,-1.429533120244741440e-03,-9.782299399375915527e-03,5.806671921163797379e-03
-4.547428339719772339e-02,4.059558734297752380e-02,4.470270499587059021e-02,-5.742192268371582031e-02,-1.306791137903928757e-02,5.690564960241317749e-02,-4.869414120912551880e-02,1.008140621706843376e-03,2.131430245935916901e-02
-1.121714711189270020e-02,-1.464027352631092072e-02,-9.264845401048660278e-03,-1.567222364246845245e-02,-9.848176501691341400e-03,-1.077630929648876190e-02,-1.143182441592216492e-02,-1.221624016761779785e-02,-4.632995929569005966e-03
-8.023407310247421265e-03,3.686925768852233887e-02,-4.453397169709205627e-02,-3.590385988354682922e-02,1.333864033222198486e-01,-8.086086809635162354e-02,-7.070008199661970139e-03,-3.822615370154380798e-02,-1.249760948121547699e-02
-1.145934499800205231e-02,-5.855631083250045776e-02,-3.637433797121047974e-02,-6.751434411853551865e-03,4.508064314723014832e-02,-7.356774806976318359e-02,2.949194051325321198e-02,2.258427627384662628e-02,-2.735258452594280243e-02
-3.116438165307044983e-02,-3.275736933574080467e-03,-4.286654666066169739e-02,-4.587783291935920715e-02,3.470269963145256042e-02,-6.543526798486709595e-02,1.357985660433769226e-02,2.096553333103656769e-02,-4.445544630289077759e-02
-7.791293319314718246e-03,1.790719293057918549e-02,1.621923968195915222e-02,-1.567368209362030029e-02,3.750541713088750839e-03,1.105782575905323029e-02,-6.949946284294128418e-03,2.236250555142760277e-03,3.554738592356443405e-03
9.599386714398860931e-03,2.256915345788002014e-02,1.475499266234692186e-05,1.739115267992019653e-02,3.936518728733062744e-02,1.210153941065073013e-02,1.134195737540721893e-02,2.600523643195629120e-02,7.539892569184303284e-03
-3.648424148559570312e-02,-1.970277167856693268e-02,-8.665445260703563690e-03,-1.509883441030979156e-02,4.107942432165145874e-02,2.031038748100399971e-03,-3.831970319151878357e-02,-4.866757243871688843e-02,-3.235820308327674866e-02
-1.140941749326884747e-03,-1.293072476983070374e-03,3.341091098263859749e-03,6.526813376694917679e-03,6.401557475328445435e-02,2.669592015445232391e-02,-1.648675464093685150e-02,-2.624179236590862274e-02,-4.183175973594188690e-03
-8.978084661066532135e-03,2.692009788006544113e-03,1.489759981632232666e-02,2.872600220143795013e-02,-3.080713795498013496e-03,-1.798170991241931915e-02,2.035226486623287201e-02,1.043216558173298836e-03,-1.566722057759761810e-02
-1.727897115051746368e-02,-1.803458295762538910e-02,-7.874443690525367856e-05,-1.161254290491342545e-02,2.150333859026432037e-02,1.395540498197078705e-02,-2.255211211740970612e-02,-1.193699706345796585e-02,-2.115117944777011871e-02
1.710398937575519085e-03,1.998227648437023163e-02,-7.988723926246166229e-03,7.247649133205413818e-03,-2.910703048110008240e-02,3.203505277633666992e-02,1.665535755455493927e-02,6.113695446401834488e-03,1.120450178859755397e-04
-7.486938033252954483e-03,1.810274831950664520e-02,-1.772371469996869564e-04,-9.175100363790988922e-03,-6.529063731431961060e-02,1.435345783829689026e-02,1.115438155829906464e-02,-9.379333816468715668e-03,-1.284084748476743698e-03
-2.108270861208438873e-02,1.552259176969528198e-02,-1.350804790854454041e-02,1.279288250952959061e-02,1.023595780134201050e-01,2.014849102124571800e-03,1.074428553692996502e-03,3.725881397258490324e-04,-2.343315072357654572e-02
-1.059182174503803253e-02,5.513843614608049393e-03,2.688239561393857002e-03,-2.240034518763422966e-03,8.715533651411533356e-03,7.560635916888713837e-03,-1.086888369172811508e-02,6.561699323356151581e-03,1.078062457963824272e-03
-1.290857791900634766e-02,-1.907504978589713573e-03,-9.066999889910221100e-03,-2.310301642864942551e-03,1.288860850036144257e-02,1.813332177698612213e-02,-4.929070128127932549e-04,1.284958235919475555e-02,3.266177838668227196e-03
-2.874539233744144440e-02,2.435620687901973724e-02,3.976452350616455078e-02,-1.618276350200176239e-02,2.052770555019378662e-02,1.255921926349401474e-02,-1.251004543155431747e-02,2.951780520379543304e-02,3.780271392315626144e-03
1.044225785881280899e-02,6.531153805553913116e-03,9.482576511800289154e-03,3.192940354347229004e-02,5.489369388669729233e-03,1.064527686685323715e-02,-1.422627829015254974e-02,1.397447381168603897e-02,-6.914657074958086014e-03
4.351239185780286789e-03,2.200200967490673065e-02,6.985229440033435822e-03,5.863761529326438904e-03,-1.797503232955932617e-02,1.265054848045110703e-02,9.422922506928443909e-03,2.037323266267776489e-02,7.803668268024921417e-03
5.950392689555883408e-03,1.316433865576982498e-02,-1.781981252133846283e-02,-8.605732582509517670e-03,-1.633510808460414410e-03,8.287118980661034584e-04,-1.078634988516569138e-02,1.099345157854259014e-03,1.200777385383844376e-02
-1.190192438662052155e-02,1.723593287169933319e-02,-3.241509431973099709e-03,1.903834007680416107e-02,7.569057494401931763e-02,-1.420135702937841415e-02,-1.008768100291490555e-02,-2.310834079980850220e-02,-1.327236369252204895e-02
-8.340165019035339355e-03,-2.989331725984811783e-03,-9.929807856678962708e-03,-1.154773961752653122e-02,2.747359871864318848e-02,8.556335233151912689e-03,1.473117526620626450e-02,1.711680181324481964e-02,6.947537884116172791e-03
4.223162773996591568e-03,1.729251258075237274e-02,-8.855590596795082092e-03,-9.347127750515937805e-03,-3.697680309414863586e-02,-3.025681711733341217e-02,-1.800339482724666595e-02,3.534319810569286346e-03,-4.590011201798915863e-03
1.275928132236003876e-02,-4.083991982042789459e-03,-3.690893994644284248e-03,-2.143107587471604347e-03,3.288811445236206055e-02,1.290090195834636688e-02,8.703432045876979828e-03,-8.364261128008365631e-03,2.594747953116893768e-02
-1.922001317143440247e-02,-2.100753411650657654e-02,-8.297186344861984253e-03,-9.080081246793270111e-03,1.533174328505992889e-02,4.319080035202205181e-04,-6.254269275814294815e-03,1.866600243374705315e-03,-1.593770831823348999e-02
2.331214211881160736e-02,4.061164334416389465e-03,-4.991368856281042099e-03,2.389320358633995056e-02,-9.258743375539779663e-03,-1.760813593864440918e-02,1.203576568514108658e-03,-1.249450724571943283e-02,1.286200340837240219e-02
3.901464166119694710e-03,2.836104296147823334e-02,2.842673845589160919e-02,-6.947790388949215412e-04,-1.363090705126523972e-02,7.543477695435285568e-03,2.193602174520492554e-02,2.215807698667049408e-02,2.394625544548034668e-02
-1.779103651642799377e-02,7.108697667717933655e-03,-1.898958720266819000e-02,-7.273208815604448318e-03,-4.413837194442749023e-02,4.829012323170900345e-03,-5.992277874611318111e-04,3.340589627623558044e-02,4.189062863588333130e-03
2.182636409997940063e-02,1.647904142737388611e-02,7.062506861984729767e-03,8.001736365258693695e-03,-5.295034497976303101e-02,-1.197740901261568069e-03,2.216661721467971802e-02,2.936001494526863098e-02,-9.505788795650005341e-03
1.600237749516963959e-02,4.404578357934951782e-03,-3.541986923664808273e-03,7.090777158737182617e-03,-9.879812598228454590e-03,-5.830428097397089005e-03,1.203730423003435135e-02,2.078855223953723907e-02,2.818832732737064362e-02
-1.106178387999534607e-02,1.510586403310298920e-02,-1.331447856500744820e-03,-3.290309105068445206e-04,1.552781742066144943e-02,4.648589994758367538e-03,-5.054886918514966965e-03,-9.587382897734642029e-03,-1.174843963235616684e-02
-2.208962541772052646e-04,-9.458041749894618988e-03,-1.535673253238201141e-02,7.940770685672760010e-02,6.673067808151245117e-02,5.777564272284507751e-02,1.586494967341423035e-02,1.101725548505783081e-02,2.072268165647983551e-02
-2.768276631832122803e-02,1.854835427366197109e-03,-1.263526454567909241e-02,-1.562960073351860046e-02,-1.253107655793428421e-02,-6.377052981406450272e-03,-2.686971565708518028e-03,4.304355941712856293e-03,7.230479270219802856e-03
1.330103632062673569e-02,6.036910694092512131e-03,-1.836605556309223175e-02,1.543330121785402298e-02,-1.292779594659805298e-01,9.495100937783718109e-03,-1.249207416549324989e-03,1.033819094300270081e-02,8.437866345047950745e-03
-1.351811643689870834e-02,3.012735955417156219e-02,8.101053535938262939e-03,-6.485408172011375427e-03,6.354746967554092407e-02,1.538222935050725937e-02,-8.567652665078639984e-03,7.850989699363708496e-03,3.158477833494544029e-03
-9.171957150101661682e-03,1.371181290596723557e-02,8.696794509887695312e-03,3.337296424433588982e-03,8.634051308035850525e-03,-3.617643844336271286e-03,-1.976517774164676666e-02,7.609967608004808426e-03,1.166153978556394577e-02
1.965554058551788330e-02,2.647388493642210960e-03,-4.425635561347007751e-03,1.363952411338686943e-03,3.073231875896453857e-02,1.101940777152776718e-02,2.003658330067992210e-03,-8.239354006946086884e-03,-9.048188105225563049e-03
-1.173014286905527115e-02,-2.038837596774101257e-02,-1.412615738809108734e-02,-1.519991364330053329e-02,-4.036715626716613770e-02,3.323978511616587639e-03,-1.174396276473999023e-02,-4.829427052754908800e-04,5.295235663652420044e-03
-7.023681886494159698e-03,7.743756752461194992e-03,-9.800000116229057312e-03,3.011824004352092743e-02,7.399597205221652985e-03,-4.271746613085269928e-03,9.150385856628417969e-03,6.311156786978244781e-03,-5.050987470895051956e-03
-7.983986288309097290e-03,-3.670524340122938156e-03,-7.481170352548360825e-03,1.390503533184528351e-02,6.077143549919128418e-02,5.024174693971872330e-03,1.163911167532205582e-02,5.192152690142393112e-03,-1.074521522969007492e-02
1.900491118431091309e-02,1.407875586301088333e-02,-5.207522306591272354e-03,-4.128513101022690535e-04,1.095929462462663651e-02,1.741923391819000244e-03,-3.685533627867698669e-02,-2.407197840511798859e-02,-1.211850903928279877e-02
1.687425933778285980e-02,2.154047414660453796e-02,1.031985320150852203e-02,1.687286049127578735e-02,7.350577972829341888e-03,1.469146832823753357e-02,1.630374789237976074e-02,3.037885529920458794e-03,5.529655143618583679e-03
7.289838511496782303e-03,3.535858541727066040e-02,3.552259132266044617e-02,9.097325615584850311e-03,8.518118411302566528e-03,1.874229684472084045e-02,1.548501104116439819e-02,-9.143778122961521149e-03,-1.513276016339659691e-03
-3.378036781214177608e-04,4.720787401311099529e-04,-6.292227189987897873e-03,1.366920303553342819e-02,-2.154946140944957733e-02,-2.105154097080230713e-02,-2.132009342312812805e-02,-2.159867249429225922e-02,-1.651978865265846252e-02
2.397611923515796661e-02,1.848921738564968109e-02,1.630329340696334839e-02,3.096438571810722351e-02,2.284018881618976593e-02,6.065661087632179260e-03,2.903578057885169983e-02,1.682245917618274689e-02,-1.996990060433745384e-03
7.029277621768414974e-04,-2.186180325224995613e-03,5.181423854082822800e-03,1.052525080740451813e-02,4.244031384587287903e-02,2.302748709917068481e-02,3.153064288198947906e-03,-5.564158782362937927e-03,2.049525082111358643e-02
4.887372255325317383e-03,-1.752488198690116405e-03,7.561468053609132767e-03,-2.603359986096620560e-03,-3.833022713661193848e-02,-3.909933380782604218e-03,-1.587318629026412964e-02,2.601791173219680786e-02,-1.120046479627490044e-03
-1.949038356542587280e-02,-1.047242898494005203e-02,1.574610173702239990e-02,2.041211538016796112e-02,4.748618602752685547e-02,6.416569231078028679e-04,1.079348195344209671e-02,-4.740646108984947205e-03,-1.215286087244749069e-03
9.729800745844841003e-03,-9.576646611094474792e-03,1.020246371626853943e-02,1.362182386219501495e-02,3.248665854334831238e-02,7.375282701104879379e-03,-1.608453132212162018e-02,9.526939829811453819e-04,1.405230723321437836e-02
2.141030877828598022e-02,-1.056250301189720631e-03,3.079310758039355278e-03,1.359367556869983673e-02,1.587490987731143832e-04,-4.455227404832839966e-03,1.159428805112838745e-02,5.509608425199985504e-03,6.098748650401830673e-03
1.983956806361675262e-02,1.208506338298320770e-02,-8.234557695686817169e-03,1.829129271209239960e-02,-2.444544341415166855e-03,-2.109167724847793579e-02,3.818259388208389282e-02,1.014202460646629333e-02,-2.878698706626892090e-02
3.074013162404298782e-03,-1.371997641399502754e-03,-4.737003240734338760e-03,5.302193574607372284e-03,3.100576810538768768e-03,1.419798820279538631e-03,-3.755002515390515327e-03,-1.114659477025270462e-02,-8.297174237668514252e-03
-2.453422918915748596e-02,1.702561229467391968e-02,-2.312872745096683502e-02,1.595386490225791931e-02,-6.155795231461524963e-02,8.024162612855434418e-03,-8.207309292629361153e-04,-3.337709000334143639e-03,-1.762443594634532928e-02
1.404839754104614258e-02,-4.157491493970155716e-03,1.790725253522396088e-02,3.679050132632255554e-02,2.501327171921730042e-02,2.340244315564632416e-02,-5.271795089356601238e-04,1.615334860980510712e-02,5.002608988434076309e-03
4.133541882038116455e-02,3.444510698318481445e-02,2.386686764657497406e-02,4.246361181139945984e-02,-8.633151650428771973e-02,4.512519016861915588e-02,4.107523709535598755e-02,3.207958862185478210e-02,2.839782834053039551e-02
-3.924265547539107502e-05,5.843036808073520660e-03,-2.340509323403239250e-03,3.749606898054480553e-03,1.054422277957201004e-02,-5.464417394250631332e-03,-7.387399207800626755e-03,5.435670260339975357e-03,-3.021904267370700836e-03
-3.081548027694225311e-02,1.340138074010610580e-02,1.200537662953138351e-03,5.280988756567239761e-03,1.748298406600952148e-01,4.204559605568647385e-03,-1.409588009119033813e-02,-8.631696924567222595e-03,2.448628656566143036e-02
-1.152528729289770126e-02,-6.295552011579275131e-03,-6.162655190564692020e-04,1.789728365838527679e-02,-6.210010871291160583e-02,-1.272766757756471634e-02,-1.658756844699382782e-02,2.595203742384910583e-02,-1.667960546910762787e-02
-3.164136037230491638e-02,4.152222070842981339e-03,-6.017688661813735962e-03,-1.073887944221496582e-02,8.833843283355236053e-03,-6.233469117432832718e-03,-1.921229250729084015e-02,-1.361646130681037903e-02,1.105316169559955597e-02
-9.052118286490440369e-03,-1.132765784859657288e-02,-2.679485455155372620e-02,-1.619664393365383148e-02,-3.122766688466072083e-02,-9.175945073366165161e-03,1.866481453180313110e-02,1.537145674228668213e-02,-2.715585753321647644e-02
1.068736519664525986e-02,-1.145147532224655151e-02,-1.872261986136436462e-02,-1.306856330484151840e-02,1.559820026159286499e-01,2.500502951443195343e-02,-3.765672445297241211e-03,-4.499700665473937988e-02,1.229740492999553680e-02
2.991931326687335968e-02,3.380719944834709167e-02,1.954719610512256622e-02,3.177275508642196655e-02,3.504394367337226868e-02,3.556703031063079834e-02,2.611857466399669647e-02,4.192860051989555359e-02,1.656811498105525970e-02
-6.604820024222135544e-03,8.844900876283645630e-03,-1.442155148833990097e-02,-3.566103754565119743e-03,-1.563264429569244385e-02,5.698390305042266846e-03,5.779411643743515015e-03,-1.106543350033462048e-03,-9.972092695534229279e-03
8.737937547266483307e-03,1.767439022660255432e-02,2.820218913257122040e-02,-2.637468650937080383e-02,-3.055827692151069641e-02,3.040382172912359238e-03,9.261839091777801514e-03,2.590390481054782867e-02,1.520364638417959213e-02
1.365791261196136475e-02,4.316144809126853943e-02,1.079297997057437897e-02,9.645842947065830231e-03,1.421042997390031815e-02,1.081874966621398926e-02,-1.525832898914813995e-02,7.739740423858165741e-03,1.444731932133436203e-02
-5.247469991445541382e-03,-7.536816410720348358e-03,-5.766332615166902542e-03,-6.599357351660728455e-03,-8.191011846065521240e-03,-7.548979483544826508e-03,-8.581087924540042877e-03,-5.274794995784759521e-03,-4.789886064827442169e-03
-3.900129720568656921e-02,-1.727759838104248047e-02,-4.785272851586341858e-02,-3.476646542549133301e-02,-2.331807464361190796e-02,-7.744091562926769257e-03,-6.231085211038589478e-02,-4.009497538208961487e-02,-2.000039070844650269e-02
1.095646899193525314e-02,-1.407961361110210419e-03,-3.470722120255231857e-03,2.489260165020823479e-03,1.566221565008163452e-02,1.577815786004066467e-02,3.708158619701862335e-03,-3.071895241737365723e-02,-1.508153136819601059e-02
-2.486846409738063812e-03,-3.058087313547730446e-04,4.288005642592906952e-03,-8.014040067791938782e-03,4.148325696587562561e-02,-5.232071503996849060e-03,-8.985782973468303680e-03,4.942778963595628738e-03,-1.073670922778546810e-03
-7.325741928070783615e-03,-1.553002279251813889e-02,-3.197544021531939507e-03,1.260358095169067383e-02,9.815579280257225037e-03,1.430038083344697952e-02,1.431090198457241058e-02,-4.904470872133970261e-03,7.243521977216005325e-04
4.863374400883913040e-03,1.175580080598592758e-02,-2.262582536786794662e-03,3.151405975222587585e-02,5.585445463657379150e-02,2.107606641948223114e-02,2.343137562274932861e-02,1.557675562798976898e-02,1.834481582045555115e-02
-6.156446412205696106e-02,-4.859865829348564148e-02,-4.887682944536209106e-02,-3.921901434659957886e-02,-3.943620622158050537e-02,-3.259085863828659058e-02,-3.967770934104919434e-02,-3.525695204734802246e-02,-3.027932718396186829e-02
9.622735902667045593e-03,1.838972046971321106e-02,-5.871092434972524643e-04,-2.050464972853660583e-02,-4.112364724278450012e-02,-9.969674982130527496e-03,-4.818984773010015488e-03,1.636544801294803619e-02,-4.205085802823305130e-03
-5.003661848604679108e-03,2.525589615106582642e-02,5.598737858235836029e-03,7.159202359616756439e-03,-2.127247117459774017e-02,2.564915828406810760e-02,-1.742320600897073746e-03,1.687578484416007996e-02,-1.211026590317487717e-02
-1.162780355662107468e-02,-2.588173374533653259e-02,-1.874077320098876953e-02,-3.525091335177421570e-02,2.290819399058818817e-02,-3.509456664323806763e-02,-2.911780215799808502e-02,-1.625026017427444458e-02,-1.408928819000720978e-02
-1.003247126936912537e-02,1.605738652870059013e-04,2.258182503283023834e-02,-2.225455682491883636e-04,1.632650848478078842e-03,-3.404892515391111374e-03,2.130804583430290222e-02,2.379850670695304871e-02,-6.250492879189550877e-04
-2.291165292263031006e-02,-2.643930027261376381e-03,-7.793206721544265747e-03,1.406534574925899506e-02,-5.200302693992853165e-03,9.619687683880329132e-03,-1.650286093354225159e-02,-5.906360689550638199e-03,-6.288908421993255615e-03
9.352585300803184509e-03,4.436054825782775879e-02,2.115240879356861115e-02,1.010648347437381744e-02,-1.416260153055191040e-01,2.236505039036273956e-02,8.449748158454895020e-03,-4.708442371338605881e-03,1.710322499275207520e-02
5.528493318706750870e-03,1.059386413544416428e-02,1.374744577333331108e-03,6.677413359284400940e-03,-4.316295310854911804e-02,2.902091713622212410e-03,-2.220083260908722878e-03,4.885034170001745224e-03,-5.856326315551996231e-03
-4.482464492321014404e-02,-2.994523197412490845e-02,-2.375342696905136108e-02,-3.356584906578063965e-02,1.386695075780153275e-02,-2.923110313713550568e-02,-1.401696074753999710e-02,-1.317785121500492096e-02,-4.110883548855781555e-02
1.413066778331995010e-02,4.723658040165901184e-02,2.510373108088970184e-02,2.813498256728053093e-03,-8.821865171194076538e-02,4.703346174210309982e-03,2.682652790099382401e-03,1.192517764866352081e-02,1.552311237901449203e-02
-2.103497274219989777e-03,-1.677861995995044708e-02,-2.717609095270745456e-05,-2.526425290852785110e-03,-2.313956432044506073e-02,-7.137176580727100372e-03,-9.190672077238559723e-03,1.987160556018352509e-02,5.371505860239267349e-03
-7.415540167130529881e-04,-9.513901546597480774e-03,-6.810830906033515930e-03,3.445137524977326393e-03,-2.118182368576526642e-02,-3.560288622975349426e-02,-1.609969697892665863e-02,-1.694828085601329803e-02,-9.419264271855354309e-03
-9.191142395138740540e-03,-2.587142586708068848e-02,-1.087776501663029194e-03,3.499022219330072403e-03,2.183236926794052124e-02,1.137060951441526413e-02,-3.972853068262338638e-03,2.959222160279750824e-02,1.895652967505156994e-03
8.069916628301143646e-03,1.704234816133975983e-02,-1.254045870155096054e-02,-1.277556922286748886e-02,-7.358652353286743164e-02,4.899607505649328232e-03,-1.380706671625375748e-04,8.529406040906906128e-03,-9.146635420620441437e-04
2.589030005037784576e-02,4.857453051954507828e-03,-6.681749597191810608e-03,1.400708453729748726e-03,1.072356384247541428e-02,-2.483151480555534363e-02,4.051672294735908508e-03,6.244326010346412659e-03,-1.724836416542530060e-02
-1.721928641200065613e-02,-3.388716652989387512e-02,-2.956219762563705444e-02,2.981258183717727661e-02,9.609837830066680908e-02,-1.125715114176273346e-02,-6.368664093315601349e-03,-2.988259773701429367e-03,-5.189605988562107086e-03
-2.339189127087593079e-02,-1.810913346707820892e-02,7.892154157161712646e-03,1.310452912002801895e-02,5.491605773568153381e-02,3.477725759148597717e-02,-7.943290285766124725e-03,2.399935387074947357e-03,-1.256076432764530182e-02
-1.769807189702987671e-02,-1.681581884622573853e-02,6.965321954339742661e-03,7.730782963335514069e-03,8.686427958309650421e-03,6.127084605395793915e-03,5.138425156474113464e-03,3.714829450473189354e-03,1.304086949676275253e-02
-2.335444279015064240e-02,-3.612431231886148453e-03,9.428918361663818359e-03,9.968971833586692810e-03,-8.583656162954866886e-04,2.493893913924694061e-02,1.483548898249864578e-02,1.348363887518644333e-02,6.096156779676675797e-03
-1.178407296538352966e-02,2.750784903764724731e-02,-7.755896542221307755e-03,1.875796541571617126e-02,3.114120662212371826e-02,2.658626809716224670e-02,8.479376323521137238e-03,-2.105980738997459412e-02,-9.858299046754837036e-03
-1.336697489023208618e-02,-1.065993402153253555e-02,8.604164235293865204e-03,1.117465202696621418e-03,1.193973571062088013e-01,4.443999379873275757e-02,-1.497751194983720779e-02,-2.228116989135742188e-02,-3.607387654483318329e-03
-1.131092570722103119e-02,-9.702696464955806732e-03,5.147322546690702438e-03,3.203690797090530396e-02,1.906113177537918091e-01,2.420453540980815887e-02,-1.449499512091279030e-03,-1.789104007184505463e-02,9.735329076647758484e-03
-1.327215880155563354e-02,-2.281665615737438202e-02,-1.752379350364208221e-02,-2.853628946468234062e-03,-6.681182887405157089e-03,-9.043378755450248718e-03,-1.528925448656082153e-02,-1.365075167268514633e-02,-7.309140637516975403e-03
-1.742869801819324493e-02,3.795483335852622986e-02,2.094067074358463287e-02,-1.424974948167800903e-02,5.839629843831062317e-02,3.461299836635589600e-02,-1.140182185918092728e-02,3.274823725223541260e-02,2.726835384964942932e-02
4.067768342792987823e-03,-8.346606628037989140e-04,-1.137619279325008392e-02,-7.547975331544876099e-02,-6.446556746959686279e-02,-8.610718697309494019e-02,-3.159302100539207458e-02,-3.489454835653305054e-02,-3.641893342137336731e-02
1.361506991088390350e-02,6.939322687685489655e-03,1.785105653107166290e-02,-8.445203304290771484e-03,3.940366208553314209e-02,1.386260800063610077e-02,2.152943797409534454e-02,9.985351935029029846e-03,1.311993692070245743e-02
-7.414211984723806381e-03,-1.252055540680885315e-02,-2.750170789659023285e-02,1.855745352804660797e-02,5.556751787662506104e-02,4.981057718396186829e-02,3.489533904939889908e-03,9.176192805171012878e-03,1.516238879412412643e-02
-1.909466646611690521e-02,1.075515709817409515e-02,-1.756156980991363525e-02,-5.912888329476118088e-03,-5.854230001568794250e-02,3.996548801660537720e-02,-7.245031651109457016e-03,-7.878122851252555847e-03,-1.601200364530086517e-02
1.331323292106389999e-02,-4.960556048899888992e-03,3.477807156741619110e-03,5.268413806334137917e-04,3.519672527909278870e-02,1.220916304737329483e-02,1.631778315640985966e-03,8.070376701653003693e-03,1.401380519382655621e-03
5.814530886709690094e-03,-1.215529441833496094e-02,9.324194863438606262e-03,1.278527732938528061e-02,4.981750249862670898e-02,-1.053831656463444233e-03,2.197611331939697266e-02,2.647228911519050598e-02,1.677651191130280495e-03
1.035925187170505524e-02,3.018558584153652191e-02,1.690147072076797485e-02,-1.478726137429475784e-02,5.049095023423433304e-03,3.636626899242401123e-02,1.632699370384216309e-02,-7.853510789573192596e-03,1.345345471054315567e-02
-4.827364347875118256e-03,1.210269238799810410e-02,1.605566963553428650e-02,1.657453924417495728e-02,-1.202090294100344181e-03,6.159046664834022522e-02,-1.851044595241546631e-02,1.051275897771120071e-02,8.019204251468181610e-03
-4.893973842263221741e-02,-3.223606199026107788e-02,-2.406752854585647583e-02,-3.403693437576293945e-02,3.252818435430526733e-02,-1.475026458501815796e-02,-2.252272889018058777e-02,-1.181057002395391464e-02,2.245134965050965548e-05
1.055564545094966888e-02,2.479489706456661224e-02,-6.167780607938766479e-03,-3.152027260512113571e-03,-7.492872420698404312e-03,5.068742670118808746e-03,-4.563103429973125458e-03,4.124918021261692047e-03,7.735703606158494949e-03
1.081982534378767014e-02,7.895071990787982941e-03,-7.530048605985939503e-04,1.300040632486343384e-02,2.495043538510799408e-02,9.100184775888919830e-03,3.925095312297344208e-03,1.392267458140850067e-02,5.206502508372068405e-03
-1.242127828299999237e-02,1.134035829454660416e-02,6.604254595004022121e-04,-1.652894169092178345e-02,-1.781984232366085052e-02,9.712761966511607170e-04,-1.028862595558166504e-02,-1.571104303002357483e-02,-2.306231483817100525e-02
2.279967442154884338e-02,1.143922680057585239e-03,-7.752920966595411301e-03,-2.165297791361808777e-02,-1.905433088541030884e-02,1.690145023167133331e-02,1.652882806956768036e-02,3.618748486042022705e-02,1.615445502102375031e-02
7.807576563209295273e-03,6.760489661246538162e-03,2.079005120322108269e-03,2.834044769406318665e-02,6.991450674831867218e-03,1.613444834947586060e-02,1.394268963485956192e-02,1.641791313886642456e-02,1.479060389101505280e-03
1.727379858493804932e-02,4.749609902501106262e-02,-6.852136924862861633e-03,1.854678802192211151e-02,-1.452997885644435883e-02,1.075268536806106567e-02,-4.197337199002504349e-03,-2.530454844236373901e-02,7.635978050529956818e-03
1.369641534984111786e-02,4.395514726638793945e-03,-8.340271189808845520e-03,1.239668298512697220e-02,-9.525330737233161926e-03,-2.649138495326042175e-02,1.073666475713253021e-02,-1.725561916828155518e-02,-1.896124146878719330e-02
7.075035013258457184e-03,7.657961687073111534e-04,2.355417609214782715e-02,9.116625413298606873e-03,-4.150537401437759399e-02,-9.485675953328609467e-03,2.304900996387004852e-02,3.287382051348686218e-02,7.774746045470237732e-03
-3.078146837651729584e-03,4.570549353957176208e-03,-4.148880019783973694e-02,1.194449327886104584e-02,-1.037340685725212097e-01,-9.339522570371627808e-03,1.824005320668220520e-02,3.336490364745259285e-03,-1.565574086271226406e-03
1.914325356483459473e-02,1.950324699282646179e-02,3.203859552741050720e-03,1.664723851718008518e-03,-1.307528186589479446e-02,-5.075677298009395599e-03,-1.014751009643077850e-02,-2.505447901785373688e-02,-9.910006076097488403e-03
-1.617787784198299050e-04,-4.667327273637056351e-03,-2.909024478867650032e-03,-1.913562603294849396e-02,-7.820704951882362366e-03,8.589915931224822998e-03,1.227932889014482498e-02,-3.518757643178105354e-03,-1.872913166880607605e-02
-2.663327939808368683e-02,-9.188193827867507935e-03,1.711747841909527779e-03,-1.208225451409816742e-02,-4.832203499972820282e-03,-9.458973072469234467e-03,1.644521206617355347e-02,-1.189411804080009460e-02,-6.620892323553562164e-03
-2.173715271055698395e-03,2.758713252842426300e-02,-3.986845910549163818e-02,-7.581336540170013905e-04,-1.764547079801559448e-02,-6.846867036074399948e-03,-9.391832165420055389e-03,2.471522986888885498e-02,-2.358000725507736206e-03
-1.243772357702255249e-02,1.751768775284290314e-02,2.274791151285171509e-02,1.576427929103374481e-02,4.856914281845092773e-02,-2.657045610249042511e-03,1.307847071439027786e-02,-3.719903295859694481e-03,1.522382162511348724e-02
-2.271744422614574432e-02,-1.602260023355484009e-02,-2.032195962965488434e-02,-1.724426820874214172e-02,5.724499002099037170e-02,1.367040723562240601e-02,9.382173418998718262e-03,-4.468722268939018250e-03,-4.850382916629314423e-03
-4.703072365373373032e-03,-1.033357437700033188e-02,-3.310110419988632202e-02,6.072505377233028412e-03,3.344561671838164330e-03,-1.751444488763809204e-02,-1.317177712917327881e-02,-8.454853668808937073e-03,-1.659749075770378113e-02
3.602822544053196907e-03,4.241036251187324524e-02,-2.912525320425629616e-03,1.494520157575607300e-02,-6.081910058856010437e-02,-1.879812218248844147e-02,5.920918192714452744e-03,-1.376886357320472598e-04,8.141034049913287163e-04
-1.473083905875682831e-02,-2.292939275503158569e-02,-2.879754267632961273e-02,-1.848126389086246490e-02,9.186335653066635132e-02,-7.186464034020900726e-03,1.592216547578573227e-03,-8.291617035865783691e-03,1.371193956583738327e-02
-1.813053712248802185e-02,1.687100343406200409e-02,-1.707748509943485260e-02,7.413583807647228241e-04,-7.010549306869506836e-02,-3.522153943777084351e-02,7.037821691483259201e-03,9.931245818734169006e-03,9.617086499929428101e-03
-2.804791368544101715e-02,-5.886927247047424316e-03,-4.022204317152500153e-03,-5.876288283616304398e-03,-1.285057794302701950e-02,-1.331075280904769897e-02,6.654291879385709763e-03,-9.563491679728031158e-03,-8.643653243780136108e-03
2.029459364712238312e-02,2.671395055949687958e-02,6.042819935828447342e-03,-6.905864458531141281e-03,-2.380948700010776520e-02,-1.992947654798626900e-03,3.559607639908790588e-02,-1.091003417968750000e-02,-3.058233065530657768e-03
3.497394174337387085e-02,1.022676285356283188e-02,1.638884842395782471e-02,4.143215715885162354e-03,-1.979750767350196838e-02,2.266487665474414825e-02,5.064265336841344833e-03,3.190277144312858582e-02,3.160108812153339386e-03
1.002635527402162552e-02,4.328934475779533386e-03,3.755738260224461555e-03,4.250911995768547058e-03,3.474749252200126648e-02,-1.718248240649700165e-02,-1.389574911445379257e-02,-4.590869881212711334e-03,-2.409555949270725250e-02
-1.190442312508821487e-02,-1.114116981625556946e-03,2.140888199210166931e-02,1.666046679019927979e-02,1.571879684925079346e-01,9.612204506993293762e-03,2.412495668977499008e-03,-1.628433121368288994e-03,1.040124706923961639e-02
3.464337065815925598e-02,2.074728161096572876e-02,9.236845187842845917e-03,3.998551517724990845e-02,1.084354054182767868e-02,1.732904464006423950e-02,6.373043637722730637e-03,-1.115900184959173203e-02,1.055262517184019089e-02
-4.359790123999118805e-03,-3.211393253877758980e-03,1.029229955747723579e-03,-3.114029066637158394e-03,-2.229785080999135971e-03,-1.063914620317518711e-03,-2.551328856498003006e-03,-4.315328784286975861e-03,-1.996048493310809135e-03
-4.173082485795021057e-02,4.204875789582729340e-03,-5.589928105473518372e-02,-3.630829975008964539e-02,-2.556085772812366486e-02,-2.039722632616758347e-03,-3.826134279370307922e-02,-4.677452147006988525e-02,-5.091254785656929016e-02
-2.988830395042896271e-02,1.004975475370883942e-02,4.818907007575035095e-03,-2.151755802333354950e-02,-9.627765417098999023e-02,-1.922997459769248962e-02,5.851323250681161880e-03,-2.007660269737243652e-02,-2.775706117972731590e-03
1.322489511221647263e-02,-2.188470587134361267e-02,7.023649290204048157e-03,-1.916354289278388023e-03,9.848069399595260620e-03,2.813702262938022614e-02,-2.859193831682205200e-02,8.565130992792546749e-04,-1.055016089230775833e-02
-1.847425848245620728e-02,7.067439612001180649e-03,-1.887982711195945740e-02,-3.810232877731323242e-02,-3.406022861599922180e-02,-3.742740675806999207e-02,-1.100195944309234619e-02,2.955587953329086304e-02,-9.218800696544349194e-04
-1.086714025586843491e-02,-1.698122546076774597e-02,2.531920326873660088e-04,-1.280508656054735184e-02,-3.576100990176200867e-02,7.894353941082954407e-03,4.130318388342857361e-02,-1.442017685621976852e-02,8.413289673626422882e-03
-2.492580376565456390e-02,-2.722869254648685455e-02,-8.679661899805068970e-03,-5.456693470478057861e-03,-8.662085235118865967e-02,9.332197718322277069e-03,-2.936180867254734039e-02,-9.427635930478572845e-03,1.298689097166061401e-02
5.030442960560321808e-03,2.936495700851082802e-03,9.351192042231559753e-03,-3.114463761448860168e-02,3.565784916281700134e-02,-1.690006628632545471e-02,-1.051913108676671982e-02,-2.947925217449665070e-02,-4.656144010368734598e-04
3.583109006285667419e-02,1.867038011550903320e-02,1.430343021638691425e-03,6.128578260540962219e-02,7.637987285852432251e-02,5.178551748394966125e-02,6.928794831037521362e-02,5.267102271318435669e-02,3.976292535662651062e-02
-9.498610161244869232e-03,-2.397467382252216339e-02,-1.162066310644149780e-02,-3.513779863715171814e-02,-5.867313593626022339e-02,-3.253037109971046448e-02,-1.454082410782575607e-02,-5.257538869045674801e-04,-5.309224594384431839e-03
9.060273878276348114e-03,3.850391879677772522e-02,1.520233228802680969e-02,3.241817280650138855e-02,-3.617599606513977051e-02,3.283947007730603218e-03,3.252476453781127930e-02,2.357090637087821960e-02,1.158767146989703178e-03
1.968114450573921204e-02,-1.569959521293640137e-02,2.217460796236991882e-02,2.890137396752834320e-02,5.924804136157035828e-02,5.166712217032909393e-03,9.729905053973197937e-03,2.526634931564331055e-02,2.178201265633106232e-02
3.300365060567855835e-03,2.742419019341468811e-02,2.602525800466537476e-02,3.780935658141970634e-03,1.667803525924682617e-02,-2.702619414776563644e-03,2.128305277437902987e-05,5.776955280452966690e-03,3.634399326983839273e-04
3.090308047831058502e-02,1.595147512853145599e-02,2.977880649268627167e-03,1.051953993737697601e-02,5.093243718147277832e-02,-9.144197218120098114e-03,2.115726657211780548e-02,1.940177008509635925e-02,-1.442459644749760628e-03
2.666163491085171700e-03,-1.942466199398040771e-02,1.031863284879364073e-04,1.424624025821685791e-02,-1.523233857005834579e-02,-1.566039957106113434e-02,3.000361099839210510e-02,1.233109552413225174e-02,-3.075299225747585297e-02
1.094979606568813324e-02,7.975282147526741028e-03,2.892598137259483337e-02,-3.851989656686782837e-02,6.121524423360824585e-02,-1.013013999909162521e-02,1.463985536247491837e-02,1.927599683403968811e-02,2.073633484542369843e-02
-1.325317472219467163e-02,2.468578144907951355e-02,4.835710860788822174e-03,-3.372466564178466797e-02,2.125211618840694427e-02,5.258298944681882858e-03,-5.274442024528980255e-03,-8.861219510436058044e-03,-4.494030959904193878e-03
-1.769660855643451214e-03,1.269045285880565643e-02,-3.437556698918342590e-02,9.774980135262012482e-03,-1.069350261241197586e-02,-6.161845754832029343e-03,-2.217506244778633118e-02,-5.849414970725774765e-03,-3.080374188721179962e-02
-1.091422885656356812e-02,-3.449739515781402588e-02,-2.041601389646530151e-02,1.539147458970546722e-02,-5.398520734161138535e-03,-3.589541185647249222e-03,-2.118341438472270966e-02,-4.930109530687332153e-02,1.217047218233346939e-02
-3.190046921372413635e-02,3.002612665295600891e-02,-3.437433624640107155e-03,-2.896931208670139313e-02,4.451406374573707581e-02,-9.064695797860622406e-03,-2.422932768240571022e-03,-2.102446369826793671e-02,-2.204078016802668571e-03
-3.349066153168678284e-02,-2.954012714326381683e-02,-1.067975629121065140e-02,3.629585355520248413e-02,1.052171085029840469e-02,-6.246713176369667053e-02,1.813761889934539795e-02,-2.167828194797039032e-02,-3.193951770663261414e-02
1.769048161804676056e-02,2.281875815242528915e-03,4.929083865135908127e-03,1.202810276299715042e-02,-8.298059552907943726e-02,1.933361589908599854e-02,7.306919898837804794e-03,5.751080345362424850e-03,4.882034379988908768e-03
7.449328899383544922e-03,8.003164082765579224e-03,-1.347190607339143753e-02,4.192652180790901184e-03,-1.201991811394691467e-01,-3.768943948671221733e-03,-6.318734493106603622e-03,1.784040592610836029e-02,1.328404527157545090e-02
3.216747939586639404e-02,1.670475676655769348e-02,2.750693820416927338e-02,1.275764312595129013e-02,3.189156530424952507e-03,1.095683500170707703e-02,1.216773129999637604e-02,3.258338570594787598e-02,3.095190227031707764e-02
1.714399270713329315e-02,6.575014907866716385e-03,3.309851512312889099e-02,2.191440016031265259e-02,-9.595782496035099030e-03,4.012601450085639954e-03,1.392159704118967056e-02,-1.066120603354647756e-04,1.874500513076782227e-02
1.793292909860610962e-02,2.836308907717466354e-03,3.022683225572109222e-02,2.339436113834381104e-02,1.661085337400436401e-02,-1.459570974111557007e-02,4.836578853428363800e-03,7.757082581520080566e-03,-3.613539040088653564e-02
-1.528073102235794067e-03,-6.185179110616445541e-03,-1.547394494991749525e-04,4.445986449718475342e-02,-6.525518000125885010e-02,3.520951047539710999e-02,-6.925216875970363617e-03,2.254939079284667969e-02,-2.215929096564650536e-03
2.337444014847278595e-02,2.373784035444259644e-02,1.396473031491041183e-02,-4.377287405077368021e-04,-4.377727955579757690e-02,-7.512153824791312218e-04,3.228352172300219536e-03,3.582047671079635620e-02,-1.936854608356952667e-02
-2.304714545607566833e-02,-3.465212509036064148e-02,-4.834364354610443115e-02,2.178789675235748291e-02,3.165398910641670227e-02,-1.030387450009584427e-02,1.511187851428985596e-02,5.536784883588552475e-04,-4.852115362882614136e-02
-3.845660947263240814e-03,-4.754795134067535400e-02,-1.002792455255985260e-02,-2.459912793710827827e-03,-7.093694806098937988e-02,-1.489853113889694214e-02,-2.105389349162578583e-02,-6.120714545249938965e-02,-7.314045447856187820e-03
4.352581687271595001e-03,3.817788092419505119e-03,8.114709518849849701e-03,1.755205355584621429e-02,-5.744037218391895294e-03,-8.808122947812080383e-03,-1.779187656939029694e-02,-2.505661360919475555e-02,-1.556650456041097641e-02
3.349291533231735229e-02,8.858778513967990875e-03,-6.604862399399280548e-03,3.924201056361198425e-02,5.641359370201826096e-03,-2.894129790365695953e-02,4.685091972351074219e-02,-2.021488361060619354e-02,4.110646434128284454e-03
-5.743860732764005661e-03,-1.300623081624507904e-02,4.271708894520998001e-03,1.700722030363976955e-03,3.402257338166236877e-02,-2.647362276911735535e-02,1.412229333072900772e-02,-2.173864468932151794e-02,-1.746793836355209351e-02
-5.328342691063880920e-02,-2.543933689594268799e-02,-2.985079213976860046e-02,-3.171068802475929260e-02,-4.399766400456428528e-02,-1.039973832666873932e-02,-8.601623587310314178e-03,-4.556870087981224060e-02,-8.168464526534080505e-03
-9.047045372426509857e-03,-2.320585772395133972e-03,-5.413490813225507736e-03,3.770366311073303223e-02,-3.018270060420036316e-02,2.771575003862380981e-02,2.027244679629802704e-02,6.171888671815395355e-03,1.108222268521785736e-02
1.630764454603195190e-02,3.035737015306949615e-02,-1.371968071907758713e-02,3.198852017521858215e-02,-5.357585102319717407e-02,1.991560682654380798e-02,1.266930624842643738e-02,2.928410097956657410e-02,2.574262209236621857e-02
3.869390347972512245e-03,1.584920287132263184e-02,3.303616866469383240e-02,-2.274305792525410652e-03,7.672551274299621582e-02,-2.150025591254234314e-02,2.651974325999617577e-03,3.166708350181579590e-02,3.402793547138571739e-03
4.510943312197923660e-03,2.385256066918373108e-02,1.629984751343727112e-02,5.057145655155181885e-02,1.752784848213195801e-02,6.354115437716245651e-03,3.244721516966819763e-02,-5.486955633386969566e-04,7.338006515055894852e-03
-1.598355919122695923e-02,-2.561401948332786560e-02,5.473363213241100311e-03,-1.769839413464069366e-02,-1.123891100287437439e-01,-5.253227427601814270e-02,-2.962851896882057190e-02,-5.464425310492515564e-02,-3.996343538165092468e-02
-8.900573477149009705e-03,1.228982023894786835e-02,-2.309246174991130829e-02,-1.190895028412342072e-02,2.666141092777252197e-02,-7.162382360547780991e-03,3.098555095493793488e-02,2.887596748769283295e-02,2.889624238014221191e-02
9.320020675659179688e-03,-1.594346389174461365e-02,-4.546236712485551834e-03,-1.488123182207345963e-02,2.125461027026176453e-02,-1.392428018152713776e-02,-1.712967990897595882e-03,-1.332057826220989227e-02,4.078045894857496023e-04
-8.897223509848117828e-03,3.160585463047027588e-02,-4.816159140318632126e-03,-2.440576814115047455e-02,-7.945343852043151855e-03,2.154471585527062416e-03,-4.916404187679290771e-02,-1.826038956642150879e-02,-4.553551971912384033e-02
-3.166786395013332367e-03,8.585313917137682438e-04,2.060939325019717216e-03,-6.426271051168441772e-03,3.356291726231575012e-02,-1.865362562239170074e-02,2.840033918619155884e-02,5.387556739151477814e-03,-2.099978737533092499e-02
1.192395854741334915e-02,1.146472524851560593e-02,1.359762903302907944e-02,-1.184973516501486301e-03,-1.798455789685249329e-02,1.993010938167572021e-02,7.401788979768753052e-02,6.855819374322891235e-02,6.242090091109275818e-02
3.263190016150474548e-02,6.389301735907793045e-03,1.790634915232658386e-02,2.445121295750141144e-02,3.413297235965728760e-02,5.439342465251684189e-03,2.941869199275970459e-02,3.624878451228141785e-02,2.411357825621962547e-03
2.021578326821327209e-02,2.047402970492839813e-02,1.326894201338291168e-02,-1.876810565590858459e-02,7.157221436500549316e-02,5.383745301514863968e-03,2.205042541027069092e-02,5.480269435793161392e-03,-5.473718047142028809e-04
1.247747708112001419e-02,1.009664125740528107e-02,3.673373023048043251e-03,-1.366597041487693787e-02,2.054584585130214691e-02,3.695328533649444580e-02,-1.884156279265880585e-02,-1.535678375512361526e-02,-2.252289280295372009e-02
3.162761917337775230e-03,-9.225841611623764038e-03,-1.533044315874576569e-02,-1.985293999314308167e-02,2.584266476333141327e-02,-2.808430604636669159e-02,5.641622468829154968e-03,-2.381923422217369080e-02,-5.991470441222190857e-02
1.859463192522525787e-02,-1.609456911683082581e-02,-2.279612235724925995e-02,-1.160433981567621231e-02,2.709441259503364563e-02,-7.020096294581890106e-03,1.407739799469709396e-02,-1.139401458203792572e-02,-2.194362320005893707e-02
-7.594618480652570724e-03,-1.570242084562778473e-02,-1.937363110482692719e-02,3.895454853773117065e-02,1.754264719784259796e-02,4.829268902540206909e-03,4.629278555512428284e-04,1.574225537478923798e-02,-9.405083023011684418e-03
-3.080578171648085117e-04,-2.227822504937648773e-02,-3.180813277140259743e-03,1.024135947227478027e-02,-3.462578635662794113e-03,-2.879824023693799973e-03,-1.933020912110805511e-02,-3.576808422803878784e-02,-1.486574485898017883e-02
6.195335183292627335e-03,-3.296435996890068054e-02,-5.051490734331309795e-05,-7.367805391550064087e-02,6.873649358749389648e-02,-6.035491824150085449e-02,-1.066764630377292633e-02,-7.326508313417434692e-02,-3.099514730274677277e-02
1.612157747149467468e-02,2.601710520684719086e-02,-1.657502725720405579e-02,5.468989256769418716e-03,-6.106781587004661560e-02,3.079461120069026947e-02,-2.161999791860580444e-02,3.674314916133880615e-02,1.826965133659541607e-03
-5.762182176113128662e-02,-5.604074895381927490e-02,-5.234248191118240356e-02,-4.986844956874847412e-02,-1.073903497308492661e-02,-2.725518122315406799e-02,-6.178814545273780823e-02,-2.929660677909851074e-02,-3.848350048065185547e-02
7.334494497627019882e-03,6.313240155577659607e-03,2.649339661002159119e-02,-4.610253963619470596e-03,-6.289799232035875320e-03,1.118614710867404938e-02,-7.454161997884511948e-03,-8.732130751013755798e-03,6.163319572806358337e-03
3.619851917028427124e-02,6.130241788923740387e-03,-2.062903949990868568e-03,7.749969139695167542e-03,-2.975837513804435730e-02,3.685811907052993774e-02,-2.548615681007504463e-03,8.653663098812103271e-03,1.120346877723932266e-02
1.607222855091094971e-02,3.506493568420410156e-02,7.215206976979970932e-03,9.145036339759826660e-03,1.856703497469425201e-02,1.329337153583765030e-02,-6.749029853381216526e-04,-1.525301393121480942e-02,1.326747890561819077e-02
-7.968867197632789612e-03,-2.253828383982181549e-02,-2.500823466107249260e-04,-4.338623210787773132e-02,7.575171440839767456e-02,-4.084554687142372131e-02,5.008688662201166153e-03,7.697908673435449600e-03,-1.122695114463567734e-02
-3.113904409110546112e-02,-4.640681296586990356e-02,-2.793512307107448578e-02,-9.094790555536746979e-03,-2.350966213271021843e-03,-1.575086265802383423e-02,-4.676625505089759827e-02,-3.763751685619354248e-02,1.057548914104700089e-03
2.240279130637645721e-02,5.239528138190507889e-03,-5.557409022003412247e-03,-1.674841856583952904e-03,-7.387535646557807922e-03,-7.220216095447540283e-03,1.201010402292013168e-02,2.786702848970890045e-02,3.156097081955522299e-04
2.287674695253372192e-02,5.482486914843320847e-03,-3.661049122456461191e-04,1.778587116859853268e-03,-4.618870839476585388e-02,2.646518405526876450e-03,-3.210325911641120911e-02,-1.265665423125028610e-02,-9.831601753830909729e-03
3.236478660255670547e-03,-3.441029042005538940e-02,-1.162688806653022766e-02,-3.650265559554100037e-02,-3.175099194049835205e-02,-2.962346561253070831e-02,-6.946877576410770416e-03,-3.258224576711654663e-02,-6.104129832237958908e-03
9.083797223865985870e-03,1.907043904066085815e-02,2.299901843070983887e-02,-1.030815532431006432e-03,-6.413755565881729126e-02,3.612596169114112854e-02,-8.638601750135421753e-03,7.917137816548347473e-03,3.134813532233238220e-02
-3.218035213649272919e-03,2.302451245486736298e-02,-6.019731983542442322e-02,-6.767436116933822632e-02,-1.229371037334203720e-02,5.592298693954944611e-04,-9.869399480521678925e-03,-5.140481516718864441e-03,-4.852441605180501938e-03
-3.633228363469243050e-03,1.018782961182296276e-03,9.313095360994338989e-03,-3.017402486875653267e-04,2.050892915576696396e-03,8.848679251968860626e-03,2.410781307844445109e-04,7.141904206946492195e-04,5.910921841859817505e-03
-1.322188135236501694e-02,-2.142171002924442291e-02,-2.288503013551235199e-02,-1.339902635663747787e-02,1.789247151464223862e-03,-4.519495740532875061e-02,-5.199322476983070374e-03,-3.259467706084251404e-02,-3.899091109633445740e-02
1.954545499756932259e-03,7.285977713763713837e-03,1.103165745735168457e-02,-1.522282697260379791e-02,3.451215848326683044e-02,2.409758418798446655e-02,-2.082747174426913261e-03,4.268850199878215790e-03,2.360553853213787079e-02
-2.066605351865291595e-02,-1.277161482721567154e-02,3.960321098566055298e-02,3.207666426897048950e-02,-4.315888509154319763e-02,7.171765901148319244e-03,-9.357466362416744232e-03,4.817494656890630722e-03,-2.609470859169960022e-03
-3.459319099783897400e-02,-2.346722967922687531e-02,-5.671636015176773071e-02,-1.084552332758903503e-01,-4.595411196351051331e-02,-8.979348838329315186e-02,-5.591109767556190491e-02,5.194739904254674911e-03,-4.720355942845344543e-02
-2.002060040831565857e-02,-2.534583024680614471e-02,-8.360703475773334503e-03,-3.291175514459609985e-02,-1.266011595726013184e-02,-7.737718056887388229e-03,-3.323321416974067688e-02,-1.288787461817264557e-03,2.355171926319599152e-02
-8.615117520093917847e-03,-3.601611405611038208e-02,-2.479991503059864044e-02,-3.413427993655204773e-02,-1.179197710007429123e-02,-7.335825264453887939e-02,-6.711731664836406708e-03,-3.996920213103294373e-02,-1.361667830497026443e-02
-1.091166585683822632e-02,-2.163528464734554291e-02,2.560142893344163895e-03,-3.444269672036170959e-02,-5.165551789104938507e-03,-1.760202646255493164e-02,-4.718069685623049736e-04,-6.361195817589759827e-03,2.747778594493865967e-02
1.575255393981933594e-02,4.916328471153974533e-03,7.102132588624954224e-02,3.650172799825668335e-02,2.790593728423118591e-02,6.484412401914596558e-02,5.613082274794578552e-02,5.007432401180267334e-02,1.308613419532775879e-01
4.250086378306150436e-03,1.060743536800146103e-02,1.000141911208629608e-02,-2.410881966352462769e-02,-2.014003694057464600e-02,-1.060873176902532578e-02,2.034796029329299927e-02,-3.167884889990091324e-03,1.765254698693752289e-02
-6.806590408086776733e-02,7.836288772523403168e-03,2.404024962743278593e-05,-2.297313511371612549e-02,-5.458859354257583618e-02,4.669475182890892029e-02,4.239266738295555115e-02,2.323951385915279388e-02,1.228219014592468739e-03
-4.448714200407266617e-03,-4.528149962425231934e-02,-4.999452456831932068e-02,-2.133865840733051300e-02,-1.093944609165191650e-01,-4.248720407485961914e-02,1.160360593348741531e-02,-7.217275351285934448e-02,-4.736701399087905884e-02
-2.109967544674873352e-02,1.210264302790164948e-02,1.643083058297634125e-02,-1.004067063331604004e-02,4.609123617410659790e-02,-5.963699892163276672e-02,-1.454367861151695251e-02,-5.856075882911682129e-02,-5.342167615890502930e-02
-2.968980465084314346e-03,1.395757962018251419e-02,1.033231802284717560e-02,-1.182772312313318253e-02,1.617963425815105438e-02,-1.781890168786048889e-03,-3.926697373390197754e-02,-2.173365280032157898e-02,-6.350901443511247635e-03
8.438919670879840851e-03,1.639594696462154388e-02,4.797018691897392273e-02,9.244928136467933655e-03,1.679016463458538055e-02,2.356083597987890244e-03,3.959215711802244186e-03,-8.364529930986464024e-04,2.105241455137729645e-02
7.326314691454172134e-03,-2.473434247076511383e-02,1.958354935050010681e-02,-1.448410190641880035e-02,2.034485572949051857e-03,3.484495729207992554e-02,8.629373041912913322e-04,-4.426318034529685974e-02,-8.173564076423645020e-02
2.914190851151943207e-02,2.921822294592857361e-02,8.037767373025417328e-03,2.058295346796512604e-02,-4.015370737761259079e-03,9.603404439985752106e-03,1.393503416329622269e-02,-8.381267078220844269e-03,3.128657490015029907e-02
2.288867160677909851e-02,-3.237919136881828308e-02,-7.727890275418758392e-03,-7.359363604336977005e-03,-7.146704476326704025e-03,4.240867123007774353e-02,-8.339076302945613861e-03,6.003874354064464569e-03,8.710975199937820435e-02
-7.563563995063304901e-03,-2.041091211140155792e-02,-1.989221200346946716e-02,3.818058967590332031e-02,-2.429771423339843750e-02,-2.050756290555000305e-02,2.355923689901828766e-02,-2.755343727767467499e-02,-2.321534976363182068e-02
-2.901908301282674074e-04,-1.463677827268838882e-02,2.661898359656333923e-02,1.560139562934637070e-02,5.296427756547927856e-02,2.457093261182308197e-02,2.038037031888961792e-02,1.175448950380086899e-02,3.225232288241386414e-02
5.264717619866132736e-03,-3.352605178952217102e-02,-7.343669235706329346e-02,4.423323273658752441e-02,2.450275933369994164e-03,4.267509561032056808e-03,-7.771734148263931274e-02,-1.247145794332027435e-02,3.851361945271492004e-02
-9.634944610297679901e-03,-4.462679207790642977e-04,2.759768627583980560e-02,1.511900033801794052e-02,-4.415107890963554382e-02,-1.939294859766960144e-02,-2.383228950202465057e-02,3.075985796749591827e-02,3.752951323986053467e-02
-3.949300199747085571e-02,1.555184833705425262e-02,3.617984429001808167e-02,3.270649909973144531e-02,-3.526865318417549133e-02,2.633238583803176880e-02,-2.288339100778102875e-02,-5.586694180965423584e-02,-1.160615403205156326e-02
5.337880924344062805e-02,6.340038031339645386e-03,3.855971619486808777e-02,-2.825783379375934601e-02,-5.069805681705474854e-02,8.609466254711151123e-03,-3.149348497390747070e-02,5.458549130707979202e-03,2.069351263344287872e-02
-5.881834030151367188e-02,-4.200851544737815857e-02,6.771794706583023071e-02,4.119424149394035339e-02,-2.449172921478748322e-02,-1.236850209534168243e-02,8.223253488540649414e-02,-5.085333250463008881e-03,-2.240498736500740051e-02
1.095275301486253738e-02,5.099321156740188599e-02,1.113619729876518250e-01,4.111710004508495331e-03,4.529576376080513000e-02,5.130341649055480957e-02,-1.614867709577083588e-02,1.695324853062629700e-02,5.442715436220169067e-02
-2.374240569770336151e-02,2.670146152377128601e-02,-1.000307220965623856e-02,-2.419259957969188690e-02,-8.453793823719024658e-02,3.079785266891121864e-03,-5.007389467209577560e-03,-5.330353043973445892e-03,-8.723956532776355743e-03
2.907395130023360252e-03,1.433718251064419746e-03,1.447231788188219070e-02,-1.589473895728588104e-02,-7.324962317943572998e-02,7.412454485893249512e-02,-2.417462505400180817e-02,3.043719381093978882e-02,3.603189438581466675e-02
-6.439439207315444946e-02,-1.600160449743270874e-02,1.038429792970418930e-03,1.182654127478599548e-02,2.063543722033500671e-02,5.332427099347114563e-02,-4.937719926238059998e-02,-8.986447006464004517e-02,-5.460611358284950256e-02
-9.772484190762042999e-03,6.609370000660419464e-03,2.475517243146896362e-02,-1.752902381122112274e-02,1.041962881572544575e-03,4.165429156273603439e-03,-1.791626587510108948e-02,-4.369862843304872513e-03,1.101946644484996796e-02
3.183302283287048340e-02,-7.964268326759338379e-03,-4.179766029119491577e-02,-1.844066008925437927e-02,-3.048583865165710449e-02,-3.553980216383934021e-02,5.595893133431673050e-03,7.223883643746376038e-03,9.150729514658451080e-03
-4.347203299403190613e-02,-2.368260361254215240e-02,1.742191985249519348e-02,1.643634214997291565e-02,2.891495078802108765e-02,-3.079538932070136070e-03,-6.251973658800125122e-02,-1.100063323974609375e-02,-3.209706395864486694e-02
8.011740632355213165e-03,-2.209786511957645416e-02,-1.611278974451124668e-03,-2.922870591282844543e-02,-3.601613640785217285e-02,-2.909916453063488007e-02,-7.353541906923055649e-03,-1.330892648547887802e-02,-5.812598019838333130e-02
-1.691342331469058990e-02,-4.798349924385547638e-03,1.424469146877527237e-02,1.421385351568460464e-02,-2.181961759924888611e-02,4.538896246231161058e-05,5.417720228433609009e-02,-2.241741307079792023e-02,2.785238437354564667e-02
-2.469572937116026878e-04,-3.598237410187721252e-03,4.824385512620210648e-03,8.594240061938762665e-03,-3.433741256594657898e-02,-3.189639374613761902e-02,-6.749890744686126709e-03,-3.154508396983146667e-02,-1.753628998994827271e-02
3.427099063992500305e-02,1.019062381237745285e-02,1.741550047881901264e-03,9.114292450249195099e-03,1.337617356330156326e-02,2.688595466315746307e-02,4.307103157043457031e-02,2.122227288782596588e-02,6.610840559005737305e-02
4.041205719113349915e-02,-1.257452927529811859e-02,-2.013465389609336853e-03,-5.503816064447164536e-03,4.477376490831375122e-02,1.887997612357139587e-02,-2.547208592295646667e-02,4.233687371015548706e-02,5.861186981201171875e-02
5.143439769744873047e-02,3.770747035741806030e-02,-7.896436378359794617e-03,2.341441437602043152e-02,7.389759179204702377e-03,-1.300633698701858521e-02,2.038615942001342773e-02,-2.398189716041088104e-02,3.550965338945388794e-02
-3.583001717925071716e-02,-2.834932133555412292e-02,-5.613587051630020142e-02,2.246029116213321686e-02,-3.897232562303543091e-02,-5.862683802843093872e-02,-4.208498448133468628e-02,-3.542377054691314697e-02,-9.849916398525238037e-02
3.550598025321960449e-02,4.303892329335212708e-02,-1.841518911533057690e-03,-5.894300714135169983e-02,-5.471195653080940247e-02,-3.441406413912773132e-02,6.889967713505029678e-03,1.315962057560682297e-02,3.461816906929016113e-02
-2.267253212630748749e-02,-1.385392248630523682e-02,-1.761549152433872223e-02,-1.216926984488964081e-02,-4.135175049304962158e-02,1.586612313985824585e-02,-4.651079420000314713e-03,3.567288164049386978e-03,3.278350457549095154e-03
3.294762223958969116e-02,-1.402987545588985085e-04,3.733373433351516724e-02,-6.545203737914562225e-03,1.559007912874221802e-03,-1.692754216492176056e-03,5.032849963754415512e-03,5.074962228536605835e-02,3.415758535265922546e-02
-2.209632098674774170e-02,7.784585002809762955e-03,3.493996337056159973e-02,-4.049764201045036316e-02,3.917830437421798706e-02,3.048630617558956146e-02,-1.474054716527462006e-02,2.167392289265990257e-03,-1.006919890642166138e-02
-5.811848491430282593e-02,-5.058092623949050903e-02,-1.754993014037609100e-02,-9.065937250852584839e-03,-4.427920654416084290e-02,-3.429122641682624817e-02,1.430140249431133270e-02,4.908862337470054626e-02,3.593270108103752136e-02
-4.890161380171775818e-02,-6.525202840566635132e-02,-5.508125573396682739e-02,-4.361604154109954834e-02,-1.601227931678295135e-02,-1.500781811773777008e-02,-6.683254241943359375e-02,-6.530834734439849854e-02,-3.881998732686042786e-02
-4.065251722931861877e-02,-6.068402528762817383e-02,-4.747151955962181091e-02,-3.439223021268844604e-02,-1.358667016029357910e-02,1.819933019578456879e-02,-4.725065082311630249e-02,-3.717118129134178162e-02,-2.712142840027809143e-02
-2.172569511458277702e-03,1.588073791936039925e-04,2.157113328576087952e-02,9.882401209324598312e-04,-4.916142299771308899e-02,-6.169195100665092468e-02,-3.755533543881028891e-05,-5.020778998732566833e-02,-2.942292764782905579e-02
-6.054003164172172546e-02,-5.781689658761024475e-02,-4.016172885894775391e-02,5.806054687127470970e-04,4.083352629095315933e-03,-2.652302198112010956e-02,1.492628175765275955e-02,-2.652217447757720947e-02,-1.535243261605501175e-02
-1.071943202987313271e-03,-2.001100685447454453e-03,3.645850345492362976e-02,-1.101441308856010437e-02,-2.335941232740879059e-02,2.209162898361682892e-02,1.879435777664184570e-02,2.208549715578556061e-02,4.309356212615966797e-02
-5.954027548432350159e-02,9.919850155711174011e-03,1.405258756130933762e-02,-2.511918358504772186e-02,3.458949178457260132e-02,3.660574555397033691e-02,-1.458518654108047485e-01,-9.611671790480613708e-03,2.750259079039096832e-02
-3.911050036549568176e-03,2.211573161184787750e-02,-1.525890734046697617e-02,-2.966830693185329437e-02,3.294543921947479248e-02,6.342316512018442154e-03,3.245192929171025753e-04,1.273796707391738892e-02,-1.710038445889949799e-02
1.746109314262866974e-02,-2.634102245792746544e-03,3.789679845795035362e-03,2.651919797062873840e-02,5.718610435724258423e-02,2.371594309806823730e-02,8.908615447580814362e-03,2.760028094053268433e-02,1.371232140809297562e-02
-2.348843589425086975e-02,1.743704546242952347e-03,-5.431991070508956909e-03,2.443322911858558655e-02,-5.857985839247703552e-02,2.729448303580284119e-02,2.982928708661347628e-04,-3.666850924491882324e-02,-1.308633945882320404e-02
-3.656985983252525330e-02,-2.543802559375762939e-02,-2.089994214475154877e-02,-2.874421421438455582e-03,-5.323027446866035461e-02,1.206128206104040146e-02,-3.544621402397751808e-03,1.860316656529903412e-02,-1.368291582912206650e-02
-9.297247976064682007e-03,1.014500623568892479e-03,2.063049376010894775e-02,-1.304373517632484436e-02,-9.552813135087490082e-04,1.650396734476089478e-02,-3.675756230950355530e-02,-2.343343012034893036e-02,-1.326906960457563400e-03
