7.865194976329803467e-02
4.245657622814178467e-01
1.953385174274444580e-01
4.642590135335922241e-02
-2.521606385707855225e-01
-1.532289087772369385e-01
-8.248098194599151611e-02
3.234270811080932617e-01
1.462075710296630859e-01
-3.240991383790969849e-03
-9.486322291195392609e-03
1.265176832675933838e-01
-5.469889566302299500e-02
-2.584425210952758789e-01
-4.805682599544525146e-02
-3.670535236597061157e-02
-1.701140254735946655e-01
1.516251116991043091e-01
3.352311253547668457e-01
1.890919804573059082e-01
1.232437193393707275e-01
-3.003008961677551270e-01
-1.785579025745391846e-01
3.303859233856201172e-01
-4.026888310909271240e-02
1.123595237731933594e-02
9.317639470100402832e-02
5.381995439529418945e-02
1.299913600087165833e-02
4.548804461956024170e-01
4.413688778877258301e-01
3.861903026700019836e-02
2.840488553047180176e-01
7.120092213153839111e-02
-1.696216315031051636e-01
2.374077737331390381e-01
6.796728819608688354e-03
2.991783618927001953e-01
1.734113097190856934e-01
3.790220618247985840e-01
-1.492800861597061157e-01
-2.366936802864074707e-01
2.496045380830764771e-01
2.597068548202514648e-01
-3.412101417779922485e-02
3.411970734596252441e-01
3.712697923183441162e-01
2.828754782676696777e-01
5.683794617652893066e-01
2.165648192167282104e-01
1.116861402988433838e-01
2.150124758481979370e-01
-1.921729743480682373e-01
4.593915641307830811e-01
3.476524353027343750e-02
3.150563687086105347e-02
1.937191784381866455e-01
1.784241497516632080e-01
7.879916429519653320e-01
2.149036154150962830e-03
2.827062606811523438e-01
2.648556530475616455e-01
-2.719916105270385742e-01
1.278925035148859024e-02
