2.789138350635766983e-03,-1.184072624891996384e-02,1.674596033990383148e-02,2.067455556243658066e-03,1.633390411734580994e-02,8.177676238119602203e-03,-1.340263243764638901e-02,6.687909830361604691e-03,5.311305169016122818e-03
-1.289483811706304550e-02,7.276817411184310913e-02,1.278902287594974041e-03,-7.008411921560764313e-03,6.898945569992065430e-02,-8.755766786634922028e-03,3.653331473469734192e-02,4.016398638486862183e-02,-3.142634639516472816e-03
-5.349653307348489761e-03,-7.098108530044555664e-03,1.144835725426673889e-03,1.249095518141984940e-02,-1.054408145137131214e-03,-1.118196290917694569e-03,2.201977884396910667e-03,4.019867163151502609e-03,-8.419064804911613464e-03
4.443409293889999390e-02,3.133268281817436218e-02,2.523555792868137360e-02,4.845802485942840576e-02,1.859040744602680206e-02,2.560871653258800507e-02,4.725896567106246948e-02,4.989717155694961548e-02,4.043218120932579041e-02
-3.708800359163433313e-04,-3.383950516581535339e-02,7.932503521442413330e-02,-3.540573269128799438e-02,1.899973489344120026e-02,5.052915588021278381e-02,7.977034896612167358e-03,1.562313828617334366e-02,6.000824645161628723e-02
2.506341785192489624e-02,3.858054801821708679e-02,2.355274558067321777e-02,4.152839537709951401e-03,6.796641740947961807e-03,5.638406146317720413e-03,-1.547485962510108948e-02,6.195486523211002350e-03,-9.443230228498578072e-04
3.310028114356100559e-04,-1.038518712448421866e-05,3.615425666794180870e-03,-4.692741669714450836e-03,-1.043376885354518890e-02,-5.457576364278793335e-03,9.146978147327899933e-03,1.494010686874389648e-01,-6.633888930082321167e-03
6.084781605750322342e-03,2.706494927406311035e-02,-3.312276676297187805e-02,1.293545402586460114e-02,2.195854485034942627e-01,1.372496783733367920e-02,4.505471792072057724e-03,-1.441625785082578659e-02,-1.298134494572877884e-02
8.015671744942665100e-03,3.650310973171144724e-04,2.083914913237094879e-02,-8.286865428090095520e-03,5.970042664557695389e-03,-3.103253990411758423e-02,3.490216564387083054e-03,1.211536023765802383e-02,2.970443107187747955e-02
5.163035821169614792e-03,-1.123442221432924271e-02,-1.093067135661840439e-02,-7.842469029128551483e-03,-5.071513354778289795e-02,-1.347744464874267578e-02,1.630247943103313446e-02,3.865414997562766075e-03,2.052926924079656601e-03
-2.205199003219604492e-02,1.873454079031944275e-02,9.714047424495220184e-03,2.548582851886749268e-02,3.668213263154029846e-02,1.372558064758777618e-02,-2.527416218072175980e-04,1.264878269284963608e-02,-8.462395053356885910e-04
3.188279271125793457e-02,6.955733895301818848e-02,2.501060441136360168e-02,2.296859398484230042e-02,1.090485751628875732e-01,5.541635211557149887e-03,-8.949047885835170746e-03,-3.420268371701240540e-02,-1.467103231698274612e-02
-5.034792702645063400e-04,-9.111638180911540985e-03,-3.194593358784914017e-03,2.925691427662968636e-03,-3.554248542059212923e-04,7.574149221181869507e-02,7.431682664901018143e-03,3.983331844210624695e-03,3.189646080136299133e-02
-1.408449094742536545e-02,-8.546630851924419403e-03,-3.505786880850791931e-02,-5.265294760465621948e-02,-6.101604923605918884e-02,9.753993898630142212e-02,-8.808304555714130402e-03,-4.031337797641754150e-02,-2.802354283630847931e-04
-7.705753669142723083e-03,-7.033871952444314957e-03,-4.974622279405593872e-03,1.581637933850288391e-02,-9.926330298185348511e-03,2.977832593023777008e-02,-2.669603005051612854e-02,-2.495681634172797203e-03,-2.144090132787823677e-03
-1.829773932695388794e-02,-1.220896281301975250e-02,-5.714017432183027267e-03,2.918964484706521034e-03,-1.592835411429405212e-02,2.420900389552116394e-03,-1.467692479491233826e-02,-2.054687775671482086e-02,-1.000642683357000351e-02
1.134345587342977524e-02,1.413419027812778950e-03,-2.492432715371251106e-03,9.910736698657274246e-04,6.735904607921838760e-03,-2.054764702916145325e-02,2.057972922921180725e-02,3.451209142804145813e-02,3.047824278473854065e-02
2.908376976847648621e-02,-1.960197463631629944e-03,-7.352330256253480911e-03,4.739439114928245544e-03,-6.648673210293054581e-03,-7.382615003734827042e-03,1.465575490146875381e-02,2.872946672141551971e-03,-1.614810526371002197e-02
-1.305959746241569519e-02,-4.438544157892465591e-03,4.356679972261190414e-03,-3.961798734962940216e-03,6.374496966600418091e-02,2.564546186476945877e-03,-1.890298537909984589e-02,-1.578808203339576721e-02,-1.204469893127679825e-02
-7.845892570912837982e-03,-1.592370495200157166e-02,1.150673814117908478e-02,-1.248611323535442352e-02,-1.201419718563556671e-02,5.570741370320320129e-03,-1.331236958503723145e-02,-8.081042207777500153e-03,3.881425363942980766e-03
-7.902346551418304443e-03,-9.304354316554963589e-04,-9.237231570295989513e-04,-1.599289360456168652e-03,8.952886797487735748e-03,-4.334092605859041214e-03,3.479754552245140076e-03,1.417443063110113144e-02,1.164200436323881149e-02
1.876635402441024780e-01,-1.469784788787364960e-02,-1.241018343716859818e-02,-1.977651566267013550e-02,-4.307518247514963150e-03,-7.218741811811923981e-03,-1.951147057116031647e-02,-3.070695325732231140e-03,-5.405727308243513107e-03
8.165411651134490967e-03,2.641717437654733658e-03,1.671776408329606056e-03,-4.690236598253250122e-02,1.865739375352859497e-01,-4.190578311681747437e-02,1.102455426007509232e-02,-1.736175082623958588e-02,3.603832796216011047e-03
-1.445255987346172333e-02,-3.286338225007057190e-02,-2.340802550315856934e-02,-1.601160690188407898e-02,-3.373793512582778931e-02,-9.589163586497306824e-03,-6.773232016712427139e-03,-2.636345475912094116e-02,-1.295603346079587936e-02
1.861282624304294586e-02,2.230877056717872620e-02,2.992138452827930450e-02,2.720517292618751526e-02,1.279234513640403748e-02,-1.583570837974548340e-01,-8.338870247825980186e-04,-2.808839641511440277e-02,1.090630539692938328e-03
1.453745830804109573e-02,1.418882887810468674e-02,-1.623225252842530608e-04,-1.930012181401252747e-02,5.111354216933250427e-02,7.547528482973575592e-03,7.719886489212512970e-03,1.646948046982288361e-02,2.493245713412761688e-02
-3.527319291606545448e-03,-2.290656557306647301e-03,-3.076065098866820335e-03,-9.716127999126911163e-03,-1.056200917810201645e-02,-8.806047844700515270e-05,-4.924898501485586166e-03,-4.309379495680332184e-03,-4.022094421088695526e-03
-1.565375924110412598e-02,4.330670461058616638e-02,-8.275549858808517456e-03,-1.154008693993091583e-02,-9.935457259416580200e-03,-1.427398063242435455e-02,-1.497858855873346329e-02,-1.039714738726615906e-02,-6.658071652054786682e-03
3.184688836336135864e-02,1.221302710473537445e-02,1.899091340601444244e-02,-1.383945345878601074e-02,-8.326562494039535522e-02,2.615563804283738136e-03,6.826212629675865173e-03,1.581091247498989105e-02,8.262071758508682251e-03
-7.247425615787506104e-03,2.559885755181312561e-02,2.111944742500782013e-02,5.277396645396947861e-03,6.700257956981658936e-02,2.905506081879138947e-02,-1.752462121658027172e-03,4.232965409755706787e-03,1.216387283056974411e-02
-1.042151078581809998e-02,-9.401037241332232952e-04,-4.986275918781757355e-03,-2.906898222863674164e-02,3.718724101781845093e-02,-3.587122308090329170e-03,-2.049133926630020142e-02,2.966880798339843750e-03,4.252629354596138000e-03
1.145068183541297913e-02,1.078410260379314423e-02,1.217060349881649017e-02,9.427144192159175873e-03,1.693337969481945038e-02,4.662541206926107407e-03,1.423879712820053101e-02,6.175877992063760757e-03,-5.360747221857309341e-03
-3.712415928021073341e-03,-1.639444963075220585e-03,1.082678698003292084e-02,8.665886707603931427e-03,1.337876077741384506e-02,2.768277376890182495e-02,-7.474048994481563568e-03,-1.611183956265449524e-02,2.519282698631286621e-02
-7.459857501089572906e-03,-1.460395101457834244e-02,1.078104600310325623e-02,-2.067046239972114563e-02,-3.587836772203445435e-02,1.993531477637588978e-04,1.718230661936104298e-03,-8.552170358598232269e-03,3.731060540303587914e-03
-3.031764551997184753e-02,-5.923108663409948349e-03,9.120058268308639526e-03,1.594433933496475220e-02,4.365822300314903259e-03,4.885376244783401489e-02,-9.493635967373847961e-03,-3.474862501025199890e-02,1.277457736432552338e-02
-1.449637301266193390e-02,-3.861668752506375313e-03,-1.601788960397243500e-02,1.768132555298507214e-03,4.485246259719133377e-03,-2.601242624223232269e-03,4.346136469393968582e-03,-2.896026521921157837e-02,6.396869197487831116e-03
8.521175011992454529e-03,2.164727263152599335e-02,-1.228296197950839996e-02,2.046670392155647278e-02,5.501520936377346516e-04,-7.548928726464509964e-03,2.347447723150253296e-02,-3.851929679512977600e-02,-1.209129486232995987e-02
-6.006607785820960999e-03,-2.084821928292512894e-03,2.963446546345949173e-03,1.864385977387428284e-02,1.773041486740112305e-02,1.537004020065069199e-02,6.692774593830108643e-03,2.027905546128749847e-02,2.664475236088037491e-03
-3.517637774348258972e-02,-1.990616321563720703e-03,-1.292702089995145798e-02,-4.369555786252021790e-02,2.665334753692150116e-02,6.791684310883283615e-03,2.371933124959468842e-02,1.929100416600704193e-02,1.645338162779808044e-02
-8.140803314745426178e-03,-4.001674707978963852e-03,-1.169264223426580429e-02,-9.516330435872077942e-03,-6.085296627134084702e-03,1.112060472369194031e-01,-1.744771376252174377e-02,-2.422768855467438698e-03,-1.810649293474853039e-03
-6.080552004277706146e-03,-3.141250461339950562e-02,1.732128299772739410e-02,-1.381312217563390732e-02,-1.449463218450546265e-01,-1.303063984960317612e-02,-6.539555266499519348e-03,8.364719338715076447e-03,2.230542479082942009e-03
-8.715966716408729553e-03,-1.465819310396909714e-02,1.434010919183492661e-03,3.309817519038915634e-03,2.961515262722969055e-02,3.343293070793151855e-02,1.857384294271469116e-02,3.464524075388908386e-02,2.188116870820522308e-02
-1.261997851543128490e-03,3.316058777272701263e-03,-8.581031113862991333e-03,-6.654981523752212524e-03,-2.261734753847122192e-02,-1.179722417145967484e-02,-2.360808849334716797e-02,-1.747744902968406677e-02,-2.403776347637176514e-02
-1.107882242649793625e-03,5.074405111372470856e-03,-3.150491043925285339e-02,-1.046447828412055969e-02,-1.023582592606544495e-01,-9.998559951782226562e-03,3.104497492313385010e-02,-2.788819931447505951e-02,-1.719436980783939362e-02
-3.361733257770538330e-02,-1.710458844900131226e-02,-1.644766516983509064e-02,7.586974650621414185e-03,3.441009297966957092e-02,1.735983230173587799e-02,-9.523664601147174835e-03,2.713441289961338043e-02,1.234762929379940033e-02
1.633575931191444397e-02,-4.029255732893943787e-02,-1.166648231446743011e-02,-2.729060826823115349e-03,-5.420584604144096375e-02,1.799348928034305573e-02,4.851112142205238342e-03,-3.228434920310974121e-02,-2.978293783962726593e-02
-1.102323923259973526e-02,5.424536298960447311e-03,5.506696179509162903e-04,1.105013396590948105e-02,1.216761954128742218e-02,-7.671487983316183090e-03,-1.490146759897470474e-02,3.453159239143133163e-03,1.816616393625736237e-03
-6.806446239352226257e-03,-4.429436288774013519e-03,-2.948281122371554375e-03,-6.752498447895050049e-03,1.960543682798743248e-03,2.254947321489453316e-03,-4.234636144246906042e-04,-1.649447530508041382e-02,-3.265840001404285431e-03
2.115759626030921936e-02,2.414619317278265953e-03,4.431631881743669510e-03,9.674356319010257721e-03,-8.325077593326568604e-03,1.672485028393566608e-03,3.683287359308451414e-04,-1.508746296167373657e-03,2.948037348687648773e-03
-9.190086275339126587e-03,-2.528566308319568634e-02,-1.172391138970851898e-02,3.236535564064979553e-02,2.109801955521106720e-02,1.411641668528318405e-02,-1.252836827188730240e-02,-1.237212307751178741e-02,-1.344525907188653946e-02
-1.333093922585248947e-02,-4.067418165504932404e-03,8.031114004552364349e-03,2.839431352913379669e-02,-2.293993681669235229e-01,3.278739005327224731e-02,-1.628297008574008942e-02,1.334377005696296692e-02,-7.288282737135887146e-03
1.915456261485815048e-03,1.729325018823146820e-02,-8.711971342563629150e-03,5.483289249241352081e-03,-2.126034349203109741e-02,2.859452506527304649e-03,2.270467020571231842e-02,-1.532120537012815475e-02,-2.228423766791820526e-02
-3.148468967992812395e-04,1.669440791010856628e-02,1.142471563071012497e-02,-6.906539201736450195e-03,4.034303128719329834e-02,7.807157002389431000e-03,4.149852320551872253e-03,4.690892994403839111e-02,1.892867311835289001e-02
7.876335643231868744e-03,3.096308186650276184e-02,-3.563574329018592834e-02,6.802904885262250900e-03,4.407821595668792725e-02,-1.959171332418918610e-02,1.782903331331908703e-03,2.351510524749755859e-02,-1.590155810117721558e-02
8.814870379865169525e-03,1.937697641551494598e-02,8.402268402278423309e-03,-2.681083790957927704e-02,-1.960232667624950409e-02,-3.121452778577804565e-02,-5.763333756476640701e-03,-2.436366630718111992e-03,-7.982391864061355591e-03
-2.091925032436847687e-02,-1.755897551774978638e-01,-2.414040081202983856e-02,6.323748268187046051e-03,3.217902965843677521e-03,-4.581016022711992264e-03,8.765785023570060730e-03,2.432744577527046204e-02,3.823442617431282997e-03
9.274184703826904297e-03,3.155203536152839661e-03,1.601020805537700653e-02,-1.754495315253734589e-02,-5.618666112422943115e-02,-3.952809050679206848e-02,-1.743439398705959320e-02,-2.369958162307739258e-02,-3.283655270934104919e-02
-1.736714690923690796e-02,-2.544277533888816833e-02,1.328878384083509445e-02,-5.370473861694335938e-02,-1.049902383238077164e-02,-1.261251699179410934e-02,-8.596416562795639038e-03,2.813131920993328094e-02,2.651291899383068085e-02
2.635736390948295593e-02,4.437938798218965530e-03,2.132220752537250519e-02,-1.503232307732105255e-02,-2.535818330943584442e-02,-7.013211958110332489e-03,5.987211130559444427e-03,1.671625301241874695e-02,4.160746466368436813e-03
-1.426408346742391586e-02,-2.581173926591873169e-02,-1.071698404848575592e-02,-2.616343833506107330e-02,-1.697901263833045959e-02,-1.630983874201774597e-02,-8.963873609900474548e-03,-2.309246547520160675e-02,-1.111049205064773560e-02
-1.021285261958837509e-02,-1.245299819856882095e-02,-1.778295496478676796e-03,-1.200353074818849564e-02,-1.388362236320972443e-02,-7.109479978680610657e-03,-1.882167300209403038e-03,-8.160483092069625854e-03,2.240581437945365906e-03
1.244070380926132202e-02,-1.699163764715194702e-02,1.642974652349948883e-02,1.717785024084150791e-03,-2.981229498982429504e-02,-2.226702310144901276e-02,5.884693935513496399e-03,-1.294815540313720703e-02,-2.291147597134113312e-02
2.340221777558326721e-02,-7.905107736587524414e-02,3.754431381821632385e-03,8.906932547688484192e-03,-7.003188133239746094e-02,3.067007055506110191e-04,3.938281163573265076e-02,-6.904009729623794556e-02,-1.435942389070987701e-02
-2.512322179973125458e-02,-1.853907108306884766e-02,-2.000063098967075348e-02,-1.836507394909858704e-02,-7.321381941437721252e-03,2.174596674740314484e-02,2.400711923837661743e-02,2.124123834073543549e-02,-2.400616742670536041e-02
2.312380634248256683e-02,3.826659638434648514e-03,9.673714637756347656e-03,2.472600527107715607e-02,3.500427678227424622e-02,1.268413569778203964e-02,-9.152703569270670414e-06,1.322479918599128723e-03,-1.312304195016622543e-02
-1.905699633061885834e-02,-5.876087397336959839e-02,1.143864914774894714e-02,4.968099296092987061e-02,4.348194971680641174e-02,3.718199208378791809e-02,2.139724418520927429e-02,-2.306966297328472137e-02,1.216712221503257751e-02
-5.661955103278160095e-03,3.830578178167343140e-02,3.652062732726335526e-03,-1.137494668364524841e-02,-1.712629944086074829e-02,-1.221081148833036423e-02,5.932210013270378113e-03,1.215299963951110840e-02,-1.592590473592281342e-03
-4.085250571370124817e-02,-4.094201326370239258e-02,-6.859862059354782104e-02,-3.701439127326011658e-02,-5.339209735393524170e-02,-6.727990508079528809e-02,-4.193522408604621887e-02,-3.978826850652694702e-02,-6.481018662452697754e-02
-3.591643273830413818e-02,3.072857297956943512e-02,1.124670356512069702e-02,2.427945286035537720e-02,3.399937227368354797e-02,-2.741627953946590424e-02,1.672882237471640110e-03,-5.092945415526628494e-03,-4.088620096445083618e-02
3.146703168749809265e-02,1.409068051725625992e-02,3.750422969460487366e-03,4.290774464607238770e-02,3.638994321227073669e-02,2.733411639928817749e-02,3.011053241789340973e-02,3.711057081818580627e-02,2.065769163891673088e-03
-3.905802732333540916e-03,6.798706483095884323e-03,6.531495135277509689e-03,1.424450986087322235e-02,1.231658179312944412e-02,1.492175832390785217e-02,2.357314899563789368e-02,-2.633462427183985710e-03,1.624618470668792725e-02
-8.658199571073055267e-03,-3.187993774190545082e-03,1.579713076353073120e-02,1.090216683223843575e-03,-5.225750152021646500e-03,-1.013063546270132065e-02,5.121411290019750595e-03,-1.444673724472522736e-02,-4.893152043223381042e-03
-1.683584414422512054e-02,4.715658724308013916e-03,-8.017478510737419128e-03,6.593649089336395264e-02,5.451866239309310913e-02,-2.002429217100143433e-02,-2.768855914473533630e-02,2.900724485516548157e-02,3.371629863977432251e-03
-1.028010156005620956e-02,2.596608363091945648e-03,-1.152411103248596191e-03,1.586605235934257507e-02,-2.882470786571502686e-01,2.450251206755638123e-02,-7.799165323376655579e-03,1.061731949448585510e-02,-7.282141596078872681e-03
1.627925597131252289e-02,8.714091032743453979e-03,-2.665570564568042755e-02,-5.882729776203632355e-03,-9.819467552006244659e-03,3.363495226949453354e-03,-2.204615809023380280e-02,-2.887551300227642059e-02,-4.504197463393211365e-02
-7.087619602680206299e-02,4.965260997414588928e-02,-1.695271232165396214e-03,-3.396585816517472267e-03,-1.088307201862335205e-01,-1.924746483564376831e-02,3.208595560863614082e-03,-1.506924815475940704e-02,2.375355921685695648e-02
2.543828450143337250e-03,3.714574035257101059e-03,-5.270501133054494858e-03,1.889593526721000671e-02,4.843445494771003723e-03,8.040180429816246033e-03,6.733746733516454697e-03,-1.214120350778102875e-02,-7.504042703658342361e-03
4.225981980562210083e-02,-9.502188861370086670e-02,3.328954055905342102e-02,-1.848069764673709869e-02,-1.298511400818824768e-02,-4.188626538962125778e-03,1.468220725655555725e-02,-7.924005389213562012e-03,4.647336900234222412e-02
-3.910924308001995087e-03,-3.792881220579147339e-02,1.304446533322334290e-02,-6.883373111486434937e-02,2.415378019213676453e-02,-3.751687705516815186e-02,5.748039856553077698e-02,1.826557144522666931e-02,5.589780211448669434e-02
1.454171841032803059e-03,-9.977181442081928253e-03,2.250927733257412910e-03,3.603118471801280975e-03,2.195727825164794922e-02,1.139563694596290588e-02,4.901098553091287613e-03,8.339375257492065430e-03,8.497070521116256714e-03
-9.586130268871784210e-03,-3.143162280321121216e-02,6.044012843631207943e-04,3.599422425031661987e-02,-5.149054527282714844e-02,-2.607356943190097809e-02,2.525257132947444916e-02,-1.047101151198148727e-02,-1.861159130930900574e-02
-3.128766268491744995e-02,3.911042120307683945e-03,-4.581391811370849609e-03,-3.039038740098476410e-02,2.437188103795051575e-02,-7.205790374428033829e-03,-2.683564089238643646e-02,-6.539702415466308594e-03,-1.646868884563446045e-02
-2.191318897530436516e-03,-1.911741495132446289e-02,-1.033567078411579132e-02,-2.884138934314250946e-02,3.493250608444213867e-01,-3.943955525755882263e-02,-1.189558068290352821e-03,-1.670448109507560730e-02,-1.789757399819791317e-03
-1.189109124243259430e-02,-2.594047598540782928e-02,9.177497588098049164e-03,-2.557176724076271057e-02,-3.692489862442016602e-02,9.938671253621578217e-03,8.610817603766918182e-03,2.218756079673767090e-02,3.567529469728469849e-02
-1.031090132892131805e-02,-2.853598911315202713e-03,-1.016910653561353683e-02,-1.146498788148164749e-02,-1.112765446305274963e-02,1.584128476679325104e-03,-6.422690581530332565e-03,4.030222073197364807e-03,-3.992192505393177271e-04
5.208825226873159409e-03,6.610808428376913071e-03,1.032739318907260895e-02,6.342792417854070663e-03,1.983303017914295197e-02,2.023666631430387497e-03,6.769745144993066788e-03,1.034745108336210251e-02,1.106565003283321857e-03
1.462067663669586182e-02,7.250874768942594528e-03,6.179636809974908829e-03,2.258064225316047668e-02,-3.792918100953102112e-02,1.215537358075380325e-02,-1.657481188885867596e-03,6.458481773734092712e-03,3.093062259722501040e-04
2.062076888978481293e-02,-2.398135699331760406e-02,8.654559962451457977e-03,-4.352692048996686935e-03,-4.428409039974212646e-02,-3.657294902950525284e-03,3.763470798730850220e-03,-1.257110387086868286e-02,1.300856471061706543e-02
-1.321119372732937336e-03,-1.209466159343719482e-02,-7.839107885956764221e-03,-1.517388876527547836e-02,7.062229327857494354e-03,2.631165552884340286e-03,1.588058285415172577e-02,-5.597819574177265167e-03,-1.333726220764219761e-03
-1.737417839467525482e-02,4.407669603824615479e-02,-1.184385549277067184e-02,-1.523046847432851791e-02,1.162214875221252441e-01,1.311160065233707428e-02,-9.782232344150543213e-03,-7.624841760843992233e-03,2.773769898340106010e-03
-8.691330440342426300e-03,-1.121972035616636276e-02,-9.322131052613258362e-03,-1.464426890015602112e-02,-1.711573265492916107e-02,-1.242618169635534286e-02,-7.137391250580549240e-03,-9.593042545020580292e-03,-9.701849892735481262e-03
4.127454012632369995e-03,1.511974483728408813e-01,-8.360345847904682159e-03,-1.289012655615806580e-02,-5.875158123672008514e-03,-8.095392957329750061e-03,-1.396721135824918747e-02,-9.817327372729778290e-03,-9.489886462688446045e-03
8.823825046420097351e-03,-3.173777135089039803e-03,-1.548855751752853394e-02,1.189296599477529526e-02,3.199214115738868713e-02,1.768310554325580597e-02,8.343788795173168182e-03,1.366892922669649124e-02,6.817137356847524643e-03
-1.940152794122695923e-02,4.652137309312820435e-02,1.503143366426229477e-02,6.411762442439794540e-03,8.969938009977340698e-02,3.599672019481658936e-02,-1.179131586104631424e-02,-3.805821179412305355e-04,-1.056546438485383987e-02
-3.899010131135582924e-03,-1.254441123455762863e-02,-9.225213900208473206e-03,-4.577667918056249619e-03,5.666363518685102463e-03,1.147701218724250793e-02,-1.849978975951671600e-02,-1.062799617648124695e-02,-3.063393232878297567e-04
-2.594731189310550690e-02,6.798992399126291275e-03,-2.149199694395065308e-02,-1.134502235800027847e-02,2.959284000098705292e-02,-1.966342702507972717e-02,2.415767125785350800e-02,4.443176463246345520e-02,-2.376975491642951965e-03
3.670682199299335480e-03,2.052650973200798035e-02,1.519721280783414841e-02,3.896014764904975891e-02,2.512811496853828430e-02,5.189282819628715515e-02,-1.833564974367618561e-02,-5.234929267317056656e-03,-9.959228336811065674e-03
-2.782588452100753784e-02,-5.547017976641654968e-02,-1.606807298958301544e-02,-5.405374616384506226e-02,-4.231299459934234619e-02,1.969831646420061588e-04,-2.095489390194416046e-02,-5.432426184415817261e-02,3.340417146682739258e-02
5.276263505220413208e-02,-9.409587085247039795e-02,-2.605507383123040199e-03,5.856738612055778503e-02,-9.182531386613845825e-02,1.182480342686176300e-02,4.238360375165939331e-02,-1.349792480468750000e-01,2.625198848545551300e-02
-1.063530871761031449e-04,2.666959352791309357e-02,1.672729104757308960e-02,-9.547004476189613342e-03,2.154267951846122742e-02,-3.004253096878528595e-02,-3.704182058572769165e-02,-4.986825864762067795e-03,-1.316751819103956223e-02
-1.927857287228107452e-02,-1.640455564484000206e-03,-8.943280205130577087e-03,-2.997533790767192841e-02,-3.867705166339874268e-02,-3.318935632705688477e-02,7.642813492566347122e-03,1.980666257441043854e-02,-4.400157835334539413e-03
-3.184588253498077393e-02,-9.724495001137256622e-03,-3.859628923237323761e-03,-1.355320960283279419e-02,9.779360843822360039e-04,9.820437058806419373e-03,-2.742429077625274658e-02,-9.730523452162742615e-03,9.419894777238368988e-04
-4.628757946193218231e-03,-3.024546243250370026e-02,-2.053194865584373474e-02,-4.091620445251464844e-02,3.993095457553863525e-02,3.407963551580905914e-03,5.562715232372283936e-02,3.572509158402681351e-03,1.103506051003932953e-02
-5.492677446454763412e-03,-5.520547740161418915e-03,-1.029758248478174210e-02,-6.494673900306224823e-03,-3.553158044815063477e-02,-1.530234143137931824e-02,-1.217533554881811142e-02,-2.667452953755855560e-02,-2.460132725536823273e-02
8.873264305293560028e-03,3.376047592610120773e-03,-1.784434076398611069e-03,8.570246398448944092e-03,-1.034249784424901009e-03,2.145866490900516510e-02,9.383278898894786835e-03,1.574172638356685638e-02,5.839944351464509964e-03
2.147817984223365784e-02,-1.428823266178369522e-02,5.566876381635665894e-03,1.813354156911373138e-02,4.048161953687667847e-02,2.670437097549438477e-02,-2.993906848132610321e-03,-1.761656440794467926e-02,3.144598007202148438e-02
8.936105296015739441e-03,2.480269595980644226e-02,1.462924107909202576e-02,5.791603121906518936e-03,3.256628662347793579e-02,-7.952264510095119476e-03,-9.657379705458879471e-04,2.856163866817951202e-02,-9.909331798553466797e-03
1.378697715699672699e-02,-3.291522152721881866e-03,-1.216946728527545929e-02,-2.450818568468093872e-02,5.869358777999877930e-03,1.997867412865161896e-02,-3.994590602815151215e-03,2.059759013354778290e-02,6.429600180126726627e-04
3.018557839095592499e-02,5.046430602669715881e-02,4.486683383584022522e-02,-2.053780481219291687e-02,2.298234589397907257e-02,-1.362155936658382416e-02,3.967728838324546814e-02,4.016748443245887756e-02,5.402888171374797821e-03
6.445319857448339462e-03,3.875160589814186096e-02,-2.180505543947219849e-02,-2.527909819036722183e-03,-1.051249448210000992e-02,-8.480601757764816284e-02,3.388069570064544678e-02,1.812918484210968018e-02,-9.297264739871025085e-03
1.490706484764814377e-02,1.166623365134000778e-02,2.347087115049362183e-02,-9.857455268502235413e-03,-2.106412872672080994e-02,3.064027288928627968e-03,-2.245834469795227051e-02,-1.564306672662496567e-03,-1.010936219245195389e-02
2.818524837493896484e-02,1.615218073129653931e-02,4.068355541676282883e-03,-1.426602527499198914e-02,-2.247284166514873505e-02,-7.154463790357112885e-03,1.470031682401895523e-02,8.539391681551933289e-03,1.307700667530298233e-02
2.066865377128124237e-02,7.230929285287857056e-02,5.550762265920639038e-02,-1.412562467157840729e-02,7.846603170037269592e-03,5.393769126385450363e-03,3.890320891514420509e-03,-1.655184663832187653e-02,7.704581599682569504e-03
-2.311365678906440735e-02,1.716977916657924652e-02,1.029717084020376205e-02,-3.348897024989128113e-02,7.353902794420719147e-03,3.832441568374633789e-02,2.310388162732124329e-02,4.932329058647155762e-02,5.634696781635284424e-02
-3.559114038944244385e-02,-1.192664448171854019e-02,-1.751956902444362640e-02,-2.309179119765758514e-02,3.401605039834976196e-02,-3.229089826345443726e-02,-5.298967938870191574e-03,-9.668951854109764099e-03,-8.465035934932529926e-04
1.939441310241818428e-03,-1.467349240556359291e-03,-3.313713148236274719e-02,1.487628649920225143e-02,4.649433307349681854e-03,-5.131802987307310104e-03,3.776850411668419838e-03,-1.679675187915563583e-03,-3.247988969087600708e-02
-1.864884980022907257e-02,-1.145862508565187454e-02,3.354186564683914185e-02,-2.521573752164840698e-02,-1.163543760776519775e-02,3.867905214428901672e-02,-1.892947778105735779e-02,6.675069016637280583e-05,2.837253548204898834e-02
-5.651173181831836700e-03,8.367738686501979828e-03,2.519917301833629608e-02,1.513183303177356720e-02,1.487286109477281570e-02,3.564449027180671692e-02,2.408656477928161621e-02,1.326449681073427200e-03,1.982213184237480164e-02
-1.880046725273132324e-02,-2.035835012793540955e-02,-6.626321934163570404e-03,1.140433363616466522e-02,3.294387087225914001e-02,3.742610290646553040e-02,-6.410523317754268646e-03,7.338632829487323761e-03,1.286824978888034821e-02
-1.225643884390592575e-02,1.151810120791196823e-02,-5.520106060430407524e-04,9.397015906870365143e-03,1.972458511590957642e-02,1.660826988518238068e-02,-9.986123070120811462e-03,-2.302045375108718872e-02,-1.138639170676469803e-02
-1.679414696991443634e-02,-1.855538412928581238e-02,-2.415849082171916962e-02,-6.950126960873603821e-03,-3.137991204857826233e-02,3.978831227868795395e-03,4.287161305546760559e-02,1.193710602819919586e-02,-8.141876198351383209e-03
2.295273356139659882e-02,-3.106296248733997345e-02,-1.614862307906150818e-02,-4.436530545353889465e-02,-3.611724451184272766e-02,-6.849290337413549423e-03,2.215191256254911423e-03,6.168895959854125977e-02,-1.946966908872127533e-02
-1.956868357956409454e-02,5.878317728638648987e-02,-1.885400712490081787e-02,-2.372659929096698761e-02,2.561136335134506226e-02,-4.554287716746330261e-02,-3.771725296974182129e-02,4.283918812870979309e-02,-7.489195559173822403e-03
-1.976668718270957470e-04,5.327245453372597694e-04,1.275542844086885452e-02,-5.277127493172883987e-03,4.469820298254489899e-03,-1.164125371724367142e-02,-1.803921768441796303e-03,-1.120224781334400177e-02,9.165028110146522522e-03
2.154373750090599060e-02,2.617369219660758972e-02,1.484608091413974762e-02,2.074854262173175812e-02,1.810631528496742249e-02,2.225137129426002502e-02,3.168518096208572388e-02,2.909128181636333466e-02,2.805155143141746521e-02
3.794280346482992172e-03,8.958869613707065582e-03,6.300818175077438354e-03,-1.398228196194395423e-04,-8.893541246652603149e-02,-8.241857402026653290e-03,1.198412384837865829e-02,2.443393319845199585e-02,-6.640500389039516449e-03
3.073449246585369110e-02,-5.033564195036888123e-02,1.320792268961668015e-02,1.197536662220954895e-02,1.818728633224964142e-02,4.426030069589614868e-02,6.035700906068086624e-03,2.351726964116096497e-02,-8.162609301507472992e-03
3.154310211539268494e-02,2.136007323861122131e-02,1.277736015617847443e-02,5.460476968437433243e-03,-3.079552203416824341e-02,-3.121684119105339050e-02,7.987752556800842285e-03,-3.341096267104148865e-02,-1.993328891694545746e-02
-7.326507940888404846e-03,-5.318030714988708496e-03,-8.417960256338119507e-03,-1.379438117146492004e-02,-1.221456825733184814e-01,-1.157982274889945984e-02,8.571960031986236572e-03,-7.101584691554307938e-03,-1.621583476662635803e-02
-4.763015080243349075e-03,-3.946439549326896667e-02,-2.738201618194580078e-02,-3.153867274522781372e-02,5.405540391802787781e-02,5.479570105671882629e-02,2.291087806224822998e-02,-9.779042564332485199e-03,-8.949096500873565674e-02
-3.602000186219811440e-03,8.641860447824001312e-03,-6.350758485496044159e-03,6.005969829857349396e-03,-6.187773775309324265e-03,-1.048397831618785858e-02,4.374152049422264099e-03,2.015939680859446526e-03,3.833848750218749046e-03
3.848588466644287109e-02,-1.114223431795835495e-02,7.473134249448776245e-02,-3.026953898370265961e-02,3.592014685273170471e-02,4.686564952135086060e-02,6.894689518958330154e-03,4.324708133935928345e-02,5.665074661374092102e-02
-8.521758019924163818e-03,-6.154472753405570984e-02,-4.538113251328468323e-02,8.906376548111438751e-03,-3.459531813859939575e-02,-3.026282647624611855e-03,4.176718741655349731e-02,-5.504237860441207886e-02,-2.357750572264194489e-02
-2.118265070021152496e-02,-1.925052702426910400e-02,9.524778462946414948e-03,-2.672225935384631157e-03,4.834275692701339722e-03,1.122934371232986450e-02,-9.359630756080150604e-03,-8.259152062237262726e-03,-4.666930064558982849e-03
-2.518045715987682343e-03,1.081925001926720142e-03,-2.134931506589055061e-03,1.382961589843034744e-02,4.357753321528434753e-03,1.832480658777058125e-03,-8.871819823980331421e-03,2.152149006724357605e-02,2.892816206440329552e-03
-2.390653453767299652e-02,-1.010375656187534332e-02,-6.960804108530282974e-03,1.770311966538429260e-02,6.298979371786117554e-02,-1.763224415481090546e-02,-9.690944105386734009e-03,-4.955932497978210449e-03,9.850888513028621674e-03
-1.578835584223270416e-02,2.143954299390316010e-02,-8.486143313348293304e-03,6.126868072897195816e-03,-2.435683608055114746e-01,8.531569689512252808e-02,-4.029741045087575912e-03,3.508394956588745117e-02,1.857078447937965393e-02
2.474927809089422226e-03,-1.414128229953348637e-03,6.248479243367910385e-03,-4.283437039703130722e-03,-3.583612665534019470e-02,-1.021840889006853104e-02,-1.037120819091796875e-04,-7.417441811412572861e-03,-5.873513873666524887e-03
-4.143012687563896179e-02,-3.025901876389980316e-02,2.034742571413516998e-02,2.749511413276195526e-02,-3.197937086224555969e-02,-2.574183233082294464e-02,1.966989412903785706e-02,-1.156236603856086731e-02,-7.122599519789218903e-03
-8.515723049640655518e-03,3.499471768736839294e-02,-2.613119035959243774e-02,2.845988236367702484e-02,2.602100558578968048e-02,-3.845631331205368042e-02,1.578906364738941193e-02,-2.537746168673038483e-02,1.165148802101612091e-02
-4.816753324121236801e-03,5.359410773962736130e-03,4.107540007680654526e-03,-1.612545177340507507e-02,-2.544276788830757141e-02,-1.032388675957918167e-02,-2.009022422134876251e-02,-3.744113445281982422e-02,-1.659573800861835480e-02
1.297185756266117096e-02,-6.503174453973770142e-02,-3.228478878736495972e-02,2.407648600637912750e-02,1.052252110093832016e-02,5.652331933379173279e-02,-1.807896979153156281e-02,-1.391721237450838089e-02,-1.736445003189146519e-03
-1.454728096723556519e-02,9.443028829991817474e-03,-1.516429334878921509e-02,4.674308001995086670e-02,-1.175317075103521347e-02,-1.947566308081150055e-02,6.310214847326278687e-02,9.898609481751918793e-03,9.773693978786468506e-03
1.987172476947307587e-02,5.926131416345015168e-05,1.180203980766236782e-03,-3.507918678224086761e-03,-1.782090985216200352e-03,1.638003741391003132e-03,-1.016625389456748962e-01,-2.207810990512371063e-03,-1.308143883943557739e-02
2.197711914777755737e-02,8.670542389154434204e-03,2.775285579264163971e-02,-2.253534970805048943e-03,-3.489442542195320129e-02,3.898176923394203186e-02,-2.626335993409156799e-02,-8.845583349466323853e-02,-7.115248590707778931e-03
-1.172280870378017426e-02,2.358306758105754852e-02,8.470028638839721680e-03,-1.821899227797985077e-02,-3.351570921950042248e-04,-7.932246662676334381e-03,-3.088765218853950500e-02,-1.896339841187000275e-02,-2.229326590895652771e-02
-5.115122999995946884e-03,-9.452442638576030731e-03,-1.225560344755649567e-02,-6.262799724936485291e-03,3.296301513910293579e-02,1.973971491679549217e-03,-4.622388165444135666e-03,4.598340485244989395e-03,3.795064054429531097e-03
-2.383654005825519562e-02,-3.309010714292526245e-02,-2.859851904213428497e-02,-8.435543626546859741e-03,-1.080703223124146461e-03,9.943933226168155670e-03,4.658226389437913895e-03,1.761081442236900330e-02,-1.951238838955760002e-03
-3.433492383919656277e-04,-8.415419608354568481e-03,5.122219678014516830e-03,-1.036739815026521683e-02,1.577438712120056152e-01,-4.256685264408588409e-03,2.185096405446529388e-02,2.002160064876079559e-02,1.283210981637239456e-02
1.962489634752273560e-02,-3.116120351478457451e-03,-1.147034578025341034e-02,-1.987367309629917145e-02,-9.413424879312515259e-03,-1.214774232357740402e-02,8.140515536069869995e-03,-5.533973686397075653e-03,-7.909821346402168274e-03
1.782118529081344604e-02,1.889420114457607269e-02,-9.674450382590293884e-03,-2.600499801337718964e-02,-1.953228004276752472e-02,-2.123036049306392670e-02,-2.285079099237918854e-02,-1.709618791937828064e-02,-3.572652116417884827e-02
-6.691188365221023560e-02,-9.886013716459274292e-02,-1.872065104544162750e-02,-3.166021779179573059e-02,-4.872598126530647278e-02,-1.813285425305366516e-02,-1.176798623055219650e-02,-3.484302014112472534e-02,-1.097552012652158737e-02
-9.583680890500545502e-03,-2.034395188093185425e-02,-2.698486903682351112e-03,2.078068675473332405e-03,1.036614272743463516e-02,-9.629460982978343964e-03,1.039409637451171875e-02,-6.057132966816425323e-03,8.956437930464744568e-03
-1.854095607995986938e-02,1.995545253157615662e-02,2.206427790224552155e-02,-1.523420494049787521e-02,4.840074852108955383e-02,-1.538446545600891113e-02,1.092244498431682587e-02,-2.040101401507854462e-02,-1.772829564288258553e-04
-3.456944599747657776e-03,-3.983560949563980103e-03,-4.872153978794813156e-03,-1.097527518868446350e-02,-1.709400117397308350e-02,-2.335317665711045265e-03,-1.469370094127953053e-03,-2.912477822974324226e-03,-5.659211892634630203e-03
-1.687213219702243805e-02,4.866798594594001770e-02,-1.347992196679115295e-02,-9.948698803782463074e-03,-8.205601014196872711e-03,-1.607226394116878510e-02,-5.378689616918563843e-03,-1.229446660727262497e-02,-1.067867223173379898e-02
-3.250736044719815254e-03,-2.741695847362279892e-03,2.189578488469123840e-02,1.176756620407104492e-02,6.462888792157173157e-03,5.327885039150714874e-03,-9.297402575612068176e-03,-1.251566410064697266e-02,-9.486664086580276489e-03
5.234007257968187332e-03,7.962515205144882202e-02,5.641407519578933716e-02,-6.430723005905747414e-04,8.456169068813323975e-02,5.177465826272964478e-02,-1.097032427787780762e-02,4.008001647889614105e-03,5.141076631844043732e-03
2.129836473613977432e-03,6.857112050056457520e-03,6.753787398338317871e-03,2.405323088169097900e-02,-1.175575405359268188e-01,-2.492403145879507065e-03,-4.676437471061944962e-03,6.128451321274042130e-03,-1.157799456268548965e-02
1.877445727586746216e-02,4.667830839753150940e-02,2.852516062557697296e-02,2.455155597999691963e-03,1.664244011044502258e-02,-1.109535712748765945e-02,-2.619112376123666763e-03,9.661087533459067345e-04,-2.530794031918048859e-02
3.142635896801948547e-02,2.407782897353172302e-02,-5.852306261658668518e-02,2.670491300523281097e-02,2.858409099280834198e-02,-1.178539707325398922e-03,2.508224453777074814e-03,2.926365658640861511e-02,-3.795699030160903931e-02
-4.247244447469711304e-03,-8.913622237741947174e-03,-1.171447220258414745e-03,-2.731283567845821381e-02,4.108531773090362549e-02,2.742334036156535149e-03,-2.494696527719497681e-02,2.642571926116943359e-02,2.590803615748882294e-02
3.310190141201019287e-02,-2.901315502822399139e-02,-1.763084903359413147e-02,1.334148086607456207e-02,-5.102431401610374451e-02,1.948150806128978729e-02,2.961713634431362152e-02,-1.016129623167216778e-03,-1.739226572681218386e-04
4.433028027415275574e-02,3.227255772799253464e-03,-2.729115774855017662e-03,-2.639977633953094482e-02,4.075297340750694275e-02,-6.703717168420553207e-03,3.317803516983985901e-02,4.353680182248353958e-03,1.931578479707241058e-02
-1.040311064571142197e-02,-9.192094206809997559e-03,-1.790444552898406982e-02,1.085217203944921494e-02,2.639686465263366699e-01,1.443167915567755699e-03,-1.144596282392740250e-02,2.052350435405969620e-03,1.074303686618804932e-02
-2.748568914830684662e-02,-5.043833982199430466e-03,7.488674018532037735e-03,-2.014089934527873993e-02,-2.908743172883987427e-02,-5.049269529990851879e-04,-9.552042931318283081e-03,-1.446957606822252274e-02,6.768287159502506256e-03
-4.891275614500045776e-02,-2.429355680942535400e-02,1.787598157534375787e-04,-3.461432829499244690e-02,-3.962374106049537659e-02,1.391029823571443558e-02,6.607656180858612061e-02,3.190625831484794617e-02,2.611036971211433411e-02
-9.067956358194351196e-03,-1.603555679321289062e-02,-2.778181061148643494e-02,-1.644735038280487061e-02,-2.568275853991508484e-02,3.923490643501281738e-02,-1.419466920197010040e-02,-5.642869975417852402e-03,-1.569929532706737518e-02
1.281229592859745026e-02,5.728916730731725693e-03,-5.768890958279371262e-03,-2.063586935400962830e-02,-6.134048104286193848e-02,5.448219599202275276e-04,-3.966835793107748032e-03,-1.285355654545128345e-03,-1.572768948972225189e-02
1.830851286649703979e-02,3.523524850606918335e-02,1.295431889593601227e-02,-1.461463328450918198e-02,1.846201121807098389e-01,-3.566057607531547546e-02,-2.423213794827461243e-02,-2.912528812885284424e-02,-3.978908434510231018e-02
-1.623500138521194458e-02,-3.114442806690931320e-03,-3.726571565493941307e-03,-1.602975279092788696e-02,-4.778658505529165268e-03,-7.803186774253845215e-02,3.220052924007177353e-03,-1.468772185035049915e-03,-7.028189487755298615e-03
-1.452543586492538452e-02,5.051312223076820374e-02,1.733255945146083832e-02,-2.035419084131717682e-02,8.355985581874847412e-02,1.642987877130508423e-02,-3.681914880871772766e-02,3.413423523306846619e-02,3.033527405932545662e-03
2.812458202242851257e-03,1.653232797980308533e-02,1.182555872946977615e-02,3.919362276792526245e-02,2.368697337806224823e-02,2.316810190677642822e-02,1.685228198766708374e-02,2.710946649312973022e-02,3.204180300235748291e-02
-3.648273274302482605e-02,4.437901079654693604e-02,4.433090612292289734e-02,-2.415257506072521210e-02,1.718122884631156921e-02,5.169463902711868286e-02,7.192353717982769012e-03,3.173805028200149536e-02,5.061710998415946960e-02
1.639265939593315125e-02,4.935239441692829132e-03,3.896665945649147034e-02,-2.890331298112869263e-02,-2.659046277403831482e-02,3.583004325628280640e-02,-1.567137613892555237e-02,-3.300803946331143379e-03,-1.192687824368476868e-02
8.100395090878009796e-03,-7.222270220518112183e-02,-2.030904870480298996e-04,1.822288706898689270e-02,4.527583345770835876e-02,1.830800808966159821e-02,5.564647261053323746e-03,9.500686079263687134e-03,1.401098212227225304e-03
-1.005765702575445175e-02,1.619686000049114227e-02,-6.458859145641326904e-02,-2.246873080730438232e-02,2.960955351591110229e-02,-5.467866733670234680e-02,8.704543870408087969e-05,-9.941825643181800842e-03,-8.773701265454292297e-03
3.480591252446174622e-02,2.028014278039336205e-03,1.504628080874681473e-02,-2.130308654159307480e-03,5.289520323276519775e-02,-2.226250804960727692e-02,-4.279092885553836823e-03,-3.478677570819854736e-02,-4.944879189133644104e-02
-2.938570268452167511e-02,-2.424873039126396179e-02,8.689889684319496155e-03,1.659350097179412842e-02,-2.443984337151050568e-02,1.485807634890079498e-02,1.814127527177333832e-02,1.142315752804279327e-02,2.950135618448257446e-02
2.988727018237113953e-02,-4.711190122179687023e-04,-1.095513626933097839e-02,3.270168974995613098e-02,-8.311783894896507263e-03,-3.642802312970161438e-02,-8.083933033049106598e-03,2.547556720674037933e-02,3.774198517203330994e-02
2.960396371781826019e-02,-7.919646799564361572e-03,-1.402662135660648346e-02,3.301179781556129456e-02,2.583357691764831543e-02,-2.808766998350620270e-02,-8.406225591897964478e-03,3.195695811882615089e-03,-3.211238607764244080e-02
1.641250029206275940e-02,-1.009840331971645355e-02,-3.540127351880073547e-02,2.088394574820995331e-02,-3.986244276165962219e-02,-8.245166391134262085e-02,1.207475923001766205e-02,-6.470587849617004395e-02,-1.208121031522750854e-01
-1.041677547618746758e-03,-8.853360079228878021e-03,-2.525444724597036839e-04,2.764064632356166840e-02,5.123817175626754761e-02,3.984285145998001099e-02,1.147922943346202374e-03,1.310112420469522476e-02,1.417763438075780869e-02
3.854554519057273865e-02,2.734986599534749985e-03,2.680792286992073059e-02,2.713331719860434532e-03,2.673321403563022614e-02,1.195070520043373108e-02,7.429433055222034454e-03,6.841764319688081741e-03,1.856977492570877075e-02
-2.001992240548133850e-02,-3.385536000132560730e-02,-6.399292033165693283e-03,4.214544594287872314e-02,2.197953462600708008e-01,-1.765491440892219543e-02,3.080591000616550446e-02,-4.957990720868110657e-03,1.703086122870445251e-02
1.519532967358827591e-02,-3.181184828281402588e-02,-6.553009618073701859e-03,-2.405057288706302643e-02,-6.844931840896606445e-02,-4.621516913175582886e-02,-3.952117636799812317e-02,-1.042478997260332108e-02,-4.024202749133110046e-02
-3.689717501401901245e-03,2.625431632623076439e-03,4.155919328331947327e-02,2.643371000885963440e-03,-2.644323743879795074e-02,6.383399665355682373e-02,-5.909727886319160461e-02,-2.495002560317516327e-02,-8.970716036856174469e-03
-1.176863349974155426e-02,4.277923610061407089e-03,8.101711049675941467e-03,6.178535055369138718e-03,9.733043611049652100e-03,-6.711795181035995483e-02,-4.941707942634820938e-03,2.397828036919236183e-03,1.239802967756986618e-02
-2.212131768465042114e-02,-3.016945160925388336e-02,1.795088755898177624e-03,-1.810160651803016663e-02,-3.737678006291389465e-02,-2.060059271752834320e-02,9.341085329651832581e-03,-1.334746181964874268e-02,-4.412354901432991028e-02
1.585997291840612888e-03,2.529927995055913925e-03,-8.733962662518024445e-03,8.770304732024669647e-03,-1.771031506359577179e-02,7.269365247339010239e-03,-2.098526246845722198e-02,1.821224950253963470e-02,-6.675224285572767258e-04
4.415632691234350204e-03,-1.761696487665176392e-02,1.413911674171686172e-02,-3.691259771585464478e-02,6.335673481225967407e-02,6.235759705305099487e-03,-1.490383408963680267e-03,-5.826090276241302490e-02,-1.404205523431301117e-02
-4.662647843360900879e-03,-4.063851665705442429e-03,3.931086044758558273e-03,2.616376383230090141e-03,-4.749569669365882874e-02,7.353435648838058114e-05,2.133463323116302490e-02,-4.103012382984161377e-02,1.929846126586198807e-03
