-8.454594612121582031e-01
-2.168130874633789062e-01
1.055828571319580078e+00
1.774401031434535980e-02
8.028418570756912231e-02
6.448767781257629395e-01
-2.388273626565933228e-01
8.908501267433166504e-01
6.688332557678222656e-01
5.361789837479591370e-02
-1.156967729330062866e-01
1.325409263372421265e-01
-1.529341787099838257e-01
9.256839007139205933e-02
4.306559450924396515e-03
1.885775029659271240e-01
4.495983943343162537e-03
7.992652803659439087e-02
-1.767238825559616089e-01
7.645885944366455078e-01
5.231462046504020691e-02
7.879503965377807617e-01
1.232764422893524170e-01
3.020015656948089600e-01
-4.717022180557250977e-02
2.839749455451965332e-01
6.648039445281028748e-03
-3.676539659500122070e-01
1.494782418012619019e-01
-3.491567075252532959e-02
-1.803457885980606079e-01
-3.616691231727600098e-01
1.486005261540412903e-03
4.889163970947265625e-01
2.177186459302902222e-01
-2.634198069572448730e-01
8.390925824642181396e-03
2.173373103141784668e-01
1.988783836364746094e+00
5.677639842033386230e-01
-1.083948016166687012e-01
-7.404406666755676270e-01
-4.252163469791412354e-01
3.378457129001617432e-01
-1.505350321531295776e-01
-2.315865308046340942e-01
-9.137189388275146484e-01
2.267874628305435181e-01
-3.585326373577117920e-01
1.599939912557601929e-01
-7.300351262092590332e-01
1.215434551239013672e+00
-8.568664789199829102e-01
-1.460334509611129761e-01
-1.900952756404876709e-01
1.316627562046051025e-01
-4.358194395899772644e-02
-4.623444080352783203e-01
-1.346052885055541992e-01
-1.841106712818145752e-01
4.375239610671997070e-01
-3.312007784843444824e-01
4.771116375923156738e-01
-3.707613945007324219e-01
