4.256643652915954590e-01
2.741021215915679932e-01
-6.213620305061340332e-01
-4.303775429725646973e-01
1.511349797248840332e+00
4.750690236687660217e-02
-6.848308444023132324e-02
-3.440829515457153320e-01
2.274368852376937866e-01
-7.631886005401611328e-01
1.871110051870346069e-01
-1.494012326002120972e-01
-6.913162767887115479e-02
-4.849098622798919678e-03
1.002174392342567444e-01
-6.106179356575012207e-01
9.495198726654052734e-03
2.834194302558898926e-01
-3.876146972179412842e-01
-1.736482605338096619e-02
-5.917112827301025391e-01
-1.234838813543319702e-01
-1.120353117585182190e-04
4.294693171977996826e-01
-1.173555105924606323e-01
-7.365712523460388184e-01
3.727434873580932617e-01
2.421786785125732422e-01
-1.327348351478576660e+00
-4.258301258087158203e-01
-3.415129482746124268e-01
-5.905064344406127930e-01
1.507107764482498169e-01
-1.212249174714088440e-01
1.949473619461059570e-01
5.963332653045654297e-01
1.463502645492553711e-01
3.627521395683288574e-01
1.056557655334472656e+00
2.168103009462356567e-01
3.616783618927001953e-01
-1.031624898314476013e-01
-4.210812449455261230e-01
-3.281541168689727783e-01
-1.779935806989669800e-01
-3.381278216838836670e-01
2.527409493923187256e-01
-1.216712873429059982e-02
-4.421276450157165527e-01
-8.906995654106140137e-01
4.062945842742919922e-01
1.741673499345779419e-01
1.353043615818023682e-01
-1.853528916835784912e-01
6.918559670448303223e-01
-2.380379587411880493e-01
-3.445722460746765137e-01
-1.191491112112998962e-01
4.760657250881195068e-01
1.213289052248001099e-02
-3.720256686210632324e-01
-1.442500501871109009e-01
-1.642758958041667938e-02
-6.000064611434936523e-01
