-1.103680348023772240e-03,-2.824464812874794006e-03,3.739019483327865601e-02,-3.181736543774604797e-02,-4.510331898927688599e-03,1.444835402071475983e-02,-4.628985002636909485e-02,-3.114720433950424194e-02,1.163259986788034439e-02
-8.401972055435180664e-02,4.875855986028909683e-03,-5.773086473345756531e-02,-1.231640391051769257e-02,8.399146050214767456e-02,4.345842450857162476e-02,-2.389180735917761922e-04,4.615817219018936157e-02,1.142408046871423721e-02
-2.202080376446247101e-02,3.870188072323799133e-02,-1.328135561197996140e-02,-5.987611040472984314e-02,3.529353067278862000e-02,6.114796921610832214e-02,5.004242528229951859e-03,1.427598390728235245e-02,-2.737786620855331421e-02
-3.155493736267089844e-02,-1.274953316897153854e-02,4.803331568837165833e-02,-4.543790593743324280e-02,6.166505068540573120e-02,3.591744601726531982e-02,-1.643638499081134796e-02,3.694617375731468201e-02,-1.889663003385066986e-02
2.337253093719482422e-02,-4.027450457215309143e-02,-3.024047985672950745e-02,-2.767068706452846527e-02,-2.625717036426067352e-02,-3.672572318464517593e-03,3.140942752361297607e-02,-1.310910098254680634e-02,-3.338406234979629517e-02
5.877157300710678101e-02,7.788500934839248657e-02,-1.366705633699893951e-02,-1.029618456959724426e-01,2.072478644549846649e-02,1.938112080097198486e-02,1.035657915053889155e-04,-4.762685671448707581e-02,4.722749441862106323e-02
8.254229091107845306e-03,-2.335665374994277954e-02,-5.778254009783267975e-03,2.271661162376403809e-02,-4.834567662328481674e-03,2.803549543023109436e-02,-1.039273105561733246e-02,-4.620048776268959045e-02,-3.097070567309856415e-02
7.447413355112075806e-02,2.475754916667938232e-02,4.726162552833557129e-02,4.326002672314643860e-02,1.709523983299732208e-02,-3.732280805706977844e-02,-6.173572316765785217e-02,-2.922444976866245270e-02,-4.259185120463371277e-02
-1.611241325736045837e-02,-2.167077176272869110e-02,-7.497837394475936890e-02,3.213600069284439087e-02,7.659164071083068848e-02,6.328414659947156906e-03,1.015410292893648148e-02,1.328157912939786911e-02,2.401829138398170471e-02
4.121367260813713074e-02,7.137245964258909225e-03,1.358247734606266022e-02,-6.743551790714263916e-02,-4.885416850447654724e-02,-1.934345695190131664e-03,1.290462817996740341e-02,1.797753013670444489e-02,-1.716481335461139679e-02
1.900614239275455475e-02,-1.937916502356529236e-02,2.915122173726558685e-02,5.008525773882865906e-02,4.198290035128593445e-02,2.989716082811355591e-02,1.523505244404077530e-02,-4.299208894371986389e-02,2.695449255406856537e-02
-1.829062215983867645e-02,4.272368736565113068e-03,-9.375090710818767548e-03,-1.046165265142917633e-02,-1.204807013273239136e-01,-2.861334569752216339e-02,2.681041078176349401e-04,1.189851388335227966e-02,2.483160048723220825e-02
9.661754593253135681e-03,1.116949412971735001e-02,-1.469273120164871216e-02,-9.628622792661190033e-03,1.825071573257446289e-01,3.774979384616017342e-03,-1.614359021186828613e-02,2.914106845855712891e-02,6.063314154744148254e-02
-7.088164240121841431e-02,-6.364019960165023804e-02,-1.876838691532611847e-02,-3.735741227865219116e-02,-1.261710077524185181e-01,4.219319298863410950e-02,-9.813101030886173248e-03,8.571870625019073486e-02,-2.912715543061494827e-03
-3.999370709061622620e-02,-3.382873535156250000e-02,4.236285574734210968e-03,5.457258597016334534e-02,1.073815766721963882e-02,9.431243874132633209e-03,2.010712772607803345e-02,2.713404828682541847e-03,-3.013239614665508270e-02
8.520636765751987696e-05,-4.028376936912536621e-02,-4.183112829923629761e-02,5.302806571125984192e-02,-6.001761648803949356e-03,-4.520265851169824600e-03,5.316367000341415405e-02,3.605272620916366577e-02,-4.142395406961441040e-02
-2.439769450575113297e-03,-2.300944738090038300e-02,-2.578068338334560394e-02,5.279246717691421509e-02,-3.686875849962234497e-02,-5.103821307420730591e-02,1.596979238092899323e-02,1.535264775156974792e-02,2.902317233383655548e-02
-3.432426974177360535e-02,-2.538426406681537628e-02,1.377048174617812037e-04,1.405076961964368820e-02,3.409574180841445923e-02,5.065451562404632568e-02,1.823982410132884979e-02,2.453398518264293671e-02,9.852071292698383331e-03
-4.098659753799438477e-02,-9.506472386419773102e-03,-2.615264151245355606e-03,-4.024781752377748489e-03,8.848086744546890259e-02,1.432498451322317123e-02,1.220005471259355545e-02,2.333281934261322021e-02,3.281786292791366577e-02
-1.752282306551933289e-02,1.954288035631179810e-02,-4.417585581541061401e-02,5.939468741416931152e-02,-2.033565342426300049e-01,2.620998583734035492e-02,1.688491925597190857e-02,1.225113030523061752e-02,1.362023036926984787e-02
2.550566568970680237e-02,-3.083835588768124580e-03,5.272373557090759277e-02,1.283784024417400360e-02,4.416147246956825256e-02,-4.442872479557991028e-02,-1.435215491801500320e-02,-1.204463280737400055e-02,-3.397535905241966248e-02
-3.103421255946159363e-02,6.938721239566802979e-02,-1.243682578206062317e-02,4.284372553229331970e-02,-9.891126304864883423e-02,1.141343265771865845e-02,-2.687689475715160370e-02,-4.739257972687482834e-03,-8.964825421571731567e-03
7.372993975877761841e-02,-1.202591601759195328e-02,2.287124656140804291e-02,1.575615443289279938e-02,-5.386625602841377258e-02,-1.577641069889068604e-02,4.818069562315940857e-02,-1.805967837572097778e-02,6.893547251820564270e-03
6.279726512730121613e-03,-3.897338733077049255e-02,-2.449024282395839691e-02,-4.413014650344848633e-02,1.402100473642349243e-01,6.695204228162765503e-02,-5.200716853141784668e-02,1.276263268664479256e-03,-6.529413908720016479e-02
-2.400381863117218018e-02,2.033419720828533173e-02,2.311926148831844330e-02,-4.580415040254592896e-02,8.433403819799423218e-02,-1.767447404563426971e-02,-2.311343513429164886e-02,-1.490688696503639221e-02,5.366327613592147827e-02
5.663157254457473755e-02,4.134267196059226990e-02,-3.936000168323516846e-02,2.737988717854022980e-02,-9.774973243474960327e-02,-8.716491609811782837e-02,-1.625736430287361145e-02,-1.034464966505765915e-02,-2.097298391163349152e-02
-4.423742741346359253e-02,5.664999131113290787e-03,-3.929688036441802979e-02,-2.620676066726446152e-03,5.037575587630271912e-02,1.310511771589517593e-02,-3.718568244948983192e-03,1.276283860206604004e-01,1.421837881207466125e-02
1.102433353662490845e-02,-7.633824646472930908e-02,3.860534727573394775e-02,8.922023698687553406e-03,1.234210282564163208e-01,-8.156416937708854675e-03,9.847896173596382141e-03,7.166913244873285294e-03,-1.840001321397721767e-03
2.788822539150714874e-02,9.070347994565963745e-03,-2.548014372587203979e-02,-6.364700850099325180e-03,-1.190739348530769348e-01,2.505539543926715851e-02,-1.166650000959634781e-02,-4.465810582041740417e-02,-4.168198630213737488e-02
-1.239890139549970627e-02,2.267656475305557251e-02,3.836018219590187073e-02,1.120242942124605179e-02,-1.252601947635412216e-02,7.785204332321882248e-03,-7.865833118557929993e-03,-9.851523675024509430e-03,5.066579207777976990e-02
-3.855840489268302917e-02,6.415270734578371048e-03,-4.179851617664098740e-03,2.732394449412822723e-02,2.582041360437870026e-02,-6.882123649120330811e-02,8.976379409432411194e-03,5.178993940353393555e-02,2.378545142710208893e-02
-3.000008128583431244e-02,6.421210616827011108e-02,2.153315022587776184e-02,-1.276301871985197067e-02,2.306295558810234070e-03,1.685508154332637787e-02,-5.641780421137809753e-02,-1.177454926073551178e-02,3.640247881412506104e-02
2.408706583082675934e-02,-2.122602984309196472e-02,5.128649249672889709e-02,3.398825973272323608e-02,-8.773560076951980591e-02,-2.586813084781169891e-02,-1.393550727516412735e-02,-1.717662066221237183e-02,1.302302815020084381e-02
-3.076970949769020081e-02,-7.321924436837434769e-03,-3.289231332018971443e-03,-1.783136092126369476e-02,-2.575546316802501678e-02,2.363973297178745270e-03,-3.683163598179817200e-02,-1.531447097659111023e-02,7.595472037792205811e-03
-1.397737395018339157e-02,1.937671937048435211e-02,3.806710615754127502e-02,-2.442698180675506592e-02,5.182883702218532562e-03,5.461082607507705688e-02,-1.962852105498313904e-02,1.634256914258003235e-02,5.419898778200149536e-02
2.082793414592742920e-02,1.061030011624097824e-02,-3.912353422492742538e-03,1.537740696221590042e-02,6.702701561152935028e-03,1.746113039553165436e-02,1.267187111079692841e-02,-4.518449306488037109e-02,-3.655119985342025757e-02
-8.138208650052547455e-03,-5.140780657529830933e-02,-1.942962966859340668e-02,-5.349661782383918762e-02,2.577006444334983826e-02,5.199144035577774048e-02,2.124003320932388306e-02,-4.306182265281677246e-02,1.599678397178649902e-02
-5.424873530864715576e-02,-4.743976518511772156e-02,-2.729338966310024261e-02,2.180228196084499359e-02,3.183254972100257874e-02,3.701471909880638123e-02,-2.322085201740264893e-02,3.841285780072212219e-02,6.998223066329956055e-02
-1.965617015957832336e-02,-2.571888267993927002e-02,-6.497617065906524658e-02,4.808933287858963013e-02,-4.216861352324485779e-02,3.324895352125167847e-02,-3.077172115445137024e-02,1.392508763819932938e-02,2.275690203532576561e-03
7.947204262018203735e-02,1.933888159692287445e-02,-2.360206097364425659e-02,3.840876743197441101e-02,-1.190732046961784363e-01,-9.968210943043231964e-03,3.179223090410232544e-02,-1.956534758210182190e-02,-3.453283337876200676e-03
-2.170920744538307190e-02,-4.388987552374601364e-03,4.959373548626899719e-02,-5.401422828435897827e-02,1.857268158346414566e-03,3.927889280021190643e-03,-2.469750493764877319e-02,-1.816411875188350677e-02,-2.496706694364547729e-02
-5.562355369329452515e-02,-3.266721963882446289e-02,1.229092199355363846e-02,-3.085705637931823730e-02,9.366773068904876709e-02,5.716658383607864380e-02,-1.327932439744472504e-02,-1.229084748774766922e-02,2.961708232760429382e-02
-5.732867866754531860e-02,-4.081119596958160400e-02,3.113798983395099640e-02,4.383363574743270874e-02,7.871718704700469971e-02,3.773319534957408905e-03,3.505871817469596863e-02,1.072316803038120270e-02,-2.568486891686916351e-02
-1.142774708569049835e-02,2.244362607598304749e-03,-3.638171404600143433e-02,2.957476489245891571e-02,3.410003706812858582e-02,4.678338021039962769e-02,3.088483773171901703e-02,-8.653436787426471710e-03,-1.719962619245052338e-02
1.991900615394115448e-02,-7.148009538650512695e-02,-8.127150940708816051e-04,-1.612989418208599091e-02,-1.570879220962524414e-01,8.975259028375148773e-03,2.284036204218864441e-02,-2.427439205348491669e-02,5.789900571107864380e-02
1.429163967259228230e-03,-8.164704591035842896e-02,5.273774638772010803e-02,-7.524999231100082397e-02,2.581039443612098694e-02,2.120658196508884430e-02,1.828612759709358215e-02,-6.117805093526840210e-02,1.537513220682740211e-03
4.434759914875030518e-02,8.644089102745056152e-03,-8.388282731175422668e-03,-1.632972806692123413e-02,1.614895910024642944e-01,-3.598378598690032959e-02,-6.740584969520568848e-03,1.504856161773204803e-02,-2.187536470592021942e-02
3.155459836125373840e-02,3.188833594322204590e-02,-1.431099139153957367e-02,4.803509265184402466e-02,-2.008278667926788330e-01,2.414863184094429016e-02,6.848481483757495880e-03,2.469732798635959625e-02,7.554661482572555542e-03
6.945137865841388702e-03,9.196871891617774963e-03,1.855336502194404602e-02,3.946077078580856323e-02,-2.070428133010864258e-01,1.065878104418516159e-02,2.489862591028213501e-02,-2.086375281214714050e-02,-1.165650412440299988e-02
-1.378046628087759018e-02,4.300838708877563477e-02,2.104842290282249451e-02,1.220102421939373016e-02,-1.443623844534158707e-02,3.088086657226085663e-02,1.938823610544204712e-02,1.447437983006238937e-02,-1.207376178354024887e-02
3.954852372407913208e-02,-1.537640113383531570e-02,-3.331085667014122009e-02,-1.444023847579956055e-02,-2.141281031072139740e-02,8.784163743257522583e-03,-5.635939072817564011e-03,2.990982495248317719e-02,6.665429682470858097e-04
-3.152075037360191345e-02,2.131883054971694946e-02,8.327228017151355743e-03,-9.041624143719673157e-03,7.740208879113197327e-03,3.877606615424156189e-02,9.351664222776889801e-03,4.936814308166503906e-02,1.158535014837980270e-02
1.970492675900459290e-02,-1.626591011881828308e-02,-2.441384270787239075e-02,-2.823566319420933723e-03,-4.388615489006042480e-02,-2.665781974792480469e-02,2.085045911371707916e-02,-1.109939999878406525e-02,-3.369914600625634193e-03
-5.959529895335435867e-03,-3.006175393238663673e-03,1.084686722606420517e-02,-4.445338994264602661e-02,1.725482940673828125e-02,7.707692217081785202e-03,-5.795513466000556946e-02,2.296911366283893585e-02,1.686600036919116974e-02
5.935738794505596161e-03,-3.526260703802108765e-02,-5.625212565064430237e-02,-2.507461793720722198e-02,1.198074221611022949e-01,8.636408299207687378e-02,-1.270090881735086441e-02,1.449447497725486755e-02,2.565174549818038940e-02
4.911531880497932434e-02,-3.216775879263877869e-02,1.339628128334879875e-03,-2.133841812610626221e-02,1.586069911718368530e-01,-5.674785748124122620e-02,6.999253295361995697e-03,-5.710782855749130249e-02,-3.176924586296081543e-02
1.047375891357660294e-02,-1.173942759633064270e-01,6.401672028005123138e-03,-3.720661625266075134e-02,1.872252486646175385e-02,-3.420352935791015625e-02,5.584018677473068237e-02,-4.716893658041954041e-02,2.916374616324901581e-02
4.901688545942306519e-02,1.010495573282241821e-01,5.163225904107093811e-02,-3.637111559510231018e-02,-2.432564646005630493e-02,-2.228029817342758179e-02,-5.558095127344131470e-02,-6.482491642236709595e-02,-3.354452550411224365e-02
4.797415807843208313e-02,1.051005572080612183e-01,6.400084495544433594e-02,-3.567072376608848572e-02,-2.123851701617240906e-02,-1.683978177607059479e-02,-4.764854907989501953e-02,-6.392113119363784790e-02,-2.825412526726722717e-02
5.364600196480751038e-02,1.036363393068313599e-01,4.652847349643707275e-02,-2.790617011487483978e-02,-2.549864910542964935e-02,-1.028217095881700516e-02,-3.848598152399063110e-02,-6.487482786178588867e-02,-2.017495594918727875e-02
3.096206672489643097e-02,3.246458992362022400e-02,-3.112591244280338287e-02,-9.969704784452915192e-03,3.435645624995231628e-02,-3.265556693077087402e-02,-3.327840939164161682e-03,-6.637593358755111694e-02,-5.847123265266418457e-02
1.604675874114036560e-02,5.469779670238494873e-02,-3.767499700188636780e-03,1.732669421471655369e-03,-1.704205758869647980e-02,7.013685069978237152e-03,-2.288635075092315674e-02,4.325656220316886902e-02,-2.583424188196659088e-02
-1.632042415440082550e-02,-3.023719601333141327e-02,2.477992884814739227e-02,4.249336943030357361e-02,1.493817078880965710e-03,1.377660781145095825e-02,-3.192859888076782227e-02,3.831359371542930603e-02,1.182613335549831390e-02
3.121463814750313759e-03,-2.952767536044120789e-02,-5.051570758223533630e-02,1.727930270135402679e-02,4.710673913359642029e-02,8.334378711879253387e-03,-2.929005771875381470e-02,-3.090033074840903282e-03,-1.765353418886661530e-02
2.927036583423614502e-02,4.232190549373626709e-02,4.058802872896194458e-02,4.924064967781305313e-03,5.660252179950475693e-03,3.275525569915771484e-02,1.263230014592409134e-02,4.058584570884704590e-03,1.549605559557676315e-02
-3.484369814395904541e-02,3.303169459104537964e-02,-4.008652176707983017e-04,-3.876659274101257324e-02,-4.276688024401664734e-02,2.320801652967929840e-02,-2.157156169414520264e-02,-7.363105565309524536e-02,-5.725752562284469604e-03
3.292626887559890747e-02,4.781936295330524445e-03,-2.747184783220291138e-02,-4.667147248983383179e-02,4.701845720410346985e-02,1.794567331671714783e-02,1.092218142002820969e-02,7.680651731789112091e-03,1.746248267590999603e-02
-2.254066430032253265e-02,6.467952579259872437e-02,1.378779765218496323e-02,-5.088774114847183228e-02,-7.376947999000549316e-02,-3.433797508478164673e-03,-1.511117722839117050e-02,-2.718326449394226074e-02,1.307014841586351395e-02
3.606313839554786682e-02,6.996190175414085388e-03,-1.905493997037410736e-02,2.432949282228946686e-02,3.041123412549495697e-02,-5.098870024085044861e-03,7.601943332701921463e-03,-1.408128160983324051e-02,-1.584444567561149597e-02
-1.927231252193450928e-02,-1.718641631305217743e-02,-3.704705089330673218e-02,3.304818272590637207e-02,6.524119060486555099e-03,2.337924903258681297e-03,-1.434677653014659882e-02,-2.919539576396346092e-03,-1.268171332776546478e-02
-1.998533122241497040e-02,-8.913557045161724091e-03,-4.728736728429794312e-02,9.459886699914932251e-02,7.440575398504734039e-03,3.353974595665931702e-02,4.957839846611022949e-02,5.131749436259269714e-02,-4.618889838457107544e-02
-1.633914373815059662e-02,7.923402823507785797e-03,5.263563618063926697e-02,-3.045487776398658752e-02,-1.256930530071258545e-01,3.580785356462001801e-03,1.018820982426404953e-02,4.921402409672737122e-02,-3.460490331053733826e-02
-3.553362190723419189e-02,1.763178152032196522e-04,2.037642523646354675e-03,4.458055831491947174e-03,1.300792694091796875e-01,-1.561161875724792480e-01,-1.964631862938404083e-02,-4.935067612677812576e-03,7.810621708631515503e-02
2.795948088169097900e-02,2.696727635338902473e-03,4.394083842635154724e-02,-2.774319797754287720e-02,-1.491769403219223022e-01,1.116269826889038086e-01,1.112003922462463379e-01,-5.186421796679496765e-02,-6.997954100370407104e-02
1.851942017674446106e-02,-2.189513109624385834e-02,-3.647491335868835449e-02,6.024093832820653915e-03,3.354793414473533630e-02,2.628233470022678375e-02,-7.925847172737121582e-02,4.847443476319313049e-02,2.469946863129734993e-03
-2.897343831136822701e-03,8.122006431221961975e-03,-3.314192965626716614e-02,6.283043418079614639e-03,4.342755302786827087e-02,-6.076636165380477905e-02,2.804131060838699341e-02,-3.571394132450222969e-03,-1.103679649531841278e-02
-1.605170033872127533e-02,-4.392709117382764816e-03,-6.647766567766666412e-03,3.654633834958076477e-02,9.629404544830322266e-02,6.427650805562734604e-03,2.640848048031330109e-02,-9.323415346443653107e-03,-2.775450423359870911e-02
-1.521330443210899830e-03,4.647032171487808228e-02,4.507893323898315430e-02,1.993191987276077271e-02,-1.514816433191299438e-01,5.075857415795326233e-02,-3.379049152135848999e-02,-7.480988651514053345e-02,2.345973439514636993e-02
4.382964596152305603e-02,-4.204715415835380554e-02,-3.252793848514556885e-02,7.215732336044311523e-02,-3.672811016440391541e-02,-4.343065991997718811e-02,4.715726152062416077e-02,-3.932981938123703003e-02,-2.168620750308036804e-02
4.992659762501716614e-02,-3.624740242958068848e-02,-2.251603454351425171e-02,5.932649597525596619e-02,-3.021923266351222992e-02,-2.796914614737033844e-02,5.621077120304107666e-02,-2.175644785165786743e-02,-7.497036713175475597e-04
5.036320164799690247e-02,-1.336425635963678360e-02,-4.175093490630388260e-03,6.251689791679382324e-02,-2.686176076531410217e-02,-2.115631476044654846e-02,3.628984838724136353e-02,-2.795699797570705414e-02,-1.027098298072814941e-02
-2.897769026458263397e-02,-8.743253350257873535e-02,-3.324636816978454590e-02,-1.863277889788150787e-02,3.474479913711547852e-02,1.501584053039550781e-01,-1.293388009071350098e-02,-6.345237791538238525e-02,5.217629671096801758e-02
7.214411348104476929e-02,1.145137622952461243e-01,4.197751730680465698e-02,-2.043205685913562775e-02,2.238367684185504913e-02,-1.914233267307281494e-01,5.300436913967132568e-02,-1.181739121675491333e-01,2.551510557532310486e-02
-4.016423597931861877e-02,-4.991891235113143921e-02,-7.579137105494737625e-03,2.473940886557102203e-02,-2.909692376852035522e-02,2.396997250616550446e-02,-1.832411997020244598e-02,1.685278564691543579e-01,-6.677801907062530518e-02
-3.478942066431045532e-02,-6.177404150366783142e-02,-4.557583481073379517e-02,1.193511020392179489e-02,-4.937659949064254761e-03,7.742847315967082977e-03,4.690963029861450195e-02,5.962547846138477325e-03,4.133265465497970581e-02
-2.815492451190948486e-02,-4.721250012516975403e-02,-5.698625743389129639e-02,4.976579546928405762e-02,1.437241304665803909e-02,3.614283725619316101e-02,5.833593755960464478e-02,-2.362818270921707153e-02,2.819475531578063965e-02
9.991655126214027405e-03,-3.263847157359123230e-02,-3.371036052703857422e-02,4.954898357391357422e-02,-1.702877879142761230e-02,-8.700304664671421051e-03,8.119184523820877075e-02,3.546217922121286392e-03,2.968792570754885674e-03
-1.235162913799285889e-01,4.386971890926361084e-02,1.118333544582128525e-02,2.388719469308853149e-02,1.328575909137725830e-01,-6.588451564311981201e-02,1.354554574936628342e-02,-4.873847961425781250e-02,1.930990256369113922e-02
-1.352972984313964844e-01,3.894576057791709900e-02,1.497096195816993713e-02,2.164984308183193207e-02,1.362078934907913208e-01,-6.435229629278182983e-02,-3.614983754232525826e-03,-6.056912243366241455e-02,1.476424559950828552e-02
-1.229845136404037476e-01,5.521212890744209290e-02,1.103443466126918793e-02,3.268473222851753235e-02,1.525930315256118774e-01,-5.783553421497344971e-02,5.926659330725669861e-03,-5.936776846647262573e-02,2.500413917005062103e-02
-1.858726260252296925e-03,8.889123797416687012e-02,5.734685808420181274e-03,3.889941796660423279e-02,-8.141472935676574707e-03,3.061674721539020538e-02,3.468215232715010643e-03,1.320593710988759995e-02,3.586967475712299347e-03
-8.713454939424991608e-03,-3.549862653017044067e-02,-1.338464394211769104e-02,2.584786340594291687e-02,-2.127984464168548584e-01,-1.905100978910923004e-02,-9.191750548779964447e-03,-1.929722144268453121e-03,2.011997252702713013e-02
-2.486212365329265594e-02,4.664120078086853027e-02,1.786206103861331940e-02,8.504965342581272125e-03,3.420492261648178101e-02,3.456826135516166687e-02,-3.651896864175796509e-02,3.154204785823822021e-02,-5.475831567309796810e-04
5.418594926595687866e-03,-1.807487942278385162e-02,7.993466220796108246e-03,-4.269670695066452026e-02,1.571490243077278137e-02,-2.125974744558334351e-02,1.466169487684965134e-02,6.167124956846237183e-02,-1.960239745676517487e-02
8.857304230332374573e-03,-7.343349978327751160e-03,2.825712226331233978e-02,4.259314388036727905e-02,-1.104695871472358704e-01,-1.453816366847604513e-04,-4.698411561548709869e-03,-1.261028833687305450e-02,-2.560745738446712494e-02
3.408335521817207336e-02,1.771170645952224731e-02,4.465246107429265976e-03,-2.331244945526123047e-02,1.644950062036514282e-01,-3.433925798162817955e-03,-3.556310199201107025e-03,-3.610180318355560303e-02,-4.187325760722160339e-02
-3.160029277205467224e-02,4.450305178761482239e-02,-1.602827012538909912e-02,-2.632495574653148651e-02,-4.505532979965209961e-02,3.620161116123199463e-02,2.678085863590240479e-02,3.066377714276313782e-02,4.616789147257804871e-02
3.198978677392005920e-02,3.748065978288650513e-02,5.621399357914924622e-02,1.276273187249898911e-02,-1.046981215476989746e-01,-6.908471230417490005e-03,4.919746518135070801e-02,-5.587693303823471069e-02,-4.968534782528877258e-02
-1.451556943356990814e-02,-4.492527246475219727e-02,-3.543294267728924751e-03,-6.847531348466873169e-02,5.196793377399444580e-02,1.110572740435600281e-02,2.344990149140357971e-02,1.106346398591995239e-02,-1.638888381421566010e-02
1.693074475042521954e-03,4.116442427039146423e-02,1.708583906292915344e-02,1.954472810029983521e-02,3.390478203073143959e-03,-9.942568838596343994e-03,-2.903089299798011780e-02,-8.640348166227340698e-02,1.199220307171344757e-02
3.936524316668510437e-02,-2.838551811873912811e-02,-1.963382214307785034e-02,-2.072920836508274078e-02,-1.988925337791442871e-01,-3.604578599333763123e-02,6.269399821758270264e-02,4.716883227229118347e-02,4.378492385149002075e-02
-9.379720315337181091e-03,-1.476144418120384216e-02,3.187889233231544495e-02,9.687680751085281372e-03,-4.219162091612815857e-02,1.441599801182746887e-02,4.338367283344268799e-02,1.427798997610807419e-02,2.573487907648086548e-02
-1.924852840602397919e-03,2.196658961474895477e-02,2.187766693532466888e-02,-5.729731055907905102e-04,2.660393156111240387e-02,-2.098295837640762329e-02,-2.355531044304370880e-02,-2.263477444648742676e-02,-7.526054233312606812e-02
1.064932905137538910e-02,5.967183038592338562e-02,1.079696044325828552e-02,1.731086988002061844e-03,-4.481178242713212967e-03,-2.411185018718242645e-02,3.152975812554359436e-03,1.441623177379369736e-02,1.320295128971338272e-02
1.930221728980541229e-02,2.461214922368526459e-02,3.714890033006668091e-02,1.042061252519488335e-03,-7.912836037576198578e-03,-7.525224238634109497e-02,-1.711877062916755676e-02,-1.009432249702513218e-03,4.353018943220376968e-03
6.339754164218902588e-02,-5.392484739422798157e-02,2.720970287919044495e-02,7.939264469314366579e-05,8.623095601797103882e-02,-1.117891166359186172e-02,-3.205074369907379150e-02,1.338316407054662704e-02,1.353568769991397858e-02
-3.970997873693704605e-03,-4.373815655708312988e-02,1.138973981142044067e-02,-1.290268148295581341e-03,-8.133000880479812622e-02,-2.787023037672042847e-02,-2.815102413296699524e-02,1.005308330059051514e-02,1.570770400576293468e-03
-2.838940732181072235e-02,4.583951458334922791e-02,1.388067658990621567e-02,1.190781127661466599e-02,-7.941255718469619751e-02,1.541389804333448410e-02,2.440730668604373932e-02,4.993256181478500366e-02,-1.245584338903427124e-02
2.951235324144363403e-02,4.906542971730232239e-02,2.843935415148735046e-02,5.167495831847190857e-02,1.420450657606124878e-01,6.241799145936965942e-02,8.589309640228748322e-03,4.246050864458084106e-02,1.067771296948194504e-02
6.366944871842861176e-03,2.549999766051769257e-02,3.746474860236048698e-03,3.365278244018554688e-02,1.334930807352066040e-01,4.841585829854011536e-02,2.435890724882483482e-03,2.882328070700168610e-02,9.090985171496868134e-03
-2.048448100686073303e-02,-5.907894577831029892e-03,-2.184068225324153900e-02,8.107836358249187469e-03,9.646670520305633545e-02,1.732566952705383301e-02,-2.743292786180973053e-02,-1.844028197228908539e-02,-2.983498759567737579e-02
2.581274136900901794e-02,-1.397524587810039520e-02,1.861584000289440155e-02,1.182656921446323395e-02,-1.717213392257690430e-01,-1.267480012029409409e-02,4.600067436695098877e-02,5.459630396217107773e-03,3.688306361436843872e-02
7.242807187139987946e-03,-3.145465254783630371e-02,4.695415496826171875e-03,-1.316879875957965851e-02,-1.959438771009445190e-01,-3.012960590422153473e-02,2.679812721908092499e-02,-1.183676719665527344e-02,1.907753385603427887e-02
-2.281855419278144836e-02,-5.671312659978866577e-02,-2.122556045651435852e-02,-3.307161480188369751e-02,-2.434210032224655151e-01,-4.726671800017356873e-02,-3.364098956808447838e-03,-3.126466646790504456e-02,-9.383179247379302979e-03
4.443418234586715698e-02,5.470664426684379578e-02,-2.373711764812469482e-02,1.191912125796079636e-02,6.338991224765777588e-02,-3.599954769015312195e-02,-2.542338520288467407e-02,3.416588529944419861e-02,-6.788940727710723877e-02
-1.000149082392454147e-02,-2.817562036216259003e-02,9.411785751581192017e-03,4.661780595779418945e-02,-2.323023043572902679e-02,7.159831374883651733e-02,-4.053879901766777039e-02,-4.762338474392890930e-02,1.589042879641056061e-02
2.516144514083862305e-02,4.338477924466133118e-02,-1.599656231701374054e-02,-1.229353435337543488e-02,-1.309219151735305786e-01,-6.535002496093511581e-03,1.145891845226287842e-02,-1.673470716923475266e-03,3.083629906177520752e-02
-8.351356722414493561e-03,-2.759829163551330566e-02,-7.091255858540534973e-03,-1.566068734973669052e-03,4.227700456976890564e-02,-3.703324124217033386e-02,-1.628678292036056519e-02,-1.552685536444187164e-02,2.535900566726922989e-04
-2.188629843294620514e-02,-6.473657488822937012e-02,2.422132296487689018e-03,2.068631909787654877e-02,9.134596586227416992e-02,-1.500535663217306137e-02,1.870770007371902466e-02,4.628633707761764526e-02,1.962245814502239227e-02
5.479728337377309799e-03,1.129471231251955032e-02,-1.763980276882648468e-02,1.050859503448009491e-02,2.497090725228190422e-03,-6.029624119400978088e-02,5.339291878044605255e-03,5.557041242718696594e-02,-3.206936642527580261e-02
-2.203903626650571823e-03,3.172646835446357727e-02,1.911236532032489777e-02,1.745175383985042572e-02,-5.124563723802566528e-02,6.084258668124675751e-03,-2.013458684086799622e-02,-1.576863788068294525e-02,3.161422163248062134e-02
1.652810722589492798e-02,6.222764402627944946e-02,3.686003386974334717e-03,1.837444305419921875e-02,6.767985224723815918e-02,4.202804528176784515e-03,-4.916036128997802734e-02,2.114464715123176575e-02,-3.292471868917346001e-03
7.520800922065973282e-03,-5.855582281947135925e-02,-2.372758695855736732e-03,-8.638332947157323360e-04,-1.660536378622055054e-01,-1.023484487086534500e-02,6.284423917531967163e-02,6.110519636422395706e-03,1.663313619792461395e-02
-4.570186138153076172e-02,3.613821789622306824e-02,-4.084918275475502014e-02,-5.397764220833778381e-02,-4.236185550689697266e-02,-2.727587707340717316e-03,-3.266168758273124695e-02,-1.010730396956205368e-03,6.438528746366500854e-02
-2.303672581911087036e-02,2.826385572552680969e-02,-2.385852299630641937e-02,6.762610375881195068e-02,1.084472313523292542e-01,-4.904798333882354200e-05,5.438058450818061829e-02,5.521391332149505615e-02,2.951854653656482697e-02
-7.829188555479049683e-02,-1.506970636546611786e-02,-3.365119174122810364e-02,1.078632753342390060e-02,2.455094270408153534e-02,-4.823125153779983521e-02,-5.468225106596946716e-03,1.978292874991893768e-02,-5.422020703554153442e-02
3.972421213984489441e-02,-2.268995903432369232e-02,-5.115103721618652344e-02,6.785876303911209106e-02,-3.549488028511404991e-03,-4.283121600747108459e-02,5.818410217761993408e-02,8.893912658095359802e-03,-3.444957360625267029e-02
3.994883596897125244e-02,-2.841057814657688141e-02,-4.944997280836105347e-02,7.344065606594085693e-02,-9.051714092493057251e-03,-5.141090229153633118e-02,5.635640397667884827e-02,-2.271605422720313072e-03,-4.058863967657089233e-02
3.198177367448806763e-02,-3.505158424377441406e-02,-6.562387943267822266e-02,7.614237815141677856e-02,-1.598593592643737793e-02,-6.120218336582183838e-02,6.039443239569664001e-02,-1.049248035997152328e-02,-5.643222481012344360e-02
4.750265926122665405e-02,9.118972346186637878e-03,-2.428748458623886108e-02,-7.740696426481008530e-03,8.337919414043426514e-02,3.766551672015339136e-04,-2.288080193102359772e-02,-5.986364185810089111e-02,-1.998124830424785614e-02
1.476584840565919876e-02,1.903544180095195770e-02,-9.374827146530151367e-03,-6.461179815232753754e-03,3.411039337515830994e-02,2.328152395784854889e-02,-1.691767200827598572e-02,-9.683120250701904297e-02,-2.499491441994905472e-03
-4.570439457893371582e-02,-6.238025613129138947e-03,5.710098147392272949e-02,-5.699896067380905151e-02,-1.578033342957496643e-02,1.176894083619117737e-02,2.236812375485897064e-02,3.354064747691154480e-02,1.560891419649124146e-02
1.109447982162237167e-02,2.725011855363845825e-02,2.793843857944011688e-02,-5.854055285453796387e-02,-7.889652252197265625e-02,2.494851127266883850e-02,-5.490322783589363098e-02,3.526636585593223572e-02,4.464421793818473816e-02
1.419656351208686829e-02,7.414206862449645996e-03,3.358754888176918030e-02,3.557633981108665466e-02,-7.060766220092773438e-02,-2.573563717305660248e-02,-1.872053183615207672e-02,-4.348518699407577515e-02,-1.916049863211810589e-03
-2.050381340086460114e-02,2.925788238644599915e-02,-6.005100533366203308e-02,2.593287825584411621e-02,6.145388260483741760e-02,-3.496372373774647713e-03,7.023308426141738892e-02,2.823619917035102844e-02,-1.362422201782464981e-02
1.633747853338718414e-02,3.145571053028106689e-02,1.574794575572013855e-02,-3.047267347574234009e-02,8.083263039588928223e-02,-3.954794630408287048e-02,3.913519904017448425e-02,-2.669797651469707489e-02,6.488349754363298416e-03
4.007123783230781555e-02,2.652916684746742249e-02,-1.971919834613800049e-02,-2.615163568407297134e-03,4.079310383531264961e-05,-2.682001516222953796e-02,-1.374290045350790024e-02,-3.613291308283805847e-02,-2.603593096137046814e-02
1.965401135385036469e-02,-1.753317937254905701e-02,-2.629183605313301086e-02,3.979886695742607117e-02,8.128806948661804199e-03,-1.174051966518163681e-02,-1.453058887273073196e-02,-3.325820714235305786e-02,-1.747357286512851715e-02
4.237177968025207520e-02,1.050831377506256104e-02,-5.107397958636283875e-02,-4.381306469440460205e-02,-2.136222459375858307e-02,1.790970191359519958e-02,-2.608288638293743134e-02,2.859502471983432770e-02,1.458624657243490219e-02
-2.355202659964561462e-02,-7.080365438014268875e-03,-1.616185903549194336e-02,-4.263350367546081543e-02,2.472016029059886932e-02,2.325649373233318329e-02,-4.277015477418899536e-02,4.620085656642913818e-02,1.541348639875650406e-02
-4.539753496646881104e-02,-2.473322860896587372e-02,-2.198018319904804230e-02,1.599380560219287872e-02,1.916143670678138733e-02,9.636070579290390015e-03,1.350678689777851105e-02,2.146614529192447662e-02,2.104855515062808990e-02
3.986387699842453003e-02,4.510356858372688293e-02,3.316686302423477173e-02,3.618209064006805420e-02,5.435558781027793884e-02,3.843554854393005371e-02,2.344914339482784271e-02,4.233810678124427795e-02,2.513110451400279999e-02
-2.567181922495365143e-02,-1.200934522785246372e-03,-2.230430394411087036e-02,-7.835674099624156952e-03,3.500458225607872009e-02,1.577834365889430046e-03,-2.665801160037517548e-02,-3.480990417301654816e-03,-2.000996097922325134e-02
-3.884943574666976929e-02,-7.723725400865077972e-03,-3.117121569812297821e-02,-2.075986936688423157e-02,2.624539099633693695e-02,-7.469403557479381561e-03,-2.500156685709953308e-02,-1.579493284225463867e-02,-3.016785718500614166e-02
-5.980926752090454102e-02,-7.311753183603286743e-02,-3.402126207947731018e-02,6.613681558519601822e-03,-1.256518438458442688e-02,3.694915026426315308e-02,1.337935402989387512e-02,5.510460212826728821e-02,5.805690959095954895e-02
6.223080214112997055e-03,-2.866588067263364792e-03,2.131594158709049225e-02,-9.081534110009670258e-03,2.814338728785514832e-02,3.231513127684593201e-02,-1.600274071097373962e-02,1.042196061462163925e-02,-8.633262477815151215e-03
1.115718204528093338e-02,1.351459510624408722e-02,4.544122144579887390e-02,-3.445289283990859985e-02,-2.422307443339377642e-04,5.185051262378692627e-02,-5.437907576560974121e-02,-7.266649510711431503e-03,-2.253084443509578705e-02
3.703107649926096201e-04,5.024122819304466248e-02,-8.114173077046871185e-03,1.390079129487276077e-02,-2.388841062784194946e-01,7.506088167428970337e-02,-1.615753583610057831e-02,4.223270341753959656e-02,-2.712386287748813629e-02
5.477364640682935715e-03,1.989078521728515625e-02,-1.137416902929544449e-02,-2.021319977939128876e-02,1.018640771508216858e-01,-8.926322683691978455e-03,1.042518764734268188e-02,2.132082358002662659e-02,-1.341289281845092773e-02
-3.847757820039987564e-03,4.620521795004606247e-03,-3.943616151809692383e-02,4.704891517758369446e-02,1.785447634756565094e-02,-4.191656410694122314e-02,5.943491309881210327e-02,-1.210798043757677078e-02,2.770464867353439331e-02
2.636106684803962708e-02,2.573509886860847473e-02,2.020606398582458496e-02,3.167057037353515625e-02,-4.752421006560325623e-02,-2.017447538673877716e-02,4.469489678740501404e-03,2.484795078635215759e-02,-3.190104663372039795e-02
9.656210429966449738e-03,1.819165050983428955e-02,1.058350317180156708e-02,5.822657421231269836e-02,2.268080040812492371e-02,-5.923970043659210205e-02,1.461994275450706482e-02,1.368106529116630554e-02,-2.546713501214981079e-02
3.562002629041671753e-02,-3.396111726760864258e-02,-3.417439386248588562e-02,-8.878599852323532104e-02,3.475129976868629456e-02,-5.003922432661056519e-02,4.719466902315616608e-03,-8.392615243792533875e-03,3.720608726143836975e-02
6.767516024410724640e-03,-1.902014017105102539e-02,-8.646627888083457947e-03,1.057185698300600052e-02,-4.670770093798637390e-02,-1.379947084933519363e-02,-1.814299821853637695e-02,-4.433218017220497131e-02,3.993719816207885742e-02
-3.491435199975967407e-02,-6.060607731342315674e-02,-9.682601317763328552e-03,1.665637828409671783e-02,1.919858530163764954e-02,1.118973921984434128e-02,1.902452856302261353e-02,-1.547859981656074524e-02,3.939491137862205505e-02
1.179420482367277145e-02,-3.870381275191903114e-03,7.124033756554126740e-03,6.862193346023559570e-03,3.168172843288630247e-04,1.251845713704824448e-02,3.414828702807426453e-02,3.394258022308349609e-02,-8.353953249752521515e-03
-2.577186562120914459e-02,1.225900650024414062e-02,-2.302790246903896332e-02,-3.549639368429780006e-03,3.581957146525382996e-02,1.421518623828887939e-02,-2.737672301009297371e-03,-2.460373938083648682e-02,-2.370829693973064423e-02
2.875805832445621490e-02,2.986333146691322327e-02,4.583525471389293671e-03,2.577634155750274658e-02,2.454897575080394745e-02,-3.797313570976257324e-02,-4.004753660410642624e-03,4.417631309479475021e-03,-2.515039872378110886e-03
3.511731699109077454e-02,3.810110688209533691e-02,-3.914821892976760864e-02,2.064421214163303375e-02,2.518751099705696106e-02,1.914756000041961670e-02,-4.265261813998222351e-02,-5.929992720484733582e-02,-5.157855153083801270e-02
-3.969952836632728577e-02,-4.546181857585906982e-02,-1.315068919211626053e-03,-1.490878872573375702e-03,1.556755416095256805e-02,1.141678541898727417e-02,-1.390816364437341690e-02,4.166638944298028946e-03,3.870439529418945312e-02
-3.793176263570785522e-02,-4.880274087190628052e-02,-5.563555285334587097e-02,2.804693393409252167e-02,4.315683618187904358e-02,3.870540857315063477e-02,-9.687690064311027527e-03,1.263080630451440811e-02,5.149842426180839539e-02
-4.511559754610061646e-02,-2.428289875388145447e-02,-1.628129556775093079e-02,-4.138405248522758484e-02,5.984430667012929916e-03,6.735214591026306152e-02,-3.512225579470396042e-03,1.510372851043939590e-02,4.462391138076782227e-02
-1.499881874769926071e-02,5.439043510705232620e-03,-1.779979839920997620e-02,3.815824910998344421e-02,1.557054966688156128e-01,-8.760073035955429077e-02,-1.399376709014177322e-02,2.596672996878623962e-02,1.320945005863904953e-02
4.690560046583414078e-03,-3.702370449900627136e-02,1.325881108641624451e-02,1.945269107818603516e-02,-5.250127520412206650e-03,-3.360673040151596069e-02,-1.576558873057365417e-02,-1.938241347670555115e-02,-6.982496380805969238e-02
2.457561902701854706e-02,-5.195985361933708191e-02,3.395479172468185425e-02,-1.964160241186618805e-03,-1.494470052421092987e-02,-2.511614002287387848e-02,1.992220804095268250e-02,5.170778557658195496e-02,2.195494994521141052e-02
1.112235244363546371e-02,9.247202426195144653e-02,7.954139262437820435e-02,-3.828036785125732422e-02,3.037917055189609528e-02,5.400856211781501770e-02,-3.832906112074851990e-02,-2.952171862125396729e-02,-2.613055519759654999e-02
-3.100593388080596924e-02,1.996391685679554939e-03,-9.724069386720657349e-03,1.617882400751113892e-03,-8.682523854076862335e-03,1.749866269528865814e-02,-2.210414782166481018e-02,-2.679804153740406036e-02,-1.300413627177476883e-02
1.198033895343542099e-02,1.965777948498725891e-02,-6.621270626783370972e-02,2.544188313186168671e-02,3.139480575919151306e-02,-3.198619186878204346e-02,4.945233091711997986e-02,-7.877771276980638504e-04,-4.847973212599754333e-02
3.412906778976321220e-03,-2.292086929082870483e-02,6.807388272136449814e-03,-2.373274229466915131e-02,-2.479459904134273529e-02,-5.582575872540473938e-02,7.723228074610233307e-03,2.053105272352695465e-02,3.591955825686454773e-02
1.895479112863540649e-02,2.345731109380722046e-02,-5.642520263791084290e-03,-5.072418972849845886e-02,4.439852386713027954e-02,-4.126201942563056946e-02,4.399869590997695923e-02,-2.350900135934352875e-02,-1.469104923307895660e-02
1.851472258567810059e-02,4.054761305451393127e-02,1.477768179029226303e-02,6.129806488752365112e-02,8.592998236417770386e-02,-2.080201636999845505e-03,-2.999601513147354126e-02,-3.197118639945983887e-02,-5.800116062164306641e-02
-1.164205931127071381e-02,-4.019824042916297913e-02,-7.225252222269773483e-03,-2.380041405558586121e-02,-1.950060874223709106e-01,5.179426446557044983e-02,8.089385181665420532e-02,5.663520423695445061e-04,5.667755380272865295e-02
4.963326500728726387e-04,3.637222945690155029e-02,1.797770708799362183e-02,2.921275980770587921e-02,8.008799701929092407e-02,-4.175196588039398193e-02,-5.569601058959960938e-02,-2.832281752489507198e-04,9.300598874688148499e-03
5.951090529561042786e-02,2.108588628470897675e-02,1.716542989015579224e-02,6.123182550072669983e-02,-8.454798161983489990e-02,-3.831353411078453064e-02,-5.980538576841354370e-02,1.351831015199422836e-02,1.455528079532086849e-03
4.688360169529914856e-02,1.649725250899791718e-02,-4.351232945919036865e-02,9.905372560024261475e-02,3.845378011465072632e-02,-1.265941113233566284e-01,5.037371441721916199e-02,1.674244739115238190e-02,-6.486148387193679810e-02
4.127741977572441101e-02,1.023449469357728958e-02,-5.631953477859497070e-02,1.001317948102951050e-01,2.934957668185234070e-02,-1.323641091585159302e-01,5.312498286366462708e-02,1.282973121851682663e-02,-6.770421564579010010e-02
3.271235153079032898e-02,1.244720304384827614e-03,-5.167063325643539429e-02,9.669476747512817383e-02,3.030542097985744476e-02,-1.259052008390426636e-01,4.554162174463272095e-02,1.360335294157266617e-02,-6.338737159967422485e-02
1.886689476668834686e-02,3.154655452817678452e-03,3.838327154517173767e-02,2.511773630976676941e-02,-1.673011183738708496e-01,-2.458155155181884766e-02,-1.666845404542982578e-03,3.736086189746856689e-02,-3.390111029148101807e-03
3.067727759480476379e-02,3.002512268722057343e-03,1.111898291856050491e-02,-1.605229079723358154e-02,9.893441200256347656e-02,-4.599083587527275085e-02,1.843286590883508325e-04,-8.426886983215808868e-03,2.785115269944071770e-03
-3.587710857391357422e-02,-2.400015294551849365e-02,1.151536405086517334e-02,-6.828332319855690002e-03,1.386138945817947388e-01,2.628485672175884247e-02,-6.324022263288497925e-02,-2.551201917231082916e-02,-2.080986276268959045e-03
3.411224856972694397e-02,-1.544391270726919174e-02,-5.284718424081802368e-02,2.213915437459945679e-02,-1.447582244873046875e-02,-9.330913424491882324e-03,5.527219176292419434e-02,4.734041634947061539e-03,4.057384282350540161e-02
-2.723766118288040161e-02,-4.886782914400100708e-02,-2.440170198678970337e-02,2.805952169001102448e-02,1.463013608008623123e-02,3.690460696816444397e-02,1.384451054036617279e-02,2.843411080539226532e-02,5.722541734576225281e-02
-5.040535703301429749e-02,-4.225538298487663269e-02,6.901795044541358948e-03,-3.009450621902942657e-02,1.243687700480222702e-02,6.456227600574493408e-02,-5.023777112364768982e-02,8.674487471580505371e-03,4.318846389651298523e-02
4.726369399577379227e-03,-1.769284345209598541e-02,-1.194463763386011124e-02,1.611882448196411133e-02,4.433478415012359619e-02,1.123530324548482895e-02,-1.300385571084916592e-03,-1.150141842663288116e-02,-3.634138777852058411e-02
-4.235847294330596924e-02,-3.990220837295055389e-03,-4.271451383829116821e-02,3.643859177827835083e-02,9.596003592014312744e-02,-1.030280627310276031e-02,1.386675401590764523e-03,1.751446351408958435e-02,-3.061301633715629578e-02
-2.389981970191001892e-02,-3.029912337660789490e-02,-3.195402398705482483e-02,2.942842431366443634e-02,1.534133702516555786e-01,5.393326282501220703e-03,-4.242920503020286560e-02,1.655259914696216583e-02,-2.574580721557140350e-02
2.165538258850574493e-02,2.877689525485038757e-02,-1.477694045752286911e-02,2.956482768058776855e-02,3.399316594004631042e-02,-1.678992994129657745e-02,-1.165218837559223175e-02,4.775550588965415955e-02,-3.793027624487876892e-02
3.377132117748260498e-02,-1.451045041903853416e-03,-1.791214384138584137e-02,-1.897120103240013123e-02,1.881264895200729370e-02,3.134662285447120667e-02,-1.180512085556983948e-02,3.600270720198750496e-03,-3.411067649722099304e-02
6.032526865601539612e-02,5.490927025675773621e-02,7.330798543989658356e-03,4.105853289365768433e-02,-7.369480282068252563e-02,-1.146824937313795090e-02,3.340893890708684921e-03,-1.563769392669200897e-02,-4.762724786996841431e-02
2.840531431138515472e-02,-3.941267728805541992e-03,1.958933100104331970e-02,9.179401211440563202e-03,-1.175227668136358261e-02,-2.152864448726177216e-02,-2.002063952386379242e-02,4.822546988725662231e-02,2.163954265415668488e-02
-2.917637489736080170e-02,-2.851060964167118073e-02,1.725551486015319824e-02,-7.105933129787445068e-02,-1.303324848413467407e-01,3.120444342494010925e-02,4.624108783900737762e-03,1.755040884017944336e-02,5.286354199051856995e-02
2.842818200588226318e-02,1.874827407300472260e-02,1.832578144967556000e-02,-3.534554317593574524e-02,1.319569647312164307e-01,-6.072615832090377808e-02,4.354526475071907043e-02,-6.208196282386779785e-02,-3.097148798406124115e-02
