9.505648165941238403e-02
3.806600868701934814e-01
2.825376093387603760e-01
-2.685863059014081955e-03
1.872456669807434082e-01
3.602131605148315430e-01
3.313888609409332275e-01
-9.008307009935379028e-02
3.048992455005645752e-01
2.056342840194702148e+00
2.773165404796600342e-01
8.272353559732437134e-02
-1.031911093741655350e-02
-1.019183754920959473e+00
1.936145573854446411e-01
2.913617193698883057e-01
3.807050585746765137e-01
1.638011634349822998e-01
-3.515616757795214653e-03
1.539399176836013794e-01
1.791491508483886719e-01
1.963249891996383667e-01
8.480676412582397461e-01
1.936574876308441162e-01
5.654445290565490723e-01
-1.745091192424297333e-02
2.135816216468811035e-01
2.686923146247863770e-01
9.699702858924865723e-01
4.712409675121307373e-01
-4.143979027867317200e-02
2.981957793235778809e-01
2.713445723056793213e-01
3.980041146278381348e-01
5.162333846092224121e-01
-1.953124534338712692e-03
2.465878427028656006e-01
5.688523054122924805e-01
9.906268864870071411e-02
-3.170002996921539307e-01
1.489723473787307739e-01
2.431169450283050537e-01
4.134914278984069824e-01
8.448758721351623535e-01
3.309254050254821777e-01
2.526473999023437500e-01
1.638246327638626099e-01
-1.706479340791702271e-01
-4.332983400672674179e-03
1.573520451784133911e-01
3.879787027835845947e-01
1.787080913782119751e-01
3.658658266067504883e-01
1.502771377563476562e-01
1.184103414416313171e-01
2.651962935924530029e-01
-1.402575075626373291e-01
1.176783367991447449e-01
4.381694793701171875e-01
-2.063350938260555267e-02
8.511070013046264648e-01
1.192885488271713257e-01
-1.745401509106159210e-02
3.131309747695922852e-01
