4.765356481075286865e-01
1.755982041358947754e-01
-8.442237041890621185e-03
-7.758723199367523193e-02
2.414203733205795288e-01
-9.131770581007003784e-02
8.930227905511856079e-02
6.278735399246215820e-01
2.915693819522857666e-01
7.382301241159439087e-02
4.763750731945037842e-02
2.911722362041473389e-01
5.521939396858215332e-01
3.065390586853027344e-01
4.686661437153816223e-02
5.735149607062339783e-04
2.381036281585693359e-01
3.848063647747039795e-01
3.224525749683380127e-01
3.539983332157135010e-01
-2.084732502698898315e-01
-2.190304845571517944e-01
-5.483835935592651367e-02
3.888294994831085205e-01
7.866560667753219604e-02
5.111420750617980957e-01
3.321746736764907837e-02
1.381261199712753296e-01
-2.239402383565902710e-01
1.955280601978302002e-01
-2.292369753122329712e-01
4.232663214206695557e-01
-1.407429426908493042e-01
8.135341107845306396e-02
1.142799705266952515e-01
2.265880852937698364e-01
3.022938370704650879e-01
4.023926854133605957e-01
2.127092778682708740e-01
3.586862385272979736e-01
5.585588812828063965e-01
7.841108739376068115e-02
-5.812794566154479980e-01
6.170785054564476013e-02
-4.389977082610130310e-02
7.484921067953109741e-02
6.169128417968750000e-01
3.977414220571517944e-02
5.645830035209655762e-01
2.791228890419006348e-01
1.005859851837158203e+00
4.050457477569580078e-01
1.001209467649459839e-01
-1.952149271965026855e-01
-2.299209684133529663e-02
2.108042836189270020e-01
-4.017709493637084961e-01
1.787236779928207397e-01
-5.968076735734939575e-02
7.974985986948013306e-02
8.834199607372283936e-02
6.035946607589721680e-01
4.581033438444137573e-02
6.510387361049652100e-02
