-8.386493660509586334e-03,-5.199808999896049500e-02,1.716379262506961823e-02,-2.196388691663742065e-02,-4.132467508316040039e-02,2.865584567189216614e-02,-4.116185382008552551e-02,-1.845596171915531158e-02,4.051587730646133423e-02
-1.339926291257143021e-02,1.788182370364665985e-02,-4.144412279129028320e-02,6.932068150490522385e-03,-1.601318456232547760e-02,-2.612637914717197418e-02,2.611355669796466827e-02,3.897882252931594849e-02,1.919268257915973663e-02
8.642942644655704498e-03,1.972530037164688110e-02,-1.060638669878244400e-02,4.328402131795883179e-02,-1.663682982325553894e-02,-1.081583742052316666e-02,-4.223115276545286179e-03,-1.427743025124073029e-02,-1.831159368157386780e-02
1.745358854532241821e-02,2.085744589567184448e-02,-3.046550787985324860e-03,3.975047543644905090e-02,-7.747577130794525146e-02,1.211042702198028564e-02,-8.911665529012680054e-03,1.009737420827150345e-02,3.964762203395366669e-03
2.531895786523818970e-02,1.775913126766681671e-02,5.047506093978881836e-02,-3.466854686848819256e-04,-8.664615452289581299e-03,1.560233905911445618e-02,-3.444034978747367859e-02,-2.441701665520668030e-02,-1.344848889857530594e-02
3.126644715666770935e-02,-1.454948727041482925e-02,-7.459545973688364029e-03,-6.099986657500267029e-02,5.378194153308868408e-02,-5.624778103083372116e-03,5.514328368008136749e-03,-7.706229574978351593e-03,-1.244556345045566559e-02
1.976698637008666992e-02,1.584183424711227417e-02,-2.932424470782279968e-02,6.918367929756641388e-03,1.491979113779962063e-03,-1.588648743927478790e-02,-1.113823894411325455e-02,-4.977861046791076660e-02,-4.338728263974189758e-02
-1.067158533260226250e-03,-1.361168175935745239e-02,1.453317794948816299e-02,-3.208009898662567139e-02,5.007715523242950439e-02,-2.760157547891139984e-02,1.560423639602959156e-03,-1.100430451333522797e-02,3.880407428368926048e-03
6.498382985591888428e-02,2.361886762082576752e-02,6.503595504909753799e-03,1.710855029523372650e-02,1.521904952824115753e-02,2.463102713227272034e-02,1.147874444723129272e-02,-2.815709821879863739e-02,1.105733029544353485e-02
-5.113612115383148193e-02,1.311166491359472275e-02,-9.888380765914916992e-03,1.533116027712821960e-02,-7.959561049938201904e-02,-2.465591579675674438e-02,1.338071655482053757e-02,2.006181329488754272e-02,1.280419062823057175e-02
-6.374727003276348114e-03,-6.765080615878105164e-03,-4.941484658047556877e-04,8.312869817018508911e-03,-5.708482116460800171e-03,-1.107161398977041245e-02,-4.239683970808982849e-03,6.405021529644727707e-03,1.418995670974254608e-03
-3.727758303284645081e-02,-5.304090678691864014e-02,-6.931348703801631927e-03,-7.384895347058773041e-03,3.000694559887051582e-03,-1.134977489709854126e-02,1.457906211726367474e-03,-2.573843300342559814e-02,-1.972409337759017944e-02
-2.708676271140575409e-02,-9.930156171321868896e-03,-4.077959965798072517e-05,-4.124971851706504822e-02,-2.807674370706081390e-02,-1.236062124371528625e-02,-4.694104939699172974e-02,-4.291190579533576965e-02,-4.133405908942222595e-02
1.187156070955097675e-03,3.080615308135747910e-03,3.252938389778137207e-02,-1.014179363846778870e-02,6.187114492058753967e-02,-1.087121106684207916e-02,-5.691193975508213043e-03,-3.803674504160881042e-02,-1.799640432000160217e-02
2.324968948960304260e-02,-5.877030547708272934e-03,-4.057090356945991516e-02,1.227201521396636963e-02,3.856845200061798096e-03,-1.632272638380527496e-02,-2.209753543138504028e-02,-3.631437942385673523e-02,-1.982983015477657318e-02
1.690895855426788330e-02,1.279353722929954529e-02,3.094230219721794128e-02,3.375930339097976685e-02,-3.347102319821715355e-03,-7.599295582622289658e-03,3.929848223924636841e-02,3.610305953770875931e-03,-1.689453050494194031e-02
1.146118342876434326e-02,2.128203026950359344e-02,2.397353947162628174e-02,1.222209911793470383e-02,-3.335337340831756592e-02,-3.197721019387245178e-02,2.755183260887861252e-03,-6.996397394686937332e-03,2.138834819197654724e-02
-2.725747413933277130e-02,-3.103084117174148560e-02,-2.695159800350666046e-02,-1.074782572686672211e-03,3.616421669721603394e-02,-2.252567373216152191e-02,1.871055457741022110e-03,-6.882907822728157043e-03,-3.585574682801961899e-03
-4.020960070192813873e-03,-3.431012481451034546e-02,-9.800221771001815796e-03,8.169815875589847565e-03,-2.848838455975055695e-02,-7.499094936065375805e-04,-5.936349043622612953e-05,-9.104473516345024109e-03,1.527406368404626846e-02
-1.764466986060142517e-02,8.244152180850505829e-03,-1.333976909518241882e-02,2.040477283298969269e-02,-1.540400534868240356e-01,2.799127437174320221e-02,-6.122184172272682190e-02,-3.618146851658821106e-02,-2.611817792057991028e-02
2.848506532609462738e-02,4.261974617838859558e-02,4.936427623033523560e-02,-1.214341353625059128e-02,-1.754129119217395782e-02,3.925013821572065353e-03,-1.947615854442119598e-02,-1.553755439817905426e-02,-1.042175572365522385e-02
1.404141262173652649e-02,5.317146703600883484e-02,-2.267630398273468018e-02,5.237933620810508728e-02,-7.812934368848800659e-02,-2.156010270118713379e-02,3.724493086338043213e-02,3.570310026407241821e-02,2.542551979422569275e-02
-4.319057986140251160e-02,-3.084563091397285461e-02,-5.181246623396873474e-02,-7.584352046251296997e-02,-2.427591197192668915e-02,-1.473606191575527191e-02,-5.445908010005950928e-02,-8.709675818681716919e-02,-4.864065349102020264e-02
-4.357191268354654312e-03,2.034422755241394043e-02,-2.625936083495616913e-02,1.995493657886981964e-02,-5.398937314748764038e-02,-1.479298155754804611e-02,-1.012449432164430618e-02,-1.233702152967453003e-02,-3.011425212025642395e-02
1.010558684356510639e-03,3.765767067670822144e-02,4.392462596297264099e-02,-2.403458580374717712e-03,-4.032940044999122620e-02,4.028628114610910416e-03,-1.222039200365543365e-02,-1.775097660720348358e-02,-7.896628230810165405e-03
3.519456088542938232e-02,7.529784459620714188e-03,-2.253615530207753181e-03,3.542621433734893799e-02,-2.022466994822025299e-02,1.971275545656681061e-03,6.787267327308654785e-02,7.239408325403928757e-03,2.392084570601582527e-03
-2.178857976105064154e-04,-1.133001223206520081e-02,7.259292993694543839e-03,3.236549440771341324e-03,1.446970105171203613e-01,-5.518209561705589294e-02,1.633760333061218262e-02,1.310001779347658157e-02,1.428923802450299263e-03
1.281273830682039261e-02,-2.119598165154457092e-02,-1.216951943933963776e-02,2.657834812998771667e-02,-1.247443780303001404e-01,2.514572814106941223e-02,-1.151756662875413895e-02,-7.958103902637958527e-03,3.829855099320411682e-02
-1.245662290602922440e-02,-1.772791147232055664e-02,-1.007155701518058777e-02,-2.285701781511306763e-02,1.687659323215484619e-02,-2.474213577806949615e-02,6.919183302670717239e-03,-3.142625838518142700e-02,-1.485913060605525970e-02
-1.562722213566303253e-02,4.247007891535758972e-02,-3.452667593955993652e-02,1.158359739929437637e-02,-1.186678335070610046e-01,2.723455661907792091e-03,1.111774891614913940e-02,9.651972912251949310e-03,2.453747019171714783e-02
1.488368585705757141e-02,2.671451494097709656e-02,2.852126955986022949e-02,-1.337567716836929321e-02,-1.378291565924882889e-02,1.386434398591518402e-02,-1.321567688137292862e-02,-5.016783718019723892e-03,1.943069137632846832e-02
-4.034828394651412964e-02,-5.423278361558914185e-02,-2.636582218110561371e-02,-3.363689407706260681e-02,2.893812488764524460e-03,-2.136113680899143219e-02,-1.449020765721797943e-02,-3.422712534666061401e-02,-3.109961375594139099e-02
3.549590334296226501e-02,5.703023634850978851e-03,-1.278469804674386978e-03,-5.356185510754585266e-02,2.928858064115047455e-02,-1.709305099211633205e-03,3.608765255194157362e-04,2.756661502644419670e-03,3.304466977715492249e-02
-2.211038023233413696e-02,1.555843465030193329e-02,-3.117680735886096954e-02,-1.575360447168350220e-02,6.689408421516418457e-02,1.629249192774295807e-02,-1.543031819164752960e-02,-1.887857727706432343e-02,-5.107035487890243530e-02
-4.288119077682495117e-02,3.655375167727470398e-02,7.423315197229385376e-03,2.866924041882157326e-03,-4.858328402042388916e-02,2.788197714835405350e-03,-7.474754005670547485e-02,-3.552689030766487122e-02,9.972475469112396240e-03
1.993097551167011261e-02,2.475721947848796844e-02,1.773588941432535648e-03,-1.774282776750624180e-03,-6.364663690328598022e-02,3.049922361969947815e-02,-4.530017729848623276e-03,2.797348238527774811e-02,1.661296375095844269e-02
2.782995067536830902e-02,3.020513430237770081e-02,-7.518321741372346878e-03,6.274236366152763367e-04,-2.630468923598527908e-03,-2.982574328780174255e-02,-3.533246740698814392e-02,-4.201530944555997849e-03,-3.639590740203857422e-02
-1.598840579390525818e-02,-1.692726276814937592e-02,4.353268072009086609e-03,-2.078582718968391418e-02,-8.841409347951412201e-03,7.127781864255666733e-03,-4.271585930837318301e-05,1.610954664647579193e-02,1.789519190788269043e-02
-3.881461173295974731e-02,-2.091028168797492981e-02,-3.542199730873107910e-02,-7.245664950460195541e-03,-2.880068682134151459e-02,1.512709818780422211e-02,1.320587284862995148e-02,2.938930876553058624e-02,2.964263409376144409e-02
-1.386383175849914551e-02,5.236072465777397156e-03,-1.677966676652431488e-02,-3.817874938249588013e-02,5.024050176143646240e-02,-3.570203855633735657e-02,3.481946187093853951e-03,-1.766698248684406281e-02,7.435260806232690811e-03
-1.532653905451297760e-02,-3.651223611086606979e-03,-3.137094527482986450e-02,-6.123290210962295532e-02,-3.247907012701034546e-02,9.816280798986554146e-04,-8.618415333330631256e-03,-5.796538293361663818e-02,-2.429231815040111542e-02
-1.593527011573314667e-02,1.711053540930151939e-03,-2.117015421390533447e-02,2.092876844108104706e-02,2.775514125823974609e-02,2.041891962289810181e-02,3.761748969554901123e-02,3.752892464399337769e-02,-4.495215043425559998e-02
-2.159964852035045624e-02,-1.701113954186439514e-02,-5.623148754239082336e-02,-1.146729104220867157e-02,5.823871120810508728e-02,-7.334381807595491409e-04,5.069578182883560658e-04,1.625814661383628845e-02,2.576548792421817780e-02
-8.156012743711471558e-03,-3.125917911529541016e-02,-6.562940310686826706e-03,-2.952193142846226692e-03,1.321601122617721558e-01,-2.494297735393047333e-02,5.598170682787895203e-02,-2.020892500877380371e-02,1.282089948654174805e-02
1.684660208411514759e-03,-6.918941624462604523e-03,-2.661474747583270073e-03,-5.408158176578581333e-04,-1.450843084603548050e-02,-5.509817856363952160e-04,-1.416080165654420853e-02,-4.360872507095336914e-02,-6.400796584784984589e-03
-1.927026733756065369e-02,-5.507733672857284546e-03,-1.209346950054168701e-02,-4.545547068119049072e-02,1.221968699246644974e-02,2.844771370291709900e-02,-7.077286392450332642e-02,-1.690683420747518539e-03,3.408818691968917847e-02
1.388773601502180099e-02,2.169042266905307770e-02,2.636133879423141479e-02,8.505733683705329895e-03,7.182302325963973999e-02,3.366759046912193298e-02,8.297368884086608887e-03,-1.686083152890205383e-02,2.667615935206413269e-02
2.709953300654888153e-02,3.384267911314964294e-03,6.492120772600173950e-02,1.116861123591661453e-02,-4.656881559640169144e-03,3.586980700492858887e-02,-3.045037761330604553e-02,2.114848047494888306e-02,-1.796959713101387024e-02
-7.529193535447120667e-04,-3.073167428374290466e-02,-1.678121089935302734e-02,-2.226861938834190369e-02,-1.341186696663498878e-03,8.155005052685737610e-03,-1.417871192097663879e-02,-2.187273837625980377e-02,-3.025765158236026764e-02
2.105673542246222496e-03,-3.128089755773544312e-02,-7.281878497451543808e-04,3.635142638813704252e-04,-1.154405809938907623e-02,1.073613297194242477e-02,1.597849652171134949e-02,3.024910949170589447e-02,1.190929487347602844e-02
-3.884607926011085510e-03,1.543360017240047455e-02,1.105428300797939301e-02,-4.225402697920799255e-02,-4.948963969945907593e-02,-2.447649650275707245e-02,6.324878777377307415e-04,-2.084420435130596161e-02,1.742298156023025513e-02
9.753985330462455750e-03,9.799729101359844208e-03,1.160970330238342285e-02,1.730333454906940460e-02,-1.594246327877044678e-01,2.008144743740558624e-02,-5.331253167241811752e-03,-3.055255301296710968e-02,1.525769662111997604e-02
2.933638356626033783e-02,3.444581816438585520e-04,1.038712728768587112e-02,9.478170424699783325e-03,5.721676722168922424e-02,1.106237032217904925e-04,2.454793080687522888e-02,1.184477005153894424e-02,3.387163206934928894e-02
-9.609560482203960419e-03,-2.220588736236095428e-02,1.550843659788370132e-02,-1.304388605058193207e-02,5.751497671008110046e-02,-4.743811488151550293e-02,1.748519577085971832e-02,5.296024493873119354e-03,-9.416239336133003235e-03
-1.017089840024709702e-02,2.633764408528804779e-02,-4.788211546838283539e-03,-9.320276789367198944e-03,-1.912977918982505798e-02,-2.781776152551174164e-02,-2.000927925109863281e-02,-1.800931245088577271e-02,-2.328638546168804169e-02
3.201808780431747437e-02,5.678588524460792542e-02,6.675500422716140747e-02,3.045058809220790863e-02,5.225222557783126831e-02,1.081854291260242462e-02,7.192560005933046341e-03,3.767606988549232483e-02,1.787870889529585838e-03
-1.392152532935142517e-02,6.335656624287366867e-03,-5.601308308541774750e-03,-3.997339680790901184e-02,-6.146377883851528168e-03,2.181817032396793365e-02,-3.999428823590278625e-02,-3.733788430690765381e-02,1.536747813224792480e-02
-3.483767807483673096e-02,-3.777473699301481247e-03,5.397699307650327682e-03,-1.596131920814514160e-02,-1.328361965715885162e-02,1.569084450602531433e-02,6.403968203812837601e-03,2.373927086591720581e-02,3.132039681077003479e-02
3.436205536127090454e-02,-7.198541425168514252e-03,4.763484466820955276e-03,1.217953301966190338e-02,5.438796430826187134e-02,3.677730634808540344e-02,-3.738175611943006516e-03,9.181683883070945740e-03,4.070909321308135986e-02
5.679865367710590363e-03,6.571637000888586044e-03,2.050630003213882446e-02,-1.197514869272708893e-02,-2.968637505546212196e-03,9.598009288311004639e-03,5.543990992009639740e-03,-1.659831148572266102e-03,3.005904331803321838e-02
-1.471867784857749939e-02,3.763622045516967773e-02,6.605188548564910889e-02,1.052615046501159668e-02,1.464645378291606903e-02,2.866732655093073845e-03,1.375961769372224808e-02,3.218347951769828796e-02,-1.581155881285667419e-02
-2.831747569143772125e-02,5.341567564755678177e-03,1.265220157802104950e-02,-2.215807512402534485e-02,5.108104087412357330e-03,-9.460959699936211109e-04,-2.836374193429946899e-02,-1.993719860911369324e-02,-1.151289977133274078e-02
-1.331584900617599487e-02,1.404500845819711685e-02,3.704303642734885216e-03,-1.340055931359529495e-02,-4.415457602590322495e-03,-3.735644742846488953e-02,-1.854263059794902802e-02,-3.801081702113151550e-02,-6.137517280876636505e-03
2.509416267275810242e-02,1.030702260322868824e-03,4.989520832896232605e-02,2.818613685667514801e-02,8.020299673080444336e-02,2.074443735182285309e-02,5.837398767471313477e-02,1.142300013452768326e-02,2.085644938051700592e-02
-4.368165880441665649e-02,7.147158030420541763e-03,2.794062905013561249e-02,-6.512782722711563110e-02,-1.141339465975761414e-01,-1.180521398782730103e-02,-5.856479704380035400e-02,-5.832695215940475464e-02,-5.641127470880746841e-03
-3.879602625966072083e-02,-5.015597492456436157e-02,1.069317385554313660e-02,7.248270511627197266e-02,2.476335130631923676e-02,4.491369053721427917e-02,5.184673145413398743e-02,-1.685472950339317322e-02,1.693689450621604919e-02
-6.433878559619188309e-03,1.241711247712373734e-02,7.149925082921981812e-02,-2.710686996579170227e-02,-4.334050416946411133e-02,-6.212740391492843628e-02,-6.227277591824531555e-02,-1.583703234791755676e-02,-6.781269330531358719e-03
6.811689236201345921e-04,2.751338761299848557e-03,2.897790819406509399e-02,-9.689557366073131561e-03,1.036235690116882324e-01,5.610585678368806839e-03,-1.105402223765850067e-02,-4.124295338988304138e-02,-3.036660887300968170e-02
3.918128460645675659e-02,3.115392522886395454e-03,4.903489723801612854e-02,-7.023739814758300781e-02,2.681428194046020508e-02,5.292086303234100342e-02,-8.926199376583099365e-02,2.696635201573371887e-02,4.179555457085371017e-03
-2.674155682325363159e-02,-1.320379134267568588e-02,-5.158998072147369385e-02,-2.107530646026134491e-02,-1.639551222324371338e-01,-1.693622395396232605e-02,1.587063819169998169e-02,3.220162168145179749e-02,-1.718934741802513599e-03
2.662864886224269867e-02,3.090890822932124138e-03,-2.127713290974497795e-03,3.978591784834861755e-02,3.157669305801391602e-02,7.700679358094930649e-03,-1.235926640219986439e-03,-5.148817226290702820e-02,5.759692937135696411e-02
2.665058337152004242e-02,-1.472740527242422104e-02,-2.427861094474792480e-02,6.924195587635040283e-02,-2.915985882282257080e-02,7.252791547216475010e-04,8.971869014203548431e-03,-2.297524921596050262e-02,-2.191637083888053894e-02
-1.936144754290580750e-02,-4.029052332043647766e-02,-1.203900277614593506e-01,-5.870072543621063232e-02,-7.405990362167358398e-02,-9.831413626670837402e-02,-9.775646030902862549e-02,-9.151451289653778076e-02,-5.919245630502700806e-02
1.190134696662425995e-02,5.150999128818511963e-02,2.471041493117809296e-02,5.298353731632232666e-02,4.143550619482994080e-02,7.120466232299804688e-02,2.278172597289085388e-02,5.203108862042427063e-02,1.168269570916891098e-02
2.041495032608509064e-02,3.428449854254722595e-02,2.615465037524700165e-02,4.460820555686950684e-02,6.981106102466583252e-02,1.394131779670715332e-01,3.614468872547149658e-02,5.545175448060035706e-02,3.891037032008171082e-02
8.059036731719970703e-02,-2.099588699638843536e-02,4.341394081711769104e-02,2.882784791290760040e-02,6.987379863858222961e-03,2.035157196223735809e-02,-2.075836248695850372e-02,-3.559457138180732727e-02,-1.472164411097764969e-02
-3.500643372535705566e-02,1.061391644179821014e-02,4.427025839686393738e-02,-1.007817499339580536e-02,5.043809488415718079e-02,4.659030213952064514e-02,4.756535217165946960e-02,1.416272607457358390e-05,2.902929298579692841e-02
7.359457015991210938e-02,2.814616076648235321e-02,3.871570900082588196e-02,4.379898682236671448e-02,2.202974259853363037e-02,3.598788985982537270e-03,3.171432390809059143e-02,2.087620273232460022e-02,2.653534710407257080e-02
-3.559010475873947144e-02,-3.528304630890488625e-03,2.581898309290409088e-02,4.783730488270521164e-03,-4.666752368211746216e-02,-4.744867328554391861e-03,2.936820965260267258e-03,1.610658131539821625e-02,1.185420155525207520e-01
2.523208782076835632e-02,7.120527327060699463e-02,4.910204187035560608e-02,1.855572685599327087e-02,2.403644844889640808e-02,4.051750991493463516e-03,-2.277024090290069580e-02,-1.612150296568870544e-02,-4.621691629290580750e-02
7.189078629016876221e-02,4.264350980520248413e-02,3.429583087563514709e-02,7.021517306566238403e-02,3.890579938888549805e-02,-1.184507831931114197e-02,4.525159485638141632e-03,-4.834448546171188354e-02,-1.486089453101158142e-02
-2.867172705009579659e-03,1.222112216055393219e-02,1.912781782448291779e-02,1.321560121141374111e-03,-5.003885016776621342e-04,6.527516059577465057e-03,1.201825030148029327e-02,1.339633110910654068e-02,1.981792272999882698e-03
-2.849357388913631439e-02,-4.922263324260711670e-03,-7.001850754022598267e-03,-1.219466608017683029e-02,2.692491514608263969e-03,2.828902937471866608e-02,2.725211717188358307e-02,1.526190899312496185e-02,2.021230384707450867e-02
-4.085315763950347900e-02,-4.040792211890220642e-02,3.995275124907493591e-02,-3.601267933845520020e-02,1.544543262571096420e-02,-3.552743047475814819e-02,-2.576731890439987183e-02,2.819148451089859009e-02,3.092812746763229370e-02
-1.183226611465215683e-02,-1.773434504866600037e-02,-6.487200967967510223e-03,3.112820908427238464e-02,9.861899539828300476e-03,-2.108399942517280579e-02,2.390200458467006683e-02,1.342168822884559631e-02,7.217831443995237350e-03
2.174733020365238190e-02,-1.675109378993511200e-02,-3.344515338540077209e-02,3.687645122408866882e-02,2.904841490089893341e-02,-2.701492514461278915e-03,-3.389430791139602661e-02,4.500430449843406677e-02,-1.943340152502059937e-02
-7.271289080381393433e-02,-2.668739296495914459e-03,5.072389170527458191e-02,-1.058883368968963623e-01,2.427050285041332245e-02,1.024484634399414062e-02,7.236940786242485046e-03,4.837948456406593323e-02,2.768251858651638031e-02
5.322241410613059998e-02,4.032044485211372375e-02,-1.936280913650989532e-02,5.226600170135498047e-02,4.302985966205596924e-02,-5.414069443941116333e-02,3.408295661211013794e-02,8.823113888502120972e-02,-4.839301109313964844e-02
-1.215488999150693417e-03,-5.112687125802040100e-02,-2.922269143164157867e-02,7.352878153324127197e-02,1.579786092042922974e-02,-1.860737800598144531e-02,2.278778329491615295e-02,6.347364187240600586e-02,-8.167503029108047485e-02
-5.840522050857543945e-02,-1.787462644279003143e-02,-4.785516485571861267e-02,-7.121498882770538330e-02,-4.176573455333709717e-02,-5.731989070773124695e-02,-2.054996415972709656e-02,2.456200122833251953e-02,-3.745738416910171509e-02
2.416602894663810730e-02,-3.483789414167404175e-02,-2.392592281103134155e-02,-4.315681383013725281e-02,-3.846894716843962669e-03,-4.684301558881998062e-03,1.386512885801494122e-03,4.559635743498802185e-02,2.040700241923332214e-02
-1.853145100176334381e-02,1.277040224522352219e-02,1.549989450722932816e-02,-4.386297985911369324e-02,1.482984423637390137e-01,9.564334526658058167e-03,3.578368946909904480e-02,5.343534797430038452e-02,5.121910013258457184e-03
-2.661549672484397888e-02,3.841726481914520264e-02,-2.029161201789975166e-03,-2.262232266366481781e-02,-5.983176175504922867e-03,-1.670435257256031036e-02,4.822153598070144653e-02,7.928975671529769897e-02,-4.252245184034109116e-03
2.375639975070953369e-02,2.087714092340320349e-04,4.781896714121103287e-03,-1.999540627002716064e-02,8.330609649419784546e-02,-3.622199222445487976e-02,-1.772134751081466675e-02,-1.620457507669925690e-02,-2.468520030379295349e-02
1.424651779234409332e-02,-3.627117956057190895e-03,6.181401666253805161e-03,4.211404547095298767e-02,2.340652793645858765e-02,5.642169713973999023e-02,-8.545386604964733124e-03,9.003145620226860046e-03,3.509378759190440178e-03
2.347195707261562347e-02,1.289715711027383804e-02,-2.872457960620522499e-03,1.729918271303176880e-02,6.023302301764488220e-02,-2.491969801485538483e-02,3.836325556039810181e-02,1.822438836097717285e-02,2.520770765841007233e-02
-4.314837232232093811e-02,-2.960256859660148621e-02,-7.420230191200971603e-03,3.580766916275024414e-02,1.429141685366630554e-02,-1.907061040401458740e-02,-2.539736917242407799e-03,-1.905315183103084564e-02,-4.270736128091812134e-02
1.485880743712186813e-02,-6.554365158081054688e-02,-2.413912117481231689e-02,3.909139707684516907e-02,3.891681507229804993e-02,-5.580278486013412476e-02,3.059495985507965088e-02,-5.291191488504409790e-02,-2.682993188500404358e-03
-2.120890282094478607e-02,1.292390096932649612e-02,-2.441290952265262604e-02,-4.749406874179840088e-02,6.233703345060348511e-03,-5.239193886518478394e-02,-5.193557962775230408e-02,-1.960406452417373657e-02,-3.982126712799072266e-02
-4.549524560570716858e-02,-6.274799816310405731e-03,-4.006770625710487366e-02,-8.403223752975463867e-02,-6.498283147811889648e-02,-1.337630674242973328e-02,-5.371416453272104263e-03,-4.544906318187713623e-02,-7.442703843116760254e-02
-3.293636813759803772e-02,-1.727667450904846191e-02,-4.542155563831329346e-02,2.175933867692947388e-02,3.600912913680076599e-02,-4.941676557064056396e-02,1.773226261138916016e-02,4.017544165253639221e-02,-3.121897205710411072e-02
1.197203807532787323e-02,5.161495879292488098e-02,4.794783517718315125e-02,1.869384385645389557e-02,1.485254149883985519e-02,2.876575477421283722e-02,6.103873252868652344e-02,5.894938111305236816e-02,3.468259796500205994e-02
-3.357297554612159729e-02,1.443347055464982986e-02,1.832323148846626282e-02,-6.812465190887451172e-02,-2.213232964277267456e-02,-3.762205317616462708e-02,-6.691471487283706665e-02,-4.701739549636840820e-02,-2.816381398588418961e-03
1.657781377434730530e-02,-1.087198543245904148e-04,3.994631767272949219e-02,5.441503226757049561e-02,8.986257947981357574e-03,9.396559000015258789e-02,5.984054878354072571e-02,1.445471048355102539e-01,2.366066537797451019e-02
-3.851201757788658142e-02,-1.491175964474678040e-02,1.625709468498826027e-03,6.611359864473342896e-02,1.968922652304172516e-02,-4.013296216726303101e-03,4.832794517278671265e-02,2.029142715036869049e-02,-3.114162944257259369e-02
-5.161771178245544434e-02,-4.740599542856216431e-02,-4.066570103168487549e-02,-1.030135005712509155e-01,1.134502291679382324e-01,9.922697395086288452e-02,4.341357201337814331e-02,1.065840870141983032e-01,-9.576959908008575439e-02
-2.079270035028457642e-02,-2.260526083409786224e-02,-1.104779192246496677e-03,-1.875695027410984039e-02,-9.630732238292694092e-02,1.429598312824964523e-02,4.515408352017402649e-02,1.076541561633348465e-02,3.168221935629844666e-02
-9.652532637119293213e-03,-8.038359880447387695e-02,-4.608590621501207352e-03,-1.697204262018203735e-02,-1.590234190225601196e-01,-2.555977739393711090e-02,-3.456784412264823914e-02,-3.023508377373218536e-02,-7.345056533813476562e-02
-2.327268011868000031e-02,1.377412118017673492e-02,3.247560700401663780e-03,-6.585366278886795044e-02,8.200629800558090210e-02,-2.114285901188850403e-02,1.177989132702350616e-02,1.888197474181652069e-02,1.936715096235275269e-02
4.892134107649326324e-03,-1.290055830031633377e-02,3.260248899459838867e-02,-3.356587886810302734e-02,2.356609562411904335e-03,3.467419371008872986e-02,-5.043484270572662354e-02,6.947631016373634338e-03,6.774908304214477539e-02
6.466938555240631104e-02,1.518586836755275726e-02,-5.133953411132097244e-03,5.869529023766517639e-02,-6.110584735870361328e-02,8.211111649870872498e-03,4.423057287931442261e-02,3.084483183920383453e-02,5.732221156358718872e-02
-2.841449156403541565e-02,-8.535791188478469849e-02,-8.835534751415252686e-02,7.935567945241928101e-02,7.371090352535247803e-03,-1.704528112895786762e-03,2.428531460464000702e-02,7.003753911703824997e-03,3.740603104233741760e-02
2.806902863085269928e-02,-8.954393677413463593e-03,-3.066406957805156708e-02,-1.018513552844524384e-02,-7.996076345443725586e-02,1.520696748048067093e-02,2.866886788979172707e-03,3.162902593612670898e-02,-2.352666482329368591e-02
-8.951568161137402058e-04,2.071395516395568848e-02,4.892221465706825256e-02,-8.064241707324981689e-02,-8.621594309806823730e-02,6.857366114854812622e-02,-2.133244276046752930e-02,4.227197170257568359e-02,-7.644248660653829575e-03
1.000986527651548386e-02,-1.975791156291961670e-02,9.571614675223827362e-03,2.885747887194156647e-02,3.020641580224037170e-02,-4.121026769280433655e-02,8.690460585057735443e-03,-1.656008884310722351e-02,-7.206602487713098526e-03
-1.284066680818796158e-02,-1.731044799089431763e-02,7.124128937721252441e-02,5.539995059370994568e-02,8.897633105516433716e-02,1.450380310416221619e-02,2.915312070399522781e-03,-5.122809088788926601e-04,8.549015037715435028e-03
1.267230324447154999e-02,5.403614044189453125e-02,2.313123457133769989e-02,2.683574147522449493e-02,1.313906721770763397e-02,-2.305292151868343353e-02,-3.952423110604286194e-02,-1.797845005057752132e-03,-1.410802081227302551e-02
-2.872576937079429626e-02,-2.397447079420089722e-02,6.310351938009262085e-02,-9.084261953830718994e-02,-1.331856101751327515e-01,2.922861138358712196e-03,-7.791692763566970825e-02,-2.537588775157928467e-02,-5.270884186029434204e-02
-2.447968162596225739e-02,2.023250097408890724e-03,-2.305485494434833527e-02,-4.142412543296813965e-02,1.353058516979217529e-01,-3.101590089499950409e-02,-1.000928413122892380e-02,-2.583934552967548370e-02,-2.191958203911781311e-02
4.842113703489303589e-03,-2.182139270007610321e-02,-1.360285561531782150e-02,2.348611876368522644e-02,5.894065368920564651e-03,-9.795635938644409180e-03,1.298132166266441345e-02,2.978761866688728333e-02,-1.746816746890544891e-02
-1.105034351348876953e-02,8.298663422465324402e-03,8.963925763964653015e-03,-6.107646226882934570e-02,-2.037571184337139130e-02,1.869742572307586670e-02,-3.183120489120483398e-02,3.254257515072822571e-02,5.511985719203948975e-02
5.124335363507270813e-02,6.181848421692848206e-02,1.628834381699562073e-02,3.891825303435325623e-02,-8.537888526916503906e-02,6.607405375689268112e-04,2.220026217401027679e-02,4.169549420475959778e-02,4.026051238179206848e-02
4.024304077029228210e-02,3.469015657901763916e-02,4.996360093355178833e-02,7.027265429496765137e-02,5.354453809559345245e-03,2.475220896303653717e-02,5.176135152578353882e-02,-3.550660982728004456e-02,-9.656771086156368256e-03
1.794029772281646729e-02,2.893513627350330353e-02,-3.453185781836509705e-02,2.479583397507667542e-02,6.994602084159851074e-02,8.732719346880912781e-03,-3.872270137071609497e-02,2.939761988818645477e-02,9.900163859128952026e-02
-5.895973742008209229e-02,2.471685409545898438e-02,-5.725085269659757614e-03,-6.428402662277221680e-02,-9.303281083703041077e-03,-1.712228730320930481e-02,-6.789672654122114182e-03,6.377916038036346436e-02,9.285628050565719604e-02
3.723673895001411438e-02,-1.433935388922691345e-02,-3.584183007478713989e-02,-2.830197103321552277e-02,7.317397743463516235e-02,-3.639270318672060966e-03,4.654501751065254211e-02,1.341813504695892334e-01,1.138660833239555359e-01
-2.167361788451671600e-02,-1.923911273479461670e-02,3.826570883393287659e-02,4.790972173213958740e-02,1.101190503686666489e-02,9.415344893932342529e-02,6.225966289639472961e-02,2.275001630187034607e-02,2.669651992619037628e-02
-8.071889169514179230e-03,-1.736925356090068817e-02,4.599904641509056091e-02,2.375999465584754944e-02,-4.302308708429336548e-02,1.606391556560993195e-02,2.613601274788379669e-03,-4.500958311837166548e-04,3.193923458456993103e-02
-2.021310230304607103e-09,7.801855161915227654e-09,-8.948648932971536851e-09,-1.638790259050892928e-08,-1.087305623315160119e-08,-4.823425547861859286e-10,6.914977035421543405e-09,-1.456344711492363331e-09,-3.864045083901146427e-09
-3.678172078025454539e-08,-4.412083587368442750e-09,-5.764949850828315903e-09,4.905464923155022916e-09,9.990834826112404699e-09,6.333205959663246176e-09,-6.188615397917374139e-09,-7.057879169991565504e-09,-1.129905058405711316e-08
5.137897662876866889e-09,-3.343996723970121820e-08,5.775611988667606056e-09,6.419274889424286812e-09,-2.661547782167872356e-08,1.067907007268331654e-08,-7.042766370091158024e-09,-1.216733203079911618e-08,1.633878365936425325e-09
1.007050220991345668e-09,6.246779538088276240e-09,-7.063429841025481437e-09,-1.273235827881080695e-08,5.542972331129547570e-11,5.733047370171107104e-09,-2.812952981656735574e-09,2.261577236595258000e-08,1.343503175377236403e-08
-3.879628174274785124e-09,2.545069710535585727e-09,6.815358943867977359e-09,6.424596410425920112e-09,1.011932582173358242e-08,-1.873153010478745273e-08,1.612148192720042061e-09,-3.037828477658877091e-08,1.614758460277698759e-08
9.657909139093590056e-09,5.538774994207074087e-10,-1.162493479256454521e-08,-1.483471567809147018e-08,-8.629126746484416799e-09,-2.738319260231492080e-08,1.553912554186354100e-08,2.614855221239054117e-09,-1.185947429149791787e-08
-1.519349202006026189e-09,-3.168677764620042581e-09,-1.134930815993584474e-08,2.182902525404983862e-09,9.013391810697157780e-09,1.369158564301642400e-08,-3.712907981068269692e-09,1.725732801105550607e-08,-5.712070816343839397e-09
-7.128656775989838934e-09,-6.780061401201464832e-09,-6.614923275805040248e-09,-2.070688864819203445e-08,-8.175943477795044600e-09,-5.315921924875510740e-09,7.371227628283349986e-09,-6.305722166644045501e-09,1.372362845586394542e-08
-4.624167715405747003e-09,-6.114917905364336548e-09,-3.140276372270989214e-10,-9.060313610476100621e-10,-6.049169609667615077e-09,1.154492590416111852e-08,-2.730927484151379758e-09,4.131355257896984767e-09,-1.292568541089167411e-08
7.487757969215635967e-09,-7.144716374085646748e-09,-1.176507957723060827e-08,-1.640363755939233670e-08,-6.383966688616737883e-09,3.873767084883183998e-08,3.044012597541723153e-09,-1.605234878354622197e-08,2.770726537093537445e-09
-2.808800836362479458e-08,-2.261741016695850703e-09,-2.036779989111892064e-08,5.924500889875616849e-09,-2.436186807841522750e-09,1.991482889707185677e-08,-6.872880931041436270e-09,-2.215452887810442917e-08,-1.298215090983489972e-09
-2.159483925012750660e-09,-8.022622566272730182e-09,-8.856094524389845901e-09,1.466296062346827966e-08,1.981247343962877494e-08,5.605905961658663728e-09,-5.176735706768909040e-10,4.769715733488055776e-09,1.020532636175630614e-08
-1.221445877774840483e-08,-2.792160280762345792e-09,-9.175748161283081572e-09,-1.143720229634936913e-08,-2.297399426254287391e-08,-2.049185487962290608e-09,-4.773260009471869125e-09,2.124814990622780897e-08,1.120839066004464257e-08
-1.223038781361651672e-09,9.469433237541124981e-09,-1.188249276751207617e-09,-8.759677427860879106e-09,2.740340621087966611e-09,1.130733995324817442e-08,1.367233881666152229e-08,-9.430872749405239119e-10,-1.064713983645049211e-09
2.216309136215954823e-09,-8.905225445943187879e-10,-2.032001056306853570e-08,-1.175652908358415516e-08,6.735678237390629874e-09,-5.648916445721852142e-09,-5.234752187277535995e-09,1.438294150446495223e-09,7.668679913308551477e-09
-1.551794248655369302e-08,-2.583598890382177160e-09,-1.931456061754488474e-08,1.051966602716447596e-08,-4.087855387524541584e-09,1.843286590030857042e-08,-1.302088836752091083e-08,1.427691209698878083e-08,-3.846586604794310915e-09
-5.707144090649762802e-09,-1.108966696250490713e-08,7.000235058285397827e-09,2.221679062941461780e-09,-4.202280745602138268e-09,3.457590880273642142e-09,-1.398010006370409286e-11,-1.374848590529609282e-08,9.772095355131682481e-10
1.612806777018249704e-08,-8.400560247423527471e-09,1.267891835965428982e-08,-1.007475436409777103e-09,1.848260433590098728e-09,6.016481091108971668e-09,3.029911255225670175e-08,-4.285017229932464033e-09,1.142556360633761869e-08
7.600346130232082942e-09,-1.425009887867645375e-09,-3.634557987908237919e-09,-8.993948696911502338e-09,7.650885258669859468e-09,8.343169710656184179e-09,7.816403524429915706e-09,-1.916684588820771751e-08,-1.007958516652252001e-08
-1.126923998562290308e-09,-9.512641341302696674e-09,-2.139042365456589323e-08,-2.222092732040437113e-09,-1.100546676013891556e-08,-9.087357533132944809e-09,1.021332796113938457e-08,-3.877874021895877377e-09,6.887583836601152143e-09
-3.481753108047769274e-09,3.253993963170387360e-09,9.603082773423921026e-09,-1.276211047951392175e-08,-1.356094436744115228e-08,8.297214471042480000e-09,-3.782378410477349462e-09,1.159576612508317339e-08,5.821105819592276021e-09
9.372751463843087549e-09,-9.849486781732252894e-10,-1.002603866595563886e-08,-9.733568617775745224e-09,-7.466274709599929338e-09,7.818846681217905825e-10,-1.542408156751662318e-08,6.236257732439298707e-09,4.572249245882176183e-09
-1.762114365533307137e-08,1.584836617496421241e-08,4.483716953274097250e-09,5.589034124398040149e-09,-6.702432830962834487e-09,-6.935076957148567089e-09,1.143969097228136889e-08,-7.122513245860773168e-09,-3.466088971393332940e-09
-4.383151175346711170e-09,4.485750437766000687e-09,-7.618909947382235259e-09,-1.661402571073722356e-08,1.721539000243410555e-08,-7.862054340890267667e-10,2.415292410518077304e-09,-3.487059974105477522e-09,5.393661517416603601e-09
-6.885826131508565595e-09,5.877157427391921374e-09,-3.684047733543138747e-09,1.215085099204316066e-08,-6.546537534291019256e-09,2.842075685904887905e-09,-1.861855203344475740e-08,-2.529866538480973759e-09,2.696625855946876982e-08
8.103866022679540038e-09,2.059699255596569856e-08,-8.957034225431925734e-09,8.204859014426801878e-10,-2.058515491398793529e-08,4.268774222992988143e-09,-1.031859842015592221e-08,-1.380233793923935082e-08,-4.085013660670711033e-09
8.732851775050676224e-09,-7.045524164084326912e-09,-1.695257489942036955e-09,-1.207646205259038652e-09,-3.873797282949453802e-09,4.576134138289944531e-09,-4.590562596717973065e-09,-5.869777996991842883e-09,6.992403100980482122e-09
1.977176644629707880e-09,-9.816331747458661994e-09,9.161888137043661118e-09,-6.170613353617682151e-09,9.717314952695232932e-09,-2.785931485504988814e-09,7.016374148349768802e-09,1.546901096105557372e-08,-4.989421764634016654e-09
-1.253673342915817557e-08,1.287864304089225698e-08,-9.090919128595942311e-09,1.009517980321561481e-08,6.564103038897428632e-09,1.181036779485111765e-08,-8.727279343645477638e-09,-2.359797512951899989e-08,8.413286955999410566e-09
2.302316204350063344e-08,5.782859080483149228e-09,1.447274833310530084e-08,9.620303442758881829e-10,1.616321632091910487e-09,1.320042297692225475e-08,-2.502096307921419793e-08,-7.905383014872313652e-09,-2.103474949777250913e-09
6.982270317479333244e-09,-8.810863150188197324e-09,-6.064365676294869445e-10,7.513799360481243639e-09,-9.304585990577152188e-10,1.069809485443329322e-08,5.828697524634662841e-09,1.470778965284580408e-08,2.466701287673345178e-09
6.893372539451547709e-09,7.652004363478681626e-09,1.076464140048472018e-09,1.577954300557848910e-08,5.999224228503408085e-09,1.251001968682885490e-08,-1.422297568609565133e-08,1.284182804539568679e-08,2.418738986875723640e-09
-6.115453921040625573e-09,1.415177042218829229e-08,-1.801585214344925134e-09,-2.487707106979542004e-08,-1.031528729100728015e-08,1.028658402901783120e-08,4.488551308412525032e-09,-1.434537599820373543e-09,-1.709853947318151768e-08
-1.489185486036603834e-08,-2.335489135418811202e-09,1.995435816581903055e-08,1.574268537751777330e-08,9.161926328715708223e-09,-4.158154265354596646e-09,3.251220959121781107e-10,-1.331466314979934396e-08,7.781478572610467381e-09
-5.021831395168874224e-09,1.056997156467787136e-08,1.436061713988578958e-09,1.487023615354132744e-09,6.565085808318826821e-09,5.349575893376368185e-09,-6.024125642767330646e-10,-9.674461232123121590e-09,-5.528378643759879196e-09
9.438385184523667704e-09,9.205614048823917983e-09,1.800547377861505538e-09,3.714706764412767370e-09,4.866609781828401537e-09,-1.266555482715148173e-08,2.328892412251093447e-09,6.690356713079381734e-09,1.141767036472174368e-08
1.300807372928147743e-08,-8.131573636660505144e-09,-8.563118270021874423e-11,1.689714324015767488e-08,-1.336913868499323144e-08,-6.651829087545024777e-10,1.976439811812724656e-08,1.013780392966623367e-09,1.529664572785804921e-08
3.157166528211519108e-09,2.274174848437837682e-09,-8.350244051769095677e-09,-1.006798378000439698e-08,-8.430747655552295328e-09,1.718279740714478976e-09,-1.594409826388698548e-09,6.000439034536952931e-10,1.662332493879148387e-08
-1.594868592746934155e-08,-2.121260500587140996e-09,8.406934703941715270e-09,1.591735809824967873e-08,1.213466482852254558e-08,8.240148119398327253e-09,2.916798746976922985e-10,-6.317545153677883718e-09,-1.127302584613687486e-09
-1.331603050047647230e-09,1.296717577758954576e-08,1.069464694580801734e-08,1.165341867448432822e-08,-4.448422519232053673e-09,5.323713470062330089e-09,1.262836590854021779e-08,-3.595897468677833331e-10,1.051926101780509271e-08
-2.568141255210321106e-09,1.995938303522848400e-09,8.005043738990025304e-09,6.561691190398732942e-09,-5.798624247432826451e-09,2.987885272531798364e-09,-3.540562953929793366e-09,-8.175614851779755554e-09,-2.710472957190290799e-09
-5.754955623160640243e-09,-2.125831954913337540e-08,1.381288305957184548e-09,6.964946841492292151e-09,-4.644389761665479455e-09,1.329309640141218551e-08,8.399980266915463289e-09,1.397676641090583871e-08,3.346793064906705695e-09
-1.302896812660492287e-08,-4.895012839511991842e-09,6.882411307529423539e-10,5.382891465899319883e-09,-7.887387964977676802e-10,-2.095566209447952133e-08,9.300423542413227551e-09,9.144203616529011924e-09,5.946093395436946594e-09
1.692394491215054586e-08,9.208112494718534435e-09,1.029658469597904968e-09,4.240235274011183719e-09,-1.440906727268043142e-09,-1.638718674645822659e-11,-3.971925899293182738e-09,-3.957809635579678798e-09,1.258303239382030370e-09
8.154724007169988909e-09,-2.249497699224889402e-09,-4.896822947131340698e-09,1.694033135990480332e-09,-1.081790768076018594e-09,3.562240946664019248e-09,1.003867922122481104e-08,8.081742386423229618e-09,-2.936775045370154658e-09
-1.815329575549640140e-08,-3.480905341746165504e-09,8.217591940251622873e-09,-1.913893576954706077e-08,4.782601426001065192e-09,-1.865024579217333667e-09,-8.865279177427964896e-09,-1.107024782953658359e-08,4.182081791981318020e-09
1.555113549045472610e-08,2.229860074365319633e-09,2.970730994533710145e-09,-7.203034280145459434e-10,2.575531732329494616e-10,1.025795448583721736e-08,5.632935895505397639e-09,-2.261693277105791822e-09,-5.849040363159474509e-09
5.693801430339817671e-09,2.967860845970449191e-09,-7.162263226945242423e-09,5.143448777999992672e-09,6.532042906570723062e-09,5.208210307472427303e-09,5.765796284862290122e-09,5.122159585368990520e-09,-1.205683375360422360e-08
3.036485285434764592e-09,1.622801271139451273e-08,7.688654157789187593e-10,-3.638027212815586608e-09,-1.690835027545745106e-08,-1.208153665999134319e-08,-1.718744435663666081e-08,1.133773785966241121e-08,1.753815981331285911e-09
-9.006643431064276228e-09,-3.823946437275793642e-10,-1.968248319883514341e-08,2.489154216078759418e-09,9.201899686672732059e-09,-4.766600447680957586e-09,-7.664608503432646103e-09,-1.995886655947742838e-08,1.553599560111251776e-08
4.049549140461294883e-09,-4.775762452169374228e-09,-1.031945995322303133e-08,-1.272518979078540724e-09,1.943092797773715574e-08,-6.763388959996063932e-09,4.976495660002910881e-09,6.840423338871914893e-09,3.977909557306702482e-09
-2.494315509693478816e-08,-1.014066963733739613e-08,2.614276128909409636e-09,1.023784701459362623e-08,-9.988702920349368242e-11,-9.122477884204727161e-09,-9.346715401647998078e-09,-1.600826693426427028e-09,-9.808238665698354453e-10
-1.113262015906002489e-08,7.887677178075591655e-10,1.525416948311431042e-08,3.217895727658515170e-09,9.440177528574622556e-10,-1.149596240423989002e-08,-1.755586964691246976e-08,-4.663902153367871506e-09,-3.341496856990033848e-09
1.094095303244557726e-08,2.061194770419660927e-08,-9.368182674052150105e-09,-1.575114971785751550e-08,-4.894758820483957606e-09,-8.850676636029675137e-09,-6.242456773719595731e-09,1.291950102455530214e-08,-7.582490191282431624e-10
-1.861458098773027814e-09,-4.291947686141384111e-09,-3.712322449445082384e-09,8.303715937074684916e-09,2.714042185436582599e-11,1.122737547376573275e-08,5.260785140848156516e-09,-9.948913692880978488e-09,1.651740078045804694e-08
-1.489463574699811943e-08,-4.075729753694190549e-10,-1.528862192401447828e-08,5.695860672005892411e-09,1.496487378460642503e-09,2.112674035714690035e-09,-4.960351684957231555e-09,1.104507152405176384e-08,-1.246358394269009295e-08
-5.575208295027778149e-09,6.573924071773262767e-09,1.246692882261868363e-08,-2.012460642575319980e-09,-4.212602267017473423e-09,-6.132367946776184908e-09,3.727937070152620436e-09,-4.283419396955423508e-09,3.887087096643426776e-09
-8.789571737111145922e-09,1.674569094500810706e-10,-1.010831685022139936e-08,7.922611011679236981e-09,-1.330879495498038523e-08,-3.033528983564792725e-09,3.357573996609630740e-09,1.428962548288836842e-08,-2.137820587222449831e-08
9.185090021901487489e-09,5.079046072609116891e-09,-9.080657115134727064e-09,1.325522891448827068e-08,2.392672948658969290e-09,-1.025001239440825884e-08,1.116986592109014964e-08,2.623545469759847037e-08,-1.077911093716465984e-08
-6.982282307887999195e-09,1.198507626476441601e-09,-8.534358997280833137e-09,-7.278765590257307849e-09,-1.123559822957531651e-08,-7.625687636902966915e-09,-4.922164453802224671e-09,2.314193725538871149e-09,-8.151681107904096280e-09
-2.244176222632177087e-08,5.451584739191162043e-10,3.109358048813959385e-10,-1.039707608896378588e-08,-4.875567949369497001e-09,-6.296991261756090807e-10,5.082094300945527721e-09,-4.984181956046995765e-09,8.004802154459866870e-09
1.891374834528392057e-09,5.346288745045058022e-09,5.465016883476891962e-09,-1.799524618206760351e-08,3.594656350358604868e-09,-3.669343717760398249e-09,5.321584062301099038e-09,-1.141357586220692610e-08,-7.323070150277999346e-09
-1.563035922913513787e-08,-2.799604992276272242e-09,3.678705118304037569e-09,-1.740517774351246771e-08,-9.378715581931373890e-09,-1.272388194806239881e-09,1.594692555784149590e-08,5.727160523605334674e-09,-1.162919449626542701e-08
-1.610375499616623074e-09,2.682505995110773256e-09,-9.648725152189285836e-10,1.119571102492500358e-08,4.390525720765481310e-09,2.598071535686585776e-09,-7.238548871413286179e-09,5.418238302468125767e-09,-2.326251902218245959e-08
1.347856074571609497e-01,4.372503980994224548e-02,3.297531977295875549e-02,1.739396527409553528e-02,-7.195074111223220825e-02,-1.051659043878316879e-02,8.040248602628707886e-02,-5.592121183872222900e-02,-5.059620738029479980e-02
2.600610256195068359e-02,1.256359666585922241e-01,1.161971390247344971e-01,4.011041950434446335e-03,1.139113008975982666e-01,6.834949553012847900e-02,-2.669985778629779816e-02,-3.213610500097274780e-02,4.907046630978584290e-02
-1.154757142066955566e-01,-1.577276140451431274e-01,-8.091773837804794312e-02,-1.012972444295883179e-01,-2.343747764825820923e-02,-5.477256141602993011e-03,-2.523598261177539825e-03,1.863725669682025909e-02,5.338066816329956055e-02
-1.090792752802371979e-02,4.062781110405921936e-03,7.658046483993530273e-02,1.985104940831661224e-02,-3.745336458086967468e-02,5.622068047523498535e-02,1.616688794456422329e-03,7.083198428153991699e-02,1.672280021011829376e-02
-1.586079299449920654e-01,-8.413847535848617554e-02,-3.204793110489845276e-02,-3.169701248407363892e-02,-3.861857205629348755e-02,1.266234926879405975e-02,1.307350993156433105e-01,1.139971464872360229e-01,6.118356063961982727e-02
5.514414608478546143e-02,4.240010678768157959e-02,9.235066175460815430e-02,-1.279747951775789261e-02,1.501348684541881084e-03,5.488537624478340149e-02,2.783075161278247833e-02,4.328585788607597351e-02,6.506006419658660889e-02
-2.048335038125514984e-03,-1.266710739582777023e-02,-8.155447244644165039e-02,-8.323717862367630005e-03,1.449572443962097168e-01,-8.357959240674972534e-02,1.422088779509067535e-02,-1.059774532914161682e-01,3.013953799381852150e-03
2.975777164101600647e-02,4.016966000199317932e-02,-1.619228348135948181e-02,-1.987723167985677719e-03,6.153744831681251526e-02,-5.867626890540122986e-02,1.260806806385517120e-02,-2.112007141113281250e-02,2.074247458949685097e-03
-7.859659194946289062e-02,-3.285289276391267776e-03,-5.152388289570808411e-02,7.478585839271545410e-02,6.689112633466720581e-02,-5.703396350145339966e-02,5.617741029709577560e-03,2.132796868681907654e-02,-1.356178522109985352e-01
5.522682797163724899e-03,1.061933860182762146e-02,-5.073223263025283813e-02,6.024762988090515137e-02,7.727590203285217285e-02,-4.305366799235343933e-02,5.691700428724288940e-02,-6.250234437175095081e-04,1.169658172875642776e-02
1.956980861723423004e-02,2.297197654843330383e-02,1.597045734524726868e-02,3.535147756338119507e-02,2.675381302833557129e-02,6.723061949014663696e-02,-1.767450827173888683e-03,-3.016769140958786011e-02,-1.031456887722015381e-02
4.931731149554252625e-02,8.785682171583175659e-02,5.140824988484382629e-02,8.551609516143798828e-02,5.990256369113922119e-02,3.156624361872673035e-02,1.929255947470664978e-02,6.901007611304521561e-03,-8.604558557271957397e-02
1.285947579890489578e-02,-3.455597907304763794e-02,1.885306835174560547e-02,-7.280277460813522339e-02,-1.125241890549659729e-01,6.835855543613433838e-03,3.690144047141075134e-02,2.485416829586029053e-02,7.444594055414199829e-02
-2.767953276634216309e-02,-6.513889878988265991e-02,-1.076382696628570557e-01,2.902194112539291382e-02,1.754222670570015907e-03,3.893649950623512268e-02,-9.118068218231201172e-02,-4.656510055065155029e-02,1.572256349027156830e-02
7.857669144868850708e-02,1.003731340169906616e-01,-4.139149561524391174e-02,-9.353800676763057709e-03,-1.970439404249191284e-02,-3.080554306507110596e-02,-4.866263642907142639e-02,-8.037553727626800537e-02,2.256768010556697845e-02
-4.607365652918815613e-02,-6.571493297815322876e-02,-7.156337797641754150e-02,-5.931668914854526520e-03,3.694177791476249695e-02,3.885057568550109863e-02,3.657531226053833961e-03,6.856716424226760864e-02,8.504901081323623657e-02
3.548092395067214966e-02,6.629010289907455444e-02,7.050725631415843964e-03,3.431110177189111710e-03,1.349318623542785645e-01,4.276660829782485962e-02,1.036639139056205750e-02,5.806896090507507324e-02,4.023431241512298584e-02
3.550455346703529358e-02,2.994512580335140228e-02,1.987661793828010559e-02,-2.518373075872659683e-03,5.101377889513969421e-02,2.410807646811008453e-02,-5.980668938718736172e-04,2.867111191153526306e-02,1.582175120711326599e-02
-7.201626896858215332e-03,2.807446569204330444e-02,3.276145458221435547e-02,-2.328440174460411072e-02,-5.154819227755069733e-03,1.753130368888378143e-02,-5.418745055794715881e-02,-2.656510099768638611e-02,-5.041549727320671082e-02
1.680875197052955627e-02,9.393460117280483246e-03,-3.080768324434757233e-02,9.092610329389572144e-03,4.352129995822906494e-03,-2.702746540307998657e-02,-4.897455498576164246e-02,-5.156701430678367615e-02,1.571551151573657990e-02
-3.421001136302947998e-02,1.114013325423002243e-02,-1.069869771599769592e-01,-9.524670988321304321e-02,8.043816685676574707e-02,-1.609100401401519775e-02,3.563835844397544861e-02,8.963740617036819458e-02,9.296477586030960083e-02
5.364390090107917786e-02,-3.388442844152450562e-02,2.031052857637405396e-02,5.657869577407836914e-02,6.316535919904708862e-02,-1.096411235630512238e-02,8.278100937604904175e-02,6.532139610499143600e-03,2.730900794267654419e-02
-5.472630728036165237e-04,-8.810640126466751099e-02,-6.637696176767349243e-02,9.156959503889083862e-02,3.901805356144905090e-02,7.578123360872268677e-02,4.875596240162849426e-02,-6.049292162060737610e-02,6.834034342318773270e-03
-1.077608019113540649e-01,-1.112710162997245789e-01,-9.623695164918899536e-02,1.880013756453990936e-02,-2.327430248260498047e-02,3.405769914388656616e-02,9.999692440032958984e-03,-2.549077942967414856e-02,-3.480086848139762878e-02
8.515889197587966919e-02,4.906731098890304565e-02,-1.098547205328941345e-01,3.649378195405006409e-02,1.022518053650856018e-01,-2.701077982783317566e-02,-1.718194223940372467e-02,2.048112452030181885e-02,-4.380270838737487793e-02
-4.423775151371955872e-02,-8.860212564468383789e-02,-1.750373840332031250e-02,5.978494416922330856e-03,5.940502882003784180e-02,-5.626124888658523560e-02,-1.263013109564781189e-02,5.933413282036781311e-02,-1.052210107445716858e-02
-2.617004327476024628e-02,-8.012530393898487091e-03,2.384423650801181793e-02,9.377113543450832367e-03,-1.217332109808921814e-02,-4.334916919469833374e-02,1.277591940015554428e-02,3.104507923126220703e-02,-5.484449677169322968e-03
-2.450531115755438805e-03,5.390434991568326950e-03,-2.762323990464210510e-02,5.638122186064720154e-02,-2.490773238241672516e-02,3.390385955572128296e-02,9.793811477720737457e-03,5.245830118656158447e-02,6.154594011604785919e-03
5.983851850032806396e-02,9.832492470741271973e-02,-5.688182427547872066e-04,4.512485489249229431e-02,-4.651344195008277893e-02,3.318005427718162537e-02,3.150767832994461060e-02,1.090406626462936401e-01,5.582500994205474854e-02
3.315825387835502625e-02,-3.083786368370056152e-02,-4.799671098589897156e-02,7.854149490594863892e-02,-8.936806768178939819e-02,-3.158816695213317871e-02,-2.070286311209201813e-02,-1.724114874377846718e-03,-3.968027234077453613e-02
2.766663581132888794e-02,-3.285457193851470947e-02,-5.460150912404060364e-02,1.305453330278396606e-01,3.692121431231498718e-02,4.012258350849151611e-02,1.105639711022377014e-01,-1.141834817826747894e-02,-2.129031904041767120e-02
3.989034518599510193e-02,2.515314519405364990e-02,3.524608910083770752e-02,1.777585223317146301e-02,4.713068902492523193e-02,3.268934786319732666e-02,8.324318565428256989e-03,3.692147880792617798e-02,2.290867269039154053e-02
7.987605407834053040e-03,3.231095895171165466e-02,4.828109592199325562e-02,-3.124771267175674438e-02,1.794075965881347656e-02,8.128794282674789429e-02,-1.604387536644935608e-02,-2.243709377944469452e-02,2.556346915662288666e-02
1.084995456039905548e-02,-4.587183147668838501e-02,6.028708815574645996e-02,1.601508259773254395e-01,1.217365711927413940e-01,1.226889342069625854e-02,6.117938831448554993e-02,-2.369050867855548859e-02,1.683894731104373932e-02
8.339300751686096191e-02,3.634505346417427063e-02,-5.113960243761539459e-03,1.168068647384643555e-01,5.915905535221099854e-02,-1.128525752574205399e-02,1.178537979722023010e-01,5.433060601353645325e-02,-9.751004166901111603e-03
-8.453062921762466431e-02,-5.274611525237560272e-03,8.072562515735626221e-03,-1.373944133520126343e-01,-5.326535552740097046e-02,-5.283597856760025024e-03,-1.139842942357063293e-01,-3.987511992454528809e-02,-8.509547449648380280e-03
1.295971423387527466e-01,-3.291561454534530640e-02,7.441204786300659180e-02,1.452381312847137451e-01,2.594998851418495178e-02,-4.576237127184867859e-02,1.544725894927978516e-01,-5.242948886007070541e-03,1.850687339901924133e-02
-1.541194971650838852e-02,-1.951546967029571533e-02,-3.523846715688705444e-02,-3.411374986171722412e-02,-2.423330768942832947e-02,2.072736853733658791e-03,-2.870184183120727539e-02,-3.674399480223655701e-02,-2.871984615921974182e-02
4.681724682450294495e-02,1.253142058849334717e-01,4.498317837715148926e-02,1.997030340135097504e-02,6.014312803745269775e-02,3.101103194057941437e-02,-3.772516176104545593e-02,-1.038452330976724625e-02,3.558645769953727722e-02
9.172195196151733398e-02,7.686959952116012573e-02,-1.604141294956207275e-02,8.702552318572998047e-02,8.448825031518936157e-02,5.147448182106018066e-02,-1.182087976485490799e-02,5.369575228542089462e-03,-3.293478861451148987e-02
-6.382066290825605392e-03,-9.878035634756088257e-02,-4.740218818187713623e-02,-4.742258414626121521e-02,2.281675487756729126e-02,8.797544986009597778e-03,-3.862627968192100525e-02,-6.569171696901321411e-02,5.392906814813613892e-02
2.037744969129562378e-02,-1.657323166728019714e-02,-1.376313157379627228e-02,2.611738443374633789e-02,-1.872657611966133118e-02,8.057862520217895508e-02,-2.239206060767173767e-02,-9.967291727662086487e-03,-7.479067891836166382e-02
-7.365350425243377686e-02,3.270634263753890991e-02,2.367767505347728729e-02,2.500748727470636368e-03,7.877571880817413330e-02,-3.834081813693046570e-02,1.093028336763381958e-01,1.033866591751575470e-02,6.759026646614074707e-02
-7.813157141208648682e-02,8.643470704555511475e-03,-3.356961533427238464e-02,9.587908163666725159e-03,2.082871831953525543e-02,-7.955978065729141235e-02,-2.873078361153602600e-02,-8.078933507204055786e-02,2.394591458141803741e-02
1.914050243794918060e-02,1.477576140314340591e-02,3.299128264188766479e-02,2.320140600204467773e-02,6.143511831760406494e-02,9.656946361064910889e-02,-1.078124530613422394e-02,1.396174822002649307e-02,4.568909853696823120e-02
3.902483358979225159e-02,-1.186551526188850403e-02,-9.784848242998123169e-02,5.835454165935516357e-02,4.898846149444580078e-02,-5.250989273190498352e-02,-7.983717322349548340e-02,1.889347657561302185e-02,2.189136296510696411e-02
3.595377504825592041e-02,6.363141536712646484e-02,4.283406957983970642e-02,5.716959014534950256e-03,-4.166735708713531494e-02,-1.007090434432029724e-01,5.233549512922763824e-03,8.016361854970455170e-03,-5.870792642235755920e-02
8.341037482023239136e-02,-5.285735428333282471e-02,1.034458074718713760e-02,1.157809868454933167e-01,-1.374831795692443848e-01,1.521779503673315048e-02,3.505106270313262939e-02,-4.132604226469993591e-02,3.237992525100708008e-03
-5.098180379718542099e-03,2.125164866447448730e-02,8.123259060084819794e-03,5.037317425012588501e-02,-6.934209167957305908e-02,-7.511143572628498077e-03,-1.919817365705966949e-02,5.977487191557884216e-02,-7.194397598505020142e-02
9.825985133647918701e-02,1.294438391923904419e-01,6.976998597383499146e-02,3.667973354458808899e-02,-3.226219490170478821e-02,7.599814981222152710e-02,1.525062173604965210e-01,2.000515162944793701e-01,1.202849522233009338e-01
-4.942466691136360168e-02,-1.647260622121393681e-03,-8.539938181638717651e-02,-2.088705450296401978e-02,5.502318218350410461e-02,-3.454921394586563110e-02,-3.645110130310058594e-02,-2.338867867365479469e-03,-4.557101428508758545e-02
5.664274469017982483e-02,6.698580086231231689e-02,8.801872283220291138e-02,5.032605677843093872e-02,4.754623770713806152e-02,7.559157907962799072e-02,-5.941789224743843079e-02,-3.821058198809623718e-02,1.583597995340824127e-02
1.025818586349487305e-01,1.237524747848510742e-01,8.666712790727615356e-02,1.847881637513637543e-02,1.361078172922134399e-01,1.137024387717247009e-01,-3.523056209087371826e-02,-1.804418489336967468e-02,9.494256228208541870e-03
-4.389760270714759827e-02,-2.938486263155937195e-02,-4.298878833651542664e-02,-4.102712869644165039e-02,3.692885860800743103e-02,2.695309743285179138e-02,-5.785327777266502380e-02,2.559291198849678040e-02,9.055722504854202271e-03
6.191627681255340576e-02,1.013227831572294235e-02,1.608769595623016357e-02,4.747502505779266357e-02,1.765827648341655731e-02,2.828332409262657166e-02,-9.280104190111160278e-02,-1.756821945309638977e-02,-9.664647281169891357e-03
-5.572846904397010803e-02,-3.179556876420974731e-02,3.168925642967224121e-02,-7.054152339696884155e-02,1.900983601808547974e-02,-3.330504288896918297e-03,-8.535930514335632324e-02,-5.470491945743560791e-02,-4.670940712094306946e-02
2.257045544683933258e-02,4.585608839988708496e-02,1.000055745244026184e-01,-9.490106254816055298e-02,-3.858482092618942261e-02,-4.103993624448776245e-02,7.542646955698728561e-03,-3.098731394857168198e-03,-3.669807314872741699e-02
6.167377531528472900e-02,6.519085913896560669e-02,1.824337430298328400e-02,1.057302579283714294e-01,-1.866972260177135468e-02,-3.050502575933933258e-02,-2.264946699142456055e-02,-3.516754601150751114e-03,7.604050636291503906e-02
4.393586888909339905e-02,-6.487460434436798096e-02,-9.984357655048370361e-02,4.702060297131538391e-02,1.176256407052278519e-02,-1.190340220928192139e-01,-1.010592505335807800e-01,-8.759430050849914551e-02,-2.018280327320098877e-01
-8.484541624784469604e-02,8.612395823001861572e-02,6.317226588726043701e-02,-3.916607424616813660e-02,5.119872838258743286e-02,3.548574447631835938e-02,7.998349145054817200e-03,-3.903120383620262146e-02,-5.701676756143569946e-02
-4.706504289060831070e-03,5.466745421290397644e-02,-3.581856563687324524e-02,-1.423732261173427105e-03,1.552526280283927917e-02,-3.776194155216217041e-02,2.570356242358684540e-02,5.180013924837112427e-02,-3.875803202390670776e-02
-4.362381994724273682e-03,3.434254229068756104e-02,-1.478059217333793640e-02,-3.938305377960205078e-02,8.927468210458755493e-02,-2.985000144690275192e-03,-9.575130790472030640e-02,-1.201457530260086060e-01,4.551863297820091248e-02
-3.589644283056259155e-02,-8.017423003911972046e-02,-1.625860109925270081e-02,-4.846367239952087402e-02,-8.297211676836013794e-02,-7.139560300856828690e-03,2.842430397868156433e-02,6.369554996490478516e-02,4.359064623713493347e-02
-8.289998769760131836e-02,-7.828073948621749878e-02,-1.381369214504957199e-02,-5.454781651496887207e-02,-3.394958376884460449e-02,-5.632821936160326004e-03,-1.952277868986129761e-02,-3.824736177921295166e-02,2.403789199888706207e-02
4.486288502812385559e-02,1.567154936492443085e-02,-5.970065947622060776e-03,4.840594902634620667e-02,3.994398191571235657e-02,-1.388431061059236526e-02,4.650510102510452271e-02,3.036369942128658295e-02,1.209554262459278107e-02
1.295664627104997635e-02,-2.137250034138560295e-03,-8.044624701142311096e-03,-9.861391037702560425e-03,7.021187245845794678e-02,-9.121688082814216614e-03,-4.969106055796146393e-03,4.989320412278175354e-03,3.563703224062919617e-02
7.972505874931812286e-03,9.399824775755405426e-03,3.693116083741188049e-02,1.083608809858560562e-02,6.578675657510757446e-02,2.258593775331974030e-02,-1.587496697902679443e-02,2.667756006121635437e-02,3.060570359230041504e-02
-1.628384925425052643e-04,-3.129559382796287537e-02,1.738308556377887726e-02,6.874112877994775772e-03,-1.014764048159122467e-02,1.788828638382256031e-03,7.206772454082965851e-03,5.286216735839843750e-03,-2.464720606803894043e-02
-3.500954434275627136e-02,-3.886980935931205750e-02,-2.706945873796939850e-02,-4.455241560935974121e-02,-8.688165806233882904e-03,-3.095036931335926056e-02,-1.432697009295225143e-02,-4.422039724886417389e-03,4.086348693817853928e-03
-2.821508422493934631e-02,-2.984681911766529083e-02,6.073293276131153107e-03,-1.881454139947891235e-02,-2.293901052325963974e-03,-1.386511325836181641e-02,-1.264016237109899521e-02,-3.469242155551910400e-02,2.503334917128086090e-02
-1.234875246882438660e-02,7.413309533149003983e-03,1.161109097301959991e-02,-2.061126194894313812e-02,-5.253733694553375244e-02,1.376050803810358047e-02,2.974132634699344635e-02,3.563760593533515930e-02,-3.793781623244285583e-02
2.494804374873638153e-02,2.400998584926128387e-02,1.514731440693140030e-02,8.325788192451000214e-03,5.298840254545211792e-02,-1.662409119307994843e-02,2.133470959961414337e-02,-1.827052794396877289e-02,4.852930083870887756e-03
2.664105407893657684e-02,4.338620230555534363e-02,9.007479064166545868e-03,-2.695747464895248413e-02,1.581366360187530518e-02,5.117714777588844299e-02,-9.179625660181045532e-03,2.211424708366394043e-02,6.439267098903656006e-02
-2.675200253725051880e-02,1.338501169811934233e-04,-1.166395377367734909e-02,-3.739913925528526306e-02,-1.170832663774490356e-02,1.932086423039436340e-03,-5.085341632366180420e-03,-6.551464903168380260e-04,1.127707678824663162e-02
7.536945398896932602e-03,2.923558233305811882e-03,6.336292251944541931e-03,-2.829376608133316040e-03,-1.093965768814086914e-02,5.695100128650665283e-02,9.509550407528877258e-03,4.909000359475612640e-03,5.629685241729021072e-03
-2.759079821407794952e-02,-1.174018252640962601e-02,-3.734000027179718018e-02,-4.191344603896141052e-02,1.735461503267288208e-02,-2.143953181803226471e-02,-1.061061304062604904e-02,1.161200553178787231e-02,-2.988070622086524963e-02
-6.458341330289840698e-02,-8.089554496109485626e-03,5.721627920866012573e-02,-3.013037145137786865e-02,-1.791989244520664215e-02,4.897542763501405716e-03,-2.406009472906589508e-03,-2.696437388658523560e-02,1.809358038008213043e-02
-1.571372337639331818e-02,9.005411993712186813e-04,2.938269870355725288e-03,5.392538756132125854e-02,3.064461238682270050e-02,8.947455324232578278e-03,3.388997912406921387e-02,4.258717596530914307e-02,-5.052256956696510315e-02
-5.958325415849685669e-02,3.575625829398632050e-03,3.581507131457328796e-02,-4.655461758375167847e-02,-2.369463257491588593e-02,-7.081178482621908188e-03,7.272569090127944946e-02,8.320494741201400757e-02,4.924146458506584167e-02
-1.924485899507999420e-02,1.986978761851787567e-02,4.762891307473182678e-02,-4.423642158508300781e-02,-4.548532306216657162e-04,4.559160023927688599e-02,-7.212809752672910690e-03,-1.030896697193384171e-02,2.594711072742938995e-02
6.540258182212710381e-04,1.332779508084058762e-02,-1.756311208009719849e-02,7.667931728065013885e-03,6.517780572175979614e-02,2.204137668013572693e-02,9.224698878824710846e-03,2.611824544146656990e-03,1.180310826748609543e-02
1.206929981708526611e-02,7.645022589713335037e-03,1.862065866589546204e-02,5.489534232765436172e-03,-8.632493205368518829e-03,-7.548002526164054871e-03,1.219649054110050201e-02,6.442651152610778809e-03,-6.712104077450931072e-04
-9.257878176867961884e-03,3.491744864732027054e-03,1.566256023943424225e-02,3.585145808756351471e-03,-3.393830265849828720e-04,6.739029195159673691e-03,-1.420929096639156342e-03,4.452767781913280487e-03,1.526535768061876297e-02
-5.632658489048480988e-03,4.642968624830245972e-02,1.170000527054071426e-02,4.375807009637355804e-03,-6.781561765819787979e-03,3.322187438607215881e-02,1.169264502823352814e-02,3.917989879846572876e-02,1.923156529664993286e-02
-4.060275107622146606e-02,4.086197167634963989e-02,7.262392318807542324e-05,-6.976816058158874512e-02,-6.865834444761276245e-02,-5.622003972530364990e-02,-8.175906538963317871e-02,-7.008707523345947266e-02,-7.573979347944259644e-02
5.357624590396881104e-02,3.117442689836025238e-02,-8.613985031843185425e-03,2.399634756147861481e-02,1.973706111311912537e-02,-5.983272194862365723e-02,-1.417377498000860214e-02,2.969254972413182259e-03,-6.318058818578720093e-02
-2.768486738204956055e-02,6.259495392441749573e-03,1.555960159748792648e-02,-4.509330261498689651e-03,-3.713566437363624573e-02,1.023715129122138023e-03,-3.977939486503601074e-02,-3.017644630745053291e-03,-7.633827161043882370e-03
2.182429656386375427e-02,-1.306194160133600235e-02,3.558634594082832336e-02,7.930491701699793339e-04,-1.873362995684146881e-02,-4.315502196550369263e-02,1.464382279664278030e-02,-8.198957890272140503e-03,-5.989051237702369690e-02
5.398362874984741211e-02,1.744037494063377380e-02,5.489606037735939026e-02,1.219956576824188232e-02,-7.208817452192306519e-02,-9.217727929353713989e-03,2.921179123222827911e-02,-1.375220995396375656e-02,-3.659074380993843079e-02
-1.659557968378067017e-02,-6.706305593252182007e-02,-5.752146709710359573e-03,3.492389619350433350e-02,-3.626444935798645020e-02,-3.107967972755432129e-02,2.785748057067394257e-02,7.439501583576202393e-03,6.646851543337106705e-03
1.212238799780607224e-02,-4.308221116662025452e-02,-7.686465978622436523e-03,-3.908602520823478699e-03,-3.122938238084316254e-02,-4.275820031762123108e-02,9.095329005504027009e-06,3.320825472474098206e-02,1.016180124133825302e-02
-3.039165632799267769e-03,7.668883074074983597e-03,1.676580309867858887e-02,2.286144997924566269e-03,-9.130029007792472839e-03,2.532808110117912292e-02,3.006907552480697632e-02,2.748470567166805267e-02,3.268961329013109207e-03
-5.049493908882141113e-02,2.610803022980690002e-02,4.416280984878540039e-02,-5.567198619246482849e-02,-1.086642518639564514e-01,-2.588802250102162361e-03,-3.106269799172878265e-02,-4.461669921875000000e-02,-3.106949478387832642e-02
-6.743833422660827637e-03,-1.779358088970184326e-02,2.196971699595451355e-02,2.185541205108165741e-02,-2.441800758242607117e-02,2.850523451343178749e-03,1.257833652198314667e-02,-1.666728756390511990e-03,-1.221500989049673080e-02
1.157111767679452896e-02,2.563887648284435272e-02,2.347500063478946686e-02,4.120271652936935425e-02,3.505807742476463318e-02,4.250637441873550415e-02,3.420343250036239624e-02,8.789092302322387695e-03,1.289266441017389297e-02
-2.187317423522472382e-02,-7.863032806199043989e-05,-4.236160311847925186e-03,-6.360513158142566681e-03,1.329171005636453629e-02,3.413655795156955719e-03,-1.400425471365451813e-02,-1.114677824079990387e-02,2.998466603457927704e-03
3.851502668112516403e-03,-2.317311242222785950e-02,-6.731920875608921051e-03,4.820743948221206665e-02,1.113615483045578003e-01,3.901154920458793640e-02,1.671640947461128235e-02,9.487777948379516602e-03,4.038897901773452759e-02
5.457512661814689636e-02,2.039464935660362244e-02,-4.366270080208778381e-02,5.766341462731361389e-02,-3.501531109213829041e-02,-1.012014597654342651e-02,2.967529930174350739e-02,1.435299683362245560e-02,2.820552792400121689e-03
-2.706190384924411774e-02,-3.304843977093696594e-02,-2.660665661096572876e-02,5.248754471540451050e-02,4.915952309966087341e-02,4.143937677145004272e-02,4.506575688719749451e-02,2.263781242072582245e-02,1.014054100960493088e-02
1.745359785854816437e-02,-2.497742511332035065e-02,-1.164561323821544647e-02,-5.886356811970472336e-03,-5.956059694290161133e-02,-8.740662597119808197e-03,4.396375734359025955e-03,-2.978223189711570740e-02,-1.099454797804355621e-02
-8.521180134266614914e-04,2.229180373251438141e-02,4.472067952156066895e-02,-1.756708137691020966e-02,-2.861519716680049896e-02,5.292463302612304688e-02,-1.433322299271821976e-02,-5.789145827293395996e-02,2.785528451204299927e-02
8.349886164069175720e-03,1.763008348643779755e-02,7.246086373925209045e-03,1.079822797328233719e-02,1.616158336400985718e-02,1.805782131850719452e-02,1.778644742444157600e-03,3.890583291649818420e-02,5.127209797501564026e-02
-8.173459209501743317e-04,4.726085439324378967e-02,1.447680033743381500e-02,-1.252399990335106850e-03,6.139766424894332886e-03,-8.811452426016330719e-03,-4.281579703092575073e-02,-1.448261737823486328e-02,-4.030464589595794678e-02
4.621246829628944397e-02,-1.516944263130426407e-02,8.563404902815818787e-03,-9.179635904729366302e-03,-1.164585119113326073e-03,1.329442020505666733e-02,-1.101715676486492157e-02,-1.105235144495964050e-02,-2.530970377847552299e-04
4.869319126009941101e-02,-4.002332862000912428e-04,9.833526797592639923e-03,1.714294217526912689e-02,5.869536101818084717e-02,3.677500411868095398e-02,2.174941636621952057e-02,-2.578834444284439087e-02,4.833500087261199951e-02
3.677605837583541870e-02,1.129036583006381989e-02,-1.326079573482275009e-02,3.063782863318920135e-02,-3.261481598019599915e-02,-3.454874083399772644e-02,2.612235583364963531e-02,4.257366806268692017e-02,5.987931415438652039e-02
-2.790878526866436005e-02,-1.218627300113439560e-02,-2.566142752766609192e-02,-2.446445869281888008e-03,3.200028464198112488e-02,-3.168807551264762878e-02,7.764608599245548248e-03,1.639832276850938797e-03,3.864142671227455139e-02
6.718053016811609268e-03,-1.651355251669883728e-02,-3.256780654191970825e-02,-2.702382206916809082e-02,1.113648805767297745e-02,-3.973128646612167358e-02,-2.003593556582927704e-02,-1.563470251858234406e-02,3.948343545198440552e-02
1.459192717447876930e-04,3.481256426312029362e-04,-2.803421579301357269e-02,-2.008049341384321451e-04,-3.831132128834724426e-02,-1.094123930670320988e-03,7.348686922341585159e-03,3.606600454077124596e-03,-4.321820102632045746e-03
9.365383535623550415e-03,2.643800340592861176e-02,5.393106862902641296e-02,4.350977391004562378e-02,3.943135961890220642e-02,7.648141682147979736e-02,2.347921393811702728e-02,5.056116357445716858e-02,6.017177551984786987e-02
-1.145522017031908035e-02,4.416379611939191818e-03,1.783379912376403809e-02,9.041337296366691589e-03,-1.116511877626180649e-02,1.835425570607185364e-02,3.601314127445220947e-02,-3.787741763517260551e-03,-7.741486188024282455e-03
3.912545368075370789e-02,1.354035106487572193e-03,-9.204746782779693604e-02,-4.169820458628237247e-04,1.963310129940509796e-02,-7.376088201999664307e-02,-8.246848359704017639e-03,-1.241944823414087296e-02,-5.334812775254249573e-02
-2.231184206902980804e-02,1.272757072001695633e-02,-5.146120674908161163e-03,6.526181241497397423e-04,-4.459467157721519470e-02,-6.294835824519395828e-03,-2.072678692638874054e-02,-1.577773690223693848e-02,-2.181353978812694550e-02
-8.626560866832733154e-02,9.529461152851581573e-03,1.945211202837526798e-03,-3.997323289513587952e-02,5.107581242918968201e-02,1.272703520953655243e-02,-4.257739707827568054e-02,-1.566475443542003632e-02,2.079772204160690308e-02
-2.364065498113632202e-03,-2.021469734609127045e-02,-2.718275412917137146e-02,2.059363946318626404e-02,7.965807616710662842e-02,2.372512593865394592e-02,-4.313387908041477203e-03,-7.308410713449120522e-04,3.344199154525995255e-03
1.205190457403659821e-02,1.628351584076881409e-02,-6.759817246347665787e-03,1.495491713285446167e-02,2.672606892883777618e-02,-3.754612756893038750e-03,-8.565381169319152832e-03,5.766517296433448792e-02,-4.802325274795293808e-03
4.150748625397682190e-02,-9.692036546766757965e-03,-3.108057426288723946e-03,3.634335845708847046e-02,9.521484375000000000e-03,-2.814296074211597443e-02,3.739738604053854942e-03,-1.555583812296390533e-02,-2.562122792005538940e-02
1.881512440741062164e-02,1.238853763788938522e-02,1.712364377453923225e-03,1.180836744606494904e-02,1.446102280169725418e-02,2.114650560542941093e-03,-8.795747533440589905e-03,-1.187358610332012177e-02,-1.353357546031475067e-02
2.580998651683330536e-02,2.204548940062522888e-02,3.051284700632095337e-02,8.525442332029342651e-03,-7.246603257954120636e-03,-4.411596164572983980e-04,2.400847524404525757e-02,-1.823533908464014530e-03,-2.726416662335395813e-02
-2.614010311663150787e-02,-9.032161906361579895e-03,-4.553712159395217896e-02,-3.763862699270248413e-02,-5.017605796456336975e-02,-7.120563089847564697e-02,-2.658169949427247047e-03,-1.566946390084922314e-03,-6.884910911321640015e-02
2.630016952753067017e-02,4.238116089254617691e-03,2.931351074948906898e-03,-1.166188390925526619e-03,1.817416958510875702e-02,1.597714424133300781e-02,-2.040597982704639435e-02,3.374831052497029305e-03,2.980569750070571899e-02
-4.306775331497192383e-02,1.237324532121419907e-02,-1.106031332165002823e-02,-2.162786200642585754e-02,-6.039682775735855103e-03,8.817341178655624390e-03,1.077431254088878632e-02,-6.889549084007740021e-03,1.949971355497837067e-02
1.103491615504026413e-02,-1.764087006449699402e-02,-1.132060308009386063e-02,2.478732354938983917e-02,1.876025088131427765e-02,1.376710925251245499e-02,1.411335426382720470e-03,1.095013041049242020e-02,2.276331186294555664e-02
-1.528121531009674072e-02,-4.659886285662651062e-02,-1.172885857522487640e-02,-1.010599453002214432e-02,-2.478450722992420197e-02,-6.182758137583732605e-02,3.468339517712593079e-02,6.320282351225614548e-03,-6.844519823789596558e-02
2.022461593151092529e-02,-5.411576945334672928e-03,4.875816777348518372e-02,3.761679679155349731e-02,5.851364135742187500e-02,2.140944823622703552e-02,6.876131147146224976e-02,1.549813151359558105e-02,2.599763497710227966e-02
-4.516668617725372314e-02,-3.722498938441276550e-02,1.930712535977363586e-02,-7.542815059423446655e-03,3.039120929315686226e-05,2.261701971292495728e-02,7.658676803112030029e-02,5.377854779362678528e-02,-3.365463763475418091e-02
2.852767892181873322e-02,-3.182082623243331909e-02,-3.576344624161720276e-02,2.181741967797279358e-02,-2.115247771143913269e-02,-3.161213546991348267e-02,1.262671500444412231e-02,-1.421937346458435059e-02,3.257204545661807060e-03
6.598154082894325256e-03,-3.784870356321334839e-02,-1.607446582056581974e-03,-3.640566766262054443e-02,1.977813430130481720e-02,-5.010072141885757446e-03,2.045249752700328827e-02,1.216805819422006607e-02,1.477441843599081039e-02
-1.636787317693233490e-02,-1.517512369900941849e-02,-5.294527485966682434e-02,-4.741405136883258820e-03,6.850347667932510376e-02,3.516763076186180115e-02,-5.192787945270538330e-02,3.460238128900527954e-02,4.033888131380081177e-02
-3.644481301307678223e-02,4.621262103319168091e-02,9.289292618632316589e-03,-6.527426838874816895e-02,4.544952139258384705e-02,-4.331192746758460999e-02,-5.817319080233573914e-02,-6.478088349103927612e-02,-7.021161168813705444e-02
-3.240349516272544861e-02,-1.254796702414751053e-02,4.401757847517728806e-03,4.760873038321733475e-03,5.776023864746093750e-02,2.003601379692554474e-02,-1.175772515125572681e-03,-9.403946809470653534e-03,2.896196022629737854e-02
7.100259419530630112e-03,-1.478425110690295696e-03,-6.681324914097785950e-03,-7.244981825351715088e-03,-9.875843301415443420e-03,-3.037533257156610489e-03,1.244372781366109848e-02,-4.381256178021430969e-03,8.023191243410110474e-03
-4.247400537133216858e-02,2.677285578101873398e-03,-5.521043203771114349e-03,-2.453841082751750946e-02,2.755839005112648010e-02,-1.273367833346128464e-02,8.149767667055130005e-02,1.025848016142845154e-01,4.157831519842147827e-02
7.043185643851757050e-03,5.225572269409894943e-03,-1.114000860980013385e-05,8.543686009943485260e-03,-2.074340730905532837e-02,1.820882409811019897e-02,2.955017145723104477e-03,3.942878544330596924e-02,7.163600530475378036e-03
-1.554275490343570709e-02,-6.742086261510848999e-02,2.915531024336814880e-02,8.275240659713745117e-03,1.946107484400272369e-02,1.756053604185581207e-02,8.857033215463161469e-03,-5.524064879864454269e-03,2.941896580159664154e-02
7.011366635560989380e-02,3.289151564240455627e-02,4.130651056766510010e-02,-3.003455698490142822e-02,-3.806462138891220093e-02,-4.601676762104034424e-02,8.296120911836624146e-03,1.381332520395517349e-03,-1.033499836921691895e-02
7.578114420175552368e-02,-3.267436847090721130e-02,5.748528055846691132e-03,6.126914918422698975e-02,-1.288754865527153015e-02,5.364545062184333801e-02,6.978525221347808838e-02,6.568779796361923218e-02,-4.306212533265352249e-03
4.477805458009243011e-03,2.764509990811347961e-02,9.595426730811595917e-03,1.242669578641653061e-02,-1.395045500248670578e-02,-6.221803650259971619e-02,2.243881346657872200e-03,-3.758542612195014954e-02,-5.871250852942466736e-02
-8.233051747083663940e-03,-4.062498919665813446e-03,1.224672794342041016e-02,-4.697946831583976746e-02,-5.453553795814514160e-02,-2.174453996121883392e-02,5.116215441375970840e-03,-8.677117526531219482e-03,-1.795185729861259460e-02
-1.520691439509391785e-02,6.293866038322448730e-02,-1.266777981072664261e-02,1.725355722010135651e-02,4.093023762106895447e-02,1.133978366851806641e-02,6.432281341403722763e-03,5.527498200535774231e-02,3.926654160022735596e-02
-1.237721554934978485e-02,-7.122363150119781494e-02,-1.578069478273391724e-02,4.939536750316619873e-02,4.971924237906932831e-03,-3.262312710285186768e-02,1.497135683894157410e-02,1.540348213165998459e-02,-2.172091417014598846e-02
-3.437210991978645325e-02,-8.339462801814079285e-03,-2.297440543770790100e-02,-3.896812349557876587e-02,1.273814123123884201e-02,5.516205914318561554e-03,-2.044348232448101044e-02,4.148051142692565918e-02,-7.128544617444276810e-03
4.630026593804359436e-02,-5.918451026082038879e-02,-1.041591167449951172e-01,-9.202436544001102448e-03,5.775063298642635345e-03,1.110504660755395889e-02,-6.476254016160964966e-02,1.937380991876125336e-02,4.497265815734863281e-02
4.397331550717353821e-02,1.778182387351989746e-02,-3.316457569599151611e-02,4.925119876861572266e-02,1.431034505367279053e-02,-4.954301938414573669e-02,8.401814848184585571e-03,-2.969268523156642914e-02,-8.582591265439987183e-02
-3.012073412537574768e-02,-3.329280391335487366e-02,-2.105739898979663849e-03,6.889123935252428055e-03,2.207024581730365753e-02,-2.463858574628829956e-02,-3.019947372376918793e-02,1.883928664028644562e-02,2.098451368510723114e-02
-2.938725985586643219e-03,-6.326558650471270084e-04,-3.783802734687924385e-03,-6.937436410225927830e-04,-2.028420567512512207e-03,5.523708648979663849e-03,7.766553200781345367e-03,2.087566629052162170e-02,2.247563935816287994e-02
4.004919528961181641e-02,3.431243449449539185e-02,1.354829408228397369e-02,3.247337788343429565e-02,3.195148333907127380e-02,1.078886166214942932e-02,9.884688071906566620e-03,-1.993928477168083191e-02,-6.799271795898675919e-03
-1.519862998975440860e-04,8.118081837892532349e-03,-9.365531615912914276e-03,-1.197449583560228348e-02,-4.245721548795700073e-02,-2.578302100300788879e-02,-4.955142736434936523e-03,1.673289202153682709e-02,-9.853686206042766571e-03
-3.634331747889518738e-02,-2.355486899614334106e-02,-2.371160313487052917e-02,-1.531908661127090454e-02,-1.617555506527423859e-02,2.872791141271591187e-02,-2.118471264839172363e-02,-3.890462219715118408e-02,2.788504771888256073e-02
-4.430495668202638626e-03,8.229812979698181152e-02,9.380824863910675049e-03,4.282064735889434814e-02,1.060003712773323059e-01,4.139843583106994629e-02,-2.043546549975872040e-02,2.154985815286636353e-02,-1.301911752671003342e-02
3.064974397420883179e-02,-2.297567389905452728e-02,-5.002530291676521301e-02,5.019166320562362671e-02,-1.545329811051487923e-03,-2.589549124240875244e-02,-8.847780991345643997e-04,6.815828965045511723e-04,1.531781395897269249e-03
5.599482730031013489e-02,5.784638226032257080e-02,7.023639976978302002e-02,2.279780432581901550e-02,8.219959586858749390e-02,9.155844897031784058e-02,-1.532369758933782578e-02,5.310179665684700012e-02,1.937500317580997944e-03
3.088888525962829590e-02,-1.723691448569297791e-02,2.949417394120246172e-04,5.686955899000167847e-02,1.066651754081249237e-02,-3.206834942102432251e-02,3.585785999894142151e-02,-4.042985290288925171e-02,-1.239698962308466434e-03
4.443582147359848022e-02,-8.378421771340072155e-04,5.667693912982940674e-02,7.344546914100646973e-02,6.583724170923233032e-02,-1.347704604268074036e-02,1.684688962996006012e-02,4.704642295837402344e-02,4.828033223748207092e-02
-2.122703194618225098e-02,-2.306134626269340515e-02,-8.554710075259208679e-03,-3.526105359196662903e-02,4.618979990482330322e-02,5.001213774085044861e-02,-5.356554756872355938e-04,-6.628915201872587204e-03,1.012868154793977737e-02
3.331962600350379944e-02,7.355722784996032715e-02,1.256183721125125885e-02,3.060969989746809006e-03,-6.346070766448974609e-02,-3.614164888858795166e-02,9.616145398467779160e-04,-3.687977790832519531e-02,4.624142311513423920e-03
5.227799713611602783e-02,8.232043124735355377e-03,1.231783442199230194e-02,3.470358252525329590e-02,-7.356660813093185425e-02,-9.586707688868045807e-03,-5.256493459455668926e-04,5.264411214739084244e-03,3.695254400372505188e-02
-2.655325084924697876e-02,7.652692031115293503e-03,-2.693961560726165771e-02,-2.576036006212234497e-02,-1.699241250753402710e-02,-1.734020002186298370e-02,-1.043539121747016907e-02,-1.071015559136867523e-02,-1.473899930715560913e-02
-1.431953255087137222e-02,-2.426715567708015442e-02,6.855369079858064651e-03,1.431116554886102676e-02,-6.835883483290672302e-03,3.018078766763210297e-02,1.735526137053966522e-02,-1.537966728210449219e-02,4.180320538580417633e-03
-3.558073192834854126e-02,-1.992585510015487671e-02,-2.678287215530872345e-02,-3.019823506474494934e-02,9.131588973104953766e-03,-4.150032065808773041e-03,4.559338558465242386e-03,1.167152822017669678e-02,1.176798995584249496e-02
-4.183344915509223938e-02,2.256734063848853111e-03,1.923999167047441006e-03,-3.246873151510953903e-03,1.124600097537040710e-01,3.394263237714767456e-02,1.493027899414300919e-03,2.387253567576408386e-02,-2.695897780358791351e-02
-2.737853489816188812e-02,-1.160828098654747009e-01,7.723980583250522614e-03,7.803978025913238525e-02,-4.316207394003868103e-02,-2.337958104908466339e-02,3.491353988647460938e-02,-9.964326024055480957e-02,-6.419267505407333374e-02
-7.633032649755477905e-02,-1.753945276141166687e-02,2.841871790587902069e-02,-7.786784786731004715e-03,1.823698729276657104e-02,4.944675136357545853e-03,-2.776479348540306091e-02,5.042785033583641052e-02,1.764611527323722839e-02
-4.543236456811428070e-03,9.311144053936004639e-02,2.045162394642829895e-02,7.818954065442085266e-03,-1.927872747182846069e-02,2.598342671990394592e-02,-1.152596529573202133e-02,1.174649409949779510e-02,-1.002354198135435581e-03
-2.814906649291515350e-02,-6.378758116625249386e-04,5.161175131797790527e-02,-7.932912558317184448e-03,6.934928894042968750e-02,1.836403273046016693e-02,-3.462091460824012756e-02,1.086004544049501419e-02,4.216045141220092773e-03
5.452498793601989746e-02,6.170586124062538147e-02,3.433005884289741516e-02,4.407259821891784668e-02,5.169989168643951416e-02,2.405627071857452393e-02,4.721391201019287109e-02,8.206600695848464966e-02,8.121593855321407318e-03
6.350843608379364014e-02,2.483888901770114899e-02,2.698426134884357452e-03,1.474125981330871582e-01,4.945468902587890625e-02,1.903314143419265747e-02,7.492354512214660645e-02,4.717539250850677490e-02,-2.030769176781177521e-02
-3.065484948456287384e-02,-4.634929075837135315e-02,-3.787302970886230469e-02,-6.733404844999313354e-02,7.303401827812194824e-03,1.671173423528671265e-02,3.715831041336059570e-02,3.307705000042915344e-02,-2.940748818218708038e-03
1.467373222112655640e-02,7.333152741193771362e-02,6.148764863610267639e-02,-3.490179404616355896e-02,8.317501842975616455e-02,5.171642452478408813e-02,-7.521430961787700653e-03,6.273932009935379028e-02,-1.036796253174543381e-02
1.556975208222866058e-02,-1.771787554025650024e-02,3.681820258498191833e-02,-5.585225299000740051e-02,-5.184329673647880554e-02,-2.456378191709518433e-02,-2.225826494395732880e-02,-3.402861952781677246e-02,4.389122128486633301e-02
1.364515535533428192e-02,4.423879459500312805e-02,3.787305578589439392e-02,-3.566091135144233704e-02,6.684043258428573608e-02,5.284220725297927856e-02,-8.201848715543746948e-03,-1.027135271579027176e-02,1.558072632178664207e-03
2.466309256851673126e-02,-3.099636174738407135e-03,3.678946942090988159e-02,-5.663073621690273285e-03,1.765456609427928925e-02,3.467020392417907715e-02,1.456781663000583649e-02,-7.643771357834339142e-03,3.065309301018714905e-02
1.020353846251964569e-02,2.537588961422443390e-02,-4.918126505799591541e-04,-3.524057799950242043e-03,-5.146694835275411606e-03,-2.765024825930595398e-02,2.188226953148841858e-02,2.321412973105907440e-02,1.941818161867558956e-03
-1.444753725081682205e-02,9.395026601850986481e-03,8.012340217828750610e-02,-1.100038550794124603e-02,-4.810970276594161987e-03,5.643998831510543823e-02,-1.265984401106834412e-02,1.476355455815792084e-02,3.432861715555191040e-02
4.361202474683523178e-03,-7.679505646228790283e-02,-3.803481161594390869e-02,-1.222646213136613369e-03,-7.282385975122451782e-02,-1.026250235736370087e-02,-2.188582532107830048e-02,3.012320084962993860e-04,-2.397716976702213287e-02
4.615047946572303772e-02,4.115864634513854980e-02,9.717966616153717041e-02,8.872154355049133301e-02,3.259070590138435364e-02,7.754704356193542480e-02,-2.812473475933074951e-02,-1.580908149480819702e-02,3.189260885119438171e-02
4.839859902858734131e-02,6.301201879978179932e-02,2.489397861063480377e-02,4.013655707240104675e-02,-4.633262008428573608e-02,4.909677430987358093e-03,1.197930332273244858e-02,4.367825388908386230e-02,-8.827648125588893890e-03
-2.842324599623680115e-02,1.493007317185401917e-02,-3.995844349265098572e-02,-3.759513050317764282e-02,2.903854660689830780e-02,-4.445841535925865173e-02,-4.726475104689598083e-02,-4.170985147356987000e-02,-5.502973869442939758e-02
-2.171681076288223267e-02,3.263010829687118530e-02,-1.337857265025377274e-02,-1.938241720199584961e-02,6.717891991138458252e-02,4.865042120218276978e-02,-7.728516310453414917e-02,1.312483940273523331e-02,-3.451869264245033264e-02
-5.585920531302690506e-03,3.493232280015945435e-02,-9.357072412967681885e-03,-1.379528548568487167e-02,1.662456244230270386e-02,-3.282849490642547607e-02,7.233830168843269348e-03,3.422309458255767822e-02,5.258732009679079056e-03
9.628232801333069801e-04,-1.835432089865207672e-02,-3.666069242171943188e-04,4.197963513433933258e-03,4.685031250119209290e-02,5.565856117755174637e-03,2.195272780954837799e-02,-9.584077633917331696e-03,-2.322829142212867737e-02
-1.218099240213632584e-02,-2.823329297825694084e-03,-4.185197758488357067e-04,5.282752215862274170e-03,3.270585834980010986e-02,1.761730527505278587e-03,3.174451738595962524e-02,4.279124736785888672e-02,3.987065982073545456e-03
3.592054173350334167e-02,-4.039287939667701721e-02,-2.102643623948097229e-02,5.305870249867439270e-02,3.452206403017044067e-02,1.839276961982250214e-02,6.740132719278335571e-02,1.645045727491378784e-02,1.787009648978710175e-02
3.922055661678314209e-02,-3.514860197901725769e-02,2.033890783786773682e-02,-1.053653657436370850e-02,-3.830530494451522827e-02,2.743096090853214264e-02,4.576374217867851257e-02,2.706980146467685699e-02,4.305821657180786133e-02
8.602789044380187988e-02,6.098941713571548462e-02,-6.138836592435836792e-02,1.102878749370574951e-01,5.817465111613273621e-02,-5.014083161950111389e-02,8.829778060317039490e-03,2.649915777146816254e-02,-3.180995583534240723e-02
4.170353524386882782e-03,-6.896099541336297989e-03,-2.077609673142433167e-02,2.679153718054294586e-02,-6.722256541252136230e-02,2.362039871513843536e-02,-2.112806541845202446e-03,-1.717783696949481964e-02,-3.984348103404045105e-02
-4.259146749973297119e-02,-5.596856400370597839e-02,-3.557451814413070679e-02,2.739404793828725815e-03,-1.091466192156076431e-02,-1.781480945646762848e-02,1.928488537669181824e-02,-1.169047132134437561e-02,-8.557395078241825104e-03
-5.134604126214981079e-02,2.568759210407733917e-02,4.539278801530599594e-03,-4.094286262989044189e-02,5.072795320302248001e-03,1.463015191256999969e-02,-1.063101924955844879e-02,-7.534190267324447632e-02,-2.039092592895030975e-03
-7.632949948310852051e-02,-1.269099116325378418e-02,-1.894743554294109344e-02,-4.185668751597404480e-02,3.836021758615970612e-03,6.253265589475631714e-02,-3.343325480818748474e-02,1.143666729331016541e-02,-3.390280529856681824e-03
2.359485998749732971e-02,-1.162682473659515381e-02,7.875599712133407593e-02,-4.756303504109382629e-02,-1.285234838724136353e-01,-1.171830389648675919e-02,-1.695138216018676758e-02,-8.380887657403945923e-02,2.383054979145526886e-02
-1.596976630389690399e-02,-3.025272162631154060e-03,3.873130306601524353e-02,-2.872823923826217651e-02,-4.493292421102523804e-02,-1.629183255136013031e-02,-6.811370607465505600e-03,-1.351622026413679123e-02,-1.632028818130493164e-02
-8.099173754453659058e-02,-5.672690272331237793e-02,-3.507319092750549316e-02,1.579508930444717407e-02,8.737004548311233521e-02,-1.831605331972241402e-04,-1.296871621161699295e-02,3.795754909515380859e-02,-6.463588774204254150e-02
-4.714243859052658081e-02,-2.014896646142005920e-02,-2.668079733848571777e-02,-2.752408571541309357e-02,-4.777928814291954041e-02,-4.172521084547042847e-02,5.235800636000931263e-04,-1.413046289235353470e-02,-2.298581600189208984e-02
1.390285044908523560e-02,-3.208480076864361763e-03,6.309659220278263092e-03,-1.322001032531261444e-02,1.273502856492996216e-01,1.096447743475437164e-02,2.531553432345390320e-02,2.419842872768640518e-03,-1.057078316807746887e-02
-1.227487809956073761e-02,-4.327786737121641636e-04,-2.048148890025913715e-04,-5.202328786253929138e-03,6.834945827722549438e-02,-3.008742630481719971e-02,1.352213788777589798e-02,-4.084737226366996765e-02,-4.983100370736792684e-05
2.807963210216257721e-05,2.167197689414024353e-02,6.083950283937156200e-04,-1.361025124788284302e-02,-1.091451756656169891e-02,9.321006014943122864e-03,-2.922757714986801147e-02,-2.424602024257183075e-02,2.177809551358222961e-02
-4.922161251306533813e-02,-3.897849097847938538e-02,-3.608233109116554260e-02,6.322876084595918655e-03,-6.974585994612425566e-05,-1.505478471517562866e-02,-9.081239113584160805e-04,1.459800638258457184e-02,-2.113445196300745010e-03
7.750128861516714096e-03,1.547135971486568451e-02,-4.642064683139324188e-03,2.116116322576999664e-02,-2.666299976408481598e-02,-1.531989546492695808e-03,9.069108404219150543e-03,1.382734067738056183e-02,1.389397773891687393e-02
-2.349052764475345612e-02,1.118012354709208012e-03,2.002318389713764191e-02,-1.917055225931107998e-03,4.232191294431686401e-02,7.730692159384489059e-03,1.079087052494287491e-02,1.535750925540924072e-02,5.446964874863624573e-03
-1.579845510423183441e-02,-1.453991234302520752e-02,-1.655397191643714905e-02,-8.618897758424282074e-03,6.618010252714157104e-02,-3.024649340659379959e-04,7.503130007535219193e-03,1.626621931791305542e-02,9.044836275279521942e-03
3.899268060922622681e-02,3.245834633708000183e-02,-4.251783539075404406e-04,3.299988433718681335e-02,-1.339030452072620392e-02,-3.351300209760665894e-02,-1.364431250840425491e-02,-4.436181858181953430e-02,-2.865497767925262451e-02
2.597432583570480347e-02,1.431624405086040497e-02,2.305139228701591492e-02,-3.202104941010475159e-02,1.638589948415756226e-01,2.774126455187797546e-02,-2.029748633503913879e-03,1.124750357121229172e-03,2.729460597038269043e-02
-9.663232602179050446e-03,-7.051332388073205948e-03,-6.381791085004806519e-03,2.072235383093357086e-02,1.498935278505086899e-02,4.333081841468811035e-02,5.473937839269638062e-03,3.838682081550359726e-03,1.139949727803468704e-02
3.606283664703369141e-02,8.644239045679569244e-03,1.082093734294176102e-02,1.080877985805273056e-02,1.708453893661499023e-02,-4.240924026817083359e-03,-4.806928802281618118e-03,-2.046544104814529419e-03,-1.521470607258379459e-03
-4.829107318073511124e-03,-1.506633707322180271e-04,4.251557867974042892e-03,6.582936644554138184e-02,-1.171158924698829651e-01,2.300190972164273262e-03,-5.995589308440685272e-03,-3.420314285904169083e-03,-9.246764238923788071e-05
-1.734300330281257629e-02,-1.051896624267101288e-02,3.915069997310638428e-02,-2.464586403220891953e-03,-2.698813192546367645e-02,2.871559374034404755e-02,2.307014353573322296e-02,1.723329909145832062e-02,3.040375420823693275e-03
-5.980554502457380295e-03,2.934547699987888336e-02,-5.067186430096626282e-03,7.240137550979852676e-03,2.395647112280130386e-03,-2.925090864300727844e-02,5.780901483376510441e-05,-2.172657288610935211e-02,-3.927015699446201324e-03
-1.215525157749652863e-02,-1.180010568350553513e-02,-3.541779704391956329e-03,1.336423307657241821e-02,-1.855512033216655254e-03,1.220237463712692261e-02,1.383689790964126587e-02,8.934788405895233154e-03,1.044604461640119553e-02
2.912528999149799347e-02,1.862035691738128662e-02,3.135281428694725037e-02,3.921048250049352646e-03,5.045096948742866516e-02,1.318241376429796219e-02,1.461715810000896454e-02,9.069330058991909027e-03,4.128464311361312866e-02
4.001256078481674194e-02,4.995784163475036621e-02,3.859462961554527283e-02,3.281141817569732666e-02,2.231899462640285492e-02,2.618871256709098816e-02,2.168340235948562622e-02,2.204120717942714691e-02,1.425170991569757462e-02
2.936311252415180206e-02,3.296475857496261597e-02,1.408943254500627518e-02,2.763295173645019531e-02,3.192609921097755432e-02,2.645689249038696289e-02,1.841145008802413940e-02,4.702344536781311035e-02,2.326089516282081604e-02
-1.640618592500686646e-02,2.469524042680859566e-03,2.687497064471244812e-02,-4.368307814002037048e-02,1.227250397205352783e-01,-1.626710779964923859e-02,-1.564272679388523102e-02,2.843608148396015167e-03,-9.298583492636680603e-03
1.421405747532844543e-02,5.224893800914287567e-03,-3.349062521010637283e-03,2.102304995059967041e-02,2.701865136623382568e-02,9.210158139467239380e-03,3.328817337751388550e-02,2.644964680075645447e-02,2.298933221027255058e-03
3.266439959406852722e-02,5.729434080421924591e-03,1.062768977135419846e-02,2.292094752192497253e-02,9.546536952257156372e-02,-2.237065881490707397e-02,1.492175552994012833e-02,-2.353118034079670906e-03,-9.926955215632915497e-03
-2.221460599685087800e-04,1.519004441797733307e-02,2.784704044461250305e-02,1.904463954269886017e-02,8.565512299537658691e-02,-1.984668709337711334e-02,-5.306589975953102112e-02,-2.337351813912391663e-02,-3.093048743903636932e-02
1.330452691763639450e-02,2.612393535673618317e-02,1.183005748316645622e-03,4.269666597247123718e-02,-1.839801110327243805e-02,-1.809422113001346588e-02,-7.849680259823799133e-03,-6.493059452623128891e-03,-1.817033044062554836e-04
3.416507318615913391e-02,9.568880312144756317e-03,-4.370591486804187298e-04,2.356214076280593872e-02,2.624596469104290009e-02,-2.868809970095753670e-03,5.535186268389225006e-03,-4.168606363236904144e-03,-2.839625999331474304e-02
-7.252170704305171967e-03,-3.182840719819068909e-02,-7.077008020132780075e-03,-1.201486520585604012e-04,-5.358953960239887238e-03,-1.931742206215858459e-02,-2.536838501691818237e-02,4.073735326528549194e-03,-2.671164274215698242e-02
1.889833249151706696e-02,6.001963745802640915e-03,-2.408988075330853462e-04,5.660994444042444229e-03,-1.331400722265243530e-01,-8.471225388348102570e-03,1.361732091754674911e-02,-1.021221466362476349e-02,2.285880595445632935e-02
-5.144161172211170197e-03,2.011394686996936798e-02,-1.389607600867748260e-02,-1.477589458227157593e-02,3.962280973792076111e-02,-4.751568485517054796e-04,-6.366800051182508469e-03,2.824058197438716888e-02,9.057093411684036255e-03
-8.156930096447467804e-03,5.705223232507705688e-02,-1.418041996657848358e-02,-9.768608957529067993e-03,-8.872403949499130249e-02,1.014866959303617477e-02,-2.342604845762252808e-02,-4.940150771290063858e-03,8.245465578511357307e-04
-9.914414957165718079e-03,1.599574275314807892e-02,-1.733372919261455536e-02,2.453416027128696442e-02,-3.056879900395870209e-02,1.214221864938735962e-02,-1.182909775525331497e-02,-4.805169999599456787e-03,2.964596031233668327e-03
2.511251252144575119e-03,-6.355719640851020813e-03,-1.781897246837615967e-02,3.080982016399502754e-03,-1.885243132710456848e-02,-2.924884902313351631e-03,8.084832690656185150e-03,-5.192217882722616196e-03,-8.965617977082729340e-03
3.235709294676780701e-02,2.753478102385997772e-02,3.527302667498588562e-02,3.365259617567062378e-02,7.971460372209548950e-02,3.819970786571502686e-02,1.683249138295650482e-02,5.148586817085742950e-03,2.455940470099449158e-03
2.390856295824050903e-02,-7.032173685729503632e-03,5.563787743449211121e-02,-4.938113503158092499e-03,-1.367854420095682144e-02,1.368605624884366989e-02,3.206121921539306641e-02,4.253626614809036255e-02,-2.964051254093647003e-02
-2.372985519468784332e-02,-4.409207403659820557e-02,-7.558770943433046341e-03,-6.009929929859936237e-04,4.535536468029022217e-02,3.353535011410713196e-02,-2.319869585335254669e-02,-2.954196557402610779e-02,1.116793975234031677e-02
-1.251230668276548386e-02,1.777953654527664185e-02,2.081817510770633817e-04,-1.051132753491401672e-02,4.475970938801765442e-02,-8.907128125429153442e-03,9.035396389663219452e-03,-3.250948502682149410e-04,2.078371867537498474e-02
-1.080919802188873291e-02,5.409061536192893982e-02,2.468350343406200409e-02,1.634082989767193794e-03,8.293373882770538330e-02,1.458311546593904495e-02,5.259785335510969162e-03,4.874394834041595459e-02,-2.102533727884292603e-02
-1.229322329163551331e-02,-1.495865918695926666e-02,-2.636147104203701019e-02,1.994864642620086670e-02,-9.314311901107430458e-04,-1.679412275552749634e-02,-1.168172061443328857e-02,7.287006825208663940e-03,6.056108046323060989e-03
2.153061702847480774e-02,1.174060162156820297e-02,2.886907756328582764e-02,5.398564506322145462e-03,1.830898597836494446e-02,2.155844494700431824e-02,1.800234429538249969e-02,2.184080146253108978e-02,3.242338076233863831e-02
-1.632059179246425629e-02,-5.062155053019523621e-02,-1.111614610999822617e-02,-1.021955255419015884e-02,8.070529438555240631e-03,-3.171176090836524963e-02,-3.459807485342025757e-02,-1.297061913646757603e-03,-2.183952741324901581e-02
-6.009442266076803207e-03,-9.234458208084106445e-03,9.073630906641483307e-03,-3.798226639628410339e-02,-6.262870010687038302e-05,-1.132910698652267456e-02,2.220371365547180176e-02,8.329978212714195251e-03,1.833279500715434551e-03
-2.778238244354724884e-02,-3.680727258324623108e-02,-2.003157325088977814e-02,-2.741018310189247131e-02,5.735455080866813660e-02,9.709957521408796310e-04,-1.067887898534536362e-02,-3.873750800266861916e-03,-2.053237147629261017e-02
-2.223161049187183380e-02,1.072975993156433105e-02,1.016114372760057449e-02,-1.991556771099567413e-02,1.404576702043414116e-03,3.158550336956977844e-02,1.710941269993782043e-02,3.408098593354225159e-02,-1.362054701894521713e-02
-8.198802359402179718e-03,3.691598773002624512e-03,4.088722541928291321e-02,4.634643439203500748e-03,1.011661738157272339e-01,-8.287468925118446350e-03,-3.146041184663772583e-02,1.911836117506027222e-02,1.650227047502994537e-02
-6.107228342443704605e-03,-7.583566941320896149e-03,-1.033869665116071701e-02,3.763163695111870766e-03,7.722849957644939423e-03,-1.059268042445182800e-02,2.575573138892650604e-02,5.775333195924758911e-02,1.468995586037635803e-02
-1.234700437635183334e-02,-9.228765033185482025e-03,5.331116262823343277e-03,2.435190975666046143e-02,-2.328261546790599823e-02,1.295961532741785049e-02,4.229974467307329178e-03,-1.738493517041206360e-02,-1.704426668584346771e-02
-1.423080824315547943e-02,-1.991598866879940033e-02,-1.980196684598922729e-02,-2.855182439088821411e-02,-2.972119487822055817e-02,-4.118820279836654663e-02,-3.406845033168792725e-02,-1.806646771728992462e-02,-2.245489507913589478e-02
3.120968490839004517e-02,-2.863045036792755127e-02,2.858095057308673859e-02,-6.058300496079027653e-04,-1.824370883696246892e-05,3.395672142505645752e-02,3.210167959332466125e-02,2.504312805831432343e-02,1.751516386866569519e-02
1.533984905108809471e-03,1.557226106524467468e-02,-4.580125957727432251e-02,5.171895958483219147e-03,-3.602214157581329346e-03,-6.717264652252197266e-03,-7.881934754550457001e-03,-3.319625183939933777e-02,-4.562960006296634674e-03
-4.986769985407590866e-03,-1.742197386920452118e-02,6.109765730798244476e-03,1.786309853196144104e-02,3.705904260277748108e-02,1.974894106388092041e-02,6.381181068718433380e-03,8.614326827228069305e-03,3.291030414402484894e-03
2.325806207954883575e-02,3.763900697231292725e-02,3.889787197113037109e-02,2.270514331758022308e-02,-1.269862521439790726e-02,5.437929555773735046e-02,2.812575176358222961e-02,6.332360208034515381e-02,-2.326480345800518990e-03
1.423459313809871674e-02,-2.363322116434574127e-02,-6.899101193994283676e-03,6.050208583474159241e-03,4.626131430268287659e-02,1.037705689668655396e-02,-5.991223268210887909e-03,1.235321536660194397e-02,3.465295583009719849e-02
5.050387606024742126e-02,1.023701112717390060e-02,5.008684005588293076e-03,1.468561217188835144e-02,1.692576706409454346e-01,1.967887021601200104e-02,-8.948933333158493042e-03,2.484863810241222382e-02,-2.383470349013805389e-02
