3.914733976125717163e-02,-3.009756095707416534e-02,1.389555633068084717e-01,6.665762513875961304e-02,-3.664000704884529114e-02,1.376864910125732422e-01,-4.115808289498090744e-03,-8.778315037488937378e-02,3.596817329525947571e-02
1.562340259552001953e-01,-1.581824966706335545e-03,-1.179676875472068787e-01,1.687977164983749390e-01,5.538946390151977539e-02,-2.738568000495433807e-02,1.684116274118423462e-01,-2.122625708580017090e-02,-1.403622627258300781e-01
1.473375846217095386e-06,2.024856939897290431e-06,-6.457299832618446089e-07,-1.765940737641358282e-06,-4.920603942082379945e-07,-1.434173441339225974e-06,1.420653120476345066e-06,-8.661318133817985654e-07,-4.244854210355697433e-07
1.511037647724151611e-01,2.907206676900386810e-02,6.054816395044326782e-02,4.416524246335029602e-02,2.189567498862743378e-02,6.049123406410217285e-02,8.216115087270736694e-02,4.581123217940330505e-02,9.257765859365463257e-02
-1.630831323564052582e-02,-2.296648547053337097e-02,-1.585455685853958130e-01,-9.557567536830902100e-02,-1.223911121487617493e-01,-1.605986654758453369e-01,-8.299083262681961060e-02,-6.910139322280883789e-02,-1.159183681011199951e-01
1.186382472515106201e-01,-3.577645123004913330e-02,-1.675963168963789940e-03,1.155621558427810669e-01,-3.273001313209533691e-02,-6.769124418497085571e-02,9.483911842107772827e-02,4.040633514523506165e-02,-2.703335508704185486e-02
-1.304030418395996094e-01,-5.257934704422950745e-02,-4.172149300575256348e-02,-5.440926179289817810e-03,6.462169811129570007e-03,5.242227762937545776e-02,-3.889486193656921387e-02,-2.578405849635601044e-02,-1.121128164231777191e-02
1.812304109334945679e-01,-7.491205632686614990e-02,-6.348969042301177979e-02,1.829708814620971680e-01,-2.662035822868347168e-02,-1.262395381927490234e-01,1.042196229100227356e-01,-3.815393894910812378e-02,-1.410209983587265015e-01
3.274025768041610718e-02,-1.298824399709701538e-01,-1.174329519271850586e-01,4.194216057658195496e-02,-1.533079445362091064e-01,-5.279448255896568298e-02,8.124708384275436401e-02,-5.312262102961540222e-02,-4.501617699861526489e-02
1.614254713058471680e-01,-7.801616936922073364e-02,7.915495336055755615e-02,2.703068554401397705e-01,1.224209219217300415e-01,2.238194346427917480e-01,1.555350720882415771e-01,6.480706483125686646e-02,1.240138560533523560e-01
-6.486157327890396118e-02,-4.395977035164833069e-02,-7.562301307916641235e-02,-1.666060984134674072e-01,4.325946327298879623e-03,-8.334270119667053223e-02,-1.939057409763336182e-01,-3.608097508549690247e-02,1.761138066649436951e-02
-2.443737536668777466e-02,4.252488538622856140e-02,-1.988332532346248627e-02,-9.048353135585784912e-02,1.041250489652156830e-02,7.794034481048583984e-02,-1.067801117897033691e-01,5.129040405154228210e-02,1.187931299209594727e-01
6.019945815205574036e-02,-1.153365075588226318e-01,-7.080832123756408691e-02,5.916633829474449158e-02,-4.305050894618034363e-02,8.510312438011169434e-02,4.084442928433418274e-02,-6.103696301579475403e-02,-1.506995223462581635e-02
-1.138212457299232483e-01,-8.135457336902618408e-02,1.658860780298709869e-02,2.076217718422412872e-02,-8.541174978017807007e-02,2.926185168325901031e-02,1.350974943488836288e-02,2.144435886293649673e-03,-1.016585230827331543e-01
1.983299255371093750e-01,6.836061924695968628e-02,-1.929614245891571045e-01,1.153664886951446533e-01,2.027338556945323944e-02,-2.041327357292175293e-01,9.617953002452850342e-02,1.626412011682987213e-02,-1.830704957246780396e-01
2.168281935155391693e-02,-2.024983800947666168e-02,1.830137521028518677e-02,1.695468463003635406e-02,-4.764427244663238525e-02,-2.956003649160265923e-03,2.248451299965381622e-02,-5.795274861156940460e-03,-6.591414567083120346e-03
1.275039743632078171e-02,-7.335461676120758057e-02,-1.200346797704696655e-01,1.821209117770195007e-02,-3.248659521341323853e-02,-1.781569719314575195e-01,5.506646260619163513e-02,2.823649533092975616e-02,-6.434825249016284943e-03
-6.826105993241071701e-03,-6.006220355629920959e-02,-5.313532426953315735e-02,1.382646113634109497e-01,8.713363111019134521e-02,5.390113685280084610e-03,1.564346402883529663e-01,5.730267986655235291e-02,5.842963233590126038e-02
-1.053355038166046143e-01,4.156546667218208313e-02,6.476347148418426514e-02,-7.202903926372528076e-02,-1.429984066635370255e-02,1.337336748838424683e-01,2.566026151180267334e-02,-3.370753838680684566e-04,7.834533601999282837e-02
2.014828324317932129e-01,6.575441453605890274e-03,-1.396664232015609741e-01,1.507668793201446533e-01,9.185422211885452271e-03,-6.557086110115051270e-02,1.698014289140701294e-01,-2.410618402063846588e-02,-2.042448371648788452e-01
-3.719595819711685181e-02,-9.907123446464538574e-02,-1.194721981883049011e-01,-1.908363401889801025e-02,-6.224256008863449097e-02,3.297560662031173706e-02,-4.611200839281082153e-02,-7.480079680681228638e-02,-1.948742419481277466e-01
-4.641401767730712891e-02,-7.214079052209854126e-02,-7.524566352367401123e-02,-3.688022121787071228e-02,4.240417107939720154e-02,9.838667465373873711e-04,1.534461509436368942e-02,-2.302509546279907227e-02,-5.964166671037673950e-02
1.140138357877731323e-01,-1.104312948882579803e-02,-7.630507647991180420e-02,1.674457937479019165e-01,1.095113717019557953e-02,1.307518780231475830e-02,1.193359494209289551e-01,-3.156805178150534630e-03,-7.279949262738227844e-03
-1.118995100259780884e-01,-1.127135381102561951e-01,1.418016105890274048e-01,-2.231922559440135956e-02,-5.865221470594406128e-02,1.586196720600128174e-01,-3.615430369973182678e-02,-1.306016892194747925e-01,5.466456338763237000e-02
2.823580801486968994e-01,2.005352526903152466e-01,1.721199154853820801e-01,3.813540935516357422e-01,2.421111911535263062e-01,1.163174211978912354e-01,1.604119241237640381e-01,1.295966356992721558e-01,1.202615499496459961e-01
6.037492305040359497e-02,-1.139653730206191540e-03,-4.100894555449485779e-02,-8.438005112111568451e-03,5.860334262251853943e-03,-5.216526240110397339e-02,6.456951797008514404e-02,3.230947628617286682e-02,8.519819378852844238e-02
-1.176592987030744553e-02,-5.607211217284202576e-02,5.348581820726394653e-02,1.000127866864204407e-01,-4.654958844184875488e-02,1.456108093261718750e-01,7.099937647581100464e-02,3.120860457420349121e-02,1.380475014448165894e-01
2.636984176933765411e-02,4.995337803848087788e-04,-1.899662613868713379e-02,3.330752253532409668e-02,1.424671523272991180e-02,-4.166082292795181274e-02,-2.431320957839488983e-02,-2.543338388204574585e-02,2.539715915918350220e-02
-2.303694840520620346e-03,-1.242724619805812836e-02,-5.534395202994346619e-02,-4.584234580397605896e-02,-4.511251300573348999e-02,-1.984278485178947449e-02,-2.904567494988441467e-02,2.699316665530204773e-02,6.230194866657257080e-02
-7.046148180961608887e-03,1.577964425086975098e-02,4.138112813234329224e-02,1.465226523578166962e-02,1.938076131045818329e-02,2.181264199316501617e-02,-1.102189570665359497e-01,-2.395767532289028168e-02,-1.079193428158760071e-01
-7.302964513655751944e-05,-3.910839930176734924e-02,6.145189516246318817e-03,1.045629475265741348e-02,2.740114461630582809e-03,4.350994527339935303e-02,3.570500761270523071e-02,-4.202448204159736633e-02,-5.709946155548095703e-02
-2.403282932937145233e-02,-1.396132446825504303e-02,9.535673260688781738e-02,-5.979065597057342529e-02,1.801197044551372528e-02,1.905366927385330200e-01,-1.646499633789062500e-01,8.571206592023372650e-03,1.277949661016464233e-01
8.939764648675918579e-02,8.214853005483746529e-04,-8.136697858572006226e-02,1.082261651754379272e-01,-1.771103963255882263e-02,-8.557648956775665283e-02,3.802773717325180769e-04,-1.093130484223365784e-01,-1.313823610544204712e-01
-1.142370924353599548e-01,-1.417633891105651855e-01,-1.142866536974906921e-02,-7.442068308591842651e-02,-1.019565202295780182e-02,2.051056921482086182e-02,-1.296110916882753372e-02,5.624503642320632935e-02,8.164467662572860718e-02
1.065096333622932434e-01,-3.153496980667114258e-02,1.799329072237014771e-01,2.059473842382431030e-01,-1.492107170633971691e-03,3.128041923046112061e-01,2.517473511397838593e-02,-5.498972535133361816e-02,1.197033897042274475e-01
-2.382036894559860229e-01,2.984094247221946716e-02,1.345502305775880814e-02,-2.481728196144104004e-01,-4.150612652301788330e-02,-7.929807156324386597e-02,-1.316924840211868286e-01,6.308373808860778809e-02,-7.868459075689315796e-02
3.564522787928581238e-02,2.289684489369392395e-02,-3.536090254783630371e-02,4.597505927085876465e-02,-2.164424024522304535e-02,4.599182307720184326e-02,3.289036825299263000e-02,8.880723267793655396e-03,7.015459984540939331e-02
2.224632352590560913e-02,-7.310640811920166016e-02,-1.066742390394210815e-01,-1.244712620973587036e-02,-1.036152523010969162e-02,-2.605190500617027283e-02,-4.392499849200248718e-02,-2.281072549521923065e-02,-4.715124145150184631e-02
-1.870952248573303223e-01,3.686553984880447388e-02,1.394609455019235611e-02,-1.729149520397186279e-01,1.994312554597854614e-02,-6.421902030706405640e-02,-1.223054081201553345e-01,5.169833078980445862e-02,-8.066971600055694580e-02
8.887010067701339722e-02,6.343086250126361847e-03,2.667668163776397705e-01,2.975639998912811279e-01,1.104397177696228027e-01,3.294267058372497559e-01,1.191396191716194153e-01,-1.174668520689010620e-01,1.819597333669662476e-01
-1.730748638510704041e-02,-1.613891497254371643e-02,-2.570629119873046875e-02,-2.875769324600696564e-02,-5.430542398244142532e-03,1.989680528640747070e-02,-1.311425026506185532e-02,3.717681625857949257e-03,2.818414242938160896e-03
-5.478720366954803467e-02,4.888107255101203918e-02,2.023598700761795044e-01,-5.773468408733606339e-03,1.201495621353387833e-02,1.401489228010177612e-01,-5.901732947677373886e-03,-4.413504898548126221e-02,7.146748155355453491e-02
4.520113021135330200e-02,8.303897455334663391e-03,3.426459431648254395e-02,1.299898419529199600e-02,-5.665224045515060425e-03,7.567834109067916870e-02,8.068189024925231934e-02,2.040810137987136841e-02,5.349715799093246460e-02
-1.151978597044944763e-02,-3.579841181635856628e-02,-8.665569126605987549e-02,2.757260203361511230e-02,2.119253762066364288e-02,-7.511964440345764160e-02,2.725591510534286499e-02,6.077095121145248413e-02,-8.864466845989227295e-02
6.163408234715461731e-02,-4.820538684725761414e-02,1.611375808715820312e-01,-9.557533077895641327e-03,-3.832663223147392273e-02,9.536484628915786743e-02,2.768991515040397644e-02,-1.569925248622894287e-02,5.493096262216567993e-02
4.044572636485099792e-02,1.536034047603607178e-02,1.432818174362182617e-01,-6.483600009232759476e-03,1.730972784571349621e-03,9.840238839387893677e-03,1.862510293722152710e-02,4.433409124612808228e-02,3.119278699159622192e-02
2.675187774002552032e-02,1.948775164783000946e-02,1.602809429168701172e-01,-1.826580800116062164e-02,-1.244636327028274536e-01,1.522050611674785614e-02,1.402896791696548462e-01,6.580086052417755127e-02,7.512686401605606079e-02
-1.424431335180997849e-02,-2.228079549968242645e-02,6.909213215112686157e-02,-1.800205186009407043e-02,2.860658278223127127e-04,1.524309217929840088e-01,-5.199583992362022400e-02,1.849443092942237854e-02,3.170339018106460571e-02
1.864567101001739502e-01,2.544401399791240692e-02,1.118650436401367188e-01,1.930171698331832886e-01,1.196541078388690948e-02,1.150133460760116577e-01,1.205512583255767822e-01,-5.861121416091918945e-02,-2.280290797352790833e-02
-9.144021570682525635e-02,-1.404700875282287598e-01,2.187285870313644409e-01,-8.835787326097488403e-02,-5.811069905757904053e-02,1.960266679525375366e-01,-3.690724074840545654e-02,-4.960792884230613708e-02,2.830913066864013672e-01
2.940135076642036438e-02,1.753338985145092010e-02,1.463674195110797882e-02,-5.889904871582984924e-02,3.815268725156784058e-02,-2.027777954936027527e-02,-2.226932346820831299e-02,-6.648718565702438354e-02,1.655366457998752594e-02
1.173366606235504150e-01,-2.163846604526042938e-02,5.708146840333938599e-02,3.240806609392166138e-02,-4.373409226536750793e-02,-4.497137665748596191e-02,-2.250536717474460602e-02,-4.785371571779251099e-02,-5.204400420188903809e-02
-1.268965471535921097e-02,-8.096718043088912964e-02,-2.266832888126373291e-01,2.379170851781964302e-03,-9.861164540052413940e-02,-2.464354187250137329e-01,3.783342614769935608e-02,4.972248570993542671e-04,-1.740955710411071777e-01
-3.150703385472297668e-02,-3.158131241798400879e-02,-6.541660428047180176e-02,-5.675178393721580505e-02,-5.785848572850227356e-02,-3.019441477954387665e-02,5.666927248239517212e-02,2.327772043645381927e-02,-1.807603426277637482e-02
4.167895764112472534e-02,4.474102333188056946e-02,-1.679406315088272095e-02,4.158437997102737427e-02,-1.343378983438014984e-02,9.435245394706726074e-02,1.813174597918987274e-02,4.328107461333274841e-03,3.257375210523605347e-02
-4.728506319224834442e-03,4.432962089776992798e-02,3.862697258591651917e-02,1.244396939873695374e-01,3.892339766025543213e-02,1.219003126025199890e-01,-6.324280053377151489e-02,-9.467463940382003784e-02,-2.990345237776637077e-03
-2.845247462391853333e-02,-4.992273449897766113e-02,4.729766771197319031e-02,-1.571966409683227539e-01,-1.832508891820907593e-01,-5.492927040904760361e-03,4.743698984384536743e-03,-9.015669673681259155e-02,1.649578660726547241e-02
4.637285321950912476e-02,-3.537357226014137268e-02,-1.787554323673248291e-01,9.117420762777328491e-02,-9.775400161743164062e-03,-3.205631375312805176e-01,1.235325075685977936e-02,-3.941546007990837097e-02,-3.221297264099121094e-01
4.178973659873008728e-02,-5.176029633730649948e-03,4.842620342969894409e-02,1.065399032086133957e-02,-1.106656435877084732e-02,7.536795735359191895e-02,-6.458704918622970581e-02,-6.572373211383819580e-02,-2.256703376770019531e-02
8.343744277954101562e-02,-7.922136038541793823e-02,-9.249320253729820251e-03,8.956398069858551025e-02,-9.443333745002746582e-02,-7.429421693086624146e-02,8.041230589151382446e-02,-9.746257960796356201e-02,1.943138800561428070e-02
1.175343319773674011e-01,-1.072488352656364441e-02,1.124312877655029297e-01,1.128066405653953552e-01,1.117537077516317368e-02,1.920807957649230957e-01,1.066482588648796082e-01,4.054467007517814636e-02,7.952730357646942139e-02
-2.398712746798992157e-02,2.118374407291412354e-02,8.134774863719940186e-03,-4.165665060281753540e-02,-5.219118320383131504e-04,1.454148627817630768e-02,-1.304791867733001709e-01,1.745955459773540497e-02,-3.285228088498115540e-02
1.647686958312988281e-02,5.110792443156242371e-02,4.499890375882387161e-03,5.869645997881889343e-02,1.106795296072959900e-02,1.426949631422758102e-02,3.614570572972297668e-02,-4.948185756802558899e-03,-1.918374560773372650e-02
-8.787094801664352417e-02,-1.074687913060188293e-01,-1.364453583955764771e-01,-6.482638418674468994e-02,-1.175737306475639343e-01,-1.545747816562652588e-01,1.480440422892570496e-02,-1.447647064924240112e-02,-1.501977257430553436e-02
-4.870067350566387177e-03,-1.068034395575523376e-02,-1.008851267397403717e-02,3.781535895541310310e-03,1.110914908349514008e-02,-3.614093409851193428e-03,-6.877926178276538849e-03,5.458809435367584229e-03,-3.936751279979944229e-03
3.718294436112046242e-03,1.317050028592348099e-02,2.850000187754631042e-02,7.070878986269235611e-03,3.074270300567150116e-02,1.429161988198757172e-02,1.747648790478706360e-02,-9.975738066714257002e-05,-2.354740165174007416e-03
4.713423322755261324e-07,-2.591500845028349431e-07,1.797597661834515748e-07,1.456819234135764418e-07,1.156010114300443092e-07,-9.775207310269706795e-09,4.611747783656028332e-07,1.696566442888070014e-07,2.063006121488797362e-07
-9.259776212275028229e-03,-2.212869189679622650e-02,-3.819359932094812393e-03,-3.193786740303039551e-02,2.060695178806781769e-02,3.155821561813354492e-02,-5.497470032423734665e-03,1.580766215920448303e-02,2.550812251865863800e-02
2.384429238736629486e-02,5.511176277650520205e-05,2.726093307137489319e-02,1.500768866389989853e-02,1.967932470142841339e-02,2.145549096167087555e-02,-6.070097908377647400e-03,-1.739444769918918610e-02,7.616357412189245224e-03
-1.298284716904163361e-02,-8.478793315589427948e-03,-7.494421675801277161e-03,1.024083513766527176e-02,2.442201972007751465e-02,-4.421844612807035446e-03,-9.592640213668346405e-03,4.311693832278251648e-03,2.262138994410634041e-03
-7.383934687823057175e-03,-2.817286923527717590e-02,1.932964101433753967e-02,2.112550893798470497e-03,3.339009732007980347e-02,3.582663834095001221e-02,3.005444537848234177e-03,7.796608377248048782e-03,-1.799992896849289536e-04
-2.703413926064968109e-02,-2.735133748501539230e-03,-2.515881322324275970e-02,-6.626647897064685822e-03,-2.152659185230731964e-02,-1.837115176022052765e-02,1.945753954350948334e-02,5.922347554587759078e-05,-2.929203398525714874e-02
-1.239405106753110886e-02,-1.579666882753372192e-02,-3.357984498143196106e-02,-1.681705191731452942e-02,-1.763531379401683807e-02,-1.994129642844200134e-02,-2.637939527630805969e-03,-2.908695489168167114e-03,-6.276334170252084732e-03
1.558831054717302322e-02,-2.372515946626663208e-02,-4.921832121908664703e-03,-1.589077408425509930e-03,4.344536864664405584e-04,2.147083915770053864e-02,-1.026785001158714294e-02,-1.026869285851716995e-02,-1.093567162752151489e-02
-1.290123071521520615e-02,-2.768708392977714539e-02,-3.395798057317733765e-02,-9.110188111662864685e-03,-5.678712204098701477e-02,-2.968420088291168213e-02,-3.176967147737741470e-03,1.047165249474346638e-03,1.211032457649707794e-02
-1.367842219769954681e-02,-2.334407530725002289e-02,-3.044014424085617065e-02,-8.456134237349033356e-03,-8.473195135593414307e-03,2.059543505311012268e-02,-7.625395432114601135e-03,1.499065198004245758e-02,-7.706443313509225845e-03
1.110822986811399460e-02,-1.256657019257545471e-02,-1.072715688496828079e-02,1.611797325313091278e-02,-4.664125386625528336e-03,-6.570791825652122498e-03,2.934916131198406219e-02,1.551513280719518661e-02,2.271555829793214798e-03
-1.376251596957445145e-02,2.331426739692687988e-02,1.005591545253992081e-02,-1.659201085567474365e-02,3.949458524584770203e-02,2.052038908004760742e-02,-2.273305878043174744e-02,-9.123609401285648346e-03,1.505228877067565918e-02
-2.234693989157676697e-02,2.324716188013553619e-02,2.126851677894592285e-02,2.990282606333494186e-03,4.889499396085739136e-02,-1.370664406567811966e-02,3.824860323220491409e-03,-1.481274794787168503e-02,6.885793060064315796e-03
-7.261045742779970169e-03,-9.756709448993206024e-03,1.903417520225048065e-02,-1.103180088102817535e-02,1.030884496867656708e-02,3.373121144250035286e-04,9.584884159266948700e-03,1.700252667069435120e-02,-5.042569246143102646e-03
-1.127569191157817841e-02,-4.984299093484878540e-02,-3.006593324244022369e-02,-3.663492947816848755e-02,-6.132692843675613403e-02,-2.373289130628108978e-02,-4.617774486541748047e-02,-2.541998215019702911e-02,-1.539141871035099030e-02
-1.807485707104206085e-02,2.021867968142032623e-02,1.220578700304031372e-02,1.037385591189377010e-04,-2.636958844959735870e-02,-1.557362382300198078e-03,-1.112953573465347290e-02,-2.895066791097633541e-05,1.063096337020397186e-02
7.606390863656997681e-03,8.720435202121734619e-03,-4.294956568628549576e-03,-1.251447130925953388e-03,4.593959450721740723e-02,-1.827125065028667450e-02,-2.213320694863796234e-02,-1.167794317007064819e-02,-7.019336335361003876e-04
8.139243349432945251e-03,7.268702611327171326e-03,6.447021150961518288e-04,1.055005285888910294e-02,-1.531765051186084747e-02,1.069878460839390755e-03,-6.745003047399222851e-04,2.209595218300819397e-02,2.664132043719291687e-02
-2.013914845883846283e-02,-2.641895413398742676e-02,-7.724360562860965729e-03,-2.969872020184993744e-02,2.760976739227771759e-02,-2.216235175728797913e-02,-1.873523555696010590e-02,-3.095822222530841827e-02,-1.532945223152637482e-02
1.490207761526107788e-02,-8.963407017290592194e-03,3.293173387646675110e-03,-6.950738374143838882e-03,-6.288937292993068695e-03,2.304832823574542999e-02,1.547472644597291946e-02,4.173300042748451233e-02,9.236007928848266602e-03
2.004769630730152130e-02,8.763159625232219696e-03,3.166846232488751411e-03,7.606654427945613861e-03,3.411509096622467041e-02,1.134766638278961182e-02,5.798977799713611603e-03,1.684799231588840485e-02,1.378601603209972382e-02
-2.909998968243598938e-02,-1.473794318735599518e-02,1.992676779627799988e-02,-2.532103843986988068e-02,8.276753942482173443e-05,-2.806396782398223877e-02,-1.145433075726032257e-02,-3.324884176254272461e-02,1.425146241672337055e-03
-1.970801688730716705e-02,-1.486413367092609406e-02,-1.180509850382804871e-02,2.047793008387088776e-03,1.642882078886032104e-02,-1.542438846081495285e-02,-3.226657165214419365e-03,-1.872637192718684673e-03,-3.603436052799224854e-03
2.059047110378742218e-03,-1.180964987725019455e-03,-1.354713272303342819e-02,1.712607219815254211e-02,-7.151478528976440430e-02,-6.504736375063657761e-03,-1.248404849320650101e-03,1.881234580650925636e-03,9.705582633614540100e-03
-1.957844756543636322e-02,9.254318661987781525e-03,9.312175214290618896e-03,1.255868002772331238e-02,-3.337982669472694397e-02,1.061486313119530678e-03,-4.064294043928384781e-03,-7.157794199883937836e-03,-2.897540340200066566e-03
-2.705579251050949097e-02,-1.600289717316627502e-02,-1.260798890143632889e-02,-1.527822855859994888e-02,-1.035375427454710007e-02,1.232976745814085007e-02,-1.413473859429359436e-03,-2.186276763677597046e-02,-9.267930872738361359e-03
-7.784858811646699905e-03,-1.867832243442535400e-02,-1.831483095884323120e-03,1.915670558810234070e-02,-4.044290259480476379e-02,-1.546720322221517563e-02,-5.847195163369178772e-03,-1.737929135560989380e-02,2.311604563146829605e-03
1.306353509426116943e-02,1.167679950594902039e-02,1.665800251066684723e-02,1.726445741951465607e-02,6.388196488842368126e-04,2.181827090680599213e-02,-8.218094008043408394e-04,9.219714440405368805e-03,1.622776128351688385e-02
-9.304947219789028168e-03,-4.245325457304716110e-03,-2.882414497435092926e-03,3.101872652769088745e-02,1.593004912137985229e-02,-2.365182153880596161e-03,2.081912755966186523e-02,-2.429635496810078621e-03,1.663600211031734943e-03
1.080984808504581451e-02,-9.303715778514742851e-04,3.171448782086372375e-02,-1.799730397760868073e-02,2.302495390176773071e-02,1.936232298612594604e-02,-5.527160130441188812e-03,2.992286905646324158e-02,2.385931648313999176e-02
1.236801384948194027e-03,5.372233688831329346e-03,2.013247832655906677e-02,3.569997102022171021e-02,3.424033522605895996e-02,3.507115319371223450e-02,3.259650245308876038e-02,2.950769290328025818e-02,2.677989937365055084e-02
8.187573403120040894e-03,-9.847957640886306763e-03,1.122402865439653397e-02,-7.254918571561574936e-03,-1.058071199804544449e-02,6.750233471393585205e-03,9.766859933733940125e-03,-2.437498653307557106e-03,-9.560571983456611633e-03
-1.215878291986882687e-03,-1.170713454484939575e-02,6.012482102960348129e-03,3.309401124715805054e-02,-3.324476070702075958e-03,-2.467736368998885155e-03,-4.832941573113203049e-03,-2.093621296808123589e-03,3.773539792746305466e-03
-1.284622400999069214e-02,-1.408194005489349365e-02,-2.094504050910472870e-02,-1.890416443347930908e-02,-3.702935203909873962e-02,3.700240282341837883e-03,-2.352452650666236877e-02,-9.806628804653882980e-04,-1.805313676595687866e-02
5.730654112994670868e-03,-2.288377610966563225e-03,1.438471022993326187e-02,1.488981768488883972e-02,-2.275072038173675537e-02,8.273283019661903381e-03,6.750044412910938263e-03,-1.119136344641447067e-03,-9.656799025833606720e-03
-9.981638751924037933e-03,1.041984767653048038e-03,-5.314545240253210068e-03,9.722650051116943359e-03,1.344638969749212265e-02,2.846123836934566498e-02,8.466020226478576660e-03,-7.227970287203788757e-03,4.921376239508390427e-03
1.544379442930221558e-02,-8.161158300936222076e-03,1.462826039642095566e-02,3.833884606137871742e-03,-6.401106715202331543e-03,1.452688593417406082e-02,-1.701157167553901672e-02,-1.101970486342906952e-02,1.766379550099372864e-02
-1.066905353218317032e-02,-9.953749366104602814e-03,-1.685325056314468384e-02,2.748160995543003082e-02,9.778636507689952850e-03,-1.061387732625007629e-02,-1.028291601687669754e-02,2.291584573686122894e-02,-2.019733423367142677e-03
1.447498518973588943e-02,3.319014981389045715e-02,9.088766761124134064e-03,-4.320305772125720978e-03,1.152655854821205139e-02,1.972952671349048615e-02,-6.435811053961515427e-03,2.498400583863258362e-02,-2.033593831583857536e-03
1.205407828092575073e-02,3.050650656223297119e-02,1.192866265773773193e-02,-5.485288333147764206e-03,4.398894030600786209e-03,1.805280335247516632e-02,1.329276245087385178e-03,1.056522969156503677e-02,1.328488811850547791e-02
-2.760372124612331390e-02,-8.304697461426258087e-03,2.695633284747600555e-02,-3.003031946718692780e-02,2.570571936666965485e-02,1.187959685921669006e-02,1.218243385665118694e-03,2.356036379933357239e-02,3.700069338083267212e-02
-2.083428949117660522e-02,2.231576479971408844e-03,-1.535967551171779633e-02,1.568305119872093201e-02,-4.203732591122388840e-03,5.313605535775423050e-03,-5.428776144981384277e-03,9.989828802645206451e-03,-4.837960936129093170e-03
-5.635188892483711243e-03,1.066610566340386868e-03,-1.225485093891620636e-02,-1.196905598044395447e-02,-5.720030982047319412e-03,-1.422676071524620056e-02,-1.529117953032255173e-02,-8.229898288846015930e-03,5.290968343615531921e-03
-9.624234400689601898e-03,-2.430045278742909431e-03,4.284788388758897781e-03,-9.963136166334152222e-03,-3.946764022111892700e-02,1.121829263865947723e-02,-1.330269873142242432e-02,1.659752614796161652e-02,-1.340403500944375992e-02
-1.405886095017194748e-02,-1.092225592583417892e-02,-2.607770450413227081e-02,6.016420572996139526e-02,-1.246047765016555786e-02,-4.508092626929283142e-02,-2.878843620419502258e-02,2.420851588249206543e-02,-3.137321397662162781e-02
1.364864781498908997e-02,1.336413063108921051e-02,4.395120218396186829e-02,-2.857485087588429451e-03,9.073818475008010864e-02,2.034969814121723175e-02,3.089351393282413483e-02,3.915644250810146332e-03,5.107371835038065910e-04
-2.202245593070983887e-02,-3.133252263069152832e-02,-1.004900503903627396e-02,-1.940994872711598873e-03,-1.599098928272724152e-02,6.518910638988018036e-03,-1.202619262039661407e-02,-8.101050741970539093e-03,-7.932831533253192902e-03
-4.293611645698547363e-02,-6.845148652791976929e-02,-5.126469768583774567e-03,-3.437766432762145996e-02,-1.881946623325347900e-02,-2.337938640266656876e-03,-2.301941439509391785e-02,-3.028232418000698090e-02,-2.414653636515140533e-02
4.243725165724754333e-02,-3.444063290953636169e-02,1.527180802077054977e-02,6.766210496425628662e-02,-7.388512045145034790e-02,3.063468448817729950e-02,5.834003910422325134e-02,-2.771976962685585022e-02,-1.195810828357934952e-02
-4.228066827636212111e-04,7.798033300787210464e-03,1.678760163486003876e-02,4.359835386276245117e-02,-9.542455896735191345e-03,1.737319119274616241e-02,1.478364225476980209e-02,1.483525242656469345e-02,2.756238169968128204e-02
1.400553714483976364e-02,-1.448587980121374130e-02,-1.321556046605110168e-03,8.136795368045568466e-04,-3.175762668251991272e-02,2.838645875453948975e-02,2.097748219966888428e-02,-3.795633325353264809e-03,1.028937660157680511e-02
-3.922125324606895447e-03,1.372414454817771912e-02,1.512822788208723068e-02,-1.040627062320709229e-02,5.347771570086479187e-02,5.546610336750745773e-03,6.728169042617082596e-03,2.126709558069705963e-02,9.443889139220118523e-04
-2.406231500208377838e-02,-3.602800425142049789e-03,-1.201086398214101791e-02,1.193839870393276215e-02,8.519702591001987457e-03,-3.293049708008766174e-02,-1.334204920567572117e-03,-1.192769967019557953e-02,-5.324611440300941467e-03
1.445318851619958878e-02,-1.680928841233253479e-02,-2.197747817263007164e-03,-1.177786197513341904e-02,-1.755407266318798065e-02,-9.779151529073715210e-03,8.354540914297103882e-03,-1.874928362667560577e-02,-1.659055054187774658e-02
5.666239932179450989e-02,6.543299648910760880e-03,9.338077157735824585e-03,3.913065046072006226e-02,8.374287746846675873e-03,2.244517020881175995e-02,1.893068477511405945e-02,-5.777684855274856091e-04,2.927334420382976532e-02
-4.859709297306835651e-04,-1.021043304353952408e-02,5.489265546202659607e-03,1.194875221699476242e-03,-2.264539338648319244e-02,-1.733133569359779358e-02,-3.565880656242370605e-02,-1.355122029781341553e-02,-1.347794756293296814e-02
1.685308292508125305e-02,-5.830692825838923454e-04,-2.589957602322101593e-02,-8.596263825893402100e-03,-2.299251221120357513e-02,-1.155539602041244507e-02,5.765424575656652451e-03,2.564423903822898865e-02,3.990686498582363129e-03
-1.309890206903219223e-02,-1.136672589927911758e-02,-1.706075295805931091e-02,-8.461239747703075409e-03,-3.907643258571624756e-02,-2.555506653152406216e-04,-1.536432933062314987e-02,2.560036024078726768e-03,-9.021565318107604980e-03
-1.607882231473922729e-02,-1.909215468913316727e-03,-1.238752063363790512e-02,-1.592727936804294586e-02,-8.825976401567459106e-03,-2.324331551790237427e-02,-1.726807444356381893e-03,-6.751088425517082214e-03,7.603520527482032776e-03
-2.867562882602214813e-02,-5.485162511467933655e-02,-4.364678263664245605e-02,-4.165278747677803040e-02,-8.384830318391323090e-03,-3.564478084444999695e-02,-2.447677217423915863e-02,-3.505919128656387329e-02,-1.684700697660446167e-02
2.385975606739521027e-02,2.958983182907104492e-02,-5.169525742530822754e-03,-1.823550835251808167e-02,-2.398930303752422333e-02,-3.378245979547500610e-02,-2.149737812578678131e-02,-2.330893464386463165e-02,7.496475242078304291e-03
-1.243508514016866684e-02,-3.081376897171139717e-03,-6.510703358799219131e-03,8.777628652751445770e-03,4.337342455983161926e-02,9.416165994480252266e-05,1.037081354297697544e-03,-3.029098967090249062e-03,2.535727340728044510e-03
-4.272137768566608429e-03,3.064416348934173584e-03,8.539870032109320164e-04,-2.658027037978172302e-02,5.557699128985404968e-02,-4.684417322278022766e-02,-4.103595856577157974e-03,-2.326932735741138458e-02,-1.355646736919879913e-02
8.960859850049018860e-03,-2.086201915517449379e-03,6.638392806053161621e-03,4.017183557152748108e-03,-1.233642641454935074e-02,-2.555644605308771133e-03,-1.345581258647143841e-03,-1.189777627587318420e-02,-7.767289411276578903e-03
4.104036293028912041e-07,-5.226967800808779430e-07,3.845751450626266887e-07,2.041988693690655055e-07,3.604361609177431092e-08,-4.782269868996991136e-08,1.984835478197055636e-07,-6.803560950174869504e-07,-7.175376026680169161e-08
-3.929235972464084625e-03,-2.066381089389324188e-02,-5.797027144581079483e-03,-2.443175297230482101e-03,1.261517778038978577e-02,-1.077624317258596420e-02,1.029779110103845596e-02,-2.334544435143470764e-02,2.828625729307532310e-03
-2.766569377854466438e-03,-1.743580959737300873e-02,1.762510463595390320e-02,-2.589551173150539398e-02,2.466939203441143036e-02,-1.885665953159332275e-02,3.699307329952716827e-03,-2.485535293817520142e-02,6.598361767828464508e-03
1.341889030300080776e-03,-8.709730464033782482e-04,1.414767093956470490e-02,-2.781810704618692398e-03,3.188126161694526672e-02,1.773922704160213470e-02,9.497393853962421417e-03,-6.767232902348041534e-03,8.477755822241306305e-03
-2.053371164947748184e-03,-1.366471406072378159e-02,1.677037030458450317e-02,-1.209856825880706310e-03,-1.997457630932331085e-02,-3.561618505045771599e-03,9.532881900668144226e-03,1.556777977384626865e-03,2.393694780766963959e-02
1.097532548010349274e-02,-2.162373624742031097e-02,1.580247469246387482e-02,-3.170033684000372887e-03,-1.729028485715389252e-02,-2.208849787712097168e-02,-1.378725632093846798e-03,-6.174467969685792923e-03,1.836094260215759277e-02
1.138231717050075531e-02,-5.275892559438943863e-03,6.794915534555912018e-03,-1.142686512321233749e-02,8.303797803819179535e-03,-4.646333400160074234e-03,-3.662458620965480804e-04,-1.076191663742065430e-02,4.719855263829231262e-03
-1.024020649492740631e-02,-1.203135866671800613e-02,-7.313810754567384720e-03,-3.659968962892889977e-03,1.741992123425006866e-02,-1.805414259433746338e-02,-4.751923959702253342e-03,5.100656300783157349e-03,5.855561234056949615e-03
-8.330692537128925323e-03,-1.403569895774126053e-02,2.098629483953118324e-04,-2.276999130845069885e-02,-2.029204182326793671e-02,-7.138093002140522003e-03,-5.969896912574768066e-03,-7.160132285207509995e-03,4.912527743726968765e-03
8.234370616264641285e-04,-1.742620207369327545e-02,1.364699937403202057e-02,-1.346448156982660294e-02,9.420631453394889832e-03,-2.472689747810363770e-02,-1.579914242029190063e-02,-2.558133006095886230e-02,-5.134283128427341580e-05
-6.728769512847065926e-04,-2.919951453804969788e-02,6.848321761935949326e-03,-6.625771056860685349e-03,-4.846601933240890503e-02,-4.270084202289581299e-02,-1.155469007790088654e-02,-2.029323950409889221e-02,2.796713495627045631e-03
1.142277033068239689e-03,-2.658654376864433289e-02,-2.243507653474807739e-03,-5.263160914182662964e-03,2.098730020225048065e-02,-3.073160350322723389e-02,-4.943812731653451920e-03,-3.610348328948020935e-02,-2.979041077196598053e-03
7.240818347781896591e-03,2.097580349072813988e-03,1.545792911201715469e-02,-9.928347542881965637e-03,2.038548700511455536e-02,1.439907774329185486e-02,3.802888095378875732e-04,-1.793112419545650482e-02,1.558937877416610718e-02
1.041159499436616898e-02,6.021846085786819458e-03,7.206211332231760025e-03,1.254265662282705307e-02,2.181503735482692719e-02,9.403311647474765778e-03,4.337519407272338867e-03,3.006312996149063110e-03,8.281995542347431183e-03
-1.144044473767280579e-02,-2.568995580077171326e-02,-4.656961653381586075e-03,-1.532874442636966705e-02,7.987357676029205322e-03,-1.742709614336490631e-02,-6.094461772590875626e-03,-3.896819055080413818e-02,-6.794854067265987396e-03
7.923002354800701141e-03,-2.012966759502887726e-02,3.952329512685537338e-03,-8.624892681837081909e-03,4.242955520749092102e-02,-3.172624483704566956e-02,-8.224413730204105377e-03,-3.206924349069595337e-02,-1.510006189346313477e-02
-7.026400882750749588e-03,-3.207055851817131042e-02,-2.206552540883421898e-03,-2.762494422495365143e-02,5.585558712482452393e-03,-2.812729403376579285e-02,-1.180835999548435211e-02,-2.800977416336536407e-02,-7.845704443752765656e-03
1.866053440608084202e-03,-4.810847807675600052e-03,8.929495699703693390e-03,-7.734697777777910233e-03,4.058370366692543030e-03,-6.337220780551433563e-03,5.893836263567209244e-03,-7.359213195741176605e-03,1.416198210790753365e-03
-1.953490776941180229e-03,2.863977476954460144e-02,-3.879514755681157112e-03,-1.542459474876523018e-03,9.676907211542129517e-02,-4.312132368795573711e-04,-8.881278336048126221e-04,3.174129500985145569e-02,-1.752075506374239922e-03
-5.452907062135636806e-04,-6.081291474401950836e-03,1.225303765386343002e-02,-1.437761168926954269e-02,6.371089257299900055e-03,2.096842974424362183e-02,-3.931568935513496399e-03,-1.315843407064676285e-02,3.144927555695176125e-03
-1.644382835365831852e-03,2.514229528605937958e-02,1.577347517013549805e-02,-1.434590667486190796e-02,1.924869790673255920e-02,-1.786188106052577496e-03,-1.120185665786266327e-02,4.174223169684410095e-03,4.167302511632442474e-03
-7.342671509832143784e-03,-4.721846804022789001e-02,1.291732303798198700e-02,-3.975600749254226685e-02,2.806509844958782196e-02,-5.499931424856185913e-02,-8.565889671444892883e-03,-2.875277586281299591e-02,1.051999535411596298e-02
7.898063398897647858e-03,5.972165614366531372e-03,6.084133405238389969e-03,1.885274238884449005e-02,2.592858858406543732e-02,1.952564343810081482e-02,5.690095131285488605e-04,2.688332227990031242e-03,-9.117458830587565899e-04
-1.698533771559596062e-03,-2.700332552194595337e-02,-1.286554988473653793e-02,-1.536958478391170502e-02,-8.971187286078929901e-03,-4.867834225296974182e-02,-9.342469274997711182e-03,-4.343953356146812439e-02,2.230586949735879898e-03
-1.089761219918727875e-02,-1.727909967303276062e-02,1.008071098476648331e-02,-6.666852161288261414e-03,1.912400824949145317e-03,-2.146920934319496155e-02,-7.364478427916765213e-03,-1.523312646895647049e-02,1.054726354777812958e-02
-9.427732788026332855e-03,-3.995738923549652100e-03,1.018285751342773438e-02,-4.230302292853593826e-03,1.928200200200080872e-02,1.066419295966625214e-02,8.457131683826446533e-03,-5.949704907834529877e-03,5.347857251763343811e-03
5.048340535722672939e-04,7.738847285509109497e-03,1.637890189886093140e-02,8.389686117880046368e-04,1.736002974212169647e-02,3.375030355527997017e-04,3.279539232607930899e-04,-2.156455628573894501e-02,1.787818782031536102e-02
-3.769634757190942764e-03,-1.145150512456893921e-02,-2.989982953295111656e-03,-1.137539558112621307e-02,-3.577590361237525940e-02,-1.492045726627111435e-02,-5.775887053459882736e-03,-2.714280737563967705e-03,7.565473206341266632e-03
-4.189181607216596603e-03,-8.210244588553905487e-03,9.132568375207483768e-04,-1.898584887385368347e-02,4.521398618817329407e-02,-1.406723447144031525e-02,7.428840268403291702e-03,-1.193736214190721512e-02,3.356032306328415871e-03
-1.020921766757965088e-02,-2.130504697561264038e-02,7.310775108635425568e-03,-2.992269955575466156e-02,3.857313655316829681e-03,-3.830599784851074219e-02,-2.768368460237979889e-03,-3.424861654639244080e-02,1.705365139059722424e-03
1.510893087834119797e-02,8.896986953914165497e-03,4.073741845786571503e-03,3.124603629112243652e-02,2.992655895650386810e-02,3.356036916375160217e-02,2.674537152051925659e-02,3.489573299884796143e-02,2.713841199874877930e-02
-1.133060082793235779e-02,-2.507718279957771301e-02,-6.017544306814670563e-03,-1.800386048853397369e-02,7.373085618019104004e-02,-3.481085598468780518e-02,-2.103770151734352112e-03,-3.882482275366783142e-02,-6.483025848865509033e-03
-1.691355369985103607e-02,-4.367483407258987427e-02,-1.399441249668598175e-02,-2.429946139454841614e-02,3.496267646551132202e-02,-4.204818606376647949e-02,-3.586264559999108315e-03,-2.796801179647445679e-02,-4.320709500461816788e-03
-1.991399098187685013e-03,-3.439379855990409851e-02,-8.385217748582363129e-03,-8.765500038862228394e-03,5.862096324563026428e-03,-2.648624964058399200e-02,-1.820801524445414543e-03,-3.673591464757919312e-02,-6.315151695162057877e-03
-2.278326312080025673e-03,-1.620064675807952881e-02,1.340699009597301483e-02,-5.340060219168663025e-03,5.090462043881416321e-02,-3.678064793348312378e-02,6.488383281975984573e-03,-2.033386752009391785e-02,7.611982990056276321e-03
-1.672164071351289749e-03,-3.520241379737854004e-02,-5.956140346825122833e-03,-1.335060317069292068e-02,8.335452526807785034e-02,-3.204463422298431396e-02,-4.583042755257338285e-04,-2.429207973182201385e-02,7.296363823115825653e-03
-2.812727820128202438e-03,-2.531092055141925812e-02,4.573620855808258057e-03,-1.964620128273963928e-02,-4.340954869985580444e-02,-2.050620317459106445e-02,-1.952938735485076904e-02,-3.491977974772453308e-02,-1.131308358162641525e-02
1.059868227457627654e-04,-2.787998237181454897e-04,9.140733629465103149e-03,-5.558161064982414246e-03,-1.606398820877075195e-02,-2.654452435672283173e-02,1.144676702097058296e-03,-1.202776283025741577e-02,-8.140272460877895355e-03
7.453766651451587677e-03,1.977660227566957474e-03,-1.440921332687139511e-02,-2.078107791021466255e-04,-1.615430787205696106e-02,-1.975786872208118439e-02,7.626520469784736633e-03,-5.143218673765659332e-03,-1.444047968834638596e-02
-5.446855444461107254e-03,-2.371666766703128815e-02,7.545256987214088440e-03,-1.654842495918273926e-02,-2.252466604113578796e-02,-8.880798704922199249e-03,6.126475986093282700e-03,-1.438714098185300827e-04,9.735550265759229660e-04
-1.374067156575620174e-03,-4.438713192939758301e-03,4.209400867694057524e-05,6.186680402606725693e-03,6.983750499784946442e-04,1.315869274549186230e-03,1.465680310502648354e-03,-2.328301314264535904e-03,-7.364347577095031738e-03
-3.899350995197892189e-03,-1.761192083358764648e-02,8.207122795283794403e-03,-8.009903132915496826e-03,-2.356793358922004700e-02,-2.304464112967252731e-03,3.857377916574478149e-03,-1.576915499754250050e-03,2.299516461789608002e-02
8.941449224948883057e-03,4.690184071660041809e-02,1.032188721001148224e-02,4.350899904966354370e-02,6.251934915781021118e-02,5.816411226987838745e-02,5.869810003787279129e-03,4.433157294988632202e-02,5.797811318188905716e-03
-1.215547602623701096e-02,-6.384669803082942963e-03,1.110359746962785721e-02,-2.319953218102455139e-02,1.125666219741106033e-02,-1.236180588603019714e-02,-9.400810115039348602e-03,-1.500321552157402039e-02,4.737458191812038422e-03
1.488272100687026978e-02,4.461252596229314804e-03,-9.702935814857482910e-03,3.276149928569793701e-02,6.822109222412109375e-03,-6.499207578599452972e-03,3.287996398285031319e-03,5.651337560266256332e-03,-8.648494840599596500e-04
-4.467031452804803848e-03,-8.029126562178134918e-03,1.519838627427816391e-02,-1.418573688715696335e-02,-1.008755527436733246e-02,-2.063175290822982788e-02,-9.326407685875892639e-03,-1.703934930264949799e-02,2.373989671468734741e-03
6.182685960084199905e-03,-8.213615976274013519e-03,1.175239030271768570e-02,-8.930655196309089661e-03,-1.545948721468448639e-02,-1.139216125011444092e-02,1.022938638925552368e-03,-1.809910312294960022e-02,-9.875868447124958038e-03
-1.337345410138368607e-02,-3.733839467167854309e-02,-1.098995935171842575e-02,-2.762012369930744171e-02,-3.631848841905593872e-02,-2.596899867057800293e-02,-4.249631427228450775e-03,-1.603935100138187408e-02,3.863441525027155876e-04
1.517613697797060013e-02,-3.330732462927699089e-03,-4.433912690728902817e-03,2.431277651339769363e-03,-1.886829175055027008e-02,-7.778750732541084290e-03,1.121539063751697540e-02,2.339418744668364525e-03,-8.301043882966041565e-03
-4.789138678461313248e-03,-3.767635300755500793e-02,-1.226108986884355545e-02,-1.578019373118877411e-02,9.505151957273483276e-02,-4.743018746376037598e-02,-1.987536204978823662e-03,-1.693091168999671936e-02,5.586903542280197144e-03
-8.602041751146316528e-03,-4.092240333557128906e-02,-2.716570394113659859e-03,-1.507279369980096817e-02,6.696823239326477051e-02,-4.548088833689689636e-02,-3.243612358346581459e-03,-2.324508130550384521e-02,4.506328608840703964e-03
-4.407505039125680923e-03,-2.149306796491146088e-02,8.147794753313064575e-03,-2.406455017626285553e-02,4.847314581274986267e-02,-1.542795356363058090e-02,1.885695150122046471e-03,-1.240585837513208389e-02,1.155362185090780258e-02
3.875977126881480217e-03,3.402011469006538391e-02,-3.080697264522314072e-03,1.596917398273944855e-02,1.516138017177581787e-02,1.675732806324958801e-02,8.677521836943924427e-04,2.399481832981109619e-02,-2.527546603232622147e-03
-5.531918723136186600e-03,-3.649059683084487915e-02,-6.628377828747034073e-03,-3.262279927730560303e-02,4.887941479682922363e-02,-2.289361692965030670e-02,-4.101131111383438110e-03,-3.768837824463844299e-02,-1.031730417162179947e-02
-6.306887371465563774e-04,4.433945287019014359e-03,4.995410563424229622e-04,-4.894714220426976681e-04,-2.916269004344940186e-03,-1.459620310924947262e-03,2.069524023681879044e-03,5.986291449517011642e-03,8.933668723329901695e-04
2.126234176103025675e-04,-1.613314263522624969e-02,3.798673395067453384e-03,-8.738703094422817230e-03,1.647817343473434448e-02,-1.910503208637237549e-02,3.372977254912257195e-03,-2.025429345667362213e-02,5.593819078058004379e-03
-8.601102977991104126e-03,-3.921399638056755066e-02,-2.122872974723577499e-03,-1.960316486656665802e-02,5.025853961706161499e-02,-4.610205814242362976e-02,-9.730863384902477264e-03,-3.239335119724273682e-02,3.765688277781009674e-03
8.455029688775539398e-03,1.414942089468240738e-02,4.944997839629650116e-03,5.619370378553867340e-03,1.907552778720855713e-02,1.766488328576087952e-02,9.424407966434955597e-03,1.405963581055402756e-02,2.689288696274161339e-03
-5.392430815845727921e-03,-1.480842009186744690e-02,5.724304355680942535e-03,-1.342492178082466125e-02,1.404775027185678482e-02,-3.645297139883041382e-02,-1.604921417310833931e-03,-1.550284959375858307e-02,8.475059643387794495e-03
-6.458464544266462326e-03,-2.893897518515586853e-02,-1.705162110738456249e-03,-1.658975705504417419e-02,3.319038078188896179e-03,-3.325372934341430664e-02,-1.269818656146526337e-02,-3.186859562993049622e-02,-1.494780834764242172e-02
-5.940188653767108917e-03,5.736545659601688385e-03,1.774945296347141266e-02,-9.733799844980239868e-03,3.102918853983283043e-03,9.439628571271896362e-03,-5.558992736041545868e-03,-5.608444102108478546e-03,9.845092892646789551e-03
4.150582011789083481e-03,6.111608818173408508e-03,5.338279530405998230e-03,1.886263862252235413e-02,2.091772295534610748e-02,3.262516483664512634e-02,2.443543053232133389e-04,-2.507603028789162636e-03,-4.853595979511737823e-03
-4.427478183060884476e-03,1.832099072635173798e-02,1.299177645705640316e-03,-2.337400801479816437e-02,2.384906075894832611e-02,-2.988545969128608704e-02,3.188313217833638191e-03,-2.011795714497566223e-02,1.817543059587478638e-03
5.070729646831750870e-03,1.514793746173381805e-02,-3.764385823160409927e-03,-2.187791652977466583e-02,-3.920667804777622223e-03,-1.263517537154257298e-03,-1.298329979181289673e-02,-2.344726026058197021e-02,4.913097713142633438e-03
-7.314842775940633146e-08,2.783380352866515750e-07,2.742998788107797736e-07,6.451456613376649329e-08,6.551745741489867214e-07,5.430404925732545962e-08,-4.030701461488206405e-07,6.025945253895770293e-07,4.504038884078909177e-07
-9.680083952844142914e-03,-2.143408358097076416e-02,-8.447521366178989410e-03,-1.864958554506301880e-02,2.672846801578998566e-02,2.787193283438682556e-03,5.888835061341524124e-03,-1.997071877121925354e-02,1.977325230836868286e-02
-2.027591504156589508e-02,-5.634942092001438141e-03,1.273079868406057358e-02,-3.629672154784202576e-02,3.585151582956314087e-02,-7.544057909399271011e-03,8.433746406808495522e-04,-2.504572831094264984e-02,9.439828805625438690e-03
-4.028308670967817307e-03,8.499023504555225372e-03,1.139775477349758148e-02,-1.617146335775032640e-04,1.538443192839622498e-02,-9.343164972960948944e-03,4.060994368046522141e-03,-5.529726622626185417e-04,-8.176772389560937881e-04
2.021785359829664230e-03,-1.666465774178504944e-02,-5.831393413245677948e-03,-1.572138071060180664e-02,9.454970806837081909e-02,-2.936120517551898956e-02,1.345563028007745743e-02,-2.842539921402931213e-02,4.739166703075170517e-03
1.271070353686809540e-02,-5.345266312360763550e-03,-8.075152523815631866e-03,-4.044520854949951172e-02,7.540822029113769531e-02,-4.599662497639656067e-02,2.029695361852645874e-02,-5.283076316118240356e-02,-6.645789369940757751e-03
4.223257768899202347e-03,2.680664695799350739e-02,5.051285959780216217e-03,-6.354846060276031494e-03,1.542717590928077698e-02,1.776613295078277588e-02,-5.998460575938224792e-03,1.901874318718910217e-02,-9.966422803699970245e-03
1.783176138997077942e-02,1.107506360858678818e-02,1.104214601218700409e-02,-1.447735558031126857e-04,-3.103805647697299719e-04,-8.202996104955673218e-03,5.933125037699937820e-03,-8.326719515025615692e-03,4.508602432906627655e-03
-1.736215129494667053e-02,1.419950160197913647e-03,-6.565496325492858887e-03,-2.594023384153842926e-02,1.890420727431774139e-02,1.169516798108816147e-02,1.549500666442327201e-05,-5.448718555271625519e-03,1.287091244012117386e-02
-3.733778838068246841e-03,-5.061457864940166473e-03,-3.945551812648773193e-03,-1.929278299212455750e-02,-2.498230896890163422e-02,-1.889395155012607574e-02,2.222528681159019470e-03,-2.344578132033348083e-02,1.161939650774002075e-02
4.729599226266145706e-03,2.081130165606737137e-03,-1.140020228922367096e-02,-1.032132748514413834e-02,-3.246006369590759277e-02,-2.418876625597476959e-02,-1.349615340586751699e-04,-4.534756019711494446e-02,-3.134409897029399872e-03
-2.227902412414550781e-03,1.124812290072441101e-02,4.815447609871625900e-03,-1.791543513536453247e-02,-8.294667117297649384e-03,-1.864447072148323059e-02,-1.452079694718122482e-02,-2.785811945796012878e-02,-1.080614607781171799e-02
7.868741638958454132e-03,5.156597588211297989e-03,7.100660819560289383e-03,-1.677833683788776398e-02,6.168239191174507141e-02,-1.353120245039463043e-02,2.385342027992010117e-03,-2.637249045073986053e-02,6.379301659762859344e-03
-6.029639858752489090e-03,-1.734565757215023041e-02,8.300963672809302807e-04,2.777099376544356346e-03,1.598455244675278664e-03,2.201107889413833618e-02,6.560122128576040268e-03,7.851500995457172394e-03,6.912539247423410416e-03
-7.263627834618091583e-03,-1.777487806975841522e-02,-4.380161699373275042e-04,-2.577511966228485107e-02,3.682235255837440491e-02,-2.433346398174762726e-02,-9.214671328663825989e-03,-3.179192915558815002e-02,-7.611945271492004395e-03
4.148013424128293991e-03,1.521697081625461578e-02,-6.463872734457254410e-03,-1.251837424933910370e-02,-2.994183450937271118e-02,-3.119314275681972504e-02,5.616681650280952454e-03,-4.457802325487136841e-02,-5.619653966277837753e-03
-7.812120951712131500e-03,-5.926417652517557144e-03,-4.376346245408058167e-03,-3.820075467228889465e-02,-1.412426866590976715e-02,-3.904099762439727783e-02,-3.518963931128382683e-04,-3.712410107254981995e-02,-7.952091284096240997e-03
-1.647607423365116119e-03,-1.528145465999841690e-02,1.982101984322071075e-02,-1.148663647472858429e-02,-9.407235775142908096e-04,1.138033927418291569e-03,-2.250745659694075584e-03,-2.241856977343559265e-02,1.215744297951459885e-02
-4.806430544704198837e-03,1.584318466484546661e-02,-8.414350450038909912e-03,-2.819944405928254128e-03,9.549818187952041626e-02,-3.885366022586822510e-03,-4.945384804159402847e-03,2.681627497076988220e-02,-2.316698431968688965e-03
-8.834976324578747153e-05,2.729470143094658852e-03,9.899738244712352753e-03,-9.383325814269483089e-04,9.297414682805538177e-03,1.745935715734958649e-02,6.442728452384471893e-03,1.039831992238759995e-02,1.161410380154848099e-02
2.104946784675121307e-02,4.853972047567367554e-02,1.001560129225254059e-02,2.545065246522426605e-02,5.342878028750419617e-02,-5.216602236032485962e-03,1.308143418282270432e-02,1.347566302865743637e-02,6.997610442340373993e-03
5.714335013180971146e-03,-1.206907629966735840e-02,-1.676641777157783508e-02,-4.849532619118690491e-02,7.422982156276702881e-02,-4.405181854963302612e-02,1.863807626068592072e-02,-5.314213037490844727e-02,-2.531494712457060814e-03
2.529220189899206161e-03,-7.783696521073579788e-03,1.350911683402955532e-03,4.647238180041313171e-02,8.398970961570739746e-02,1.481367088854312897e-02,-4.593241494148969650e-03,-8.717679418623447418e-03,-9.358528186567127705e-04
1.138137560337781906e-02,-1.201704330742359161e-02,-8.359415456652641296e-03,-3.431703150272369385e-02,-3.533154726028442383e-02,-2.741082198917865753e-02,-6.416371092200279236e-03,-4.663323611021041870e-02,-3.191172378137707710e-03
-2.044303342700004578e-03,-1.497886981815099716e-02,2.661496866494417191e-03,-2.319733612239360809e-02,4.703823477029800415e-02,-1.863402500748634338e-02,-4.251477948855608702e-04,-3.819403797388076782e-02,-3.270106390118598938e-03
-7.005822262726724148e-04,5.139686167240142822e-03,7.275952026247978210e-03,-3.169073024764657021e-03,3.188045695424079895e-02,1.737849973142147064e-02,-4.186514299362897873e-03,1.938486821018159389e-03,1.391427498310804367e-02
8.114057593047618866e-03,-1.133482530713081360e-02,-6.345773581415414810e-03,1.640629605390131474e-03,2.159084752202033997e-02,2.937639364972710609e-04,1.746513321995735168e-02,-9.709240868687629700e-03,1.230244245380163193e-02
-3.696588100865483284e-03,-1.352658588439226151e-02,-9.708584286272525787e-03,-2.406555600464344025e-02,-3.411006182432174683e-02,-5.597612354904413223e-03,8.562583825550973415e-04,-1.928213424980640411e-02,1.612414978444576263e-02
1.601136289536952972e-02,9.672147571109235287e-04,-6.174593698233366013e-03,2.488801255822181702e-02,2.711496874690055847e-02,-3.624125942587852478e-02,4.972734488546848297e-03,-1.584701798856258392e-02,-9.419805370271205902e-03
4.903546068817377090e-03,-2.237882837653160095e-02,-6.836393848061561584e-03,-2.224101684987545013e-02,4.642438888549804688e-02,-3.573984652757644653e-02,3.347062040120363235e-03,-3.290281444787979126e-02,5.512050702236592770e-04
1.507380977272987366e-03,2.193323569372296333e-03,9.530592709779739380e-03,4.087414592504501343e-02,4.289022460579872131e-02,4.886129125952720642e-02,-7.456579478457570076e-04,-2.326573012396693230e-03,6.925228051841259003e-03
7.696254644542932510e-03,-6.483572069555521011e-03,4.701753612607717514e-03,-2.514035813510417938e-02,3.171167150139808655e-02,-2.108798176050186157e-02,9.374455548822879791e-04,-1.702539622783660889e-02,3.486675210297107697e-03
-5.471004173159599304e-03,3.419924061745405197e-03,-8.800799027085304260e-03,-1.331221591681241989e-02,3.542518010362982750e-03,-1.785908453166484833e-02,-2.097178716212511063e-03,-1.776741445064544678e-02,1.547702820971608162e-03
-4.435684066265821457e-03,1.825515553355216980e-02,1.631269976496696472e-02,-3.761612996459007263e-02,-1.411799807101488113e-02,-1.951720751821994781e-02,-7.859290577471256256e-03,-2.178660593926906586e-02,-2.333219861611723900e-03
4.808964207768440247e-03,-1.586066931486129761e-02,-4.441392142325639725e-03,-2.798966132104396820e-02,4.987113550305366516e-02,-2.394434064626693726e-02,-7.493401644751429558e-04,-4.156432673335075378e-02,1.564043806865811348e-03
8.742869831621646881e-03,6.559650879353284836e-03,-1.553298556245863438e-03,-1.920829154551029205e-02,-1.745871268212795258e-02,-3.027416579425334930e-02,9.966849349439144135e-03,-3.463692963123321533e-02,9.087548591196537018e-03
3.165303263813257217e-03,4.181758966296911240e-03,-4.641449078917503357e-03,-1.456493604928255081e-02,1.322024385444819927e-03,-5.063738208264112473e-03,-2.942729508504271507e-03,-2.300756238400936127e-02,3.689592238515615463e-03
-3.051625681109726429e-04,1.523330807685852051e-02,-3.243160434067249298e-03,-1.557125523686408997e-02,-2.108679711818695068e-02,-5.323777906596660614e-03,7.099303184077143669e-04,-1.103744003921747208e-02,9.045743383467197418e-03
-6.190644577145576477e-03,-5.724757444113492966e-03,-2.255849912762641907e-02,-1.360576692968606949e-02,-4.338547959923744202e-02,-1.473137550055980682e-02,-1.158403325825929642e-02,-1.567983441054821014e-02,-1.268196385353803635e-02
-6.695934105664491653e-03,-1.202660426497459412e-02,1.445236965082585812e-03,-1.579943299293518066e-02,3.346109017729759216e-02,3.550490364432334900e-04,1.088286750018596649e-02,-1.330568082630634308e-02,2.021507918834686279e-02
8.443256840109825134e-03,9.460321743972599506e-04,-2.845141105353832245e-03,1.791893877089023590e-02,1.429909002035856247e-02,-1.083421302610076964e-04,7.559705991297960281e-03,-5.920272320508956909e-03,-1.312583032995462418e-02
5.692471284419298172e-03,-2.138528041541576385e-02,-8.210579864680767059e-03,-3.017743118107318878e-02,6.235577166080474854e-02,-2.025646530091762543e-02,1.072257477790117264e-02,-4.020830243825912476e-02,2.949522808194160461e-03
7.707575336098670959e-03,1.721439138054847717e-02,4.464201163500547409e-03,2.433066442608833313e-02,4.729770123958587646e-02,3.422351181507110596e-02,-6.075611338019371033e-03,1.923346519470214844e-02,-4.873936064541339874e-03
-5.749370437115430832e-03,1.633121445775032043e-02,2.108284644782543182e-02,-2.570520713925361633e-02,-4.015231970697641373e-03,1.064500492066144943e-02,-2.624687040224671364e-04,-2.347018755972385406e-02,1.664757914841175079e-02
1.204141043126583099e-02,-6.594114936888217926e-03,-2.103759208694100380e-03,3.077352792024612427e-02,-2.599620819091796875e-02,-1.289335079491138458e-02,1.036872155964374542e-02,5.928811151534318924e-03,-2.621535770595073700e-02
-3.988224081695079803e-03,-1.158096711151301861e-03,-1.390332123264670372e-03,-2.576942928135395050e-02,1.308250799775123596e-02,-2.409441582858562469e-02,2.807609736919403076e-03,-2.239407971501350403e-02,6.384025327861309052e-03
9.681754745543003082e-03,8.272320032119750977e-03,-3.832472953945398331e-03,-2.085109055042266846e-02,-1.994729042053222656e-02,-1.987414062023162842e-02,2.932334609795361757e-04,-3.728644177317619324e-02,-4.731383174657821655e-03
1.239733421243727207e-03,-5.842106882482767105e-03,-1.033108308911323547e-02,-3.362666070461273193e-02,-4.916786216199398041e-03,-3.478632122278213501e-02,1.806103065609931946e-02,-2.017653733491897583e-02,8.368334732949733734e-03
1.244361139833927155e-02,-3.413421800360083580e-03,9.372326545417308807e-03,-1.063757110387086868e-03,-2.475788816809654236e-02,2.338630892336368561e-02,8.085010573267936707e-03,5.392197053879499435e-03,2.012673206627368927e-02
6.320942658931016922e-03,8.957608602941036224e-03,9.146339260041713715e-03,-1.391605660319328308e-02,-2.862149663269519806e-02,-1.764572411775588989e-02,5.566619336605072021e-03,-2.834160067141056061e-02,6.493003573268651962e-03
8.528167963959276676e-04,1.597760803997516632e-02,9.978329762816429138e-03,-1.884184777736663818e-02,-1.064938213676214218e-02,4.123254329897463322e-04,4.755250178277492523e-03,-2.768542990088462830e-02,1.017621345818042755e-02
4.130033194087445736e-04,5.180149804800748825e-03,5.360981915146112442e-03,-3.476586565375328064e-02,4.267881065607070923e-02,-1.484315469861030579e-02,-1.114100450649857521e-03,-2.138382755219936371e-02,1.296056434512138367e-02
-3.179846797138452530e-03,3.464481234550476074e-02,-3.172169253230094910e-02,1.765877194702625275e-02,2.668988145887851715e-02,6.865474395453929901e-03,-6.417515221983194351e-03,2.057303488254547119e-02,-2.163456007838249207e-02
9.087483631446957588e-04,-1.134906429797410965e-02,-5.139919463545084000e-03,-3.585336729884147644e-02,5.375901237130165100e-02,-2.924785204231739044e-02,9.676008485257625580e-03,-4.647280275821685791e-02,-2.851563505828380585e-03
-2.512313425540924072e-02,-4.071885719895362854e-03,-1.027489360421895981e-02,-1.377882994711399078e-02,-4.082716535776853561e-03,-1.655437611043453217e-02,-1.940380968153476715e-02,6.726325489580631256e-03,-1.423027832061052322e-02
-7.938315160572528839e-03,-1.285272929817438126e-02,1.550197228789329529e-02,-1.599346660077571869e-02,1.316882902756333351e-03,-8.730153553187847137e-03,4.300616215914487839e-03,-6.477194838225841522e-03,1.814690046012401581e-02
-1.389219053089618683e-02,-1.264240406453609467e-02,-2.079554600641131401e-03,-4.664667695760726929e-02,5.564874783158302307e-02,-1.763443462550640106e-02,-1.068662106990814209e-02,-3.567181155085563660e-02,1.394580304622650146e-02
1.375106396153569221e-03,-1.603248156607151031e-02,6.283155642449855804e-03,6.233419757336378098e-03,-5.086085759103298187e-03,1.695116050541400909e-02,-6.306647788733243942e-03,-5.509230308234691620e-03,-2.234581479569897056e-04
1.414354075677692890e-03,-1.704587973654270172e-02,-2.096876129508018494e-02,-2.724293619394302368e-02,6.933780014514923096e-02,-3.889257460832595825e-02,9.187930263578891754e-03,-3.207873180508613586e-02,4.013944417238235474e-03
5.644948221743106842e-03,-1.480822730809450150e-02,3.026962978765368462e-03,-4.428733885288238525e-02,-2.596825361251831055e-02,-3.153977915644645691e-02,-5.982888862490653992e-03,-4.439013823866844177e-02,-2.070937771350145340e-03
4.302958957850933075e-03,2.701774425804615021e-02,9.695725515484809875e-03,-2.600630978122353554e-03,-1.643476262688636780e-02,-1.190403592772781849e-03,9.795103222131729126e-03,-2.148886583745479584e-02,-2.026294096140190959e-04
1.112745888531208038e-02,5.121842026710510254e-03,9.594788774847984314e-03,-1.030297717079520226e-03,1.738710887730121613e-02,-1.755042374134063721e-02,-7.799202110618352890e-03,4.706135950982570648e-03,-5.691286642104387283e-03
1.521696615964174271e-02,-1.860148645937442780e-02,-6.775779183954000473e-03,2.824080735445022583e-02,9.184695780277252197e-03,8.099683560431003571e-03,4.009099677205085754e-02,-9.643353987485170364e-04,-8.960091508924961090e-03
2.969939447939395905e-02,8.927678689360618591e-03,1.956570707261562347e-02,5.382036417722702026e-02,1.260972116142511368e-03,2.476280368864536285e-02,3.530183807015419006e-02,3.572111949324607849e-02,2.086773701012134552e-02
-6.816392215114319697e-07,-2.401357335202192189e-07,6.751187697773275431e-08,2.078834313579136506e-07,2.114243784490099642e-07,3.345076891037024325e-07,-6.300275856574444333e-08,7.244865400934941135e-07,-1.333334953557141489e-08
-4.414153285324573517e-03,-1.054363907314836979e-03,3.631345182657241821e-02,-5.008381977677345276e-02,-3.974005952477455139e-02,8.155588293448090553e-04,1.323772873729467392e-02,2.511865645647048950e-02,3.763245791196823120e-02
-1.843528263270854950e-02,9.466287447139620781e-04,1.742011494934558868e-02,-4.662577528506517410e-03,-1.723236590623855591e-02,2.501979935914278030e-03,1.048200950026512146e-02,1.629092358052730560e-02,-2.004265319555997849e-03
-1.452021766453981400e-02,-2.975923962367232889e-05,1.901177689433097839e-02,-1.120368670672178268e-02,-3.808461874723434448e-02,6.437222007662057877e-03,-2.484005410224199295e-03,8.160885423421859741e-03,2.318863756954669952e-03
-2.195155248045921326e-02,-1.640758104622364044e-02,5.378103815019130707e-03,-3.116329945623874664e-02,-1.781246438622474670e-02,-1.880700886249542236e-02,-5.605310667306184769e-03,-2.324477210640907288e-02,3.197867795825004578e-02
-5.617236020043492317e-04,-1.078504486940801144e-03,-2.042821794748306274e-02,2.004363387823104858e-02,1.377370208501815796e-04,-1.386919710785150528e-02,-1.841350272297859192e-02,-2.627122774720191956e-02,-1.125306263566017151e-02
-4.781896248459815979e-03,-1.843377976911142468e-04,1.235583145171403885e-02,-1.635821885429322720e-03,1.268442440778017044e-02,1.828263886272907257e-02,-7.694945670664310455e-03,-9.204625152051448822e-03,-1.079620444215834141e-03
-2.126853913068771362e-02,2.537970058619976044e-02,4.902917891740798950e-03,2.592947334051132202e-02,4.012298583984375000e-02,5.359876900911331177e-02,1.836891472339630127e-02,6.634961813688278198e-02,1.809495873749256134e-02
3.382193157449364662e-03,1.793273165822029114e-02,1.097842119634151459e-02,4.374029580503702164e-03,1.668869331479072571e-02,-7.480712607502937317e-03,2.360924612730741501e-03,1.002762187272310257e-02,1.937098801136016846e-03
-1.486328663304448128e-03,4.798507317900657654e-03,-9.638470597565174103e-03,9.377314709126949310e-03,5.117862019687891006e-04,-3.110181540250778198e-02,-3.049983642995357513e-02,8.085923269391059875e-03,-1.874514855444431305e-02
-2.252424880862236023e-02,-2.161110192537307739e-02,-2.752306126058101654e-02,-2.796620829030871391e-03,-1.445627212524414062e-02,-4.726154264062643051e-03,6.075332057662308216e-04,-1.042813342064619064e-02,-2.159220352768898010e-02
-3.374152258038520813e-02,-2.053321897983551025e-02,-8.511837571859359741e-03,-2.299500070512294769e-02,-7.518817484378814697e-02,-3.675795346498489380e-02,-7.811542134732007980e-03,-3.753118589520454407e-02,-3.339152410626411438e-02
-3.249717131257057190e-02,-4.122975282371044159e-03,6.068448070436716080e-03,-1.302792597562074661e-02,-4.321099817752838135e-02,-1.295642228797078133e-03,-3.701702225953340530e-03,-1.169033721089363098e-02,8.802942931652069092e-03
1.504089031368494034e-02,2.332878299057483673e-02,3.606826998293399811e-03,-1.600727438926696777e-02,-2.703931927680969238e-02,-3.879673033952713013e-02,-3.744986653327941895e-02,-3.391450271010398865e-02,-1.514714304357767105e-02
-1.106169354170560837e-02,-1.176344114355742931e-03,-1.276436727494001389e-02,1.135671976953744888e-03,2.094549313187599182e-02,1.667281426489353180e-02,-1.874261908233165741e-02,7.614812813699245453e-03,8.933512493968009949e-03
-1.352564617991447449e-02,-2.412824146449565887e-02,-1.728095859289169312e-02,1.478129345923662186e-02,2.276860363781452179e-02,-3.489546943455934525e-03,-1.432276703417301178e-02,1.768200285732746124e-02,-1.854651421308517456e-02
3.616744943428784609e-04,-1.413976890034973621e-03,-4.008264746516942978e-03,-1.513944822363555431e-03,-4.416116327047348022e-02,-2.799034863710403442e-02,-5.993420723825693130e-03,-2.103369310498237610e-02,-1.594102568924427032e-02
-1.234393753111362457e-02,8.297352120280265808e-03,-5.691657774150371552e-03,-1.988875493407249451e-02,1.238486263900995255e-02,-2.031458169221878052e-02,-6.218956783413887024e-02,-4.663042724132537842e-02,-3.993996232748031616e-02
-1.060358621180057526e-02,-1.338626537472009659e-02,2.312150551006197929e-03,-1.742859184741973877e-02,-3.323334455490112305e-02,-4.629523027688264847e-03,1.315095229074358940e-03,-5.648704245686531067e-03,1.071923412382602692e-02
-1.640952192246913910e-02,-8.428847417235374451e-03,-2.129214257001876831e-02,1.015680376440286636e-02,-8.501862175762653351e-03,-7.947291247546672821e-03,-2.212365716695785522e-02,-4.479321464896202087e-02,1.167642790824174881e-02
1.217321213334798813e-02,1.523403637111186981e-02,1.893080398440361023e-02,2.566512115299701691e-02,-5.654454696923494339e-03,2.610955573618412018e-02,4.242509230971336365e-02,1.611887104809284210e-02,3.206463903188705444e-02
-4.273644648492336273e-03,-3.494681324809789658e-03,-1.250346377491950989e-02,-2.810597419738769531e-02,2.654857002198696136e-02,1.836061826907098293e-03,5.391160026192665100e-03,-2.158056572079658508e-02,-4.256031010299921036e-03
-6.576900370419025421e-03,-5.122988950461149216e-03,1.157357916235923767e-02,-1.658830046653747559e-02,-6.780526600778102875e-03,1.499391160905361176e-02,-1.419116090983152390e-02,-1.009135227650403976e-02,3.925816621631383896e-03
-2.574889920651912689e-02,1.344124041497707367e-02,1.260423753410577774e-02,7.202790584415197372e-03,6.096532568335533142e-02,1.041442062705755234e-02,-4.125339910387992859e-03,1.333884242922067642e-02,7.932038046419620514e-03
1.715912297368049622e-02,2.292961999773979187e-02,-1.333787571638822556e-02,1.432973053306341171e-02,6.662734597921371460e-02,9.401212446391582489e-03,1.246435940265655518e-02,5.100861564278602600e-02,3.054316528141498566e-02
3.609456494450569153e-02,3.166698291897773743e-02,-2.285557240247726440e-02,5.100068822503089905e-02,3.879417851567268372e-02,-4.445552825927734375e-02,1.067937631160020828e-02,1.583485491573810577e-02,-2.956022135913372040e-02
-7.727387826889753342e-03,1.340157538652420044e-02,-3.052969463169574738e-03,3.034551627933979034e-03,-3.534126561135053635e-03,-2.679531462490558624e-02,-7.091458421200513840e-03,1.805065199732780457e-02,-1.063623651862144470e-02
-2.680303156375885010e-02,5.139934830367565155e-03,-7.946061901748180389e-03,3.295303136110305786e-02,9.377696551382541656e-03,-1.931334700202569366e-04,7.948659360408782959e-03,3.154987841844558716e-02,2.439306862652301788e-02
-3.549250075593590736e-03,5.477528087794780731e-03,4.215897247195243835e-02,2.841034159064292908e-02,1.926630362868309021e-02,4.881752282381057739e-02,3.088574111461639404e-02,1.064307428896427155e-02,1.429268624633550644e-03
1.755895651876926422e-02,1.703003980219364166e-02,1.225713267922401428e-02,1.556708291172981262e-02,9.079168667085468769e-04,1.221056096255779266e-02,9.017296135425567627e-03,-2.417888864874839783e-02,-4.403574857860803604e-03
-2.789757587015628815e-02,-2.127835154533386230e-02,6.580004264833405614e-05,-3.709683194756507874e-02,-3.188755363225936890e-02,-2.629257738590240479e-02,-9.892587549984455109e-03,-8.562129922211170197e-03,7.867628592066466808e-04
1.552686590002849698e-04,-1.594893634319305420e-02,-4.391349107027053833e-02,-2.914523007348179817e-03,-8.767453953623771667e-03,-2.089267782866954803e-02,2.282693982124328613e-02,2.281095832586288452e-02,-3.768166527152061462e-03
2.118075452744960785e-02,2.130223996937274933e-02,1.091155875474214554e-02,2.007222361862659454e-02,1.974242180585861206e-02,7.869265973567962646e-03,-6.680960301309823990e-03,3.043358679860830307e-03,1.629812526516616344e-03
-2.611626312136650085e-02,-1.292028278112411499e-02,-1.044199243187904358e-02,-9.969834238290786743e-03,1.661289483308792114e-02,1.520596444606781006e-02,-4.559379816055297852e-02,-2.846036106348037720e-02,-1.942558772861957550e-02
-3.063546959310770035e-03,-7.426279131323099136e-03,-3.223604336380958557e-02,-4.246617108583450317e-02,3.105525672435760498e-02,2.264807000756263733e-03,-4.110109433531761169e-02,-4.059849679470062256e-02,-2.576349489390850067e-02
2.237504348158836365e-02,-3.336155042052268982e-02,1.098740287125110626e-02,2.255690284073352814e-02,-2.246112376451492310e-02,-3.166102245450019836e-02,1.713769882917404175e-02,1.130367256700992584e-02,-2.610077522695064545e-02
-2.232067659497261047e-02,-9.251844021491706371e-04,-1.214190013706684113e-02,-3.278612717986106873e-02,-2.218121662735939026e-02,-2.034039609134197235e-02,-1.671784743666648865e-02,-1.633821427822113037e-02,-2.700310666114091873e-03
4.308326635509729385e-03,1.565884985029697418e-02,9.763051755726337433e-03,1.398198655806481838e-03,2.970726974308490753e-02,-1.216116477735340595e-03,-1.943225227296352386e-02,4.837308079004287720e-02,2.652118541300296783e-02
2.248190343379974365e-02,5.499526858329772949e-03,1.821755082346498966e-03,1.319371256977319717e-02,2.605523169040679932e-02,1.715526171028614044e-02,2.500269562005996704e-02,8.424459956586360931e-03,3.464212641119956970e-02
2.192718721926212311e-02,-2.941406564787030220e-03,1.457672659307718277e-02,3.403364494442939758e-02,8.738845586776733398e-03,-4.047192167490720749e-03,1.390275731682777405e-02,-1.656847260892391205e-02,4.933357704430818558e-04
2.490919083356857300e-02,8.505803532898426056e-03,-1.153958681970834732e-02,2.393757738173007965e-02,-1.402592845261096954e-02,-2.194836549460887909e-02,-2.527106367051601410e-02,-6.838605273514986038e-03,-1.997387036681175232e-02
-6.819856353104114532e-03,2.408323809504508972e-02,1.823620870709419250e-02,-1.585070416331291199e-02,2.686425857245922089e-02,-1.129374001175165176e-02,1.039828523062169552e-03,1.317563839256763458e-02,4.981380328536033630e-02
-5.376233602873980999e-04,-1.896835118532180786e-02,4.832378472201526165e-04,-7.830034941434860229e-03,-1.101897843182086945e-02,-7.518012076616287231e-03,-4.201396368443965912e-03,-1.600111275911331177e-02,-6.863629911094903946e-03
-1.766482926905155182e-02,-3.595839813351631165e-02,-1.580116455443203449e-03,1.722859218716621399e-02,-1.174375228583812714e-02,-4.533370956778526306e-03,2.076304890215396881e-02,-2.529711835086345673e-02,5.626221187412738800e-03
-1.383192557841539383e-02,-3.528941888362169266e-03,-2.668865257874131203e-03,-7.147508114576339722e-02,-1.773769967257976532e-02,-5.929508246481418610e-03,-1.641969196498394012e-02,-2.943136356770992279e-02,-4.679531231522560120e-02
9.207631461322307587e-03,-1.272806525230407715e-02,8.210854604840278625e-03,2.377682179212570190e-02,-5.434767901897430420e-02,-6.779839750379323959e-03,1.169324945658445358e-02,-2.424726448953151703e-02,1.387402508407831192e-02
-1.345348544418811798e-02,-1.556857768446207047e-02,-2.703785151243209839e-02,7.355225272476673126e-03,-1.129713188856840134e-02,-2.479171752929687500e-02,3.636565431952476501e-02,2.891600318253040314e-02,1.725328713655471802e-02
4.290848504751920700e-03,3.338045254349708557e-02,2.187852747738361359e-02,-3.234424628317356110e-03,5.458672996610403061e-03,2.391900680959224701e-02,-2.855544909834861755e-02,1.998640410602092743e-02,3.411370143294334412e-02
-3.470642119646072388e-02,1.076163072139024734e-02,-2.741671539843082428e-02,-2.720728144049644470e-02,6.446727365255355835e-02,-5.539973452687263489e-02,-2.526838518679141998e-02,4.152056574821472168e-02,-7.995487004518508911e-02
5.353586748242378235e-03,-8.972647599875926971e-03,2.119106426835060120e-02,1.068638404831290245e-03,1.749837026000022888e-02,3.467086935415863991e-03,4.602528177201747894e-03,1.581085962243378162e-03,8.256336674094200134e-03
1.345570106059312820e-02,1.920282025821506977e-03,3.105223923921585083e-02,6.069444585591554642e-03,1.122654788196086884e-02,-3.970032092183828354e-03,-1.652530394494533539e-02,9.380375966429710388e-03,-1.238037832081317902e-02
-1.646797358989715576e-02,1.241819583810865879e-03,-1.100529171526432037e-02,1.135159004479646683e-02,-3.244697675108909607e-02,-1.594001427292823792e-02,2.819708175957202911e-02,7.597239688038825989e-03,2.263753488659858704e-02
-5.287467967718839645e-03,-1.589753106236457825e-02,1.036635693162679672e-02,-4.847678169608116150e-02,-2.278310805559158325e-02,-1.461567881051450968e-04,-3.711284697055816650e-02,-1.787577383220195770e-02,2.786209434270858765e-02
-2.079827524721622467e-02,-3.767772112041711807e-03,-2.294600475579500198e-03,-1.705021224915981293e-02,1.044855453073978424e-02,1.228358037769794464e-02,-2.916369587182998657e-03,-2.054847031831741333e-02,-1.052231341600418091e-02
5.908462777733802795e-02,2.746738307178020477e-02,2.101103216409683228e-02,3.077032230794429779e-02,2.517585456371307373e-02,4.916706122457981110e-03,1.723693497478961945e-02,1.990759372711181641e-02,-1.340219378471374512e-02
1.682399399578571320e-02,1.571390964090824127e-02,-3.407309297472238541e-03,1.308607589453458786e-02,-7.496497128158807755e-03,-1.828151568770408630e-02,-1.244187541306018829e-02,-2.556378766894340515e-02,-8.157869800925254822e-03
-2.190069761127233505e-03,1.644878834486007690e-02,1.554125640541315079e-02,5.570462672039866447e-04,2.543662302196025848e-02,3.358262404799461365e-02,6.130788940936326981e-03,1.900143921375274658e-02,-1.602818816900253296e-02
-1.330079417675733566e-02,-2.877325285226106644e-03,1.091197691857814789e-02,-1.888482086360454559e-02,-1.601323671638965607e-02,-2.342986129224300385e-02,-1.915020681917667389e-02,-2.439945191144943237e-02,-5.160234402865171432e-03
3.640539944171905518e-02,-1.260535232722759247e-02,7.065094541758298874e-03,1.696270308457314968e-03,-1.756246015429496765e-02,-2.523585222661495209e-02,1.060845702886581421e-02,-3.235040605068206787e-02,-2.400800772011280060e-02
2.168145962059497833e-02,2.682678773999214172e-02,1.240688934922218323e-02,2.439156919717788696e-02,2.344368956983089447e-02,2.108456380665302277e-02,-1.462574768811464310e-02,1.455154502764344215e-03,-1.775501878000795841e-04
-6.303875893354415894e-02,-4.767126217484474182e-02,-2.477493882179260254e-02,-1.455665566027164459e-03,2.939716912806034088e-02,6.462601479142904282e-03,6.078111007809638977e-03,3.669334203004837036e-02,3.841012716293334961e-02
8.645591326057910919e-03,4.065058194100856781e-03,5.420078523457050323e-03,-6.654403638094663620e-03,-2.882382832467556000e-02,-2.230857685208320618e-02,-1.027762051671743393e-02,-1.032333634793758392e-02,-9.020901285111904144e-03
6.265106610953807831e-03,-3.712616860866546631e-02,1.654691062867641449e-02,-1.713227666914463043e-02,-2.983376325573772192e-04,-4.109090194106101990e-02,8.463553152978420258e-03,-2.056376263499259949e-02,6.534388754516839981e-03
-1.439388655126094818e-02,-2.742360532283782959e-02,5.992583464831113815e-03,-3.432049229741096497e-02,1.518786698579788208e-02,-2.713202685117721558e-02,-8.465123362839221954e-03,-1.687982864677906036e-02,-3.769203322008252144e-03
-4.238516169152717339e-07,9.989362226292541891e-09,2.171179147580915014e-07,9.547788692998437909e-08,-1.155326927460009756e-07,-4.890666787105146796e-07,-7.199881792985252105e-07,-2.564009662364696851e-07,-4.096265229236450978e-07
-3.745652968063950539e-03,1.395354920532554388e-04,2.156545873731374741e-03,-2.873210236430168152e-02,2.732074074447154999e-02,-1.868999190628528595e-02,-2.157900296151638031e-02,-1.949007622897624969e-02,1.668630051426589489e-03
-1.249604276381433010e-03,-3.281860426068305969e-02,1.109292916953563690e-02,-1.274136919528245926e-02,6.460403650999069214e-02,-4.896122589707374573e-02,1.979348016902804375e-03,-1.062469277530908585e-02,-4.383269697427749634e-04
4.142201505601406097e-03,-3.045231290161609650e-02,-5.011980421841144562e-03,1.675980538129806519e-02,5.562974512577056885e-02,-3.334689140319824219e-02,-1.106327865272760391e-02,-9.206618182361125946e-03,-8.200279437005519867e-03
-3.518071025609970093e-03,-2.692954242229461670e-02,1.708397641777992249e-02,-1.493537798523902893e-02,7.449755817651748657e-02,-2.038087323307991028e-02,-1.044348627328872681e-02,-1.328482944518327713e-02,1.229484658688306808e-02
-9.779141284525394440e-03,-4.790148884057998657e-02,2.101165056228637695e-02,-4.195523913949728012e-03,-1.099095330573618412e-03,-5.269525200128555298e-02,1.355762872844934464e-02,-1.951494626700878143e-02,1.499161962419748306e-02
-2.674408024176955223e-03,2.328195236623287201e-02,-7.654738728888332844e-04,-2.385369502007961273e-02,7.987978868186473846e-03,-2.732300199568271637e-03,-2.191771985962986946e-03,-7.816391065716743469e-03,-1.335156429558992386e-02
-3.833144437521696091e-03,-2.549899742007255554e-02,1.817378215491771698e-02,-5.666952114552259445e-03,2.431558445096015930e-02,-2.222411334514617920e-02,-1.690026000142097473e-02,-2.128643169999122620e-02,-4.906169604510068893e-03
2.307201968505978584e-03,-7.164833601564168930e-03,4.601007793098688126e-03,-6.438017357140779495e-03,-1.565095968544483185e-02,-3.735768608748912811e-03,-1.738416776061058044e-02,-1.558956410735845566e-02,-8.245550096035003662e-03
-1.237553916871547699e-02,-4.216999933123588562e-02,1.310666411882266402e-04,-2.505502104759216309e-02,-3.671927750110626221e-02,-1.914994977414608002e-02,-1.403464004397392273e-02,-3.336170688271522522e-02,-6.562673486769199371e-03
-1.317834248766303062e-03,-5.109756812453269958e-02,5.454775877296924591e-03,-8.074450306594371796e-03,-2.692436054348945618e-02,-3.334296122193336487e-02,2.708020154386758804e-03,-1.409884449094533920e-02,2.857058076187968254e-03
1.174281071871519089e-02,-3.100692853331565857e-02,5.082176066935062408e-03,2.816688641905784607e-02,5.430148914456367493e-02,-3.823471069335937500e-02,1.374412141740322113e-02,-3.596153575927019119e-03,5.405707750469446182e-03
9.736465290188789368e-03,-3.393548354506492615e-02,6.873576901853084564e-03,1.568863284774124622e-03,8.994287997484207153e-02,-3.228004276752471924e-02,-1.433352241292595863e-03,-1.212747022509574890e-02,6.665866822004318237e-03
-1.515575591474771500e-02,-2.479377761483192444e-02,-3.820878267288208008e-02,6.887257099151611328e-03,1.137265283614397049e-02,2.108685113489627838e-02,4.052758961915969849e-02,4.352208971977233887e-02,4.215997830033302307e-02
4.638436716049909592e-03,-2.141241356730461121e-02,1.245988719165325165e-02,-1.286532822996377945e-02,-9.564842097461223602e-03,-2.499445900321006775e-02,-4.592556972056627274e-03,-1.896226592361927032e-02,-4.894949030131101608e-03
1.366212405264377594e-02,-4.058295488357543945e-02,1.486802659928798676e-02,-1.185014843940734863e-02,-3.158403933048248291e-02,-4.271664470434188843e-02,7.098319940268993378e-03,-2.005587890744209290e-02,7.913677021861076355e-03
1.273085456341505051e-02,-2.570258826017379761e-02,1.131194736808538437e-02,1.066079922020435333e-02,5.990367382764816284e-02,-2.344170212745666504e-02,-6.358760874718427658e-03,-2.498244680464267731e-02,-6.840704008936882019e-03
2.179508469998836517e-02,-2.858826890587806702e-02,6.081473082304000854e-03,-1.065824087709188461e-02,-7.134494837373495102e-03,-8.998400880955159664e-04,-2.802782226353883743e-03,-1.142040174454450607e-02,1.020027417689561844e-02
-1.077205128967761993e-02,4.535828530788421631e-02,4.927476402372121811e-04,2.428378909826278687e-03,1.049322038888931274e-01,2.369262976571917534e-03,-1.245249644853174686e-03,2.877543307840824127e-02,-3.162011562380939722e-04
2.807011827826499939e-03,-8.734089322388172150e-03,8.819555863738059998e-03,-2.472696453332901001e-02,-2.538280189037322998e-02,2.312979660928249359e-02,-2.509052678942680359e-02,1.577379589434713125e-04,-5.460049957036972046e-03
-3.660028800368309021e-03,3.333572763949632645e-03,1.362732239067554474e-02,-7.184516172856092453e-03,2.780564874410629272e-02,-1.006338861770927906e-03,-3.638050286099314690e-03,4.576067905873060226e-03,1.542742177844047546e-02
-6.601650733500719070e-03,-4.561252146959304810e-02,2.160584181547164917e-02,-2.673249132931232452e-02,1.179301273077726364e-02,-5.134566500782966614e-02,-2.639795420691370964e-03,-2.389781549572944641e-02,7.744429167360067368e-03
-5.994426901452243328e-04,6.329301977530121803e-04,1.962330890819430351e-03,1.891456544399261475e-02,3.789513185620307922e-02,7.588438689708709717e-03,-1.605953322723507881e-03,-9.181795641779899597e-03,-6.756988819688558578e-03
9.451821679249405861e-04,-3.429908305406570435e-02,2.922742394730448723e-03,-1.526451762765645981e-02,-7.650861144065856934e-02,-5.550353229045867920e-02,-4.236656241118907928e-03,-3.371107578277587891e-02,-3.884851466864347458e-04
8.754896000027656555e-03,-1.858397014439105988e-02,1.228415966033935547e-02,2.818175964057445526e-02,-2.791425585746765137e-02,-3.339294716715812683e-02,-2.983282320201396942e-03,-3.701775521039962769e-02,-2.102142665535211563e-03
-1.971471495926380157e-02,-1.086925528943538666e-02,1.726875081658363342e-02,-5.237892642617225647e-02,-1.236162614077329636e-02,3.845547512173652649e-02,-1.036913692951202393e-02,-1.727098971605300903e-02,4.412428289651870728e-02
4.498786438489332795e-05,-1.384570635855197906e-02,6.748090963810682297e-03,-1.267653540708124638e-03,-2.593672834336757660e-02,-1.140078529715538025e-02,-9.900948964059352875e-03,-1.893555000424385071e-02,4.540543071925640106e-03
1.581484568305313587e-03,-2.689561061561107635e-02,1.099012233316898346e-02,-1.142587978392839432e-02,-3.973093989770859480e-04,-3.463218361139297485e-02,-2.997680567204952240e-04,-1.085804216563701630e-02,3.270284505560994148e-03
-1.363931223750114441e-04,-2.144853584468364716e-02,1.019145548343658447e-02,-6.871178280562162399e-03,6.717366632074117661e-03,-1.655663736164569855e-02,-3.258340433239936829e-02,-6.499697268009185791e-02,-1.064295414835214615e-02
6.130388937890529633e-03,-3.438937291502952576e-02,6.701255682855844498e-03,7.101534400135278702e-03,4.506303369998931885e-02,-2.764760330319404602e-02,5.264467094093561172e-03,1.700855325907468796e-03,6.587114650756120682e-03
-1.001502666622400284e-02,-1.182024367153644562e-02,-1.405011210590600967e-02,2.806769683957099915e-02,2.842650935053825378e-02,3.299202024936676025e-02,-3.218387952074408531e-03,-1.359949912875890732e-02,-1.945454627275466919e-02
1.179745886474847794e-03,-2.390386350452899933e-02,1.241248752921819687e-02,-8.954586461186408997e-03,1.239378843456506729e-02,-1.591685228049755096e-02,5.396549589931964874e-03,-6.672672461718320847e-03,4.812654573470354080e-03
-5.512318573892116547e-03,-1.952665112912654877e-02,1.891537941992282867e-02,-7.348875980824232101e-03,1.307547837495803833e-02,-2.080941013991832733e-02,5.879071541130542755e-03,-6.275091320276260376e-03,6.886480376124382019e-03
-5.387162789702415466e-03,-3.313421085476875305e-02,1.019445806741714478e-02,-2.177233435213565826e-02,-4.307612404227256775e-02,-3.813059628009796143e-02,-2.011606842279434204e-02,-3.265767544507980347e-02,1.848210580646991730e-03
5.675603169947862625e-03,-3.572944551706314087e-02,3.262005920987576246e-04,5.886367987841367722e-03,-1.801295951008796692e-02,-4.190932586789131165e-02,-1.371404214296489954e-04,-6.711635738611221313e-03,1.611200347542762756e-02
3.985104151070117950e-03,-4.621281847357749939e-02,3.117714310064911842e-03,7.311924360692501068e-03,2.861017361283302307e-02,-3.518612310290336609e-02,3.643405158072710037e-03,-2.542345598340034485e-02,4.054817371070384979e-03
1.729962043464183807e-02,-1.297295186668634415e-02,1.902337186038494110e-02,2.231236174702644348e-02,-5.269251763820648193e-03,-2.507340908050537109e-02,1.320949755609035492e-02,-8.995280601084232330e-03,-1.147663133451715112e-04
1.099312119185924530e-02,-1.010426785796880722e-04,1.212373934686183929e-02,4.221630282700061798e-03,-1.539757661521434784e-02,-2.399154193699359894e-02,-9.180927649140357971e-03,-2.424055337905883789e-02,4.403312224894762039e-03
-1.810276322066783905e-02,-3.620555996894836426e-02,-1.730250380933284760e-02,-2.150711789727210999e-02,-1.021540630608797073e-02,-2.526917122304439545e-02,-1.124819368124008179e-02,3.484922926872968674e-03,3.816058626398444176e-03
-1.806422602385282516e-03,-1.188118942081928253e-02,1.406290102750062943e-02,-1.082512829452753067e-02,2.741261571645736694e-02,-9.587127715349197388e-03,1.393856713548302650e-03,-1.876744627952575684e-02,6.831895094364881516e-03
3.511818125844001770e-02,2.676120772957801819e-02,-7.921281270682811737e-03,2.723278105258941650e-02,-1.177133992314338684e-02,-4.302887618541717529e-02,3.610778227448463440e-02,-2.458144165575504303e-02,-4.520897194743156433e-02
5.552905146032571793e-03,-3.268316388130187988e-02,1.866520382463932037e-02,1.587126869708299637e-03,5.668522790074348450e-03,-3.507699444890022278e-02,-5.246518645435571671e-03,-2.746996097266674042e-02,-2.085773507133126259e-03
-7.402103859931230545e-03,2.323721535503864288e-02,5.069419741630554199e-03,7.454513106495141983e-03,-1.159883197396993637e-02,1.184512954205274582e-02,4.059587139636278152e-03,1.035639271140098572e-02,-3.508988069370388985e-03
-1.586125977337360382e-02,-2.762180007994174957e-02,2.622451074421405792e-02,-2.575534395873546600e-02,-2.675059996545314789e-02,-1.048470288515090942e-02,-9.966302663087844849e-03,-1.090786769054830074e-03,5.482947919517755508e-03
-3.022198379039764404e-02,-3.363517671823501587e-02,2.618522010743618011e-02,2.063594758510589600e-02,-7.428611814975738525e-02,-2.401747927069664001e-02,4.221277683973312378e-02,1.981613039970397949e-02,1.373512577265501022e-02
8.350469870492815971e-04,-3.646392747759819031e-02,1.473523490130901337e-02,-1.108656171709299088e-02,7.898996025323867798e-02,-5.391554161906242371e-02,4.857859574258327484e-03,-1.188523136079311371e-02,-3.065638011321425438e-03
1.446703914552927017e-02,-2.282119728624820709e-02,8.917816914618015289e-03,1.398565992712974548e-02,2.507523447275161743e-02,-2.051125094294548035e-02,1.494006137363612652e-03,-3.006457909941673279e-02,2.279238542541861534e-03
-5.997536238282918930e-03,-3.679466992616653442e-02,4.136390984058380127e-03,-1.255704555660486221e-02,6.663942709565162659e-03,-5.814041569828987122e-02,-3.443597524892538786e-04,-8.087807334959506989e-03,5.302282050251960754e-03
3.048988804221153259e-02,-2.720693498849868774e-02,1.201439462602138519e-02,2.478602901101112366e-02,-6.674566119909286499e-02,-7.510590832680463791e-03,1.950674876570701599e-02,1.749404240399599075e-03,1.973410509526729584e-02
7.241543382406234741e-03,-2.959025464951992035e-02,2.163963392376899719e-02,-4.616868216544389725e-03,9.388342499732971191e-03,-2.062852680683135986e-02,8.284603245556354523e-03,-9.021918289363384247e-03,1.760393753647804260e-02
-1.669549616053700447e-03,-2.062938548624515533e-02,4.060627426952123642e-03,-1.164141576737165451e-03,-1.746815256774425507e-02,-2.154483832418918610e-02,-1.140674855560064316e-02,-1.793279312551021576e-02,3.752865130081772804e-03
1.196717098355293274e-02,-1.111468672752380371e-02,2.159717865288257599e-02,-1.111894287168979645e-02,6.906513869762420654e-02,-3.727208450436592102e-02,-1.472445391118526459e-02,-3.403132781386375427e-02,1.344845071434974670e-02
4.434488713741302490e-03,5.704259499907493591e-02,-2.619211561977863312e-02,3.877396136522293091e-02,1.922325603663921356e-02,1.328806858509778976e-02,-7.519278675317764282e-03,4.021286591887474060e-02,-2.957439236342906952e-02
-7.028616033494472504e-03,-4.662574827671051025e-02,1.670663245022296906e-02,-7.989532314240932465e-03,-3.430695040151476860e-03,-2.661499753594398499e-02,3.585974336601793766e-04,-3.228544443845748901e-02,2.519862959161400795e-03
1.926760934293270111e-02,-1.637954264879226685e-02,1.257883151993155479e-03,1.790456473827362061e-02,-8.363245055079460144e-03,2.130631171166896820e-02,1.831299252808094025e-02,-7.585638202726840973e-03,4.870194476097822189e-03
-1.886060088872909546e-02,-4.217727482318878174e-02,2.452838001772761345e-03,1.456099282950162888e-02,-3.678936138749122620e-02,-2.824039570987224579e-02,1.101987808942794800e-02,9.318433701992034912e-03,1.396572496742010117e-02
3.631188534200191498e-03,-3.637171164155006409e-02,1.570539735257625580e-02,-8.005165494978427887e-03,8.789664134383201599e-03,-2.043251879513263702e-02,-8.971499279141426086e-03,-1.565648429095745087e-02,1.190681755542755127e-02
4.933381918817758560e-03,-1.211450714617967606e-02,6.213331944309175014e-04,-1.885570818558335304e-03,-2.387183951213955879e-03,7.444550865329802036e-04,5.165997892618179321e-03,-5.131449084728956223e-03,-2.325595851289108396e-04
-7.366951089352369308e-03,-5.017019808292388916e-02,-1.861727447248995304e-03,-2.474980242550373077e-02,6.323701236397027969e-03,-4.873283952474594116e-02,6.273952778428792953e-03,-1.899950392544269562e-02,1.837386935949325562e-02
2.083272859454154968e-02,-3.767615556716918945e-02,1.422229316085577011e-02,-4.125409200787544250e-02,2.176569588482379913e-02,-4.346090182662010193e-02,-8.651522803120315075e-04,-1.690469868481159210e-02,8.702300488948822021e-03
3.205835446715354919e-02,4.657787457108497620e-02,1.252895127981901169e-02,-3.262349218130111694e-02,-5.429321900010108948e-02,-3.090840391814708710e-02,-7.352600805461406708e-03,-4.675407335162162781e-02,-9.567981585860252380e-03
1.281731296330690384e-03,6.142666097730398178e-03,2.128740074113011360e-03,2.432001568377017975e-02,5.945761501789093018e-02,2.663750760257244110e-02,-5.658040288835763931e-03,-3.459540661424398422e-03,-7.736261468380689621e-03
-1.415429357439279556e-02,1.154221501201391220e-02,-1.338814571499824524e-02,-1.331189181655645370e-02,4.528935253620147705e-02,-1.087967306375503540e-02,-4.086339380592107773e-03,-4.249743185937404633e-03,7.296660449355840683e-03
1.018226426094770432e-02,-3.625491168349981308e-03,-1.038984674960374832e-02,1.871946826577186584e-02,-7.590482942759990692e-03,-3.849142417311668396e-02,-1.570211164653301239e-02,3.024123376235365868e-03,-3.665140829980373383e-03
-3.376410120381478919e-07,-1.304611458863291773e-07,8.621190517033028300e-08,2.251195070357425720e-07,-3.859619823742832523e-07,1.347202811530223698e-07,7.044411631795810536e-08,-3.472312926078302553e-08,-5.010202031030530634e-08
1.190020423382520676e-02,3.234729170799255371e-02,2.057495340704917908e-02,1.844690553843975067e-02,-3.134775534272193909e-02,8.813542313873767853e-03,2.419571019709110260e-02,-3.480168292298913002e-03,9.076852002181112766e-04
2.599079860374331474e-03,7.669835817068815231e-03,-1.057417411357164383e-02,-5.929260049015283585e-03,-3.775771707296371460e-02,1.508515048772096634e-02,4.439314454793930054e-02,3.546799533069133759e-03,-1.734637306071817875e-03
2.702257037162780762e-02,4.759308695793151855e-02,-1.234882418066263199e-02,2.580109052360057831e-02,9.219965897500514984e-03,8.959204889833927155e-03,-4.219435621052980423e-03,-3.018939495086669922e-02,-1.784810796380043030e-02
1.197430118918418884e-02,-2.334950491786003113e-03,-6.113293347880244255e-04,4.049117863178253174e-02,-1.090300232172012329e-01,2.096570283174514771e-02,1.558487769216299057e-02,1.292898319661617279e-02,6.844073999673128128e-03
1.111510954797267914e-02,-3.553932905197143555e-02,-2.103367587551474571e-03,3.542923834174871445e-03,-7.292820513248443604e-02,3.521254693623632193e-04,-1.081944815814495087e-02,2.888528630137443542e-02,5.361528135836124420e-03
-1.674527674913406372e-02,-1.861039735376834869e-02,-1.733162812888622284e-02,6.757818628102540970e-03,8.460626006126403809e-03,5.516856908798217773e-03,1.675830781459808350e-02,1.111312769353389740e-02,9.834817610681056976e-03
-1.266969088464975357e-02,1.511024124920368195e-02,2.935372292995452881e-02,-3.518007695674896240e-03,3.765385597944259644e-02,-2.007060125470161438e-02,-6.013398524373769760e-03,7.619926705956459045e-03,1.547049172222614288e-02
-2.625259943306446075e-02,-3.026896528899669647e-02,-2.690369077026844025e-02,-2.652418613433837891e-02,-1.385066844522953033e-02,-1.418381929397583008e-02,6.440131459385156631e-03,-9.795247577130794525e-03,-2.901046536862850189e-02
8.088756352663040161e-03,5.565141909755766392e-04,3.122242353856563568e-02,-1.728801801800727844e-02,8.796855807304382324e-02,-1.635928452014923096e-02,1.170503068715333939e-02,-1.274627633392810822e-02,4.910835064947605133e-03
4.734084010124206543e-03,-1.210036780685186386e-02,-1.227011810988187790e-02,8.135510608553886414e-03,1.000294461846351624e-02,-1.213406585156917572e-02,9.374694782309234142e-04,-1.426438521593809128e-02,-8.626542054116725922e-03
-1.920795883052051067e-03,-3.164520021528005600e-03,1.793645322322845459e-02,-8.681011386215686798e-03,-4.357881098985671997e-02,-1.604884862899780273e-02,5.021047778427600861e-03,-1.814375817775726318e-02,-1.367507688701152802e-02
2.095055766403675079e-02,2.123872004449367523e-02,3.863702295348048210e-03,2.086536842398345470e-04,-7.012297958135604858e-02,2.418604120612144470e-02,-1.068992447108030319e-02,1.031442545354366302e-02,-9.024759638123214245e-04
3.169187158346176147e-02,5.994950607419013977e-02,1.114330068230628967e-02,6.299517583101987839e-03,8.964822627604007721e-04,1.299194409511983395e-03,-2.200411446392536163e-02,-3.664027526974678040e-02,-4.011065885424613953e-02
-4.390694666653871536e-03,3.176410496234893799e-02,1.749655790627002716e-02,-7.284283638000488281e-03,2.240391448140144348e-02,3.309845458716154099e-03,-3.229362890124320984e-02,-7.794984616339206696e-03,2.356925420463085175e-02
-1.154659967869520187e-02,-4.130753874778747559e-02,-1.248262170702219009e-02,-2.731365524232387543e-02,6.654651463031768799e-02,-9.088032878935337067e-03,4.144570324569940567e-03,3.258747514337301254e-03,-1.258456148207187653e-02
-2.907280251383781433e-02,-1.329785771667957306e-02,2.838017884641885757e-03,-2.961553633213043213e-02,-2.192599698901176453e-02,-2.439831197261810303e-02,-1.643278286792337894e-03,-1.782886683940887451e-02,-2.218881808221340179e-02
1.568203675560653210e-03,1.410848926752805710e-02,1.738856360316276550e-02,-1.311911363154649734e-02,4.747351631522178650e-02,2.470698906108736992e-03,9.251769632101058960e-03,-1.940565556287765503e-02,-2.400868386030197144e-02
4.939095582813024521e-03,1.048661582171916962e-02,2.290461026132106781e-02,2.376011107116937637e-03,-8.696708828210830688e-03,2.402102388441562653e-02,-8.089870214462280273e-03,-1.287500280886888504e-02,4.395730793476104736e-03
1.980563439428806305e-02,3.848074749112129211e-02,2.002649009227752686e-02,3.691656515002250671e-02,2.058321237564086914e-02,-7.197583559900522232e-03,3.939335793256759644e-02,5.339161027222871780e-03,2.854963298887014389e-03
-4.072515293955802917e-02,-2.858944982290267944e-02,-2.279092185199260712e-02,-2.213058527559041977e-03,2.110861707478761673e-03,1.029498502612113953e-02,1.047141570597887039e-02,8.989871479570865631e-03,2.035484835505485535e-02
-3.410296514630317688e-02,1.959236105903983116e-03,-1.806926168501377106e-02,1.366037409752607346e-02,-5.810465291142463684e-02,5.384248215705156326e-03,-2.103201486170291901e-02,-2.530019916594028473e-02,-1.882567303255200386e-03
-1.354085095226764679e-02,-5.066200625151395798e-03,-8.149500936269760132e-03,1.220745407044887543e-02,-1.548908278346061707e-02,2.128104865550994873e-02,1.097572594881057739e-02,2.426552772521972656e-02,9.915122762322425842e-03
-2.209444716572761536e-02,-2.026345767080783844e-02,-8.751465938985347748e-03,6.868265569210052490e-03,2.485584467649459839e-02,-3.346445783972740173e-02,-1.520650740712881088e-02,-1.951397396624088287e-02,-1.746568363159894943e-03
-2.580844610929489136e-02,-4.126727208495140076e-02,5.942958872765302658e-03,1.029119081795215607e-02,3.226704895496368408e-02,5.108579061925411224e-03,-5.501531995832920074e-05,3.780349716544151306e-02,8.102562278509140015e-03
2.902380004525184631e-02,7.287942804396152496e-03,-3.346788883209228516e-02,2.619118895381689072e-03,2.429080568253993988e-02,-6.483658403158187866e-02,2.018864080309867859e-02,-6.006961222738027573e-03,-4.761496558785438538e-02
-5.990558303892612457e-03,-5.919796880334615707e-03,1.737353764474391937e-02,4.158524796366691589e-02,6.428874284029006958e-02,1.053181383758783340e-02,2.477924712002277374e-02,5.049502360634505749e-04,1.924995891749858856e-02
1.237687654793262482e-02,-1.523812301456928253e-02,3.899449948221445084e-03,-8.448254317045211792e-03,1.652873121201992035e-02,4.309398587793111801e-03,-9.019472636282444000e-03,1.120483595877885818e-02,-1.633434672839939594e-03
3.559248894453048706e-02,3.065966069698333740e-02,1.147577073425054550e-02,4.713356867432594299e-02,2.988396398723125458e-02,3.582148253917694092e-02,1.304191350936889648e-02,5.205047130584716797e-02,-6.044100038707256317e-03
2.384087257087230682e-02,4.380068928003311157e-02,2.020832709968090057e-02,-8.942362852394580841e-03,-5.221188440918922424e-02,2.328458800911903381e-02,-1.469659432768821716e-02,-3.362462669610977173e-02,-1.520296651870012283e-02
4.098103195428848267e-02,4.994871094822883606e-02,6.081684678792953491e-02,6.080237403512001038e-02,7.769332081079483032e-02,6.418563425540924072e-02,2.101529948413372040e-02,2.712378464639186859e-02,2.601580321788787842e-02
-4.711033776402473450e-03,-4.738751798868179321e-03,2.258405461907386780e-02,4.264160525053739548e-03,5.524447187781333923e-02,-1.406220346689224243e-02,-5.455742124468088150e-03,6.738658994436264038e-03,-4.194033332169055939e-03
1.289617270231246948e-02,-3.882278455421328545e-03,3.504985943436622620e-04,1.166832260787487030e-02,4.170920699834823608e-02,2.608753181993961334e-02,-1.964866183698177338e-03,-1.571482047438621521e-02,4.744518548250198364e-03
1.929984986782073975e-02,1.242156047374010086e-02,-1.385079231113195419e-02,-1.659200713038444519e-02,4.862774536013603210e-02,2.539972029626369476e-02,5.014568101614713669e-03,-1.728819799609482288e-03,-2.745200414210557938e-03
7.142164278775453568e-03,3.250235691666603088e-02,2.780358493328094482e-02,4.339606035500764847e-03,4.279038310050964355e-02,1.001608278602361679e-02,-6.091064773499965668e-03,1.400736812502145767e-02,3.494026139378547668e-03
2.374639734625816345e-02,2.161697018891572952e-03,1.145257428288459778e-02,3.645572811365127563e-02,6.459668278694152832e-02,-9.102282114326953888e-03,-4.622613545507192612e-03,5.900507327169179916e-03,8.100550621747970581e-03
-1.101637631654739380e-02,-1.807674951851367950e-02,5.626225844025611877e-03,-7.554986514151096344e-03,-1.485366933047771454e-02,-1.642612926661968231e-02,-1.558608561754226685e-02,-2.259862050414085388e-02,-2.003499493002891541e-02
1.706702448427677155e-02,1.275534741580486298e-02,9.015074931085109711e-03,2.859014272689819336e-02,4.805132746696472168e-02,2.677695592865347862e-03,-2.772307023406028748e-03,1.493229996412992477e-02,3.287403285503387451e-02
-1.269607432186603546e-02,-2.718748897314071655e-02,8.250885643064975739e-03,-1.809887215495109558e-02,1.374838128685951233e-02,2.605563728138804436e-03,-2.016816660761833191e-02,-1.455199345946311951e-02,-7.782672997564077377e-03
-1.617593504488468170e-02,-1.355061773210763931e-02,-4.368912428617477417e-03,1.773417182266712189e-02,-2.583583071827888489e-02,-1.958588510751724243e-02,1.516917068511247635e-02,-9.296090342104434967e-03,2.560458704829216003e-02
2.155156806111335754e-02,8.855981752276420593e-03,3.000905737280845642e-03,4.931805655360221863e-03,6.001677829772233963e-03,-5.110134370625019073e-03,2.415279299020767212e-02,1.185859460383653641e-02,-1.252907980233430862e-02
-3.200072050094604492e-02,-3.864178434014320374e-02,-1.531129702925682068e-02,-8.868262171745300293e-03,-7.447648793458938599e-02,-2.001115866005420685e-02,-5.887377075850963593e-03,-2.147703617811203003e-02,-1.715391688048839569e-02
1.931023038923740387e-02,1.084605045616626740e-02,1.218611933290958405e-02,1.125473901629447937e-02,5.661874264478683472e-02,3.479491546750068665e-02,1.070523448288440704e-02,3.548958152532577515e-02,3.065603226423263550e-02
-2.357101440429687500e-02,-6.380274426192045212e-03,3.670056536793708801e-02,3.375186771154403687e-02,8.524183183908462524e-02,3.633473068475723267e-02,-4.429673776030540466e-03,2.070189453661441803e-02,3.408091515302658081e-02
2.027120627462863922e-02,4.022812470793724060e-02,1.723589561879634857e-02,7.487444090656936169e-04,1.373104471713304520e-02,2.888575941324234009e-02,2.371439337730407715e-02,5.102258641272783279e-03,-1.243690587580204010e-02
2.030676975846290588e-02,5.328373983502388000e-02,6.178069859743118286e-03,2.387173939496278763e-03,-4.179839417338371277e-02,-8.232069201767444611e-03,9.890819201245903969e-04,4.482218995690345764e-03,-3.263424150645732880e-03
-2.996166795492172241e-02,-3.793739899992942810e-02,-1.946286484599113464e-02,-7.712901569902896881e-03,-2.979980595409870148e-02,-3.487775102257728577e-02,1.710893958806991577e-02,-1.130105834454298019e-02,-9.486078284680843353e-03
-4.458693321794271469e-03,4.131119698286056519e-02,-2.366274967789649963e-02,2.419480308890342712e-02,8.553750813007354736e-03,-4.587623290717601776e-03,-6.372316740453243256e-03,1.042114757001399994e-02,-2.721145190298557281e-02
3.004067949950695038e-02,4.809939116239547729e-02,-1.767246052622795105e-02,-1.668399758636951447e-02,6.484589725732803345e-02,-3.180175274610519409e-02,-8.315761573612689972e-03,-8.294452913105487823e-03,1.196157769300043583e-03
