1.434404104948043823e-01
3.097814023494720459e-01
2.438655644655227661e-01
4.210725426673889160e-01
-2.822744250297546387e-01
4.288434982299804688e-01
2.087421566247940063e-01
1.900414228439331055e-01
-1.249964013695716858e-01
3.458989262580871582e-01
4.804687201976776123e-01
-1.412837416864931583e-03
4.308388531208038330e-01
6.495550870895385742e-01
1.919117420911788940e-01
9.408050775527954102e-02
4.643606245517730713e-01
3.322333842515945435e-02
5.284587144851684570e-01
8.622266352176666260e-02
3.534549176692962646e-01
1.844463348388671875e-01
8.786715865135192871e-01
8.274190127849578857e-02
9.363456070423126221e-02
-1.674963831901550293e-01
2.718079686164855957e-01
6.178344786167144775e-02
3.428609669208526611e-01
9.015928208827972412e-02
9.108240716159343719e-03
6.485655307769775391e-01
-1.640197336673736572e-01
-5.183786749839782715e-01
3.171077072620391846e-01
1.655075512826442719e-02
4.821972548961639404e-01
2.318200320005416870e-01
1.166666746139526367e+00
5.740543007850646973e-01
4.850971996784210205e-01
3.635919094085693359e-01
-1.503773331642150879e-01
4.831787645816802979e-01
2.012651413679122925e-01
5.493862032890319824e-01
-6.839044094085693359e-01
3.817061185836791992e-01
1.707880496978759766e-01
2.592730224132537842e-01
5.905466079711914062e-01
1.229669451713562012e-01
-1.062752492725849152e-02
-2.640333957970142365e-03
-4.168179035186767578e-01
4.295709356665611267e-02
-3.017063997685909271e-02
4.521529376506805420e-01
2.236546725034713745e-01
4.630826115608215332e-01
9.613459557294845581e-02
2.744280695915222168e-01
-4.421477019786834717e-01
7.248187810182571411e-02
