1.397897303104400635e-01
3.270911872386932373e-01
2.480415105819702148e-01
4.243794977664947510e-01
-2.833160459995269775e-01
4.253385663032531738e-01
2.045118659734725952e-01
1.878628879785537720e-01
-1.107833161950111389e-01
3.530433177947998047e-01
4.766478538513183594e-01
-1.412837416864931583e-03
4.501933455467224121e-01
6.720485687255859375e-01
1.930713653564453125e-01
1.020852103829383850e-01
4.627675414085388184e-01
4.537098854780197144e-02
5.205110907554626465e-01
6.281339377164840698e-02
3.507241010665893555e-01
1.892311275005340576e-01
8.999405503273010254e-01
9.788417816162109375e-02
1.109756901860237122e-01
-1.544125080108642578e-01
2.786069512367248535e-01
1.081824973225593567e-01
3.402770459651947021e-01
8.695037662982940674e-02
6.429839879274368286e-03
6.553096175193786621e-01
-1.621453315019607544e-01
-5.197470784187316895e-01
3.199001550674438477e-01
-1.563133206218481064e-03
4.940973222255706787e-01
2.015481144189834595e-01
1.195076704025268555e+00
5.816059708595275879e-01
4.820228517055511475e-01
3.692280948162078857e-01
-1.431507319211959839e-01
4.904031157493591309e-01
2.196858525276184082e-01
5.405587553977966309e-01
-6.699099540710449219e-01
3.585592806339263916e-01
1.793346107006072998e-01
2.531963288784027100e-01
6.005111932754516602e-01
1.267418265342712402e-01
-1.062752492725849152e-02
-2.163756405934691429e-03
-4.225049912929534912e-01
2.706753835082054138e-02
-2.734615467488765717e-02
4.452881515026092529e-01
2.404789626598358154e-01
4.618378281593322754e-01
1.096481159329414368e-01
2.700267732143402100e-01
-4.282846152782440186e-01
7.209138572216033936e-02
