5.922186188399791718e-03,-9.557191282510757446e-03,7.712737191468477249e-03,-6.830245722085237503e-03,2.866774797439575195e-02,-4.551375750452280045e-04,7.968277670443058014e-03,8.704446256160736084e-03,2.902067732065916061e-03
-8.039706386625766754e-03,6.146625615656375885e-03,-3.522284096106886864e-03,-1.612118445336818695e-02,1.458793319761753082e-02,4.431430250406265259e-03,1.484312023967504501e-02,-6.586178205907344818e-03,-6.619239691644906998e-03
-9.461889974772930145e-03,5.925945006310939789e-03,1.843356899917125702e-02,9.290285408496856689e-03,1.050512306392192841e-02,3.882000222802162170e-03,1.189550478011369705e-02,2.706571854650974274e-02,1.317351683974266052e-02
2.912136726081371307e-03,9.395681321620941162e-03,4.873868543654680252e-03,1.487174769863486290e-03,3.382195159792900085e-02,5.165391601622104645e-03,9.157854132354259491e-03,-3.098451532423496246e-03,-3.206571098417043686e-03
-1.304290257394313812e-02,3.842205042019486427e-03,-9.246387518942356110e-03,-1.335666142404079437e-02,-2.418471872806549072e-02,-3.105779364705085754e-02,-6.460958160459995270e-03,-5.123910028487443924e-03,-1.082259695976972580e-02
-1.130811311304569244e-02,6.533855572342872620e-03,1.157090812921524048e-02,-8.577211992815136909e-04,-1.317364256829023361e-02,-1.744675217196345329e-03,-3.414263774175196886e-04,5.652681458741426468e-03,3.546463791280984879e-03
-9.414641186594963074e-03,1.726186275482177734e-02,-1.840445026755332947e-02,-9.087051264941692352e-03,7.820695638656616211e-03,-1.772428979165852070e-03,-1.675973646342754364e-02,-1.757768914103507996e-02,-6.707217544317245483e-03
1.070210477337241173e-03,3.448058385401964188e-03,3.073250409215688705e-03,-9.823940694332122803e-03,6.974054966121912003e-03,-1.826892024837434292e-03,2.065583597868680954e-03,2.470529451966285706e-02,4.564975388348102570e-03
-2.583756297826766968e-02,1.387563999742269516e-02,3.716477425768971443e-03,-1.188735943287611008e-02,-3.263235837221145630e-02,5.456480663269758224e-03,-3.295962931588292122e-03,1.344547793269157410e-02,6.224174983799457550e-03
2.256924286484718323e-03,4.203930497169494629e-03,5.828774534165859222e-03,-6.846893811598420143e-04,3.952302783727645874e-02,1.056770328432321548e-02,-8.462657220661640167e-03,-1.754012890160083771e-02,-6.884390604682266712e-04
6.215514149516820908e-03,1.701620779931545258e-02,-3.483281470835208893e-03,1.796675473451614380e-02,1.156960707157850266e-02,-1.551996078342199326e-02,1.028463058173656464e-02,3.998328465968370438e-03,3.501292085275053978e-03
6.660696119070053101e-03,-7.388838101178407669e-03,1.006376091390848160e-02,-2.095274999737739563e-02,1.572236418724060059e-02,-3.215209580957889557e-03,-5.043544224463403225e-04,9.925751946866512299e-03,1.704653538763523102e-02
-1.725661754608154297e-02,3.125514602288603783e-03,1.681303838267922401e-03,-1.641984283924102783e-02,-1.568922400474548340e-02,-9.570027701556682587e-03,-1.804493949748575687e-03,3.735024249181151390e-03,-5.570064531639218330e-04
1.160266576334834099e-03,1.040320377796888351e-02,2.013802994042634964e-03,-3.575570881366729736e-03,3.741405159235000610e-02,-8.627096191048622131e-03,1.304684672504663467e-02,3.743133274838328362e-03,-5.166289396584033966e-03
-4.009339958429336548e-03,6.791852880269289017e-03,-2.303066430613398552e-03,-1.853864407166838646e-03,5.079406779259443283e-03,3.125730669125914574e-03,2.014259109273552895e-03,1.729555777274072170e-03,-1.228820416145026684e-03
-1.307063922286033630e-02,3.226852044463157654e-02,4.368778318166732788e-03,2.179800532758235931e-03,-3.382622823119163513e-02,1.352919847704470158e-03,-4.052242729812860489e-03,8.027480915188789368e-03,8.190782740712165833e-03
8.187034167349338531e-03,1.700846478343009949e-02,5.940852221101522446e-03,1.785318180918693542e-02,-3.798335418105125427e-02,-2.558356896042823792e-02,1.210170332342386246e-02,1.288668531924486160e-02,1.705442368984222412e-02
-2.431718632578849792e-02,-1.119346730411052704e-02,-1.117722783237695694e-02,-2.174666523933410645e-02,-2.241444587707519531e-02,-5.762826651334762573e-03,-2.981540979817509651e-03,1.202825084328651428e-02,6.717298645526170731e-03
6.430570036172866821e-03,1.723668910562992096e-02,7.287692744284868240e-03,1.063574384897947311e-02,1.945864595472812653e-02,1.656809449195861816e-02,1.680739037692546844e-02,1.109656225889921188e-02,1.592044346034526825e-02
2.898068632930517197e-03,-1.412849524058401585e-04,3.364701755344867706e-03,-1.512663997709751129e-02,5.727583193220198154e-04,1.235471665859222412e-02,1.558569492772221565e-03,2.483169315382838249e-03,9.827136993408203125e-03
-6.902568507939577103e-03,1.126349996775388718e-02,-1.336791832000017166e-02,-8.792814915068447590e-04,4.620543215423822403e-03,-1.006555464118719101e-02,1.777468435466289520e-02,3.722635097801685333e-03,2.122250385582447052e-02
-2.079072780907154083e-02,-4.462061915546655655e-03,2.313232282176613808e-03,-3.104518167674541473e-02,-3.361199051141738892e-02,-1.635381393134593964e-02,1.196430716663599014e-02,2.415146864950656891e-02,5.035730544477701187e-03
-6.385968881659209728e-04,-4.082731436938047409e-03,5.705619696527719498e-04,9.226643480360507965e-03,1.469080895185470581e-02,2.401371952146291733e-03,7.263191044330596924e-03,9.563650004565715790e-03,3.067914396524429321e-03
2.509724872652441263e-04,8.396980352699756622e-03,1.087614707648754120e-02,-2.016731537878513336e-02,1.082159765064716339e-02,1.350914034992456436e-02,-7.824671454727649689e-03,5.599928554147481918e-03,1.249494403600692749e-02
-8.104205131530761719e-03,6.391748785972595215e-03,9.475551545619964600e-03,-1.415392663329839706e-02,-5.772280041128396988e-03,1.439912128262221813e-03,-2.517484535928815603e-04,-7.292123511433601379e-03,1.470944378525018692e-03
-8.764727972447872162e-03,2.204271405935287476e-02,-4.517850175034254789e-04,1.089788228273391724e-02,-3.758602589368820190e-02,-2.437579073011875153e-02,-3.569004125893115997e-03,-7.503230124711990356e-03,8.800829760730266571e-03
-4.213558044284582138e-03,-1.304662227630615234e-02,-1.158747635781764984e-02,-2.662826515734195709e-02,2.213921956717967987e-02,3.133826656267046928e-03,-1.366371475160121918e-02,-2.165015786886215210e-02,1.312896056333556771e-04
4.875891841948032379e-03,4.464045166969299316e-03,-1.214760169386863708e-02,1.679290831089019775e-02,1.177696976810693741e-02,-2.059489674866199493e-02,1.459900522604584694e-04,3.382800146937370300e-02,6.174571346491575241e-03
-9.040983859449625015e-04,-6.488468497991561890e-03,-6.199609953910112381e-03,4.159225616604089737e-03,2.182125672698020935e-02,-1.372349564917385578e-03,1.967667369171977043e-03,2.007971331477165222e-02,-8.180634118616580963e-03
-7.063358090817928314e-03,-1.126677263528108597e-02,-4.351271782070398331e-03,-8.797184564173221588e-03,-1.644534617662429810e-02,-1.200839970260858536e-02,-5.046851933002471924e-03,2.265451621497049928e-04,-2.165767131373286247e-03
1.143702957779169083e-02,2.122082002460956573e-02,7.008737884461879730e-04,1.210637018084526062e-02,-3.651226311922073364e-02,-1.642408780753612518e-02,1.341150794178247452e-02,2.409201674163341522e-02,2.522104652598500252e-03
3.668053308501839638e-03,1.510791014879941940e-02,1.465169992297887802e-02,9.221754968166351318e-03,5.872167274355888367e-02,3.506151959300041199e-02,4.898091778159141541e-03,1.114239916205406189e-02,1.298887562006711960e-02
-1.185998599976301193e-02,-3.366119461134076118e-03,-1.320837717503309250e-02,-5.049680112279020250e-05,-2.968165557831525803e-03,1.067151408642530441e-02,1.243432611227035522e-02,-9.588333778083324432e-03,-8.141974918544292450e-03
-1.182981487363576889e-02,2.314333058893680573e-02,5.363845732063055038e-03,-1.103953551501035690e-02,-7.969734258949756622e-03,-2.679533138871192932e-02,3.123479429632425308e-03,4.691649519372731447e-05,-5.467564333230257034e-03
-1.754837855696678162e-02,2.276858501136302948e-02,1.248952746391296387e-02,-4.479143302887678146e-03,-9.390661492943763733e-03,-9.378038346767425537e-03,1.157567719928920269e-03,-1.708295079879462719e-03,-3.930035512894392014e-03
2.413216046988964081e-03,-1.636221073567867279e-03,-6.766409147530794144e-03,-6.928840652108192444e-03,1.615386269986629486e-02,-1.597855240106582642e-02,-8.307778043672442436e-04,1.072913780808448792e-02,1.423798128962516785e-02
5.976271815598011017e-03,1.040650159120559692e-02,-1.260053180158138275e-02,-1.887465477921068668e-03,-2.258012630045413971e-02,-2.565284073352813721e-02,1.053419336676597595e-02,6.305414717644453049e-03,-1.875306852161884308e-02
-6.699760910123586655e-03,2.723708748817443848e-02,-1.560945180244743824e-03,-1.300783711485564709e-03,-3.444105386734008789e-02,-1.938206516206264496e-02,-3.453202545642852783e-03,7.641430012881755829e-03,4.212120082229375839e-03
-9.384811855852603912e-04,-1.443948969244956970e-02,6.284963805228471756e-03,-3.750612214207649231e-02,2.060564234852790833e-02,6.066288799047470093e-03,-9.770741686224937439e-03,-1.917294412851333618e-02,1.004364900290966034e-02
-1.079217251390218735e-02,2.820545574650168419e-03,-9.149809367954730988e-03,-2.173543721437454224e-02,-6.430783774703741074e-03,-1.758638396859169006e-02,4.217122215777635574e-03,2.194046787917613983e-02,1.132577017415314913e-04
-2.280638366937637329e-02,7.296666037291288376e-03,-1.185189653187990189e-02,-5.121149122714996338e-03,-8.443219587206840515e-03,-1.205686666071414948e-02,4.299056716263294220e-03,6.117961369454860687e-03,-2.882571192458271980e-03
6.807985482737421989e-04,4.429313819855451584e-03,1.970601268112659454e-03,-1.070911809802055359e-02,7.739409920759499073e-04,-2.774607622995972633e-03,-5.288592539727687836e-03,7.371879648417234421e-03,3.676370717585086823e-03
1.639854162931442261e-02,1.562503166496753693e-02,1.728061772882938385e-02,1.783945783972740173e-02,3.228256851434707642e-02,2.087977528572082520e-02,2.511445619165897369e-02,2.152436785399913788e-02,2.260826341807842255e-02
9.024172089993953705e-03,8.170432411134243011e-03,-5.853998591192066669e-04,1.210483140312135220e-03,-1.999921398237347603e-03,-7.229535840451717377e-03,1.923767413245514035e-04,3.867013612762093544e-03,2.414426300674676895e-03
8.086861111223697662e-03,-2.374947536736726761e-03,1.028605271130800247e-03,2.681237086653709412e-02,6.361830048263072968e-03,-1.509738247841596603e-02,1.250648964196443558e-02,-1.238369289785623550e-02,-2.168309129774570465e-02
-3.600716125220060349e-03,5.644425749778747559e-03,8.955065160989761353e-03,-2.225166745483875275e-02,1.043470483273267746e-02,5.613146815448999405e-03,-1.051655784249305725e-02,8.838649955578148365e-04,5.027545150369405746e-03
-3.486651228740811348e-03,2.086009131744503975e-03,-8.075650781393051147e-03,-2.169687487185001373e-02,-1.671916618943214417e-02,-2.515815757215023041e-02,-5.812015850096940994e-03,2.106457017362117767e-02,8.047937415540218353e-03
5.145563627593219280e-04,1.532125007361173630e-02,-4.257144406437873840e-03,-5.541000049561262131e-03,-1.078518386930227280e-02,-1.460769958794116974e-02,8.402088657021522522e-03,6.563794333487749100e-03,-4.381763283163309097e-03
-2.042000181972980499e-02,-3.580732969567179680e-03,-8.178082294762134552e-03,-2.955218777060508728e-02,-1.259043067693710327e-02,-1.177644543349742889e-02,-2.606796566396951675e-03,7.074233610183000565e-03,-7.175965234637260437e-03
-1.926626451313495636e-02,-7.771292235702276230e-03,7.230666000396013260e-03,-4.888786002993583679e-02,-1.260554883629083633e-02,2.959836972877383232e-03,-1.430302218068391085e-04,1.663623936474323273e-02,8.418345823884010315e-03
-1.374401059001684189e-02,7.714531850069761276e-03,4.662090912461280823e-03,-1.579760201275348663e-02,4.192155227065086365e-02,2.613186277449131012e-02,-1.269727107137441635e-02,8.759414777159690857e-03,1.320515002589672804e-04
-1.195584330707788467e-02,-9.355529211461544037e-03,-1.085156342014670372e-03,-2.178172580897808075e-02,-1.782854646444320679e-02,-1.146161463111639023e-02,-1.563370041549205780e-02,-1.566619798541069031e-02,-2.903394401073455811e-03
-1.045516878366470337e-02,2.592238970100879669e-02,4.466042388230562210e-03,1.323651429265737534e-02,-1.726623065769672394e-02,1.198345888406038284e-02,-1.105543691664934158e-02,1.982733607292175293e-02,5.043041426688432693e-03
-1.324842334724962711e-03,3.698350861668586731e-02,2.197591029107570648e-02,-2.703788876533508301e-02,-1.828025560826063156e-03,1.789921545423567295e-03,-5.380296148359775543e-03,-2.083934610709547997e-03,-8.024301379919052124e-03
-2.457178384065628052e-02,-4.092095419764518738e-02,-4.157165437936782837e-02,-2.504174970090389252e-02,-3.078818134963512421e-02,-2.955560386180877686e-02,-2.044794522225856781e-02,-2.827922999858856201e-02,-3.038322739303112030e-02
7.199969142675399780e-03,9.787912480533123016e-03,-7.947300327941775322e-04,1.129437424242496490e-02,4.511589556932449341e-02,-6.299099884927272797e-03,1.029260735958814621e-02,3.561538178473711014e-03,3.481904277577996254e-03
-1.003097370266914368e-02,2.149068564176559448e-02,1.132444106042385101e-02,-1.479013240896165371e-03,-1.324541226495057344e-04,-2.754531055688858032e-02,-1.413031015545129776e-02,-8.939622901380062103e-03,7.554814685136079788e-03
-1.315164472907781601e-02,-2.487778197973966599e-03,2.385416533797979355e-03,-1.523572392761707306e-02,2.264104224741458893e-02,1.578811928629875183e-02,8.581182337366044521e-04,1.751754991710186005e-02,-5.153568927198648453e-03
-9.724825620651245117e-03,-1.415055245161056519e-02,-4.060583654791116714e-03,7.367616984993219376e-03,-7.636344525963068008e-03,-2.525622770190238953e-02,6.662129890173673630e-03,1.097541674971580505e-02,5.261900369077920914e-03
-6.822822033427655697e-04,7.395837921649217606e-03,2.903128974139690399e-03,-2.214114367961883545e-02,4.936088342219591141e-03,-7.185910362750291824e-03,-1.045730896294116974e-02,-2.941362559795379639e-03,5.960238049738109112e-04
-2.121256431564688683e-03,-6.149442633613944054e-04,-2.273353980854153633e-03,9.231429430656135082e-04,2.654324471950531006e-02,-5.978011526167392731e-03,4.097764845937490463e-03,1.470919884741306305e-02,5.406831856817007065e-03
-3.010305948555469513e-02,5.702413036487996578e-04,-1.431167125701904297e-02,-1.741569302976131439e-02,-2.428161539137363434e-02,-2.121167629957199097e-02,-4.159400705248117447e-03,1.015072781592607498e-02,4.199647810310125351e-03
5.331171210855245590e-03,1.469449978321790695e-02,3.884721081703901291e-03,-9.380386210978031158e-03,-3.012766130268573761e-02,-1.540172938257455826e-02,1.489770971238613129e-02,6.253151223063468933e-03,-2.896664198487997055e-03
-8.407060988247394562e-03,2.370299212634563446e-02,6.931697018444538116e-03,-2.485822699964046478e-02,-4.274611175060272217e-02,-2.812359668314456940e-02,1.213344372808933258e-02,1.768298074603080750e-02,1.595122553408145905e-02
4.850678145885467529e-03,2.132226713001728058e-02,2.631300594657659531e-03,-4.011498764157295227e-03,1.511938404291868210e-02,8.766306564211845398e-05,-1.151242409832775593e-03,1.215258426964282990e-02,-1.281065586954355240e-02
-7.112720515578985214e-03,-1.222011819481849670e-02,4.106364212930202484e-03,-1.586764864623546600e-02,-6.465449696406722069e-04,-9.762867353856563568e-03,-7.800996303558349609e-03,4.511801060289144516e-03,-1.456794049590826035e-02
1.432820409536361694e-02,7.287244312465190887e-03,-7.980887778103351593e-03,3.695311257615685463e-03,-7.735074497759342194e-03,-1.883522234857082367e-02,4.961467348039150238e-04,4.330128896981477737e-03,-2.259645424783229828e-02
-1.191335357725620270e-02,2.004326321184635162e-02,-2.186883008107542992e-03,-1.642303168773651123e-02,2.793908817693591118e-03,-7.518627680838108063e-03,-7.082428783178329468e-03,1.253509894013404846e-02,-1.179297547787427902e-02
-4.259688314050436020e-03,-1.678106607869267464e-03,1.291861385107040405e-02,-5.801585968583822250e-03,-2.448554337024688721e-02,1.097762770950794220e-02,-5.106572993099689484e-03,1.409966126084327698e-02,-1.135965250432491302e-02
3.542471677064895630e-03,-1.144583337008953094e-02,-9.622183628380298615e-03,-1.006649900227785110e-02,-2.228399179875850677e-02,-1.084277033805847168e-02,6.307696457952260971e-03,2.311225794255733490e-02,-2.253750897943973541e-02
3.286164021119475365e-03,1.920571736991405487e-02,4.451843444257974625e-03,1.313026528805494308e-03,-7.752716075628995895e-03,1.234301645308732986e-02,-2.147550694644451141e-03,3.919331356883049011e-03,-2.147880010306835175e-02
2.992022316902875900e-03,7.337590213865041733e-03,-1.125881099142134190e-03,-1.304010860621929169e-02,4.683537874370813370e-03,-1.277006044983863831e-02,-2.579727442935109138e-03,3.502767940517514944e-04,-6.877988111227750778e-03
1.454819226637482643e-03,-3.593597095459699631e-03,-2.407816238701343536e-03,1.241343840956687927e-02,-3.466799110174179077e-02,-3.837437834590673447e-03,2.848527627065777779e-03,5.369520746171474457e-03,-4.622294567525386810e-03
-9.012466296553611755e-03,5.602288525551557541e-03,-1.488047651946544647e-02,-9.724164381623268127e-03,-1.323551032692193985e-02,-1.426667161285877228e-02,-2.112392336130142212e-03,1.325499080121517181e-02,-2.004168741405010223e-02
-2.296227175975218415e-04,3.009505197405815125e-02,-1.458094920963048935e-03,1.700087077915668488e-02,-1.105233840644359589e-02,-5.004526465199887753e-04,1.285219099372625351e-02,1.000730786472558975e-03,-1.861841045320034027e-02
-1.030821294989436865e-04,2.039504610002040863e-02,2.764228265732526779e-03,-1.810571923851966858e-02,4.819444566965103149e-02,1.884298282675445080e-03,-3.918731585144996643e-03,2.646674960851669312e-02,-8.642746135592460632e-03
3.149484517052769661e-03,1.596571295522153378e-03,2.938905265182256699e-03,8.936842903494834900e-03,-2.674644347280263901e-03,-1.363833528012037277e-02,-2.524951007217168808e-03,-2.508967183530330658e-03,-1.169971842318773270e-02
-7.823034189641475677e-03,7.591676898300647736e-03,5.499474355019629002e-04,-1.420126110315322876e-02,2.577622421085834503e-02,-1.760704210028052330e-03,2.566576004028320312e-03,3.445791313424706459e-03,-1.253445516340434551e-03
7.102381205186247826e-04,3.823672421276569366e-03,-3.811515169218182564e-03,-5.260725971311330795e-03,-1.367325196042656898e-03,-1.348294899798929691e-03,-4.868383985012769699e-03,7.006454281508922577e-03,-1.066483184695243835e-02
1.208217069506645203e-02,-2.097979420796036720e-03,-1.360009983181953430e-02,1.359664276242256165e-02,-3.929729014635086060e-02,1.398837752640247345e-02,1.286396011710166931e-02,7.710372097790241241e-03,-1.171657722443342209e-02
2.321048872545361519e-03,-2.242217771708965302e-02,-2.022182196378707886e-02,-1.401196699589490891e-02,9.272705763578414917e-03,4.883000627160072327e-03,1.159041654318571091e-02,-1.996984332799911499e-02,2.196353115141391754e-02
1.412943750619888306e-02,2.932432573288679123e-03,5.762003827840089798e-03,-2.770272549241781235e-03,9.122202172875404358e-03,-6.453269161283969879e-03,-6.681854138150811195e-04,1.262238528579473495e-02,1.852785982191562653e-02
-2.874768397305160761e-04,-1.562001183629035950e-02,-1.344754477031528950e-03,-3.796632168814539909e-03,6.753349211066961288e-03,-6.606896407902240753e-03,-4.177104681730270386e-03,-7.811779156327247620e-03,2.769233193248510361e-03
-7.666451856493949890e-03,-5.005245562642812729e-03,-7.068361155688762665e-03,1.239080354571342468e-02,9.112452156841754913e-03,5.042282398790121078e-03,3.946492914110422134e-03,1.498020533472299576e-02,-3.520211670547723770e-03
-2.080129459500312805e-03,2.063742466270923615e-02,-6.450879154726862907e-04,-7.042208220809698105e-03,1.524584600701928139e-03,-1.269713975489139557e-02,-1.156250218627974391e-04,3.020417643710970879e-03,-7.294150069355964661e-03
3.315042238682508469e-03,-3.741583786904811859e-04,1.505898963660001755e-02,-1.943241432309150696e-02,7.690344355069100857e-04,-1.661775982938706875e-03,-3.114719176664948463e-03,9.446336887776851654e-03,-1.316757500171661377e-02
-7.613467168994247913e-04,-4.672691691666841507e-03,2.465210389345884323e-03,-2.588225342333316803e-02,1.468353997915983200e-02,-1.496465131640434265e-02,5.318786716088652611e-04,6.487693171948194504e-03,6.156657822430133820e-03
-9.821436367928981781e-03,1.491479761898517609e-02,1.557248923927545547e-02,-1.694353297352790833e-02,-1.813499373383820057e-03,1.221387647092342377e-02,-6.501543801277875900e-03,1.492104027420282364e-02,-7.757569663226604462e-03
-7.487780880182981491e-03,-6.393657531589269638e-03,-2.496281871572136879e-03,-4.075538367033004761e-03,-1.878045313060283661e-02,-1.496213767677545547e-02,-2.830870449542999268e-03,1.267881598323583603e-03,-1.962660439312458038e-02
-6.104933563619852066e-04,1.791485026478767395e-02,-6.288912612944841385e-03,7.152943871915340424e-03,-2.039382234215736389e-02,5.110131110996007919e-03,-2.764423144981265068e-03,3.140828572213649750e-03,-1.127120666205883026e-02
-2.291269367560744286e-03,8.433363400399684906e-03,6.446507293730974197e-03,-1.320534758269786835e-02,1.481829769909381866e-02,-5.745895206928253174e-03,-7.075115106999874115e-03,7.503137458115816116e-03,-7.833503186702728271e-03
1.553571224212646484e-02,1.302490476518869400e-02,2.600544318556785583e-02,2.335344813764095306e-02,-9.609007276594638824e-03,-5.007203202694654465e-03,1.912061870098114014e-02,1.029491331428289413e-02,-5.897234659641981125e-03
6.184116005897521973e-03,-1.044283714145421982e-02,1.991725713014602661e-02,-4.725067876279354095e-03,3.672114387154579163e-02,-1.981450431048870087e-02,9.547109948471188545e-04,-3.214206546545028687e-03,2.216273918747901917e-03
-1.107271411456167698e-03,3.769971197471022606e-03,-7.550225127488374710e-04,-4.586338065564632416e-03,-2.802830189466476440e-03,7.723533082753419876e-03,-2.292963676154613495e-03,1.912309322506189346e-03,4.070517141371965408e-03
1.300473790615797043e-02,-9.507873328402638435e-04,-7.543689571321010590e-04,8.408250287175178528e-03,-2.494167536497116089e-02,3.307833569124341011e-03,6.754527799785137177e-03,-3.190635703504085541e-03,-1.080328878015279770e-02
3.500902093946933746e-03,2.749289199709892273e-02,6.324566435068845749e-03,2.912570256739854813e-03,5.505262687802314758e-02,-1.526970998384058475e-03,2.321232343092560768e-03,1.617128401994705200e-02,5.647797137498855591e-03
-1.889690407551825047e-03,-1.212091092020273209e-02,6.426130887120962143e-03,-1.228612009435892105e-02,-9.059940464794635773e-03,-2.760141901671886444e-02,4.969573114067316055e-03,-1.300241705030202866e-02,-2.047652378678321838e-02
1.132409088313579559e-02,7.846401073038578033e-03,-1.212723460048437119e-02,-4.085124470293521881e-03,2.551517914980649948e-03,-1.742432266473770142e-02,-8.949023904278874397e-04,-4.843258357141166925e-04,-1.627787575125694275e-02
7.360863033682107925e-03,7.181190419942140579e-03,-5.361528601497411728e-03,-2.444809069857001305e-03,-3.906737547367811203e-03,2.986707957461476326e-03,-8.115755394101142883e-03,-1.151113770902156830e-02,4.614450153894722462e-04
2.016182988882064819e-02,7.170305121690034866e-03,-2.126696286723017693e-03,4.795879591256380081e-03,3.676683874800801277e-03,-1.510037854313850403e-02,-1.266300096176564693e-04,-5.331595893949270248e-03,-7.355238310992717743e-03
-3.781458362936973572e-03,1.465031690895557404e-02,3.947045654058456421e-03,-2.341416850686073303e-02,-1.725258189253509045e-03,-1.010007224977016449e-02,8.903894573450088501e-03,8.455970673821866512e-04,-2.689896896481513977e-02
3.721519839018583298e-03,7.914345711469650269e-03,-5.177017766982316971e-03,1.146374829113483429e-02,-2.277958393096923828e-02,-1.895250752568244934e-03,-4.665165906772017479e-04,-2.120137773454189301e-02,-9.418942965567111969e-03
-5.348508711904287338e-03,1.359338872134685516e-02,1.534046977758407593e-02,-2.456567622721195221e-02,3.467171639204025269e-02,2.321253530681133270e-03,-1.534036826342344284e-02,6.985597778111696243e-03,-8.982240222394466400e-03
1.423471421003341675e-02,-6.457109120674431324e-04,6.524155847728252411e-03,8.644311456009745598e-04,1.583262346684932709e-02,-2.466483507305383682e-03,-4.020017106086015701e-03,1.168277021497488022e-02,-1.599183864891529083e-02
-1.048099342733621597e-02,2.786578796803951263e-02,-2.065283991396427155e-02,-2.086585387587547302e-02,-2.020245976746082306e-02,-2.716321032494306564e-03,-2.328663691878318787e-02,1.065106247551739216e-03,-2.768409252166748047e-02
5.640104878693819046e-03,4.669051559176295996e-04,8.647402748465538025e-03,1.120005082339048386e-02,7.881976664066314697e-03,1.195880491286516190e-02,1.721676252782344818e-02,-6.987133529037237167e-04,1.271102204918861389e-02
1.590473577380180359e-02,3.020082600414752960e-02,4.419516306370496750e-03,1.676749810576438904e-02,4.034616425633430481e-02,6.133945658802986145e-03,1.759711839258670807e-02,2.541114576160907745e-02,-3.406048926990479231e-05
-5.168150644749403000e-03,-2.057288074865937233e-03,1.680387184023857117e-03,1.922633033245801926e-03,-1.230392605066299438e-02,6.934005068615078926e-04,7.553656585514545441e-03,-1.189797092229127884e-02,-4.323550965636968613e-03
-3.648507967591285706e-02,-8.329743519425392151e-03,-2.775641344487667084e-02,-2.319934219121932983e-02,-2.634210139513015747e-02,-2.936492674052715302e-04,-1.023011864162981510e-03,-3.265851177275180817e-03,3.583407262340188026e-03
3.678939770907163620e-03,1.514271833002567291e-02,-2.365983556956052780e-03,-5.642617121338844299e-03,2.079204097390174866e-02,-2.827902324497699738e-02,1.140383072197437286e-02,1.197626162320375443e-02,-7.319890893995761871e-03
-9.729620069265365601e-03,-1.817429671064019203e-03,-3.722531720995903015e-03,-6.058870349079370499e-03,-1.210895366966724396e-02,-1.254007313400506973e-02,1.123886462301015854e-02,5.249246023595333099e-04,1.466102839913219213e-04
-3.862294033751823008e-05,2.290654368698596954e-02,-4.496749024838209152e-03,-4.140812903642654419e-03,-5.015601404011249542e-03,-1.239814143627882004e-02,-9.467699564993381500e-03,-1.391523890197277069e-02,-1.499688625335693359e-02
-1.717877201735973358e-02,7.205759175121784210e-03,5.438006483018398285e-03,-2.057196572422981262e-02,-3.474012762308120728e-02,-8.758809417486190796e-03,4.379633348435163498e-03,8.400614024139940739e-04,-1.660742051899433136e-02
-8.379254490137100220e-03,1.935350708663463593e-03,-1.735183782875537872e-02,-1.246268954128026962e-02,-1.342850085347890854e-02,2.111995965242385864e-02,-3.705739043653011322e-03,1.900202035903930664e-02,-2.201839908957481384e-02
1.489280071109533310e-02,7.243254687637090683e-03,1.287121511995792389e-02,-7.327374070882797241e-03,1.178602408617734909e-02,8.924035355448722839e-03,-8.312155841849744320e-05,-1.571550033986568451e-03,-5.467313807457685471e-03
4.947904963046312332e-03,7.682618219405412674e-03,-1.165464986115694046e-02,9.275879710912704468e-03,1.151333376765251160e-02,-1.525316759943962097e-02,-2.269579563289880753e-03,9.901532903313636780e-03,-1.709107123315334320e-02
1.130963861942291260e-02,1.419671811163425446e-02,1.095033902674913406e-02,1.071825623512268066e-02,-3.150303289294242859e-02,9.978200308978557587e-03,-7.152872625738382339e-03,5.205239169299602509e-03,-4.588183015584945679e-03
1.229666825383901596e-02,-1.131313969381153584e-03,-1.084771938621997833e-03,-9.913778631016612053e-04,-1.108441408723592758e-02,-1.446285936981439590e-02,1.497842837125062943e-02,1.177364308387041092e-02,-1.089828554540872574e-02
2.660987153649330139e-02,3.940035775303840637e-02,4.436195269227027893e-02,3.461223468184471130e-02,5.262570083141326904e-02,5.651036277413368225e-02,2.849323302507400513e-02,3.638938814401626587e-02,3.813362121582031250e-02
1.195309683680534363e-02,2.641073055565357208e-02,-3.746466245502233505e-03,7.967363111674785614e-03,2.185291051864624023e-02,-2.360435761511325836e-02,-1.480085658840835094e-03,8.255670778453350067e-03,-7.943334989249706268e-03
-2.962352242320775986e-03,-3.479411127045750618e-03,-7.279123645275831223e-03,5.627307575196027756e-03,-5.546119529753923416e-03,-2.299729362130165100e-02,8.535374887287616730e-03,3.344964061398059130e-04,-9.527261368930339813e-03
-5.672328174114227295e-03,2.848818525671958923e-02,-2.893149387091398239e-03,-2.452213875949382782e-02,3.624223545193672180e-02,-6.316215265542268753e-03,-2.120789606124162674e-03,2.169828675687313080e-02,9.308858774602413177e-03
-7.725492585450410843e-03,1.018450781702995300e-02,-9.566580876708030701e-03,-4.115460906177759171e-03,-1.039004605263471603e-02,-8.875690400600433350e-03,-5.317584145814180374e-03,5.664125550538301468e-03,-1.199105288833379745e-03
-4.231057129800319672e-03,1.224808581173419952e-02,-1.036642279359512031e-04,-1.248064078390598297e-02,1.647785864770412445e-02,-5.718900356441736221e-03,1.787679968401789665e-03,5.265092477202415466e-03,-2.180062420666217804e-02
4.025811329483985901e-03,3.122967109084129333e-02,1.754659228026866913e-02,-1.005264930427074432e-02,3.592171892523765564e-02,1.498266495764255524e-02,6.218474300112575293e-05,9.424614720046520233e-03,-4.857470281422138214e-03
-2.502211369574069977e-02,6.679661106318235397e-03,-5.971744656562805176e-03,-2.986387908458709717e-02,1.850473112426698208e-03,-4.662027058657258749e-04,5.285487044602632523e-03,1.646810583770275116e-02,-4.908317234367132187e-03
1.147158723324537277e-02,-5.628245417028665543e-03,-5.342071875929832458e-03,1.447962038218975067e-02,-1.777677237987518311e-02,-1.378568727523088455e-02,6.284653209149837494e-03,1.336233317852020264e-02,-1.939269155263900757e-02
7.396156899631023407e-03,9.342820267193019390e-04,-1.207410264760255814e-02,4.126823507249355316e-03,-2.395964111201465130e-04,-1.242281403392553329e-02,-5.697382148355245590e-03,8.854235522449016571e-03,-2.147531340597197413e-04
-1.394076738506555557e-02,1.635151566006243229e-03,-2.151928283274173737e-02,-1.102566067129373550e-02,2.441790886223316193e-02,-2.093214355409145355e-02,-1.566436141729354858e-02,-7.051332388073205948e-03,-3.724830690771341324e-03
-7.329072686843574047e-04,-6.325476802885532379e-03,-3.878979478031396866e-03,9.830926544964313507e-03,-1.284152921289205551e-02,-7.006198167800903320e-03,-2.651776419952511787e-03,2.051083743572235107e-02,-1.132879406213760376e-04
6.238617788767442107e-05,8.914806880056858063e-03,3.330450272187590599e-03,-4.737472161650657654e-03,-1.687964424490928650e-02,-1.512282248586416245e-02,-7.704890333116054535e-03,3.113252343609929085e-03,1.299813576042652130e-02
2.332014963030815125e-03,2.683795988559722900e-02,-1.503861788660287857e-02,-3.018154390156269073e-02,3.033798560500144958e-02,-1.728419400751590729e-02,2.367784269154071808e-03,2.883485704660415649e-02,-2.602313878014683723e-03
-1.350198034197092056e-02,1.713422685861587524e-02,-1.926611410453915596e-03,-2.829641848802566528e-02,-7.820084691047668457e-03,-2.365008695051074028e-03,2.398024545982480049e-03,-6.184701342135667801e-03,-9.995372034609317780e-03
1.044692192226648331e-02,-1.047450024634599686e-02,-1.254650764167308807e-02,2.318066917359828949e-02,-3.318675234913825989e-02,8.187278872355818748e-04,1.779649406671524048e-02,4.301469773054122925e-03,-5.594551097601652145e-03
-1.481485669501125813e-03,1.558460947126150131e-02,8.132372982800006866e-03,-1.374979875981807709e-02,1.865664310753345490e-02,7.804043125361204147e-03,-1.130475779063999653e-03,6.717728916555643082e-03,9.317907504737377167e-03
-1.014938764274120331e-02,5.307929124683141708e-03,-8.156423456966876984e-03,7.083154749125242233e-03,-2.383345039561390877e-03,-1.764372922480106354e-02,4.456190858036279678e-03,6.336048711091279984e-03,-1.961380615830421448e-02
-8.859852328896522522e-03,-5.460654851049184799e-03,-1.091851759701967239e-02,1.836481504142284393e-03,-2.697123400866985321e-02,-1.014543604105710983e-02,-8.424872532486915588e-03,1.009678840637207031e-02,-1.159411482512950897e-02
-3.185128327459096909e-03,-2.400453202426433563e-03,-1.630789600312709808e-02,-1.631457731127738953e-02,-1.222564559429883957e-02,-5.619274452328681946e-03,-1.559494435787200928e-02,1.098876819014549255e-02,-4.359150305390357971e-03
-4.952745046466588974e-03,9.091814048588275909e-03,-2.045671641826629639e-02,-2.041447907686233521e-02,7.167830131947994232e-03,1.037417910993099213e-03,5.460367538034915924e-04,-1.087477430701255798e-03,-2.954472322016954422e-03
-2.537472639232873917e-03,1.805259659886360168e-02,-1.204139553010463715e-02,-8.571268059313297272e-03,1.295782625675201416e-02,-1.491580531001091003e-02,-2.848274540156126022e-03,1.296187378466129303e-02,-1.167101133614778519e-02
8.973072282969951630e-03,-6.564934272319078445e-03,-2.973285270854830742e-03,-4.014911246486008167e-04,-2.354932948946952820e-02,-9.678496979176998138e-03,9.464612230658531189e-03,-1.120839733630418777e-02,-1.238436438143253326e-03
-2.647101646289229393e-03,4.964747931808233261e-03,8.033812977373600006e-03,-1.337230019271373749e-02,1.863720826804637909e-02,4.074255935847759247e-03,-8.428204804658889771e-03,1.514490414410829544e-02,4.997112322598695755e-03
-2.090619411319494247e-03,1.291345618665218353e-02,2.877248218283057213e-03,-9.937539696693420410e-03,4.620533902198076248e-03,2.623571708681993186e-05,-4.455117043107748032e-03,5.108994431793689728e-03,1.243137056007981300e-03
-1.596054248511791229e-02,8.745315484702587128e-03,5.947736091911792755e-03,-1.859996281564235687e-02,2.794690802693367004e-02,-1.932475343346595764e-02,-7.622174918651580811e-03,9.385005570948123932e-03,-6.631102412939071655e-03
-8.043611422181129456e-03,-7.690447848290205002e-03,9.291508235037326813e-03,2.240406349301338196e-02,-9.848089888691902161e-03,-1.532804500311613083e-02,1.812933944165706635e-02,-2.183899469673633575e-02,8.028305135667324066e-03
1.988978870213031769e-02,5.280257901176810265e-04,7.439667358994483948e-03,3.793417941778898239e-03,2.969423867762088776e-02,-1.403558347374200821e-02,-5.334935616701841354e-03,1.087783090770244598e-02,-2.303824992850422859e-03
3.462886670604348183e-03,-3.400518745183944702e-02,-9.367743507027626038e-03,2.451446466147899628e-02,-2.637110091745853424e-02,3.108951728790998459e-03,1.201147399842739105e-02,-9.922416880726814270e-03,2.628749236464500427e-03
-6.088304333388805389e-03,2.068756846711039543e-03,7.563910912722349167e-04,-1.002253871411085129e-02,-6.031843833625316620e-03,9.832283481955528259e-03,-6.038909777998924255e-03,1.419781055301427841e-02,1.044101174920797348e-02
-7.171897217631340027e-03,1.510440465062856674e-02,-1.331964414566755295e-02,-1.268565189093351364e-02,-8.448012173175811768e-03,-1.195909269154071808e-02,2.377183642238378525e-03,1.910433359444141388e-02,-4.378053825348615646e-03
-8.786560967564582825e-03,-2.159285359084606171e-03,-1.714503625407814980e-03,-1.622044108808040619e-02,3.273366717621684074e-03,-9.559635072946548462e-03,-3.532789414748549461e-03,-1.015037577599287033e-02,-2.365422807633876801e-02
-2.093527000397443771e-03,-1.743641309440135956e-02,-7.430641911923885345e-03,1.355899125337600708e-02,-1.032636594027280807e-02,4.644299406209029257e-05,-1.119416672736406326e-02,2.188799716532230377e-02,1.128279883414506912e-02
-7.111657876521348953e-03,7.378629408776760101e-03,6.371666095219552517e-04,-1.675458624958992004e-02,3.563680453225970268e-03,-2.579512260854244232e-02,1.104372646659612656e-02,-1.083478610962629318e-02,-1.184289902448654175e-02
-8.678840473294258118e-03,-2.393627539277076721e-02,-5.888943094760179520e-03,1.330132223665714264e-02,-2.768655307590961456e-02,-1.713444106280803680e-02,8.436432108283042908e-03,3.337597846984863281e-02,-9.824741631746292114e-03
4.752079956233501434e-03,-1.033069216646254063e-03,-1.495587080717086792e-02,-1.584707759320735931e-02,1.622151769697666168e-02,1.236262032762169838e-04,-1.398434769362211227e-02,8.311636745929718018e-03,6.814183667302131653e-03
4.160631913691759109e-03,7.107325829565525055e-03,-2.931212520707049407e-06,-8.597812615334987640e-03,1.323910430073738098e-02,-8.975981734693050385e-03,-2.347619459033012390e-02,9.312643669545650482e-03,1.807599910534918308e-03
-8.174182730726897717e-04,-5.995841696858406067e-03,2.208859892562031746e-03,6.104921922087669373e-03,-3.146746382117271423e-02,-1.108505297452211380e-02,-1.357788220047950745e-02,8.711998350918292999e-03,6.311323028057813644e-03
-1.451844070106744766e-02,3.766506211832165718e-03,-1.994691090658307076e-03,4.215801600366830826e-03,1.532017998397350311e-02,-2.144318446516990662e-02,1.199084613472223282e-02,1.379955001175403595e-02,2.098231576383113861e-03
1.362534239888191223e-03,-1.016596099361777306e-03,4.630629904568195343e-03,8.574529550969600677e-03,2.588532399386167526e-03,9.176240302622318268e-03,1.828321255743503571e-03,2.049196511507034302e-03,1.048255339264869690e-02
3.170574549585580826e-03,-1.606586389243602753e-02,4.020584747195243835e-03,2.194710308685898781e-03,2.149355597794055939e-03,-7.790302857756614685e-03,5.762894637882709503e-03,1.417791820131242275e-03,-9.268412366509437561e-03
-3.233579627703875303e-05,-8.417035453021526337e-03,-1.256952062249183655e-02,1.106767449527978897e-03,-1.145685208030045033e-03,-1.271818764507770538e-02,-4.733818641398102045e-04,-2.169429324567317963e-03,-9.495273698121309280e-04
-6.677930708974599838e-03,-9.774526581168174744e-03,-3.094644285738468170e-03,-1.006267778575420380e-02,-3.364387527108192444e-02,-1.756072044372558594e-02,-1.246854662895202637e-02,1.237682998180389404e-02,8.178418502211570740e-03
1.503607607446610928e-03,-1.403706707060337067e-02,5.010597407817840576e-03,5.518893245607614517e-03,-2.945515140891075134e-02,-9.980742819607257843e-03,1.112439669668674469e-03,-5.707475822418928146e-03,1.309037441387772560e-03
2.952275238931179047e-02,8.183677680790424347e-03,1.600136980414390564e-02,1.223244704306125641e-02,-9.299629367887973785e-03,7.987527176737785339e-03,-4.844718612730503082e-03,-1.352940313518047333e-02,6.521724164485931396e-03
-1.285371556878089905e-02,8.709604851901531219e-03,1.291169901378452778e-03,-5.049082450568675995e-03,-1.343288738280534744e-02,-2.045331709086894989e-02,1.500723417848348618e-03,9.545707143843173981e-03,3.348888130858540535e-03
-1.400715950876474380e-02,6.338833365589380264e-03,-1.680950284935534000e-03,-2.142797969281673431e-02,3.808230534195899963e-02,-1.449912041425704956e-02,-4.194861743599176407e-03,-3.523957449942827225e-03,-7.909354753792285919e-03
1.064978912472724915e-02,3.340787021443247795e-03,8.871309459209442139e-03,-4.612512886524200439e-03,-9.100092574954032898e-03,-8.069127798080444336e-03,1.760865794494748116e-03,-1.507223863154649734e-02,4.183210898190736771e-03
-1.377385691739618778e-03,3.236269950866699219e-02,-1.068180706351995468e-02,-3.975433111190795898e-02,2.382247708737850189e-02,-1.122006773948669434e-02,3.175147110596299171e-03,3.006646642461419106e-03,-7.617496885359287262e-03
1.769816316664218903e-02,1.291087269783020020e-02,1.286177337169647217e-02,2.526610530912876129e-02,-1.876606605947017670e-02,-4.923025146126747131e-03,3.533919807523488998e-03,2.285445341840386391e-03,1.023958902806043625e-02
5.137252621352672577e-03,3.189790621399879456e-02,2.463552542030811310e-02,-2.565317973494529724e-02,8.271524682641029358e-03,-1.582248322665691376e-02,-3.600364783778786659e-03,-1.618411019444465637e-02,-7.090944331139326096e-03
-3.812287759501487017e-04,8.405080996453762054e-03,4.996062256395816803e-03,-6.291237659752368927e-03,-6.319764070212841034e-03,9.532012976706027985e-03,-1.894670911133289337e-02,-2.687836624681949615e-02,-1.956809498369693756e-02
6.591592682525515556e-04,1.535443123430013657e-02,-7.802975014783442020e-04,1.002144184894859791e-03,2.991286106407642365e-02,-4.138032905757427216e-03,2.088764682412147522e-03,1.212206203490495682e-02,-3.094545099884271622e-03
-3.730576485395431519e-03,-1.189423911273479462e-02,-3.908244427293539047e-03,8.395148324780166149e-04,2.236677147448062897e-02,-1.492428500205278397e-02,-2.648545429110527039e-02,-2.029533265158534050e-03,-1.441502012312412262e-02
-2.411374822258949280e-02,-9.425067342817783356e-03,3.805543528869748116e-03,-3.484177216887474060e-02,2.188033983111381531e-02,-3.189009428024291992e-02,-7.012958172708749771e-03,-1.859799399971961975e-02,-3.980385605245828629e-03
1.441648509353399277e-02,1.522267609834671021e-02,2.806438831612467766e-03,1.105433609336614609e-02,-4.569042008370161057e-03,-5.055976100265979767e-03,1.450957730412483215e-02,3.121149260550737381e-03,-5.428454373031854630e-03
1.063044276088476181e-02,-4.842583555728197098e-03,1.099973171949386597e-02,-8.434462361037731171e-03,-1.401610206812620163e-02,-8.726751431822776794e-03,-9.540961124002933502e-03,-7.603513076901435852e-03,-2.348239161074161530e-02
-1.792583800852298737e-02,4.182603675872087479e-03,-7.352032233029603958e-03,-1.005191821604967117e-03,-1.476593036204576492e-02,-2.157246135175228119e-02,-1.923875533975660801e-03,-1.221505180001258850e-02,-1.364318840205669403e-02
2.451363252475857735e-03,4.952717106789350510e-03,1.114332582801580429e-02,-2.978341467678546906e-02,1.112211402505636215e-02,-2.204688452184200287e-02,-2.501039532944560051e-03,7.241214159876108170e-03,-3.582915524020791054e-03
-1.887564547359943390e-02,1.456295140087604523e-02,-1.578182540833950043e-02,-3.060627356171607971e-02,2.020620368421077728e-02,-9.526243433356285095e-03,-1.059531792998313904e-02,-1.672120392322540283e-02,-1.117700338363647461e-02
4.828223492950201035e-03,1.080303569324314594e-03,-1.017133425921201706e-02,-6.351492833346128464e-03,-9.804526343941688538e-03,-1.018353458493947983e-02,-5.194115452468395233e-03,7.104816846549510956e-03,9.164831601083278656e-03
1.194537058472633362e-02,1.616499014198780060e-02,-8.981590159237384796e-03,1.287799701094627380e-02,2.338561927899718285e-03,-1.580899395048618317e-02,1.581317186355590820e-02,1.451869960874319077e-03,-7.350592873990535736e-03
1.851210743188858032e-02,-1.040400564670562744e-02,-1.025931909680366516e-02,-1.574029028415679932e-02,-1.894506393000483513e-03,2.411655616015195847e-03,-3.121978137642145157e-03,2.342811413109302521e-02,1.039813971146941185e-03
-4.085876047611236572e-03,4.301272332668304443e-03,-2.018674276769161224e-02,-1.019049435853958130e-02,5.322291515767574310e-03,-1.990810781717300415e-02,-2.929983893409371376e-03,8.173250593245029449e-03,6.842425558716058731e-03
-6.139871478080749512e-02,-7.441068440675735474e-02,-5.401468276977539062e-02,-7.676270604133605957e-02,-8.125582337379455566e-02,-7.365462929010391235e-02,-7.569325715303421021e-02,-8.613552153110504150e-02,-7.103516161441802979e-02
-1.476796995848417282e-02,-6.013062084093689919e-04,-3.028623759746551514e-02,-1.314897462725639343e-02,4.262296017259359360e-03,-2.069159969687461853e-02,-7.078910246491432190e-03,-2.988023217767477036e-03,-5.812292918562889099e-03
-4.296904895454645157e-03,-1.797978766262531281e-02,-1.356869284063577652e-02,1.183817069977521896e-02,-1.830928027629852295e-02,-2.243182156234979630e-03,-4.633190110325813293e-03,2.459883317351341248e-02,-3.340868977829813957e-03
-1.052024587988853455e-02,1.694691181182861328e-02,-7.479189080186188221e-04,-8.285690099000930786e-03,2.540550380945205688e-02,-1.043652836233377457e-02,-6.638553924858570099e-03,2.754218131303787231e-02,-7.448652293533086777e-03
-3.698525018990039825e-03,5.869274493306875229e-03,-9.776432067155838013e-03,-3.193330392241477966e-02,2.438567765057086945e-02,-1.321301423013210297e-02,-1.334429718554019928e-02,7.390970829874277115e-03,-4.547967109829187393e-03
8.821547031402587891e-03,-4.729109816253185272e-03,8.023958653211593628e-03,-1.808061450719833374e-02,1.766253262758255005e-02,-1.977788284420967102e-02,-2.342383563518524170e-02,2.922762557864189148e-02,3.711206954903900623e-04
-1.347945816814899445e-02,1.435157656669616699e-02,1.401614979840815067e-03,-2.994685247540473938e-02,3.245762363076210022e-02,-7.621681317687034607e-03,-2.724990248680114746e-02,7.847464643418788910e-03,-1.270804367959499359e-02
8.746317587792873383e-03,-2.750675892457365990e-03,-2.119313721777871251e-04,-5.855836905539035797e-03,3.821705281734466553e-02,-7.288170978426933289e-03,2.207449404522776604e-03,2.636232040822505951e-02,-7.163349073380231857e-03
-6.129395216703414917e-03,-2.056317776441574097e-02,-1.331527624279260635e-02,2.782961586490273476e-03,-2.932940609753131866e-02,-1.527893915772438049e-02,7.630312815308570862e-03,2.755526825785636902e-02,-3.369755111634731293e-03
4.298266954720020294e-03,7.290856447070837021e-03,8.827559649944305420e-03,3.351506311446428299e-03,-1.877663098275661469e-02,-3.170744283124804497e-03,-2.828538417816162109e-03,3.757936879992485046e-03,1.175114791840314865e-02
4.051050636917352676e-03,-3.135212929919362068e-03,1.762397773563861847e-02,1.085312222130596638e-03,-4.483114462345838547e-03,-1.467628404498100281e-02,-6.107535678893327713e-03,-2.054386772215366364e-03,1.674535451456904411e-03
1.834972761571407318e-02,-1.777093624696135521e-03,2.759155631065368652e-02,-9.343590587377548218e-03,-2.117431577062234282e-04,6.930443458259105682e-03,1.090670283883810043e-02,1.011590007692575455e-02,2.190359681844711304e-02
-1.274392474442720413e-03,5.972666200250387192e-03,1.808421872556209564e-02,-3.208425268530845642e-02,2.490020822733640671e-03,1.613394357264041901e-02,1.007234794087707996e-03,1.282281335443258286e-02,1.377616636455059052e-02
-5.937004461884498596e-03,-7.155390456318855286e-03,6.456064991652965546e-03,1.623680815100669861e-02,2.683262899518013000e-02,1.050486415624618530e-02,-9.849157184362411499e-03,-1.247299276292324066e-02,-5.245813168585300446e-03
1.303451415151357651e-02,1.857754401862621307e-02,-4.389743786305189133e-03,-6.954369600862264633e-03,2.746267989277839661e-02,-1.917497254908084869e-02,7.974986918270587921e-03,-8.178267627954483032e-03,-1.170068420469760895e-02
4.519939795136451721e-02,4.040975123643875122e-03,1.786920987069606781e-02,-1.266999915242195129e-02,3.553567826747894287e-02,6.011252291500568390e-03,1.369993761181831360e-02,1.249669492244720459e-02,-5.010927561670541763e-03
1.515123434364795685e-02,-1.908773556351661682e-02,9.211773052811622620e-03,1.575742475688457489e-02,3.341374173760414124e-02,-1.709399186074733734e-02,2.772669866681098938e-02,-6.764958146959543228e-03,1.545759197324514389e-02
8.270778693258762360e-03,1.889952458441257477e-02,6.240122951567173004e-03,-1.618304289877414703e-02,-4.459165781736373901e-02,1.278166286647319794e-02,9.021873585879802704e-03,1.201414968818426132e-02,2.380535006523132324e-03
5.557916592806577682e-03,-2.276097983121871948e-02,-1.659090444445610046e-02,-2.773999050259590149e-02,2.498578093945980072e-02,2.332957461476325989e-03,-6.416128017008304596e-04,-1.050553936511278152e-02,-3.563006641343235970e-03
4.118348937481641769e-03,-3.776911878958344460e-03,4.936773795634508133e-03,-6.972406525164842606e-03,2.979966253042221069e-02,2.013218775391578674e-02,-3.252909751608967781e-03,-4.929385613650083542e-03,-9.960009716451168060e-03
5.299604497849941254e-03,-2.688048034906387329e-02,1.580928266048431396e-02,-1.718292757868766785e-02,2.474616840481758118e-02,-9.524801746010780334e-03,4.055778495967388153e-03,3.792222996708005667e-04,8.873135782778263092e-03
-6.119459401816129684e-03,1.851765625178813934e-02,2.136422134935855865e-02,1.112239528447389603e-02,-2.850792929530143738e-02,1.507053384557366371e-03,1.162073761224746704e-02,2.157067880034446716e-02,-9.551880066283047199e-04
1.107872091233730316e-02,-3.900693729519844055e-03,1.366277597844600677e-02,-2.397117903456091881e-03,-7.167452946305274963e-03,2.008377807214856148e-03,1.016341894865036011e-02,3.945798613131046295e-03,2.556442981585860252e-03
-6.088593509048223495e-03,8.817411027848720551e-03,-8.366281166672706604e-03,5.092630162835121155e-03,-2.424011752009391785e-02,1.125084701925516129e-02,2.198149682953953743e-03,1.568547263741493225e-02,-3.479851875454187393e-03
-9.419939480721950531e-03,-2.056057378649711609e-02,-5.469168536365032196e-03,2.142233587801456451e-02,3.349225968122482300e-02,3.123896196484565735e-03,-7.017305586487054825e-03,-7.930870167911052704e-03,5.745790898799896240e-03
-1.988593256101012230e-03,-8.728874847292900085e-03,-1.701021753251552582e-02,-3.409953415393829346e-02,3.292664885520935059e-02,-1.117280032485723495e-02,3.093584673479199409e-03,-3.096432890743017197e-03,8.209767751395702362e-03
1.555145904421806335e-02,-5.107059841975569725e-04,-1.481355726718902588e-02,-1.427694875746965408e-02,-2.469117054715752602e-03,-2.941215177997946739e-03,8.028831332921981812e-03,-9.690677747130393982e-03,8.313682628795504570e-04
1.028833165764808655e-02,1.238848827779293060e-02,8.719884790480136871e-03,-4.033301374875009060e-04,-3.185951337218284607e-02,-8.508032187819480896e-03,-7.885315455496311188e-03,-3.689228557050228119e-03,-1.910058315843343735e-03
-1.267834752798080444e-02,-9.044587612152099609e-03,-7.870404981076717377e-03,-1.334276888519525528e-02,-1.465100701898336411e-02,-9.765198454260826111e-03,-9.172962047159671783e-03,-6.772603839635848999e-03,-4.460604861378669739e-03
-6.827044766396284103e-03,5.033689551055431366e-03,1.720554009079933167e-02,-3.431230410933494568e-02,8.761955425143241882e-03,1.295708026736974716e-02,8.856759406626224518e-03,1.648701913654804230e-02,-1.715824007987976074e-03
9.539646096527576447e-03,-2.095391601324081421e-02,1.651422586292028427e-03,-4.331795964390039444e-03,1.691676117479801178e-02,6.439820397645235062e-03,6.483925972133874893e-03,1.698500104248523712e-02,1.585191302001476288e-02
5.992055404931306839e-03,2.488429285585880280e-02,2.704912051558494568e-02,-2.073931274935603142e-03,-1.183781307190656662e-02,4.109697416424751282e-03,7.423341274261474609e-03,-2.505277516320347786e-03,6.925425957888364792e-03
-1.187519915401935577e-02,-1.659827539697289467e-03,1.516976673156023026e-02,1.204823423177003860e-02,-4.039662331342697144e-02,1.987185701727867126e-02,-1.264519640244543552e-03,2.446542307734489441e-02,4.153687506914138794e-03
5.737578961998224258e-03,-2.659506630152463913e-03,7.577802520245313644e-03,2.263065055012702942e-02,9.144976735115051270e-03,-6.526303477585315704e-03,-8.548242971301078796e-03,-1.780191319994628429e-03,-5.722383968532085419e-03
9.522187523543834686e-03,1.605420000851154327e-02,4.103278115508146584e-05,-1.449760608375072479e-02,1.317611313425004482e-03,7.483909837901592255e-03,3.744255751371383667e-02,1.221902202814817429e-02,-2.213551924796774983e-04
1.561065483838319778e-02,1.267856359481811523e-02,9.680303046479821205e-04,-3.097578324377536774e-02,2.612881548702716827e-02,3.324047429487109184e-03,1.304503157734870911e-02,7.211981341242790222e-03,-2.094285096973180771e-03
7.377102039754390717e-03,3.607658203691244125e-03,2.250418066978454590e-02,1.831080764532089233e-02,7.160755340009927750e-03,-1.271053496748209000e-02,-3.476164536550641060e-03,-8.701636455953121185e-03,-2.202937845140695572e-03
3.058505617082118988e-02,3.288058936595916748e-02,-4.431649111211299896e-03,-4.469330236315727234e-02,-1.520238164812326431e-02,1.579087041318416595e-02,-1.971229165792465210e-02,-2.344831638038158417e-02,1.035767421126365662e-02
8.632790297269821167e-03,2.463603019714355469e-02,1.579970493912696838e-02,1.004092954099178314e-02,-4.265869408845901489e-02,-9.834495140239596367e-04,5.974932108074426651e-03,1.268255710601806641e-02,-2.181882597506046295e-02
4.403665661811828613e-03,6.892057135701179504e-03,-1.368583738803863525e-02,-2.162668621167540550e-03,-2.088532969355583191e-02,-1.378139853477478027e-02,6.343008950352668762e-03,-5.177382379770278931e-03,-6.415177602320909500e-03
5.351023282855749130e-03,-6.923355162143707275e-03,-5.923476419411599636e-04,-4.067812860012054443e-02,9.737597778439521790e-03,3.738127881661057472e-03,-4.594470839947462082e-03,-1.075047720223665237e-02,-1.078466302715241909e-03
6.140317767858505249e-03,-5.323659628629684448e-03,-3.632960142567753792e-03,8.834992535412311554e-03,1.597100344952195883e-04,-1.911318488419055939e-02,2.907776972278952599e-03,-7.725712843239307404e-03,-2.501381793990731239e-03
8.057036437094211578e-03,-5.153369158506393433e-03,2.980256220325827599e-03,9.975959546864032745e-03,3.985389193985611200e-04,1.595421694219112396e-03,3.160463646054267883e-03,1.163793820887804031e-02,1.313243526965379715e-02
7.981155067682266235e-03,-2.330783754587173462e-03,3.331271000206470490e-03,-2.517149224877357483e-02,-1.238321699202060699e-02,1.527095213532447815e-02,7.126879063434898853e-04,2.030008845031261444e-02,7.450700737535953522e-03
5.689946934580802917e-03,-8.551222272217273712e-03,1.649011857807636261e-02,2.072742395102977753e-02,-2.172358520328998566e-02,1.679359190165996552e-02,3.129553049802780151e-03,1.248594094067811966e-02,7.119869347661733627e-03
9.067177772521972656e-03,7.711222395300865173e-03,3.322774544358253479e-02,3.143434599041938782e-02,-1.028394108288921416e-04,5.181403830647468567e-03,7.275149691849946976e-03,5.594370886683464050e-03,4.885232541710138321e-03
4.572812467813491821e-03,-6.756268441677093506e-03,-1.071795634925365448e-02,2.354414435103535652e-03,-4.550638608634471893e-03,-1.451938319951295853e-02,1.263209269382059574e-03,6.397650111466646194e-03,-1.438122335821390152e-02
2.147790510207414627e-03,-6.795167457312345505e-03,1.188092771917581558e-02,-6.003569345921278000e-03,1.282624714076519012e-02,1.566849532537162304e-03,-3.416041843593120575e-03,3.154819365590810776e-03,1.968996133655309677e-03
1.380663947202265263e-03,2.459421567618846893e-02,1.277526002377271652e-02,3.113369643688201904e-02,-1.173896342515945435e-02,-1.447432860732078552e-02,-1.586563698947429657e-02,-2.046004869043827057e-02,-5.101027782075107098e-04
8.418508805334568024e-03,6.234992761164903641e-03,5.139038898050785065e-03,1.165967248380184174e-02,-2.626567147672176361e-02,-4.810345359146595001e-03,1.167165115475654602e-02,1.743616536259651184e-02,1.244760863482952118e-02
7.920742966234683990e-03,-1.100851781666278839e-02,6.595859304070472717e-03,3.239613771438598633e-02,-8.848705329000949860e-03,8.181816898286342621e-03,1.268588192760944366e-02,4.132885951548814774e-03,1.168886572122573853e-02
-8.559742942452430725e-03,5.028413608670234680e-03,6.233497988432645798e-03,-3.441795124672353268e-04,1.344265509396791458e-02,-1.097809945349581540e-04,1.912222430109977722e-02,1.642154180444777012e-03,-6.400083657354116440e-03
-9.447407908737659454e-03,-1.393655315041542053e-02,-1.483901217579841614e-02,-1.228016242384910583e-02,-2.035188861191272736e-02,-2.360558323562145233e-02,9.002172155305743217e-04,-1.794677111320197582e-03,-1.230667158961296082e-02
1.138205919414758682e-02,8.977707475423812866e-03,-6.884523318149149418e-04,2.462561940774321556e-03,1.786205545067787170e-02,-3.917515743523836136e-03,-3.068567311856895685e-04,1.560272183269262314e-03,1.044631656259298325e-02
9.912690147757530212e-03,6.814535026933299378e-06,-1.210859976708889008e-02,3.501097857952117920e-02,7.820055633783340454e-02,2.001024084165692329e-03,1.999378018081188202e-02,2.291319146752357483e-02,-2.339093014597892761e-02
-9.334258735179901123e-03,6.784331984817981720e-03,1.511852908879518509e-02,1.760199293494224548e-02,-4.176995903253555298e-02,2.750731073319911957e-02,1.169919315725564957e-02,1.082408986985683441e-02,1.839855685830116272e-02
1.303351134993135929e-03,-7.135126739740371704e-03,7.375894114375114441e-03,1.612116768956184387e-02,1.933964714407920837e-02,2.859565615653991699e-02,8.400056511163711548e-03,-1.217432133853435516e-02,9.495222941040992737e-03
1.684719324111938477e-02,-6.458899471908807755e-03,2.664626808837056160e-03,-3.947736695408821106e-03,1.825320534408092499e-02,-2.328078495338559151e-03,2.038683043792843819e-03,4.785635974258184433e-03,4.394243936985731125e-03
1.855637505650520325e-02,-5.991477519273757935e-04,5.126835312694311142e-03,-5.603683181107044220e-03,5.303432792425155640e-02,1.763009495334699750e-04,-9.892832487821578979e-03,-2.121243439614772797e-02,-1.100027374923229218e-02
9.632466360926628113e-03,-1.064774766564369202e-02,2.406419813632965088e-02,1.851418055593967438e-02,4.294897615909576416e-02,6.746058352291584015e-03,4.351170267909765244e-03,-2.505818568170070648e-02,-3.342779120430350304e-03
2.966626081615686417e-03,-1.747084781527519226e-02,-8.295562001876533031e-04,-3.786368295550346375e-03,3.225959371775388718e-03,8.471131324768066406e-03,9.116660803556442261e-03,2.489735558629035950e-02,-9.110232815146446228e-03
3.957068175077438354e-02,1.394557580351829529e-02,-2.206500852480530739e-03,2.350252680480480194e-02,1.019910536706447601e-02,4.571950412355363369e-04,-5.331681575626134872e-03,9.110658429563045502e-03,6.811394821852445602e-03
1.876535639166831970e-02,-2.101093158125877380e-02,-2.530226483941078186e-03,-2.224744111299514771e-02,3.359675779938697815e-02,9.490101598203182220e-03,2.016550675034523010e-02,2.715786360204219818e-02,1.175913587212562561e-02
1.630086265504360199e-02,1.970449090003967285e-02,1.381985843181610107e-02,1.620763912796974182e-02,-3.005599603056907654e-03,6.548009347170591354e-03,1.163043174892663956e-02,-7.691704668104648590e-03,1.319073420017957687e-02
-3.906163945794105530e-02,-3.070789203047752380e-02,-3.667417913675308228e-02,-3.926520794630050659e-02,-4.799516126513481140e-02,-3.279926255345344543e-02,-3.586882352828979492e-02,-3.348546847701072693e-02,-3.841885551810264587e-02
-3.855488263070583344e-03,-2.277864608913660049e-03,2.279628813266754150e-02,-3.968850709497928619e-03,-2.920118859037756920e-03,2.909804694354534149e-02,1.360674668103456497e-02,2.470714040100574493e-02,7.386152632534503937e-03
9.971525520086288452e-03,-1.397832669317722321e-02,-4.121020610909909010e-04,-3.438362386077642441e-03,1.350814383476972580e-02,9.133540093898773193e-03,-2.540289657190442085e-03,1.447962410748004913e-02,1.612907834351062775e-02
3.194671007804572582e-04,5.274012684822082520e-03,-5.373635329306125641e-03,2.164364233613014221e-02,-2.826323546469211578e-02,4.814045038074254990e-03,1.096857059746980667e-02,5.230604205280542374e-03,-4.719142802059650421e-03
1.796769350767135620e-02,-4.735879600048065186e-03,7.999913766980171204e-03,-6.356357596814632416e-03,9.012377820909023285e-03,1.746466197073459625e-02,-1.599121838808059692e-03,-8.662907406687736511e-03,3.289319283794611692e-04
4.129103617742657661e-04,1.106663234531879425e-02,9.191608056426048279e-03,5.820594727993011475e-03,-1.218428276479244232e-02,-7.862352766096591949e-03,1.953521743416786194e-02,1.429681666195392609e-02,2.141625806689262390e-02
1.224435679614543915e-02,3.392682177945971489e-03,1.184859126806259155e-02,9.954123524948954582e-04,-8.570123463869094849e-03,-9.133394807577133179e-03,2.259354572743177414e-03,-1.500729564577341080e-02,-7.345217163674533367e-04
-3.865580074489116669e-03,3.345908131450414658e-03,-3.661186899989843369e-03,1.567856036126613617e-02,5.259033292531967163e-03,-9.899786673486232758e-04,1.816724985837936401e-02,1.671983860433101654e-02,1.650232262909412384e-02
6.253957282751798630e-03,-2.739725168794393539e-03,-9.465713985264301300e-03,-3.285464644432067871e-02,1.023506093770265579e-02,2.766183111816644669e-03,3.830713685601949692e-03,-1.327070058323442936e-03,6.384517997503280640e-03
9.827592410147190094e-03,2.241757698357105255e-02,-6.947265937924385071e-04,-2.209775848314166069e-03,-3.126199170947074890e-02,-4.287379328161478043e-03,1.033390173688530922e-03,1.758404076099395752e-02,1.888602599501609802e-02
-1.065598335117101669e-02,-1.017828471958637238e-02,-2.144750952720642090e-02,-8.198160794563591480e-04,3.950044512748718262e-02,-1.514380332082509995e-02,-1.688147149980068207e-02,-2.254219353199005127e-02,6.408165674656629562e-03
-5.667252000421285629e-03,-2.017680928111076355e-02,-1.605796441435813904e-02,-1.509167626500129700e-02,-6.555104046128690243e-04,-5.229375325143337250e-03,-7.339443545788526535e-04,-2.605901658535003662e-02,8.962099091149866581e-04
-2.118780650198459625e-02,-1.090751960873603821e-02,-3.171276673674583435e-02,5.969356279820203781e-03,-9.438402950763702393e-03,-2.176926098763942719e-02,-7.554148323833942413e-03,-1.226181746460497379e-03,-1.753062196075916290e-02
-9.535225108265876770e-03,2.190213464200496674e-02,-1.834939792752265930e-02,-1.005900092422962189e-02,3.524507954716682434e-02,-1.959071867167949677e-02,-1.156663801521062851e-02,-6.672846619039773941e-03,9.957426227629184723e-03
1.098912861198186874e-02,3.421103348955512047e-03,8.924279361963272095e-03,1.281773950904607773e-02,3.751453012228012085e-03,3.598301857709884644e-02,1.396171748638153076e-03,1.655268110334873199e-02,1.665985584259033203e-02
-2.831077761948108673e-02,-1.692419126629829407e-02,-6.453348323702812195e-03,-3.656361252069473267e-03,-2.324218302965164185e-02,-9.019884280860424042e-03,-1.672873087227344513e-02,8.998238481581211090e-03,-1.316932309418916702e-02
-1.324277091771364212e-02,-8.771982043981552124e-03,-1.884163171052932739e-02,3.715235274285078049e-03,3.339261934161186218e-02,-2.700993604958057404e-02,-1.328882947564125061e-02,-2.190868183970451355e-02,1.989978179335594177e-02
-7.858039811253547668e-03,-2.043195068836212158e-03,3.721929155290126801e-03,4.854362457990646362e-03,2.972931973636150360e-02,3.957663848996162415e-02,-1.226343773305416107e-02,2.122590318322181702e-02,-8.086210000328719616e-04
6.085562054067850113e-03,1.754812523722648621e-02,-1.534109935164451599e-02,-1.110903359949588776e-02,-3.997615352272987366e-02,-4.824510775506496429e-03,-1.155156176537275314e-03,7.059459574520587921e-03,-9.905042126774787903e-03
-2.288694027811288834e-03,4.323271103203296661e-03,-1.637950539588928223e-02,7.362053263932466507e-03,2.318779565393924713e-02,-2.132227271795272827e-02,-2.464077249169349670e-02,-1.488547679036855698e-02,-3.219546983018517494e-03
-1.304067764431238174e-02,-4.027058370411396027e-03,-1.456729602068662643e-02,-1.824669167399406433e-02,-5.061127711087465286e-03,-1.024678535759449005e-02,-2.376243658363819122e-02,-6.987460888922214508e-03,1.923615857958793640e-02
-1.016291324049234390e-02,-1.565240137279033661e-02,-6.383969448506832123e-03,-3.125847782939672470e-03,5.100994929671287537e-02,1.131390221416950226e-02,-1.762231998145580292e-02,-1.460313331335783005e-02,1.607995713129639626e-03
-2.856241539120674133e-02,-2.617589943110942841e-02,3.059161594137549400e-03,-1.132023800164461136e-02,-4.165223240852355957e-02,4.725744482129812241e-03,-2.748532220721244812e-02,-5.981223657727241516e-03,-7.149798329919576645e-03
-1.292828191071748734e-02,-8.949338458478450775e-03,-2.552264370024204254e-02,-1.943397894501686096e-02,2.094594947993755341e-02,-1.920731924474239349e-02,-1.559675391763448715e-02,-2.215046249330043793e-02,1.013978291302919388e-02
6.183189339935779572e-03,8.381755906157195568e-04,-3.603194840252399445e-03,-9.575812146067619324e-04,-1.686712726950645447e-02,-1.924749463796615601e-02,-2.094328589737415314e-02,-9.690561331808567047e-03,-2.016912400722503662e-02
1.334200892597436905e-02,-3.541811183094978333e-02,-2.704593644011765718e-04,1.396283158101141453e-03,-7.062528282403945923e-02,2.362155728042125702e-02,-1.460472121834754944e-02,-1.687608100473880768e-02,2.038395963609218597e-02
-1.554145198315382004e-02,-2.844688249751925468e-03,5.579769145697355270e-03,1.622178591787815094e-02,-4.600746184587478638e-02,3.236739709973335266e-02,2.939741499722003937e-02,-1.243971008807420731e-02,2.645275555551052094e-03
-2.444955520331859589e-03,-3.089686296880245209e-02,-1.663600094616413116e-02,2.436098828911781311e-02,1.084196008741855621e-02,1.717087253928184509e-02,-3.071380546316504478e-03,1.175992563366889954e-02,1.165386475622653961e-02
1.898513920605182648e-02,7.515962235629558563e-03,5.481141619384288788e-03,-1.863777637481689453e-02,-6.166785955429077148e-03,-1.823860220611095428e-02,-1.708660274744033813e-02,-1.757947728037834167e-02,-1.367120817303657532e-02
-1.216471102088689804e-02,1.117481966502964497e-03,2.660399861633777618e-02,-2.301229164004325867e-02,-2.293130615726113319e-03,1.284519117325544357e-02,4.538926295936107635e-03,9.895562194287776947e-03,1.529763359576463699e-02
-3.566187620162963867e-02,-2.560029504820704460e-03,-1.821293495595455170e-03,-2.993020601570606232e-02,-2.220107428729534149e-02,-7.997645065188407898e-03,-1.275698281824588776e-02,-8.810052648186683655e-03,1.489163748919963837e-02
-1.992357894778251648e-02,-2.741522900760173798e-02,2.216836437582969666e-03,-1.534151379019021988e-02,1.240658108144998550e-02,3.272139653563499451e-02,-1.504208892583847046e-02,-1.058334764093160629e-02,-1.770139206200838089e-03
1.800143974833190441e-03,5.324432277120649815e-04,-8.631609380245208740e-04,-9.207450784742832184e-03,2.769506536424160004e-02,-1.195775065571069717e-02,7.802471984177827835e-03,8.162687532603740692e-03,-1.679432461969554424e-03
-2.106771804392337799e-02,-6.030669435858726501e-03,-2.010433003306388855e-02,-2.989807631820440292e-03,3.602062538266181946e-02,-5.485409405082464218e-03,-5.530914757400751114e-03,-2.120728790760040283e-02,-1.027323212474584579e-02
2.300968393683433533e-03,-1.194973243400454521e-03,-2.744573866948485374e-03,-4.301107022911310196e-03,2.702063182368874550e-03,-6.329128518700599670e-03,-1.132738869637250900e-02,-8.742698468267917633e-03,2.546703070402145386e-02
5.726495757699012756e-03,-1.556101534515619278e-02,-1.582858338952064514e-02,1.389403827488422394e-02,-4.948461055755615234e-02,1.727819070219993591e-02,-7.978907786309719086e-03,-5.943864118307828903e-03,1.863397844135761261e-02
-1.661747321486473083e-02,-2.670131437480449677e-02,-1.855360157787799835e-02,-6.726704072207212448e-03,2.822281606495380402e-02,-1.041489932686090469e-02,-2.206846512854099274e-02,-2.106616273522377014e-02,-3.880263306200504303e-03
-2.629242651164531708e-02,-2.397393248975276947e-02,-1.288712490350008011e-02,2.630024962127208710e-02,-8.295439183712005615e-03,-2.530868537724018097e-02,-1.538919284939765930e-02,2.410995773971080780e-02,1.070584915578365326e-02
-2.294133231043815613e-02,-3.740409016609191895e-02,-1.681063510477542877e-02,-6.205527111887931824e-03,2.586610615253448486e-02,-4.284486640244722366e-03,-1.825962215662002563e-02,-2.055602520704269409e-02,5.194089841097593307e-03
3.150208620354533195e-03,-2.349089644849300385e-02,4.832561127841472626e-03,-1.152080111205577850e-02,-5.422576516866683960e-02,3.384625306352972984e-03,-1.888348162174224854e-02,-3.468219935894012451e-02,-5.357138346880674362e-03
-2.866532886400818825e-03,-1.886445097625255585e-02,1.601559668779373169e-02,3.691714257001876831e-02,-6.821057945489883423e-02,2.747186273336410522e-02,4.377763718366622925e-03,6.190038751810789108e-03,4.341225605458021164e-03
-6.333408877253532410e-03,1.280754245817661285e-02,-6.292675156146287918e-03,7.784448564052581787e-03,4.733814299106597900e-02,-2.473807893693447113e-02,-1.098939497023820877e-02,-9.254538454115390778e-03,-2.576498687267303467e-02
-9.406952187418937683e-03,-8.789535611867904663e-03,-2.976256795227527618e-02,-1.131733413785696030e-02,7.365481462329626083e-03,-1.784865371882915497e-02,7.658057729713618755e-04,-6.073403637856245041e-03,2.154288068413734436e-02
-1.366469170898199081e-02,-3.532169759273529053e-02,-1.996812969446182251e-02,-1.977563276886940002e-02,-4.259500280022621155e-02,-3.197627840563654900e-03,-3.895600093528628349e-03,-3.622620366513729095e-03,8.674563840031623840e-03
-3.931854665279388428e-02,-2.802421897649765015e-02,-6.337377242743968964e-03,-9.420174174010753632e-03,-4.097326844930648804e-02,1.826462894678115845e-02,-1.404014998115599155e-03,-1.276778406463563442e-03,1.683607324957847595e-02
-4.061081446707248688e-03,-1.758099347352981567e-02,-2.671935223042964935e-02,5.392702296376228333e-04,3.955822103307582438e-05,-9.015589952468872070e-03,7.227637339383363724e-03,9.905739687383174896e-03,3.920099698007106781e-03
-2.249794080853462219e-02,-1.098128617741167545e-03,-1.345759630203247070e-02,-1.940504647791385651e-02,-1.590255415067076683e-03,7.267442997545003891e-03,-2.386134117841720581e-02,-3.369932528585195541e-03,7.698760367929935455e-03
-1.998723112046718597e-02,-5.468403920531272888e-03,-1.372963842004537582e-02,3.000393044203519821e-03,-6.447708606719970703e-02,-6.833705585449934006e-03,-3.291815573902567849e-06,-1.144213695079088211e-02,2.036434598267078400e-03
-5.598847288638353348e-03,-1.275468897074460983e-02,-1.779158413410186768e-02,4.464791156351566315e-03,4.103453829884529114e-02,-2.356238476932048798e-02,-3.216978162527084351e-02,-3.127172589302062988e-02,-2.507025375962257385e-03
-1.712745986878871918e-02,-9.599614888429641724e-03,-3.037015162408351898e-02,-7.295472081750631332e-03,-3.226950298994779587e-03,1.630800217390060425e-02,-9.784677065908908844e-03,3.797532292082905769e-03,-1.211763452738523483e-02
-8.177417330443859100e-03,-3.996380604803562164e-03,-1.283496338874101639e-02,-5.859751719981431961e-03,-2.242625690996646881e-02,2.586621046066284180e-02,-1.268631126731634140e-02,-1.248461194336414337e-02,1.588238216936588287e-02
-8.135966956615447998e-03,-5.736378487199544907e-03,1.784110441803932190e-02,4.042197484523057938e-03,-1.022926345467567444e-02,-1.320345234125852585e-02,-2.440248383209109306e-03,-1.180850155651569366e-02,-4.011537414044141769e-03
-7.931039668619632721e-03,4.473021253943443298e-03,4.229280166327953339e-03,-1.037828531116247177e-02,2.246169000864028931e-02,3.751858836039900780e-03,-9.822687134146690369e-03,-3.835026873275637627e-03,3.377710934728384018e-03
-7.808126974850893021e-03,-7.435560226440429688e-03,-1.256642583757638931e-02,-1.522010192275047302e-02,-1.487356517463922501e-02,5.240199156105518341e-03,-1.723785139620304108e-02,-1.784340664744377136e-02,-9.156219661235809326e-03
-3.589946543797850609e-03,2.211070060729980469e-02,1.421942561864852905e-02,5.259574204683303833e-02,-6.634411215782165527e-02,5.625251680612564087e-02,1.839162781834602356e-02,4.843513295054435730e-02,-1.704731583595275879e-02
-9.500654996372759342e-04,-1.031889393925666809e-02,-1.990194059908390045e-02,-2.374804206192493439e-02,3.787801135331392288e-03,-2.646518684923648834e-02,-2.383629232645034790e-02,-1.938618719577789307e-02,1.128570549190044403e-02
-1.333880424499511719e-02,-3.143363073468208313e-02,-3.246660903096199036e-02,-1.113479863852262497e-02,-2.470943145453929901e-02,9.116696193814277649e-03,-1.698042638599872589e-02,-7.621387951076030731e-03,-1.249342923983931541e-03
-1.208310201764106750e-02,-4.154957365244626999e-03,-8.899932145141065121e-04,-7.584869395941495895e-03,-4.452972672879695892e-03,1.333551015704870224e-02,-9.904255159199237823e-03,-1.351964101195335388e-02,-1.161060389131307602e-02
-1.141218654811382294e-02,-3.140753135085105896e-02,-1.205716934055089951e-02,-8.039406500756740570e-03,1.388363074511289597e-02,9.628076106309890747e-03,-1.976959034800529480e-02,1.241965126246213913e-02,1.314087864011526108e-02
-4.047861788421869278e-03,-1.467974483966827393e-02,-1.668548583984375000e-02,1.045207865536212921e-02,1.434718631207942963e-02,2.790433354675769806e-03,-1.383352372795343399e-02,6.492924876511096954e-03,-2.573679899796843529e-03
-3.220851067453622818e-03,-2.281729318201541901e-02,1.711310469545423985e-03,-6.085517350584268570e-03,5.327448993921279907e-02,-1.429387833923101425e-03,-8.701606653630733490e-03,-3.718742867931723595e-03,7.974031381309032440e-03
-1.392878592014312744e-02,-2.944420278072357178e-02,-2.379086799919605255e-02,-2.073100768029689789e-03,-3.574523702263832092e-02,-6.697141099721193314e-03,-1.511901710182428360e-02,-1.528776437044143677e-02,1.021098438650369644e-02
-3.006609715521335602e-02,-2.372023835778236389e-02,-8.168279193341732025e-03,-5.901346914470195770e-03,-3.563471883535385132e-02,3.346797451376914978e-02,-9.930595755577087402e-03,1.609054207801818848e-02,1.145478989928960800e-02
3.307108767330646515e-03,9.666009806096553802e-03,-6.417854689061641693e-03,7.669827435165643692e-03,1.540071982890367508e-02,-2.374705945840105414e-04,-4.082613158971071243e-03,-1.920193247497081757e-02,3.427952062338590622e-03
1.823371276259422302e-02,3.219075873494148254e-02,3.961788862943649292e-02,3.228621184825897217e-02,3.169262781739234924e-02,4.839245229959487915e-02,4.477744176983833313e-02,5.177309736609458923e-02,4.715526103973388672e-02
-6.196213420480489731e-03,7.685042917728424072e-03,-1.669956929981708527e-02,-9.346739389002323151e-03,9.021632373332977295e-03,-1.585117354989051819e-02,-1.627923734486103058e-02,-1.506788935512304306e-02,9.485139511525630951e-03
-1.595556363463401794e-02,-1.683949679136276245e-02,-8.354726247489452362e-03,-2.219793200492858887e-02,-5.845886468887329102e-02,-8.776223286986351013e-03,7.390992250293493271e-04,-9.425917640328407288e-03,2.084035240113735199e-02
-2.449770458042621613e-02,-1.567711867392063141e-02,-1.318455114960670471e-02,-1.006864011287689209e-03,3.286911174654960632e-02,4.415513481944799423e-03,-1.347379665821790695e-02,-5.708436015993356705e-03,5.232786294072866440e-03
-9.704926982522010803e-03,-4.561008140444755554e-02,-6.214905995875597000e-03,1.048472337424755096e-02,1.062054000794887543e-02,3.259830642491579056e-03,6.806175690144300461e-03,2.322029508650302887e-02,5.663836840540170670e-03
-1.419807784259319305e-02,-1.771177910268306732e-02,-3.358554095029830933e-02,-7.425037678331136703e-03,5.508875008672475815e-03,-2.470540069043636322e-02,1.341233029961585999e-03,-1.437523774802684784e-02,3.482229949440807104e-04
6.782321725040674210e-03,-3.205233486369252205e-03,-6.949706003069877625e-03,1.200383435934782028e-02,4.313078895211219788e-02,-1.276179403066635132e-02,-2.551453001797199249e-02,-1.829780405387282372e-03,7.169232238084077835e-03
-1.898535527288913727e-02,-4.123028833419084549e-03,-1.207009702920913696e-02,1.185349840670824051e-02,4.423032980412244797e-03,2.735421434044837952e-02,3.784471657127141953e-03,2.483437769114971161e-03,7.303452119231224060e-03
6.800308823585510254e-03,2.165794931352138519e-02,9.939711540937423706e-03,-3.203899413347244263e-02,-3.716868907213211060e-02,-2.269560657441616058e-02,2.496048400644212961e-04,-4.452830646187067032e-03,-5.995447747409343719e-03
-2.520017325878143311e-02,-1.267885509878396988e-02,-1.042407937347888947e-02,9.416162036359310150e-03,-2.186380326747894287e-02,3.251824527978897095e-02,2.662644721567630768e-03,1.801262982189655304e-02,1.611881144344806671e-02
-1.195461372844874859e-03,2.523339586332440376e-03,9.668085258454084396e-04,9.428572840988636017e-03,6.609153002500534058e-03,-1.242590323090553284e-02,-8.875464089214801788e-03,-3.547526895999908447e-03,-4.862999543547630310e-03
-2.810443053022027016e-03,1.129420660436153412e-02,-4.137309442739933729e-04,4.842057533096522093e-04,-1.007075887173414230e-02,-1.907647238112986088e-03,-6.917920894920825958e-03,-1.452308031730353832e-03,-8.492984808981418610e-03
2.590919844806194305e-03,6.855507846921682358e-03,-4.532851278781890869e-03,-3.976950887590646744e-03,-5.467479582875967026e-03,-9.043321944773197174e-03,5.196060985326766968e-03,-5.119823850691318512e-03,-9.750321507453918457e-03
-2.664324711076915264e-04,2.610950265079736710e-03,-2.333626849576830864e-03,7.909761741757392883e-03,6.107359658926725388e-03,-7.212449330836534500e-03,3.553720889613032341e-03,8.230099454522132874e-03,-4.660113772843033075e-04
-2.185480203479528427e-03,1.894604600965976715e-02,5.549158435314893723e-03,-2.068968676030635834e-02,1.731490483507514000e-03,1.059151906520128250e-02,-1.683969632722437382e-03,9.555385448038578033e-03,2.492392086423933506e-04
-3.256979864090681076e-03,3.128796815872192383e-03,-6.991596892476081848e-03,-9.443535469472408295e-03,-2.403261326253414154e-02,9.230691939592361450e-03,-1.552249398082494736e-02,7.377350702881813049e-03,-1.368865929543972015e-02
3.085080999881029129e-03,1.287210150621831417e-03,1.078819297254085541e-02,-4.517664201557636261e-03,-4.699457902461290359e-03,-3.489162307232618332e-03,-3.289625048637390137e-03,1.537137781269848347e-03,-6.151776178739964962e-04
1.570252235978841782e-03,1.414236729033291340e-03,-2.759794238954782486e-03,1.216410382767207921e-04,4.287595394998788834e-03,-7.082007825374603271e-03,5.642231553792953491e-03,-3.790851216763257980e-03,-1.129291020333766937e-02
-1.045761257410049438e-02,9.697506175143644214e-05,-8.577520959079265594e-03,-1.035008765757083893e-02,-1.347235124558210373e-02,3.007242223247885704e-03,-2.656689146533608437e-03,2.026648508035577834e-05,-3.802440769504755735e-04
3.050137544050812721e-03,1.560818054713308811e-03,-9.040969423949718475e-03,-2.940149512141942978e-03,-1.813707500696182251e-02,-2.118992432951927185e-02,-6.282523740082979202e-03,-4.778654314577579498e-03,-1.094838697463274002e-02
1.040192600339651108e-02,5.184536799788475037e-03,-2.813654718920588493e-04,-5.745540373027324677e-03,8.126101456582546234e-03,4.609211347997188568e-03,-4.189982544630765915e-03,-5.338911432772874832e-03,-7.227808702737092972e-03
-9.065187769010663033e-04,1.051385328173637390e-02,3.240951045881956816e-04,-5.493609234690666199e-03,2.664793282747268677e-02,-1.462641730904579163e-02,-1.729583949781954288e-03,6.299484521150588989e-03,-3.234009956941008568e-03
-1.113693416118621826e-02,-2.840258879587054253e-03,-7.066861726343631744e-03,-2.232121536508202553e-03,-9.926176629960536957e-03,-9.051243774592876434e-03,5.092498395242728293e-05,6.730190943926572800e-03,-2.022844739258289337e-03
9.793193079531192780e-03,1.165680680423974991e-02,1.209846814163029194e-03,3.522550454363226891e-03,2.768394723534584045e-02,-1.483315415680408478e-02,3.756280988454818726e-03,3.600361524149775505e-03,5.669510923326015472e-03
1.028819382190704346e-02,1.367129292339086533e-02,1.259392010979354382e-03,-5.700393114238977432e-03,6.492479587905108929e-04,4.408602137118577957e-03,-1.464833505451679230e-03,3.443130117375403643e-04,-7.450581179000437260e-04
3.182600485160946846e-03,2.814016072079539299e-03,-5.294750444591045380e-04,-8.137237280607223511e-03,-7.969060912728309631e-03,-1.948345219716429710e-03,-6.529520265758037567e-03,-3.576739458367228508e-03,-4.779417067766189575e-03
1.185677479952573776e-02,-4.906003363430500031e-03,2.277247142046689987e-03,-6.154925213195383549e-04,-2.003634534776210785e-02,7.295382209122180939e-03,-3.722686320543289185e-03,-3.035232191905379295e-03,-5.350248888134956360e-03
-3.871987573802471161e-03,-7.972598075866699219e-03,-8.573524653911590576e-03,1.601454918272793293e-03,9.143461473286151886e-03,-1.236277981661260128e-03,1.428469549864530563e-03,2.958069555461406708e-03,5.154355429112911224e-03
-2.180566778406500816e-03,-5.677212961018085480e-03,2.548263873904943466e-03,-1.891866442747414112e-03,-5.684644915163516998e-03,-8.726617670617997646e-04,2.702060155570507050e-03,6.374336080625653267e-04,1.799843623302876949e-03
1.238729921169579029e-03,-7.231045514345169067e-03,-8.347035385668277740e-03,1.132378703914582729e-03,-7.434785831719636917e-03,-8.370731025934219360e-03,-3.388287732377648354e-03,-1.169818174093961716e-02,-1.097895554266870022e-03
-6.751684006303548813e-03,5.773714277893304825e-03,-7.527724839746952057e-03,1.990645832847803831e-04,5.649540107697248459e-03,5.110043101012706757e-03,-2.514092950150370598e-03,1.535182725638151169e-02,1.806297572329640388e-03
-3.819859353825449944e-03,-1.603761455044150352e-03,-5.156862083822488785e-03,-9.225128218531608582e-03,8.753894828259944916e-03,-1.960178196895867586e-04,-2.829061122611165047e-03,-7.935168687254190445e-04,-9.134423919022083282e-03
-1.361030992120504379e-02,-5.807071458548307419e-03,2.865379210561513901e-04,2.048706868663430214e-03,-2.088416804326698184e-04,-1.620052941143512726e-02,-9.404568932950496674e-03,4.898113198578357697e-03,7.295212708413600922e-03
6.124979350715875626e-03,6.969321519136428833e-03,6.474589463323354721e-03,-2.043751813471317291e-02,6.112696602940559387e-03,-9.958896553143858910e-04,-1.004022266715764999e-02,-3.264496102929115295e-03,-1.169049413874745369e-03
-3.542471677064895630e-03,7.183263543993234634e-03,-8.017354644834995270e-03,-5.768404342234134674e-03,-1.461808104068040848e-02,3.230360569432377815e-03,-8.756216615438461304e-03,1.076565403491258621e-02,-7.073444779962301254e-03
-5.684629548341035843e-03,8.422203361988067627e-03,-6.150385597720742226e-04,2.252431353554129601e-03,-6.139520555734634399e-03,-5.884322337806224823e-03,-1.270315982401371002e-02,-1.004291698336601257e-02,-1.174961798824369907e-03
-4.806392826139926910e-03,-2.334905788302421570e-03,7.188537623733282089e-03,4.852631594985723495e-03,1.342994067817926407e-02,-1.083383709192276001e-02,-5.603512749075889587e-03,2.882728585973381996e-03,2.003797329962253571e-03
-1.412834972143173218e-03,1.122213341295719147e-02,5.761395674198865891e-03,-1.736526377499103546e-03,-1.331635098904371262e-02,-2.186588477343320847e-03,-7.318479474633932114e-03,1.732034981250762939e-02,-1.179411821067333221e-02
2.813103492371737957e-04,1.231320784427225590e-03,-8.192749810405075550e-04,1.752640702761709690e-03,8.609210141003131866e-03,-1.909318007528781891e-02,-1.003459328785538673e-03,-5.350573454052209854e-03,-6.440398748964071274e-03
1.698940410278737545e-03,5.728374700993299484e-03,2.334033371880650520e-03,5.281847901642322540e-03,1.259925402700901031e-02,4.691532347351312637e-03,6.535538937896490097e-03,7.155030965805053711e-03,3.967259079217910767e-03
-6.733907852321863174e-03,1.727154594846069813e-03,-9.127482771873474121e-03,-1.540832337923347950e-03,-1.362463179975748062e-02,-1.310302037745714188e-02,8.195416070520877838e-03,5.481070373207330704e-03,-1.014190353453159332e-02
8.302393369376659393e-03,8.363955654203891754e-03,5.752587225288152695e-03,4.493443761020898819e-03,1.024002674967050552e-02,2.072158502414822578e-03,1.088274270296096802e-02,1.112350169569253922e-02,1.221642643213272095e-02
-4.524516873061656952e-03,2.267373725771903992e-03,-1.173187512904405594e-02,-8.761465549468994141e-03,-2.033230848610401154e-02,-3.404801944270730019e-03,-6.995252799242734909e-03,3.603467252105474472e-03,-4.688348621129989624e-03
5.835445132106542587e-03,1.105949375778436661e-02,-4.592237994074821472e-03,6.491979584097862244e-03,-7.632904686033725739e-03,-1.511234673671424389e-03,2.987815998494625092e-03,5.170303862541913986e-03,-6.614023353904485703e-03
2.540979301556944847e-03,1.106941699981689453e-02,9.038099087774753571e-03,6.594101432710886002e-03,2.405952429398894310e-03,-5.684792529791593552e-03,8.380904328078031540e-04,1.631334982812404633e-02,-9.390340186655521393e-03
-7.461127825081348419e-03,-5.391027312725782394e-03,9.369274601340293884e-03,-1.019763667136430740e-02,-2.819185843691229820e-03,-1.736070215702056885e-02,-4.329161252826452255e-03,7.973823696374893188e-03,-9.174615144729614258e-03
-3.385794581845402718e-03,2.844797447323799133e-03,2.974557690322399139e-03,-5.701863672584295273e-03,1.160403434187173843e-02,2.503611030988395214e-04,6.257489323616027832e-03,2.503519644960761070e-03,-5.365092307329177856e-03
9.522550739347934723e-03,7.330914959311485291e-03,-3.144725458696484566e-03,1.829773886129260063e-03,-3.968448843806982040e-03,-6.527592893689870834e-03,-1.802187878638505936e-03,-5.024757236242294312e-03,-2.923040417954325676e-03
1.776846009306609631e-03,1.570224063470959663e-03,-2.533649676479399204e-04,2.832499565556645393e-03,2.195911481976509094e-02,-1.575619727373123169e-02,1.530081965029239655e-03,-1.626368844881653786e-03,2.420400036498904228e-03
-1.532158232294023037e-03,6.509327329695224762e-03,3.372866558493115008e-05,-3.519001184031367302e-03,-3.671118058264255524e-03,-8.980106562376022339e-03,-2.807467477396130562e-03,1.249623205512762070e-02,-8.591368794441223145e-03
2.045626519247889519e-03,4.335738718509674072e-03,-1.128547941334545612e-03,-2.220241725444793701e-02,9.304633364081382751e-03,-4.620543681085109711e-03,-8.009694283828139305e-05,-1.821066811680793762e-02,-6.640898995101451874e-03
1.995769795030355453e-03,-1.924275071360170841e-03,-4.876104649156332016e-03,2.258905908092856407e-03,-4.645892418920993805e-03,-7.710910285823047161e-04,-5.028651095926761627e-03,3.914870787411928177e-03,-1.486425055190920830e-03
9.187703020870685577e-03,2.024932205677032471e-02,7.810241542756557465e-03,1.078696828335523605e-02,2.323271334171295166e-02,-6.785432342439889908e-04,7.971896789968013763e-03,1.368266530334949493e-02,2.620316110551357269e-03
-2.004040637984871864e-03,2.757702721282839775e-03,4.076922778040170670e-03,7.245214190334081650e-03,1.482870546169579029e-03,-6.386414170265197754e-03,5.767157766968011856e-03,1.154249068349599838e-02,-7.528375717811286449e-04
1.136017090175300837e-04,-4.596943967044353485e-03,-2.262347191572189331e-02,-1.364419702440500259e-02,-2.320112101733684540e-02,-1.232295949012041092e-02,6.379574188031256199e-04,-1.102141477167606354e-02,-6.641958840191364288e-03
3.379435976967215538e-03,5.511207971721887589e-03,4.043252207338809967e-03,3.798314137384295464e-03,1.153880637139081955e-02,-8.647545240819454193e-03,5.702156573534011841e-03,6.316978484392166138e-03,-4.463470540940761566e-04
2.205187687650322914e-03,-4.358048026915639639e-04,-6.297675892710685730e-03,3.141648136079311371e-03,1.679756445810198784e-03,-4.738942719995975494e-03,2.017316874116659164e-04,-8.185028098523616791e-03,-6.706248968839645386e-03
6.176743656396865845e-03,1.908842846751213074e-02,2.235387000837363303e-05,-1.653888961300253868e-03,-6.298869382590055466e-03,-1.445807795971632004e-02,-2.052296418696641922e-03,-3.948474768549203873e-03,-3.168151713907718658e-03
-1.440938329324126244e-03,4.169226158410310745e-03,-9.579715551808476448e-04,-1.040112972259521484e-02,-7.716114632785320282e-03,-7.844363339245319366e-03,-4.523281473666429520e-03,9.809799958020448685e-04,-2.035266486927866936e-03
4.394165705889463425e-03,6.997221615165472031e-03,2.059700898826122284e-03,-7.474877871572971344e-03,-2.288770396262407303e-03,-6.996696814894676208e-03,-4.265471361577510834e-03,-2.021387219429016113e-03,-3.517136443406343460e-03
-2.951754489913582802e-03,1.396794244647026062e-02,-1.423117064405232668e-04,-5.701972171664237976e-03,4.333757329732179642e-03,-6.078393198549747467e-03,-4.324917215853929520e-03,2.331743016839027405e-03,1.416224520653486252e-03
-6.705682724714279175e-03,-6.909149233251810074e-03,3.579566720873117447e-03,-5.981823429465293884e-03,-1.207199972122907639e-02,5.836348864249885082e-04,-3.848886815831065178e-03,8.956804871559143066e-03,4.409161396324634552e-03
5.248705390840768814e-03,8.644157089293003082e-03,1.011339109390974045e-02,-3.244071966037154198e-03,-1.244326005689799786e-03,-8.280646987259387970e-03,2.346271649003028870e-03,8.797954767942428589e-03,-3.547296626493334770e-03
-1.128081791102886200e-02,-5.886092782020568848e-03,-2.584016649052500725e-03,-4.442720208317041397e-03,-6.234175991266965866e-03,-1.253886241465806961e-02,-2.545690396800637245e-03,7.119998801499605179e-03,-3.373825165908783674e-04
9.822430089116096497e-03,9.112829342484474182e-03,1.322234701365232468e-02,5.294344853609800339e-03,1.874056644737720490e-02,1.006060373038053513e-02,2.535602310672402382e-03,9.837120771408081055e-03,1.079972088336944580e-02
7.624165154993534088e-03,1.553392503410577774e-02,1.020995806902647018e-02,1.054640393704175949e-02,6.912328768521547318e-03,-3.053277265280485153e-03,-4.214657004922628403e-03,-2.377573866397142410e-03,9.232127107679843903e-03
-1.330911740660667419e-02,-1.743969856761395931e-03,5.486813373863697052e-03,-1.613978669047355652e-02,-8.649029769003391266e-03,-4.153583198785781860e-03,-5.911691114306449890e-03,4.701889120042324066e-03,1.829665270633995533e-03
6.526301149278879166e-03,9.509193710982799530e-03,-2.027748618274927139e-03,1.873952103778719902e-03,1.772598735988140106e-02,-1.633239164948463440e-02,-1.117058345698751509e-04,-5.900395568460226059e-03,-5.242615472525358200e-03
-1.212503993883728981e-03,8.418594487011432648e-03,3.923672717064619064e-03,1.813997747376561165e-03,1.448134239763021469e-02,-3.003287361934781075e-03,2.441871678456664085e-03,-4.203283693641424179e-03,1.987287076190114021e-03
2.642962790559977293e-04,8.398175239562988281e-03,7.903859950602054596e-03,-5.321194883435964584e-03,1.274626515805721283e-02,-3.566270694136619568e-03,1.276647322811186314e-03,2.300053602084517479e-03,-3.588399617001414299e-03
4.200316499918699265e-03,2.394923940300941467e-03,7.341236807405948639e-03,1.331939594820141792e-03,2.678296528756618500e-02,-1.793582923710346222e-02,-7.876543328166007996e-03,-6.310629192739725113e-03,-6.454799324274063110e-03
6.199649069458246231e-03,2.296759281307458878e-03,-5.319570656865835190e-03,-3.030693856999278069e-03,1.322892587631940842e-02,-1.239139121025800705e-02,-5.098683759570121765e-03,-8.304084651172161102e-03,-6.431597284972667694e-04
-2.785125747323036194e-03,1.009732391685247421e-02,-9.999837726354598999e-03,-1.046898216009140015e-02,-1.496700942516326904e-02,-6.749585736542940140e-03,4.050036426633596420e-03,3.701940411701798439e-03,-4.923365544527769089e-03
2.239465684397146106e-04,6.810298655182123184e-03,6.927894428372383118e-03,-1.037030201405286789e-02,-1.000191550701856613e-03,-4.178308416157960892e-03,-6.658268161118030548e-03,2.789339050650596619e-03,-2.523384755477309227e-03
-2.343380264937877655e-02,-4.245470836758613586e-02,-2.185472659766674042e-02,-2.522087469696998596e-02,-7.970555871725082397e-02,1.171280536800622940e-02,-1.985922008752822876e-01,-8.181847631931304932e-02,-1.755522787570953369e-01
-5.499673262238502502e-02,-9.591298550367355347e-02,-5.225788801908493042e-02,2.220871858298778534e-02,-8.662112802267074585e-02,-1.723736897110939026e-02,1.366018801927566528e-01,5.739141255617141724e-02,3.438417240977287292e-02
1.825631260871887207e-01,1.088860109448432922e-01,1.556749045848846436e-01,2.240875959396362305e-01,1.621122360229492188e-01,2.163079082965850830e-01,-2.173317410051822662e-02,2.802319638431072235e-02,-7.477574795484542847e-02
-2.118345163762569427e-02,7.795313745737075806e-02,-1.416633129119873047e-01,1.264019757509231567e-01,-9.063251316547393799e-02,-5.291333422064781189e-03,2.990825450979173183e-04,-1.002704277634620667e-01,-2.594676613807678223e-02
-1.969615370035171509e-02,-3.756775334477424622e-02,2.136383578181266785e-02,-1.212223991751670837e-01,-3.480679821223020554e-03,-1.060006325133144855e-03,-2.417390234768390656e-02,-5.105288326740264893e-02,5.076224729418754578e-02
3.041069768369197845e-02,7.439737021923065186e-02,5.078338552266359329e-03,6.608437001705169678e-02,5.182045698165893555e-02,7.144392281770706177e-02,-1.406328566372394562e-02,-5.228710174560546875e-02,-5.745097249746322632e-02
-8.505387604236602783e-02,1.334428340196609497e-01,1.779626682400703430e-02,-7.613417226821184158e-03,3.436557576060295105e-02,6.337612122297286987e-02,-3.252804279327392578e-02,1.003548949956893921e-01,-5.675175786018371582e-02
-4.101312533020973206e-02,1.723584532737731934e-01,8.921234309673309326e-02,6.122889369726181030e-02,-6.777058541774749756e-02,1.279768496751785278e-01,1.963506639003753662e-02,1.141537204384803772e-01,1.057568117976188660e-01
-5.376546084880828857e-02,-1.662504859268665314e-02,4.202440381050109863e-02,-3.635221347212791443e-02,-7.757742702960968018e-02,6.038681603968143463e-03,-1.378736644983291626e-01,-1.495750099420547485e-01,-4.964184015989303589e-02
3.110887296497821808e-02,6.141335517168045044e-02,8.157224394381046295e-03,-1.014375761151313782e-01,9.877098724246025085e-03,-5.781457200646400452e-02,5.602597072720527649e-02,1.593448370695114136e-01,1.183121055364608765e-01
1.493559777736663818e-01,6.756985932588577271e-02,9.127382934093475342e-02,1.966383308172225952e-01,9.109042584896087646e-02,2.090348675847053528e-02,1.249961480498313904e-01,1.172849256545305252e-02,8.534145355224609375e-02
2.023277878761291504e-01,3.731159865856170654e-02,1.266039013862609863e-01,1.219396740198135376e-01,7.631854619830846786e-03,5.500842630863189697e-02,6.383267045021057129e-02,-2.877496881410479546e-03,5.934632569551467896e-02
9.108222275972366333e-02,1.023252457380294800e-01,9.424966573715209961e-02,1.050068289041519165e-01,1.434681415557861328e-01,1.399586200714111328e-01,1.179350689053535461e-01,8.370336145162582397e-02,1.502410769462585449e-01
1.160981878638267517e-02,1.583928316831588745e-01,-7.481523603200912476e-02,2.076017856597900391e-02,2.451143562793731689e-01,4.856199026107788086e-02,5.357347801327705383e-02,1.038269624114036560e-01,1.106223370879888535e-02
-2.757834643125534058e-02,-3.646862506866455078e-02,6.430463492870330811e-02,-7.881138473749160767e-02,-1.096710637211799622e-01,-7.548119127750396729e-02,1.801920533180236816e-01,1.563249528408050537e-01,6.064196676015853882e-02
7.044487446546554565e-02,-1.125752180814743042e-02,1.640026643872261047e-02,-7.624883949756622314e-02,-6.198007613420486450e-02,-1.286349911242723465e-02,-1.081660240888595581e-01,-1.004796996712684631e-01,-8.501136302947998047e-02
8.256153762340545654e-02,7.140594720840454102e-02,8.324896544218063354e-02,-8.777898736298084259e-03,-6.383577734231948853e-02,-4.648701287806034088e-03,2.960184775292873383e-02,-2.523172087967395782e-02,4.038891941308975220e-02
2.314763516187667847e-01,9.563199430704116821e-02,2.357895523309707642e-01,1.128401905298233032e-01,3.945248946547508240e-02,1.168995797634124756e-01,-1.675761789083480835e-01,-5.388288944959640503e-02,-2.429065555334091187e-01
1.675663292407989502e-01,8.880934678018093109e-03,-5.768715217709541321e-02,-2.159490287303924561e-01,-1.939469873905181885e-01,-2.553177475929260254e-01,-2.428106591105461121e-02,9.759010374546051025e-02,-2.011249810457229614e-01
-2.218250930309295654e-02,-8.084324188530445099e-03,-1.640863902866840363e-02,-3.012431412935256958e-02,-2.591000869870185852e-02,-3.240833291783928871e-03,3.171964734792709351e-02,6.261597573757171631e-02,6.545310467481613159e-02
1.498777717351913452e-01,1.255622804164886475e-01,1.386185139417648315e-01,1.392520219087600708e-01,1.292723864316940308e-01,1.416847556829452515e-01,7.693493366241455078e-02,-4.176005348563194275e-02,6.583944708108901978e-02
-4.018418956547975540e-03,5.314446240663528442e-02,-6.546638906002044678e-03,-4.363615065813064575e-02,1.686361245810985565e-02,5.940301716327667236e-02,5.711270868778228760e-02,9.754103608429431915e-03,8.928412199020385742e-02
-8.919765055179595947e-02,-6.220683455467224121e-02,-9.971957653760910034e-02,2.741864323616027832e-02,1.501476317644119263e-01,3.233266621828079224e-02,-8.103565126657485962e-02,1.045646890997886658e-01,-2.592014707624912262e-02
1.517376303672790527e-01,3.079497627913951874e-02,8.244447410106658936e-02,8.201618492603302002e-02,-5.122552812099456787e-02,-3.446359559893608093e-02,-1.864058524370193481e-02,-1.533229090273380280e-02,-1.291051208972930908e-01
6.650230288505554199e-02,2.830498293042182922e-02,1.049114167690277100e-01,4.534602165222167969e-03,1.917423098348081112e-03,4.755351319909095764e-02,-1.473758518695831299e-01,1.063307560980319977e-02,1.146854367107152939e-02
-5.150371789932250977e-02,2.504498325288295746e-02,-1.160289123654365540e-01,2.444896927045192569e-05,-1.789709031581878662e-01,1.091495081782341003e-01,1.086425408720970154e-01,1.385753694921731949e-02,-2.825366891920566559e-02
3.054370731115341187e-02,-2.863498032093048096e-02,-4.742452409118413925e-03,6.362453848123550415e-02,3.885547816753387451e-02,2.501740865409374237e-02,1.578928679227828979e-01,1.658070087432861328e-01,1.210897490382194519e-01
7.402735948562622070e-02,2.101306617259979248e-02,5.670600803568959236e-04,1.049471870064735413e-01,1.098401248455047607e-01,1.333010941743850708e-01,-1.751792579889297485e-01,-1.093900799751281738e-01,-5.349091254174709320e-03
-4.964376240968704224e-02,4.514583572745323181e-02,5.834128707647323608e-02,-2.306033521890640259e-01,-1.692717075347900391e-01,-1.117656100541353226e-02,3.562318533658981323e-02,1.356875896453857422e-01,7.907922565937042236e-02
4.368082433938980103e-02,-1.346634775400161743e-01,2.276596613228321075e-03,-7.654234021902084351e-02,-1.021568030118942261e-01,-3.350406140089035034e-02,-2.586029842495918274e-02,5.262949969619512558e-03,-2.282225899398326874e-02
-8.068000525236129761e-02,-2.180498559027910233e-03,-6.310769915580749512e-02,1.186144649982452393e-01,1.723940372467041016e-01,4.469580575823783875e-02,-3.059838525950908661e-02,-3.971824888139963150e-03,-5.055221915245056152e-02
5.996036902070045471e-02,-8.966863155364990234e-02,-1.508286744356155396e-01,-4.134324193000793457e-01,-4.320914447307586670e-01,-1.596856564283370972e-01,-1.060217469930648804e-01,-5.454284697771072388e-02,5.925672501325607300e-02
7.314614951610565186e-02,1.338989287614822388e-01,8.076158910989761353e-02,9.341649711132049561e-02,3.597683459520339966e-02,4.093883931636810303e-02,1.027444526553153992e-01,7.485322654247283936e-02,6.200191378593444824e-02
-1.404744014143943787e-02,8.536677062511444092e-02,-3.419954329729080200e-02,3.312043845653533936e-02,-7.183989137411117554e-02,1.111982390284538269e-01,-2.490033507347106934e-01,-1.267913728952407837e-01,-7.788412272930145264e-02
4.885441809892654419e-02,-1.877942122519016266e-02,4.001284390687942505e-02,-3.047797270119190216e-02,-4.485957697033882141e-02,-7.875643670558929443e-02,7.030815351754426956e-03,6.267677247524261475e-02,4.554862529039382935e-02
1.145289987325668335e-01,1.393063366413116455e-01,1.495439261198043823e-01,5.149901658296585083e-02,1.711152866482734680e-02,4.980653524398803711e-02,-8.450029790401458740e-02,-5.325626581907272339e-02,-7.504884898662567139e-02
1.380759179592132568e-01,1.413652896881103516e-01,1.331398189067840576e-01,4.043967649340629578e-02,3.255516663193702698e-02,1.035268306732177734e-01,-2.125834077596664429e-01,-1.309495121240615845e-01,-8.692944794893264771e-02
1.303968876600265503e-01,3.806291893124580383e-02,1.104114875197410583e-01,9.480451047420501709e-02,4.907435178756713867e-02,1.172192692756652832e-01,1.084339022636413574e-01,9.817895293235778809e-02,1.776560842990875244e-01
2.026947028934955597e-02,-1.524579129181802273e-04,1.779894158244132996e-02,7.815516740083694458e-02,1.002619601786136627e-02,5.915198847651481628e-02,-1.679882407188415527e-01,-3.048770502209663391e-02,-1.017239913344383240e-01
-2.900320477783679962e-02,-8.347157388925552368e-02,-1.153587698936462402e-01,7.195906713604927063e-03,3.447846695780754089e-02,2.204273454844951630e-02,1.059514563530683517e-02,1.363902445882558823e-02,-8.975350111722946167e-02
1.734001636505126953e-01,1.422719806432723999e-01,6.162113975733518600e-03,1.955184042453765869e-01,1.798762679100036621e-01,6.817936152219772339e-02,-9.434431791305541992e-02,-6.070109084248542786e-03,-1.298334002494812012e-01
2.265418469905853271e-01,2.597343623638153076e-01,1.005179062485694885e-01,2.016662955284118652e-01,2.469922751188278198e-01,1.156547144055366516e-01,1.771022975444793701e-01,2.274727374315261841e-01,1.039139702916145325e-01
-1.224273294210433960e-01,-2.013146430253982544e-01,-7.709603756666183472e-02,-1.771258413791656494e-01,-1.884366273880004883e-01,-1.032865792512893677e-01,-2.005958370864391327e-02,-3.400477021932601929e-02,1.630687154829502106e-02
-6.603597197681665421e-03,-3.963441401720046997e-02,-1.483921557664871216e-01,1.223383918404579163e-01,-2.246979158371686935e-03,8.217980712652206421e-02,1.083528399467468262e-01,2.614357694983482361e-02,9.541044384241104126e-02
9.125076234340667725e-02,2.135829813778400421e-02,1.008952781558036804e-01,-3.437673673033714294e-02,4.574054479598999023e-02,-3.402572125196456909e-02,-8.739703893661499023e-02,-3.141031786799430847e-02,-8.808112889528274536e-02
1.833158433437347412e-01,9.006452560424804688e-02,1.547818332910537720e-01,1.687236428260803223e-01,1.713219285011291504e-01,1.226459816098213196e-01,1.052414402365684509e-01,1.265750527381896973e-01,2.201386839151382446e-01
1.762736141681671143e-01,1.552357673645019531e-01,1.997669935226440430e-01,4.901811853051185608e-02,6.624862551689147949e-02,1.185072883963584900e-01,5.708849802613258362e-02,9.810369461774826050e-02,6.484808027744293213e-02
3.423607908189296722e-03,-7.303236983716487885e-03,-8.693162351846694946e-02,-2.443043887615203857e-02,-8.921494334936141968e-02,-1.188609004020690918e-02,7.167733460664749146e-02,1.270413696765899658e-01,-5.816772580146789551e-02
-7.335797697305679321e-02,1.627673208713531494e-02,-1.394942775368690491e-02,1.065341159701347351e-01,-8.766948431730270386e-02,2.521200664341449738e-02,-3.449631854891777039e-02,-6.670092046260833740e-02,6.151011213660240173e-02
1.393321305513381958e-01,2.566055767238140106e-02,5.136795341968536377e-02,-1.178340613842010498e-02,6.743947416543960571e-02,2.185446396470069885e-02,-3.471204265952110291e-02,5.220464989542961121e-02,-3.638297319412231445e-02
2.142291516065597534e-03,-1.348875835537910461e-02,1.041635498404502869e-01,-1.986505277454853058e-02,-7.045919075608253479e-03,1.358542591333389282e-01,-1.218013167381286621e-01,-3.481128811836242676e-02,-1.024632453918457031e-01
