-3.293747663497924805e+00
4.353853702545166016e+00
-7.856925949454307556e-03
-3.142129659652709961e+00
-5.094141483306884766e+00
-7.489735484123229980e-01
-1.813121795654296875e+00
-1.731213808059692383e+00
3.151051759719848633e+00
3.882840275764465332e-01
7.324687480926513672e+00
5.364992141723632812e+00
-8.403828620910644531e+00
2.447397708892822266e+00
8.994421362876892090e-01
-9.578850269317626953e-01
-3.989637851715087891e+00
-6.431049823760986328e+00
6.630501747131347656e-01
-9.281366467475891113e-01
-5.763044953346252441e-01
-1.005190849304199219e+00
-1.512534618377685547e+00
-4.103085696697235107e-01
-5.057457923889160156e+00
1.380780315399169922e+01
-5.143217742443084717e-03
5.346729606389999390e-02
-1.491695880889892578e+00
-1.384512662887573242e+00
4.015960216522216797e+00
-4.662840068340301514e-01
-1.367902994155883789e+00
-2.465343952178955078e+00
1.591514348983764648e+00
-1.246760606765747070e+00
-1.503641605377197266e-01
-1.065260171890258789e+00
-1.761592179536819458e-01
-1.830780953168869019e-01
4.393533706665039062e+00
3.032523393630981445e+00
-2.746079206466674805e+00
1.401049494743347168e+00
-2.257287979125976562e+00
1.157661724090576172e+01
-1.096501111984252930e+00
-1.216290235519409180e+00
-4.674281775951385498e-01
-1.540719509124755859e+00
8.381335735321044922e-01
-5.418728828430175781e+00
5.639286994934082031e+00
5.172438621520996094e-01
-3.800527811050415039e+00
-1.535748481750488281e+00
-2.374199330806732178e-01
6.623930454254150391e+00
4.705847263336181641e+00
7.988160103559494019e-02
-1.318591237068176270e+00
-4.453719615936279297e+00
1.625391840934753418e+00
6.663397789001464844e+00
