-1.269684080034494400e-02,-1.998988725244998932e-02,6.171247735619544983e-02,-6.073501333594322205e-02,-1.252181679010391235e-01,9.763836115598678589e-02,-3.561572730541229248e-02,-5.028069019317626953e-02,8.584092557430267334e-02
4.457136243581771851e-02,-4.447825625538825989e-02,-7.027234823908656836e-05,-3.712158650159835815e-02,-3.170376643538475037e-02,-4.771453794091939926e-03,-4.118574783205986023e-02,-8.793279528617858887e-02,-2.098101191222667694e-02
5.618687137030065060e-04,-2.753966301679611206e-02,4.465244710445404053e-02,3.818822652101516724e-02,3.244301304221153259e-02,6.778860092163085938e-02,2.791222929954528809e-02,1.277641300112009048e-02,4.369911551475524902e-02
-1.613346487283706665e-02,3.287672623991966248e-02,6.935573369264602661e-02,4.853911232203245163e-03,-7.353708893060684204e-02,6.131222844123840332e-02,-3.269425407052040100e-02,9.898990392684936523e-04,2.778620831668376923e-02
1.955030485987663269e-02,-3.126889839768409729e-02,-1.874666288495063782e-02,7.486911956220865250e-03,-3.483919799327850342e-02,7.597321271896362305e-02,9.944395162165164948e-03,-1.147942245006561279e-01,3.244680911302566528e-02
1.540828496217727661e-02,-9.326560795307159424e-02,7.898939400911331177e-02,-3.195761144161224365e-02,-4.242200870066881180e-03,7.979290932416915894e-02,6.745745893567800522e-03,-8.279068768024444580e-02,7.688355445861816406e-02
7.860299944877624512e-02,1.330491155385971069e-03,2.599081024527549744e-02,4.465789720416069031e-02,1.329049281775951385e-02,5.918546766042709351e-02,6.176945567131042480e-02,1.936074905097484589e-02,4.421889781951904297e-02
-4.144525527954101562e-02,-7.917999476194381714e-02,7.145436108112335205e-02,2.042504213750362396e-02,-5.005334690213203430e-02,1.205671876668930054e-01,1.080316305160522461e-02,-2.559980377554893494e-03,6.449148058891296387e-02
3.850305825471878052e-02,3.857164829969406128e-02,9.263638406991958618e-02,4.584922268986701965e-02,1.089670881628990173e-02,1.313238143920898438e-01,-3.629725798964500427e-02,-6.208661198616027832e-02,4.749690368771553040e-02
-1.569949649274349213e-02,-2.385224215686321259e-02,4.496879503130912781e-02,1.803219132125377655e-02,-7.123261690139770508e-02,5.776374042034149170e-02,-1.886675949208438396e-03,-5.290468409657478333e-02,2.514722943305969238e-02
-5.654041096568107605e-02,-7.076895236968994141e-02,4.915035516023635864e-02,-4.056881740689277649e-02,4.675247147679328918e-02,7.300840318202972412e-02,-2.219151891767978668e-02,-4.268715530633926392e-02,3.636271134018898010e-02
-1.103247329592704773e-02,-1.034192554652690887e-02,4.577389732003211975e-02,-4.972208663821220398e-02,1.750928722321987152e-02,8.444584161043167114e-02,-3.070552088320255280e-02,5.416953936219215393e-04,6.855198740959167480e-02
-2.005715221166610718e-01,-2.615242898464202881e-01,-1.020587161183357239e-01,-1.109552383422851562e-01,5.559390783309936523e-01,-4.433675482869148254e-02,-1.146971434354782104e-01,-1.082578748464584351e-01,-9.443068504333496094e-02
-1.061618234962224960e-02,1.567155122756958008e-02,-7.663547061383724213e-03,2.178700454533100128e-02,1.107323691248893738e-01,1.965285046026110649e-03,1.235633529722690582e-02,-1.772833405993878841e-03,-1.323415618389844894e-02
-9.798144921660423279e-03,8.833480626344680786e-02,1.230610907077789307e-01,-2.298007905483245850e-02,-1.725944504141807556e-02,8.825050294399261475e-02,-3.902178257703781128e-02,-2.635297738015651703e-02,7.294380664825439453e-02
-5.364663526415824890e-02,-5.126043781638145447e-02,3.924120217561721802e-02,-3.887209296226501465e-02,1.641916856169700623e-02,4.540012031793594360e-02,-5.332673713564872742e-02,-4.859265312552452087e-02,6.956979632377624512e-02
-8.957850746810436249e-03,3.246013820171356201e-02,3.893126547336578369e-02,2.399338595569133759e-02,-8.619235828518867493e-03,1.075612902641296387e-01,-5.552872270345687866e-02,-4.633228853344917297e-02,1.021862328052520752e-01
1.709561212919652462e-03,-9.117309749126434326e-02,2.475121244788169861e-02,-3.098221495747566223e-02,-1.779309473931789398e-02,-2.982858940958976746e-02,-2.714314498007297516e-02,-8.934139460325241089e-02,2.977212704718112946e-02
-2.425208501517772675e-02,-2.768171578645706177e-02,1.424052715301513672e-01,-1.262117875739932060e-03,-3.877133503556251526e-02,6.928840279579162598e-02,-5.561520904302597046e-02,-3.049768134951591492e-02,1.659615430980920792e-03
5.998439621180295944e-03,-4.442324116826057434e-02,6.501102447509765625e-02,7.871764153242111206e-02,-1.560875773429870605e-01,2.520667156204581261e-03,4.061238840222358704e-02,-2.479826286435127258e-02,2.026988193392753601e-02
-2.397545985877513885e-02,1.901396433822810650e-03,6.565228104591369629e-02,7.823211140930652618e-03,-2.487619873136281967e-03,6.373391300439834595e-02,-3.509061411023139954e-02,-2.579551562666893005e-02,6.360609829425811768e-02
-1.696874201297760010e-02,-5.358682572841644287e-02,5.078661441802978516e-02,3.867934644222259521e-02,-1.269063949584960938e-01,1.189035996794700623e-01,2.804679423570632935e-02,-8.496441692113876343e-02,9.149887412786483765e-02
-3.505739197134971619e-02,-1.050982065498828888e-02,-6.203555688261985779e-02,-1.103108283132314682e-02,4.185837507247924805e-01,-7.904794812202453613e-02,-5.700094625353813171e-02,-3.817917406558990479e-02,-9.109072387218475342e-02
-3.469892218708992004e-02,-3.012665361166000366e-02,1.090222969651222229e-03,-1.784924976527690887e-02,-6.475353986024856567e-02,-6.137181073427200317e-02,-6.561226211488246918e-03,3.335032239556312561e-02,3.326122090220451355e-02
-1.640908420085906982e-02,2.334115793928503990e-03,1.000479832291603088e-01,-3.252865746617317200e-02,1.885346323251724243e-02,8.880507200956344604e-02,-2.010883577167987823e-02,-3.691881150007247925e-02,6.557657569646835327e-02
8.857233822345733643e-02,1.185236796736717224e-01,1.775695234537124634e-01,1.030968502163887024e-01,4.233124479651451111e-02,2.126819342374801636e-01,6.378403306007385254e-02,8.198920637369155884e-02,1.603962182998657227e-01
-5.204705987125635147e-03,-1.271457504481077194e-02,2.161647751927375793e-02,8.893940597772598267e-03,-2.165481261909008026e-02,5.469062924385070801e-02,-1.228858437389135361e-02,-7.887214422225952148e-02,2.946780808269977570e-02
-2.653895318508148193e-02,1.672103255987167358e-02,7.916887104511260986e-02,-1.917973905801773071e-02,-1.017584800720214844e-01,1.200885251164436340e-01,-3.865328431129455566e-02,-8.037264458835124969e-03,7.717414200305938721e-02
-2.892783842980861664e-02,-6.550753861665725708e-02,-1.343697309494018555e-02,-2.040868066251277924e-02,7.807550579309463501e-02,9.922129660844802856e-02,-1.607703790068626404e-02,-4.129887372255325317e-02,-4.020994063466787338e-03
2.627207525074481964e-02,-4.181779548525810242e-02,1.137422025203704834e-01,-2.114333584904670715e-02,-3.575102984905242920e-02,7.769004255533218384e-02,-3.243141248822212219e-02,-4.159164428710937500e-02,1.468159817159175873e-02
-6.518309004604816437e-03,8.961703628301620483e-03,2.769353613257408142e-02,2.896527945995330811e-02,3.279307112097740173e-02,-4.529420286417007446e-03,-3.029686957597732544e-02,1.381062157452106476e-02,-3.652044385671615601e-02
3.661162918433547020e-03,-1.598387770354747772e-02,1.200496479868888855e-01,-2.394471503794193268e-02,-7.263419777154922485e-02,1.470457613468170166e-01,4.302779212594032288e-03,2.639914117753505707e-02,1.084309965372085571e-01
3.549268236383795738e-03,9.166170842945575714e-03,-1.524696499109268188e-02,-9.392427280545234680e-03,3.392541110515594482e-01,-4.249805584549903870e-02,8.382910862565040588e-03,-4.265496134757995605e-02,-8.125804364681243896e-03
-1.269911229610443115e-02,1.056480128318071365e-02,3.624453768134117126e-02,2.435077354311943054e-02,9.135134518146514893e-02,5.134394764900207520e-02,-1.305990479886531830e-02,-7.938191294670104980e-02,9.505763649940490723e-03
-3.950866870582103729e-03,-4.228837043046951294e-02,2.695083618164062500e-02,-2.093853196129202843e-03,1.394695136696100235e-04,1.169619783759117126e-01,-1.644090376794338226e-02,-6.786282639950513840e-03,8.303097635507583618e-02
3.010548418387770653e-03,-5.305311456322669983e-02,-6.288205273449420929e-03,-5.589829757809638977e-03,-8.149745315313339233e-02,9.124606102705001831e-02,3.092616563662886620e-03,-8.825195580720901489e-02,3.231543302536010742e-02
-1.152772735804319382e-02,-5.036859959363937378e-02,2.953711897134780884e-02,5.158287659287452698e-02,9.468858130276203156e-03,4.487261921167373657e-02,-1.050424412824213505e-03,-3.097897022962570190e-02,7.792276330292224884e-03
-2.185723744332790375e-02,-1.635384373366832733e-02,5.205540359020233154e-02,1.739666983485221863e-02,3.410975635051727295e-02,1.204553246498107910e-01,-3.256036341190338135e-02,-7.557491958141326904e-02,5.557199940085411072e-02
2.120085991919040680e-02,-6.142928078770637512e-02,6.017819046974182129e-02,-1.288873795419931412e-02,-1.070213690400123596e-01,1.280357241630554199e-01,4.798863828182220459e-02,4.320247471332550049e-02,6.265244632959365845e-02
-1.881927950307726860e-03,-3.394338116049766541e-02,4.198269546031951904e-02,3.269193321466445923e-02,2.978913858532905579e-02,8.879552036523818970e-02,-3.540797904133796692e-02,-1.262354757636785507e-02,2.969560958445072174e-02
6.900663021951913834e-03,-1.087696291506290436e-02,5.682409182190895081e-02,-5.108016729354858398e-02,8.704704046249389648e-02,7.421277463436126709e-02,-2.882566675543785095e-02,-2.925834991037845612e-02,1.655303873121738434e-02
1.304195262491703033e-02,-1.272961311042308807e-02,3.900191979482769966e-03,-8.309451863169670105e-03,4.130700975656509399e-02,-4.304918646812438965e-02,1.520801708102226257e-02,-8.287883363664150238e-03,2.530323714017868042e-02
8.259695954620838165e-03,8.795137703418731689e-02,1.592567861080169678e-01,5.824978277087211609e-02,-1.476280950009822845e-02,1.621423959732055664e-01,-1.284349244087934494e-02,4.043816030025482178e-02,9.492252767086029053e-02
-4.400016739964485168e-02,-4.917592555284500122e-02,9.674847126007080078e-02,3.407726436853408813e-02,-1.316464692354202271e-01,1.957170963287353516e-01,1.836122572422027588e-02,-7.827371358871459961e-03,5.704924464225769043e-02
-6.341474503278732300e-02,-1.057595666497945786e-02,1.001291908323764801e-02,1.717640645802021027e-02,-2.081165164709091187e-01,1.208052858710289001e-01,-2.677304297685623169e-02,-4.827269166707992554e-02,2.282418869435787201e-02
-2.077384851872920990e-02,-1.407197676599025726e-02,1.262154877185821533e-01,1.875858008861541748e-02,6.778307142667472363e-04,1.813671886920928955e-01,-3.067254275083541870e-02,3.200301527976989746e-02,8.684880286455154419e-02
-3.897073119878768921e-02,8.983713574707508087e-03,1.029179543256759644e-01,-4.354763403534889221e-02,1.034531649202108383e-02,9.260699898004531860e-02,-4.189912602305412292e-02,-3.979974426329135895e-03,6.057239696383476257e-02
-4.400300979614257812e-02,-1.424906495958566666e-02,3.725045919418334961e-02,-2.118932828307151794e-02,3.765772283077239990e-02,5.144596844911575317e-02,-2.901004627346992493e-03,-1.159674674272537231e-01,3.524949541315436363e-03
1.911994814872741699e-02,-3.122163191437721252e-02,6.735099107027053833e-02,7.643991615623235703e-03,7.080136984586715698e-02,1.599349640309810638e-02,-2.694521285593509674e-02,-1.395504921674728394e-01,2.498851716518402100e-02
-5.774973705410957336e-02,-7.743682712316513062e-02,-4.387962445616722107e-02,-7.792268693447113037e-02,-2.368537932634353638e-01,5.521677806973457336e-02,-7.634710520505905151e-02,-1.958472654223442078e-02,-1.097961445339024067e-03
-4.522129427641630173e-03,-5.921829491853713989e-02,-2.508899429813027382e-03,3.717276826500892639e-02,-3.834598464891314507e-03,1.162101980298757553e-02,2.674831077456474304e-02,-3.515299037098884583e-02,-1.798899471759796143e-02
9.251781739294528961e-03,-2.357240393757820129e-02,8.282899856567382812e-02,2.709730528295040131e-02,9.071107208728790283e-02,8.507078886032104492e-02,-3.919025510549545288e-02,-1.037548482418060303e-01,7.715666294097900391e-02
1.233030762523412704e-02,-1.712211780250072479e-02,6.019077077507972717e-02,3.380084037780761719e-02,3.230752423405647278e-02,7.425686717033386230e-02,-1.996859209612011909e-03,-8.114982396364212036e-02,3.145179152488708496e-02
-4.616788029670715332e-02,-6.316640879958868027e-03,5.917344614863395691e-02,-7.493423670530319214e-02,2.247588941827416420e-03,6.820815801620483398e-02,2.849891548976302147e-03,-3.737255558371543884e-02,3.086715936660766602e-02
8.163291960954666138e-03,3.869442269206047058e-02,4.389059916138648987e-02,8.699346333742141724e-02,-1.086789071559906006e-01,1.032816991209983826e-01,2.382892556488513947e-02,-5.632237344980239868e-02,2.660389244556427002e-02
2.499217726290225983e-02,-3.816982358694076538e-02,2.636528760194778442e-02,1.067412924021482468e-02,-7.283744961023330688e-02,2.039831830188632011e-03,8.593794889748096466e-03,1.343032578006386757e-03,2.709083259105682373e-02
-3.652820363640785217e-02,-3.563753888010978699e-02,5.509782582521438599e-02,-2.723201364278793335e-02,-5.310175940394401550e-03,7.141280174255371094e-02,-2.101396955549716949e-02,-4.328562412410974503e-03,6.736592203378677368e-02
4.901228100061416626e-02,1.864717528223991394e-02,7.576053589582443237e-02,5.096467584371566772e-02,-2.365485019981861115e-02,5.223621800541877747e-02,-1.010208297520875931e-02,-5.164785310626029968e-02,1.446830388158559799e-02
-2.472808398306369781e-02,-8.029889315366744995e-03,6.755600124597549438e-02,-6.610336154699325562e-02,3.753039240837097168e-02,1.584863215684890747e-01,-3.491988778114318848e-02,-1.066395780071616173e-03,3.399574011564254761e-02
-2.549109049141407013e-02,-6.327381730079650879e-02,4.359368607401847839e-02,1.023982465267181396e-02,-3.069915622472763062e-02,6.808479875326156616e-02,2.785211987793445587e-02,-2.472120337188243866e-02,4.429524391889572144e-02
1.203518640249967575e-02,-3.434049896895885468e-03,9.004016965627670288e-02,6.675607711076736450e-02,-1.218847781419754028e-01,1.209645643830299377e-01,7.840677164494991302e-03,-3.572811931371688843e-02,1.000333651900291443e-01
3.415337530896067619e-03,-5.722983926534652710e-02,6.479312479496002197e-02,2.151492051780223846e-02,-3.632287681102752686e-02,5.285347625613212585e-02,3.953640989493578672e-04,-2.896765433251857758e-02,5.204294621944427490e-02
-5.511010531336069107e-03,-5.811833217740058899e-02,5.859242007136344910e-02,-2.952836081385612488e-02,2.047214470803737640e-02,7.530761510133743286e-02,-2.935072779655456543e-02,-9.221883863210678101e-02,5.211345106363296509e-02
-3.142048418521881104e-02,3.025125153362751007e-02,9.241175651550292969e-02,4.826458636671304703e-03,6.381928175687789917e-02,1.257570683956146240e-01,-6.009442731738090515e-02,-1.417778898030519485e-02,7.792326062917709351e-02
-2.832053601741790771e-02,-4.889519512653350830e-02,-2.670740149915218353e-02,-3.343910723924636841e-02,-1.012964639812707901e-02,-3.405410051345825195e-02,-4.605535417795181274e-02,-4.568449035286903381e-02,-1.952526718378067017e-02
-3.584241867065429688e-02,-3.361743688583374023e-02,-1.890694163739681244e-02,-7.591072935611009598e-03,-1.596812903881072998e-02,1.573471166193485260e-02,-4.358581081032752991e-02,-3.317198157310485840e-02,1.011937391012907028e-02
-2.661294117569923401e-02,-8.307540416717529297e-02,-7.124096155166625977e-02,-1.311888801865279675e-03,-3.659079596400260925e-02,-5.753226578235626221e-02,-1.192956324666738510e-02,-7.565975934267044067e-02,-4.367282614111900330e-02
-2.774481661617755890e-02,-5.529459193348884583e-02,-1.162226945161819458e-01,-1.410111319273710251e-02,-4.217717796564102173e-03,-1.219960488379001617e-02,-5.839544162154197693e-02,-4.011562839150428772e-02,-6.166191026568412781e-02
-1.105986721813678741e-02,-1.876838854514062405e-03,-2.442989684641361237e-02,4.128764942288398743e-02,5.301944538950920105e-02,1.723795197904109955e-02,-4.851974546909332275e-02,-2.859816959244199097e-05,-3.061985597014427185e-02
-1.436178199946880341e-02,-4.709301143884658813e-02,3.889597486704587936e-03,9.372812695801258087e-03,-2.705541811883449554e-02,2.364431507885456085e-02,-4.512821137905120850e-02,-2.327790856361389160e-02,-6.551046855747699738e-03
4.575148690491914749e-03,1.994194276630878448e-02,5.124231800436973572e-02,1.131210848689079285e-02,2.515133656561374664e-02,3.578886762261390686e-02,1.941245794296264648e-02,1.845230720937252045e-02,3.327284008264541626e-02
-1.140109077095985413e-02,-4.612758010625839233e-02,-9.265189617872238159e-02,5.424067750573158264e-02,-6.459202617406845093e-03,2.370973490178585052e-02,2.668647095561027527e-03,-3.901094570755958557e-02,-4.437329620122909546e-02
-4.204753413796424866e-02,-7.883798331022262573e-02,-8.670549094676971436e-02,-2.878981269896030426e-02,-4.739124327898025513e-02,-2.459203265607357025e-02,-2.696092799305915833e-02,-3.825213760137557983e-02,-3.519402444362640381e-02
-1.826800592243671417e-02,-2.068874798715114594e-02,-3.719639405608177185e-02,5.935844092164188623e-05,1.401149854063987732e-02,-4.152385145425796509e-02,2.723803845583461225e-05,-2.451932989060878754e-02,-1.003630179911851883e-02
-5.003882944583892822e-02,-4.115347191691398621e-02,-9.126368910074234009e-02,-1.214395277202129364e-02,-3.459180891513824463e-02,-4.467235505580902100e-02,-3.013012744486331940e-02,-3.436511009931564331e-02,-3.680079430341720581e-02
-6.103366240859031677e-02,-8.613561838865280151e-02,-1.172594204545021057e-01,-4.719630256295204163e-02,-5.451536923646926880e-02,-7.749710977077484131e-02,-3.469936922192573547e-02,-4.032114520668983459e-02,-1.785723306238651276e-02
-2.764175646007061005e-02,6.408907938748598099e-04,-1.876511424779891968e-02,-4.116343706846237183e-02,2.081912709400057793e-03,-2.749581262469291687e-02,1.758584938943386078e-02,3.765722364187240601e-02,1.383439730852842331e-02
3.411511424928903580e-03,1.865598314907401800e-04,-1.468530576676130295e-02,1.249733660370111465e-02,-1.737686432898044586e-02,-2.246852964162826538e-03,2.464822493493556976e-03,2.013094257563352585e-03,-1.154168276116251945e-03
-6.206031516194343567e-02,-5.950146168470382690e-02,-1.066084206104278564e-01,-3.776853159070014954e-02,-1.051851734519004822e-02,-6.054995208978652954e-02,-7.734431326389312744e-02,-2.151040546596050262e-02,-2.853479422628879547e-02
-3.989094868302345276e-02,-6.680066231638193130e-03,-6.935743987560272217e-02,-3.281054273247718811e-02,-3.496686369180679321e-02,-2.998524531722068787e-02,-1.610922999680042267e-02,-3.250287473201751709e-02,-3.261684626340866089e-02
-1.198959723114967346e-02,-3.701755078509449959e-03,-4.263114556670188904e-02,2.578571252524852753e-02,-9.859371930360794067e-03,-2.347880974411964417e-02,-5.691647157073020935e-02,-5.358603596687316895e-02,-7.045734673738479614e-02
-1.742438040673732758e-02,-3.172527253627777100e-02,-3.868162631988525391e-02,3.839137032628059387e-03,-2.634850703179836273e-02,-1.262971013784408569e-02,-3.308745473623275757e-02,-3.418621793389320374e-02,-5.448472499847412109e-02
3.943407442420721054e-03,-4.822791740298271179e-02,-1.089340001344680786e-01,7.484066765755414963e-03,1.055685523897409439e-02,-6.480127573013305664e-02,-1.237248722463846207e-02,-4.409207403659820557e-02,-6.017773225903511047e-02
-1.343028806149959564e-02,-3.404068946838378906e-02,-6.578920036554336548e-02,1.026605349034070969e-02,-3.895195946097373962e-02,-3.352981805801391602e-02,-2.680618129670619965e-02,-7.023671269416809082e-02,-3.405987843871116638e-02
-2.895813062787055969e-02,-5.465446412563323975e-02,-5.854520946741104126e-02,2.072358131408691406e-02,2.956896089017391205e-02,-1.953076571226119995e-02,-4.694027826189994812e-03,-2.360245026648044586e-02,-2.918042987585067749e-02
-4.276716336607933044e-02,-2.548790350556373596e-02,-1.335714459419250488e-01,1.141429785639047623e-02,3.567305952310562134e-02,-3.165685106068849564e-03,1.725040189921855927e-02,-2.551205642521381378e-02,-3.248333558440208435e-02
5.242258310317993164e-03,1.588926278054714203e-02,-2.314862096682190895e-03,8.987731300294399261e-03,2.766314893960952759e-02,2.557168900966644287e-02,-3.366729244589805603e-03,1.099585369229316711e-02,1.345531828701496124e-02
-2.630455046892166138e-02,-2.988704293966293335e-02,-2.329742349684238434e-02,3.874734789133071899e-02,7.149143610149621964e-03,9.635399095714092255e-03,6.276590749621391296e-03,-1.691984198987483978e-02,-1.311715226620435715e-02
-2.335630171000957489e-02,-1.784808374941349030e-02,-8.334542065858840942e-02,-5.672327242791652679e-03,-4.767626896500587463e-02,-3.191640600562095642e-02,-4.095501825213432312e-02,-5.568454787135124207e-02,-6.054075062274932861e-02
-4.445906355977058411e-02,-7.334673404693603516e-02,-6.387933343648910522e-02,9.323390200734138489e-03,-3.456768766045570374e-02,-2.166504971683025360e-02,-2.094743028283119202e-02,-4.379950836300849915e-02,-3.490215912461280823e-02
-1.700047636404633522e-03,-2.936365455389022827e-02,-5.192182213068008423e-02,3.208296746015548706e-02,2.914881333708763123e-02,-3.862411156296730042e-02,-7.590586901642382145e-04,-6.339662522077560425e-02,-7.141150534152984619e-02
-4.119348898530006409e-02,-6.121993064880371094e-02,-4.302318394184112549e-02,5.840628594160079956e-02,1.743007078766822815e-02,-5.658648442476987839e-03,-1.262250356376171112e-02,-6.835665553808212280e-02,-3.421634063124656677e-02
2.920386148616671562e-03,-4.929063469171524048e-02,-7.245310395956039429e-02,4.471212625503540039e-03,-1.110016740858554840e-02,-2.635106816887855530e-02,4.901350941509008408e-03,-3.108911402523517609e-02,-4.254525899887084961e-02
-2.758148685097694397e-02,-2.884676679968833923e-02,-5.736499279737472534e-02,-2.666265331208705902e-02,-9.259119629859924316e-03,-8.448397368192672729e-02,-2.777414396405220032e-02,-2.547013014554977417e-02,-7.122651208192110062e-03
1.163399871438741684e-02,1.870303228497505188e-02,1.848324388265609741e-02,-4.299589619040489197e-02,-3.372631967067718506e-02,-6.226031109690666199e-02,-4.026592150330543518e-02,-2.022722177207469940e-02,-5.938334390521049500e-02
-5.489922314882278442e-02,-1.810239255428314209e-02,-1.122864931821823120e-01,2.091514877974987030e-02,-3.010010346770286560e-02,-6.913066655397415161e-02,-5.442646145820617676e-02,-2.527324669063091278e-02,-5.210668221116065979e-02
-7.183721661567687988e-02,-4.697058349847793579e-03,-3.547607734799385071e-02,-3.230099566280841827e-03,-1.576072722673416138e-02,5.282690376043319702e-02,-7.940475828945636749e-03,-1.396351773291826248e-02,9.403402917087078094e-03
-1.719729788601398468e-02,-4.410521313548088074e-02,7.909813523292541504e-02,-5.990111455321311951e-02,-3.134579584002494812e-02,8.469423279166221619e-03,-5.992475524544715881e-02,-1.209414098411798477e-02,-2.297065965831279755e-02
-1.849143579602241516e-02,-3.532679751515388489e-02,-3.927968814969062805e-02,2.285140193998813629e-02,-2.770027378574013710e-03,-1.998099870979785919e-02,-5.471891723573207855e-03,9.964113123714923859e-03,-3.334891796112060547e-02
-3.431690856814384460e-02,-3.594935638830065727e-03,-3.696038201451301575e-02,1.717006554827094078e-03,3.992960322648286819e-03,2.246118523180484772e-02,-3.476295620203018188e-02,-2.250624820590019226e-03,-6.825252436101436615e-03
6.865236442536115646e-03,-4.235476255416870117e-02,3.432237775996327400e-03,4.001986980438232422e-02,2.460884116590023041e-02,3.876418340951204300e-03,3.368294099345803261e-03,-1.731711812317371368e-02,-5.218512192368507385e-02
-1.967670023441314697e-02,-3.551123663783073425e-03,-4.221748560667037964e-02,2.412311360239982605e-02,2.631600573658943176e-02,4.988186527043581009e-03,-4.072973504662513733e-03,-4.333918541669845581e-02,-5.541919916868209839e-02
-2.841106802225112915e-02,-2.568447962403297424e-02,-1.378358807414770126e-02,5.082237534224987030e-03,-6.001248955726623535e-03,-7.930488139390945435e-02,7.560074329376220703e-03,-6.536389887332916260e-02,-4.634933080524206161e-03
-1.021466124802827835e-02,-3.366337856277823448e-03,5.960389506071805954e-03,4.415939003229141235e-02,5.548624694347381592e-02,3.135198354721069336e-02,-2.962353266775608063e-02,-4.103488102555274963e-02,-3.648302704095840454e-02
-3.432390466332435608e-02,-1.238687112927436829e-01,-7.571917772293090820e-02,-5.620755627751350403e-02,-8.422397077083587646e-02,-5.608753859996795654e-02,-3.889561071991920471e-02,-2.538741938769817352e-02,-5.197216523811221123e-04
6.813453976064920425e-03,-1.316092908382415771e-02,-4.870056174695491791e-03,2.960574114695191383e-03,1.250445097684860229e-02,4.150267224758863449e-03,-4.108195751905441284e-02,-9.226217865943908691e-03,-1.720478571951389313e-02
-6.202025711536407471e-02,-4.011418670415878296e-02,-6.416328251361846924e-02,-1.459146011620759964e-02,2.813659142702817917e-03,-1.461017783731222153e-02,-4.017585515975952148e-02,-5.022808536887168884e-02,-2.876777946949005127e-02
-4.526830092072486877e-02,-3.124492429196834564e-02,-2.919664839282631874e-03,3.959665447473526001e-02,1.623335108160972595e-02,2.413086034357547760e-02,-1.279140077531337738e-02,-2.463269047439098358e-02,-6.664106622338294983e-03
-7.013883907347917557e-03,-5.293653160333633423e-02,-7.551499456167221069e-02,3.325877245515584946e-03,-1.111201848834753036e-02,-4.739537090063095093e-02,-2.628124505281448364e-02,-2.464811131358146667e-02,-1.461102068424224854e-02
-2.883841469883918762e-02,-5.245267599821090698e-02,-9.553952515125274658e-02,4.117649793624877930e-02,-3.231399459764361382e-03,-3.346276283264160156e-02,-2.833254449069499969e-02,-4.570621997117996216e-02,-5.415051430463790894e-02
-6.155700981616973877e-02,-7.507334649562835693e-02,-1.274155676364898682e-01,-4.168409109115600586e-02,-5.416962876915931702e-02,-8.767224848270416260e-02,-4.429194703698158264e-02,-3.623491525650024414e-02,-6.010185554623603821e-02
-2.384705841541290283e-02,-5.006709136068820953e-03,-5.079564824700355530e-02,-5.065319710411131382e-04,-2.828874811530113220e-02,-2.350155636668205261e-02,-2.911098860204219818e-02,-3.784411773085594177e-02,-5.918093398213386536e-02
6.298428867012262344e-03,6.679622922092676163e-03,-3.012068103998899460e-03,2.422220259904861450e-02,3.222934901714324951e-02,3.556348010897636414e-02,-1.994723454117774963e-02,-9.480762295424938202e-03,-2.785671129822731018e-02
7.913633435964584351e-02,2.625036612153053284e-02,4.615391418337821960e-02,7.997261360287666321e-03,-7.489774143323302269e-04,-4.859779402613639832e-02,8.827702142298221588e-03,1.093224622309207916e-02,-1.250231452286243439e-02
-3.568115457892417908e-02,-3.330769389867782593e-02,9.806626476347446442e-04,1.458160113543272018e-02,1.160292793065309525e-02,4.943125694990158081e-02,-4.405740275979042053e-02,-2.600524388253688812e-02,7.485016249120235443e-03
-3.935519978404045105e-02,-2.589962072670459747e-02,-8.627292513847351074e-02,3.193440660834312439e-02,-2.317764796316623688e-03,-7.818754529580473900e-04,-1.916459947824478149e-02,-5.525492504239082336e-02,-5.658639222383499146e-02
-3.607872128486633301e-02,-2.763364277780056000e-02,-2.801243774592876434e-02,-1.133722369559109211e-03,2.617227286100387573e-02,-2.306639961898326874e-02,-5.302828922867774963e-02,-3.568229451775550842e-02,-2.565604075789451599e-02
-2.705393731594085693e-02,-2.671271748840808868e-02,-6.342852115631103516e-02,2.144725620746612549e-02,-2.667621895670890808e-02,-3.671822696924209595e-02,-4.979092627763748169e-02,-3.232632577419281006e-02,-1.612987928092479706e-02
-4.683190211653709412e-02,-2.925327792763710022e-02,-2.820167690515518188e-02,7.028226740658283234e-03,8.824561722576618195e-03,-8.587824180722236633e-03,-4.770746454596519470e-02,-4.694098606705665588e-02,-9.669481776654720306e-03
-3.878743574023246765e-02,-4.358353093266487122e-02,-5.822384729981422424e-02,8.223176118917763233e-04,1.733680814504623413e-02,-1.060240715742111206e-02,-8.440569043159484863e-03,-2.988719940185546875e-02,-1.990019530057907104e-02
-2.194625884294509888e-02,-9.473170153796672821e-03,-4.369954019784927368e-02,-1.432148553431034088e-02,-2.859492041170597076e-02,-9.271868504583835602e-03,-4.343162849545478821e-02,-4.124412589590065181e-05,-5.137434601783752441e-02
-4.268253594636917114e-02,-4.455097392201423645e-02,-1.061282977461814880e-01,-4.180121794342994690e-02,5.013345275074243546e-03,-3.861590102314949036e-02,-3.375817462801933289e-02,-4.197216406464576721e-02,-4.473117738962173462e-02
-4.830774292349815369e-02,-4.344948753714561462e-02,-7.117187231779098511e-02,3.284187987446784973e-02,2.997920289635658264e-02,4.228001087903976440e-02,-2.371391048654913902e-03,-2.915897220373153687e-02,-2.288268879055976868e-02
-4.868626222014427185e-02,-2.512197569012641907e-02,-5.726470053195953369e-02,8.836292545311152935e-04,-3.661395050585269928e-03,-2.914931066334247589e-02,2.142291143536567688e-02,-2.753072604537010193e-02,-4.833300411701202393e-02
-9.205679409205913544e-03,-2.378997579216957092e-02,-5.783934518694877625e-02,-3.141250927001237869e-03,3.382961824536323547e-02,-2.036531828343868256e-02,-1.963923871517181396e-02,-1.959398388862609863e-02,-4.856203868985176086e-02
-2.773793600499629974e-02,-1.537215616554021835e-02,-1.958206854760646820e-02,4.755029920488595963e-03,-1.875429414212703705e-02,-8.942786371335387230e-04,-2.388085797429084778e-02,-3.354071825742721558e-02,-6.377939600497484207e-03
-1.477223075926303864e-02,-2.794324420392513275e-02,-1.915690675377845764e-02,5.455099046230316162e-03,-1.474866643548011780e-02,-1.907093077898025513e-02,-2.931058034300804138e-02,-3.812624141573905945e-02,5.566439591348171234e-03
-3.530159965157508850e-02,-8.782450109720230103e-02,-1.106471419334411621e-01,1.444224733859300613e-02,-1.628342317417263985e-03,-1.589566469192504883e-02,-1.282123662531375885e-02,-2.912774449214339256e-03,-1.937035284936428070e-02
1.436462326864784700e-08,3.185066077548981411e-08,-3.902297152080791420e-08,-8.663048589596655802e-08,1.504247038042194617e-08,8.603408474527896033e-08,1.866649501636175046e-09,-7.893192588426245493e-08,-1.053638176706783725e-09
-2.285658773359955376e-09,-4.182058432888879906e-08,-1.368456565842279815e-07,-3.156100092382985167e-08,-1.108479352751601255e-08,-2.202387250349602255e-08,-1.213863676241544454e-08,1.404689253803326210e-08,-6.069078040127351414e-08
-6.092831483783811564e-08,7.525463807667165383e-09,2.742022608970273723e-08,2.363316298215067945e-08,7.755828868027947465e-09,5.749683040789932420e-08,-9.536095468831717881e-09,-6.308770394980456331e-08,7.613417096763441805e-08
-3.421033056838496123e-08,3.146393368069766439e-09,4.116013130328610714e-08,-8.920741123574771336e-08,9.545315293735257001e-08,-5.576082529046288982e-08,4.161794109336369729e-08,-3.709726925649192708e-08,7.336787177791848080e-08
-6.857596446252500755e-08,1.685759976055578591e-09,2.718048008887308242e-08,7.195925633141087019e-08,4.504206430056001409e-08,2.233827878228566988e-08,-3.950202298597105255e-08,6.121899787103757262e-08,8.227135595006984659e-08
-1.541093030965612343e-09,-7.599052054274579859e-08,-1.059936849401310610e-07,5.172596218017133651e-08,-1.118573607072903542e-07,2.849428959450506227e-08,2.643923524558999816e-09,-1.419797257540267310e-08,1.661013881992801089e-09
-1.393593329623854515e-08,6.394493823336233618e-08,-2.110104091457287723e-08,-3.419504324142508267e-08,9.893150831885577645e-08,-4.101924488963959448e-08,-3.204723597605152463e-08,-3.314577767810078512e-08,8.540006035673286533e-09
-1.934934878988769924e-08,2.908232943354960298e-08,-1.142710370771737871e-08,8.890012281881354284e-08,5.448484685643961711e-08,2.175431923490123154e-08,-5.036373806888150284e-08,2.997301606910696137e-08,1.583952302652846811e-09
6.408585306871827925e-08,-5.515910217468444898e-08,2.395711895530894253e-08,-9.180216586912592902e-09,-4.134680864353867946e-08,-1.275973016134912541e-08,-6.817382569579422125e-08,-7.626352527267954429e-08,1.026650977564713685e-07
-7.933373957769163098e-09,5.878157338656819775e-08,1.778351332859529066e-08,-6.565632304500468308e-08,-7.015530911758105503e-08,-1.394386384134804757e-08,-4.869779024474496509e-10,-3.214633181869430700e-08,1.846335173638635752e-08
2.665044185334863869e-08,-8.112469807031175151e-09,3.869118003763105662e-08,4.672172337905067252e-08,2.303927182367715432e-08,8.031656761886551976e-08,-3.237055778981812182e-08,-2.653525577045456885e-08,5.289567184263432864e-08
-1.003499576768263069e-07,-3.644316493023325165e-08,3.997190489712920680e-08,-1.372436120306019802e-08,-7.774934118742748979e-08,4.047042523325217189e-08,-1.829358708960171498e-08,1.012628114693825410e-08,1.173064223536357531e-08
8.591440447958120785e-09,-1.447088582295918968e-08,-1.415452999253830058e-08,-1.451425868381761575e-09,3.063888698306982405e-08,-1.297684946166555164e-07,8.111869931326509686e-08,-3.409099136320037360e-08,-1.004320253628065984e-07
6.075671965533047114e-09,1.311146569094034930e-08,3.896112232837367628e-08,8.938999940255598631e-08,1.498169055480502720e-08,-1.908274960271683085e-08,3.962975725357864576e-08,-3.397907377689080022e-08,-2.900559792351486976e-08
-3.184662489275069674e-08,1.820279926789680758e-08,-3.016083738316410745e-08,6.084852088861225639e-08,4.077767101762219681e-08,-5.663078894713180489e-08,-9.198456751846606494e-08,4.207868897765365546e-08,3.137759918558913341e-08
-5.030281613471743185e-08,-1.751182132636586175e-08,-5.545435044496116461e-08,3.317460528506899209e-09,-3.708018780912425427e-08,2.371089546926441471e-09,1.476354505314247945e-08,-4.375033313408493996e-08,5.144019610270333942e-08
8.109257976229855558e-08,5.024133642450578918e-08,2.184937386573437834e-08,1.030278156122221844e-07,5.686419868311531900e-08,4.124263153215679267e-09,-5.086583598767902004e-08,2.045388924898361438e-08,7.711028615631221328e-08
4.879732884432996798e-08,1.546636063665118854e-08,4.513607976264211175e-08,2.987885494576403289e-08,-2.102907892265193368e-08,-5.528330859760899330e-08,-4.676253695379273267e-08,-1.709088692791738140e-08,4.944842757481637818e-08
-3.604510823151940713e-08,3.588724339920190687e-08,-1.290076667714856740e-08,5.254617008176865056e-08,-3.691941685701749520e-08,7.330072548938915133e-08,-1.173561017253632599e-07,1.244990865956197013e-08,5.427931171197997173e-08
-7.839884830218579737e-08,-2.018391320746104611e-08,-2.688232925152078678e-08,5.326217245027464742e-09,3.250788438435847638e-08,-1.868893839684915292e-08,-4.915315443554391095e-08,-6.593127466203441145e-08,-6.198305868565512355e-08
6.531756913119579622e-09,-8.711019461316027446e-08,2.104220087062458333e-08,-4.106435635975458354e-09,-1.628179191470735532e-08,-4.167513623087870656e-08,1.033957364171556037e-08,2.718131852930127934e-08,-1.875454103128504357e-08
5.266296909667289583e-08,3.894331257470184937e-08,-9.414397794671458541e-08,1.426185480823960461e-08,3.777661206072480127e-08,-5.930727908776134427e-09,3.443045670792344026e-08,3.248738167371811869e-08,5.250839407722196484e-08
3.312479734951523369e-10,-1.029126792673196178e-07,2.734023141215402575e-08,1.186916804840620898e-07,-2.222196826551225968e-08,-8.750195945594896330e-08,-1.455458065180437188e-08,-2.169064572399292956e-08,-1.735421584214691393e-08
-6.638617122689538519e-08,-5.162802096947416430e-08,-7.162458359744050540e-08,-1.100284841015763959e-08,-4.996318381245146156e-08,2.776436147655658715e-08,6.306395050614810316e-08,1.483340383856557310e-08,-1.775144298221675854e-08
7.117886724472555215e-08,4.974179290684332955e-08,9.678237233856634703e-08,1.324232243860024028e-07,-8.403738860351950279e-08,-4.898272365494449332e-08,7.015599123860738473e-08,-4.385104224180480514e-10,-3.269719783816071867e-08
-3.704766271539483569e-08,5.933273428126994986e-08,-7.782987410109853954e-08,-8.173027055136117269e-08,5.162547722648014314e-08,-6.543283603832605877e-08,-3.226922729027137393e-08,1.642315616834366665e-09,2.525062159364210856e-09
1.563373253077315894e-08,-7.091913545309580513e-08,-1.197173560285591520e-07,-1.591728748806531257e-09,-2.671671417431298323e-08,3.561170203170149762e-08,2.346093808114346757e-08,-4.098784955886003445e-08,3.526206171500234632e-08
-7.705389037937493413e-08,-2.533638543411598221e-08,-1.983062070110008790e-08,2.197980464302418113e-08,-2.965177081648562307e-08,-5.020572046987581416e-08,-4.495872829579639074e-08,-3.331854259158717468e-08,4.112379414777933562e-08
3.559839001354703214e-08,-5.810737491174222669e-08,-6.199189783728797920e-08,-4.147073795479627734e-08,7.673309454503396410e-08,-1.063284749136528262e-08,-2.345799821057426016e-08,1.548358419256601337e-08,-8.680703444952087011e-08
-1.014645167884964394e-08,2.067141735562216809e-10,-1.382685699269359247e-08,-2.549287181352610787e-08,-1.002268223970759209e-08,1.732176535540475015e-08,8.557226749417168321e-08,1.503593871632347145e-08,1.928316173405164591e-08
1.596810683679450449e-08,-7.749549979507719399e-08,-5.106150879896631523e-08,-2.871089499478785001e-08,-5.139531467079905269e-09,5.141993142387946136e-08,-7.467973262009763857e-08,-2.753631811458490120e-08,4.736665459859068505e-08
-2.962523559801866213e-08,-1.563069496057778451e-08,8.931343842277783551e-08,-5.227552080100394960e-08,9.392761235460511671e-09,2.997016679273656337e-08,2.964032042029884906e-08,-1.739604371664427163e-08,5.881997822143603116e-08
-1.016714090695813866e-08,2.511948427041943432e-09,-1.354579239887243602e-07,-1.248407688336783394e-08,7.413471792006021133e-08,-5.524409729673607217e-08,-7.442304550409062358e-10,1.602138333112179680e-08,4.770251038621609041e-08
1.002750806833319075e-07,7.777828159305499867e-08,-2.839263224529986473e-08,1.038494179539384277e-08,1.354843082168599722e-08,-2.482323679942055605e-08,-3.132188552967818396e-08,3.159301442678952299e-08,4.773804462843145302e-08
-4.325871216792620544e-08,1.072386268674563325e-08,6.360905580038433982e-09,3.052872443731757812e-08,5.424827165256829176e-08,3.162688999580609561e-10,-3.924644786934550211e-08,9.882538876127000549e-08,2.027766221601723373e-08
-1.734393251240362588e-08,1.880251687680356554e-08,-2.786101072072000306e-10,2.856878111856531177e-08,-4.034649059292405582e-09,-1.847056552151116193e-08,2.979519031498512049e-08,-2.083950612075113895e-08,2.428728862469142769e-08
2.177868552166728477e-08,3.145116878044973419e-08,1.379942271562129008e-09,4.445369583550018433e-08,-3.728948883008342818e-08,-1.026452451924342313e-07,-9.841754433637106558e-08,-1.366785173928519725e-08,-1.478822664324752623e-08
-3.952134974838372727e-08,-2.042083124820237572e-08,-8.631378989321092376e-08,-7.467415485962192179e-08,-3.332627684926592337e-08,-6.990183543109651509e-09,-3.434236006683022424e-08,-4.592862623553628509e-08,4.273005416166597570e-08
-2.730570791698028188e-08,6.439781685685375123e-08,-4.431854350173125567e-08,5.339184738772928540e-08,1.753267575566042069e-08,1.952300188179378893e-08,-1.066092547574726268e-09,-2.056221148905024165e-08,5.508152156608048244e-08
-6.810895847308984230e-09,-6.301760446802973092e-09,1.092612222919342457e-07,8.864910583383789344e-09,-1.047342195192868530e-07,-7.081408881504103192e-08,-1.766150425908108446e-08,-4.086038618567044978e-09,-5.376867306949861813e-08
3.475125609497808910e-08,2.332162196694298473e-08,-2.222002137841627700e-09,7.959475567531626439e-08,4.969253808440043940e-08,5.887782705826793972e-09,-5.430961458330330061e-09,5.939804026411366067e-08,-4.269498177222885715e-08
-4.407426246189061203e-08,2.002697208070003398e-08,1.594004217508881993e-08,2.377865193636807817e-08,-9.393568234372651204e-08,2.112149743993541051e-08,1.124240078809179977e-08,-3.073554566412894928e-08,-4.697599109704242437e-08
-1.693438811400937993e-08,2.058293269158184557e-08,4.461185199033934623e-08,3.853453556246222433e-09,5.247827417065309419e-08,1.290124451713836606e-08,9.971402903374837479e-08,2.918685204633675312e-08,5.242664968818644411e-08
1.060615062442593626e-08,-7.124911149958279566e-08,-7.640318244739319198e-08,4.733937686296485481e-09,1.675159921887825476e-08,5.091459254202845841e-09,1.224208556749317722e-08,3.247036417519666429e-08,1.280213890453296699e-08
4.241143969352378917e-08,2.914693553179859009e-08,-2.727067460739363014e-08,-3.425363814812953933e-08,-4.822044274988002144e-08,-2.645193397654566070e-08,3.077995458511395555e-08,-4.881548676394231734e-08,6.292280119168935926e-08
-4.529854535917365865e-08,-6.218038350880306098e-08,-3.446525909112096997e-08,-2.082938443948023632e-08,-5.362651123164141609e-08,7.157205050845050209e-09,-2.321319492182283284e-08,-3.227059286459166287e-09,-4.660203600792556244e-08
3.112522506398818223e-08,-6.497086868506585233e-09,3.637008560986032535e-08,3.681652671616575390e-08,8.173162058255911688e-08,-3.300515061255282490e-08,-4.882568127584363538e-09,-9.965063441086385865e-09,3.351156863118376350e-08
3.854584562645868573e-08,1.347679390306666392e-08,-1.151200645921335308e-08,-5.610142750356317265e-08,4.856988411461315991e-08,9.580524817920377245e-08,-9.824854707574104395e-09,2.930416354018916536e-09,-1.258118498270732744e-08
2.965455436765296326e-08,8.002589169109342038e-08,3.317497387911316764e-08,2.426807910183015338e-08,-3.285398619823354238e-08,-1.178470387941388253e-08,9.937341616250705556e-08,5.839621675107764531e-09,2.382783304000213320e-09
4.836411093833703490e-08,-5.793168256218450551e-08,-1.409757754977647437e-09,1.675344662999123102e-08,-2.370844498500446207e-08,1.331797534476208966e-07,-2.022033385173926945e-08,-2.629852602353821567e-08,1.979815955621688772e-08
7.011701796955094323e-08,-1.000688101271407504e-07,-5.532229252480647119e-08,1.542380090313599794e-08,6.265128860150070977e-08,-8.135124573982466245e-08,-3.416749549955966359e-09,-2.932994824789147970e-08,1.297978826642065542e-07
1.049283859799743368e-08,-1.372288949141875491e-08,-5.425094595779000883e-09,7.851169492312237708e-09,6.272751562619305332e-08,-6.143554287518782075e-08,1.318481395173876081e-07,-6.400229324299289146e-08,1.264742799378382188e-08
-9.890359820019511972e-08,2.670480547806164395e-08,-4.707549194904459000e-08,-5.549936687998524576e-08,1.691371043222034132e-09,-2.452136804720339569e-08,-2.963118106436013477e-08,4.322248869925715553e-08,4.763355576642425149e-08
7.770491805558776832e-08,-2.169422863573799987e-08,-6.979021094366544276e-08,-1.791074488721733360e-08,-2.501133877785832738e-08,1.928489368197006115e-08,-3.783694069170451257e-08,5.116715939834648452e-08,-3.125500569467476453e-08
-7.626672982041782234e-08,4.808402209732776100e-08,3.173438756221003132e-08,-8.813594831735827029e-08,6.057582879748224514e-09,7.237809995785937645e-08,-1.735774723954364163e-08,-3.989665042780643489e-09,-7.431996795759232555e-09
5.163350191850213378e-09,-6.377788253075777902e-08,-1.086789040982694132e-07,-4.641970718921584194e-08,1.792350978746526380e-08,-7.210718422356876545e-08,-7.043515637406017049e-08,5.745344644481065188e-09,-1.139095573421400331e-07
-8.589771560707504250e-09,6.801843710491084494e-08,4.059245384269161150e-08,1.391703108311048709e-08,-5.264569225005288899e-09,1.660242610057593993e-08,-3.084202049308260030e-08,-1.108735645516389923e-07,-2.900049800302895164e-08
-6.184470890957527445e-08,-3.194666575723204005e-08,7.259674816850747447e-08,-5.672786329569134978e-08,1.670223248595448240e-08,1.025007745347750188e-09,-2.636197926619843201e-08,-5.166665673073111975e-08,4.527539587684259459e-08
6.813028363694684231e-08,6.145331354900918086e-09,5.914743539392475213e-08,-1.222560968017205596e-07,1.817133821191418974e-08,8.921871597067365656e-08,4.335458214654863696e-08,-3.045559182623946981e-08,2.624975969922616059e-08
-9.365492559254562366e-08,-9.943568102244171314e-08,1.602671551026446650e-09,6.223774562386097386e-08,-5.574335304459054896e-08,1.494508339305866684e-08,-4.518637908290656924e-08,-1.655213033302516124e-08,-1.089455858860333137e-09
-1.445333963623340878e-09,-4.807733589018425846e-08,4.778495110713265603e-08,8.722722988352415996e-09,-3.452734631537168752e-08,2.692843992235793849e-08,6.559610632450585399e-09,1.009025663023521702e-08,1.882202127490018029e-08
1.854141551405064092e-08,5.003578351647774980e-08,-6.781623795859559323e-08,2.276663835232284328e-08,-5.354126031420491927e-08,-1.166646113048841471e-09,8.703267440068884753e-08,-5.687740944892993866e-09,-2.918074848423657386e-08
1.428596352326394481e-08,-8.701372955499664386e-09,1.047363418216207265e-09,6.755336556807378656e-08,-3.283451377456003684e-08,2.196659210085272207e-08,1.848851738373014086e-08,-7.552461056548054330e-08,-2.941869503558791621e-08
-5.211346731925914355e-08,5.461743057821877301e-08,2.423958811448301276e-08,1.116593892902528751e-07,-2.312922831038122240e-08,8.911599458372165827e-09,2.552642364150869980e-08,1.072265476409484108e-08,1.644138158951591322e-08
4.039852879941463470e-03,-1.371691818349063396e-03,-5.845753010362386703e-03,2.551864832639694214e-02,3.715835884213447571e-02,1.921388320624828339e-02,8.082076162099838257e-02,1.005983427166938782e-01,6.027692928910255432e-02
-6.895314902067184448e-03,-1.306711579672992229e-03,-1.559348404407501221e-02,-3.884479030966758728e-02,1.011341717094182968e-02,-1.879090815782546997e-02,3.614654392004013062e-02,9.314297139644622803e-02,4.548912867903709412e-02
3.825604170560836792e-02,2.572407573461532593e-02,6.892199162393808365e-03,2.811662666499614716e-02,4.746575653553009033e-02,1.320353243499994278e-02,6.887554377317428589e-02,1.079273968935012817e-01,6.837286055088043213e-02
1.741901040077209473e-02,2.385470457375049591e-02,2.296727523207664490e-02,8.069512434303760529e-03,1.190180145204067230e-02,6.069316715002059937e-02,7.834954559803009033e-02,6.061214581131935120e-02,7.953829318284988403e-02
6.814392399974167347e-04,-2.200311422348022461e-02,-2.189027704298496246e-02,-2.592464163899421692e-02,-3.077882900834083557e-02,-3.970601409673690796e-02,4.159651696681976318e-02,3.524272516369819641e-02,1.609769277274608612e-02
-3.852679394185543060e-03,6.303151603788137436e-03,-1.723343506455421448e-02,-1.883588172495365143e-02,-2.740217139944434166e-03,-8.898950181901454926e-03,2.362107113003730774e-02,6.848269701004028320e-02,4.758474975824356079e-02
1.362582743167877197e-01,1.230707690119743347e-01,1.119564697146415710e-01,1.559878140687942505e-01,1.402194052934646606e-01,1.244174987077713013e-01,1.524940282106399536e-01,1.287143528461456299e-01,1.092619150876998901e-01
-4.065696150064468384e-02,-2.565515413880348206e-02,-2.255271002650260925e-02,-5.348911508917808533e-02,-6.269212812185287476e-02,-3.795346617698669434e-02,1.466389093548059464e-02,2.974233776330947876e-02,6.485918071120977402e-03
-1.349398493766784668e-02,1.460896153002977371e-02,-5.047295708209276199e-03,-4.855924844741821289e-02,-3.333177790045738220e-02,-2.962069399654865265e-02,2.445767819881439209e-02,6.655204296112060547e-02,1.701704785227775574e-02
2.003052577492780983e-05,3.092599101364612579e-03,-7.189322728663682938e-03,-3.818491473793983459e-02,-1.986017450690269470e-02,-3.254641219973564148e-02,4.475256800651550293e-02,7.313643395900726318e-02,4.409362003207206726e-02
-1.423614681698381901e-03,2.110137790441513062e-02,-1.814405433833599091e-02,-2.023587562143802643e-02,2.524528885260224342e-03,-2.216250635683536530e-02,2.963779866695404053e-02,6.794600933790206909e-02,4.377031326293945312e-02
5.802385858260095119e-04,-2.239399123936891556e-03,2.995525719597935677e-03,-3.217077115550637245e-03,2.163422852754592896e-02,1.888938806951045990e-02,7.197739928960800171e-02,8.662462234497070312e-02,5.492896586656570435e-02
-1.557418238371610641e-02,-6.196973379701375961e-03,-1.440254505723714828e-02,-2.211238257586956024e-02,-3.750185295939445496e-02,-4.852167516946792603e-02,-1.506816316395998001e-02,-2.183494716882705688e-02,-1.384655572474002838e-02
-4.108965396881103516e-03,-6.771682295948266983e-03,2.279867418110370636e-03,-2.780690323561429977e-03,3.391867969185113907e-03,-1.629319787025451660e-02,9.217216633260250092e-03,-1.773242093622684479e-02,1.427471265196800232e-02
-2.254179306328296661e-02,-3.801623731851577759e-02,-2.661020681262016296e-02,-1.713446341454982758e-02,-4.853873047977685928e-03,8.585522882640361786e-03,6.255618482828140259e-02,5.902958661317825317e-02,7.494864612817764282e-02
2.785622607916593552e-03,9.902967140078544617e-03,-8.663017302751541138e-03,-8.761290460824966431e-03,3.515436872839927673e-02,-9.581046178936958313e-03,8.090811222791671753e-02,6.503062695264816284e-02,6.094469130039215088e-02
-8.258010260760784149e-03,-5.506766494363546371e-03,5.819595418870449066e-03,2.322534797713160515e-03,1.648738794028759003e-02,-5.896609276533126831e-03,6.000596657395362854e-02,1.023652404546737671e-01,7.120089232921600342e-02
7.118598558008670807e-03,1.444291789084672928e-02,9.076274000108242035e-03,3.714244812726974487e-02,4.837835207581520081e-02,2.580485679209232330e-02,8.243361860513687134e-02,1.021026447415351868e-01,6.490409374237060547e-02
-1.107703521847724915e-02,-3.671139711514115334e-03,9.197584353387355804e-03,-4.779901821166276932e-03,9.402018040418624878e-03,1.775676384568214417e-02,6.997990608215332031e-02,8.670525997877120972e-02,7.927649468183517456e-02
-5.188899114727973938e-03,2.305535599589347839e-02,1.600080542266368866e-02,1.517232414335012436e-02,4.043350368738174438e-02,-9.191804565489292145e-03,6.314382702112197876e-02,8.959930390119552612e-02,5.362034961581230164e-02
-3.353547304868698120e-02,-1.559641491621732712e-02,-1.089733559638261795e-02,-6.762143969535827637e-02,-5.429189279675483704e-02,-6.064251810312271118e-02,4.899143707007169724e-03,3.464087843894958496e-02,1.326606259681284428e-03
2.555833198130130768e-03,1.625797711312770844e-02,1.004585064947605133e-02,-3.207579627633094788e-02,2.178516006097197533e-03,-2.342526800930500031e-02,5.817434936761856079e-02,7.107005268335342407e-02,6.083589419722557068e-02
-2.122709527611732483e-03,-2.260307082906365395e-03,6.453325040638446808e-03,1.329825073480606079e-02,1.639780960977077484e-02,1.259586215019226074e-02,2.186159137636423111e-03,2.751696156337857246e-03,9.900884702801704407e-03
-5.706306546926498413e-03,-2.865041606128215790e-03,-1.167606003582477570e-02,-6.263521499931812286e-03,-1.521137449890375137e-02,-2.461239695549011230e-02,-3.952646162360906601e-03,-5.330857238732278347e-04,-1.208204776048660278e-02
3.665361320599913597e-03,7.099820766597986221e-03,-1.274251029826700687e-03,-6.053319084458053112e-04,2.021797932684421539e-02,1.596717513166368008e-03,5.951215699315071106e-02,1.039091423153877258e-01,7.653714716434478760e-02
-3.700728528201580048e-03,-1.331635192036628723e-02,1.408237440045922995e-04,-5.325288325548171997e-02,-4.022491723299026489e-02,-5.054607614874839783e-02,3.482855483889579773e-02,4.510728269815444946e-02,3.100435622036457062e-02
-1.619688794016838074e-02,-5.499631166458129883e-03,-4.206149652600288391e-02,-8.901106193661689758e-03,4.756966140121221542e-03,-1.323911081999540329e-02,2.546056360006332397e-02,3.671448677778244019e-02,2.463987097144126892e-02
-2.965018618851900101e-03,-2.565764822065830231e-03,-2.608409849926829338e-04,-2.725664712488651276e-02,-3.712169453501701355e-02,-2.195973321795463562e-02,5.924797430634498596e-02,3.787470981478691101e-02,4.058073088526725769e-02
-1.000244636088609695e-02,-1.038931310176849365e-02,-1.644159667193889618e-02,-1.403756812214851379e-02,-2.264268696308135986e-02,-2.980953827500343323e-02,1.369338203221559525e-02,3.223797678947448730e-02,5.244491994380950928e-02
-7.239672355353832245e-03,1.185575500130653381e-02,-1.213010493665933609e-02,2.314479835331439972e-02,5.069489777088165283e-02,3.980829566717147827e-02,6.471487879753112793e-02,9.614782035350799561e-02,6.974644958972930908e-02
-1.803966611623764038e-02,-1.347430143505334854e-02,-2.434772625565528870e-02,-1.129023917019367218e-02,-8.750994689762592316e-03,-1.881350390613079071e-02,-2.421461045742034912e-02,-2.103159390389919281e-02,-2.881231158971786499e-02
1.538469549268484116e-02,-7.913833484053611755e-03,-9.022019803524017334e-03,2.902934700250625610e-02,4.015678539872169495e-02,5.029115453362464905e-02,9.426440298557281494e-02,9.321486949920654297e-02,9.534930437803268433e-02
2.855189703404903412e-02,4.086984321475028992e-02,3.997835516929626465e-02,2.474894374608993530e-02,4.746082797646522522e-02,1.887940801680088043e-02,3.015387430787086487e-02,2.210345119237899780e-02,2.845800295472145081e-02
-4.012113902717828751e-03,-1.345010241493582726e-03,-1.175304595381021500e-02,-1.123687950894236565e-03,-7.753515150398015976e-03,-6.457151030190289021e-04,1.393485628068447113e-02,4.227906465530395508e-02,9.149485267698764801e-03
8.225888945162296295e-03,1.359326951205730438e-02,2.432510256767272949e-03,-6.043789442628622055e-03,1.368998922407627106e-02,-7.137721870094537735e-03,7.746934145689010620e-02,7.699579745531082153e-02,5.846204981207847595e-02
-1.462493091821670532e-02,-3.012565430253744125e-04,-2.185744605958461761e-02,-8.151935040950775146e-02,-6.961994618177413940e-02,-7.724642753601074219e-02,3.936839848756790161e-02,5.535551533102989197e-02,1.247180439531803131e-02
-5.113595724105834961e-02,-3.378157317638397217e-02,-5.714616179466247559e-02,-8.415164798498153687e-02,-5.368758365511894226e-02,-7.279443740844726562e-02,-1.115068513900041580e-02,3.626272827386856079e-02,-3.476077457889914513e-03
1.663625799119472504e-02,3.262075781822204590e-02,3.161381185054779053e-02,-9.325445629656314850e-03,1.478321198374032974e-02,-8.716509677469730377e-03,7.275141030550003052e-02,8.234932273626327515e-02,5.020690709352493286e-02
-3.955955058336257935e-02,-2.052991464734077454e-02,-5.244180560111999512e-02,-2.500666305422782898e-02,-2.223840542137622833e-02,-3.341195359826087952e-02,1.456116698682308197e-02,2.927714027464389801e-02,1.622460968792438507e-02
8.734777569770812988e-03,5.545137915760278702e-03,-1.256553828716278076e-02,-3.504637256264686584e-02,-3.807892650365829468e-02,-5.762955173850059509e-02,4.432142898440361023e-02,5.191115289926528931e-02,3.316349163651466370e-02
-3.803716972470283508e-02,-5.602791905403137207e-02,-5.787777155637741089e-02,-1.076406054198741913e-02,-1.058823429048061371e-02,-2.416731417179107666e-02,1.474037580192089081e-02,3.641534596681594849e-02,-1.852894388139247894e-02
3.023467725142836571e-03,1.275820098817348480e-02,1.833809353411197662e-02,-1.423535402864217758e-03,3.540776669979095459e-02,2.303820848464965820e-02,7.081317156553268433e-02,8.156922459602355957e-02,7.106599211692810059e-02
1.254280842840671539e-02,8.760407567024230957e-03,1.178036816418170929e-02,-1.710218377411365509e-02,-4.140202328562736511e-02,-5.872202105820178986e-03,6.986897438764572144e-02,8.019211143255233765e-02,7.242373377084732056e-02
9.215530939400196075e-03,3.544754907488822937e-02,-1.276144664734601974e-02,-4.469314590096473694e-02,5.740330554544925690e-03,-2.576830238103866577e-02,6.969898939132690430e-02,9.971036016941070557e-02,6.883657723665237427e-02
1.757345348596572876e-02,2.223327755928039551e-02,1.818089187145233154e-02,1.830223761498928070e-02,3.996466100215911865e-02,1.406866870820522308e-02,7.367219030857086182e-02,1.018773168325424194e-01,6.391817331314086914e-02
-1.051466725766658783e-02,2.352639660239219666e-02,4.976623458787798882e-04,-9.002199769020080566e-02,-8.452139049768447876e-02,-7.738094031810760498e-02,6.386286020278930664e-02,6.247792765498161316e-02,3.755188360810279846e-02
1.653012260794639587e-02,2.730512060225009918e-02,4.989473614841699600e-03,2.509751357138156891e-02,5.002454388886690140e-03,-6.876884959638118744e-03,7.216934859752655029e-02,5.426010489463806152e-02,5.067855864763259888e-02
-4.275235347449779510e-03,-1.027567894198000431e-03,-3.793063806369900703e-03,1.483927667140960693e-02,3.490321710705757141e-02,5.530956201255321503e-03,5.938649177551269531e-02,1.018021181225776672e-01,7.482564449310302734e-02
-2.795240096747875214e-02,-1.584995351731777191e-02,-2.685775980353355408e-02,-5.519254133105278015e-02,-5.108184739947319031e-02,-3.021733276546001434e-02,1.294438634067773819e-02,6.064941361546516418e-02,1.132149435579776764e-02
-2.279999293386936188e-02,-3.609408810734748840e-02,-3.999536111950874329e-02,-2.062202803790569305e-02,-2.603484690189361572e-02,-2.806419692933559418e-02,-1.997426338493824005e-02,-3.311369568109512329e-02,-1.417239569127559662e-02
5.786071997135877609e-03,5.873817484825849533e-03,-9.427109733223915100e-03,1.308588980464264750e-04,1.530739199370145798e-02,1.148026529699563980e-02,7.269351184368133545e-02,5.991205200552940369e-02,3.958769142627716064e-02
-2.507056295871734619e-02,-7.249982561916112900e-03,-1.113075390458106995e-02,-6.521815806627273560e-02,-3.048267588019371033e-02,-6.543313711881637573e-02,5.799813941121101379e-02,7.346487790346145630e-02,2.879270166158676147e-02
3.669524085125885904e-05,-4.617335434886626899e-05,5.759364459663629532e-03,-2.208506129682064056e-02,-7.433287799358367920e-03,-4.305818118155002594e-03,6.332709640264511108e-02,8.846914023160934448e-02,5.995701998472213745e-02
-3.780743107199668884e-02,-3.434675559401512146e-02,-1.977699808776378632e-02,-2.700615860521793365e-02,-2.969623729586601257e-02,-4.163762554526329041e-02,2.616411261260509491e-02,5.744430422782897949e-02,2.348808012902736664e-02
-1.823204196989536285e-02,9.299836121499538422e-03,-2.387832617387175560e-03,-1.950524374842643738e-02,7.650349289178848267e-03,-2.213983982801437378e-02,3.799749910831451416e-02,7.157621532678604126e-02,5.544923711568117142e-03
-5.168519541621208191e-02,-4.608446359634399414e-02,-6.135234236717224121e-02,-6.251815706491470337e-02,-5.539282411336898804e-02,-5.489396676421165466e-02,6.632714997977018356e-03,2.376463264226913452e-02,2.135389950126409531e-03
1.359942601993680000e-03,1.291203964501619339e-02,-1.238961890339851379e-02,-1.654779352247714996e-02,1.871820725500583649e-02,-3.059338033199310303e-02,4.806561022996902466e-02,7.758893072605133057e-02,5.026140436530113220e-02
2.120198681950569153e-02,2.098446339368820190e-02,3.711178526282310486e-02,2.027748525142669678e-02,4.557538777589797974e-02,3.500753268599510193e-02,8.108776062726974487e-02,9.933447092771530151e-02,7.286509871482849121e-02
3.062169812619686127e-02,3.295231610536575317e-02,2.258388698101043701e-02,2.514823572710156441e-04,-2.818106673657894135e-02,-1.519158203154802322e-02,5.734100192785263062e-02,5.604916065931320190e-02,6.720215082168579102e-02
-2.789304591715335846e-02,-3.055835142731666565e-02,-2.848586253821849823e-02,-6.675055623054504395e-02,-6.880652159452438354e-02,-5.188692361116409302e-02,9.743430651724338531e-03,3.321616351604461670e-02,1.494864095002412796e-02
1.325323153287172318e-02,1.351404096931219101e-02,3.074571117758750916e-02,-1.399018336087465286e-02,1.687174476683139801e-02,-4.398945253342390060e-03,5.640155076980590820e-02,8.956319093704223633e-02,4.852525144815444946e-02
-5.484630819410085678e-03,-1.791348494589328766e-02,-2.599485218524932861e-02,-3.088725544512271881e-02,-9.375847876071929932e-03,-2.179615199565887451e-03,2.670427598059177399e-02,4.496955126523971558e-02,3.819889575242996216e-02
-2.210114523768424988e-02,-2.635768800973892212e-02,-1.876440271735191345e-02,-7.663556188344955444e-02,-5.451348051428794861e-02,-5.520960316061973572e-02,3.569196537137031555e-02,4.908810928463935852e-02,2.817445434629917145e-02
-1.440042909234762192e-02,-1.423578057438135147e-02,-2.768294699490070343e-02,-4.632872715592384338e-02,-3.124532289803028107e-02,-5.437016114592552185e-02,1.628677546977996826e-02,4.446748644113540649e-02,1.818995177745819092e-02
-3.095640614628791809e-02,5.824504047632217407e-02,2.636087592691183090e-03,1.051865443587303162e-01,1.504718959331512451e-01,8.250979334115982056e-02,2.010689675807952881e-01,3.042449653148651123e-01,2.540831565856933594e-01
-3.953946288675069809e-03,6.701245903968811035e-02,-7.968675345182418823e-02,-6.571781635284423828e-02,-4.392900969833135605e-03,-1.062170416116714478e-01,1.908963471651077271e-01,2.770754992961883545e-01,1.050778850913047791e-01
-2.774905972182750702e-02,7.295692712068557739e-02,-6.886882334947586060e-02,-3.735233843326568604e-02,2.007543109357357025e-02,-1.320206001400947571e-02,2.456252872943878174e-01,3.052519857883453369e-01,1.736632287502288818e-01
-6.281843781471252441e-02,-1.773139461874961853e-02,8.991415612399578094e-03,7.778938859701156616e-02,6.867860257625579834e-02,5.623742192983627319e-02,2.032821476459503174e-01,2.603341639041900635e-01,8.674065023660659790e-02
-2.820829302072525024e-02,1.105062849819660187e-02,-6.741263717412948608e-02,-1.321845054626464844e-01,-1.160325929522514343e-01,-1.922333538532257080e-01,2.102978825569152832e-01,1.379717439413070679e-01,1.435410324484109879e-02
-9.079842269420623779e-02,8.720910549163818359e-02,-1.143509522080421448e-01,-1.181237399578094482e-01,1.906419359147548676e-02,-5.878720805048942566e-02,1.281700879335403442e-01,1.887967288494110107e-01,5.330170318484306335e-02
1.577136665582656860e-01,1.237411648035049438e-01,1.368988901376724243e-01,2.042024582624435425e-01,1.508505642414093018e-01,1.389401257038116455e-01,1.763089150190353394e-01,1.498404294252395630e-01,1.461777389049530029e-01
3.592996392399072647e-03,-2.502423152327537537e-02,-1.677867397665977478e-02,-1.563540846109390259e-01,-1.219656541943550110e-01,-8.101560920476913452e-02,3.652679920196533203e-02,5.259962379932403564e-02,1.287234574556350708e-01
1.403826028108596802e-01,-8.613816462457180023e-03,-2.236197935417294502e-03,-1.643347144126892090e-01,-1.655238717794418335e-01,-2.366574108600616455e-01,1.842787712812423706e-01,1.688455343246459961e-01,4.293818492442369461e-03
-1.615693978965282440e-02,1.244248598814010620e-01,-3.837813064455986023e-02,-2.673451416194438934e-02,9.315156936645507812e-02,-9.867770969867706299e-02,1.782272756099700928e-01,1.916895210742950439e-01,5.923775956034660339e-02
-1.417955756187438965e-01,-7.083665579557418823e-02,-4.912420362234115601e-02,-6.827133893966674805e-02,-2.496865764260292053e-02,-3.802517428994178772e-02,1.529088616371154785e-01,2.663812041282653809e-01,7.471029460430145264e-02
-7.148176431655883789e-02,-3.929024934768676758e-02,-8.301061391830444336e-02,3.844859078526496887e-02,6.938152946531772614e-03,-7.630013674497604370e-02,2.762641310691833496e-01,4.102338254451751709e-01,1.955249607563018799e-01
1.828385517001152039e-02,3.838263452053070068e-02,2.066952921450138092e-02,-4.198437556624412537e-02,-9.633443504571914673e-02,1.066693011671304703e-02,-6.646761205047369003e-03,4.865628108382225037e-02,-6.769897043704986572e-02
-5.751620978116989136e-03,1.447609346359968185e-02,7.169583695940673351e-04,-6.525406148284673691e-03,-5.824973806738853455e-02,2.282117307186126709e-02,-5.741250235587358475e-03,7.583740632981061935e-03,4.897638224065303802e-03
-1.095280982553958893e-03,-9.802170842885971069e-02,-1.189246550202369690e-01,4.142842069268226624e-02,1.713563688099384308e-02,-5.753374844789505005e-02,3.133783489465713501e-02,9.754678606986999512e-02,8.174469321966171265e-02
1.880215294659137726e-02,-8.738946914672851562e-02,-1.932701095938682556e-02,2.725538238883018494e-02,-4.008404538035392761e-02,-9.080544114112854004e-02,1.659700870513916016e-01,1.411700695753097534e-01,8.262317627668380737e-02
2.707098843529820442e-03,-5.864315107464790344e-02,-9.973275661468505859e-02,-4.032959789037704468e-02,5.127098876982927322e-03,-6.641381978988647461e-02,1.459898203611373901e-01,2.611736357212066650e-01,1.103824749588966370e-01
-2.415712550282478333e-02,1.369303464889526367e-01,-6.919729709625244141e-02,1.032051369547843933e-01,1.560423672199249268e-01,8.920671790838241577e-02,2.952559590339660645e-01,3.771376311779022217e-01,2.531092762947082520e-01
2.746682055294513702e-02,1.058668866753578186e-01,-6.237812712788581848e-02,2.682542614638805389e-02,1.112019345164299011e-01,-4.226525127887725830e-02,2.268323749303817749e-01,2.531647384166717529e-01,2.016729265451431274e-01
-3.321844339370727539e-02,5.317055433988571167e-02,3.142538294196128845e-02,-2.421090006828308105e-02,1.397521942853927612e-01,1.454832684248685837e-02,1.212582513689994812e-01,3.851397931575775146e-01,1.384836882352828979e-01
3.340512514114379883e-02,6.737949699163436890e-02,-2.888432145118713379e-02,-1.744658499956130981e-01,-1.729551255702972412e-01,-2.082535773515701294e-01,5.948562920093536377e-02,1.923017501831054688e-01,1.075154244899749756e-01
-7.703643292188644409e-02,-5.662136897444725037e-02,-4.654331132769584656e-02,-1.326040029525756836e-01,-1.310125738382339478e-01,-2.019118666648864746e-01,1.652080118656158447e-01,2.395512908697128296e-01,7.009108364582061768e-02
-5.713718011975288391e-03,1.634039916098117828e-02,-7.753294426947832108e-03,8.573132008314132690e-02,2.900901064276695251e-02,2.996393293142318726e-02,-3.092716913670301437e-03,4.560101404786109924e-02,4.148688539862632751e-02
-2.243097499012947083e-02,2.367532439529895782e-02,6.296582520008087158e-02,-1.741633862257003784e-01,-1.258378177881240845e-01,-1.585594713687896729e-01,-3.616375476121902466e-02,-1.898217573761940002e-02,-3.375174477696418762e-03
1.449143700301647186e-02,1.277238130569458008e-01,-8.215432614088058472e-02,-3.831380233168601990e-02,7.593227922916412354e-02,-3.904224187135696411e-02,1.663307249546051025e-01,2.391664534807205200e-01,1.409170478582382202e-01
3.673218190670013428e-02,7.063342630863189697e-02,-7.937688380479812622e-02,-7.876013964414596558e-02,-4.947598651051521301e-02,-1.688164621591567993e-01,1.404455155134201050e-01,1.843293607234954834e-01,7.684377580881118774e-02
1.111956685781478882e-01,1.435367166996002197e-01,-1.468090922571718693e-03,-1.457892060279846191e-01,3.815398737788200378e-02,-5.295801907777786255e-02,8.216393738985061646e-02,2.391516417264938354e-01,3.151735290884971619e-02
-7.671482395380735397e-03,-1.375228911638259888e-02,-2.948243636637926102e-03,-1.377984136343002319e-01,-9.700627624988555908e-02,-1.307338625192642212e-01,9.818336367607116699e-02,1.127839609980583191e-01,5.637095868587493896e-02
4.617448896169662476e-02,5.436718091368675232e-02,-1.616207696497440338e-02,-2.842923998832702637e-02,-2.251821011304855347e-02,-8.237203955650329590e-02,2.875069715082645416e-02,1.378036737442016602e-01,7.250381261110305786e-02
-3.859024494886398315e-02,2.444032020866870880e-02,-4.718335345387458801e-02,4.041657224297523499e-02,1.930747777223587036e-01,1.271527558565139771e-01,1.927321404218673706e-01,2.646204829216003418e-01,1.634843647480010986e-01
-6.736745126545429230e-03,-2.421824447810649872e-02,-7.398642599582672119e-02,7.883584499359130859e-02,4.394377395510673523e-02,-6.995632499456405640e-02,4.851099848747253418e-02,3.595301136374473572e-02,-6.751174805685877800e-05
4.424269497394561768e-02,-4.896692559123039246e-02,-5.423447117209434509e-02,7.771991193294525146e-02,6.944972276687622070e-02,5.275571718811988831e-02,1.754691451787948608e-01,1.990647614002227783e-01,1.474646329879760742e-01
1.075668781995773315e-01,2.838370017707347870e-02,8.638379722833633423e-02,8.429242670536041260e-02,2.400648780167102814e-02,-1.617633365094661713e-02,9.675759077072143555e-02,7.273333612829446793e-03,4.484967142343521118e-02
-1.482103914022445679e-01,-7.349742203950881958e-02,-1.389528065919876099e-01,-1.673349589109420776e-01,-1.581089347600936890e-01,4.167856648564338684e-02,2.124138325452804565e-01,3.003581054508686066e-02,-1.001986041665077209e-01
5.155163258314132690e-02,3.631865978240966797e-02,-5.256074294447898865e-02,4.017563909292221069e-02,-1.604287512600421906e-02,-3.746443614363670349e-02,2.070691138505935669e-01,1.449647247791290283e-01,1.356292366981506348e-01
-8.702350780367851257e-03,1.130947396159172058e-01,-8.411351591348648071e-02,-1.634261161088943481e-01,-1.336771100759506226e-01,-2.390976250171661377e-01,1.088710799813270569e-01,1.283899992704391479e-01,-8.854359388351440430e-03
-9.124578535556793213e-02,-4.796151071786880493e-02,-1.141640618443489075e-01,-1.773407906293869019e-01,-1.611964851617813110e-01,-2.842636406421661377e-01,7.775527890771627426e-03,8.357652276754379272e-02,-2.173781953752040863e-02
-1.247119531035423279e-01,-4.271014034748077393e-02,2.157426252961158752e-02,-5.421751737594604492e-02,-3.802580013871192932e-02,-7.830563187599182129e-02,1.563289761543273926e-01,2.961711287498474121e-01,9.180101752281188965e-02
-1.609254926443099976e-01,-1.087489351630210876e-01,-1.198433041572570801e-01,-5.014571920037269592e-02,-2.642262913286685944e-02,2.275923499837517738e-03,1.396321505308151245e-02,2.009746581315994263e-01,1.631672829389572144e-01
3.954649716615676880e-02,1.337071359157562256e-01,-4.502324387431144714e-02,-2.365610897541046143e-01,-9.921844303607940674e-02,-2.107071429491043091e-01,8.512945473194122314e-02,2.603197097778320312e-01,1.135329157114028931e-01
-3.264491632580757141e-02,8.640172891318798065e-03,2.817392162978649139e-02,-5.601815506815910339e-02,-3.783895075321197510e-02,-3.749737143516540527e-02,1.309073716402053833e-01,1.435917764902114868e-01,1.228644922375679016e-01
1.819866709411144257e-02,-5.061986297369003296e-02,1.900935731828212738e-02,3.579405695199966431e-02,-3.501551970839500427e-02,-1.592839956283569336e-01,2.221534550189971924e-01,2.398167550563812256e-01,6.344428658485412598e-02
1.304591447114944458e-02,1.960213296115398407e-02,-5.536743625998497009e-02,-5.160069465637207031e-02,-3.409646078944206238e-02,-1.101182699203491211e-01,2.507311105728149414e-01,2.630116939544677734e-01,1.014067828655242920e-01
3.172290325164794922e-02,1.648454666137695312e-01,2.634741738438606262e-02,-8.129094541072845459e-02,-9.986425191164016724e-02,-2.577649652957916260e-01,1.883657127618789673e-01,2.827577590942382812e-01,1.228134408593177795e-01
1.228793263435363770e-01,4.401074349880218506e-02,-4.190165549516677856e-02,6.568890064954757690e-02,7.040525972843170166e-02,4.670929536223411560e-02,2.161952406167984009e-01,3.043567240238189697e-01,2.106191068887710571e-01
-5.856731534004211426e-02,4.843254387378692627e-02,1.141569018363952637e-01,-3.047372102737426758e-01,-2.879271805286407471e-01,-3.104206621646881104e-01,1.739459484815597534e-01,1.535010486841201782e-01,1.264933496713638306e-01
5.382819101214408875e-02,4.000399261713027954e-02,-4.413133859634399414e-02,-2.975590899586677551e-02,-6.747610401362180710e-03,-3.122433833777904510e-02,2.062105834484100342e-01,1.373218894004821777e-01,7.447817176580429077e-02
-4.309253767132759094e-02,-8.565263124182820320e-04,-8.491759747266769409e-02,7.336723618209362030e-03,9.161715954542160034e-02,4.200967773795127869e-02,1.805652379989624023e-01,3.000346422195434570e-01,9.326191991567611694e-02
1.307646557688713074e-02,6.754367798566818237e-02,8.292325772345066071e-03,-1.713554561138153076e-01,-1.137465015053749084e-01,-1.628114879131317139e-01,3.609697893261909485e-02,1.449032127857208252e-01,1.329020261764526367e-01
-6.825053691864013672e-02,-9.045671671628952026e-03,-8.255116641521453857e-02,-8.622658997774124146e-02,-4.146039113402366638e-02,1.307749375700950623e-02,-8.430695533752441406e-02,2.376127522438764572e-03,-3.364700451493263245e-02
-5.685659870505332947e-02,-3.135043382644653320e-02,-1.534528881311416626e-01,2.266888739541172981e-03,1.880318820476531982e-01,-6.529476493597030640e-02,2.249102294445037842e-01,3.349371850490570068e-01,5.241354927420616150e-02
6.230886280536651611e-02,1.885639429092407227e-01,4.275906085968017578e-02,-1.657681614160537720e-01,-2.288060337305068970e-01,-1.696339845657348633e-01,6.335371732711791992e-02,2.576114237308502197e-01,1.161473318934440613e-01
4.277018457651138306e-02,9.196995943784713745e-02,-7.202126830816268921e-02,-2.931550331413745880e-02,4.933784157037734985e-02,-4.545306041836738586e-02,2.199312746524810791e-01,3.300738036632537842e-01,1.336154192686080933e-01
-4.628990218043327332e-02,3.014088235795497894e-02,-5.732290446758270264e-02,-1.062133833765983582e-01,-5.808433145284652710e-02,-5.426477268338203430e-02,1.018438786268234253e-01,2.995603680610656738e-01,1.023942157626152039e-01
7.688564062118530273e-02,6.150947511196136475e-02,-5.217613652348518372e-02,-1.270384062081575394e-02,1.216816157102584839e-02,-1.462708711624145508e-01,8.761654049158096313e-02,2.316607683897018433e-01,-1.005803328007459641e-02
-1.175746321678161621e-01,7.560204248875379562e-03,-5.635354295372962952e-02,-3.038164675235748291e-01,-1.493540257215499878e-01,-1.641108542680740356e-01,1.178970709443092346e-01,2.162396311759948730e-01,7.827921956777572632e-02
-5.580319091677665710e-03,1.453839838504791260e-01,-8.697298914194107056e-02,-8.623769506812095642e-03,1.157506108283996582e-01,-1.458853483200073242e-01,1.781809777021408081e-01,3.008150756359100342e-01,1.205967590212821960e-01
-3.967403434216976166e-03,4.611749947071075439e-02,-6.234411150217056274e-02,-3.060306608676910400e-02,1.048261523246765137e-01,4.295313730835914612e-02,1.228980198502540588e-01,2.312113195657730103e-01,6.257168203592300415e-02
1.167383603751659393e-02,5.188075080513954163e-02,-1.272661983966827393e-01,-1.070601642131805420e-01,-4.909294471144676208e-02,-1.095155179500579834e-01,1.850858628749847412e-01,1.351334452629089355e-01,7.513915002346038818e-02
-7.543193548917770386e-02,-3.822869912255555391e-04,-2.665169723331928253e-02,-1.499795764684677124e-01,-8.338864892721176147e-02,-2.032770663499832153e-01,5.108023434877395630e-02,9.680144488811492920e-02,-8.629109710454940796e-03
-5.195900052785873413e-02,-4.195964429527521133e-03,-1.779275201261043549e-02,-5.689412727952003479e-02,-2.662028931081295013e-02,-6.685957312583923340e-02,1.653479188680648804e-01,3.191226422786712646e-01,1.899125874042510986e-01
1.490421686321496964e-02,6.216775253415107727e-02,-1.739150658249855042e-02,4.790312144905328751e-03,-1.477635651826858521e-02,-7.710933685302734375e-02,8.445733785629272461e-02,1.417955458164215088e-01,2.855827659368515015e-02
-1.402729451656341553e-01,6.251892447471618652e-02,-1.770733445882797241e-01,-2.194988876581192017e-01,-1.165311112999916077e-01,-1.555936038494110107e-01,5.363013967871665955e-02,1.462203115224838257e-01,-8.772606961429119110e-03
1.616314798593521118e-02,-5.702174268662929535e-03,-1.097564324736595154e-01,-2.035740911960601807e-01,-1.253035515546798706e-01,-4.100881144404411316e-02,1.414589136838912964e-01,1.843442320823669434e-01,1.138931736350059509e-01
-1.630376838147640228e-02,-1.124398317188024521e-02,-2.659911988303065300e-04,-3.677117871120572090e-03,-3.941192757338285446e-03,1.544748246669769287e-02,-2.292654104530811310e-02,-1.838462054729461670e-02,-6.798015907406806946e-03
-9.298236109316349030e-03,-1.512184552848339081e-02,-1.127151027321815491e-02,-6.203317025210708380e-05,2.925349632278084755e-03,-7.382731419056653976e-03,-7.485551759600639343e-03,-2.250130102038383484e-02,1.339378301054239273e-03
-1.972161047160625458e-02,-1.804556138813495636e-02,-8.239895105361938477e-04,-2.558108186349272728e-03,-1.269818469882011414e-02,1.763708516955375671e-02,-9.453491307795047760e-03,-1.978649199008941650e-02,3.545447485521435738e-03
-6.603182293474674225e-03,4.255180829204618931e-04,9.530629962682723999e-03,-1.059693191200494766e-02,9.307521395385265350e-03,1.850343868136405945e-02,-4.573398269712924957e-03,2.822477836161851883e-03,1.227928884327411652e-02
-1.962657785043120384e-03,-4.220787901431322098e-03,1.042209845036268234e-02,1.928860088810324669e-03,-5.235500168055295944e-03,1.946505717933177948e-02,1.154739220510236919e-04,-2.000837214291095734e-02,6.597199826501309872e-04
1.930868835188448429e-03,-2.548445714637637138e-03,2.239084569737315178e-03,3.264940343797206879e-03,-9.383839555084705353e-03,1.296914648264646530e-02,-6.652341689914464951e-03,-1.671848236583173275e-03,1.479416340589523315e-02
-1.151396613568067551e-02,9.651854052208364010e-04,2.503884956240653992e-03,-2.144705504179000854e-02,-8.443403989076614380e-03,-8.403332903981208801e-03,-2.213287912309169769e-02,-8.301914669573307037e-03,-9.660321287810802460e-03
-1.922689843922853470e-03,-3.891567466780543327e-03,1.251946017146110535e-02,-1.922280178405344486e-03,4.337608814239501953e-03,8.175436407327651978e-03,4.468820057809352875e-03,6.951877847313880920e-03,6.376439705491065979e-03
9.137720917351543903e-04,1.634163036942481995e-02,2.980366721749305725e-02,-2.049441216513514519e-03,7.716961670666933060e-03,2.765416540205478668e-02,7.340007578022778034e-04,5.838810000568628311e-03,3.209660574793815613e-02
1.724187051877379417e-03,-9.104194119572639465e-03,2.060485072433948517e-03,-6.887902040034532547e-03,-2.660566475242376328e-03,2.094401232898235321e-02,-1.134184468537569046e-02,-2.445477060973644257e-02,3.044981276616454124e-03
-3.446256741881370544e-04,2.149151405319571495e-03,2.186960540711879730e-02,-7.352869026362895966e-03,-5.815170239657163620e-03,2.207874879240989685e-02,-1.791873574256896973e-02,-3.105141455307602882e-03,8.648508228361606598e-03
-6.078399717807769775e-03,-3.974167164415121078e-03,1.230711303651332855e-02,9.816176025196909904e-04,5.452453624457120895e-04,2.002625167369842529e-02,6.957947334740310907e-05,-9.759648703038692474e-03,1.403589383698999882e-03
-7.494577206671237946e-03,-6.543037015944719315e-03,-1.043126359581947327e-02,6.236781366169452667e-03,-1.218602433800697327e-02,-3.997703082859516144e-03,9.069900843314826488e-04,1.503111049532890320e-02,-5.797775462269783020e-03
-4.089390393346548080e-03,1.597400940954685211e-02,-1.834455761127173901e-03,-3.078621579334139824e-03,-3.468705341219902039e-03,-1.074673794209957123e-02,1.202825573273003101e-03,1.047300640493631363e-03,-2.100503537803888321e-03
-4.316019825637340546e-03,8.626938797533512115e-03,2.530376426875591278e-02,5.013064481317996979e-03,1.600950211286544800e-02,1.161334477365016937e-02,1.168316882103681564e-02,7.688865996897220612e-03,1.775511726737022400e-02
-5.978048779070377350e-03,7.209111936390399933e-04,1.499354280531406403e-02,-7.992006838321685791e-03,1.925985678099095821e-03,1.242022123187780380e-02,-2.273462479934096336e-03,-1.049060188233852386e-02,4.071464296430349350e-03
-5.044197198003530502e-03,6.916396669112145901e-04,1.917291246354579926e-02,-2.680302364751696587e-03,5.581905599683523178e-03,2.503446117043495178e-02,-1.198513433337211609e-02,-1.403043977916240692e-02,-3.671246115118265152e-03
-2.932257251814007759e-03,-1.457587070763111115e-02,1.174684800207614899e-02,2.553661586716771126e-03,-3.412987338379025459e-03,1.653652824461460114e-02,-4.794287029653787613e-03,-2.509887889027595520e-02,3.166210954077541828e-04
-5.384302232414484024e-03,-8.767636492848396301e-03,2.597616985440254211e-03,-7.612516637891530991e-03,2.669872716069221497e-03,2.426270209252834320e-02,-1.577835343778133392e-02,-7.591755595058202744e-03,1.300345454365015030e-02
-5.205822642892599106e-03,-6.151252426207065582e-03,2.890275791287422180e-03,-9.406466851942241192e-04,-9.702665731310844421e-03,4.346700385212898254e-03,-3.632850479334592819e-03,-1.026449352502822876e-02,-3.806212916970252991e-03
-2.421969315037131310e-03,-5.396583583205938339e-03,1.659906469285488129e-02,6.023922469466924667e-03,2.771694911643862724e-03,1.541597675532102585e-02,9.099643677473068237e-03,-1.071972120553255081e-02,-2.647796645760536194e-03
4.569357261061668396e-03,-3.656169865280389786e-03,1.585579290986061096e-02,-9.451839141547679901e-04,-1.087209675461053848e-02,1.141959056258201599e-02,3.152683144435286522e-03,-1.582097075879573822e-02,2.331239171326160431e-03
-1.071597356349229813e-02,-8.986175991594791412e-03,-1.316776266321539879e-03,-6.174804293550550938e-04,-1.574071682989597321e-02,-1.063792128115892410e-02,8.657282218337059021e-03,-2.556968247517943382e-03,2.209083642810583115e-03
1.329342462122440338e-02,2.578570321202278137e-02,2.074112370610237122e-02,2.735841274261474609e-02,4.115585982799530029e-02,3.889419138431549072e-02,-9.370992891490459442e-03,-5.250026937574148178e-03,-9.159422188531607389e-05
-4.970259964466094971e-03,-1.130058709532022476e-02,1.496506202965974808e-02,5.552440416067838669e-03,1.515252422541379929e-02,3.049347735941410065e-02,5.781673826277256012e-04,-7.442723028361797333e-03,1.668380759656429291e-02
-3.855098038911819458e-03,-4.334172699600458145e-03,2.132898941636085510e-02,5.099060945212841034e-04,6.906605791300535202e-03,1.070115342736244202e-02,8.732479996979236603e-03,5.317318136803805828e-04,2.112569101154804230e-02
-3.675412619486451149e-03,-9.518824517726898193e-03,-5.247573833912611008e-03,-5.746172275394201279e-03,-1.020177826285362244e-02,-1.210010726936161518e-03,2.424517879262566566e-03,-1.956293173134326935e-02,-4.650149028748273849e-03
5.983905401080846786e-03,1.366453338414430618e-02,1.396464183926582336e-03,6.639093160629272461e-03,3.543323138728737831e-03,4.163588397204875946e-03,3.868376603350043297e-03,-6.199076771736145020e-03,6.195689085870981216e-03
7.941176590975373983e-05,1.352863851934671402e-03,1.561634149402379990e-02,1.767645590007305145e-04,-6.253759376704692841e-03,2.238175831735134125e-02,-1.409938791766762733e-03,3.233252093195915222e-03,9.066776372492313385e-03
-8.136875112541019917e-04,2.126966370269656181e-03,1.670062914490699768e-02,7.087027770467102528e-04,2.763836819212883711e-04,1.071691326797008514e-02,-6.881633453303948045e-05,4.465972073376178741e-03,2.083560079336166382e-02
-9.479924105107784271e-03,-1.143372338265180588e-02,-2.638712292537093163e-03,-6.550863850861787796e-03,-1.976096443831920624e-02,-2.132773771882057190e-02,-4.280405584722757339e-03,-1.058614067733287811e-02,-1.471546012908220291e-02
-1.219178829342126846e-02,-6.748317740857601166e-03,1.570457220077514648e-02,-1.163654401898384094e-02,-7.350815925747156143e-03,2.182813733816146851e-02,-1.614452898502349854e-02,-1.345980912446975708e-02,1.796735450625419617e-02
-6.013116799294948578e-03,-1.319739036262035370e-02,-9.277603588998317719e-03,-9.875568561255931854e-03,-1.336324959993362427e-02,-9.419075213372707367e-03,-1.692023826763033867e-03,-1.110462658107280731e-02,9.418662637472152710e-03
-5.951825063675642014e-03,-3.255297197028994560e-03,4.255671519786119461e-03,-7.395040243864059448e-03,-3.843345213681459427e-03,1.783850602805614471e-03,-8.413404226303100586e-03,4.767209291458129883e-03,1.490511931478977203e-03
-9.069226682186126709e-03,-1.841909624636173248e-02,3.017077920958399773e-03,1.389094977639615536e-03,4.212516825646162033e-03,-3.950603771954774857e-03,-1.261485554277896881e-02,-2.317390590906143188e-02,3.458945080637931824e-03
-8.598151616752147675e-03,-1.309038698673248291e-02,5.685737822204828262e-03,-4.123595077544450760e-03,-2.039049752056598663e-02,4.682850558310747147e-03,-8.286185911856591702e-04,-1.104846969246864319e-02,3.619106952100992203e-03
-8.398492820560932159e-03,-2.150254586013033986e-04,-5.310935084708034992e-04,-6.003352347761392593e-03,-1.034578774124383926e-02,-1.402406208217144012e-02,2.021533902734518051e-03,-1.792000979185104370e-02,3.965513024013489485e-04
-4.840963054448366165e-03,1.060080621391534805e-02,1.390097197145223618e-02,7.549712434411048889e-03,6.545740179717540741e-03,9.579070843756198883e-03,-6.181851029396057129e-03,-2.871192293241620064e-03,9.839269332587718964e-03
-2.370514674112200737e-03,-1.750561036169528961e-02,4.749780055135488510e-03,-8.924816735088825226e-03,-1.734080724418163300e-02,-3.233209950849413872e-03,8.907197625376284122e-04,-1.597095094621181488e-02,-1.206967141479253769e-02
-1.361007057130336761e-02,-2.149843797087669373e-02,1.159485429525375366e-03,-9.125105105340480804e-03,-1.180424261838197708e-02,-5.561247467994689941e-03,1.921139657497406006e-03,-9.664477780461311340e-03,8.662916661705821753e-05
-9.076640941202640533e-03,-1.768745109438896179e-02,1.982097979635000229e-03,-1.522542326711118221e-03,-6.776851136237382889e-03,1.044954173266887665e-03,-1.455344352871179581e-02,-7.963227108120918274e-03,6.281566340476274490e-03
-7.687684614211320877e-03,8.814001339487731457e-04,-1.128884963691234589e-03,-6.207298953086137772e-03,-4.998101852834224701e-03,1.210278179496526718e-02,-9.357526898384094238e-03,-1.501744519919157028e-02,-3.707631025463342667e-03
-2.645246684551239014e-03,3.007558407261967659e-03,9.613814763724803925e-03,6.603162270039319992e-03,1.731880940496921539e-02,1.718461699783802032e-02,-6.958364974707365036e-03,-1.399405300617218018e-02,4.437007475644350052e-03
-4.092586226761341095e-03,-1.177894696593284607e-02,1.137503422796726227e-02,-1.377404574304819107e-02,-1.157261617481708527e-02,5.175671074539422989e-03,-1.783869601786136627e-02,-5.779404658824205399e-03,6.217866670340299606e-03
-3.895853878930211067e-03,-3.160795429721474648e-03,1.387395616620779037e-02,-5.857294891029596329e-03,-1.622457243502140045e-02,-1.050898223184049129e-03,-1.048396062105894089e-02,-1.542294770479202271e-02,-4.711421206593513489e-03
-3.511635120958089828e-03,-6.561977323144674301e-03,2.251732163131237030e-02,-2.951226662844419479e-03,1.867671264335513115e-03,2.526386268436908722e-02,-8.542969822883605957e-03,-2.251240657642483711e-03,1.800853200256824493e-02
-3.207735950127243996e-03,-2.943141851574182510e-03,6.166137754917144775e-03,2.164086094126105309e-03,8.606227114796638489e-03,1.612761802971363068e-02,-1.106523256748914719e-02,-1.640649512410163879e-02,-1.059326576068997383e-03
-2.900369465351104736e-03,-1.481320243328809738e-02,9.400300681591033936e-03,1.665835268795490265e-02,5.533338990062475204e-03,2.013419754803180695e-02,4.052279051393270493e-03,6.998232100158929825e-03,4.761514719575643539e-03
4.155312664806842804e-03,-1.491154357790946960e-02,1.149188610725104809e-03,6.992267910391092300e-03,-1.276873517781496048e-02,3.253252245485782623e-03,4.052511882036924362e-03,-5.764510948210954666e-03,1.469703577458858490e-02
3.303919802419841290e-04,6.899721454828977585e-03,-4.724618978798389435e-03,1.219526631757616997e-03,5.742979235947132111e-03,8.232894353568553925e-03,3.461022628471255302e-03,2.331570722162723541e-03,3.636163659393787384e-03
-8.533233776688575745e-03,-2.401616051793098450e-02,-9.456246625632047653e-04,-5.784925539046525955e-03,-2.268557995557785034e-02,1.026300014927983284e-03,-9.487762115895748138e-03,-7.684662006795406342e-03,1.040167734026908875e-02
-4.450452048331499100e-03,1.070041791535913944e-03,-2.053389791399240494e-03,1.734322495758533478e-02,1.312205567955970764e-02,1.874190010130405426e-02,-4.001376684755086899e-03,-1.319432631134986877e-02,4.300351720303297043e-03
5.979301058687269688e-04,-1.549915783107280731e-02,-1.736824284307658672e-03,-5.065269768238067627e-03,-1.576669886708259583e-02,7.270791102200746536e-03,-1.167006697505712509e-02,-1.796829514205455780e-02,9.955899789929389954e-03
-3.943627700209617615e-03,-7.230615708976984024e-03,1.788409985601902008e-02,4.936497658491134644e-03,1.959750428795814514e-02,1.558635849505662918e-02,2.455862704664468765e-03,-9.913926012814044952e-03,1.094241999089717865e-02
-2.765462500974535942e-03,-1.222731731832027435e-02,2.942264545708894730e-03,5.160910543054342270e-03,-5.272280890494585037e-03,4.467672668397426605e-03,2.470487263053655624e-03,-7.008593063801527023e-03,1.387063972651958466e-02
-5.545996828004717827e-04,9.759548120200634003e-03,2.648198604583740234e-02,2.191070932894945145e-03,1.003137324005365372e-02,2.813234739005565643e-02,-1.456148829311132431e-02,-1.153699681162834167e-02,1.387665420770645142e-02
-9.994589723646640778e-03,-1.198857929557561874e-02,1.309719774872064590e-02,-1.809731940738856792e-03,-3.055666107684373856e-03,2.137907408177852631e-02,-5.085340235382318497e-03,-7.031505811028182507e-04,6.130730733275413513e-03
-5.783041007816791534e-03,7.553500472567975521e-04,1.185231842100620270e-02,-1.424113288521766663e-02,-5.811209324747323990e-03,8.696271106600761414e-03,2.600637497380375862e-03,-1.638402813114225864e-03,1.800131052732467651e-02
-2.073011547327041626e-02,-1.993108354508876801e-02,-4.614816047251224518e-03,2.188512356951832771e-03,-2.854617079719901085e-03,1.033758465200662613e-02,2.402273821644484997e-04,4.298403859138488770e-03,1.100553572177886963e-02
-3.968549426645040512e-03,-7.107637356966733932e-03,5.602251272648572922e-03,1.334269996732473373e-03,-1.853759051300585270e-03,-1.496425247751176357e-03,3.140878863632678986e-03,-8.869059383869171143e-03,9.567282162606716156e-03
-1.309245359152555466e-02,-1.177952624857425690e-02,-2.178119961172342300e-03,-6.677449680864810944e-03,2.849549055099487305e-03,5.798992235213518143e-03,3.597656032070517540e-03,-9.211119264364242554e-03,4.960791557095944881e-04
-9.451931873627472669e-06,-3.050916362553834915e-03,2.059176191687583923e-02,5.075226072221994400e-03,8.167624473571777344e-03,1.556005422025918961e-02,-1.039175316691398621e-02,-7.705862633883953094e-03,5.200117826461791992e-03
5.139298271387815475e-03,8.758569136261940002e-03,2.267727442085742950e-02,-2.305796602740883827e-03,-2.535046776756644249e-03,2.703299932181835175e-02,-3.137859515845775604e-03,1.470236340537667274e-03,6.398327532224357128e-04
-5.093247164040803909e-04,-1.723706955090165138e-03,1.156859379261732101e-02,5.311753484420478344e-04,4.166258964687585831e-03,1.548918616026639938e-02,1.760068698786199093e-03,2.663102932274341583e-03,4.118947312235832214e-03
4.514662548899650574e-02,1.544397771358489990e-01,2.734555304050445557e-02,2.634990774095058441e-02,4.624534398317337036e-02,3.361196815967559814e-02,-9.625735692679882050e-03,-3.676196560263633728e-02,-9.055601432919502258e-03
6.561736762523651123e-02,1.449432075023651123e-01,1.441566459834575653e-02,-3.729435428977012634e-02,7.366900146007537842e-02,-2.547587268054485321e-02,1.076786871999502182e-02,1.715347170829772949e-02,-1.002967823296785355e-02
1.986962370574474335e-02,1.128898933529853821e-01,4.601619765162467957e-02,-1.828882470726966858e-02,6.622623652219772339e-02,6.177011411637067795e-03,1.314360741525888443e-02,-2.591078914701938629e-02,-2.168038487434387207e-02
3.165926039218902588e-02,9.008747339248657227e-02,6.269182264804840088e-02,3.803343279287219048e-03,4.005494341254234314e-02,1.710108481347560883e-02,-1.272620074450969696e-02,-2.054814947769045830e-03,-1.219544000923633575e-02
-3.459544107317924500e-02,1.097340285778045654e-01,2.720851637423038483e-02,-8.455020189285278320e-02,-4.169774800539016724e-02,-5.203432217240333557e-02,2.463774383068084717e-02,8.651515468955039978e-03,4.736986942589282990e-03
6.225211545825004578e-02,6.919666379690170288e-02,3.156293928623199463e-02,-6.106102373450994492e-04,7.297527045011520386e-03,-5.988611839711666107e-03,-1.389177795499563217e-02,-1.050763181410729885e-03,-1.354566868394613266e-02
3.066224418580532074e-02,8.026690036058425903e-02,9.628035873174667358e-02,4.542701691389083862e-02,6.235285475850105286e-02,3.746456652879714966e-02,8.219709619879722595e-03,3.165412321686744690e-02,8.092578500509262085e-04
-2.400083467364311218e-02,1.664969623088836670e-01,6.677368283271789551e-02,-7.442743331193923950e-02,-4.843101277947425842e-02,1.332340762019157410e-02,2.259281463921070099e-04,-3.960391879081726074e-02,8.147584274411201477e-03
3.885214775800704956e-02,4.464315995573997498e-02,8.076919615268707275e-02,-4.731659963726997375e-02,3.768547996878623962e-02,-1.848390884697437286e-02,2.910900115966796875e-02,4.582560155540704727e-03,1.728911325335502625e-02
5.906990915536880493e-02,1.051839366555213928e-01,-8.438349701464176178e-03,-2.173031121492385864e-02,3.061474068090319633e-03,-4.009696841239929199e-02,1.474905665963888168e-02,-5.078949406743049622e-02,-2.159867994487285614e-02
6.476239114999771118e-02,5.148882046341896057e-02,6.620087474584579468e-02,1.402648445218801498e-02,4.683244228363037109e-02,-1.677154650678858161e-04,4.943135194480419159e-03,-1.688656583428382874e-02,-3.081232123076915741e-02
4.459972307085990906e-02,3.585714474320411682e-02,7.406332064419984818e-03,-6.762012839317321777e-03,1.577590219676494598e-02,3.455964149907231331e-03,2.803979255259037018e-02,1.136078964918851852e-02,-7.686135824769735336e-03
-1.643161522224545479e-03,3.010666072368621826e-01,1.050412934273481369e-02,-1.345912739634513855e-02,-2.564643323421478271e-02,8.755916729569435120e-03,-2.660049125552177429e-02,-2.514021471142768860e-02,-1.532759331166744232e-02
1.994220074266195297e-03,-2.666877210140228271e-02,4.354018252342939377e-03,2.324391389265656471e-03,2.617051068227738142e-04,-2.477584639564156532e-03,2.314040029887109995e-04,-3.164984518662095070e-03,-5.169552750885486603e-03
4.294265061616897583e-02,1.012913510203361511e-01,2.438752725720405579e-02,-2.766818366944789886e-02,3.528632223606109619e-02,-2.317203581333160400e-02,-3.412261139601469040e-04,5.026920698583126068e-03,-4.599565640091896057e-02
2.962348423898220062e-02,4.206067696213722229e-02,3.105513937771320343e-02,-5.003950744867324829e-02,1.767638698220252991e-02,-1.448057591915130615e-02,1.585155911743640900e-02,-3.569098189473152161e-02,-1.039063185453414917e-02
2.994408644735813141e-02,5.552421137690544128e-02,5.015394836664199829e-02,-5.018104612827301025e-02,3.492326289415359497e-02,2.989918366074562073e-02,1.927529461681842804e-02,7.686826400458812714e-03,-1.042255014181137085e-02
4.876984283328056335e-02,2.144292742013931274e-02,3.368956968188285828e-02,1.026943232864141464e-02,5.347404163330793381e-03,4.045459255576133728e-02,2.124315313994884491e-02,-3.696428239345550537e-02,-6.493167020380496979e-03
5.605595931410789490e-02,1.302292644977569580e-01,1.069581508636474609e-01,-2.402139268815517426e-02,8.893841505050659180e-02,1.156026124954223633e-02,3.145598340779542923e-03,-2.155065536499023438e-02,-4.572062753140926361e-03
6.035535782575607300e-02,3.375557810068130493e-02,4.009774129372090101e-04,-1.946763321757316589e-02,1.257915981113910675e-02,2.362617664039134979e-02,5.883910693228244781e-03,-4.494425281882286072e-02,-1.669431477785110474e-02
1.492161862552165985e-02,9.459340013563632965e-03,-1.506515406072139740e-02,-7.407394051551818848e-02,-3.756010159850120544e-02,-4.065530374646186829e-02,1.032361201941967010e-02,1.225689612329006195e-02,-2.163856057450175285e-03
4.208859428763389587e-02,5.867163464426994324e-02,5.748533830046653748e-02,-3.515364974737167358e-02,9.874848276376724243e-02,1.458153873682022095e-02,-2.746116369962692261e-03,-8.752486668527126312e-03,-3.269996121525764465e-02
1.025463081896305084e-02,3.325558006763458252e-01,-1.882350770756602287e-03,1.354965101927518845e-02,1.473887823522090912e-02,8.786797523498535156e-03,1.366312243044376373e-02,1.571856997907161713e-02,6.932799238711595535e-03
-2.152854809537529945e-03,2.746053040027618408e-02,-1.792473345994949341e-02,1.520830951631069183e-02,3.158966451883316040e-02,4.156719520688056946e-02,-1.061581913381814957e-02,2.143729710951447487e-03,7.226605084724724293e-04
2.438547555357217789e-03,2.740087918937206268e-02,1.267477311193943024e-02,-3.954290226101875305e-02,-8.430095389485359192e-03,6.791530642658472061e-03,5.083243377157486975e-05,-4.029862582683563232e-02,-3.013516776263713837e-02
-1.409269496798515320e-02,1.266991198062896729e-01,4.000033810734748840e-02,-3.232311829924583435e-02,-1.221334561705589294e-02,-1.000165101140737534e-02,2.212131768465042114e-02,-6.951758172363042831e-03,-4.788183048367500305e-02
8.552276412956416607e-04,4.939031600952148438e-02,-6.372920237481594086e-03,-2.362361177802085876e-02,1.475072465837001801e-02,-4.449082911014556885e-02,3.675803309306502342e-03,-5.000000819563865662e-03,-1.343260705471038818e-02
2.769796177744865417e-02,6.302811950445175171e-02,4.586191475391387939e-02,-1.174129694700241089e-01,-6.661523878574371338e-02,-6.976006925106048584e-02,1.718367263674736023e-02,-3.630045428872108459e-02,-3.349599987268447876e-02
3.338095545768737793e-02,-1.377070229500532150e-02,9.356145560741424561e-02,-3.458344191312789917e-02,2.423440106213092804e-02,-3.116489760577678680e-02,-1.799232326447963715e-02,-6.616394035518169403e-03,-2.594157308340072632e-02
8.267759531736373901e-02,1.919235438108444214e-01,6.329728662967681885e-02,7.677406072616577148e-03,5.118276923894882202e-02,1.794680766761302948e-02,-3.987575881183147430e-03,-2.203183807432651520e-02,-2.784437499940395355e-02
-1.289195194840431213e-02,-1.383609510958194733e-02,-3.163103759288787842e-02,-1.701615378260612488e-02,-2.083049900829792023e-02,-4.206470027565956116e-02,-7.203313056379556656e-03,-1.013091113418340683e-02,-9.754721075296401978e-03
6.894144415855407715e-02,1.414927393198013306e-01,3.823912888765335083e-02,1.364985015243291855e-02,5.516901239752769470e-02,-2.368568442761898041e-03,1.676536723971366882e-02,1.351591385900974274e-02,-3.339598327875137329e-02
1.628288254141807556e-02,7.726692128926515579e-03,-7.439500652253627777e-03,1.909366110339760780e-03,2.680369839072227478e-02,3.171327291056513786e-03,3.090723417699337006e-03,-1.719762198626995087e-02,-7.242702413350343704e-03
2.652651257812976837e-02,5.235993862152099609e-02,7.480089552700519562e-03,-9.691929444670677185e-03,-3.189930459484457970e-03,-3.957635536789894104e-02,2.631165832281112671e-02,2.010580897331237793e-02,4.117482807487249374e-03
1.307184342294931412e-02,1.180325150489807129e-01,3.897379711270332336e-02,-3.073641471564769745e-02,-8.827160112559795380e-03,-4.319909960031509399e-02,1.224560663104057312e-02,4.516234621405601501e-03,4.243933595716953278e-03
5.731317773461341858e-02,3.137958049774169922e-02,4.046503826975822449e-02,-2.885863557457923889e-02,-8.713877759873867035e-03,-2.971351519227027893e-02,2.369721978902816772e-02,5.650932434946298599e-03,8.813017047941684723e-03
1.959170214831829071e-02,1.015603169798851013e-01,3.142627701163291931e-02,2.415233105421066284e-02,3.658865764737129211e-02,2.317641861736774445e-02,-9.134418796747922897e-04,-3.373394720256328583e-03,-9.942383505403995514e-03
1.586027815937995911e-02,1.000135112553834915e-02,3.851716965436935425e-02,-7.245907932519912720e-02,-7.103335112333297729e-02,-2.834397740662097931e-02,3.035640530288219452e-02,-2.678749151527881622e-02,-2.255691960453987122e-02
1.226277183741331100e-02,7.335614413022994995e-02,4.608267918229103088e-03,-2.777205035090446472e-02,-6.009389460086822510e-02,-5.756273749284446239e-04,1.383990235626697540e-02,-1.625492586754262447e-03,1.521467138081789017e-02
5.274457111954689026e-02,3.819470852613449097e-02,5.830185115337371826e-02,-5.643761903047561646e-02,-1.777940616011619568e-02,-4.002317413687705994e-02,6.064177490770816803e-03,1.005726214498281479e-02,1.374858617782592773e-02
1.089547760784626007e-02,5.440329760313034058e-02,-1.583366654813289642e-02,-4.545310884714126587e-02,8.556972444057464600e-02,-2.378768473863601685e-02,1.033384818583726883e-02,-1.611104421317577362e-02,-4.287381656467914581e-03
1.708811149001121521e-02,8.272952586412429810e-02,4.018225893378257751e-02,-3.721792623400688171e-02,2.416001632809638977e-02,4.273164086043834686e-04,-7.142570801079273224e-03,-3.984153270721435547e-03,1.292540784925222397e-02
2.876567281782627106e-02,8.117333799600601196e-02,5.631348863244056702e-02,-7.831993699073791504e-02,4.001725465059280396e-02,-3.126261755824089050e-02,3.982449695467948914e-02,-2.033495157957077026e-02,4.727915395051240921e-03
3.337113931775093079e-02,7.853908836841583252e-02,1.968392729759216309e-02,-5.581422522664070129e-02,5.555880442261695862e-02,-5.744798108935356140e-02,1.951390132308006287e-02,-3.327867761254310608e-02,1.085881981998682022e-02
-2.668199304025620222e-04,1.249959692358970642e-01,3.517264872789382935e-02,-5.079504102468490601e-02,2.039031125605106354e-02,-1.097490414977073669e-01,5.165867041796445847e-03,-3.884390369057655334e-02,2.344688866287469864e-03
3.119043819606304169e-02,1.505279839038848877e-01,1.742786844260990620e-03,-2.884069224819540977e-03,6.434321403503417969e-02,4.132733121514320374e-02,2.845446020364761353e-02,-1.717187836766242981e-02,-2.780130319297313690e-02
3.545546904206275940e-02,7.535839825868606567e-02,6.569974869489669800e-02,-3.461699560284614563e-02,8.178375661373138428e-02,5.912607535719871521e-03,1.266072597354650497e-02,-3.123736707493662834e-03,-3.029982559382915497e-02
2.591811306774616241e-02,-8.633283898234367371e-03,-7.518704514950513840e-04,-2.025806577876210213e-03,-4.552522208541631699e-03,-2.229367569088935852e-02,1.257156673818826675e-02,-2.518380433320999146e-02,-2.140485681593418121e-03
4.300728812813758850e-02,2.219214849174022675e-02,5.144699662923812866e-02,-6.664963811635971069e-02,-7.112160790711641312e-03,-3.904471546411514282e-02,-4.020304419100284576e-03,-7.033750414848327637e-03,-1.123415306210517883e-02
-1.359840203076601028e-02,3.683060780167579651e-02,-3.733202349394559860e-03,-8.051611483097076416e-03,-3.105272911489009857e-02,-6.728962995111942291e-03,-8.371358853764832020e-05,1.985735073685646057e-02,1.032383088022470474e-02
6.262927502393722534e-02,1.940164342522621155e-02,1.999693177640438080e-02,1.479041669517755508e-02,7.532293349504470825e-02,7.328082807362079620e-03,1.534146722406148911e-02,3.182662278413772583e-02,2.550115110352635384e-03
