-5.410027876496315002e-02,-8.391854166984558105e-02,-3.920963406562805176e-02,2.168574929237365723e-02,-9.419152140617370605e-02,3.306622803211212158e-02,6.942457705736160278e-02,-1.390461158007383347e-02,6.277080159634351730e-03
-1.625222899019718170e-02,-1.199541147798299789e-02,2.233270928263664246e-02,1.925132796168327332e-02,1.552914734929800034e-02,7.757212966680526733e-02,-1.005020514130592346e-01,-1.677343398332595825e-01,-6.851834058761596680e-02
-2.278443053364753723e-02,1.726002059876918793e-02,3.727054968476295471e-02,-9.709485620260238647e-02,2.174579352140426636e-02,2.993095852434635162e-02,-2.533167414367198944e-02,-4.129229485988616943e-02,1.857749558985233307e-02
-9.413221850991249084e-03,-5.033958330750465393e-02,-2.215858781710267067e-03,-7.339603453874588013e-02,-1.149157583713531494e-01,-9.618593007326126099e-02,-2.566654421389102936e-02,-9.811563789844512939e-02,-1.067318720743060112e-03
-1.473722308874130249e-01,-1.360542923212051392e-01,-8.444807492196559906e-03,-1.263560503721237183e-01,-9.281925112009048462e-02,2.531401254236698151e-02,-1.303094029426574707e-01,-3.630789369344711304e-02,-9.171251207590103149e-03
2.413523644208908081e-01,6.887184083461761475e-02,1.310482621192932129e-01,1.374086588621139526e-01,3.966903313994407654e-02,-3.244475647807121277e-02,1.218715459108352661e-01,1.618414223194122314e-01,2.515842020511627197e-02
-2.683379314839839935e-02,-3.647367283701896667e-02,6.831315904855728149e-02,-4.550263285636901855e-02,-1.262469589710235596e-01,7.733266055583953857e-02,-6.260432302951812744e-02,1.322726137004792690e-03,1.260689795017242432e-01
1.729898341000080109e-02,-5.314692482352256775e-02,1.973016932606697083e-02,-7.163464277982711792e-02,-8.716140687465667725e-02,-4.874117672443389893e-02,-7.378143817186355591e-02,-1.168961077928543091e-01,-3.636323660612106323e-02
-7.564209867268800735e-03,7.701620459556579590e-02,-2.280258834362030029e-01,-1.171118691563606262e-01,-5.597050115466117859e-02,-1.838264614343643188e-01,-1.159587353467941284e-01,5.948317702859640121e-03,-1.984768733382225037e-02
-2.551307715475559235e-02,-2.020850963890552521e-02,7.993728853762149811e-03,-2.137455902993679047e-02,4.569386597722768784e-03,9.730218350887298584e-02,-6.783942878246307373e-02,-3.014049725607037544e-03,1.865010857582092285e-01
-3.212178871035575867e-02,3.953487146645784378e-03,1.857357099652290344e-02,-4.032293334603309631e-02,1.819173991680145264e-02,2.165427431464195251e-02,-3.880887478590011597e-02,-4.151494428515434265e-02,-3.554593771696090698e-02
2.421618625521659851e-02,1.089474186301231384e-02,2.577062882483005524e-02,6.371954083442687988e-02,-6.260257959365844727e-02,5.519664660096168518e-02,1.088278833776712418e-02,1.568827219307422638e-02,-1.426588650792837143e-02
-1.121904999017715454e-01,-3.459133952856063843e-02,6.645669788122177124e-02,-9.247689694166183472e-02,-3.849128633737564087e-02,6.794381141662597656e-02,-7.347635924816131592e-02,3.236481174826622009e-02,4.690802469849586487e-02
1.069145277142524719e-02,-2.113569900393486023e-02,-3.175341337919235229e-02,-6.535636633634567261e-02,-5.722804367542266846e-02,-4.788048565387725830e-02,-2.043070085346698761e-02,2.451385371387004852e-02,2.391673438251018524e-02
8.738524466753005981e-02,-2.284679748117923737e-02,2.356428280472755432e-02,2.206335030496120453e-02,1.127413380891084671e-02,5.610108375549316406e-02,9.090485051274299622e-03,1.011375524103641510e-02,8.584933239035308361e-04
-3.577416762709617615e-02,-5.584349390119314194e-03,3.559024631977081299e-02,-8.798979222774505615e-02,-2.561556734144687653e-02,7.989174127578735352e-02,-1.115773469209671021e-01,-4.553779587149620056e-02,3.228411823511123657e-02
3.404293060302734375e-01,3.846076726913452148e-01,4.272645413875579834e-01,3.990199863910675049e-01,4.920589327812194824e-01,5.311695337295532227e-01,4.271076619625091553e-01,4.660109579563140869e-01,4.050060510635375977e-01
5.531173944473266602e-02,-4.406454041600227356e-02,3.539417684078216553e-02,2.459231391549110413e-02,6.576570123434066772e-02,1.073793414980173111e-02,9.532407671213150024e-02,-1.772135123610496521e-02,-1.092505920678377151e-02
-1.273464858531951904e-01,-1.004077196121215820e-01,-1.409057527780532837e-01,2.717835642397403717e-02,1.031991001218557358e-02,-6.295529752969741821e-02,4.917755722999572754e-02,4.518853966146707535e-03,-4.199492931365966797e-02
1.630162447690963745e-01,1.036312952637672424e-01,1.047371625900268555e-01,1.917408555746078491e-01,8.584412932395935059e-02,4.824053868651390076e-02,2.215779721736907959e-01,1.041143462061882019e-01,2.616347931325435638e-02
1.767411641776561737e-02,3.610775992274284363e-02,5.999125540256500244e-02,5.647504329681396484e-02,-1.924848649650812149e-03,9.133960306644439697e-02,3.236135467886924744e-03,-2.936754561960697174e-02,4.827151075005531311e-02
-1.472985465079545975e-02,-3.362475335597991943e-02,4.043925181031227112e-02,-7.863180339336395264e-02,-2.839846350252628326e-02,7.296234369277954102e-02,-5.786831304430961609e-02,-1.462777145206928253e-02,7.258526235818862915e-02
-9.858736302703619003e-04,-3.198924288153648376e-02,-4.473749175667762756e-02,2.919415943324565887e-02,6.568738818168640137e-02,3.894557803869247437e-02,-4.173302557319402695e-03,-2.821571193635463715e-02,-3.228207677602767944e-02
5.203624442219734192e-02,-2.473982423543930054e-02,-7.536608260124921799e-03,3.300103172659873962e-02,-4.268814343959093094e-03,-2.593443915247917175e-02,8.002930879592895508e-02,3.710756427608430386e-04,4.915337264537811279e-02
5.849831923842430115e-02,1.527454517781734467e-02,-6.380289793014526367e-02,1.172432452440261841e-01,8.143886923789978027e-02,-3.973122686147689819e-03,7.227068394422531128e-02,7.074133306741714478e-02,2.237231843173503876e-02
4.441380128264427185e-02,3.539373725652694702e-02,4.979895055294036865e-02,6.248435005545616150e-02,6.654085218906402588e-02,8.351311087608337402e-03,1.022214163094758987e-02,4.409444518387317657e-03,2.733875438570976257e-02
-5.295434966683387756e-02,-5.029818788170814514e-02,2.973335329443216324e-03,2.075083181262016296e-02,5.539816245436668396e-02,-1.658173650503158569e-02,-9.806399233639240265e-03,-4.355540871620178223e-02,4.075577110052108765e-02
-8.660056046210229397e-04,4.643904045224189758e-02,-7.229977846145629883e-02,1.370239164680242538e-02,-1.398642081767320633e-02,-1.164540946483612061e-01,-5.002214759588241577e-02,-3.616749309003353119e-03,-1.075226441025733948e-01
-7.182642072439193726e-02,-8.116654306650161743e-02,-8.755186945199966431e-02,-2.598118968307971954e-03,6.855781376361846924e-02,6.961167603731155396e-02,-5.491075571626424789e-03,2.047015167772769928e-02,-2.421487122774124146e-02
-8.146753162145614624e-02,-1.424821093678474426e-02,-4.943269863724708557e-02,-9.456505626440048218e-02,-6.155465543270111084e-02,-1.497131306678056717e-02,-9.708896279335021973e-02,1.937181688845157623e-02,-1.105581670999526978e-01
-1.638560555875301361e-02,2.014681138098239899e-02,4.473371431231498718e-02,-8.413983136415481567e-02,9.548061527311801910e-03,7.330267224460840225e-03,4.741341806948184967e-03,5.006415396928787231e-02,-3.499006852507591248e-03
-4.082451760768890381e-02,7.486321032047271729e-02,2.470731735229492188e-02,-3.823164384812116623e-03,2.872090972959995270e-02,-8.143110317178070545e-04,3.349873051047325134e-02,3.254245221614837646e-02,-2.985393628478050232e-02
-5.514570325613021851e-02,-3.171481564640998840e-02,2.853399887681007385e-02,5.494063720107078552e-03,3.003422357141971588e-02,3.218640806153416634e-03,-1.547933183610439301e-02,-4.228628054261207581e-02,-3.581332275643944740e-04
3.268663585186004639e-02,8.548747748136520386e-02,1.037745103240013123e-01,2.437456138432025909e-02,3.137025609612464905e-02,4.920096322894096375e-02,1.089364439249038696e-01,-3.680701181292533875e-02,-3.303638100624084473e-02
3.670513257384300232e-02,1.905884966254234314e-02,4.246976971626281738e-02,8.562758564949035645e-02,-4.106781631708145142e-02,-5.158432200551033020e-02,4.700772464275360107e-02,1.487132068723440170e-02,1.380563061684370041e-02
-4.208833724260330200e-02,-3.242230042815208435e-02,-8.719917386770248413e-02,-7.847216725349426270e-02,4.519130289554595947e-02,-4.721138998866081238e-02,-6.948912888765335083e-02,8.418624103069305420e-02,-7.267156243324279785e-02
-2.987642399966716766e-02,-1.176998578011989594e-02,3.949199989438056946e-02,-2.292881160974502563e-02,3.204087167978286743e-02,7.019516546279191971e-03,-2.157193049788475037e-02,8.913318812847137451e-02,6.675111502408981323e-02
-2.893627807497978210e-02,3.941479139029979706e-03,2.959046699106693268e-02,-2.154990285634994507e-02,8.345946669578552246e-02,1.748090423643589020e-02,1.351891364902257919e-02,4.929834045469760895e-03,-1.446051057428121567e-02
3.685061633586883545e-02,-9.087077341973781586e-03,-8.758101612329483032e-04,-8.545242017135024071e-04,4.252961277961730957e-02,1.622634753584861755e-02,-1.589832827448844910e-02,7.097498979419469833e-03,-2.030692994594573975e-02
-1.447392906993627548e-02,-7.661239802837371826e-02,-2.931804396212100983e-02,1.350735425949096680e-01,9.295964241027832031e-02,4.193879291415214539e-02,1.220805123448371887e-01,7.992037385702133179e-02,-3.084436617791652679e-02
1.993758045136928558e-02,-2.728492394089698792e-02,9.002274274826049805e-02,-3.112156130373477936e-02,-3.520095022395253181e-03,5.096570029854774475e-02,4.070793464779853821e-02,3.646587580442428589e-02,3.294840827584266663e-02
-2.645207010209560394e-02,-5.505374073982238770e-02,1.789107359945774078e-02,-3.574813529849052429e-02,-1.717771776020526886e-02,7.135913521051406860e-02,4.805742762982845306e-03,-1.630808971822261810e-02,3.677961230278015137e-02
4.594848304986953735e-02,2.863458171486854553e-02,2.269314415752887726e-02,2.613862790167331696e-02,-2.404408296570181847e-03,9.822509437799453735e-02,8.614851161837577820e-03,5.606584623456001282e-02,4.576461017131805420e-02
6.349453330039978027e-02,-8.427065797150135040e-03,3.993863984942436218e-02,-8.015280216932296753e-02,-1.184441223740577698e-01,-1.212316527962684631e-01,-6.324012577533721924e-02,-3.016458265483379364e-02,-6.789935380220413208e-02
6.219041720032691956e-02,-1.785132475197315216e-02,3.261770308017730713e-01,-1.352387666702270508e-01,1.894854307174682617e-01,3.359670639038085938e-01,-1.038329377770423889e-01,-1.615034416317939758e-03,5.117744207382202148e-02
-7.645301520824432373e-02,7.793502416461706161e-03,6.931467354297637939e-02,-6.047205254435539246e-02,-3.855934739112854004e-02,6.467831879854202271e-02,-2.333799144253134727e-03,1.405748538672924042e-02,5.177537351846694946e-02
-7.046609185636043549e-03,-6.890613585710525513e-02,7.512950687669217587e-04,-1.225070580840110779e-01,-5.841784179210662842e-02,1.181185618042945862e-02,-3.426233679056167603e-02,-7.172376662492752075e-02,2.195313386619091034e-02
3.576798737049102783e-02,2.981592714786529541e-02,3.494812920689582825e-02,3.639893233776092529e-02,-9.610072709619998932e-03,6.469117105007171631e-02,1.408611051738262177e-02,3.497351706027984619e-02,7.022961042821407318e-03
7.233774662017822266e-02,-6.006853282451629639e-02,-5.486496165394783020e-02,-1.495379768311977386e-02,1.372198201715946198e-02,1.756376028060913086e-02,8.392642252147197723e-03,-2.781955711543560028e-02,-3.724982216954231262e-02
-8.728903718292713165e-03,-6.917777657508850098e-02,-7.592931389808654785e-02,-8.369576185941696167e-03,-1.199064478278160095e-01,-1.275610476732254028e-01,-2.307328395545482635e-02,-9.282660484313964844e-02,-1.121500059962272644e-01
1.163246203213930130e-02,-1.138186976313591003e-01,-1.353428233414888382e-02,2.238052338361740112e-02,-5.134663358330726624e-02,1.028096750378608704e-01,-3.250228241086006165e-02,-5.557134374976158142e-02,5.630853772163391113e-02
5.873654782772064209e-02,4.322166368365287781e-02,1.313866581767797470e-02,4.928575083613395691e-02,1.033007074147462845e-02,1.299600675702095032e-02,-1.098133041523396969e-03,7.989023625850677490e-02,6.027174647897481918e-03
-2.258481085300445557e-02,2.932552061975002289e-02,-4.427990317344665527e-02,7.525571435689926147e-02,-1.239269226789474487e-02,-5.038990452885627747e-02,1.268981210887432098e-02,9.867678396403789520e-03,-6.459424644708633423e-02
-4.292968660593032837e-02,-2.302334876731038094e-03,2.435093000531196594e-02,-7.908902317285537720e-02,-5.425094277597963810e-04,-2.999230055138468742e-03,-4.920228570699691772e-02,-1.337227597832679749e-02,-1.092076301574707031e-02
-1.377368532121181488e-02,-5.332674365490674973e-03,1.020600795745849609e-01,-1.214304380118846893e-02,-3.243759274482727051e-02,-3.061381354928016663e-02,2.283134683966636658e-02,-2.696522697806358337e-02,-2.405147388344630599e-04
-2.565832436084747314e-02,1.362107694149017334e-02,2.898726053535938263e-02,1.213225573301315308e-01,-4.753319174051284790e-02,-2.487003989517688751e-02,1.215794496238231659e-02,-2.945048967376351357e-03,4.643438756465911865e-02
-1.040418818593025208e-02,-5.393196642398834229e-02,-2.391501218080520630e-01,2.017719205468893051e-03,-4.744591936469078064e-02,-1.643044501543045044e-01,-3.433211520314216614e-02,-8.913352154195308685e-03,-1.440867781639099121e-01
6.850630789995193481e-02,2.360919490456581116e-02,6.351558864116668701e-02,-8.060717023909091949e-03,1.875416561961174011e-02,3.517096489667892456e-02,1.573711447417736053e-02,6.712318956851959229e-02,1.402453035116195679e-01
-5.834349244832992554e-02,-3.502082824707031250e-02,-4.926418885588645935e-02,7.976076565682888031e-03,-5.117250233888626099e-02,-6.506110541522502899e-03,1.823188550770282745e-02,1.434747781604528427e-02,-3.283930942416191101e-02
2.136778831481933594e-02,3.336445614695549011e-02,-6.371862441301345825e-02,8.872193098068237305e-02,5.089262127876281738e-02,-3.656559064984321594e-02,6.473602354526519775e-02,3.146617859601974487e-02,-5.782480537891387939e-02
1.871694065630435944e-02,-5.738993361592292786e-02,5.865965411067008972e-02,9.437552094459533691e-02,-1.499568577855825424e-02,-2.719996869564056396e-02,3.438963368535041809e-02,-6.609748303890228271e-02,1.139292493462562561e-02
-9.758678264915943146e-03,-1.167305000126361847e-02,3.132113441824913025e-02,7.850021123886108398e-03,7.781159132719039917e-02,4.458548501133918762e-02,-3.089410439133644104e-02,-7.555802166461944580e-02,-1.883758045732975006e-02
-4.734180122613906860e-02,1.349431555718183517e-02,-1.270815581083297729e-01,3.235670179128646851e-02,-5.977382883429527283e-02,-8.698638528585433960e-02,-1.256242673844099045e-02,-4.661816731095314026e-02,-1.187493503093719482e-01
1.655017212033271790e-02,6.138804927468299866e-02,5.551746487617492676e-02,4.390055686235427856e-02,-3.675964847207069397e-02,-1.881068013608455658e-02,6.272122263908386230e-02,6.931029260158538818e-02,-2.067035995423793793e-02
6.449755746871232986e-03,-1.073696301318705082e-03,-2.582342177629470825e-02,8.594312705099582672e-03,2.900150418281555176e-02,-6.519492715597152710e-03,6.598750595003366470e-03,-4.785677418112754822e-03,-1.326572895050048828e-02
-3.720234334468841553e-02,-7.392459083348512650e-03,-1.166546251624822617e-03,-1.835148222744464874e-02,-1.921956613659858704e-02,-1.817489601671695709e-02,4.956149496138095856e-03,2.020921930670738220e-02,2.854932658374309540e-02
2.182990871369838715e-02,3.770221024751663208e-02,3.820966556668281555e-02,7.694982923567295074e-03,-7.436612248420715332e-02,-4.278562963008880615e-03,-1.119431480765342712e-02,-1.448651659302413464e-03,-1.737111806869506836e-02
-2.678645774722099304e-03,-1.856916397809982300e-02,2.468725433573126793e-03,2.895503537729382515e-03,-2.391999401152133942e-02,1.233596168458461761e-02,2.345006912946701050e-03,-7.439665496349334717e-03,-1.263851393014192581e-02
3.699364513158798218e-02,1.193615607917308807e-02,6.464818120002746582e-02,8.093628101050853729e-03,1.655756495893001556e-02,4.201726615428924561e-02,6.431495421566069126e-04,1.332878042012453079e-02,7.605592906475067139e-02
-8.600013330578804016e-03,-3.087943047285079956e-02,-1.510921120643615723e-02,-8.176051080226898193e-03,-1.923519000411033630e-02,-5.559555441141128540e-02,-3.738785535097122192e-02,3.846585517749190331e-03,-7.879531942307949066e-03
-3.093438223004341125e-02,-4.045454412698745728e-02,-2.064627781510353088e-02,-1.709170755930244923e-03,5.060878768563270569e-02,-1.272687222808599472e-02,2.614100463688373566e-03,-4.994050133973360062e-03,4.887918476015329361e-03
8.383125998079776764e-03,-2.587909996509552002e-02,-1.633576030144467950e-04,3.616001922637224197e-03,-8.551434427499771118e-02,-1.094513107091188431e-02,7.702323142439126968e-03,-1.040655840188264847e-02,-1.795541308820247650e-02
1.787893846631050110e-02,-1.938055828213691711e-02,-1.452726218849420547e-02,-2.546736039221286774e-02,-3.997590020298957825e-02,-1.985186338424682617e-02,-1.739157550036907196e-02,-5.187715217471122742e-02,-3.163680061697959900e-02
3.448657318949699402e-02,1.232806872576475143e-02,3.839843720197677612e-02,8.337158709764480591e-03,-1.562049612402915955e-02,5.182993132621049881e-03,1.564836129546165466e-02,1.337854936718940735e-02,1.378008164465427399e-02
1.138004940003156662e-02,-1.224647834897041321e-02,-1.370983105152845383e-02,-2.251209225505590439e-03,-3.217569738626480103e-02,-2.062124200165271759e-02,9.162222966551780701e-03,2.915005944669246674e-02,-2.128376811742782593e-02
-9.030065499246120453e-03,-1.496313139796257019e-02,-1.527988910675048828e-02,8.505785837769508362e-03,1.043229848146438599e-01,1.162080466747283936e-02,9.406942408531904221e-04,1.657674461603164673e-02,-1.179089583456516266e-02
-1.644455268979072571e-02,-5.042674019932746887e-03,1.327428780496120453e-02,9.517197497189044952e-03,3.207184374332427979e-02,1.452681515365839005e-02,-1.421677228063344955e-02,-5.756597500294446945e-03,-1.164794084616005421e-03
2.390879020094871521e-02,-2.784862183034420013e-03,2.309457957744598389e-02,4.673231765627861023e-02,-6.407216936349868774e-02,-2.517531160265207291e-03,2.758178859949111938e-02,1.114561315625905991e-02,2.530041523277759552e-02
-4.398779943585395813e-03,-4.212728701531887054e-03,-2.864564594347029924e-04,-1.192175224423408508e-02,1.617629197426140308e-03,1.459868904203176498e-02,-2.712229453027248383e-02,-1.881507411599159241e-02,-3.717773826792836189e-03
6.585799157619476318e-03,-1.113957166671752930e-02,-1.162814442068338394e-02,3.090073168277740479e-02,-4.854754370171576738e-04,-1.994297094643115997e-02,5.176173523068428040e-02,4.406102746725082397e-02,-4.241975490003824234e-03
2.466714531183242798e-01,2.002010196447372437e-01,2.021673768758773804e-01,4.005782604217529297e-01,2.167454957962036133e-01,2.306560426950454712e-01,3.606586456298828125e-01,3.587647974491119385e-01,2.259074747562408447e-01
2.486434578895568848e-02,7.633241824805736542e-03,9.137922897934913635e-03,5.179437343031167984e-03,-5.319460481405258179e-02,4.702069610357284546e-02,4.132308065891265869e-03,8.866978809237480164e-03,-7.446170784533023834e-03
1.129189040511846542e-02,1.991495676338672638e-02,3.755150735378265381e-02,1.037820428609848022e-02,1.023493707180023193e-02,2.888930775225162506e-02,2.092879265546798706e-02,9.992547333240509033e-03,2.353813312947750092e-02
-1.035742461681365967e-02,-1.893457956612110138e-02,-3.190345317125320435e-02,-2.283711172640323639e-02,-3.427345305681228638e-02,-1.610476151108741760e-02,-1.874729059636592865e-02,-2.445412240922451019e-02,-2.714050188660621643e-02
-3.681923961266875267e-03,1.544229686260223389e-02,-1.833858899772167206e-02,-1.367605477571487427e-02,5.591340363025665283e-02,-1.885626581497490406e-03,-4.310250282287597656e-03,1.597868837416172028e-02,1.141786295920610428e-02
-1.464551221579313278e-02,-2.573526930063962936e-03,-6.355160847306251526e-03,-7.907388731837272644e-03,1.998017914593219757e-02,-2.674917690455913544e-03,-9.910008870065212250e-03,7.687317207455635071e-03,2.475850516930222511e-03
1.280349306762218475e-02,-1.746554113924503326e-02,2.115492708981037140e-02,3.015138441696763039e-03,3.618842689320445061e-03,-1.224386598914861679e-02,1.403012499213218689e-02,-1.973199099302291870e-02,1.119942683726549149e-02
-1.037662476301193237e-02,-1.241950783878564835e-03,-6.394289433956146240e-03,1.141931954771280289e-02,-8.579757809638977051e-02,-8.371536619961261749e-03,3.252357942983508110e-03,-1.131471508415415883e-04,-8.252287283539772034e-03
2.846627309918403625e-02,1.940958388149738312e-02,3.113016858696937561e-02,1.920050568878650665e-02,-2.882174681872129440e-03,1.285124383866786957e-02,2.249862253665924072e-02,1.856516755651682615e-04,1.087526045739650726e-02
2.049223333597183228e-02,1.255113072693347931e-02,-2.234756946563720703e-02,-3.367838682606816292e-03,-2.122739888727664948e-02,-2.614269219338893890e-02,-2.441509626805782318e-02,1.007619872689247131e-02,-1.553910970687866211e-02
1.869974075816571712e-03,-2.616587467491626740e-02,8.235638029873371124e-03,-9.368910454213619232e-03,-1.161205098032951355e-01,-6.234589818632230163e-06,1.952774636447429657e-02,3.710452234372496605e-03,1.528810057789087296e-02
6.220816168934106827e-03,1.988233253359794617e-02,1.500898133963346481e-02,1.167849078774452209e-02,2.102485857903957367e-02,1.671453751623630524e-02,-7.456777617335319519e-03,5.533745512366294861e-03,3.320110728964209557e-03
-1.386277936398983002e-02,-1.635243557393550873e-02,-7.714577950537204742e-03,2.134929969906806946e-02,7.503930479288101196e-02,3.033529222011566162e-02,4.952431190758943558e-03,3.105568327009677887e-02,1.239489205181598663e-02
-2.642138861119747162e-02,-1.885449141263961792e-02,7.418725173920392990e-03,-4.986764863133430481e-03,1.115915328264236450e-01,-4.086380358785390854e-03,-1.108116749674081802e-02,2.233092905953526497e-03,3.540758043527603149e-03
1.253217458724975586e-02,-1.052041538059711456e-02,1.126459985971450806e-02,-2.653588540852069855e-03,-1.190615892410278320e-01,-1.203053444623947144e-02,-1.983430050313472748e-02,-9.326771833002567291e-03,-1.116476114839315414e-02
-3.356753289699554443e-02,-3.236198797821998596e-02,-1.721015758812427521e-02,-3.384216455742716789e-03,-1.911818166263401508e-03,8.046827279031276703e-03,-2.427810616791248322e-02,6.648218724876642227e-03,1.628713123500347137e-02
-1.785297645255923271e-03,3.258934244513511658e-03,2.604365162551403046e-02,2.039158530533313751e-02,-4.537505283951759338e-02,-6.591409444808959961e-03,1.156837679445743561e-02,-8.365623652935028076e-03,7.257004268467426300e-03
5.386465229094028473e-03,1.399065367877483368e-02,-2.119021490216255188e-02,9.177177213132381439e-03,1.937395893037319183e-02,-2.853953652083873749e-02,-8.911202661693096161e-03,1.673589227721095085e-03,-3.847293788567185402e-03
-9.251065552234649658e-03,3.262821957468986511e-02,-2.049500122666358948e-03,-4.878825042396783829e-03,5.520464107394218445e-02,8.933230303227901459e-03,-2.752507571130990982e-03,8.283707313239574432e-03,-6.839193403720855713e-03
6.737767718732357025e-03,-6.295976694673299789e-03,7.219215855002403259e-03,-9.739063680171966553e-03,3.137841820716857910e-03,3.151549026370048523e-02,-8.334459736943244934e-03,-2.812841534614562988e-02,1.240839250385761261e-03
-1.954169943928718567e-02,-2.144312299787998199e-02,8.778838091529905796e-04,-3.515225136652588844e-03,5.667508766055107117e-02,1.091107726097106934e-02,-6.362276617437601089e-03,-2.021952532231807709e-03,-4.471491556614637375e-03
3.144364058971405029e-02,-5.921785254031419754e-03,1.024033129215240479e-02,-6.356718484312295914e-03,-7.346210628747940063e-02,-1.068233232945203781e-02,1.616143248975276947e-02,-1.138495560735464096e-02,4.249897319823503494e-03
-4.167982935905456543e-02,-2.651938423514366150e-02,-1.743918471038341522e-02,-4.978343378752470016e-03,3.687069565057754517e-02,4.329693038016557693e-03,1.190305408090353012e-02,1.226505357772111893e-02,5.246236833045259118e-05
1.279078237712383270e-02,-2.931177802383899689e-02,1.799924112856388092e-02,7.507166825234889984e-03,-1.155910827219486237e-02,8.024371229112148285e-03,1.863368041813373566e-02,1.306176651269197464e-02,4.490836057811975479e-03
2.274981513619422913e-02,1.703098975121974945e-02,3.705609217286109924e-02,2.829046174883842468e-02,2.592356130480766296e-02,4.556832090020179749e-02,4.191161692142486572e-02,6.405405700206756592e-02,7.635521143674850464e-02
3.429655916988849640e-03,-2.142511680722236633e-02,-4.951195791363716125e-03,-8.662386797368526459e-03,3.217928810045123100e-03,1.234571333043277264e-03,4.624830558896064758e-03,-3.096283879131078720e-03,1.253146491944789886e-02
1.929952017962932587e-02,-8.497844683006405830e-04,9.278916986659169197e-04,-9.127307683229446411e-03,6.208443269133567810e-02,-3.682388365268707275e-02,8.327249437570571899e-03,-9.890431538224220276e-03,-2.524267509579658508e-02
2.885899320244789124e-02,7.466470822691917419e-03,1.884273439645767212e-02,-1.151554286479949951e-02,-2.005400508642196655e-02,2.961754333227872849e-03,-2.736994996666908264e-02,-1.303575746715068817e-02,1.156742655439302325e-04
-1.150786969810724258e-02,-1.164624989032745361e-01,2.958018891513347626e-02,-3.608233109116554260e-02,-6.501927226781845093e-02,-5.293173715472221375e-02,-4.220581054687500000e-02,-8.305510133504867554e-02,-2.408061921596527100e-02
1.523909345269203186e-02,-3.619821742177009583e-02,-2.890684269368648529e-02,2.221438288688659668e-02,-1.115136221051216125e-02,-2.840232264134101570e-05,2.188783138990402222e-02,-1.151263364590704441e-03,1.789583824574947357e-02
-1.025019120424985886e-02,-1.524881087243556976e-02,-6.479016970843076706e-03,5.351329222321510315e-03,-6.133290007710456848e-02,1.366127189248800278e-02,1.368918363004922867e-02,-1.595074497163295746e-02,1.458098087459802628e-02
-1.434722915291786194e-02,1.558078359812498093e-02,1.294230669736862183e-02,-1.174406986683607101e-02,8.524201810359954834e-02,2.276766346767544746e-03,1.037869602441787720e-03,1.120104826986789703e-02,5.198162980377674103e-03
1.988272182643413544e-03,-1.342658884823322296e-02,1.443033292889595032e-02,-1.271650753915309906e-02,2.750525623559951782e-02,1.239457167685031891e-02,-1.094744913280010223e-02,-2.677715010941028595e-02,1.824797876179218292e-02
-7.539641577750444412e-03,-8.574894629418849945e-03,-4.012735560536384583e-02,-9.053182293428108096e-05,4.413549974560737610e-02,-1.844322122633457184e-02,4.105692205484956503e-04,-1.762771792709827423e-02,3.090402344241738319e-03
-1.891141943633556366e-02,3.222905471920967102e-02,-1.446865219622850418e-02,-1.637296006083488464e-02,3.203845117241144180e-03,-2.355367690324783325e-02,-1.361989602446556091e-02,-4.264691844582557678e-03,-1.321749016642570496e-02
-8.278441615402698517e-03,-2.416307851672172546e-02,-2.365748584270477295e-02,6.808800622820854187e-03,1.206815056502819061e-02,-1.733304746448993683e-02,-2.125218510627746582e-02,-4.480830952525138855e-02,-3.062018193304538727e-03
7.696746382862329483e-03,2.113979309797286987e-02,-9.309289976954460144e-03,3.959358204156160355e-03,4.834139719605445862e-03,-4.916145000606775284e-03,-1.737348549067974091e-02,-1.424872502684593201e-02,-4.740216769278049469e-03
-2.593169175088405609e-02,1.542651094496250153e-03,-1.892112381756305695e-02,-1.554122287780046463e-02,-2.875234931707382202e-02,-2.342614578083157539e-03,6.433645728975534439e-03,-2.851444995030760765e-03,1.125834300182759762e-03
4.222094547003507614e-03,-1.918679848313331604e-02,1.094577834010124207e-02,7.442982401698827744e-03,-9.523260407149791718e-03,1.311296480707824230e-03,-1.227080449461936951e-02,-2.516735531389713287e-02,-1.109154708683490753e-02
1.802260801196098328e-02,-1.187970302999019623e-02,1.138099003583192825e-02,-3.385181305930018425e-03,6.220883131027221680e-02,6.431994843296706676e-04,-1.366513548418879509e-03,-1.814923947677016258e-03,9.599843062460422516e-03
2.954702940769493580e-04,-2.595487050712108612e-03,1.422213297337293625e-02,-1.078896038234233856e-02,-2.842142246663570404e-02,1.348050870001316071e-02,-1.693288050591945648e-02,-9.684838587418198586e-04,-1.635996066033840179e-02
-2.936640940606594086e-02,-1.332892663776874542e-02,-3.055522777140140533e-02,-2.038674615323543549e-02,-5.994283035397529602e-02,-2.530463784933090210e-02,-2.318059094250202179e-02,-2.654599584639072418e-02,-1.714295521378517151e-02
-3.196800872683525085e-02,-3.117619082331657410e-02,-1.655953563749790192e-02,-2.745759114623069763e-02,1.304437816143035889e-01,-5.528011824935674667e-03,-8.295357227325439453e-03,-7.202456239610910416e-03,9.033991955220699310e-04
2.884383127093315125e-02,-9.183695539832115173e-03,-1.577881351113319397e-02,3.699499368667602539e-02,-1.848033629357814789e-03,-8.701948449015617371e-03,5.160921253263950348e-03,7.348587736487388611e-03,-6.530281621962785721e-03
-2.655443176627159119e-02,-4.610233381390571594e-02,-3.501253202557563782e-02,-5.271766567602753639e-04,1.432004123926162720e-01,-1.911784335970878601e-02,-9.046911261975765228e-03,5.531474947929382324e-03,-1.594295911490917206e-02
5.255527794361114502e-03,-3.023501485586166382e-03,-2.281655324622988701e-03,-1.198010169900953770e-03,-6.583671271800994873e-02,-9.718985296785831451e-03,9.002670645713806152e-03,-7.141129579395055771e-03,5.906667560338973999e-03
-2.013906463980674744e-02,-1.201138924807310104e-02,-1.770583912730216980e-02,-9.939173236489295959e-03,6.686631590127944946e-02,-1.154770143330097198e-03,-2.480372600257396698e-02,-1.279537007212638855e-02,-6.173393689095973969e-03
1.838303729891777039e-02,-1.113251876085996628e-02,-1.490350440144538879e-02,1.270745787769556046e-02,-1.176934782415628433e-02,6.570586469024419785e-03,-1.581609947606921196e-03,5.095369488117285073e-05,2.465819381177425385e-02
-3.100094571709632874e-02,-1.790768653154373169e-02,-2.181845530867576599e-02,-2.898137830197811127e-02,-8.373168855905532837e-02,-8.462239988148212433e-03,-3.727811947464942932e-02,-3.485126653686165810e-04,1.413597166538238525e-02
-3.853698447346687317e-02,-3.594881668686866760e-02,-1.728527806699275970e-02,-3.496354445815086365e-02,-3.642586816567927599e-04,-7.643596827983856201e-02,2.175171300768852234e-02,7.402659952640533447e-02,4.342347010970115662e-02
-6.707355380058288574e-02,-6.006352603435516357e-03,-9.904757887125015259e-02,-3.440782800316810608e-02,1.477372199296951294e-01,2.750135259702801704e-03,-9.538525342941284180e-02,-1.388198812492191792e-03,-5.263669416308403015e-02
-1.836574450135231018e-02,-1.851245015859603882e-02,-4.299787059426307678e-02,-7.986367493867874146e-02,-1.202165186405181885e-01,-4.136548936367034912e-02,-3.582918643951416016e-02,-3.783659264445304871e-02,-1.647304557263851166e-02
5.311605054885149002e-03,3.396844491362571716e-02,6.856848951429128647e-03,1.887321844696998596e-02,1.376390457153320312e-01,5.212291330099105835e-02,-1.539222430437803268e-02,3.665122389793395996e-02,-2.203475311398506165e-02
-6.607218831777572632e-02,-4.605908691883087158e-02,-4.167152196168899536e-02,-4.324795305728912354e-02,-1.061082035303115845e-01,-3.667750209569931030e-02,-1.068239808082580566e-01,-3.206826001405715942e-02,-5.526180937886238098e-02
-3.774534165859222412e-02,1.407924201339483261e-02,-3.850048035383224487e-02,-2.491946890950202942e-02,-1.174566000699996948e-01,-3.017068095505237579e-02,-3.044600784778594971e-02,-4.122538492083549500e-02,-1.045241579413414001e-02
-5.823303759098052979e-02,1.319185551255941391e-02,-9.381458163261413574e-02,-2.346875146031379700e-02,1.771805882453918457e-01,-3.400178998708724976e-02,-6.438206881284713745e-02,-1.707720197737216949e-02,-6.287523359060287476e-02
7.100144028663635254e-02,-1.037598028779029846e-02,2.572772838175296783e-02,1.272918134927749634e-01,6.486142426729202271e-02,-6.289129704236984253e-02,1.078775748610496521e-01,5.239442363381385803e-02,-1.229806765913963318e-01
-7.702292501926422119e-02,2.632146002724766731e-03,-6.515939533710479736e-02,-2.973078936338424683e-02,4.472218081355094910e-02,-7.229860406368970871e-03,-2.834730409085750580e-02,1.452204771339893341e-02,-2.944359090179204941e-03
-5.740169435739517212e-02,9.519173763692378998e-03,-6.328979879617691040e-02,-6.205365061759948730e-02,1.352907419204711914e-01,-3.737477958202362061e-02,-7.189120352268218994e-02,-4.404256865382194519e-02,-4.613114148378372192e-02
-2.043894305825233459e-02,-1.878837309777736664e-02,-1.725817099213600159e-02,-5.532231554388999939e-02,-1.507292389869689941e-01,-3.271479904651641846e-02,-3.801737353205680847e-02,-2.066400274634361267e-02,-1.664331532083451748e-03
-6.076807528734207153e-02,-2.067263796925544739e-02,-6.052239611744880676e-02,-6.339643150568008423e-02,-2.322138473391532898e-02,-4.123713076114654541e-02,-4.443933069705963135e-02,-1.471580239012837410e-03,-2.674888819456100464e-02
-4.664608091115951538e-02,1.001552771776914597e-02,-3.626988455653190613e-02,-7.036261726170778275e-03,8.960039913654327393e-02,1.002713013440370560e-02,-5.718443542718887329e-02,-5.742506310343742371e-02,-2.248907275497913361e-02
2.564264275133609772e-02,2.808238565921783447e-02,4.831463843584060669e-02,-1.106093637645244598e-03,5.038860719650983810e-03,-2.704112790524959564e-03,2.640918456017971039e-02,-3.961077332496643066e-02,-2.995169488713145256e-03
-4.251130856573581696e-03,-6.847349926829338074e-03,-5.265342444181442261e-02,1.026664488017559052e-02,2.598689869046211243e-02,-2.083084546029567719e-02,3.782815858721733093e-02,4.715937376022338867e-02,-2.352751977741718292e-02
1.555285751819610596e-01,2.729855477809906006e-01,2.082412093877792358e-01,3.979012370109558105e-01,4.233970642089843750e-01,2.224706262350082397e-01,3.393441140651702881e-01,2.421493828296661377e-01,1.724298000335693359e-01
-8.024372160434722900e-02,-2.687216363847255707e-02,-4.386377334594726562e-02,-6.176461279392242432e-02,1.125492602586746216e-01,-4.077434912323951721e-02,-6.812570244073867798e-02,-6.596033275127410889e-02,-3.063217364251613617e-02
6.680255383253097534e-02,3.678651526570320129e-02,6.113215908408164978e-02,3.773970820475369692e-04,2.436620555818080902e-02,8.056035265326499939e-03,-4.901910945773124695e-02,-4.007318988442420959e-02,-1.744196563959121704e-02
1.056253095157444477e-03,-2.311870921403169632e-03,1.026117522269487381e-02,3.788793832063674927e-02,-9.244027547538280487e-03,-2.918390184640884399e-02,3.657633438706398010e-02,1.752449572086334229e-02,1.754339411854743958e-02
-2.929123677313327789e-02,-5.000367388129234314e-02,-3.777625039219856262e-02,1.523265521973371506e-02,-1.063642874360084534e-01,2.826806902885437012e-02,-3.039701096713542938e-02,-5.719374865293502808e-02,-2.430350705981254578e-02
-2.790748514235019684e-02,-1.460771542042493820e-02,-8.809652179479598999e-02,-4.998715594410896301e-02,-8.303334005177021027e-03,-3.930823504924774170e-02,-3.354762867093086243e-02,-9.983406402170658112e-03,-3.507564961910247803e-02
-2.470169775187969208e-02,1.258900761604309082e-02,-5.239131674170494080e-02,-4.677691683173179626e-02,1.064977049827575684e-01,-3.117710538208484650e-02,-1.290571130812168121e-02,5.784197151660919189e-02,-1.550369802862405777e-02
2.848355332389473915e-03,2.523226290941238403e-02,-2.089782245457172394e-02,4.875099286437034607e-03,6.860700249671936035e-02,1.242255046963691711e-02,-3.475056588649749756e-02,-5.638113990426063538e-02,-1.859111711382865906e-02
5.572836101055145264e-02,7.380062341690063477e-02,9.647834114730358124e-03,5.768830329179763794e-02,-3.912230022251605988e-03,1.704815216362476349e-02,3.213134361431002617e-03,2.793035842478275299e-02,-1.315330620855093002e-02
-1.587052270770072937e-02,3.753512399271130562e-03,-5.246695131063461304e-02,7.869894616305828094e-03,6.625170260667800903e-02,4.354970064014196396e-03,-5.853385850787162781e-02,-4.806814342737197876e-02,-5.221951380372047424e-02
-7.054163143038749695e-03,4.994052648544311523e-02,-1.831244677305221558e-02,6.649249792098999023e-02,1.108272224664688110e-01,-5.269867554306983948e-02,-4.881894215941429138e-02,2.211074111983180046e-03,-4.178732261061668396e-02
-2.571251988410949707e-02,-3.025449998676776886e-02,-6.134952977299690247e-02,3.518569096922874451e-02,1.021585427224636078e-02,3.266683220863342285e-02,-9.936117567121982574e-03,-1.323269307613372803e-02,-2.603837847709655762e-02
-2.313251979649066925e-02,-3.278397023677825928e-02,-1.191849354654550552e-02,-4.297769442200660706e-02,-4.843707010149955750e-02,-4.965787520632147789e-04,-1.893327198922634125e-02,-1.558781787753105164e-02,-1.103067491203546524e-02
3.383558988571166992e-02,3.837928920984268188e-02,6.574007216840982437e-03,4.466524720191955566e-02,-6.599009782075881958e-02,4.142875224351882935e-02,2.326860278844833374e-02,1.589103229343891144e-02,6.972020491957664490e-03
-5.733083188533782959e-02,2.071002312004566193e-02,-3.664279729127883911e-02,-3.383070230484008789e-02,1.493926346302032471e-01,3.162932989653199911e-05,-9.870482236146926880e-02,-8.063460141420364380e-02,-7.239077985286712646e-02
3.715584799647331238e-02,6.078462675213813782e-02,-1.680148299783468246e-03,-8.396366611123085022e-03,1.367272110655903816e-03,-1.922113262116909027e-02,-1.645712926983833313e-02,-2.041829936206340790e-02,-5.424433946609497070e-02
-6.960266083478927612e-02,-1.769335940480232239e-02,-1.131149381399154663e-01,-6.378798186779022217e-02,1.073430925607681274e-01,-1.803410053253173828e-02,-6.288948655128479004e-02,-2.191389165818691254e-02,-5.630728229880332947e-02
-3.346648067235946655e-02,2.572029642760753632e-02,3.914214298129081726e-02,-1.600268483161926270e-02,2.651872299611568451e-02,6.634473800659179688e-02,-7.039553672075271606e-02,-9.126793593168258667e-03,2.344047091901302338e-02
-1.649272255599498749e-02,-8.178692660294473171e-04,-1.131347659975290298e-02,-4.392283782362937927e-02,-1.780493408441543579e-01,-2.511351183056831360e-02,-3.338853269815444946e-02,-4.937496408820152283e-02,1.398527715355157852e-02
-1.176475081592798233e-02,4.835525155067443848e-02,-3.031648322939872742e-02,-5.006430670619010925e-03,7.601667195558547974e-02,-2.594601362943649292e-02,-3.404668346047401428e-02,8.390226284973323345e-04,-5.552566796541213989e-02
-8.186136255972087383e-04,-9.860122576355934143e-03,-2.729967609047889709e-02,-4.038345441222190857e-02,-4.499728605151176453e-02,-3.839721158146858215e-02,-2.063494361937046051e-02,-1.003123912960290909e-02,-1.636453531682491302e-02
-5.098078772425651550e-02,-6.646311376243829727e-03,-7.592180371284484863e-02,-6.567182135768234730e-04,1.262613087892532349e-01,-1.143568940460681915e-02,-9.425783902406692505e-02,-4.124296456575393677e-02,-6.035309657454490662e-02
-2.122526057064533234e-02,-2.989176660776138306e-02,-4.609675705432891846e-02,-1.714145019650459290e-02,-3.722079098224639893e-02,-4.169332608580589294e-02,-2.479868009686470032e-02,-1.074366644024848938e-02,-2.696946263313293457e-02
-1.205346267670392990e-02,-2.806895971298217773e-02,-3.874994441866874695e-02,-6.214531604200601578e-03,-7.860046625137329102e-02,3.567402064800262451e-02,-9.946043603122234344e-03,-2.345565706491470337e-02,-2.966434136033058167e-02
2.098092436790466309e-02,1.319471281021833420e-02,4.448122158646583557e-02,1.770298741757869720e-02,-3.409380791708827019e-03,1.120822690427303314e-02,4.041477665305137634e-02,2.960913442075252533e-02,2.833862975239753723e-02
-3.812254220247268677e-02,-1.517907250672578812e-02,-8.010814338922500610e-02,-4.157916083931922913e-02,1.131224725395441055e-02,-4.084935411810874939e-02,-5.530874803662300110e-02,-6.700516678392887115e-03,-6.414539366960525513e-02
-5.480196699500083923e-02,-1.799414493143558502e-02,-3.950750082731246948e-02,-6.877771019935607910e-02,-8.886434882879257202e-02,-7.446785457432270050e-03,-6.557734310626983643e-02,-9.201182983815670013e-03,-2.040235884487628937e-02
-2.397145889699459076e-02,1.320783514529466629e-02,-6.702652573585510254e-02,4.017031937837600708e-02,7.436683773994445801e-02,-3.910250496119260788e-03,-5.482590943574905396e-02,-2.979511581361293793e-02,-8.031336963176727295e-02
3.999164402484893799e-01,3.540067374706268311e-01,4.324997365474700928e-01,3.539407253265380859e-01,4.547465145587921143e-01,3.376691341400146484e-01,4.368573129177093506e-01,4.048501551151275635e-01,3.991667628288269043e-01
4.703404009342193604e-02,6.155298650264739990e-02,4.645683243870735168e-02,1.496253535151481628e-02,2.461946941912174225e-02,-1.956221275031566620e-02,-3.624521568417549133e-02,-5.884396284818649292e-02,-4.153160750865936279e-02
-2.773025073111057281e-02,2.173757413402199745e-03,-7.019685208797454834e-02,-2.985843457281589508e-02,1.609977930784225464e-01,-6.247298792004585266e-03,-6.988749653100967407e-02,1.174982450902462006e-02,-6.299230456352233887e-02
-4.699340462684631348e-02,-1.030310872010886669e-03,-6.238931789994239807e-02,-2.613680437207221985e-03,-4.754910990595817566e-02,-3.580547124147415161e-02,-3.217970207333564758e-02,2.458376623690128326e-02,-4.352946951985359192e-02
-2.460623858496546745e-03,3.245849907398223877e-02,-4.455149639397859573e-03,-2.125368826091289520e-02,2.393994107842445374e-02,-3.306059911847114563e-02,-3.061344288289546967e-02,-1.718124561011791229e-02,-9.343217127025127411e-03
-2.277234941720962524e-02,-2.725242823362350464e-02,-7.500985264778137207e-02,9.702235460281372070e-03,9.411315619945526123e-02,2.879280829802155495e-03,-4.977812524884939194e-03,-9.137648157775402069e-03,-7.814746350049972534e-02
-2.646337263286113739e-02,-4.337736591696739197e-02,-4.865132644772529602e-02,-2.242919802665710449e-02,-1.919230818748474121e-02,9.528243914246559143e-03,-1.711660251021385193e-02,1.833115518093109131e-02,3.332962095737457275e-02
3.163151070475578308e-02,3.652501106262207031e-02,2.181375212967395782e-02,2.204870805144309998e-02,-7.926946133375167847e-02,4.330481588840484619e-02,-3.075685538351535797e-02,-1.574519276618957520e-02,-2.621282078325748444e-02
-1.588865742087364197e-02,-3.649855405092239380e-02,-3.917620331048965454e-02,9.080837480723857880e-04,1.420113444328308105e-02,2.276851609349250793e-02,-5.128707736730575562e-02,-2.807834930717945099e-02,-3.180026262998580933e-02
-3.358988836407661438e-02,-3.080577589571475983e-03,-6.775217503309249878e-02,2.527799643576145172e-02,1.088882014155387878e-01,1.521250582300126553e-03,-4.188599810004234314e-02,-2.316767349839210510e-02,-5.491469055414199829e-02
-1.890177652239799500e-02,8.391168899834156036e-03,-5.162868648767471313e-02,-5.097498372197151184e-02,3.558591753244400024e-02,-1.963047310709953308e-02,-5.533353611826896667e-02,-2.697915583848953247e-02,-2.327944152057170868e-02
2.650989452376961708e-03,1.185180339962244034e-02,-1.955128274857997894e-02,3.144195768982172012e-03,-1.244188994169235229e-01,2.973666042089462280e-02,7.269610185176134109e-03,3.069056663662195206e-03,6.647686474025249481e-03
-6.978116184473037720e-02,-2.021150290966033936e-02,-7.449825108051300049e-02,-5.453651025891304016e-02,-4.204481095075607300e-02,-8.605162799358367920e-02,-5.302992183715105057e-03,1.789345033466815948e-02,-4.946513846516609192e-02
1.747437170706689358e-03,1.757246628403663635e-02,-8.558560162782669067e-03,3.263879939913749695e-02,8.182609081268310547e-02,2.226904220879077911e-02,-3.501025959849357605e-02,-3.441489860415458679e-02,-3.482006117701530457e-02
1.894296519458293915e-02,5.030757188796997070e-02,-3.651013365015387535e-03,5.534190218895673752e-03,-8.950681239366531372e-02,2.925424836575984955e-02,4.792057722806930542e-02,4.993863403797149658e-02,4.585253819823265076e-02
-7.382151484489440918e-02,2.329939045011997223e-02,-8.495641872286796570e-03,-9.463636204600334167e-03,2.961019799113273621e-02,-1.803056220524013042e-03,-2.791318669915199280e-02,8.294031023979187012e-03,-1.352668274194002151e-02
-1.954032666981220245e-02,5.069377645850181580e-02,-4.667437076568603516e-02,-8.124793320894241333e-02,-6.805730611085891724e-02,-4.921483248472213745e-02,-7.340097427368164062e-02,4.287554323673248291e-02,-1.571121625602245331e-02
-5.479698255658149719e-02,3.845376893877983093e-02,-5.374847725033760071e-02,-1.474985759705305099e-02,1.711915731430053711e-01,-1.740351319313049316e-03,-4.675029963254928589e-02,2.753285132348537445e-02,-2.087422832846641541e-02
-4.706704057753086090e-03,-3.422480542212724686e-03,-5.345237627625465393e-02,7.029898930341005325e-03,-9.402669966220855713e-02,-3.304447233676910400e-02,1.192394457757472992e-02,1.976101100444793701e-02,-3.099358000326901674e-04
5.324709787964820862e-02,9.234932065010070801e-02,1.728172972798347473e-02,-3.537092730402946472e-02,3.588752076029777527e-02,-3.762522339820861816e-02,-6.797205656766891479e-02,-4.418535530567169189e-02,-7.714002579450607300e-02
-7.334125787019729614e-02,-1.033592037856578827e-02,4.332231357693672180e-02,9.312186390161514282e-02,9.180646389722824097e-02,-2.431922405958175659e-02,4.819764569401741028e-02,5.480298399925231934e-02,3.813293762505054474e-03
-3.096914291381835938e-02,-7.236955314874649048e-02,3.862706571817398071e-02,4.417226836085319519e-02,1.111706625670194626e-02,5.467882379889488220e-02,1.890591531991958618e-02,-2.789853885769844055e-02,-5.640033259987831116e-02
3.080071695148944855e-02,1.267808675765991211e-02,4.674557968974113464e-02,6.576633546501398087e-03,-1.878394372761249542e-02,-4.043748485855758190e-04,1.295730285346508026e-02,1.729945279657840729e-02,-4.704721644520759583e-02
-2.209497988224029541e-02,-4.443210549652576447e-03,4.505481198430061340e-02,3.261626511812210083e-02,4.333981126546859741e-02,-9.640042483806610107e-02,-1.929557882249355316e-02,3.850097581744194031e-02,-4.848291724920272827e-02
-2.462471723556518555e-01,-1.384150087833404541e-01,-2.032554894685745239e-01,-1.932620108127593994e-01,-4.182762652635574341e-02,-1.684490144252777100e-01,-2.779459059238433838e-01,-9.702035784721374512e-02,-1.821281909942626953e-01
5.122851952910423279e-02,-3.805493935942649841e-02,7.174301892518997192e-02,-7.894139736890792847e-03,-4.125517606735229492e-02,-6.421565776690840721e-04,1.667311787605285645e-01,9.905097633600234985e-02,2.341838926076889038e-01
-7.437608391046524048e-02,4.444582015275955200e-02,3.622022643685340881e-02,-8.994868025183677673e-03,-5.941049754619598389e-02,4.260504618287086487e-02,-8.720375597476959229e-02,-1.169146131724119186e-02,3.418361535295844078e-03
6.392927467823028564e-02,1.418490335345268250e-02,5.659852549433708191e-02,7.172105461359024048e-02,-2.363959699869155884e-02,-6.898511201143264771e-02,-2.587795816361904144e-02,8.093357086181640625e-03,-4.999856278300285339e-02
-1.370659619569778442e-01,5.930998921394348145e-02,1.336177885532379150e-01,-1.218507066369056702e-01,1.494180560111999512e-01,1.691676527261734009e-01,-1.771240830421447754e-01,1.181464940309524536e-01,1.521105319261550903e-01
2.927852794528007507e-02,-9.926624596118927002e-03,-8.722393214702606201e-02,-1.036277711391448975e-01,-9.676609188318252563e-02,-5.306415259838104248e-02,-1.163027212023735046e-01,-9.499773383140563965e-02,-6.125688925385475159e-02
-2.108645252883434296e-02,9.416427463293075562e-03,5.953240767121315002e-02,4.073654860258102417e-02,-4.994885250926017761e-02,6.540156900882720947e-02,-1.174820354208350182e-03,5.479818955063819885e-02,1.794683560729026794e-02
-9.735307097434997559e-02,-4.656278714537620544e-02,3.121574781835079193e-02,-1.441871467977762222e-02,-4.488308355212211609e-02,-7.876919209957122803e-02,4.506634548306465149e-02,-1.751805975800380111e-04,-3.373881056904792786e-02
2.443594671785831451e-02,-1.623470149934291840e-02,-3.416139259934425354e-02,5.185157805681228638e-02,2.763110771775245667e-02,-5.601769685745239258e-02,-2.036976255476474762e-02,-3.622178453952074051e-03,-1.553528942167758942e-02
-1.192307695746421814e-01,-6.478874385356903076e-02,-4.205708578228950500e-02,-3.572839125990867615e-02,-4.138816893100738525e-02,-1.556953787803649902e-01,-6.941739469766616821e-02,6.857734173536300659e-03,-6.323427706956863403e-02
3.921503201127052307e-02,-8.949740789830684662e-03,-2.898546122014522552e-02,1.620246097445487976e-02,-8.203682303428649902e-02,-4.422864690423011780e-02,1.026177704334259033e-01,1.432874891906976700e-02,-4.410349205136299133e-02
1.168175227940082550e-02,1.970282755792140961e-02,6.542706396430730820e-03,1.501587592065334320e-02,1.420660782605409622e-02,4.645201563835144043e-02,3.353531286120414734e-02,-1.724830828607082367e-02,3.460197523236274719e-02
-2.854529917240142822e-01,-3.434868752956390381e-01,-3.955508470535278320e-01,-3.329489231109619141e-01,-4.192146360874176025e-01,-3.883419036865234375e-01,-3.622606396675109863e-01,-3.291676342487335205e-01,-4.386934936046600342e-01
-1.763014495372772217e-02,-3.402235684916377068e-03,3.333674976602196693e-03,2.163876034319400787e-02,-8.227022737264633179e-02,-1.620396226644515991e-02,2.813607826828956604e-02,6.844827905297279358e-03,-1.576563343405723572e-03
-2.019803971052169800e-02,-4.989625886082649231e-02,-1.316770911216735840e-02,-8.117135614156723022e-02,-1.704603433609008789e-01,-1.884967274963855743e-02,-9.944285266101360321e-03,-4.841088131070137024e-02,3.119629062712192535e-02
-4.852669686079025269e-02,2.629407308995723724e-02,5.584241822361946106e-02,-5.135488882660865784e-02,-2.306933142244815826e-02,-1.983757689595222473e-02,3.093831427395343781e-02,8.798378519713878632e-03,1.327245216816663742e-02
5.568162724375724792e-02,-3.364931419491767883e-02,3.446209430694580078e-02,1.193847507238388062e-03,1.165312305092811584e-01,1.648235321044921875e-02,-3.057286888360977173e-02,-3.353285044431686401e-02,-8.188867010176181793e-03
-1.897183246910572052e-02,-2.005466446280479431e-02,-2.084539644420146942e-02,-5.618725344538688660e-02,-1.438208818435668945e-01,-3.734091669321060181e-02,-7.278056442737579346e-02,-6.344947218894958496e-02,-4.059514030814170837e-04
3.724767640233039856e-02,2.115846611559391022e-02,1.614826614968478680e-03,-3.640085086226463318e-02,-1.255877614021301270e-01,1.047360971570014954e-01,-1.119185425341129303e-02,-3.821312263607978821e-02,1.077304780483245850e-02
1.537904259748756886e-03,-3.374568000435829163e-02,4.372691735625267029e-02,2.923841960728168488e-02,1.185548976063728333e-01,-2.442302554845809937e-02,1.442837119102478027e-01,4.789311066269874573e-02,7.013402879238128662e-02
8.947112411260604858e-02,-6.133713759481906891e-03,1.791292615234851837e-02,5.376348644495010376e-02,-2.249346114695072174e-02,-2.989068068563938141e-02,3.450645878911018372e-02,8.832851424813270569e-03,2.392045594751834869e-02
4.889619350433349609e-02,-6.172476708889007568e-02,1.309742685407400131e-02,2.787289209663867950e-02,7.219918072223663330e-02,6.926737725734710693e-02,7.483228296041488647e-02,6.002491340041160583e-03,-2.588059008121490479e-02
2.523863874375820160e-02,-2.408074401319026947e-02,-2.153995633125305176e-02,-2.697013877332210541e-02,6.792448461055755615e-02,6.192982569336891174e-02,-1.959893479943275452e-02,-5.949443951249122620e-02,-4.525532200932502747e-02
1.653545349836349487e-02,-2.216428332030773163e-02,-1.950238458812236786e-02,4.171900451183319092e-02,1.266820728778839111e-01,4.805463925004005432e-02,8.597591519355773926e-02,3.726234287023544312e-02,3.855055430904030800e-03
-2.732055494561791420e-03,2.972301654517650604e-02,2.769106626510620117e-02,-3.100590407848358154e-02,-7.427994906902313232e-02,-2.318241167813539505e-03,-2.305383794009685516e-02,-2.520282752811908722e-02,1.247754786163568497e-02
5.698489490896463394e-03,7.657674700021743774e-02,3.649096563458442688e-02,8.292860351502895355e-03,-5.843465775251388550e-02,1.588375307619571686e-02,-5.938899144530296326e-02,8.409195393323898315e-02,-2.554597891867160797e-02
1.100674457848072052e-02,3.944495692849159241e-03,1.694571971893310547e-02,2.658682316541671753e-02,3.042386844754219055e-02,4.589318484067916870e-02,2.410053461790084839e-02,9.625662118196487427e-03,-1.799733191728591919e-02
-1.085738614201545715e-01,-1.807751320302486420e-02,5.248346924781799316e-02,-1.177532412111759186e-02,3.063488006591796875e-02,-5.697004124522209167e-02,2.961228229105472565e-02,8.067934215068817139e-02,-3.113973140716552734e-02
-2.748581767082214355e-02,-4.295600112527608871e-03,-2.593478374183177948e-02,-5.996847525238990784e-02,-6.192256137728691101e-02,-9.454137831926345825e-02,-7.804411649703979492e-02,-1.398312393575906754e-02,-3.384263021871447563e-03
5.865292623639106750e-02,6.449794024229049683e-02,5.950763449072837830e-02,1.044303849339485168e-01,1.275636106729507446e-01,1.208599880337715149e-01,6.650970876216888428e-02,4.031996708363294601e-03,-1.189137436449527740e-02
1.317753735929727554e-02,1.950101368129253387e-02,1.258681900799274445e-02,6.010636687278747559e-02,1.901596933603286743e-01,-7.036212086677551270e-02,-1.099545136094093323e-02,4.950397834181785583e-02,-6.744185928255319595e-03
-9.804612398147583008e-02,4.695011302828788757e-02,-4.893776401877403259e-02,-1.307160705327987671e-01,-1.555055081844329834e-01,-2.275979146361351013e-02,-5.328464880585670471e-02,-8.617988228797912598e-02,-6.420451402664184570e-02
-7.208102941513061523e-02,7.070824038237333298e-03,4.533930122852325439e-02,-1.003060564398765564e-01,-1.113785132765769958e-01,7.889267802238464355e-02,1.114580594003200531e-02,5.435906723141670227e-02,2.448204532265663147e-02
1.603707112371921539e-02,-9.061784297227859497e-02,-1.531223673373460770e-02,-3.329783305525779724e-02,-2.430232055485248566e-02,9.145879000425338745e-02,1.561967004090547562e-02,-9.942661225795745850e-02,1.124232169240713120e-02
1.899298094213008881e-02,2.613248117268085480e-02,4.835846647620201111e-02,-4.772834479808807373e-02,-7.705133408308029175e-02,1.081195250153541565e-01,-4.039308801293373108e-02,1.041175797581672668e-02,1.852046698331832886e-04
-2.730974182486534119e-02,-1.072410792112350464e-01,1.946237683296203613e-02,3.755430132150650024e-02,-1.619276255369186401e-01,4.292098805308341980e-02,4.600245133042335510e-02,-4.456888139247894287e-02,2.745406888425350189e-02
1.605875045061111450e-02,3.316537663340568542e-02,8.264423906803131104e-02,1.451409701257944107e-02,-4.052217304706573486e-02,5.176038667559623718e-02,9.925748407840728760e-02,4.555827751755714417e-02,2.670731581747531891e-02
-2.176964282989501953e-02,1.317968778312206268e-02,-2.408085856586694717e-03,-9.101742506027221680e-02,-1.048238724470138550e-01,2.703859470784664154e-02,-4.034950211644172668e-02,-1.181298587471246719e-02,5.274571478366851807e-03
-3.405126929283142090e-02,2.960333228111267090e-02,1.044576242566108704e-01,1.974961720407009125e-03,3.747654333710670471e-02,8.814601600170135498e-02,-3.546977415680885315e-02,1.366614270955324173e-02,4.897900298237800598e-02
-1.299751643091440201e-02,1.787560991942882538e-02,3.937431797385215759e-02,7.640959322452545166e-02,8.064334280788898468e-03,9.755212813615798950e-03,-2.444066107273101807e-02,1.401626318693161011e-02,-4.390817135572433472e-03
1.356402635574340820e-01,1.733027845621109009e-01,1.703150719404220581e-01,7.926234602928161621e-02,5.603184923529624939e-02,2.983210086822509766e-01,1.376770734786987305e-01,1.099174022674560547e-01,1.940710246562957764e-01
-3.076180256903171539e-02,-2.600577659904956818e-03,1.030957028269767761e-01,3.257466107606887817e-02,4.970519617199897766e-02,4.193590953946113586e-03,7.354230433702468872e-02,4.363022744655609131e-02,-1.408301573246717453e-02
3.736625611782073975e-02,5.318879708647727966e-02,1.584749296307563782e-02,1.128099858760833740e-01,4.398772120475769043e-02,-3.521234914660453796e-02,6.215703487396240234e-02,1.810027100145816803e-02,-6.491149542853236198e-04
-2.481547743082046509e-02,6.387177854776382446e-02,-4.582839459180831909e-02,4.042572900652885437e-02,-5.415606126189231873e-02,-5.713598430156707764e-02,9.581295400857925415e-02,4.017200786620378494e-03,-2.342264540493488312e-02
4.135889466851949692e-03,7.599974423646926880e-02,4.268526658415794373e-02,9.586637467145919800e-02,-7.057332992553710938e-02,3.335237130522727966e-02,5.167151242494583130e-02,4.803749918937683105e-02,3.353926166892051697e-02
3.343890234827995300e-02,5.794483795762062073e-02,1.768620125949382782e-02,6.491173803806304932e-02,3.225735947489738464e-02,-2.792672067880630493e-02,3.844642639160156250e-02,-1.367183402180671692e-02,4.249257966876029968e-03
6.757312268018722534e-02,-1.011962294578552246e-01,-1.509720645844936371e-02,1.052391752600669861e-01,5.897546559572219849e-02,9.510038048028945923e-02,-5.561423674225807190e-02,-1.266781240701675415e-01,-7.669195532798767090e-02
-2.762367948889732361e-03,-5.101357400417327881e-02,2.986199222505092621e-02,9.460548171773552895e-04,9.856444597244262695e-02,8.358912169933319092e-02,3.911586105823516846e-02,3.031660616397857666e-02,2.779754064977169037e-02
-3.113164752721786499e-02,-4.356339946389198303e-02,-6.678009778261184692e-02,-7.546380162239074707e-03,6.066535040736198425e-02,1.791741512715816498e-02,7.139275968074798584e-02,4.975010827183723450e-02,1.196163333952426910e-02
-5.633783712983131409e-02,7.281824946403503418e-02,9.600774198770523071e-02,2.758320048451423645e-02,4.823478870093822479e-03,8.634188771247863770e-02,-7.364395260810852051e-02,1.908936910331249237e-02,-2.654602006077766418e-02
-2.495994046330451965e-02,-4.943837597966194153e-02,-7.343836128711700439e-02,-7.593666668981313705e-03,-5.258560180664062500e-03,-3.256933763623237610e-02,4.259653016924858093e-02,5.013178661465644836e-02,2.658827044069766998e-02
-5.993213877081871033e-02,-1.165154129266738892e-01,-2.492193365469574928e-03,-2.100709266960620880e-02,6.904064863920211792e-02,-9.692905470728874207e-03,-2.058857493102550507e-02,3.323327004909515381e-02,-9.946247562766075134e-03
-3.706780448555946350e-02,-3.265459463000297546e-02,-1.319193094968795776e-01,2.390939928591251373e-02,-3.546410799026489258e-02,-5.322454497218132019e-02,-1.275441702455282211e-02,-4.081963852513581514e-04,-6.012438610196113586e-02
2.547228150069713593e-02,-4.991578310728073120e-02,1.916840486228466034e-02,7.739561051130294800e-02,1.542015373706817627e-02,1.139213517308235168e-01,2.138109691441059113e-02,2.940249443054199219e-02,1.873687282204627991e-02
-1.941191963851451874e-02,1.699970103800296783e-02,-4.002499207854270935e-02,-4.015315696597099304e-02,2.136174030601978302e-02,-4.623647779226303101e-02,-9.626647084951400757e-02,-1.080352347344160080e-02,-4.734650626778602600e-02
-9.226813167333602905e-02,-6.903897505253553391e-03,-9.915807284414768219e-03,-7.196597754955291748e-02,-1.071230098605155945e-01,-4.431939125061035156e-02,-3.568699210882186890e-02,-4.273085296154022217e-02,1.330147642875090241e-04
4.099036566913127899e-03,9.279203414916992188e-02,-3.054102882742881775e-02,-8.919332921504974365e-02,-1.221871096640825272e-02,6.485757231712341309e-02,-2.002821676433086395e-02,-5.599132739007472992e-03,3.018040675669908524e-03
5.107896029949188232e-02,9.808125346899032593e-02,8.548428304493427277e-03,-3.258786350488662720e-02,-5.801508203148841858e-02,1.141228079795837402e-01,-3.008526749908924103e-02,-9.949794970452785492e-03,-3.305489197373390198e-02
4.072425514459609985e-02,2.453980036079883575e-02,1.365043967962265015e-02,-4.862467944622039795e-02,4.452811088413000107e-03,-9.358080103993415833e-03,-5.843528360128402710e-02,-3.166911751031875610e-02,-2.438829280436038971e-02
3.147526830434799194e-02,9.573321044445037842e-02,3.231408074498176575e-02,-3.232926130294799805e-02,7.926611602306365967e-02,1.267391815781593323e-02,4.831069707870483398e-02,1.001062095165252686e-01,-7.122455630451440811e-03
-3.635630011558532715e-02,-3.735917061567306519e-02,-1.275288779288530350e-02,-3.017048351466655731e-02,-7.965426146984100342e-02,2.189911715686321259e-02,-1.094666402786970139e-02,6.029818672686815262e-03,-3.558994457125663757e-02
7.088442798703908920e-03,9.059895761311054230e-03,1.330861821770668030e-02,9.203791618347167969e-03,2.499215304851531982e-02,5.050049722194671631e-02,3.873334825038909912e-02,3.739740327000617981e-02,2.442224649712443352e-03
-2.204012870788574219e-02,1.323323603719472885e-02,1.059509254992008209e-02,-2.330964803695678711e-02,-2.645679749548435211e-03,-1.388407684862613678e-02,-2.344054915010929108e-02,-1.621909253299236298e-02,-2.640472725033760071e-02
1.292293984442949295e-02,3.757629543542861938e-02,-9.793559089303016663e-03,-1.813485287129878998e-02,-2.900375239551067352e-02,-4.686402902007102966e-02,1.171728130429983139e-02,-8.531739003956317902e-03,4.698915872722864151e-03
8.831190876662731171e-03,-2.110296115279197693e-02,2.525641955435276031e-02,-3.360853716731071472e-02,-3.319323435425758362e-02,-1.786126196384429932e-02,-4.045065119862556458e-02,-6.362195312976837158e-02,-1.728551927953958511e-03
9.113877080380916595e-03,-2.381553687155246735e-02,-6.493819504976272583e-02,2.254774793982505798e-02,-2.861443907022476196e-02,-5.053067579865455627e-02,1.085813064128160477e-02,1.625101082026958466e-02,-2.955997362732887268e-02
3.163954243063926697e-02,1.161712035536766052e-02,-2.710793912410736084e-02,9.049300104379653931e-03,-2.183463126420974731e-01,1.081161852926015854e-02,2.562900446355342865e-02,-1.910335384309291840e-02,2.268230309709906578e-03
1.035945024341344833e-02,-4.884973168373107910e-03,8.974331431090831757e-03,-6.908420473337173462e-03,2.228229306638240814e-03,-7.232521660625934601e-03,-1.280940417200326920e-02,-1.418716832995414734e-02,-6.961685139685869217e-03
7.542544603347778320e-02,-2.547784894704818726e-02,1.449613720178604126e-01,3.703191503882408142e-02,-4.696978721767663956e-03,7.250820100307464600e-02,3.930966183543205261e-02,-8.558374829590320587e-03,6.143745407462120056e-02
4.435403272509574890e-03,8.444588631391525269e-03,2.928349189460277557e-03,1.859356416389346123e-03,1.700955443084239960e-02,1.018778048455715179e-02,1.784781739115715027e-02,3.725104779005050659e-02,3.598665446043014526e-02
3.964973986148834229e-02,-1.111129880882799625e-03,-1.055730227380990982e-02,2.312415651977062225e-02,-1.088249161839485168e-01,6.377359386533498764e-03,2.305205166339874268e-02,1.712854020297527313e-02,8.825439028441905975e-03
9.337477385997772217e-03,-1.605373574420809746e-03,-6.903715897351503372e-03,1.610458455979824066e-02,-5.793385207653045654e-02,3.334483830258250237e-03,2.370816469192504883e-02,3.272945806384086609e-02,2.613285742700099945e-02
1.290196366608142853e-02,6.362991873174905777e-03,-3.239063173532485962e-02,-2.488660812377929688e-02,-1.205628439784049988e-01,-1.567111350595951080e-02,-2.069205977022647858e-02,-8.625082671642303467e-03,1.612268574535846710e-02
-1.015559118241071701e-02,-1.214124262332916260e-02,-1.098131574690341949e-02,-1.449048751965165138e-03,3.196180239319801331e-02,6.886259187012910843e-03,-3.356513753533363342e-02,3.100689873099327087e-02,-2.691452950239181519e-02
8.571285754442214966e-02,8.681164681911468506e-02,9.003648906946182251e-02,8.585438877344131470e-02,6.299857050180435181e-02,3.009073436260223389e-02,8.456449210643768311e-02,8.032079041004180908e-02,6.800413876771926880e-02
-1.157832890748977661e-02,-2.697055228054523468e-02,-1.791506819427013397e-02,9.061330929398536682e-03,-2.182189188897609711e-02,-2.107364311814308167e-02,3.437234461307525635e-02,-6.097830366343259811e-03,-3.694758191704750061e-02
-3.268497437238693237e-02,-3.575201332569122314e-02,3.062632307410240173e-02,7.153172791004180908e-02,-7.699430733919143677e-02,-4.078250005841255188e-02,-4.985743016004562378e-02,1.218568906188011169e-02,-3.225585073232650757e-02
1.815227419137954712e-02,2.192967012524604797e-02,5.030640587210655212e-02,-3.177457675337791443e-02,-4.996135830879211426e-02,-9.100420400500297546e-03,1.393781602382659912e-02,1.587417162954807281e-02,3.093819506466388702e-02
-6.356840580701828003e-02,-4.120932891964912415e-02,-4.252739250659942627e-02,-4.884760081768035889e-02,-3.572723641991615295e-02,-3.610267490148544312e-02,-2.331970259547233582e-02,-1.714596874080598354e-03,-2.381009981036186218e-02
1.683701574802398682e-02,-1.927413605153560638e-02,-1.481443084776401520e-02,6.846684217453002930e-02,2.810623310506343842e-02,4.076365008950233459e-02,5.665265768766403198e-02,5.255841463804244995e-02,2.904318273067474365e-02
-2.450834214687347412e-02,-3.493493050336837769e-02,-2.079492248594760895e-02,-7.360833883285522461e-02,6.997424364089965820e-02,-1.260434649884700775e-02,-5.947895720601081848e-02,-1.647528260946273804e-02,1.011728961020708084e-02
3.287150990217924118e-03,-1.250801328569650650e-02,1.784272305667400360e-02,-8.721447549760341644e-03,-8.897531777620315552e-02,2.558817900717258453e-02,2.807483822107315063e-02,2.692559175193309784e-02,3.031843714416027069e-02
-1.123327296227216721e-02,-3.019350813701748848e-03,3.066891059279441833e-02,-1.821414381265640259e-02,-1.604746654629707336e-02,-2.136312238872051239e-02,4.484003875404596329e-04,-3.132990794256329536e-03,-2.802904462441802025e-03
6.932109594345092773e-03,-2.941616997122764587e-02,-7.484947331249713898e-03,-3.864907473325729370e-02,1.085318252444267273e-01,8.051579818129539490e-03,3.520563244819641113e-03,-3.225239738821983337e-02,-2.603094838559627533e-02
-5.236139893531799316e-02,-3.055404312908649445e-02,1.435493584722280502e-02,-1.576268114149570465e-02,-5.898487940430641174e-02,-3.125786036252975464e-02,3.789477422833442688e-02,8.889460936188697815e-03,-1.008531730622053146e-02
-1.413056999444961548e-02,7.353991270065307617e-03,-2.520289458334445953e-02,-3.355259075760841370e-02,1.126334890723228455e-01,-1.214949879795312881e-02,-1.841441541910171509e-02,-2.390344627201557159e-02,-1.917897723615169525e-02
4.273776710033416748e-02,-6.312323268502950668e-03,-1.621754840016365051e-02,-2.114466764032840729e-02,2.176928520202636719e-01,-2.353923628106713295e-03,-3.970860037952661514e-03,3.882296150550246239e-03,-3.530175238847732544e-02
-1.208907738327980042e-02,6.245372351258993149e-03,-8.272559382021427155e-03,-2.010513842105865479e-02,1.293348520994186401e-01,1.055137254297733307e-02,-2.882847189903259277e-02,2.905226079747080803e-03,-7.330972235649824142e-03
4.175876267254352570e-03,1.476321835070848465e-02,3.418284282088279724e-02,2.188977040350437164e-02,-6.760798394680023193e-02,-4.551150277256965637e-02,-3.709794580936431885e-02,2.329938486218452454e-02,1.341033726930618286e-02
1.073202863335609436e-02,-3.198007866740226746e-02,-2.358527295291423798e-02,-7.108697318471968174e-04,-2.418749406933784485e-02,-1.134170452132821083e-03,1.089125219732522964e-02,-1.467737834900617599e-02,1.797368936240673065e-02
-1.766824536025524139e-02,-3.623925149440765381e-02,-1.947073382325470448e-03,-7.019878365099430084e-03,-8.014683611690998077e-03,-8.368848823010921478e-03,2.916141785681247711e-02,1.325121521949768066e-02,-4.176521906629204750e-04
-5.347676109522581100e-03,1.412534038536250591e-03,-9.154901839792728424e-03,-3.043745271861553192e-02,-4.769487306475639343e-02,-2.896442450582981110e-02,-7.174011319875717163e-02,-6.090562418103218079e-02,-3.513864427804946899e-02
-7.890037260949611664e-03,-4.009661823511123657e-02,-1.249602716416120529e-02,-2.415898814797401428e-02,-3.571718931198120117e-02,3.836640389636158943e-04,2.931866608560085297e-02,1.323658227920532227e-02,-9.381232783198356628e-03
-1.254333648830652237e-02,7.092474494129419327e-03,-2.398813376203179359e-03,-3.226549550890922546e-02,1.887533999979496002e-02,4.155482165515422821e-03,-4.720779135823249817e-02,-1.765570603311061859e-03,-2.697449177503585815e-03
1.926814205944538116e-02,-2.617213316261768341e-02,1.508841942995786667e-02,-3.002683632075786591e-02,7.709705829620361328e-02,-1.089952792972326279e-02,-3.575617680326104164e-03,5.120878107845783234e-03,-1.176955550909042358e-02
-1.807553693652153015e-02,1.764443516731262207e-02,6.507134996354579926e-03,-1.293150894343852997e-02,7.197936624288558960e-02,-3.230641782283782959e-02,4.917558282613754272e-03,-1.245934329926967621e-02,-3.164080902934074402e-02
-6.658308207988739014e-02,-1.700165681540966034e-02,-2.072445861995220184e-02,-2.406760863959789276e-02,-7.849879562854766846e-02,-1.258124876767396927e-02,-3.908606991171836853e-02,-4.670535214245319366e-03,-2.027672948315739632e-03
3.138091787695884705e-02,2.000289410352706909e-02,2.357496134936809540e-02,2.454404719173908234e-02,2.022337317466735840e-01,2.706945501267910004e-02,4.320545494556427002e-02,5.076086893677711487e-02,-1.082739047706127167e-02
1.029066275805234909e-02,-5.790006369352340698e-02,2.567097544670104980e-02,3.316527977585792542e-02,-7.322394102811813354e-02,-1.649276912212371826e-02,-3.015188558492809534e-04,6.358739454299211502e-03,-3.617257112637162209e-03
-2.183859050273895264e-02,-3.604955971240997314e-02,-2.886866405606269836e-02,-1.070168521255254745e-02,-3.897459059953689575e-02,9.040926583111286163e-03,5.186619237065315247e-03,-3.378535434603691101e-02,-2.815703116357326508e-02
2.045261114835739136e-02,-1.441662013530731201e-02,-2.149151824414730072e-02,2.810018882155418396e-02,-1.520896516740322113e-02,-2.927255444228649139e-02,1.602123491466045380e-02,3.851441293954849243e-02,6.247823126614093781e-03
5.064040888100862503e-03,-7.386349141597747803e-03,1.280516479164361954e-02,-1.310853008180856705e-02,-5.674460157752037048e-02,-2.050389768555760384e-03,1.074299123138189316e-02,3.027831576764583588e-02,1.241482887417078018e-02
5.229677259922027588e-02,1.897248253226280212e-02,1.714820624329149723e-03,2.407848834991455078e-02,-1.598268933594226837e-02,3.134036669507622719e-03,6.090878322720527649e-02,4.890169575810432434e-02,1.248702872544527054e-02
-9.823543019592761993e-03,-2.881358936429023743e-02,-1.138467434793710709e-02,-1.063488796353340149e-02,-7.159734517335891724e-02,2.695967443287372589e-02,-9.749624878168106079e-03,-3.534819558262825012e-02,-2.917993813753128052e-02
1.001007407903671265e-01,-4.678352549672126770e-02,1.110272705554962158e-01,-3.726556897163391113e-02,-1.630632132291793823e-01,-7.191281765699386597e-02,2.325668185949325562e-02,-4.026785120368003845e-02,5.159617960453033447e-02
2.883572364225983620e-03,1.273960340768098831e-03,5.162114743143320084e-03,4.439603071659803391e-03,1.681447587907314301e-02,-1.212387345731258392e-02,2.006231062114238739e-02,-3.220749646425247192e-02,-3.115990012884140015e-02
4.561654292047023773e-03,-7.538393139839172363e-02,3.306771442294120789e-02,-2.126712538301944733e-02,-7.317646592855453491e-02,-1.995742786675691605e-03,-2.213183045387268066e-02,-2.955961786210536957e-02,1.729750819504261017e-02
-1.869342662394046783e-02,-2.699442952871322632e-02,1.422477513551712036e-02,-8.233102969825267792e-03,-5.333885923027992249e-02,-3.446898236870765686e-02,2.340002451092004776e-03,-3.846865519881248474e-02,7.706169271841645241e-04
-8.224904537200927734e-03,1.986910589039325714e-03,3.244370222091674805e-02,-4.952329210937023163e-03,-2.199814319610595703e-01,2.046049945056438446e-02,4.584537446498870850e-02,2.907716296613216400e-02,6.520535331219434738e-03
8.822256699204444885e-03,1.126270182430744171e-02,2.651740610599517822e-02,-1.595667935907840729e-02,-1.723242364823818207e-02,8.773259818553924561e-03,-2.663746662437915802e-02,-2.430973760783672333e-02,-8.242364041507244110e-03
-5.630286037921905518e-02,1.033562235534191132e-02,-1.111849956214427948e-02,-7.378917187452316284e-03,1.876069605350494385e-02,-4.384923353791236877e-02,-1.235936302691698074e-03,9.023355320096015930e-03,-1.756311394274234772e-02
2.615823037922382355e-02,1.886920188553631306e-03,-3.351581841707229614e-02,3.760851977858692408e-04,1.290599703788757324e-01,1.746753789484500885e-02,-2.021872438490390778e-02,2.256051264703273773e-02,3.311916720122098923e-03
7.838600873947143555e-02,2.091172710061073303e-02,8.930802345275878906e-03,2.093443647027015686e-02,1.902194023132324219e-01,4.518828168511390686e-02,1.816769316792488098e-02,2.100461721420288086e-02,1.816648058593273163e-02
-7.419707719236612320e-03,-5.370608717203140259e-02,1.175048947334289551e-02,2.982679987326264381e-03,-1.309152394533157349e-01,2.530939504504203796e-02,4.754874855279922485e-02,2.411430142819881439e-02,3.107021376490592957e-02
-1.975546218454837799e-02,-3.914032503962516785e-02,1.176004111766815186e-02,-4.208001866936683655e-02,-1.533374097198247910e-02,-1.881647109985351562e-02,-2.878029458224773407e-02,-4.684463515877723694e-02,-3.476740326732397079e-03
1.032672449946403503e-02,-4.296457860618829727e-03,-1.626426726579666138e-02,-2.635269658640027046e-03,1.479802280664443970e-01,3.100115805864334106e-02,-3.255269024521112442e-03,8.810135535895824432e-03,3.675468266010284424e-02
8.978112600743770599e-03,8.064120193012058735e-04,2.559547685086727142e-02,-1.601604931056499481e-02,-4.804639890789985657e-02,1.289520505815744400e-02,-5.621919874101877213e-03,-6.199795752763748169e-03,2.781558595597743988e-02
-2.114515006542205811e-02,-2.665052562952041626e-02,-3.516212478280067444e-02,1.562350057065486908e-02,-1.266419142484664917e-02,4.135774914175271988e-03,-1.055128965526819229e-02,-1.134146377444267273e-02,-2.075799508020281792e-03
-8.625397458672523499e-03,-1.121021527796983719e-02,-2.745819045230746269e-03,6.607454270124435425e-04,2.182389423251152039e-02,1.448325067758560181e-02,3.474465012550354004e-02,-2.356652729213237762e-02,2.642805874347686768e-02
-9.422375261783599854e-02,-1.112302169203758240e-01,-5.505382269620895386e-02,-1.619086228311061859e-02,-2.272578328847885132e-02,-6.569058448076248169e-02,-4.628632590174674988e-02,-1.116654369980096817e-02,-3.249602019786834717e-02
-2.167659625411033630e-02,-1.034369319677352905e-02,3.675752552226185799e-03,2.944327890872955322e-02,-4.478088021278381348e-02,-2.643597079440951347e-03,-3.055199794471263885e-02,-5.508035793900489807e-02,-4.144179448485374451e-02
-2.586192218586802483e-03,2.190505713224411011e-02,2.580645494163036346e-02,-2.372455224394798279e-02,-1.450254768133163452e-02,-3.433540929108858109e-03,-1.693730358965694904e-03,-2.702355198562145233e-02,-6.457936018705368042e-03
-4.795241169631481171e-03,2.411902882158756256e-02,-3.124135313555598259e-03,1.559711527079343796e-02,3.314389614388346672e-03,1.122918911278247833e-02,-1.912182383239269257e-02,-3.130439203232526779e-03,4.897312261164188385e-03
-2.100423537194728851e-02,-3.072496689856052399e-02,-1.953093707561492920e-02,-3.106835298240184784e-02,-2.411499992012977600e-02,-2.032031118869781494e-02,-3.959015384316444397e-02,-6.105505675077438354e-02,-3.886651620268821716e-02
-1.665273904800415039e-01,3.897057473659515381e-02,-3.553490713238716125e-02,1.785653829574584961e-02,1.128478348255157471e-01,-1.153046078979969025e-02,-1.235155854374170303e-02,5.185427144169807434e-02,-4.216970875859260559e-02
-2.272255867719650269e-01,-1.764185354113578796e-02,-1.501685753464698792e-02,-2.195809483528137207e-01,9.609357453882694244e-03,3.587591275572776794e-02,-4.267811030149459839e-02,-3.358807007316499949e-04,-8.538763970136642456e-03
-6.358315050601959229e-02,4.961162805557250977e-02,-4.370376095175743103e-02,9.128062985837459564e-03,8.226740360260009766e-02,-2.955883927643299103e-02,2.858377620577812195e-02,5.561308190226554871e-02,2.616074867546558380e-02
-1.436293721199035645e-01,5.164476484060287476e-02,-5.433025583624839783e-02,2.585356496274471283e-02,9.713888913393020630e-02,-8.103620260953903198e-02,-8.815914392471313477e-03,2.208709716796875000e-02,-3.057970851659774780e-02
-2.588259242475032806e-02,-2.222554534673690796e-01,3.488719230517745018e-03,3.858532384037971497e-02,9.533724933862686157e-02,5.857284739613533020e-02,2.839819341897964478e-02,-1.667428389191627502e-02,-2.431734092533588409e-02
6.983122229576110840e-02,-3.061380609869956970e-02,1.493667811155319214e-02,-6.634117104113101959e-03,2.015739679336547852e-02,1.368533261120319366e-02,2.339756675064563751e-02,1.301185786724090576e-02,-1.404336653649806976e-03
-1.830351799726486206e-01,7.222568616271018982e-03,-2.382329665124416351e-02,-1.161185465753078461e-02,4.403366521000862122e-02,-2.382755093276500702e-02,-3.195595927536487579e-03,-2.625899575650691986e-02,-1.938268169760704041e-02
-1.097207292914390564e-01,2.600280568003654480e-02,-6.097563076764345169e-03,-3.953640349209308624e-03,7.300112396478652954e-02,5.034503992646932602e-03,-1.308509334921836853e-02,1.542079262435436249e-03,3.756125271320343018e-02
8.168854564428329468e-02,2.625382244586944580e-01,1.728141158819198608e-01,7.283775508403778076e-02,3.162723481655120850e-01,-4.785655066370964050e-02,4.942845925688743591e-02,3.290179073810577393e-01,-6.184595823287963867e-01
-1.907435506582260132e-01,-2.406450361013412476e-02,1.687715575098991394e-02,-8.393393456935882568e-02,-9.249948896467685699e-03,-1.075919345021247864e-02,-2.787600457668304443e-02,4.494525026530027390e-03,-1.243421155959367752e-02
-1.380160301923751831e-01,1.944334618747234344e-02,-1.259592827409505844e-02,4.251836985349655151e-02,7.368964701890945435e-02,4.544664639979600906e-03,4.504206124693155289e-03,-6.437771953642368317e-03,-7.736426778137683868e-04
-2.073856145143508911e-01,-2.397078834474086761e-02,-6.379774771630764008e-03,-1.241365354508161545e-02,-1.660453341901302338e-02,-1.398806460201740265e-02,8.209100924432277679e-04,4.618745297193527222e-02,2.302665263414382935e-02
-1.232749596238136292e-01,5.017073452472686768e-02,-3.971670567989349365e-02,1.280367188155651093e-02,7.579015940427780151e-02,-9.435313753783702850e-03,-2.917429618537425995e-02,2.856496907770633698e-02,-3.823911771178245544e-02
-1.982247084379196167e-01,3.280769288539886475e-02,1.793568581342697144e-02,-1.829617097973823547e-02,6.844955682754516602e-02,-2.914333250373601913e-03,-2.817793935537338257e-02,1.501332735642790794e-03,-1.653330959379673004e-02
-1.760419607162475586e-01,-9.754789620637893677e-02,1.807115413248538971e-02,-1.544506549835205078e-01,-1.095135882496833801e-01,2.716669347137212753e-03,3.050714917480945587e-02,4.759788513183593750e-03,2.636715956032276154e-02
-3.729186486452817917e-03,3.449298068881034851e-02,-3.357264911755919456e-03,-6.692717969417572021e-02,-5.575485527515411377e-02,-2.571441978216171265e-02,-1.466582156717777252e-02,-2.628430956974625587e-03,-3.252269700169563293e-02
1.038495264947414398e-02,-3.021627292037010193e-02,3.368482366204261780e-02,6.734181195497512817e-02,4.164716601371765137e-02,2.684643492102622986e-02,7.840127218514680862e-04,-8.184334263205528259e-03,1.378336828202009201e-02
-1.546339988708496094e-01,-4.609994648490101099e-04,9.146924130618572235e-03,-5.030778795480728149e-02,1.487473677843809128e-02,-4.332672432065010071e-02,1.731233298778533936e-02,1.230265945196151733e-02,-1.386681571602821350e-02
-2.638922631740570068e-02,5.173835903406143188e-02,-6.508190184831619263e-02,-2.939546667039394379e-02,-4.504143726080656052e-04,-9.581224003341048956e-05,-1.373052317649126053e-02,2.920241095125675201e-04,-1.131233572959899902e-02
-3.580198809504508972e-02,-2.812500000000000000e-01,9.684087708592414856e-03,5.178612098097801208e-02,1.172422897070646286e-02,8.745661936700344086e-03,4.238853231072425842e-03,-2.359506115317344666e-02,-6.102497223764657974e-03
-1.823092848062515259e-01,4.267763346433639526e-03,2.093853661790490150e-03,-2.944744378328323364e-02,-9.281842038035392761e-03,2.256949245929718018e-02,4.887180868536233902e-03,2.820589952170848846e-02,-1.546304207295179367e-02
-2.107895761728286743e-01,-1.882182247936725616e-02,4.171491600573062897e-03,-5.050874128937721252e-02,-4.138886556029319763e-02,-7.046095095574855804e-03,-3.842103108763694763e-02,-3.898419812321662903e-02,-6.153266876935958862e-03
-9.869241714477539062e-02,-6.146490946412086487e-02,4.426778852939605713e-02,-4.739216342568397522e-02,-6.556198745965957642e-02,3.865444660186767578e-02,3.111678175628185272e-02,1.578247733414173126e-02,4.497976973652839661e-02
-1.839857995510101318e-01,5.962603166699409485e-02,7.912120781838893890e-05,1.098853722214698792e-02,9.694352000951766968e-02,1.050968468189239502e-02,-1.899782754480838776e-02,9.850530326366424561e-02,-1.545470394194126129e-02
1.613128334283828735e-01,4.253698512911796570e-02,-1.551216747611761093e-02,3.809244371950626373e-03,-2.068057097494602203e-02,-2.602763101458549500e-02,1.825979165732860565e-02,1.149808801710605621e-02,4.254097584635019302e-03
-1.114528402686119080e-01,-3.011924773454666138e-02,1.787585578858852386e-02,-3.026563487946987152e-02,-5.987390875816345215e-02,4.954886436462402344e-02,5.195803195238113403e-02,4.881230369210243225e-02,4.251186549663543701e-02
-1.056643947958946228e-01,2.842745929956436157e-02,1.804244704544544220e-02,2.513389661908149719e-02,7.593419402837753296e-02,2.898820862174034119e-02,2.327166683971881866e-02,8.212438970804214478e-02,2.191830193623900414e-03
-7.964245975017547607e-02,1.287848129868507385e-02,2.395028434693813324e-02,-4.741158802062273026e-03,-2.968451241031289101e-03,3.746240213513374329e-02,7.065985817462205887e-03,3.295369446277618408e-02,2.783227339386940002e-02
-1.968032121658325195e-01,-1.516604516655206680e-02,3.357481211423873901e-02,-1.352339889854192734e-02,-3.556772693991661072e-02,7.925984263420104980e-02,1.745609380304813385e-02,-7.573860697448253632e-03,-2.946577779948711395e-02
-1.880415230989456177e-01,-3.453958407044410706e-02,1.934117870405316353e-03,-1.672200858592987061e-02,-7.456817477941513062e-02,2.921039052307605743e-02,-2.572730928659439087e-02,6.815219298005104065e-03,-1.736118644475936890e-02
-7.695212960243225098e-02,1.330873277038335800e-02,-2.705941721796989441e-02,3.792377561330795288e-02,8.323416113853454590e-02,-9.184849448502063751e-03,3.055949509143829346e-02,-2.501474879682064056e-02,-2.082306705415248871e-02
-6.807615607976913452e-02,-1.326622813940048218e-02,1.191988214850425720e-02,-4.207976907491683960e-02,-3.303995728492736816e-02,5.275000818073749542e-03,-8.166621625423431396e-02,-2.775655686855316162e-02,-1.401969231665134430e-02
-1.484463214874267578e-01,1.843296736478805542e-02,-6.259375810623168945e-02,7.807394489645957947e-03,8.521167933940887451e-02,-4.182578995823860168e-02,-1.338296290487051010e-02,1.311023253947496414e-02,-4.623545333743095398e-02
-7.570053637027740479e-02,2.940139174461364746e-02,8.143714815378189087e-02,2.783735096454620361e-02,-1.148891914635896683e-02,1.364342272281646729e-01,3.938837349414825439e-02,-1.606045849621295929e-02,1.025838553905487061e-01
-1.893050968647003174e-01,1.063740625977516174e-02,-6.217333022505044937e-03,-1.509995851665735245e-02,1.948348619043827057e-02,5.546996253542602062e-04,2.003122121095657349e-02,5.878357961773872375e-02,2.867159992456436157e-02
-1.617978662252426147e-01,-4.774770885705947876e-02,5.013664718717336655e-03,-5.298712477087974548e-02,-8.884138613939285278e-02,1.188321039080619812e-02,-1.288677379488945007e-02,5.555871408432722092e-03,6.436091661453247070e-02
-1.875805258750915527e-01,-8.984912931919097900e-02,3.588537871837615967e-02,-7.904475182294845581e-02,-8.748212456703186035e-02,2.999701350927352905e-02,2.437282819300889969e-03,-4.879360646009445190e-02,5.665781721472740173e-02
-1.231209114193916321e-01,-5.331185832619667053e-02,3.052204102277755737e-02,-2.046965062618255615e-02,-6.676413863897323608e-02,3.814078494906425476e-02,4.905171692371368408e-02,1.111984159797430038e-02,5.689457431435585022e-02
-1.772151738405227661e-01,-7.092226296663284302e-02,1.848796382546424866e-02,-3.820249438285827637e-02,-8.780649304389953613e-02,4.351673275232315063e-02,-2.963787689805030823e-02,-5.322966352105140686e-02,8.699507452547550201e-03
-9.408976882696151733e-03,1.244698613882064819e-01,-6.377018988132476807e-02,2.882811613380908966e-02,7.999622076749801636e-02,3.696684911847114563e-02,2.103206701576709747e-02,4.020209610462188721e-02,-1.713665015995502472e-02
6.468790024518966675e-02,-7.661421783268451691e-03,-2.459284290671348572e-02,-1.453782245516777039e-02,7.639442104846239090e-03,-1.555987633764743805e-02,-4.903623089194297791e-02,-2.098555676639080048e-02,-2.648439817130565643e-02
-1.751129925251007080e-01,-3.936304524540901184e-02,1.662850147113204002e-03,-3.540147095918655396e-02,-3.450001031160354614e-02,1.090793404728174210e-02,-5.325625464320182800e-02,-4.044983536005020142e-02,-1.435688044875860214e-02
-4.278623685240745544e-02,-2.742521651089191437e-02,6.374474149197340012e-03,-6.986869964748620987e-03,-4.637602716684341431e-02,4.238947480916976929e-02,3.111631982028484344e-02,1.430090796202421188e-02,-5.643706768751144409e-03
-1.216160207986831665e-01,4.760781675577163696e-02,-2.338311821222305298e-02,2.219914086163043976e-02,7.116818428039550781e-02,-4.383175633847713470e-03,-2.127598971128463745e-02,-1.822467707097530365e-02,-2.137677930295467377e-02
-2.192825078964233398e-02,2.823438122868537903e-02,4.317546263337135315e-02,-4.995243623852729797e-02,9.373546577990055084e-03,8.707069605588912964e-02,3.682775795459747314e-02,-1.388468779623508453e-02,-3.289892897009849548e-02
3.216337412595748901e-02,-1.979713328182697296e-02,-2.394671365618705750e-02,3.911269456148147583e-02,3.576549887657165527e-02,-3.393054241314530373e-03,-7.879665121436119080e-03,2.318783104419708252e-02,3.723195195198059082e-02
-1.526844054460525513e-01,7.357873767614364624e-02,-2.948373556137084961e-02,2.463147602975368500e-02,1.272866427898406982e-01,-5.022595077753067017e-02,-1.930783502757549286e-02,2.118837786838412285e-03,-2.330518141388893127e-02
-1.352902054786682129e-01,5.708579905331134796e-03,-6.764248013496398926e-02,-9.218376129865646362e-02,-3.218487277626991272e-02,-5.669939145445823669e-02,-2.762835472822189331e-03,-9.967390447854995728e-03,-3.430241346359252930e-02
-4.572723433375358582e-02,-3.865957027301192284e-03,-1.830251887440681458e-03,-2.021302469074726105e-02,3.456322103738784790e-02,-1.556296832859516144e-03,-5.694862920790910721e-03,-3.349711000919342041e-02,-2.305907756090164185e-02
-2.009947896003723145e-01,4.157365765422582626e-03,-1.594497938640415668e-03,-3.463369235396385193e-02,4.817468672990798950e-02,-1.279878523200750351e-02,-4.912313446402549744e-02,3.066947497427463531e-02,2.156063169240951538e-02
-8.902600407600402832e-02,1.198009867221117020e-02,-2.336820587515830994e-02,1.085043251514434814e-01,7.577482610940933228e-02,4.663940146565437317e-02,7.987665385007858276e-02,4.719954356551170349e-02,9.971372783184051514e-03
-1.073621287941932678e-01,-3.630288317799568176e-02,4.453142732381820679e-02,-1.991338562220335007e-03,-6.685335934162139893e-02,6.120892241597175598e-02,1.415194664150476456e-02,8.441550657153129578e-03,7.108496129512786865e-02
-2.420999258756637573e-01,-1.276963856071233749e-02,1.649517379701137543e-02,-1.960539631545543671e-02,-3.276931494474411011e-02,4.035136103630065918e-02,2.061907947063446045e-02,4.855309054255485535e-02,3.975724056363105774e-02
-9.013666212558746338e-02,-2.167823025956749916e-03,-1.902944990433752537e-03,7.895646616816520691e-03,7.444067299365997314e-02,2.838400658220052719e-03,-2.958168461918830872e-02,-2.142623066902160645e-02,-1.722520403563976288e-02
-1.343248635530471802e-01,5.205416679382324219e-02,-4.974017664790153503e-02,-9.441277012228965759e-03,8.716946095228195190e-02,-6.160364300012588501e-02,-1.757234521210193634e-02,4.684082046151161194e-02,-5.158125236630439758e-02
-1.724319458007812500e-01,-3.148760274052619934e-02,3.566741198301315308e-02,-3.808564320206642151e-02,-7.290361076593399048e-02,5.061592534184455872e-02,-9.929312393069267273e-03,-4.076140467077493668e-03,6.708973087370395660e-03
-1.912959814071655273e-01,-3.818760812282562256e-02,-1.646440662443637848e-02,-3.237745910882949829e-02,3.467993065714836121e-02,-2.255907841026782990e-02,-1.765076257288455963e-02,-3.031853213906288147e-02,-3.174220770597457886e-02
-1.645554155111312866e-01,1.797045208513736725e-02,1.135153323411941528e-02,3.697336837649345398e-02,6.729617714881896973e-02,3.643867745995521545e-02,1.716113463044166565e-02,-6.660976447165012360e-03,-2.623540163040161133e-02
-1.669360548257827759e-01,-4.753413051366806030e-02,1.547048520296812057e-02,-3.784229978919029236e-02,-5.291426181793212891e-02,1.413275208324193954e-02,-4.021416243631392717e-04,3.398914262652397156e-02,-3.750273212790489197e-02
1.555154770612716675e-01,3.885287046432495117e-02,-1.013179868459701538e-02,5.599235743284225464e-02,1.439045928418636322e-02,-1.538745127618312836e-03,4.128614813089370728e-02,1.421510707587003708e-02,1.286545395851135254e-02
-1.836952269077301025e-01,-7.773994468152523041e-03,1.545816753059625626e-02,-7.991315424442291260e-02,-6.832355260848999023e-02,-1.525180134922266006e-02,-2.051816508173942566e-02,5.612317472696304321e-02,3.203730797395110130e-03
-3.579889237880706787e-02,-4.288055747747421265e-02,4.341942071914672852e-02,-1.918927393853664398e-02,-3.628431260585784912e-02,5.660463497042655945e-02,2.793445438146591187e-02,-1.646119542419910431e-02,6.580575555562973022e-02
-1.163955852389335632e-01,-7.732740789651870728e-02,4.497115686535835266e-02,-3.769938647747039795e-02,-1.152796745300292969e-01,4.374978318810462952e-02,1.825264096260070801e-02,-6.868420168757438660e-04,4.576646536588668823e-02
-1.709108352661132812e-01,-2.991750650107860565e-02,-3.497638739645481110e-03,1.354938000440597534e-02,-1.771469973027706146e-02,1.452486962080001831e-02,-5.429287999868392944e-02,-9.331812150776386261e-03,-2.027371153235435486e-02
-1.284179836511611938e-01,4.588856175541877747e-02,-4.202372208237648010e-02,-3.215904161334037781e-02,3.692635148763656616e-02,-3.706439957022666931e-02,7.948113977909088135e-02,6.497790664434432983e-02,8.020730316638946533e-02
-2.749959938228130341e-02,7.090042531490325928e-02,-5.622207652777433395e-03,2.753887139260768890e-02,1.219495683908462524e-01,1.074169762432575226e-03,1.488468702882528305e-02,1.974377781152725220e-01,-3.257117001339793205e-03
-9.170214086771011353e-02,2.762569300830364227e-02,-9.892308712005615234e-02,-4.564985260367393494e-02,-2.371988631784915924e-02,2.746927179396152496e-02,3.714628890156745911e-02,-2.141258493065834045e-02,-5.357183143496513367e-02
8.575161918997764587e-03,-9.625723958015441895e-02,1.034046802669763565e-02,7.498569041490554810e-02,6.810726225376129150e-02,9.009880945086479187e-03,3.976937755942344666e-02,-1.034450605511665344e-01,-3.042196668684482574e-02
3.389841318130493164e-01,-7.707796525210142136e-03,-4.205466806888580322e-02,-2.199501357972621918e-02,-4.577654972672462463e-02,1.268420368432998657e-01,1.274993264814838767e-04,1.493588387966156006e-01,2.380626350641250610e-01
-2.861972749233245850e-01,-1.917050778865814209e-01,-2.719396352767944336e-01,-1.162224262952804565e-01,1.508371233940124512e-01,-5.400864407420158386e-02,-1.014477685093879700e-01,1.693639717996120453e-02,-7.202544808387756348e-02
1.060177385807037354e-01,3.125780448317527771e-02,8.752837032079696655e-02,-1.283615361899137497e-02,-7.115484029054641724e-02,1.549346256069839001e-03,2.034292928874492645e-02,1.806295365095138550e-01,8.080863952636718750e-02
3.872999548912048340e-02,6.941761821508407593e-02,-3.778191655874252319e-02,-4.700345173478126526e-02,2.799199521541595459e-02,-1.067609246820211411e-02,3.101608250290155411e-03,5.534571036696434021e-02,7.677721232175827026e-02
2.572588389739394188e-03,-3.403142690658569336e-01,1.464608609676361084e-01,-2.177654765546321869e-02,-4.601844549179077148e-01,-1.022712886333465576e-01,7.244931068271398544e-03,-5.533175170421600342e-02,2.406880259513854980e-01
9.293901920318603516e-02,-6.083079800009727478e-02,4.488068819046020508e-02,7.747156778350472450e-04,-1.229601819068193436e-02,1.128640025854110718e-02,7.700914889574050903e-02,6.726159714162349701e-03,9.509340673685073853e-02
-2.087691798806190491e-03,8.544025942683219910e-03,6.228935346007347107e-02,1.270171701908111572e-01,3.328070417046546936e-02,5.359522253274917603e-02,1.076356396079063416e-01,3.646091092377901077e-03,-9.199803322553634644e-02
4.895379021763801575e-02,2.904440835118293762e-02,5.239211022853851318e-02,-1.702626422047615051e-02,1.183153688907623291e-01,2.155761048197746277e-02,4.672312643378973007e-03,1.251469999551773071e-01,4.881614074110984802e-02
-9.549390524625778198e-02,1.217502653598785400e-01,5.817070975899696350e-02,2.792290039360523224e-02,6.508029252290725708e-02,1.623507589101791382e-02,1.701703220605850220e-01,1.457068920135498047e-01,7.436203211545944214e-02
-1.742140762507915497e-02,1.334800720214843750e-01,-7.012852281332015991e-02,-5.051919445395469666e-02,5.912444368004798889e-02,-1.566393226385116577e-01,2.530561983585357666e-01,2.470216900110244751e-01,1.777901872992515564e-02
2.898384071886539459e-02,-7.374805212020874023e-02,7.084589917212724686e-03,4.569359496235847473e-02,3.635301068425178528e-02,4.378677904605865479e-02,1.189004909247159958e-02,1.396754235029220581e-01,7.081238180398941040e-02
-1.513322535902261734e-02,1.142674982547760010e-01,1.067404597997665405e-01,2.924918569624423981e-02,7.503314316272735596e-02,-2.650256082415580750e-02,3.398483246564865112e-02,1.529832929372787476e-01,3.704828396439552307e-02
3.482539057731628418e-01,3.178851008415222168e-01,3.614243865013122559e-01,3.469023108482360840e-01,3.360989987850189209e-01,3.614887297153472900e-01,3.681469559669494629e-01,3.880848586559295654e-01,4.369922876358032227e-01
3.943545743823051453e-02,-3.473198506981134415e-03,-4.329311195760965347e-03,-5.990978702902793884e-02,7.664407603442668915e-03,1.901891827583312988e-02,3.528099879622459412e-02,1.601742655038833618e-01,2.356470562517642975e-02
-2.846206426620483398e-01,-6.927251070737838745e-02,-1.827776283025741577e-01,-1.272684335708618164e-01,-5.508455261588096619e-02,-7.444320712238550186e-03,-5.164755582809448242e-01,-3.270803689956665039e-01,-4.512835443019866943e-01
1.990640908479690552e-02,-3.655174374580383301e-02,1.410887669771909714e-02,-1.018791552633047104e-02,-3.327718004584312439e-02,1.564211249351501465e-01,-7.569774240255355835e-02,1.032730340957641602e-01,-4.240032751113176346e-03
-2.615418657660484314e-02,-1.303199082612991333e-01,-4.861750639975070953e-03,-3.711955249309539795e-02,-2.453986741602420807e-02,-8.847533725202083588e-03,2.478727251291275024e-01,3.413425385951995850e-02,7.531470805406570435e-02
2.793843857944011688e-02,-1.289719045162200928e-01,4.183959681540727615e-03,-5.652841180562973022e-02,-1.272662281990051270e-01,2.957360260188579559e-02,1.782196760177612305e-01,7.463039457798004150e-02,2.678784914314746857e-02
-8.486786484718322754e-02,-1.223901063203811646e-01,5.671233683824539185e-02,-1.017314046621322632e-01,-1.891891099512577057e-02,-1.013975813984870911e-01,-2.420357801020145416e-02,1.351881492882966995e-02,1.749773509800434113e-02
-2.685404568910598755e-02,8.636379987001419067e-02,1.032595932483673096e-01,-1.122871600091457367e-02,5.525155365467071533e-02,-1.066104974597692490e-02,3.035016730427742004e-02,2.352036535739898682e-01,1.649095490574836731e-02
-4.802028536796569824e-01,-4.216623678803443909e-02,-4.418687522411346436e-01,-4.110957086086273193e-01,1.776919700205326080e-03,-4.691000282764434814e-01,-3.515414893627166748e-01,-1.517261266708374023e-01,-4.013895690441131592e-01
1.738612353801727295e-02,-1.049238517880439758e-01,3.127149119973182678e-02,1.236974541097879410e-02,1.067347452044487000e-01,-2.306943014264106750e-02,1.241687089204788208e-01,1.702625900506973267e-01,1.601185090839862823e-02
4.222028702497482300e-02,1.930348691530525684e-03,5.014420486986637115e-03,-1.152068302035331726e-01,-1.126306783407926559e-02,3.724223002791404724e-03,7.529013603925704956e-02,1.995054632425308228e-01,1.199513450264930725e-01
3.842949867248535156e-02,-1.239986345171928406e-02,-1.171187870204448700e-02,5.846738070249557495e-02,-8.911868184804916382e-02,-1.288054883480072021e-02,3.822160512208938599e-02,2.797488868236541748e-02,2.567980065941810608e-02
7.871413230895996094e-02,4.811650887131690979e-02,-8.633466064929962158e-02,5.160247534513473511e-02,5.448333173990249634e-02,-1.078723520040512085e-01,2.851158380508422852e-01,1.673941761255264282e-01,7.230003178119659424e-02
-5.010596290230751038e-02,-3.278794174548238516e-04,-8.920194208621978760e-02,-5.291707068681716919e-02,1.069197878241539001e-01,-1.271310728043317795e-02,5.347225442528724670e-02,2.537578344345092773e-01,-8.300350606441497803e-02
6.532749626785516739e-03,1.127038970589637756e-01,-5.262543633580207825e-02,-9.719749214127659798e-04,8.625758439302444458e-02,-6.850584596395492554e-02,3.555689379572868347e-02,-8.380859158933162689e-03,-5.416413396596908569e-02
1.211814433336257935e-01,4.646794199943542480e-01,2.070996910333633423e-01,-2.536900527775287628e-02,1.717022061347961426e-01,-7.890367507934570312e-02,2.535660862922668457e-01,4.744752645492553711e-01,2.320686876773834229e-01
6.067949580028653145e-04,-2.481067366898059845e-02,-3.475396707653999329e-02,-2.268244884908199310e-02,1.262388564646244049e-02,-9.110470302402973175e-03,-7.179364562034606934e-02,-1.228427216410636902e-01,-3.976814821362495422e-02
-1.838439702987670898e-02,-9.269097447395324707e-02,3.293381929397583008e-01,3.083820454776287079e-02,-1.760754287242889404e-01,-7.174743711948394775e-02,3.541430234909057617e-01,2.662472724914550781e-01,-1.755745336413383484e-02
-1.669609546661376953e-02,6.046927720308303833e-02,4.928709939122200012e-02,4.779924079775810242e-02,4.562788084149360657e-02,9.325099177658557892e-03,7.299213111400604248e-02,7.742344588041305542e-02,5.463919416069984436e-02
-8.176548033952713013e-02,-7.277317810803651810e-03,8.252763748168945312e-02,-2.646713703870773315e-02,-8.568640798330307007e-02,-5.940847098827362061e-02,-1.246481109410524368e-02,-5.029781162738800049e-02,-7.493292540311813354e-02
1.058082878589630127e-01,4.279714077711105347e-02,1.355067547410726547e-02,1.252033188939094543e-02,-2.467494457960128784e-02,-4.737662896513938904e-02,1.803376711905002594e-03,4.575590789318084717e-02,1.185947749763727188e-02
5.113316234201192856e-03,7.357990741729736328e-02,9.936808049678802490e-02,-7.245760411024093628e-02,-6.329694390296936035e-02,-9.821214526891708374e-02,-1.734113097190856934e-01,-2.045806311070919037e-02,-3.924914449453353882e-02
6.087556108832359314e-02,1.059867739677429199e-01,-3.685140609741210938e-02,2.156697399914264679e-02,-6.494613736867904663e-02,-6.990228779613971710e-03,-3.220170736312866211e-02,8.921975642442703247e-02,1.439270935952663422e-02
-5.537079647183418274e-02,-1.552765816450119019e-01,1.094494536519050598e-01,-1.026051770895719528e-02,1.086972001940011978e-02,-1.349528878927230835e-01,6.118418648838996887e-02,2.931281626224517822e-01,-9.198548644781112671e-02
3.176398575305938721e-02,-5.126319080591201782e-02,-3.579171374440193176e-02,1.436624955385923386e-02,6.902106106281280518e-02,8.435665071010589600e-02,7.485407590866088867e-02,4.162010177969932556e-02,2.983877994120121002e-02
5.495402030646800995e-03,-2.457889169454574585e-02,1.412102952599525452e-03,-1.293210387229919434e-01,-1.182938367128372192e-02,-2.196145243942737579e-02,1.377805024385452271e-01,8.078224211931228638e-02,3.278112784028053284e-02
4.992435500025749207e-02,-2.791990118566900492e-04,1.558433473110198975e-01,-2.233205176889896393e-02,-1.226015537977218628e-01,-2.905129641294479370e-02,1.913528423756361008e-03,-8.753143250942230225e-02,-8.722651004791259766e-02
-6.852310895919799805e-02,-9.167294949293136597e-02,-8.780757337808609009e-02,-3.662290051579475403e-02,-9.102552197873592377e-03,-1.067834794521331787e-01,1.091479137539863586e-01,1.875025033950805664e-01,1.258880645036697388e-01
-3.409670665860176086e-02,1.727474331855773926e-01,-7.928624004125595093e-02,-1.602651625871658325e-01,9.506997466087341309e-02,-1.358266919851303101e-01,-1.877929568290710449e-01,-2.586522698402404785e-01,-1.303155571222305298e-01
-6.876351777464151382e-03,2.430349737405776978e-01,-7.088544964790344238e-02,-9.923489391803741455e-02,4.692761600017547607e-02,-1.026112809777259827e-01,-5.576250702142715454e-02,1.731676906347274780e-01,-5.800043419003486633e-02
5.678508058190345764e-02,-1.066191643476486206e-01,-3.668709471821784973e-02,-3.827410191297531128e-02,3.879832848906517029e-02,5.350358411669731140e-02,3.526867926120758057e-02,9.220340102910995483e-02,1.444254517555236816e-01
-6.611475348472595215e-02,-8.413797477260231972e-04,-1.145520582795143127e-01,1.351162791252136230e-02,1.241622492671012878e-02,8.050736784934997559e-02,-1.498423516750335693e-01,-8.662937581539154053e-02,7.504826039075851440e-02
-8.893180638551712036e-02,-9.827914834022521973e-02,-8.423443138599395752e-02,-9.098134934902191162e-02,3.103350987657904625e-03,4.103169962763786316e-02,-6.953007075935602188e-03,2.985231876373291016e-01,1.662044227123260498e-01
-4.967631772160530090e-03,1.927103288471698761e-02,8.908376184990629554e-05,3.007260151207447052e-02,1.085607782006263733e-01,1.081764325499534607e-01,1.144173741340637207e-01,1.942925453186035156e-01,1.532350927591323853e-01
3.964898362755775452e-02,-1.784662008285522461e-01,2.535640299320220947e-01,6.265198439359664917e-02,-1.461714953184127808e-01,7.713071256875991821e-02,1.093737557530403137e-01,-2.921268045902252197e-01,-2.104721404612064362e-02
