4.369610548019409180e-01
3.121306598186492920e-01
-5.859281867742538452e-03
2.464301437139511108e-01
-2.472863644361495972e-01
1.514566987752914429e-01
2.690370567142963409e-02
3.463574051856994629e-01
4.108681902289390564e-02
-5.060930252075195312e-01
3.199894726276397705e-01
3.819195032119750977e-01
2.198959290981292725e-01
9.892290830612182617e-02
1.677560359239578247e-01
4.044776856899261475e-01
7.475632429122924805e-01
5.130280256271362305e-01
3.762961924076080322e-02
-2.082226872444152832e-01
2.713706791400909424e-01
5.487102866172790527e-01
1.301841437816619873e-01
2.274636626243591309e-01
3.713393211364746094e-01
-8.441827446222305298e-02
2.617011070251464844e-01
3.087182641029357910e-01
3.533651530742645264e-01
-8.716187439858913422e-03
-4.554503038525581360e-02
4.429425597190856934e-01
2.673048377037048340e-01
2.623081803321838379e-01
-6.958361715078353882e-02
-5.794977545738220215e-01
1.762124747037887573e-01
7.091470360755920410e-01
1.317550688982009888e-01
1.874006688594818115e-01
2.782849967479705811e-01
3.937501609325408936e-01
-2.189547270536422729e-01
1.835175156593322754e-01
5.430241227149963379e-01
-1.993589401245117188e-01
-6.418503820896148682e-02
4.060197770595550537e-01
-9.477420896291732788e-02
9.141954779624938965e-02
3.223550319671630859e-01
4.426352679729461670e-01
3.995802700519561768e-01
2.744990587234497070e-01
-3.000600822269916534e-02
-3.223945945501327515e-02
-1.184052526950836182e-01
4.644666910171508789e-01
4.718832075595855713e-01
2.268393486738204956e-01
2.347512692213058472e-01
4.241343736648559570e-01
2.438181191682815552e-01
6.337995082139968872e-02
