-0.665254, -0.0716902, -0.105379, -0.0903312, -0.0703725, -0.00937104, -0.0114386, -0.0670485, -0.0921392, -0.0818624, -0.0841936, -0.100577, -0.112189, -0.0934564, -0.0613008, -0.071501, -0.0570061, -0.0879021, -0.0598738, -0.0454599, -0.0873789, -0.0838796, -0.0742407, -0.0278599, -0.0284894, -0.0275326, -0.0708742, -0.0536309, -0.0485739, -0.101527, -0.109086, -0.0731599, -0.0915141, -0.0925179, -0.0675638, -0.0679797, -0.045323, -0.0607558, -0.0562294, -0.0573478, -0.0522014, -0.0630635, -0.106685, -0.113595, -0.071334, -0.0838846, -0.0365242, -0.0340612, -0.0424693, -0.0694563, -0.111517, -0.0858257, -0.0960491, -0.0452156, -0.0902052, -0.0706986, -0.00170374, -0.0194786, -0.0403447, -0.0821648, -0.0664752, -0.0692643, -0.027217, -0.0410728, -0.0346303, -0.0109198, -0.0723104, -0.0167798, -0.0463316, -0.0506934, -0.0831147, -0.0706342, -0.0294135, -0.076316, -0.0861202, -0.0582362, -0.0251091, -0.0316216, -0.122928, -0.0869215, -0.0358617, -0.0656139, -0.028882, -0.0471449, -0.035338, -0.0424914, -0.054836, -0.0811478, -0.0765322, -0.0448358, -0.0760257, -0.0728741, -0.0569578, -0.0412236, -0.0183332, -0.0601726, -0.0691986, -0.0797281, 0.00887179, -0.0396321, -0.0793027, -0.0707983, -0.0570405, -0.036393, -0.0343902, -0.0297791, -0.000861168, -0.0640136, -0.0514195, -0.0898834, -0.065141, -0.058851, -0.0469737, -0.0754155, -0.0531309, -0.0445274, -0.0222613, -0.0617096, -0.103937, -0.073414, -0.0374032, -0.0307138, -0.0271661, -0.0507305, -0.0521754, -0.0520132, -0.0637416, -0.0811768, -0.0474745, -0.00684321, -0.0410303, -0.0576154, -0.0865146, -0.0597943, -0.0496539, -0.029606, -0.0402061, -0.0389594, -0.00426519, -0.0722411, -0.0348154, -0.0473125, -0.0852088, -0.0750576, -0.0423892, -0.0408229, -0.0583707, -0.0515584, 0.0115061, -0.00445926, -0.0299175, -0.0184674, -0.0668712, -0.0561259, -0.0389135, -0.023049, -0.0680425, -0.0637219, -0.0400298, -0.0188633, -0.00270319, 0.021443, -0.035715, -0.0373597, -0.00216174, -0.0598115, -0.0365804, -0.0436699, -0.0542312, -0.0201783, -0.00609303, -0.0597643, -0.0660647, 0.0188769, -0.0274277, -0.0657772, -0.051849, -0.00865304, 0.0284259, -0.00231647, -0.0415938, -0.0625892, -0.0260737, -0.0268064, -0.0410751, -0.0514599, -0.0513211, -0.0306796, -0.00924087, 0.00432575, -0.0558292, -0.0366057, -0.0462961, -0.0543828, -0.0549948, -0.0581194, -0.0708917, -0.0184443, 0.00178194, -0.0194364, -0.0580888, -0.0341455, -0.0181686, -0.0266576, -0.0475765, -0.0331633, -0.0458072, -0.0452231, -0.0509601, -0.0248907, 0.00735211, -0.0463355, -0.0372288, -0.0136534, -0.000422478, -0.0586556, -0.0350158, 0.00779641, -0.0440959, -0.058324, 0.0276144, -0.0129158, -0.0578778, 0.00451517, -0.0357096, -0.030987, -0.0741943, -0.033331, -0.0231749, -0.0307941, -0.00759578, -0.00833952, -0.0349134, -0.0139621, 0.019662, -0.009794, -0.0366596, -0.0380218, 0.0134706, -0.0368418, -0.0103987, -0.0590672, -0.0299891, -0.00794697, 0.021994, 0.0405313, -0.0082984, -0.0769696, -0.021246, 0.039029, -0.0220374, -0.044862, -0.0356871, -0.020233, -0.0302255, -0.0136939, 0.00581288, 0.00681257, 0.0140069, -0.00991023, -0.0372101, -0.0425242, -0.0059638, -0.0372865, -0.0251752, 0.01687, -0.0359358, -0.0427763, 0.0207517, -0.0107863, 0.010401, 0.0121295, -0.000312805, 0.00131011, 0.0155872, -0.0131322, -0.0374368, -0.00285995, -0.0262293, -0.05855, -0.0219934, 0.0240018, -0.00225508, -0.0333612, -0.0229896, -0.0105332, -0.0517007, -0.0183659, -0.00457358, 0.00572717, -0.0113181, -0.0238296, -0.0216234, -0.0034759, -0.0106152, -0.0135146, 0.00321889, 0.00784922, -0.0374417, 0.00657034, -0.00294816, -0.0128366, 0.00631237, -0.0122857, -0.0176023, -0.0203401, -0.014263, -0.0168222, -0.0109084, -0.0215096, -0.0203573, 0.0077219, -0.00497234, -0.0223038, -0.0147318, 0.00987768, -0.00725389, -0.0353813, -0.0292082, -0.0339382, -0.0219032, -0.706584, -0.0733774, -0.100861, -0.127558, -0.0971828, -0.044616, -0.0579431, -0.044719, -0.0249983, -0.0625942, -0.0412096, -0.0607748, -0.0999203, -0.0998658, -0.0559995, -0.03493, -0.0459417, -0.0677525, -0.0395176, -0.0669683, -0.0619658, -0.11178, -0.0807537, -0.0416282, -0.0624735, -0.0213341, -0.057016, -0.0529447, -0.0293784, -0.0388298, -0.0590934, -0.0325876, -0.0947868, -0.0481733, -0.0461994, -0.0650718, -0.0447433, -0.0422281, -0.0408968, -0.0118065, -0.0465068, -0.0131242, -0.0542933, -0.0673099, -0.0749832, -0.0788554, -0.0525023, 0.00693822, -0.0114534, -0.0614496, -0.0926718, -0.0957161, -0.0704634, -0.0422475, -0.0957636, -0.0877254, -0.0125482, -0.0113714, -0.033967, -0.0861411, -0.0621557, -0.0727437, -0.0664172, -0.02736, 0.00294495, -0.0431811, -0.0487841, -0.0343783, -0.0315237, -0.0856186, -0.0839243, -0.0850328, -0.00743556, -0.0430986, -0.0601538, -0.0116152, 0.0305114, 0.00788295, -0.0407423, -0.060096, -0.00514698, -0.0775919, -0.0662918, -0.0112742, -0.024698, -0.0282059, -0.00489259, -0.0246896, -0.0305918, -0.040771, -0.0866815, -0.0624145, -0.116428, -0.0738795, -0.0354236, -0.0465792, -0.108231, -0.102319, -0.0577116, -0.0523659, -0.111202, -0.0807229, -0.0640377, -0.0445307, -0.0091269, -0.0331478, -0.0252694, -0.0131817, -0.00908613, -0.0649474, -0.0362784, -0.0726674, -0.0847629, -0.0392079, -0.0753692, -0.0396622, 0.000505328, -0.0608783, -0.114439, -0.120036, -0.103609, -0.030538, -0.023733, -0.0320276, -0.0035007, -0.0513024, -0.0467671, -0.0626022, -0.0282596, 0.0331792, -0.0191525, 0.000702143, -0.100839, -0.0504594, -0.060183, -0.0804733, -0.025538, -0.000876307, 0.0251105, -0.0268501, 0.00217831, 0.00725651, -0.0819765, -0.0935181, -0.0761007, -0.0595248, -0.0857646, -0.0500333, -0.00440967, 0.0095737, 0.0134058, 0.0204495, -0.0520287, -0.0427278, -0.0397568, -0.0100557, -0.0773724, -0.05246, -0.0927191, -0.0688184, -0.0586952, -0.000772476, -0.046427, -0.0443631, -0.00675249, -0.0486813, -0.0474524, -0.067081, -0.0549278, -0.0118232, -0.0106812, -0.0797957, -0.0452375, 0.00774992, -0.0602272, -0.0574244, -0.129281, -0.0656313, 0.0106066, 0.0608557, -0.0249828, -0.116225, -0.0711194, -0.00267255, -0.0296234, -0.0521781, -0.0520583, -0.00989854, -0.0448821, -0.0241328, -0.00120652, -0.0120839, 0.0248076, -0.055132, -0.0408446, -0.0369608, -0.0527446, -0.0116857, -0.00715852, -0.0342388, -0.0495993, -0.0163342, -0.00207102, 0.0110192, 0.00388539, -0.0349054, -0.0468588, -0.0985196, -0.0588993, -0.0347382, 0.0391229, -0.0418128, -0.0221975, 0.0146692, 0.0435743, -0.00315893, -0.0560244, -0.0154414, -0.0431714, -0.0595307, -0.0185483, -0.0126708, -0.0413972, -0.0192708, 0.0383449, 0.0495378, -0.0364389, -0.0212153, -0.039348, -0.00784528, -0.030701, 0.00354946, -0.0638522, -0.0168024, 0.00929213, 0.0202811, -0.0407815, -0.0278201, -0.000279069, -0.0196842, -0.0301552, -0.0304611, -0.0758893, -0.0400114, -0.0433728, 0.059803, 0.036178, -0.0384077, -0.0218214, 0.0201267, 0.029531, -0.0240883, 0.000260711, -0.052748, -0.0559733, -0.0351201, 0.00431335, -0.00499833, 0.0249738, 0.00725627, -0.0416477, -0.0301862, -0.0550886, -0.0174754, -0.00424671, -0.00447261, -0.0391161, -0.0201293, 0.00276005, -0.0290858, -0.0200864, 0.0142987, -0.0182993, -0.0335923, 0.0212648, 0.010916, -0.0405976, 0.0154386, -0.0523264, -0.0524614, -0.0495918, 0.010579, 0.0283978, -0.0204277, -0.0205889, -0.0286101, -0.0129752, -0.0516369, -0.00887215, 0.0650699, -0.00667739, -0.0086863, -0.0482117, -0.0298448, -0.0262303, -0.0253911, -0.00862277, 0.00996673, -0.0534745, -0.0013833, -0.0387622, -0.0158424, -0.00982022, -0.0198689, -0.011869, -0.0269812, 0.00157714, -0.0471171, -0.056528, -0.0458202, -0.0505942, -0.0240836, -0.0408192, -0.0607992, -0.0394803, 0.020448, 0.0349864, -0.054548, -0.100205, -0.038479, -0.0308061, -0.707801, -0.0740699, -0.0400592, -0.0473713, -0.0162246, -0.0224744, -0.108351, -0.0896112, -0.0303313, -0.0112292, -0.00481689, 0.0156883, -0.071205, -0.0691872, -0.0904868, -0.0397284, -0.0559379, 0.00139391, 0.0164984, -0.0435601, -0.0411896, -0.102129, -0.0111259, -0.0311668, -0.0708417, -0.0729438, -0.0553581, -0.0564934, -0.0550001, -0.0445423, -0.0147884, -0.0193847, -0.109336, -0.0705262, -0.0197991, -0.0503553, -0.0621057, -0.0924854, -0.033723, -0.00684392, -0.0202905, -0.0496404, -0.0284197, -0.0115019, -0.0176678, -0.030777, -0.0702447, -0.0190201, -0.020575, -0.028764, -0.0617704, -0.0802073, -0.0620762, -0.0715603, -0.0487841, -0.0739734, -0.0370589, -0.0166311, -0.0512717, -0.015363, -0.06576, -0.0702144, -0.103419, -0.025368, -0.065302, -0.0713588, -0.068247, 0.0183494, -0.0169226, -0.0725745, -0.0853924, -0.0353036, -0.060702, -0.0547771, -0.0842963, -0.00765359, 0.0205406, -0.0241046, -0.035405, 0.0276054, 0.00934374, -0.0311863, -0.0723689, -0.0500774, -0.0690995, -0.0487648, -0.0766693, -0.0422219, -0.00194633, -0.052633, -0.0292468, -0.034394, -0.0732646, -0.0702384, -0.033549, -0.0224673, -0.032779, -0.0165654, -0.083546, -0.0404906, -0.0547945, -0.0355858, -0.0494583, -0.0249089, -0.00324917, -0.0187824, -0.10257, -0.069472, 0.0271728, -0.0284134, -0.0136995, -0.0356063, -0.047407, -0.0429153, -0.014174, -0.0104439, -0.000350118, -0.00694287, -0.063015, -0.0466352, -0.0524924, -0.0615374, -0.0716549, -0.0306877, 0.00141716, -0.0523672, -0.0321255, -0.0988545, -0.0419183, -0.0363626, -0.078133, -0.0414238, -0.101695, -0.0300254, -0.0179095, -0.0520198, -0.0436233, 0.0175877, -0.0278096, -0.0447015, 0.0126163, -0.0010221, -0.0245124, -0.0364844, -0.0760603, -0.0495474, -0.0527387, -0.0193925, -0.00530446, -0.0628847, -0.033705, 0.0118533, -0.0605345, -0.00444794, -0.0240933, -0.079253, -0.0646291, -0.0461233, -0.0605754, -0.0826309, -0.0662483, -0.0141317, -0.0508952, -0.0578201, 0.00778127, -0.0116463, 0.0186896, -0.00695145, -0.0521457, -0.0321463, -0.0365181, -0.0864662, -0.012414, 0.0203867, -0.0784256, -0.0287305, -0.0723672, -0.0864234, -0.0212055, 0.0433236, 0.0134926, -0.0440648, -0.0717318, -0.0232069, 0.0134016, -0.0238625, 0.014683, 0.0368354, -0.00912404, -0.0735849, -0.0339833, -0.020228, 0.0113715, -0.0541787, -0.0552579, -0.0420392, 0.0162245, 0.0364995, -0.0305455, -0.0464857, -0.047297, -0.00846171, -0.0145788, -0.00871062, 0.0189749, 0.00950313, 0.0239253, -0.0624851, -0.0469092, -0.0304062, 0.0494429, -0.0386207, -0.0490447, -0.0325767, 0.0291215, 0.00605142, 0.0024693, -0.000303388, 0.0103074, 0.0058167, 0.00557804, 0.00411808, -0.0118304, -0.0650078, -0.0428134, 0.0493739, -0.00350988, -0.0279837, 0.00396037, -0.00998449, 0.00853932, 0.0446796, -0.0157437, -0.051012, -0.0405434, -0.029292, 0.0027287, -0.0628037, -0.00369895, -0.0104824, -0.0348309, 0.00285375, -0.0504842, 0.0237589, -0.0377451, -0.0415374, 0.0189544, 0.0049063, 0.0490894, -0.0271217, -0.00141919, 0.041392, 0.0415395, -0.0034771, -0.0389014, -0.00675201, -0.00746512, -0.00833344, 0.0327497, -0.0255508, -0.0199383, -0.0170541, -0.0334232, -0.0261055, 0.0513674, 0.0298351, -0.0543392, 0.0253794, 0.0468119, -0.0380025, -0.047173, 0.0288436, -0.0218735, -0.0226669, -0.026595, 0.0236909, -0.012067, 0.0271353, -0.0391606, -0.0264493, -0.039827, -0.00523067, -0.00590515, -0.00103104, -0.0264273, -0.00562036, -0.0035094, -0.0550464, -0.0369316, -0.0116452, 0.0143044, 0.0137124, 0.00250459, 0.0102956, -0.00355315, 0.006145, -0.0621827, -0.00193632, -0.0469871, 0.00922263, -0.0167705, 0.00230324, 0.00707412, -0.0252037, -0.0579309, -0.021714, 0.0044868, -0.014223, -0.0460168, -0.0192534, -0.0207301, -0.0301286, -0.0571254, -0.0865541, -0.0438626, 0.0102813, 0.0446051, -0.00669086, -0.0555831, -0.0841665, 0.0143217, -0.676334, -0.0548639, -0.0318341, -0.00958383, 0.00818825, -0.00126314, -0.0786726, -0.0727838, -0.0662534, -0.0324534, -0.0101874, 0.0412129, -0.018388, -0.0439496, -0.0369315, -0.0688635, -0.0735041, -0.0634277, 0.0233712, 0.000518322, -0.0333184, -0.0738125, -0.00857925, -0.036387, -0.0594932, -0.0595839, -0.0477643, -0.0658019, -0.0555897, -0.0518067, -0.0358034, -0.0413499, -0.0589378, -0.070159, -0.0608466, -0.0145229, -0.0390906, -0.0905209, -0.02827, -0.0425849, -0.0348977, -0.0309439, -0.0878867, -0.0365503, -0.0194685, 0.000897408, -0.037344, -0.0630882, -0.0717869, -0.0744771, -0.00446045, -0.0440439, -0.0242122, -0.0684099, -0.0115139, -0.00946498, -0.0575503, -0.0698696, -0.0430434, 0.0150576, -0.0445492, -0.0834569, -0.0598121, -0.0264398, -0.0649922, -0.114704, -0.105599, -0.0102618, -0.032819, -0.0688591, -0.114909, -0.0964732, -0.0458078, -0.0679098, -0.110116, -0.0664062, -0.0292867, -0.0934427, -0.0784755, -0.0504566, -0.0724709, -0.0282449, -0.047604, -0.0876244, -0.0943965, -0.0771818, -0.0499666, -0.0386386, -0.0147721, -0.0310724, -0.00864708, -0.0296335, -0.0150756, -0.0295351, 0.0182415, -0.0339417, -0.0334015, -0.0558599, -0.0829175, -0.0905502, -0.0456321, -0.046496, -0.0910696, 0.00750899, -0.00617266, -0.038415, -0.0853132, -0.0794878, -0.0475544, 0.0461696, -0.0381837, -0.0552373, -0.0372313, -0.040321, -0.014516, -0.0338503, 0.00346076, -0.0177218, -0.0511352, -0.0226387, -0.0325102, -0.0628216, -0.0461112, -0.0727242, -0.0474319, -0.0577697, -0.0246034, -0.0634127, -0.0178758, -0.050317, -0.0477891, -0.0470265, -0.0745534, -0.0728337, -0.0631398, -0.0380359, -0.0451012, -0.0422651, -0.0597494, -0.0748104, 0.041535, -0.0246754, -0.0281045, -0.0207391, -0.0581431, -0.093279, -0.0361885, 0.0302463, 0.0196646, -0.0133739, -0.0897061, -0.0285952, -0.0736372, 0.0129325, -0.0152254, -0.0262915, -0.0187839, -0.0064826, -0.011157, -0.0589643, -0.0593846, -0.0119252, -0.0179381, -0.064029, -0.0313075, -0.0552361, -0.0201219, 0.0265362, 0.0115269, -0.0540012, -0.0383428, -0.0539377, 0.0014478, 0.057243, 0.0251544, -0.0114576, -0.0226897, -0.0819465, -0.00688899, 0.00944412, -0.0601443, -0.0484972, -0.0251286, -0.0298047, -0.0530047, -0.0470259, 0.0243965, -0.00356948, -0.00992763, -0.0121824, -0.0131649, 0.0118212, 0.0297444, -0.0451488, -0.0514108, -0.03888, -0.00234294, -0.00756228, -0.0577461, -0.0774914, -0.0222472, -0.0502638, -0.00925255, 0.00750613, 0.0132824, 0.00870407, 0.0589788, -0.0361212, -0.0365038, -0.0459135, 0.0217371, 0.0115138, -0.0482739, -0.0596037, -0.0163388, -0.071443, -0.0498431, 0.0236179, 0.0300939, 0.00301039, 0.0132329, 0.0553457, 0.0201863, -0.0341002, -0.0674424, -0.00293934, 0.0083636, -0.0125, 0.0428869, -0.0406137, 0.0182242, 0.0439918, 0.0575972, -0.0627501, -0.0288801, -0.0352591, -0.0376583, -0.0702652, -0.0553491, 0.0112001, 0.0308286, -0.00639212, -0.0493433, 0.00776649, -0.0407753, -0.0125619, -0.0780555, 0.0174605, -0.0283645, -0.0382493, -0.0282313, -0.00692856, -0.0224364, 0.0186188, -0.0244309, 0.00720668, -0.0315274, 0.00480902, 0.00990021, 0.000583768, -0.0247637, -0.0142881, -0.0416539, -0.0654207, 0.0114512, -0.0121268, -0.0292203, 0.0119954, 0.0309347, -0.0469149, -0.0523717, -0.0223953, -0.0197707, 0.0202999, -0.00364912, -0.0306791, -0.00597596, -0.0142522, -0.0196786, -0.0261877, -0.0608081, -0.0426111, 0.0382122, -0.0458391, -0.0568718, -0.00511098, 0.047398, -0.00427115, -0.0257213, 0.00968015, -0.0410022, 0.0251791, -0.00613225, 0.0292547, 0.0642394, 0.0471998, -0.0714022, -0.0425285, -0.0504348, -0.00219738, -0.0317554, -0.0240836, 0.0252657, -0.0297831, -0.0583438, -0.0226839, -0.0291238, -0.0384843, -0.0094682, 0.0190115, 0.0272545, 0.0248384, 0.050181, -0.0790851, -0.0282327, 0.00265062, -0.0269283, -0.0528402, -0.0338038, -0.0439613, 0.0177519, -0.675103, -0.0545993, -0.0658958, -0.0436707, -0.0390409, 0.0319538, -0.0581161, -0.0399917, -0.044832, -0.0438752, -0.0468121, 0.000584602, -0.0374103, -0.0359091, 0.0144236, -0.0486306, -0.0871083, -0.0688159, -0.0752729, -0.0212722, -0.0162885, -0.0208443, -0.0497023, -0.067768, -0.089432, -0.0886132, -0.0990567, -0.017866, -0.0285383, -0.029081, -0.0439758, -0.0602204, -0.0373517, -0.0266651, -0.0783442, -0.0190781, -0.0567061, -0.0807518, -0.0233325, -0.0475255, -0.0645339, -0.0240791, -0.0888518, -0.0488993, -0.075572, -0.00797021, -0.0135584, -0.0470088, -0.0636411, -0.0885332, -0.0620036, -0.0339822, -0.0345209, -0.0398411, -0.0365809, 0.0194296, -0.044106, -0.0650271, -0.0625812, 0.0414865, -0.0243483, -0.0234987, -0.0376467, -0.0382742, -0.0493542, -0.090818, -0.080109, -0.0186568, -0.0672348, -0.0215105, -0.0846634, -0.0870907, -0.0292134, -0.0638334, -0.0280591, -0.0403329, 0.00617886, -0.0908585, -0.0314606, -0.08732, -0.0297395, -0.019079, -0.0729525, -0.0541309, -0.0696121, -0.0712434, -0.0594083, -0.0401974, -0.0105143, -0.00564504, 0.00146961, -0.0406939, -0.0409002, -0.0704786, -0.0361251, -0.0580935, -0.00916278, -0.0644189, -0.0691196, -0.0200326, -0.0528985, -0.0515766, -0.0877752, -0.0555739, 0.0132656, -0.0463297, -0.0693457, -0.0897571, -0.0632935, 0.0250434, -0.0279087, -0.0104651, -0.0691509, -0.039508, -0.0400984, -0.0213971, -0.0471138, -0.0253602, -0.00991333, 0.0118746, -0.00224733, -0.0864052, -0.037519, -0.033676, -0.0598596, -0.0511982, -0.0405203, -0.0419283, 0.0321995, -0.0764549, -0.0410002, -0.0220983, -0.0327492, -0.0749224, -0.0561981, -0.0452552, -0.00441957, -0.0277827, -0.0860327, -0.0798632, -0.000444651, -0.0278602, -0.0501876, -0.00995517, -0.014104, -0.0704612, -0.0475433, 0.017825, 0.0456507, 0.0801158, -0.0590018, -0.00292313, 0.00284886, 0.0260279, 0.0093056, -0.0335572, 0.0176303, 0.0228448, -0.00804412, -0.0478686, -0.0126652, -0.0641462, -0.0540842, -0.0319693, -0.0083952, -0.0292437, -0.0862724, -0.00342989, 0.0176686, -0.0575114, -0.0489779, -0.0202723, -0.0456192, -0.0530829, -0.0362772, -0.00237715, -0.0471791, -0.0666554, 0.00175488, -0.0216827, -0.0787801, -0.0939234, -0.0252149, 0.0102415, -0.0549612, -0.0333407, -0.0177034, -0.0278488, -0.0699694, -0.0400844, -0.0444529, 0.0116284, 0.0477467, -0.0522754, -0.0165792, -0.00705338, 0.017153, -0.0308082, -0.0843248, -0.10136, -0.0259308, -0.0418754, -0.00162411, -0.0102701, -0.00777233, 0.032221, 0.0536709, -0.0781848, -0.0653138, -0.0960693, 0.00957847, 0.0552304, 0.0267923, -0.0100262, 0.00632799, -0.0569736, -0.0234647, -0.0238117, -0.00359523, -0.0700029, 0.0144054, 0.0320712, -0.00853443, -0.0163375, -0.0672048, -0.043696, -0.00605667, -0.0324004, -0.0148066, -0.0812806, -0.0593982, 0.0409907, 0.0201654, 0.00210416, 0.0440189, -0.00300622, -0.0194565, -0.0224319, -0.074942, -0.048082, -0.0347377, -0.0360246, -0.035514, -0.00207996, -0.00538421, -0.0116484, -0.0315613, -0.0211792, -0.0249118, -0.016553, 0.0394617, -0.00357115, -0.0502075, -0.0104158, -0.0575172, -0.00591838, -0.0339048, -0.00921547, -0.0252668, 0.0234084, -0.0102081, 0.0316665, -0.0142124, -0.00533533, -0.0172458, -0.0814228, -0.0661649, -0.00947547, 0.0353836, -0.00703645, -0.0298431, -0.031028, -0.079447, -0.000931025, 0.0264944, 0.00806832, -0.018621, 0.0148391, 0.034934, 0.0159098, 0.011621, -0.0239692, 0.0542814, 0.0036217, -0.0240957, -0.0462631, 0.0491812, 0.0572919, 0.0215707, 0.0252187, -0.0343839, -0.0468991, -0.0150657, -0.0135355, 0.0540379, 0.0500767, -0.0125074, -0.0129675, 0.00494874, 0.0240432, -0.0254108, 0.00949192, 0.0116682, 0.0193962, -0.0083189, -0.0319993, -0.0409138, -0.0381737, 0.00847352, 0.0224283, -0.103616, -0.0556252, 0.0273293, -0.0531415, -0.0518757, 0.0117034, -0.0316656, -0.0787783, -0.0548308, -0.0520095, 0.0183272, -0.676624, -0.0380467, -0.041554, -0.0432392, -0.0404561, -0.0269051, 0.00640357, -0.0475339, -0.05786, -0.0201657, -0.0398042, -0.0410547, -0.0584567, -0.0398974, 0.0195105, -0.0215212, -0.0303669, -0.0164264, -0.0627798, -0.0404747, -0.0250129, 0.00776112, -0.0229295, -0.0476979, -0.0369934, 0.00225878, -0.0769665, -0.0339532, -0.0347475, -0.0912813, -0.0448859, -0.0518345, 0.000444889, -0.0172981, -0.0829464, -0.0208346, -0.0199243, -0.087832, -0.0606395, -0.0511156, -0.00626504, -0.0675794, -0.0675169, -0.0515401, -0.0686646, -0.0645649, -0.0496557, -0.0422957, -0.0434326, -0.0593538, -0.106723, -0.0829029, -0.0665553, -0.0615642, -0.0806925, -0.035089, -0.0102926, -0.0826554, -0.0672272, -0.0120028, -0.0505741, -0.0104607, -0.0276699, -0.0418019, -0.0578696, -0.0793432, -0.0312548, 0.0337943, -0.0167952, -0.000534534, 0.00325716, -0.0237417, -0.0277036, -0.0981175, -0.0407431, -0.0314664, -0.0188878, -0.0461274, -0.0372667, -0.0726428, 0.00526929, -0.00821793, -0.0776578, -0.0315111, -0.0415345, -0.029894, -0.100857, -0.0832753, -0.0720907, -0.000329614, -0.0215458, -0.039176, -0.0542332, -0.0188881, -0.00767446, -0.0402498, -0.0382085, -0.060933, -0.0398602, 0.0311664, 0.00640535, -0.0153199, -0.0498945, -0.0705051, -0.00217128, 0.00747073, -0.0289881, -0.056477, -0.057259, 0.0224836, -0.00489891, -0.00377929, -0.0608038, -0.0415879, -0.0463066, -0.0098362, -0.0839872, -0.0716681, -0.0329076, 0.0245199, 0.00133324, -0.0476351, -0.0246515, 0.00596642, -0.0638045, -0.0265889, -0.0474472, -0.0418656, 0.035059, -0.0315611, -0.0487473, 0.0291532, 0.0230587, -0.0117699, 0.00686693, -0.00800014, 0.0200402, 0.022974, -0.0639172, -0.0376645, -0.0602136, -0.0544964, -0.0319759, -0.0354551, -0.0543034, -0.0485299, -0.0499644, -0.0642844, 0.0348718, 0.0374708, -0.028046, -0.0702957, 0.0316161, 0.00715637, -0.0231606, -0.0531976, -0.0180434, 0.0175705, -0.0613663, -0.0180911, -0.018732, -0.0680076, -0.0724605, -0.0143578, 0.0166556, 0.00498545, -0.040285, -0.0499717, -0.0375898, -0.069262, -0.0622833, -0.0141482, -0.015722, -0.0711732, -0.056937, -0.0231094, -0.020606, -0.066191, -0.014025, -0.0121069, -0.0406629, -0.00261545, -0.0272774, 0.0286367, -0.0475812, -0.00930047, 0.0358635, -0.0702732, -0.0316449, -0.104591, -0.0603648, -0.0595371, 0.0373096, -0.0217396, 0.0253456, -0.00865138, 0.0361553, 0.0308499, 0.0117491, -0.0643926, -0.0594488, -0.0749764, -0.0538806, -0.0276105, -0.0805837, 0.0398499, 0.0349791, -0.0397203, -0.0376816, -0.0386114, -0.0545318, 0.0351998, -0.0273545, -0.0451, -0.033803, -0.0559903, -0.00621581, 0.0118214, -0.0245641, -0.0658897, 0.00551379, 0.00459754, -0.0199291, -0.00766897, -0.0229533, -0.0286285, -0.00107503, 0.0765891, -3.44515e-05, -0.08269, -0.0412648, 0.0227145, -0.0294925, 0.00185812, 0.086252, 0.00377047, -0.0117947, -0.010585, -0.00414956, -0.0383097, -0.0487425, -0.0240276, -0.0578077, -0.0142601, 0.028556, 0.0291584, 0.0153137, 0.0422587, -0.0342498, -0.019789, 0.0544277, 0.01835, -0.021139, -0.00601065, -0.0428129, -0.0839332, -0.00886989, -0.0125747, -0.0702459, -0.0543596, -0.0346885, 0.0220646, -0.0337353, -0.00186872, 0.0582447, -0.0217401, -0.0324879, -0.0121411, 0.00524199, 0.00912249, 0.010061, 0.0152061, 0.00103843, -0.0550123, -0.0160563, 0.029708, -0.0103159, -0.0287082, -0.0495874, -0.00469983, 0.00721836, -0.0163728, 0.00431311, 0.0118737, 0.0528632, -0.0468996, -0.0130475, 0.0498712, 0.0512601, 0.014961, 0.01202, -0.0232288, -0.0110738, -0.0729568, -0.0168672, -0.00451422, -0.0526366, -0.0142546, 0.00832784, 0.0144541, 0.0113275, 0.0102099, -0.010939, -0.0372987, 0.00380445, -0.0792948, -0.0588657, -0.0536377, 0.0263356, -0.00913954, -0.0503162, -0.0362358, 0.00680232, -0.0316296, -0.0304475, -0.0334644, -0.0173168, -0.0966812, -0.0516679, -0.0266767, 0.00679564, -0.656276, -0.0333567, 0.00347364, -0.0765982, -0.0660876, -0.0733835, -0.00668311, -0.0433853, -0.0347079, 0.0283544, -0.073784, -0.0163517, -0.058223, -0.0268006, -0.00748408, -0.0532885, -0.0910444, -0.0309973, -0.0606643, -0.0272338, -0.0168182, -0.00944746, -0.0568988, -0.0640305, -0.0393902, -0.0202174, -0.0353068, -0.0417005, -0.0321205, -0.0604227, -0.0461842, -0.0421363, 0.0145555, 0.00705993, -0.089659, -0.0651499, 0.00268829, -0.0798119, -0.0700202, -0.0741774, 0.00326347, -0.0299467, -0.0681362, -0.0604076, -0.0869585, -0.0827047, -0.0770518, -0.0101187, -0.0229906, -0.0361544, -0.067553, -0.0879672, -0.0528972, -0.0645759, -0.0831085, -0.0369598, -0.0114719, -0.057551, -0.0347619, 0.0232037, -0.0189377, -0.0593816, -0.0259881, -0.0549763, -0.0753915, -0.0975369, -0.0812457, -0.0102488, -0.024259, -0.103289, -0.0260593, -0.00254071, 0.0170449, -0.036651, -0.0267675, -0.0843531, -0.0835085, -0.0267189, -0.107095, -0.0499179, 0.0307958, 0.00569236, -0.0710572, -0.0343602, -0.0260412, 0.0117084, -0.00166714, -0.0815035, -0.060859, -0.0207247, -0.0595071, -0.0617951, -0.0374655, -0.0177082, 0.0148714, -0.0221419, -0.0233805, -0.0922245, -0.0544537, -0.0779774, -0.0160774, -0.064009, -0.0087502, -0.0383301, -0.0482173, -0.0271972, 0.00361896, -0.00788403, -0.0596688, -0.0137999, -0.00762749, -0.0103153, -0.0155976, -0.0294223, -0.0316324, -0.0334144, -0.0684131, -0.0646472, -0.0496504, -0.0256605, -0.0517986, -0.0731081, -0.0450166, 0.0222586, -0.0626711, -0.030952, -0.0520792, -0.0266596, 0.0119123, -0.0202006, -0.0276227, 0.0320868, 0.036097, 0.0159162, 0.0105337, -0.024928, 0.0262567, 0.0158926, -0.0161421, 0.0126067, -0.00864875, -0.0820761, -0.0390081, -0.0168977, -0.060506, -0.0995898, -0.0468633, -0.064061, 0.000289559, -0.00880921, -0.0536528, -0.0233183, 0.0102496, -0.0427151, -0.0597187, -0.0217116, 0.027518, 0.00777793, -0.0550472, -0.00872815, 0.000207543, -0.0564793, -0.0448135, -0.0233361, -0.0298574, -0.0334122, -0.00951946, -0.0186727, -0.00706863, -0.033676, -0.0621681, 0.0310009, -0.00707769, -0.036801, -0.0291098, -0.0117694, -0.0145351, -0.0470079, -0.0467772, -0.0234674, -0.0486573, -0.00782442, -0.0176048, 0.0133255, -0.0398762, 0.00726128, 0.053725, -0.00267875, 0.0231223, -0.075644, -0.0327966, -0.0650593, 0.00547981, -0.00121415, 0.00854731, -0.0746688, -0.0269947, 0.049, 0.00481021, 0.00461185, -0.0272285, -0.0100487, -0.0207682, 0.00497079, 0.00758088, 0.0182115, 0.0103645, 0.0024507, -0.0295333, -0.00577056, 0.000676036, 0.0256033, -0.0274706, -0.0776209, -0.0489154, -0.074315, -0.00597811, -0.0140595, -0.000827909, -0.0603542, 0.0180997, -0.0120695, -0.0624015, -0.0206604, 0.0400571, -0.00295115, 0.00167143, 0.0678869, 0.0590659, -0.0328406, -0.0064075, 0.00872707, -0.0456365, -0.0202818, 0.0519658, 0.0399637, 0.00316632, -0.0247643, -0.0312748, -0.0212671, -0.0529366, -0.043879, -0.0666059, -0.0274348, -0.0275038, -0.046544, -0.021583, 0.0244945, -0.00682092, -0.020974, 0.0375909, 0.00312483, -0.00995576, -0.012653, -0.00339437, -0.0528927, -0.0141628, -0.0111817, -0.00848079, -0.00727153, -0.0379363, -0.041428, -0.0340495, -0.016566, 0.00423074, -0.0412108, -0.028496, -0.0144167, 0.0080086, -0.00937331, -0.0124487, -0.0221145, -0.0311606, -0.0428218, -0.0363994, 0.0566109, -0.00510013, -0.0112331, -0.0536885, -0.0555185, -0.0721099, -0.0683901, -0.0553255, -0.0208298, 0.0183495, -0.0270724, -0.017773, 0.0650107, 0.0251178, -0.0389217, -0.0145, 0.0206745, 0.0302656, 0.0149544, -0.0397787, -0.0366786, -0.0473666, -0.0275931, -0.0101883, -0.0154848, 0.0091362, 0.0057888, 0.0191454, 0.0343255, 0.0284473, -0.0483055, -0.0140702, -0.0469553, 0.0246571, -0.0394579, -0.00630164, 0.036522, 0.0122124, 0.0152823, -0.0235968, -0.00726914, -0.0762622, -0.0532957, -0.108342, -0.0457535, 0.0117871, -0.748435, -0.0663325, 0.0216528, -0.0375159, -0.0779486, -0.0218894, -0.0497899, -0.0590602, -0.0167991, -0.0448564, -0.0813065, -0.0501294, -0.0431926, -0.0369101, -0.0413928, -0.0386015, -0.0705701, -0.0305707, -0.0860689, -0.0782716, -0.0504113, -0.0264711, -0.0747545, -0.0568972, -0.010524, -0.00793576, -0.0769168, -0.052255, -0.0223895, -0.0735282, -0.0843366, -0.0355293, -0.0371699, -0.0502069, -0.0445457, -0.0450112, -0.0224879, -0.0530086, -0.0777061, -0.0368025, -0.0308692, 0.00339532, -0.0674443, -0.0341202, -0.0383995, 0.00164461, -0.0893939, -0.0485442, -0.0148389, 0.00574398, -0.0338367, -0.0823026, -0.0256499, -0.0555493, -0.0285585, -0.0227752, -0.00958657, -0.062278, -0.0419927, 0.0139899, 0.0166624, -0.0878667, -0.0424292, -0.0520675, -0.082172, -0.0807236, -0.0788404, -0.0236713, 0.0503986, -0.0641248, -0.100255, -0.0582969, -0.049973, -0.0100698, 0.0184833, -0.0254129, -0.0394919, 0.00125623, -0.11883, -0.0904703, -0.00855899, -0.00243771, 0.0149109, -0.0312411, -0.0505877, 0.00184762, 0.00651693, -0.0755076, -0.016446, 0.0384945, -0.0517508, -0.0372165, -0.0418762, 0.00939381, -0.0297508, -0.0287908, -0.0670974, -0.0604174, -0.0784993, -0.0929972, -0.0681746, -0.103893, 0.0042094, -0.0295532, -0.064088, -0.114292, -0.0365433, -0.0142628, -0.0198302, -0.0483164, -0.0119988, -0.0242335, -0.0143718, 0.00241816, 0.00870097, -0.0245371, -0.0362982, -0.0189687, -0.0498497, -0.0384336, -0.0101651, -0.0775311, -0.0824524, -0.0362575, -0.0388234, -0.0374132, -0.030853, -0.0600692, -0.0267426, -0.0443867, -0.0333108, -0.0459523, -0.000591516, 0.00708628, -0.012727, -0.091517, -0.0106809, -0.0887129, 0.00885725, -0.0253547, 0.0416418, -0.0347245, -0.0228822, -0.00813782, -0.00665855, -0.0248876, -0.0430459, -0.0485865, 0.000671148, 0.0396725, -0.0157453, -0.0167278, 0.00578785, -0.0610219, -0.0630687, -0.0597777, 0.000741601, -0.0416117, -0.0211389, -0.027902, -0.032692, 0.00632834, 0.01126, -0.00986588, -0.0335989, -0.00610638, -0.00700676, 0.0136276, 0.0193801, -0.0216292, -0.0637646, 0.00250185, -0.0233437, -0.0113766, 0.0147194, 0.00871193, 0.0279306, -0.0426042, -0.0830722, -0.0368391, -0.054373, -0.0101786, -0.014943, 0.032338, -0.00752771, -0.053869, -0.0207235, 0.0331671, 0.0146586, -0.0412253, -0.0444118, -0.0874519, -0.0298059, 0.0190225, -0.0215849, -0.0334477, -0.025858, 0.000875115, -0.030809, 0.0291183, -0.0361422, -0.0173513, -0.0568362, -0.0521924, 0.0402102, -0.0285056, -0.023615, -0.0543102, -0.0407702, -0.0281802, -0.0109936, 0.0105727, 0.0616763, -0.0411321, -0.0580765, -0.0631149, -0.0608221, -0.0190818, 0.036275, -0.0820944, 0.000569105, -0.0560784, -0.0294144, -0.0647174, -0.00301909, 0.00969458, 0.0199101, -0.0278792, 0.0348417, -0.0678849, -0.00441337, 0.000398874, -0.00845969, -0.0256317, -0.000614643, 0.0174414, 0.0342481, -0.0156274, -0.00703871, 0.0132905, -0.030373, 0.028578, -0.0391903, 0.00604618, -0.0561136, -0.0641127, -0.030919, -0.0298141, -0.016866, -0.0335586, 0.0287728, -0.0636473, -0.0677421, -0.0345978, -0.0565953, 0.0120783, -0.0222034, -0.049281, -0.00135362, 0.0454509, 0.100543, -0.0233847, -0.0274483, -0.0179005, -0.0228071, -0.0388861, -0.0333606, -0.0555308, -0.0056988, 0.017884, -0.0482194, 0.0358523, -0.0354973, -0.0574964, -0.0631431, 0.0909293, 0.00919962, -0.0054481, 0.0410064, 0.0215104, -0.0420001, -0.0713847, -0.0312459, -0.0250478, -0.0615864, -0.0425708, -0.0239425, 0.123024, -0.0148642, -0.020613, -0.0383412, 0.00854921, -0.00814259, 0.00600767, -0.00635219, -0.016975, -0.00316334, -0.0277867, -0.00873005, -0.0468504, -0.0321383, -0.0308341, 0.0236514, 0.0204883, -0.0305392, -0.0194751, -0.0100449, 0.00138009, -0.0215155, -0.0665048, -0.0379469, 0.00793386, -0.0380503, 0.0210128, -0.0310391, -0.0272094, -0.109349, -0.0833833, -0.090156, -0.0607494, 0.0163916, -0.800887, -0.076407, -0.0430878, -0.066041, -0.0639589, -0.0330513, -0.0789524, -0.0606511, 0.0018996, -0.0710697, -0.0809319, -0.0656295, 0.0123764, 0.00238061, 0.00462198, -0.101246, -0.0858574, -0.0235548, -0.0373571, -0.0600165, -0.108192, -0.0689222, -0.0606828, -0.0565149, -0.00606477, 0.013857, -0.0984132, -0.0836066, -0.00470269, -0.05329, -0.0411658, -0.051962, -0.0676825, -0.0297506, -0.0369397, -0.0226339, -0.0752727, -0.0496688, -0.0671138, -0.0772535, -0.0469433, -0.0199983, -0.0859172, -0.0964829, -0.0560107, 0.0220315, -0.0297545, -0.0718998, -0.0717814, -0.0643531, -0.032173, -0.0381136, -0.0893582, -0.0582013, -0.024587, -0.0115807, -0.0562314, -0.0421532, -0.0677042, -0.013446, -0.0312715, -0.0831589, -0.0504521, -0.0289556, -0.0060879, -0.0224391, -0.0600026, -0.0201867, 0.0794829, 0.0109333, -0.0175432, -0.0174551, -0.114306, -0.0888649, -0.0782158, -0.00979817, -0.00400949, -0.0235003, -0.0880289, -0.101358, -0.0734168, -0.0638521, -0.0357541, -0.0417536, -0.025376, 0.0191146, 0.00137436, -0.0526261, -0.0711495, 0.0378747, -0.0930253, -0.0734036, -0.0485766, 0.0478776, -0.046144, -0.0342826, -0.0354313, 0.00790608, -0.0204084, -0.0355028, -0.0418314, -0.0808374, -0.0355232, -0.0317534, -0.0431989, -0.0770475, -0.0609277, -0.033851, -0.00435662, -0.0455737, -0.081655, -0.0517153, -0.0181412, -0.0411007, -0.032524, -0.0468857, 0.0094043, 0.0116595, -0.0361412, -0.0144312, -0.00314152, -0.0551853, -0.0705235, -0.0879385, -0.076877, -0.0368999, -0.057031, -0.0155725, -0.0087533, -0.0488932, -0.0269816, -0.0706823, -0.0612472, -0.0233248, 0.000824571, -0.0695971, -0.0239904, -0.0929563, -0.0784545, -0.0691924, -0.010622, -0.0324075, -0.0393687, -0.0371666, -0.0205003, -0.00903022, -0.0162394, -0.0444852, -0.0799724, -0.00432992, 0.0537881, 0.0217178, 0.0296543, -0.0100609, -0.0158089, -0.0571028, -0.0329753, -0.0462013, -0.0485231, -0.0154599, -0.0708274, -0.0103238, 0.036374, -0.00410593, -0.0703484, -0.0155815, -0.0337417, 0.00627673, 0.0665452, 0.015017, -0.0527617, -0.0213307, -0.0301219, -0.0497254, 0.0203793, 0.0208043, 0.0448079, 0.0335865, -0.0713363, -0.0372753, -0.058292, -0.0312716, -0.0327122, 0.0265487, -0.0295756, -0.0621983, -0.0593834, 0.0120325, -0.0217699, -0.0207309, -0.0164013, -0.0342307, 0.0264255, -0.00525486, -0.0222766, -0.0275167, 0.0313135, -0.0174481, -0.0149127, 0.0180094, 0.00235534, -0.0306021, -0.0250969, -0.0558197, -0.0698982, -0.0420532, -0.00787091, -0.0218585, -0.0471599, -0.0470341, -0.0636276, -0.0345888, 0.0592769, 0.0329723, -0.0368791, -0.0198755, -0.0546522, 0.00581324, 0.0624872, -0.00550735, -0.0437349, -0.0552877, -0.041694, -0.0103903, -0.0284078, -0.0104538, 0.00888288, -0.0262183, 0.0196104, 0.00661814, -0.0798038, -0.0573292, -0.0751512, 0.00158131, 0.010305, 0.0201432, -0.00842822, -0.0328193, 0.0169622, 0.0264556, 0.0487556, -0.0143586, 0.00271595, 0.0477449, -0.0087955, -0.0230348, 0.0409678, -0.00760078, -0.012337, -0.0555127, -0.00116324, -0.0983194, -0.0701342, -0.0211941, -0.0365489, 0.0127572, -0.00651753, -0.0365627, -0.0465485, -0.00116038, 0.0542135, 0.0171931, 0.0184071, 0.0706885, -0.028178, -0.0158185, -0.0637017, -0.0239882, -0.0226355, 0.0279032, -0.0773734, 0.0048666, -0.0200661, -0.0650623, -0.055053, 0.033121, -0.00323355, -0.0323973, -0.014769, 0.00754595, 0.0228013, -0.0170718, 0.0159086, -0.0124789, -0.0341334, -0.0565733, 0.00968587, 0.049305, -0.0349894, -0.0489147, -0.00391197, 0.0452318, -0.00666797, 0.0244745, 0.0215938, -0.0236125, -0.0130725, -0.0249567, -0.0130118, -0.020344, -0.0491234, -0.0401095, -0.0038358, 0.0101031, -0.0627273, -0.0268214, -0.0195397, 0.0370213, -0.0213648, -0.0264513, -0.012519, 0.00953424, -0.00103748, 0.015839, 0.0585077, 0.0131761, -0.035728, -0.0660342, -0.060359, -0.0705109, 0.0238973, -0.744505, -0.0942571, -0.0559734, -0.0757285, 0.00109088, -0.0394032, -0.0408554, -0.061818, -0.007424, -0.0770366, -0.114938, -0.0837626, -0.015803, 0.0146064, -0.0284503, -0.0849177, -0.086273, -0.0523387, -0.0480123, 0.00571024, -0.0646522, -0.0834043, -0.075978, -0.0714726, -0.00846958, -0.0329958, -0.0565861, -0.0898846, -0.00813949, -0.0215746, -0.00267363, -0.0264292, -0.0750988, -0.0355604, -0.0678635, -0.0473602, -0.0467583, -0.0546378, -0.0545156, -0.0935045, -0.0410049, -0.0387713, -0.0408257, -0.135729, -0.0557921, -0.0453258, -0.0617954, -0.0310192, -0.10121, -0.065044, -0.0508778, -0.014527, -0.0729027, -0.0698838, -0.036986, 0.00305462, -0.0540484, 0.0289274, -0.0594161, -0.0330784, -0.0257721, -0.0564625, -0.0893428, -0.0946674, -0.0667725, -0.0290889, -0.064069, -0.0502672, 0.0057807, 0.0206376, 0.0370767, 0.0714924, -0.016511, -0.0517998, -0.0539414, -0.0322185, -0.0162486, -0.0665766, -0.0717913, -0.0859693, -0.0418005, -0.0764055, -0.0705829, -0.0600611, -0.0341058, -0.0330704, -0.0253584, -0.0672044, -0.0673891, -0.00542653, -0.0687299, -0.0771669, -0.0156504, 0.0568269, -0.0467224, -0.0283104, -0.0571804, -0.0537597, -0.00185299, -0.0029757, -0.00378406, -0.0426757, -0.0117335, -0.0422804, -0.0476646, -0.0771165, -0.0661912, -0.0089432, -0.0378418, -0.0338567, -0.101604, -0.0171947, 0.0081104, 0.0129675, -0.0341011, -0.0596725, 0.00714576, -0.01581, -0.017712, 0.0137392, -0.0229881, -0.0418042, -0.0437005, -0.0318915, -0.0478557, -0.061293, -0.0693367, -0.0363073, -0.0521048, -0.0412163, -0.0754517, -0.0543696, -0.0109997, -0.0427213, -0.0697018, -0.0453765, -0.0508661, -0.040313, -0.0767741, -0.0725304, -0.00694633, -0.0460906, -0.0389502, -0.061805, -0.0223109, -0.0274282, -0.00470793, -0.0589142, -0.0908136, -0.0366381, 0.00972128, 0.0417651, -8.67844e-05, 0.0208055, 0.0192933, -0.0279955, -0.0228109, -0.0126005, -0.0325652, 0.0420829, -0.0146934, -0.0299501, -0.00632703, -0.0321239, -0.0728273, -0.0476393, -0.0658937, -0.0229309, 0.000311136, -0.0262483, -0.0485197, -0.0378088, -0.0346968, -0.0337877, 0.0164015, -0.013365, -0.00311089, 0.0392675, -0.022331, -0.0697467, -0.0374579, -0.0595059, 0.0279704, 0.0474226, -0.0198551, -0.0440661, -0.026155, -0.0271926, -0.022589, -0.0568939, -0.025777, -0.0204363, -0.0107661, -0.0395049, -0.0558962, -0.0495914, -0.0187185, -0.031474, -0.0089922, 0.0162127, -0.0155323, -0.0203784, -0.00637901, -0.0178289, -0.0464219, -0.054643, 0.00132895, -0.0256741, -0.000675678, -0.0119169, -0.0304278, -0.0290148, 0.0196606, 0.0223496, -0.0463833, -0.0277348, -0.0149255, -0.0244812, -0.00119257, -0.0179687, -0.0134078, -0.0687464, -0.0388528, -0.0135075, -0.0542134, 0.00412536, 0.00588131, -0.0147793, 0.029227, 0.102231, -0.0164341, -0.00876105, -0.0879209, -0.0350871, -0.0255908, 0.00236344, -0.0155323, -0.0295613, -0.0234524, -0.0175751, 0.0598099, -0.0433443, -0.0727904, -0.0476664, -0.0203141, 0.0513337, 0.0515689, 0.0632088, 0.0549297, 0.0294129, 0.0154163, -0.0472699, -0.0731686, -0.0261191, -0.0177118, 0.0179038, 0.00859666, -0.0422271, 0.0100112, -0.0123243, -0.0165278, -0.00412202, -0.0236415, 0.0565451, 0.0262361, 0.0215926, -0.00377822, -0.0341138, -0.0326308, 0.0205281, -0.0104343, -0.025157, 0.0122694, 0.00850129, -0.0187806, 0.0229644, 0.00373328, 0.00677967, -0.0607126, -0.0440859, -0.0115658, 0.0131161, 0.0114648, 0.0325897, -0.0175871, 0.0301847, 0.0370865, 0.044513, -0.034107, -0.0642513, -0.01641, 0.0226002, -0.0224668, 0.0147275, 0.0285558, -0.010368, 0.000755072, 0.0123163, 0.0574422, 0.00341618, -0.067374, -0.0461087, -0.0233679, 0.0250189, -0.0174217, -0.058982, -0.0466695, 0.0328649, -0.00311995, 0.00511575, 0.0469154, -7.59363e-05, -0.0339031, -0.0599583, 0.0274568, -0.0065093, -0.0539749, -0.0759884, -0.093045, -0.0614995, 0.0153086, -0.712373, -0.0931489, -0.0774462, -0.0880538, -0.0304546, -0.0449849, 0.0019213, -0.0123771, 0.0106533, -0.0931011, -0.0898852, -0.08999, -0.0344068, 0.0399133, -0.0794498, -0.0974916, -0.0891412, -0.0347013, -0.0823824, -0.0084126, -0.0109475, -0.0302227, -0.0413936, -0.0783505, -0.0503714, -0.0228636, -0.072384, -0.0647265, -0.018676, -0.0528703, -0.0540617, -0.0344146, -0.035091, -0.0213286, -0.0786699, -0.0981624, -0.0327252, -0.00383437, -0.0229131, -0.0663193, -0.0589943, -0.0853606, -0.0352615, -0.0756079, -0.0179573, -0.0515561, -0.0526992, -0.0269563, -0.0351877, -0.0608575, -0.033967, -0.065048, -0.0616552, -0.0606555, -0.0929866, -0.0456005, -0.0378443, 0.0209895, -0.0624511, -0.0305488, -0.0401516, -0.00253141, -0.00450838, -0.100945, -0.0907352, -0.0610087, -0.0262359, -0.077979, -0.0875779, -0.029003, 0.00793958, 0.0468211, 0.0122008, -0.0294183, 0.0187479, -0.0549206, -0.0267262, -0.0752649, -0.0605712, -0.0640953, -0.0241199, -0.0443301, -0.0501314, -0.00849152, -0.00424802, -0.0329123, -0.0167279, -0.0741614, -0.00953257, -0.0488708, -0.0517133, -0.0627156, -0.026818, 0.0609413, 0.00922394, -0.0297585, -0.0494567, -0.0873958, -0.0625783, -0.0430528, -0.0541483, -0.017799, -0.031253, -0.0394627, -0.0191749, -0.0872979, -0.0505111, -0.0350517, -0.041337, -0.0468173, -0.0792862, -0.104205, -0.0476509, -0.0400726, -0.0520816, -0.0733632, -0.00896657, -0.0710077, -0.0760163, -0.0248375, -0.0490724, -0.0157636, -0.0705137, -0.0596159, -0.000210047, -0.0602676, -0.0299714, -0.0200186, -0.0445181, -0.0244209, -0.0133803, 0.00536323, 0.070031, -0.0154251, -0.0492107, -0.00612831, -0.0659275, -0.0240656, -0.0236212, -0.0506883, -0.0148293, 0.00449717, -0.0580111, -0.0575504, 0.00589871, 0.0208951, -0.00608122, -0.0940521, -0.111568, -0.0950415, -0.0111623, -0.00185966, -0.0744313, 0.00340819, 0.0152663, -0.0353777, -0.0895579, -0.0579101, -0.0566715, 0.0197731, 0.00910008, 0.0246167, 0.0317692, 0.0319079, -0.00626409, 0.0225857, 0.0023942, 0.00234461, 0.0205266, -0.0835267, -0.0600243, -0.0334666, -0.0536424, 0.0176213, 0.0036962, -0.0189471, -0.0512445, 0.0187008, -0.0187432, -0.088111, -0.0609381, -0.0204943, 0.054505, 0.0498468, 0.0100497, -0.0343724, -0.0114551, -0.0359604, -0.0423744, -0.0720006, -0.0316322, -3.17097e-05, -0.0296229, -0.0108148, -0.0202427, -0.0245416, -0.0454117, -0.0481122, -0.0642676, -0.0288193, -0.0194441, -0.000291467, -0.0552028, -0.0198473, -0.0346103, -0.0141585, 0.00724387, -0.0445635, -0.0194433, -0.0426654, -0.0234851, -0.0225836, 0.048723, -0.00052321, -0.0508034, -0.0214015, 0.0265419, 0.0284528, -0.0388725, -0.00123048, -0.0380819, -0.0553308, -0.00473368, 0.0201536, 0.0130384, -0.059091, -0.0191587, -0.0955405, -0.0155694, 0.00488222, 0.0375938, 0.032667, -0.00454319, -0.0443851, -0.0420029, -0.0359164, -0.04482, 0.0103627, -0.0245068, -0.00074327, 0.0382463, -0.0102789, -0.0683193, -0.0539451, -0.0564923, 0.0222124, -0.0187286, 0.00785804, 0.0314434, 0.00632083, 0.0196692, -0.0073154, -0.0650728, -0.0120921, -0.0313435, -0.0392077, -0.0259622, -0.0341662, 0.0484204, 0.0213526, -0.035964, -0.0443987, -0.00515306, -0.033252, -0.0298988, 0.0380595, 0.0848342, 0.0337801, -0.0181047, -0.0166705, -0.0269163, -0.0202916, -0.00458479, -0.0137588, -0.00941694, 0.00935292, 0.028756, 0.0131415, 0.015476, 0.00087595, -0.0031482, -0.0279766, -0.0570065, 0.0296364, 0.0279574, 0.00457489, 0.0249158, 0.00621164, -0.0307405, -0.0335667, -0.0549161, -0.0190896, -0.0216432, -0.0251708, 0.0388536, -0.0341573, -0.0727659, 0.00250053, 0.0171061, 0.0242676, -0.0102646, -0.0580963, -0.0568376, -0.00450754, 0.0323493, 0.00571835, -0.0279599, 0.000129342, -0.0155001, 0.0263686, 0.0422797, -0.019773, -0.0244024, -0.070397, -0.0218545, -0.0254468, -0.00158954, -0.0648874, -0.0779049, -0.0950689, 0.00593972, -0.716537, -0.108592, -0.0678438, 0.00722337, 0.00330329, -0.0260499, -0.0296675, -0.00630605, -0.0230575, -0.0841691, -0.0640736, -0.0983108, -0.0629959, 0.0182505, -0.0684161, -0.0874751, -0.0998914, -0.0284891, -0.0925136, -0.0922952, -0.0485731, -0.0181047, -0.00975084, -0.104126, -0.0925961, -0.0347344, -0.0619941, -0.0709379, -0.0330557, -0.0727438, -0.0916549, -0.0906894, -0.0241958, -0.0214386, -0.0508765, -0.0791129, -0.0584271, 0.00648117, 0.0364064, -0.0126112, -0.0510271, -0.0792128, -0.0594225, -0.0416538, -0.0517904, -0.0211573, -0.0780007, -0.0355499, -8.72612e-05, -0.0227523, -0.0358027, -0.0142349, -0.0322952, -0.00267756, -0.0694649, -0.0498133, -0.0820783, -0.0602189, -0.0560321, -0.0181487, -0.0697951, -0.00132155, -0.0525607, -0.0755163, -0.0769287, -0.0418, -0.0417148, -0.0147631, -0.0815673, -0.0920101, -0.0628794, -0.034301, 0.00229442, -0.051145, -0.00301528, -0.0445318, -0.022332, 0.00528741, -0.0528686, -0.0713638, -0.0409874, -0.0813776, -0.0376052, 0.000319958, -0.0138953, -0.0383267, -0.0181965, -0.0624212, -0.0331178, -0.0831091, -0.0351487, -0.0732563, -0.0792899, -0.0322204, -0.0450464, -0.0146521, -0.0450799, -0.0461656, -0.0684332, -0.05848, -0.0861011, -0.045297, -0.0266573, -0.0142959, -0.0300592, -0.0273485, -0.0516754, 0.00340056, -0.0359473, -0.0330797, -0.0273453, -0.0686209, -0.0537108, -0.0198643, -0.0154029, -0.0657783, -0.020874, -0.0495126, -0.106571, -0.0661815, -0.0616554, 0.0292637, -0.0276514, -0.0517809, -0.00290549, -0.00895798, 0.0196605, -0.0264229, -0.0467134, -0.0752975, -0.0369953, 0.00965238, 0.0276672, 0.0524037, -0.00927651, 0.000368595, -0.0334489, -0.0428447, -0.0312316, -0.0704193, -0.0423996, 0.0362819, -0.00427282, -0.0645361, 0.00525081, 0.0292431, -0.0210795, -0.0805795, -0.10934, -0.0653982, 0.0326351, 0.00188756, -0.0692849, -0.0515786, 0.00471449, -0.0141906, -0.063036, -0.112122, -0.0681504, -0.00111794, -0.00968182, -0.015396, -0.0471079, -0.0201855, -0.026219, -0.0563874, -0.0104629, 0.0163417, 0.0802573, -0.0908927, -0.0499542, -0.0252527, -0.0144812, 0.00520718, -0.0415471, -0.100544, -0.03274, 0.023399, 0.0338584, -0.066296, -0.0942265, -0.083534, -0.00364268, 0.0297655, 0.014992, -0.0344554, -0.00031507, -0.0371137, 0.00770557, -0.0427489, -0.0615202, -0.027326, -0.00151598, -0.00551116, -0.0145011, -0.0358592, -0.010143, 0.0379781, -0.0789566, -0.0416824, -0.0184282, 0.0255408, -0.0796242, -0.0492871, -0.0512925, -0.0428407, 0.0237433, -0.0132487, 0.00480616, -0.0650616, -0.083112, -0.0690926, 0.0125225, -0.00244689, -0.0300288, -0.0302774, -0.0123503, -0.0416387, -0.0491954, -0.0112144, -0.0104237, -0.0355039, 0.00203693, 0.0169134, -0.000602603, -0.024457, -0.0195931, -0.0808811, -0.063789, -0.0378435, 0.0383682, 0.0555786, -0.0121965, -0.0506953, -0.0377456, -0.0224943, -0.0270222, 0.00352967, -0.000160694, -0.0142467, 0.064759, 0.0056361, -0.0732183, -0.0258393, -0.023487, 0.0543985, 0.0193087, -0.0488743, -0.0344892, 0.0199738, 0.00390863, 0.0287573, -0.0213895, -0.0628105, -0.0596836, -0.0365067, -0.0433213, -0.027651, 0.0134914, 0.0086422, -0.0298629, -0.0381732, 0.00817764, -0.023626, 0.00367737, -0.0151752, 0.00894403, 0.0575417, 0.0457263, 0.00291824, -0.062782, -0.0424619, -0.0417742, -0.0322504, 0.00313854, 0.0250878, -0.0383668, -0.0418614, -0.030257, 0.0654656, 0.0255376, 0.0203625, -0.0315449, 0.0313883, 0.0510669, 0.0152354, 0.0369004, -0.0558395, -0.0112107, 0.0115348, -0.0470196, -0.0189673, 0.0189891, 0.0169262, 0.0583612, 0.021045, -0.0255531, 0.0296088, -0.000573993, 0.00615728, -0.00807512, 0.0112206, -0.0328043, -0.00959086, 0.0181619, -0.0141928, -0.0270807, -0.0172074, -0.0327171, 0.0024097, 0.0198704, -0.0288606, -0.0194998, -0.0806479, -0.0869511, -0.0670991, 0.00519705, -0.0411296, -0.00805843, 0.00549734, 0.0262622, -0.733919, -0.141096, -0.0510125, -0.00862646, -0.02095, -0.0195522, -0.0227336, -0.0146784, -0.0764093, -0.0422063, -0.00141919, -0.0979996, -0.0605894, 0.00812101, -0.0825278, -0.0415196, -0.064909, -0.00994861, -0.0330467, -0.110496, -0.0732641, -0.0181227, -0.0177251, -0.0394717, -0.0667253, 0.0132167, -0.0231071, 0.0130283, -0.00792563, -0.0619789, -0.0625641, -0.0629004, -0.0436329, -0.0329785, -0.0307748, -0.0825652, -0.0505577, -0.0683272, -0.0192326, -0.0443273, -0.0204949, -0.103867, -0.0576459, -0.0217443, -0.0888464, -0.063832, -0.129345, -0.055652, 0.0175034, 0.0197523, -0.0642962, -0.0465395, -0.0216302, -0.0278774, 0.0192158, -0.0297738, -0.0258425, -0.0274403, -0.0700935, -0.00885093, -0.0469856, -0.0179842, -0.0721793, -0.0602057, -0.0585959, -0.0471927, -0.0872617, -0.0457723, -0.063279, -0.0914685, -0.0736066, -0.043249, -0.00647831, -0.0483756, -0.0495421, -0.0272635, -0.00992167, 0.0401378, -0.0331351, -0.0934222, -0.0504309, -0.0520622, -0.0598112, -0.0456769, -0.0587952, -0.0783172, -0.0310698, 0.00665021, 0.00955009, -0.0449271, -0.0484887, -0.0581567, -0.0620055, -0.00751996, -0.0257502, -0.0418881, -0.0134047, -0.014387, -0.0134593, -0.00693619, -0.032065, -0.0569303, 0.00248623, -0.0895156, -0.0477314, -0.00730717, -0.0551461, -0.0102233, -0.062299, -0.067296, -0.0146127, -0.0511035, -0.0502872, -0.0394586, -0.0104676, -0.0329893, 0.00365102, -0.0498127, -0.0664908, -0.0579146, -0.070906, -0.0366174, -0.0662147, -0.0470293, -0.0199882, -0.0162042, 0.0204217, -0.0302215, -0.0456423, -0.0254182, -0.0367353, -0.075103, -0.0930115, -0.0192153, -0.00858045, -0.0241605, -0.0530081, -0.0143511, -0.0271633, -0.0480549, -0.0335964, -0.0119911, -0.00859666, -0.0658532, 0.0187473, 0.0409951, 0.003865, -0.0766933, -0.0816439, -0.0738174, 0.0183191, 0.00126755, -0.00889468, -0.0019871, 0.00113118, 0.0129495, -0.0598012, -0.0551168, -0.0801967, -0.00976682, -0.0249326, -0.00655794, -0.036513, -0.0218599, -0.0458437, -0.0750679, -0.0642252, -0.031023, 0.0454789, -0.0285027, -0.073337, -0.0359479, -0.0254927, 0.0176749, -0.00788391, -0.0827411, -0.0605402, -0.0467669, 0.00718033, -0.0410551, -0.0295819, -0.0737782, 0.000780463, -0.0161563, -0.0326312, 0.0192852, -0.00985944, 0.00491095, -0.0305792, -0.00990891, -0.0425211, -0.0327055, -0.04096, -0.0241157, -0.0220391, -0.0471942, -0.00151503, 0.0541687, -0.0529133, -0.0896357, -0.0839441, 0.0199317, -0.00648785, -0.0456297, -0.0630143, -0.0205846, -0.0299184, -0.0309368, 0.00425482, -0.0573291, -0.026713, -0.0100454, -0.00063026, -0.006181, 0.0182189, 0.0290017, -0.0377626, -0.0475123, -0.0469536, -0.0248435, -0.0872579, -0.0628048, -0.0195955, 0.0480359, -0.0683222, -0.0478586, -0.0127604, -0.0289174, -0.0928892, -0.0552596, -0.00253248, 0.0282354, -0.0111045, -0.0667719, -0.0430306, -0.037755, -0.0140948, -0.0423862, -0.0699595, -0.0417651, 0.00753438, -0.00216496, -0.0620422, -0.037009, -0.0526125, 0.0453491, 0.0551244, -0.0639275, -0.0510969, -0.00103331, 0.0106837, 0.0168343, 0.0295243, -0.00451064, 0.000383377, -0.0028404, 0.025457, -0.0124192, 0.0156589, -0.0440764, -0.0544063, -0.0478914, -0.0951439, -0.0447826, -0.0387655, 0.0148354, -0.0250574, 0.0201156, 0.0369194, 0.0406899, -0.00921798, 0.00798786, -0.0444518, -0.0317457, -0.00208366, 0.0304266, 0.00308657, -0.0980274, -0.0417472, 0.0897413, -0.0304772, -0.0634298, -0.0326227, 0.0567123, 0.008883, 0.00123954, 0.0414131, -0.0656211, -0.0396988, 0.0326546, -0.0492802, -0.0179391, 0.00452328, 0.00757074, 0.010584, -0.0259918, 0.00510252, 0.0296125, -0.00127757, -0.0502987, -0.0613985, -0.00889587, -0.0164757, 0.0100963, 0.0329549, -0.0282298, 0.0100896, -0.0101116, 0.00225127, 0.0273592, -0.000880241, -0.0120444, 0.0290434, -0.0183504, -0.060919, -0.0472285, -0.0474586, -0.0789665, -0.0653491, 0.0273148, 0.0178751, -0.751929, -0.1639, -0.0785359, -0.0432866, -0.0123779, -0.0185939, -0.0354077, -0.0528325, -0.082601, -0.0196912, 0.007195, -0.0802517, -0.0494269, -0.0209798, -0.0527731, -0.0555545, -0.012898, -0.0367527, 0.0258505, -0.0498618, -0.00536609, -0.0467272, -0.0873008, -0.0624456, -0.0612509, -0.0573106, -0.0360754, 0.0180706, -0.0473243, -0.0685961, -0.0608678, -0.0505055, -0.0369093, -0.0422832, -0.0483515, -0.109684, -0.0163472, -0.0820282, -0.0662748, -0.0333393, 0.0016216, -0.0384848, -0.0831075, -0.0427598, -0.0537956, -0.083092, -0.0886061, -0.110588, -0.0475878, -0.0516356, -0.0971043, -0.0970401, -0.0450457, -0.0455086, -0.0276806, -0.054896, -0.067012, -0.0131457, -0.0979957, -0.0186597, -0.0424155, -0.017748, 0.0382284, -0.0149338, -0.0150168, -0.0491781, -0.0610106, -0.00284863, -0.0483011, -0.0528427, -0.0314667, 0.0217805, -0.0118277, -0.0673941, -0.065029, -0.0778316, -0.0556742, 0.0331005, -0.00936115, -0.0923398, -0.0604389, -0.0664722, -0.0292645, -0.0647423, -0.0190434, -0.0835921, -0.0694937, -0.0388366, -0.036244, -0.0386899, -0.062903, -0.0319183, -0.062575, -0.0440902, -0.0327313, -0.00832582, -0.00843358, -0.0249524, -0.0222173, -0.0306273, -0.0525258, -0.0239905, 0.000942826, -0.0751334, -0.0552416, 0.00918674, -0.0112944, 0.00978279, -0.0163314, -0.0999264, -0.0145578, -0.0590309, -0.0239496, -0.0308764, -0.0310293, -0.021634, -0.012936, -0.0596153, -0.0649463, -0.00118005, -0.00807428, -0.0668185, -0.0574106, -0.0662886, -0.00492167, -0.0471429, 0.0280228, -0.0256349, -0.0613111, -0.0080781, 0.0158974, -0.0470982, -0.114605, -0.0660249, -0.0216097, -0.030732, -0.0382758, -0.00843441, -0.0480185, -0.0832655, -0.0302734, -0.0277002, -0.075099, -0.0588013, 0.00492251, 0.0691545, 0.0146123, -0.033576, -0.0766217, -0.0818754, -0.0320483, -0.0543543, -0.000602603, 0.00870061, 0.00311017, -0.00243676, -0.0796611, -0.0606377, -0.0619228, -0.0448334, -0.0353184, -0.0223501, -0.026244, -0.0399255, -0.045994, -0.0454242, -0.0520618, -0.0474381, -0.0485015, 0.0315543, -0.0237782, 0.0155383, -0.0171236, -0.0231639, -0.0303323, -0.0336957, -0.0137846, -0.0472432, -0.0404389, -0.0293326, -0.00409222, -0.0022608, 0.00625074, -0.00673187, -0.059301, -0.0405049, -0.0206313, 0.00489569, -0.0103916, -0.00721943, -0.00697529, -0.0338892, -0.075103, -0.0236723, -0.0248355, -0.0627095, -0.00190556, 0.0157146, -0.00234759, -0.0269367, -0.0856392, -0.0514369, 0.00175762, -0.0620923, -0.0279665, -0.021843, -0.0211829, -0.00662172, 0.00519466, -0.0156198, -0.0281936, -0.0416621, -0.0243173, 0.00971091, 0.00776124, -0.0191953, -0.0354704, -0.0674323, -0.0252919, -0.0199929, -0.0352449, -0.0715054, 0.0132804, 0.031311, -0.0202671, -0.0484614, -0.053202, -0.0457904, -0.0571578, -0.072943, -0.0140086, -0.0100352, 0.00253344, -0.057482, -0.00422895, 0.0519335, -0.000933528, -0.0565808, -0.0752463, -0.0359669, -0.0576968, -0.0160265, -0.0286163, -0.000288725, -0.0219769, 0.0147458, 0.0682266, -0.0150698, -0.0448323, 0.0199085, -0.01112, 0.0426527, -0.0182421, 0.00256979, 0.00283051, -0.021072, 0.0294, 0.0255703, -0.00965118, -0.0178617, -0.0601315, -0.0552288, -0.0443624, -0.0177165, -0.0460368, -0.00111926, -0.0297091, 0.000826478, -0.0255802, 0.02051, 0.0327228, -0.0213158, -0.0335065, -0.0208375, -0.034512, -0.00362945, 0.0111201, -0.0553769, -0.0161188, 0.0970933, 0.0349571, -0.0725797, -0.0618786, 0.0519829, -0.0108414, -0.00495732, -0.00242686, -0.0494388, -0.0363152, -0.00912523, -0.0180339, -0.0738075, -0.037997, 0.00851893, -0.0319271, -0.0217388, 0.0108994, 0.0489553, -0.00488365, -0.0110847, -0.0578964, -0.00672162, 0.00134706, 0.0285609, -0.00305367, 0.0256696, -0.00105071, -0.0370045, -0.00662076, 0.0544664, 0.00833762, -0.0104264, 0.0467254, -0.0137542, -0.0309672, -0.0539796, -0.0379481, -0.102437, -0.0549634, 0.0114088, 0.02907, -0.6937, -0.151922, -0.0765011, -0.0391968, -0.0440427, -0.0154732, -0.0495316, -0.107122, -0.0885494, -0.0482121, -0.0131527, -0.0744889, -0.0817575, -0.0380726, -0.0476909, -0.0817902, -0.088164, -0.0467678, -0.0105484, -0.0502243, -0.0287058, -0.0378045, -0.086436, -0.0982515, -0.0941972, -0.0514941, -0.0729238, -0.0286045, -0.0796933, -0.0678654, -0.0300486, -0.0253305, 0.0103785, -0.0486534, -0.0557572, -0.0697105, -0.0052706, -0.0688381, -0.0945281, -0.0559657, 0.0375364, 0.0104741, -0.109229, -0.0476499, -0.0744685, -0.0563627, -0.00932372, -0.113942, -0.0383598, -0.05286, -0.0304425, -0.0896872, -0.0686954, -0.0564632, -0.0701005, -0.0745088, -0.00487936, -0.0314584, -0.0422287, -0.0508898, -0.0390903, -0.0682831, 0.0138954, -0.00230896, -0.0116116, -0.066403, -0.0668179, 0.0143691, -0.0147909, -0.0349729, -0.0822897, 0.00547361, -0.0108683, -0.0531579, -0.070992, -0.0907785, -0.0419824, 0.0140743, -0.0618966, -0.0449138, -0.0469885, -0.0110359, -0.0173173, -0.0947906, -0.078414, -0.040441, -0.019291, -0.0480058, -0.025687, -0.0516784, -0.02284, -0.00512695, -0.0521963, -0.0777116, -0.0338445, -0.0255841, -0.00875974, 0.0137143, -0.0157435, -0.000927806, -0.00887871, 0.00501192, -0.0370814, -0.0334311, -0.00747442, 0.0391114, -0.0790281, -0.0153614, 0.000795484, -0.0328552, -0.0394394, -0.0473708, -0.0421858, -0.00324535, -0.0195768, -0.039961, -0.0359316, -0.0747005, -0.0616169, 0.00766957, -0.0116698, 0.0115097, -0.0254241, -0.0695544, -0.0369393, -0.00450766, -0.00791085, -0.0110897, -0.0699785, -0.00212479, -0.0404761, -0.013128, -0.0888486, -0.0483569, -0.0348668, -0.0460008, -0.0674332, -0.0111841, 0.00828099, -0.0444943, -0.0610694, -0.0233582, -0.0893703, -0.0879734, -0.0632675, 0.00306499, -0.00401545, -0.0603354, -0.0912362, -0.0668457, -0.0436025, -0.07332, -0.0595297, 0.017516, 0.0491819, 0.00723732, -0.0748559, -0.0484159, -0.0547184, -0.080876, -0.0662863, -0.00305235, -0.00905967, -0.047664, -0.0847421, -0.0437469, -0.0805324, -0.0388709, -0.0271864, 0.0429195, -0.0348511, -0.000853658, -0.0511639, -0.0200402, -0.0545077, -0.016867, 0.0420331, -0.0106072, -0.0604328, -0.0716761, -0.0893581, -0.0353234, 0.0113873, 0.0255363, -0.0263636, -0.0622187, -0.0823451, -0.0332829, -0.044513, 0.0451874, 0.000140786, -0.0916765, -0.079832, -0.0551462, -0.0102293, -0.0453963, 0.0244255, 0.024592, 0.00125968, -0.00210977, -0.0209324, -0.0474309, -0.0224864, -0.0508591, -0.0307055, -0.0160842, 0.0110619, -0.0135381, -0.0751858, -0.0225079, -0.035513, -0.0255398, -0.0418723, 0.0310841, -0.0203398, -0.0567856, -0.0210565, -0.0749114, -0.0578086, -0.0636773, -0.0122775, -0.0273911, -0.0814196, -0.0407009, -0.00859249, 0.0139275, 0.0182756, -0.0319908, 0.0236444, -0.0284373, 0.0224426, -0.0223655, -0.0108827, -0.0419046, -0.0432885, 0.0894763, -0.039362, -0.0499475, 0.0120366, 0.0247911, -0.0617824, -0.0444503, -0.0260416, -0.0228524, -0.0489051, 0.000198841, 0.0236069, -0.0120034, 0.00323641, -0.0494473, -0.0240716, -0.0335801, -0.0487208, -0.0252001, -0.0337472, -0.0245631, 0.00497723, 0.0197191, -0.00386786, -0.00120091, -0.0746011, -0.0518836, -0.0963143, -0.0357919, 0.000595093, -0.00341046, -0.00372541, 0.0194688, -0.0722795, -0.00467491, 0.0147151, -0.0342339, -0.0132759, 0.0192338, -0.0321552, 0.0115347, -0.0376782, -0.00188124, -0.00611854, 0.0414283, -0.0278941, -0.0143142, -3.09944e-06, 0.0723877, -0.0274476, -0.0263531, -0.0284828, -0.0450189, -0.00393474, 0.0221617, 0.00296998, -0.0511034, -0.0394661, -0.00578547, -0.0832937, -0.034448, -0.042804, -0.00149608, -0.0788511, -0.0689164, -0.0705935, 0.00794601, -0.0196067, -0.0286921, -0.0410124, -0.00551605, 0.0041697, -0.0682201, -0.040848, 0.0267948, -0.0162418, 0.00693059, 0.0607668, 0.023827, -0.00604522, -0.00204813, -0.035225, -0.053937, -0.0278697, 0.0461535, 0.0217253, -0.700601, -0.155028, -0.0789223, -0.0315024, -0.0256251, 0.0103422, -0.0757312, -0.0733991, -0.0547699, -0.0485508, -0.0323181, -0.0303971, -0.0587802, -0.00501955, -0.0482581, -0.0521141, -0.0923798, -0.112125, -0.0612829, -0.0533788, -0.0635835, 0.00952291, -0.0173694, -0.0950247, -0.0673716, -0.0321264, -0.0279548, -0.028245, -0.0391325, -0.0776962, -0.0617929, -0.0989081, -0.0583408, -0.0309253, -0.0809208, -0.0496409, 0.0225425, -0.0142348, -0.0703858, -0.0614769, 0.019978, 0.023441, -0.0629214, -0.0479639, -0.0223522, -0.0266467, 0.0247916, -0.0458404, -0.103754, -0.0707102, -0.042374, -0.022193, -0.0658238, -0.0973757, -0.070393, -0.0541179, -0.00769937, -0.0444767, -0.0542586, -0.0691955, -0.0151511, -0.0666879, -0.0613296, 0.00470781, -0.0710921, -0.0574746, -0.0927644, -0.0389531, 0.004426, -0.0654377, -0.0986746, -0.0678586, -0.0604279, -0.0170964, -0.0875317, -0.108285, 0.00200236, -0.00485075, -0.0972487, -0.0873023, -0.048728, -0.00178492, -0.0177953, -0.0245756, -0.0744704, -0.0586179, -0.0191114, -0.056393, -0.00920963, -0.0595518, -0.0182096, -0.0464733, -0.0505425, -0.0811062, -0.0732892, -0.0694911, -0.0615765, -0.0234872, -0.0389113, -0.0599574, -0.00208664, -0.0140656, -0.0577322, -0.0527141, 0.00604594, -0.0240663, -0.0818192, -0.0709517, 0.00297177, -0.0117055, -0.0192587, -0.0397427, -0.0453585, -0.0386215, -0.00827813, -0.0210859, -0.0615637, -0.0659835, -0.0870223, -0.0061754, -0.0504282, -0.0389744, -0.0586072, -0.0391489, 0.007424, -0.0131509, -0.0136517, -0.0177962, -0.0428092, -0.0221874, -0.0465728, -0.0692877, -0.0414907, 0.0220823, -0.0150725, -0.0628037, -0.0529569, -0.0076493, -0.0529715, -0.0137529, 0.00435793, -0.0265518, -0.0502996, -0.0798762, -0.0426359, -0.0186876, 0.0211567, -0.0275973, -0.0761575, -0.0527979, -0.0402265, -0.064294, -0.109489, -0.0216668, -0.00762439, 0.0139976, -0.0534748, -0.00666142, -0.00796998, -0.0434301, -0.00902307, -0.00206304, 0.0252829, -0.0609547, -0.0537403, 0.00316274, -0.074646, -0.0163282, -0.0380132, 0.0300645, 0.00503886, 0.00482845, -0.0667337, -0.0365734, -0.0862559, -0.0127372, -0.0105219, -0.0048269, -0.0155381, -0.034798, -0.0772086, -0.0281866, -0.0321276, -0.0103451, 0.00722229, -0.0260189, -0.0796348, -0.0370481, -0.0172883, 0.0514423, -0.00572705, -0.0796059, -0.061432, -0.0886403, -0.0601543, -0.0603054, 0.0113121, 0.0553627, 0.00227475, -0.0458401, -0.03539, -0.0318975, -0.0470871, -0.0256457, -0.0764301, -0.0462698, -0.002473, 0.0192511, -0.005229, -0.0187821, -0.000341058, -0.0240945, -0.0231298, 0.0176553, 0.0114042, -0.0332047, 0.015977, -0.0156169, -0.0393815, -0.0955322, -0.0291765, 0.0198439, -0.0126617, -0.0418831, -0.0021162, -0.00144696, -0.00690281, -0.0370921, 0.0216663, -0.0124567, -0.0738589, -0.0402594, 0.0270044, -0.019869, 0.00393438, 0.0978763, -0.0164732, -0.0353802, 0.0482969, 0.0181826, -0.0498797, -0.0465318, 0.0161269, 0.0255926, -0.00271106, -0.0152589, -0.0700405, -0.017321, 0.00522745, -0.0115087, 0.0358512, -0.0168799, 0.00245631, 0.0116953, 0.0185728, 0.0353566, 0.0366385, 0.0441017, 0.000344157, -0.00995779, 0.0128791, -0.00614715, -0.0392754, -0.0144132, -0.00379944, 0.00439763, 0.0067364, 0.0564927, -0.0371083, 0.0124269, -0.0170947, -0.0718479, 0.0020901, -0.0048095, -0.0261594, -0.020753, -0.026955, 0.000738859, -0.00150084, -0.00941825, -0.0963933, -0.0632557, 0.00684786, 0.047366, -0.0063256, 0.02434, -0.0352843, -0.0409428, -0.0400678, 0.0554873, 0.0184127, -0.0424503, -0.00080359, -0.0262372, -0.0176494, 0.0226852, -0.0133169, -0.0048641, -0.0662044, -0.0676486, -0.0803288, 0.0186064, -0.0287324, -0.0141054, -0.0410057, -0.00572336, -0.0384796, -0.0569146, -0.0705703, -0.0516964, -0.0866934, -0.0270729, -0.0161921, -0.0242648, -0.0138011, -0.0272752, 0.00655198, -0.0777088, -0.0522592, 0.0162208, 0.0147263, -0.671222, -0.110228, -0.0539838, -0.0100836, -0.00170946, 0.00937688, -0.0503004, -0.0608643, -0.00122952, -0.0544434, -0.0724452, -0.0573633, -0.0461375, -0.00406599, -0.0187764, 0.00091362, -0.0167478, -0.0705717, -0.0402794, -0.0554537, -0.0651525, -0.00499082, 0.0039072, -0.0843451, -0.072631, -0.0778922, -0.0417114, -0.00397503, -0.0316193, -0.00870275, -0.00390899, -0.0703163, -0.0715237, -0.0910342, -0.130648, -0.0953827, -0.0511514, -0.0131505, -0.00356996, -0.0563024, -0.00690079, 0.0158453, -0.0525956, -0.062575, -0.00685537, -0.0395933, 0.0272688, -0.0132015, -0.0559492, -0.0663935, -0.0774485, -0.0349373, -0.0604775, -0.0978214, -0.0922689, -0.0269551, -0.0443422, -0.0687081, -0.0943953, -0.0349207, 0.028958, -0.04703, -0.0265729, -0.0171022, -0.0599841, -0.0738516, -0.0383123, -0.0109051, 0.0452095, -0.0387554, -0.0440481, -0.0719491, -0.0420901, -0.0284387, -0.0403686, -0.0722495, -0.016608, -0.0184894, -0.0911504, -0.0569174, -0.0573426, -0.046425, -0.0678118, -0.0258452, -0.025367, -0.0857126, -0.0423641, -0.0711669, -0.0583521, -0.0571152, -0.0207238, -0.0440209, 0.00136328, -0.0436541, -0.090773, -0.0703763, -0.0290576, -0.0678136, -0.0126688, -0.0602205, -0.0450568, -0.0683709, -0.0669432, -0.00734651, -0.017254, -0.0693387, -0.0732703, -0.10767, -0.0335249, -0.0774983, -0.0481466, -0.00646842, -0.00235462, 0.00535595, -0.0392095, 0.00567639, -0.0300201, -0.0348289, -0.0489084, 0.0151017, 0.00849783, -0.024387, -0.10458, -0.0541039, -0.00754404, -0.0489125, -0.0336323, -0.0366629, -0.0260814, -0.00292242, -0.0258772, -0.0779328, -0.0600522, 0.00462389, -0.0002985, -0.0703902, -0.0390437, -0.0461911, -0.0810193, -0.0501653, -0.0117941, -0.0584173, -0.0261037, 0.00398755, -0.0299729, -0.00281096, -0.0230449, 0.00357175, -0.0123242, 0.00218737, 0.0111549, 0.000505447, -0.0780139, -0.0187204, -0.00978017, -0.0233426, -0.0507424, -0.0557456, -0.0160053, -0.0392166, -0.0582614, 0.0430152, -0.0192069, -0.0232776, -0.056861, 0.00462246, -0.0487212, -0.0268606, -0.046416, -0.0243386, -0.00813377, 0.00118709, -0.011729, -0.0145638, -0.0425119, -0.0207592, 0.0065645, 0.00917995, -0.038913, -0.0219278, -0.0759578, -0.0638683, -0.0153383, -0.000866652, -2.86102e-05, -0.0765207, -0.027416, -0.0253202, -0.0273855, 0.0223101, -0.000895023, -0.0135475, 0.00829768, -0.0662286, -0.0966968, -0.0622537, -0.071979, 0.0279459, -0.0060364, -0.0463971, -0.0403851, -0.0168934, 0.00240445, 0.0140796, -0.0546526, -0.0707784, -0.00858772, 0.0307413, 0.0107675, -0.0233999, -0.0142452, -0.0276117, -0.0210443, 0.0092783, -0.0146912, 0.0184157, 0.0120283, -0.0305293, -0.00381398, -0.0965877, -0.0666093, 0.00649333, 0.0118713, -0.0149462, 0.0198581, 0.0168625, -0.00978124, -0.0573435, -0.000193238, -0.0160105, -0.099225, -0.0978649, -0.0151176, -0.0154266, -0.0280898, 0.0443077, -0.0234072, -0.0199757, 0.0446095, 0.0119985, -0.0105448, -0.0172999, -0.00635743, -0.0186695, 0.0127571, 0.0136786, -0.0652848, -0.0361069, -0.0111023, 0.0326596, 0.0201597, -0.0102516, 0.0216331, -0.00209904, 0.0159938, 0.00134075, 0.00288677, 0.058217, -0.0138152, -0.0446848, -0.00712359, -0.00417495, 0.00284863, 0.0109454, 0.0120095, -0.0190818, 0.00953436, -0.0218381, -0.0194336, 0.0324876, -0.00219285, -0.0824746, -0.00153971, -0.0450503, 0.0308464, -0.0334021, -0.018669, 0.0466732, 0.0196657, 0.0279616, -0.0250657, -0.0199373, -0.0150261, -0.0333534, -0.0165461, 0.0259334, 0.010331, -0.0323509, 0.00166452, 0.0519718, 0.0407457, -0.0128996, 0.0292355, 0.00380719, -0.0325009, 0.00633466, 0.0597335, 0.0352877, -0.0160196, -0.0544474, -0.0270082, -0.0135627, -0.0721835, -0.0340353, 0.0315572, 0.00530136, 0.0364612, 0.0020436, -0.0186985, 0.010156, -0.0568678, -0.0497755, -0.0447041, -0.0798736, -0.0547369, -0.0668166, -0.00772548, -0.0333136, -0.0281042, -0.0664593, 0.0144919, -0.687066, -0.0652848, -0.0331295, -0.0103493, 0.0210041, -0.0195398, -0.0399363, -0.0701939, -0.00463414, -0.0527198, -0.0672032, -0.0437316, -0.0473713, -0.0100389, -0.0450022, -0.06177, -0.0157009, -0.0319239, -0.0358238, -0.0381575, -0.0710808, -0.0135574, 0.0791385, -0.0698458, -0.0382122, -0.121825, -0.0722158, 0.0161667, -0.0438262, -0.0473987, -0.0307404, -0.0119394, -0.0171244, -0.0954304, -0.078705, -0.120388, -0.0906817, -0.0296804, -0.038505, -0.0594528, -0.0380319, -0.0630953, -0.0782777, -0.0631551, 0.00381458, -0.0882648, -0.0607655, -0.0274733, -0.0179489, -0.0692033, -0.050109, -0.0488954, -0.0529706, -0.0336524, -0.0286123, -0.00887334, -0.034681, -0.0651019, -0.0599362, -0.0122905, -0.0313088, -0.0288864, 0.00671637, 0.00051558, -0.0762709, -0.0791166, -0.0537757, 0.0158879, -0.0299537, -0.0742679, -0.0434217, -0.0513692, -0.0245615, -0.0334514, -0.0636152, -0.0335586, -0.023255, -0.0455186, -0.0677444, -0.0335488, -0.0171816, -0.0380068, -0.049047, -0.0466372, -0.0231324, -0.0501291, -0.0213902, -0.0136693, -0.0734816, -0.080539, -0.0417333, -0.0251454, -0.00768673, 0.0441885, -0.0525763, -0.0485636, 0.0133181, -0.0775549, -0.0719699, -0.0361086, -0.0804781, -0.0765735, -0.0709238, -0.0214409, -0.0557861, -0.107281, -0.081058, -0.0941941, -0.0258875, -0.0937028, -0.103958, -0.0483042, -0.038798, -0.00695837, -0.0522541, -0.037349, -0.0543774, -0.0647912, -0.0302488, -0.071203, 0.00749242, -0.00871265, -0.0537064, -0.0782559, -0.000456333, -0.037115, -0.0197811, -0.030413, -0.00428808, -0.0202134, -0.0188007, -0.0301036, -0.0151442, -0.00993824, -0.0501148, -0.0466403, -0.0191263, -0.0343356, -0.0508503, 0.00604928, -0.0457473, -0.0609666, -0.052062, -0.0120118, 0.0357115, 0.0115256, -0.0527204, -0.0387737, -0.0369731, -0.0127864, 0.020406, -0.0814412, -0.0562905, -0.0321345, -0.00535548, -0.0301179, -0.0466752, -0.0896922, -0.0685575, -0.0165913, -0.0479398, 0.0463818, -0.0463231, -0.00524592, -0.090054, -0.0173507, -0.014665, -0.0496557, -0.00613189, -0.0491683, -0.0874966, -0.0522555, -0.0555249, -0.0508714, -0.0641276, -0.0495263, -0.0146374, -0.0168419, -0.050073, -0.0351697, -0.0284883, -0.053319, -0.00214076, -0.0440265, 0.0105268, -0.0893216, -0.0548236, -0.0215122, -0.0344778, -0.0194122, -0.0259267, 0.00703955, 0.0277015, -0.0715693, -0.0756269, -0.0777948, -0.0339278, -0.0152038, -0.0232588, -0.0653226, -0.0373734, -0.0631139, 0.0238112, -0.0151066, -0.0218021, -0.0601034, 0.00541103, -0.0603412, 0.0210651, -0.0364898, -0.0398468, -0.061234, -0.0597556, 0.00298357, -0.0406164, 0.0253404, 0.00413847, 0.0361669, 0.0113779, -0.0233485, -0.124182, -0.108722, -0.0399247, 0.0128369, -0.00918174, 0.0388726, -0.0249094, -0.0285712, -0.0188259, -0.0225265, -0.0453871, -0.0187722, 0.00277507, -0.0301472, -0.0718595, 0.00959671, -0.0313901, -0.020151, 0.0117208, -0.0110729, -0.0192958, 0.00255394, -0.0108993, -0.0182598, -0.00315595, 0.00453115, -0.050005, -0.042047, -0.0906547, -0.00153804, 0.00560617, -0.0589852, -0.0397847, -0.0518779, -0.0425924, -0.000819564, 0.0122051, 0.047766, 0.006953, -0.018626, -0.0486541, -0.0294019, -0.0657893, -0.0211495, 0.00986409, 0.00804257, 0.0173717, -0.0176705, 0.0179909, 0.0410228, 0.0400795, -0.0184011, -0.0448977, -0.0421226, -0.00779974, -0.0356032, -0.0140604, -0.00828373, -0.0184399, -0.00833797, 0.0223109, 0.059453, -0.00111413, -0.0263554, -0.0274864, -0.011282, -0.010932, -0.05168, -0.0320607, 0.0383586, -0.0290339, 0.0267578, 0.000317097, 0.024618, 0.00659478, -0.0551726, -0.00656676, 0.0594238, -0.0242325, 0.00112152, 0.0244541, 0.00280476, -0.0723019, -0.074451, 0.00742245, 0.0167638, 0.043663, -0.00606942, -0.00271189, 0.0360312, 0.00563049, -0.0132569, -0.000983357, -0.0565088, -0.0856546, -0.0811998, -0.0494788, -0.00769043, 0.0140288, -0.0517026, -0.00867021, -0.710682, -0.0989801, -0.0408386, -0.0545986, 0.00819445, 0.00878239, -0.0299348, -0.0679694, -0.052102, -0.0805836, -0.0946305, -0.0623968, -0.0496544, -0.037957, -0.0202912, -0.0748434, -0.0329512, -0.0380739, -0.0390078, -0.0775828, -0.0767356, -0.0361502, 0.0422504, -0.0151416, -0.0333216, -0.0457488, -0.0423621, -0.0143393, -0.0555866, -0.0816091, -0.0508919, 0.0361135, 0.0331091, -0.0274907, -0.0635941, -0.112758, -0.0953674, -0.0727663, -0.0857831, -0.0589134, -0.0775172, -0.059364, -0.0891222, -0.0659081, -0.0132716, -0.0740401, -0.10788, -0.039252, -0.0302414, -0.0299493, -0.0332487, -0.0746964, -0.0937809, -0.0457935, -0.0882193, -0.0415784, -0.102232, -0.100597, -0.0696648, -0.0203037, -0.0444834, -0.00960839, -0.00509882, -0.0193423, -0.0578879, -0.0633979, 0.0358243, -0.00955939, -0.0101209, -0.0259535, -0.0678012, -0.0559652, -0.0471722, -0.0309051, -0.0612793, -0.0631655, -0.0726848, -0.0979509, -0.0689515, -0.0609066, 0.00114548, -0.0191312, -0.0526251, -0.00864255, -0.0115633, -0.0813149, -0.0583714, 0.00731421, -0.0658954, -0.0531683, -0.0750017, -0.019774, -0.00145757, 0.00450647, -0.0243787, -0.0217175, 0.0444716, -0.0258199, -0.0745016, -0.0647979, -0.0678347, -0.0334064, -0.0328157, -0.0441808, -0.0452222, -0.0609622, -0.0499418, -0.0917227, -0.00478673, -0.0593238, -0.0752472, -0.0642344, -0.0761412, -0.0290856, -0.0323876, -0.0705197, -0.0950029, -0.0699035, -0.0218546, -0.0916051, -0.0247097, -0.0177884, -0.0508691, -0.0384754, -0.0379761, -0.0157874, -0.0189623, -0.0127649, -0.0256793, 0.0108998, -0.0478914, -0.0744853, -0.0177245, -0.00266635, 0.0169648, -0.0522513, -0.0761787, -0.0268227, -0.0351475, 0.0214996, -0.0488493, -0.0516932, -0.0656277, -0.0202699, -0.019182, -0.00770926, -0.0551442, -0.0372568, -0.0204234, 0.046844, 0.0094142, -0.0523183, -0.0338781, -0.0356575, -0.0763044, -0.0104938, -0.0354609, -0.0673461, -0.0935545, -0.0517118, -0.0490406, -0.0174217, -0.0354474, -0.0224873, -0.0500726, -0.0116144, -0.0365851, -0.039392, -0.00126612, 0.00198615, -0.0252669, -0.0549012, -0.0618161, -0.0148977, -0.0371398, -0.039476, -0.0249212, -0.011067, -0.0337439, -0.0678917, -0.045161, -0.0301825, -0.0383708, -0.0141503, -0.0153083, -0.0875714, -0.0290807, -0.0631876, -0.0531251, -0.0482531, -0.0379667, 0.00895703, 0.0205896, -0.0552688, -0.0755457, -0.0725027, -0.0121714, -0.0342546, -0.0480833, -0.044585, -0.00866783, -0.0622706, -0.0165964, -0.0412897, -0.0781533, -0.0498707, -0.0272088, -0.0709126, -0.0172124, -0.0395732, -0.0245943, -0.073597, -0.0501306, -0.0642214, -0.0185561, 0.0226699, -0.0391072, 0.00539446, 0.0158801, 0.0291554, -0.0642067, -0.0813025, -0.090639, -0.00723934, 0.019318, 0.0130278, -0.0190253, -0.0302999, -0.0587626, -0.0868303, -0.103304, -0.0334381, 0.000933647, -0.0341409, -0.0301704, 0.0319104, 0.0416179, 0.00424671, 0.0267279, -0.0752949, -0.00353742, -0.0332968, -0.0101122, -0.0434304, 0.0220562, -0.00600958, 0.00350106, -0.0126767, -0.0574328, 0.0211229, 0.00560606, -0.0336059, 0.021814, -0.0475609, -0.0520742, 0.00172114, 0.0115786, -0.017171, 0.0262654, -0.00249147, 0.0205902, -0.0330971, -0.037408, -0.0586393, -0.00325084, 0.0253798, 0.0262734, -0.0586689, -0.03574, -0.0264528, 0.0210743, -0.010532, -0.0119811, -0.0124341, 0.0267456, -0.0100783, 0.00783825, 0.00721049, -0.0642525, -0.0408696, 0.00134289, 0.0212294, -0.0117506, -0.0324001, -0.028361, 0.00224984, 0.0143975, -0.0291497, -0.0445696, -0.00857306, 0.0146258, 0.0253527, -0.00323689, -0.00117552, 0.0207219, -0.0164596, -0.0242122, -0.00321567, -0.0596811, -0.0310836, 0.0278467, 0.0519879, 0.0169393, -0.00902379, -0.0319947, -0.0346128, 0.00356865, -0.011495, -0.0316552, 0.0132233, 0.0276785, 0.0302169, 0.0228573, 0.0143065, -0.0431468, -0.0349449, -0.0189508, -0.049112, -0.0654433, -0.0354503, 0.0370128, -0.729601, -0.0833577, -0.0354966, -0.062024, -0.0487007, 0.0106627, -0.0712899, -0.0551454, -0.0578771, -0.0694731, -0.0679414, -0.0226902, -0.0719615, -0.0676087, -0.0658537, -0.0690373, -0.000597835, -0.0389119, -0.04206, -0.0757366, -0.0953763, -0.0680015, 0.0131553, -0.0305628, -0.088341, -0.024412, -0.0116019, -0.0750246, -0.0881579, -0.12048, -0.0751675, 0.00684035, 0.0449255, -0.00272107, -0.0192735, -0.0170184, -0.0456669, -0.0501171, -0.077125, -0.0369358, -0.0186875, -0.0370179, -0.0237671, -0.0876821, -0.0212885, -0.0633523, -0.069906, -0.0601686, -0.0565398, -0.0223551, -0.0483997, -0.0539516, -0.0451831, -0.0297773, 3.83854e-05, 0.00194776, -0.072554, -0.0634713, -0.0403969, -0.0377581, -0.0595093, -0.0109638, -0.0625069, -0.0898088, -0.0709356, -0.0677145, -0.0313994, -0.021011, -0.0295132, 0.0241734, -0.0249637, -0.024807, -0.0761768, -0.0427343, -0.0460684, -0.0380558, -0.0594519, -0.0655515, -0.0707333, -0.0214263, -0.0570195, -0.0376786, -0.0651271, -0.00741208, -0.0591781, -0.0728501, -0.0626314, -0.0248317, -0.0660799, -0.0578555, -0.0651771, -0.0259326, -0.0206779, -0.0357559, -0.0401486, -0.0563256, 0.0687081, -0.0276649, -0.0621293, -0.0768484, -0.0325223, -0.0295625, -0.0323846, -0.0144863, -0.00383937, -0.0175838, -0.0293798, -0.0493314, -0.0467358, -0.0553234, -0.0375379, -0.00727904, -0.037957, 0.0166513, -0.0234917, -0.0189638, -0.0671333, -0.0351005, -0.0276394, -0.0273876, -0.0214766, 0.0176111, -0.0347379, -0.0644397, -0.0350109, -0.0782694, -0.0128261, -0.0522751, -0.0212276, 0.0223482, -0.0254589, -0.105242, -0.0865989, -0.0614105, 0.0384638, -0.0138863, -0.0542634, -0.0216298, -0.04023, -0.022554, -0.0545068, -0.0651622, -0.0696837, -0.0129368, -0.00374246, -0.0232704, -0.0960236, -0.0853816, -0.0276036, 0.0410253, -0.022866, -0.0809392, -0.0175569, -0.0264695, -0.0197517, -0.0291195, -0.0408146, -0.0628929, -0.0697526, -0.0424124, -0.0476588, 0.0209264, -0.0191227, -0.0280435, -0.0507555, -0.0157917, -0.0230086, -0.000460625, -0.00395405, -0.0377387, -0.00394237, -0.0180571, -0.0694968, -0.0492224, -0.021371, -0.0663211, -0.0586157, -0.0244086, -0.00504231, -0.046307, -0.0144236, -0.0410916, -0.031167, -0.0553805, -0.0546786, -0.0844519, -0.0258293, -0.0108206, -0.0601311, 0.000304818, -0.0101351, -0.0481436, -0.048555, -0.0640286, -0.0658913, -0.0450195, -0.028424, -0.062153, -0.0886168, -0.0530605, -0.0355356, -0.0580964, -0.0523572, -0.0503231, -0.0615908, -0.0536343, 0.00415969, -0.0930842, -0.0481756, -0.0186539, -0.0262898, -0.0319262, -0.0604845, -0.0995445, -0.0558089, 0.0364356, -0.0338447, -0.0175356, 0.0338421, 0.015183, -0.0657532, -0.0578678, -0.0430523, -0.0356101, 0.00785816, -0.0256691, -0.0343833, -0.0159767, -0.0361707, -0.0786407, -0.0871311, -0.0350698, -0.00741601, -0.0778642, -0.0520662, -0.0186963, 0.00852954, 0.0241928, -0.0105302, -0.0568098, -0.0131419, -0.0328026, -0.0189229, -0.00771999, -0.0192119, -0.00988841, 0.0172837, 0.0104444, -0.0322922, -0.0118358, -0.0365005, -0.0419182, 0.06275, 0.00904679, -0.0234311, 0.00237489, 0.0343189, -0.0718188, -0.0149751, -0.0314311, 0.0232974, -0.0472206, -0.0129576, -0.0338726, -0.0401741, 0.0203327, 0.000897765, -0.0480431, -0.0167394, -0.0563762, -0.0486283, -0.0103183, -0.0428081, 0.00721979, 0.0193529, -0.0248187, 0.0388868, 0.0194901, -0.016625, -0.0624458, -0.0503509, -0.0139767, -0.0624912, -0.0488269, -0.00433528, 0.00619614, 0.0111867, 0.0017072, -0.0633641, -0.0522203, -0.0210196, 0.0189872, -0.00944889, -0.00124073, 0.0309308, 0.0296255, -0.00514388, -0.0586458, -0.0557739, -0.0518326, -0.0406469, -0.00670266, 0.000741124, -0.0111828, 0.00135708, -0.0225785, 0.00729477, 0.00640905, -0.0270357, -0.0120132, -0.0071739, 0.0416588, 0.032928, -0.00858617, -0.033694, -0.0142366, 0.0151864, -0.0899234, -0.0750729, -0.0897505, 0.0182736, -0.71571, -0.094101, -0.0587339, -0.0464315, -0.0665339, -0.0129037, -0.0435877, -0.0109693, -0.0972621, -0.0563492, -0.0588565, -0.00975883, -0.0421983, 0.0166215, -0.0548247, -0.078781, -0.00723338, -0.0151315, -0.0299964, -0.0717841, -0.0585513, -0.114661, -0.00663006, -0.0880094, -0.00248528, -0.0120173, 0.0353786, -0.0696641, -0.0977348, -0.116677, -0.0905578, -0.0250219, 0.00193667, -0.0360657, -0.0791886, -0.0132999, -0.00937378, -0.0296339, -0.045419, -0.0769478, -0.0101553, -0.0207502, -0.0180185, -0.0538267, -0.0204954, -0.00996983, -0.0846171, -0.0420754, -0.0683986, -0.0485651, -0.0661366, -0.0176512, 0.0156602, -0.0672706, -0.0159829, -0.00785697, -0.0149146, -0.0845857, -0.0226569, -0.0487944, -0.0681901, -0.00702345, -0.0635432, -0.0674741, -0.0816482, -0.0594189, -0.11094, -0.0563698, -0.0684156, -0.0720441, -0.0480593, -0.0108161, -0.0740825, -0.0496695, -0.0217887, -0.033298, -0.039708, -0.0608226, -0.0309681, 0.00848246, -0.0553869, -0.0839138, -0.0555415, 0.00552332, -0.0168483, -0.0421571, -0.0334947, 0.0255893, -0.0648434, -0.110808, -0.0452884, -0.0356266, -0.0741478, -0.0587416, -0.0524201, -0.0862375, -0.0219268, -0.000618815, -0.0775656, -0.0727171, -0.0309618, -0.0389913, -0.0878451, -0.0225171, -0.0464137, -0.00621116, -0.0166597, -0.0437216, -0.0990137, -0.0857775, -0.081297, -0.0401495, -0.0772647, -0.0146044, -0.0538287, -0.0507761, -0.0666347, -0.0574787, -0.0418012, -0.0597701, -0.051831, -0.0140811, 0.0165924, -0.0252726, -0.0633568, -0.0948159, -0.0798193, -0.0525512, -0.0776459, 0.0107141, 0.0115333, -0.0513313, -0.108959, -0.0445904, -0.00634456, -0.0517461, -0.029519, -0.0274943, -0.0256708, -0.0472465, -0.0210099, -0.05396, -0.0729626, -0.0421029, -0.022586, 0.000401616, -0.0743512, -0.0836203, -0.0236759, 0.0150145, -0.00743508, -0.0589548, -0.0645752, -0.0325578, -0.04298, -0.00404358, -0.00400841, -0.0515896, -0.0732142, -0.068903, -0.0343519, -0.0585818, -0.0103084, -0.0184257, -0.0651122, -0.0390421, -0.0127544, 0.0108464, -0.034637, -0.024763, -0.00193584, -0.0353326, -0.0757521, -0.0342106, -0.0423135, -0.0435784, -0.0603431, -0.0410005, -0.014637, -0.0415113, -0.0284441, 0.00994349, 0.00118339, -0.0470262, -0.0703565, -0.0620776, -0.0711071, -0.051838, -0.000111222, -0.00582659, -0.0374759, -0.0725193, -0.0403115, -0.0840118, -0.0857115, -0.0298339, -0.0266904, -0.0392181, -0.041829, -0.020919, -0.00583851, -0.0579222, -0.0438358, -0.0284216, -0.00850022, -0.0240436, 0.00899863, -0.0710173, -0.047053, -0.0254897, -0.00155509, -0.00664151, -0.0536653, -0.0579921, -0.0486374, 0.00534296, -0.0207324, -0.0467099, 0.00530589, -0.0447344, -0.0809323, -0.0709159, -0.0210853, 0.000146747, -0.00794792, -0.0247622, -0.0225387, -0.0172837, 0.00205147, -0.0637187, -0.0687127, -0.0323622, 0.019686, -0.0589422, -0.0282681, -0.028587, -0.0138917, 0.0397491, 0.0141442, -0.012549, 0.00881088, -0.00676334, -0.0009408, -0.0278711, -0.00703132, 0.0144041, 0.039426, -0.0177003, -0.0362719, 0.00197542, -0.000245571, -0.0254154, -0.0319206, -0.00625598, -0.0113045, -0.00923789, 0.0487632, -0.0246994, -0.0159038, -0.0264065, -0.0479614, -0.0664281, -0.0717741, -0.0565454, -0.0176275, 0.00533545, -0.0630941, -0.0230497, -0.00376964, -0.0051533, -0.0369595, -0.00512493, -0.0544447, -0.0316589, -0.0608239, -0.0539691, 0.0511386, 0.0205621, 0.00915837, 0.0116308, 0.000716329, -0.0284938, -0.0618025, -0.0400332, -0.000975966, 0.0729896, 0.0328468, 0.0101469, -0.031105, -0.0469162, 0.00279319, -0.0498315, -0.0100694, -0.0422401, 0.00442064, -0.00131178, 0.00980675, -0.0273144, -0.023825, -0.00813115, -0.00410712, 0.00266123, -0.0460063, -0.0136728, -0.020792, -0.0108049, -0.00600898, -0.00354254, -0.0124432, -0.0181626, -0.043407, -0.0491427, -0.0039041, -0.00700414, 0.00951993, -0.0461608, 0.00413525, -0.0879335, -0.111556, -0.0762793, -0.0363584, -0.67989, -0.0934902, -0.0299715, -0.00498128, -0.0659318, -0.0622377, -0.0522231, -0.0244966, -0.0832868, -0.0855942, -0.0614834, -0.0477519, -0.0509859, 0.00171006, -0.0484455, -0.0811213, -0.0424879, -0.00783229, -0.0437999, -0.0829433, -0.0101811, -0.101371, -0.0271144, -0.0517459, -0.0278308, -0.0329554, 0.0337218, -0.00281334, -0.0592386, -0.0899523, -0.0597805, -0.0282916, -0.0245067, -0.0207515, -0.0883706, -0.0201962, -0.0213106, 0.00778568, -0.0543845, -0.0557079, -0.0290774, -0.0493027, -0.0632505, -0.0738641, -0.0298494, -0.0678296, -0.0454607, -0.0375569, -0.0709174, -0.0550073, -0.071398, -0.0214158, -0.0486979, -0.0620114, -0.0439353, -0.0335653, -0.0166264, -0.0575044, -0.0349725, -0.0141751, -0.0612887, -0.0254385, -0.0906355, -0.0574808, -0.020869, -0.0592991, -0.0436822, -0.0350494, -0.0537956, -0.0739013, -0.079371, -0.00999653, -0.0788542, -0.068487, -0.0731158, -0.0579903, -0.0212206, -0.0838574, -0.0132905, -0.0429652, -0.0296246, -0.0473382, -0.0219823, -0.016952, -0.0121568, -0.0765343, -0.056414, -0.0076381, -0.0291755, -0.0828878, -0.0525254, 0.000662804, -0.0757128, -0.0449079, -0.00765991, -0.0813968, -0.0365033, 0.000398755, -0.0792284, -0.069087, -0.0446594, -0.0711409, -0.0393717, -0.04906, -0.0584254, -0.0308889, 0.0357823, -0.00568593, -0.0577062, -0.106115, -0.0594295, -0.058093, -0.0475297, -0.0697192, -0.0356123, -0.0401989, -0.0649402, -0.0871774, -0.0121555, 0.00399172, -0.0482975, -0.0654829, -0.0419097, -0.0282617, -0.0412333, -0.104025, -0.0851673, -0.0441779, -0.0776427, -0.0193794, -0.00351381, -0.0150199, -0.0530242, -0.0191486, -0.0208684, -0.0455933, -0.0233541, -0.044705, -0.0407993, -0.0522519, -0.0383636, -0.0508507, -0.112405, -0.0123911, -0.0488394, -0.0343009, -0.0267484, -0.0188292, -0.0300552, 0.00249982, -0.0336999, 0.0130101, -0.0245408, -0.0435784, -0.0100844, -0.0331287, 0.0246962, -0.0461779, -0.0655856, -0.0815538, 0.00760317, -0.0685228, -0.0301725, -0.0448916, -0.0464737, -0.0963453, -0.0142974, -0.0549364, -0.0516148, -0.0413591, 0.0355016, -0.0157102, -0.00830567, 0.031338, -0.0722599, -0.0597396, -0.0552087, -0.0484867, -0.0208849, -0.0293269, -0.0691432, -0.0415657, 0.0142574, -0.0346236, -0.0430182, 0.00129902, -0.0496433, -0.0782869, -0.0248736, -0.0381109, -0.0831201, -0.115082, -0.0403214, -0.0309325, -0.00701392, -0.00990474, -0.00705707, -0.00321603, 0.0392215, 0.0163788, 0.00541568, -0.0410576, -0.0105684, -0.00610638, 0.0403562, 0.0125723, 0.000234365, -0.0575552, -0.0731571, -0.052381, -0.0123037, -0.0319613, -0.0813191, -0.0802647, -0.0321211, 0.00812888, 0.00255597, -0.0203177, -0.0263561, -0.0217539, -0.0693265, -0.0717772, -0.0251985, -0.0419716, -0.0321128, -0.0154058, 0.0197659, 0.00115967, -0.0177298, 0.00458765, -0.0153303, -0.00647366, 0.0475059, 0.0014801, -0.00181758, -0.0309464, -0.0493184, -0.0356623, 0.00207651, -0.00258815, -0.0153704, -0.0106018, 0.00354242, -0.0748142, -0.0302411, 0.022211, 0.0489215, -0.0486944, -0.0641599, -0.0246323, -0.00172651, 0.00501919, -0.0677543, -0.0563198, -0.0106715, -0.0670938, -0.0345627, 0.0431614, 0.0353587, 0.0328724, -0.034269, -0.0217191, -0.064894, -0.0299301, 0.00688696, 0.00705695, -0.0365193, -0.0265288, -0.0253055, -0.0133872, -0.0338469, 0.0186105, -0.0343801, -0.035828, -0.070419, -0.0339761, -0.0217239, 0.00688648, -0.0714481, 0.0509642, 0.0117496, -0.0366378, -0.0544057, -0.0652783, 0.0405596, 0.0503528, 0.0879382, 0.0381348, 0.0114062, -0.0259271, -0.0128518, -0.0317206, 0.0520307, 0.0068928, 0.00536621, -0.00362229, -0.0232717, -0.0307121, -0.0339622, -0.0586653, 0.0189157, 0.033286, 0.0019511, 0.0137333, -0.0511605, 0.000153661, -0.0575891, -0.011887, -0.0307974, 0.0259331, 0.049145, -0.0176499, -0.014695, 0.00510442, 0.0363359, -0.034169, -0.0284424, -0.065744, -0.0740575, -0.024078, 0.0245864, -0.665949, -0.0925295, -0.0114195, -0.0398095, -0.0712283, -0.075054, -0.0532519, -0.0295662, -0.0505847, -0.113414, -0.0652398, -0.0653769, -0.0386007, -0.0223901, -0.0516037, -0.0366274, -0.0557275, -0.0298257, -0.0586253, -0.0470214, -0.0283319, -0.0560876, -0.0933568, -0.0258216, -0.0727768, -0.0711259, -0.0227754, -0.0614941, -0.088801, -0.0721009, -0.0288099, 0.0124562, -0.0560048, -0.0106558, -0.103598, -0.0719417, -0.0254557, -0.0126181, -0.0470557, -0.00984609, -0.020081, -0.0350258, -0.0473635, -0.0332721, -0.0465823, -0.0766388, -0.00943983, -0.0728188, -0.0930436, -0.0659611, -0.0854056, -0.0230471, -0.102821, -0.103637, -0.0539161, -0.0741469, -0.00187123, -0.0225776, -0.0226616, -0.0106547, -0.0258112, 0.00895381, -0.0759099, -0.0663444, -0.0570043, -0.0622442, -0.0511823, -0.0315603, -0.0146288, -0.0497029, -0.089687, -0.0398743, -0.043614, -0.0452467, -0.0609655, -0.0644019, -0.0502763, -0.0445426, -0.0126239, -0.0271335, -0.0500151, -0.0543544, -0.0226887, -0.0487157, -0.0853169, -0.0776832, -0.110754, 0.0152594, -0.0366904, -0.0798532, -0.0190066, -0.0468094, -0.0147744, -0.0283531, 0.00621772, -0.0148083, -0.0583391, -0.0279522, -0.0539033, -0.0425279, -0.0547109, -0.0561163, 0.00201631, -0.00993657, -0.0807878, -0.0488348, -0.0388486, 0.0109845, -0.0160263, -0.00256121, -0.0607185, 0.00557125, 0.0066812, -0.0591874, 0.00129569, -0.0119215, -0.0679603, -0.079688, -0.0310223, -0.0566155, -0.0541751, -0.0338209, -0.0357865, -0.0219947, 0.010546, -0.0491853, -0.0498352, -0.0560478, -0.0285227, -0.0416446, 0.00454414, -0.0162792, -0.041791, -0.0183856, -0.0149643, -0.0506424, -0.0174451, -0.0906428, -0.133964, -0.0666528, -0.0491823, -0.0307914, -0.0743462, -0.0167247, -0.0489668, -0.0531937, -0.0277026, 0.0187856, 0.0107038, 0.00346339, -0.0897803, -0.0606147, -0.0247997, -0.0523586, 0.00263751, -0.0157397, -0.00288665, -0.00903451, -0.0342629, -0.025237, -0.016894, -0.054468, -0.0628124, -0.0580928, -0.047482, 0.00369263, -0.00653291, -0.0527438, -0.0515293, -0.0279114, -0.021211, -0.0194254, 0.00273108, 0.0372479, -0.0623134, -0.127963, -0.0841811, -0.0480295, -0.0201987, -0.00327599, -0.0862354, -0.0803462, -0.0657884, -0.0774186, -0.0141039, 0.0213413, 0.00417829, -0.0389458, 0.00688159, -0.0121462, -0.0811492, -0.0963213, -0.0648408, -0.106141, -0.0623041, 0.000811219, -0.0565498, -0.00408769, 0.0248569, 0.0377095, -0.0413388, -0.0713512, -0.0515592, 0.00385523, 0.00721407, -0.0458968, 0.00635386, -0.049857, -0.0106758, -0.0573641, 0.0265172, -0.0259901, -0.0758963, -0.0544648, -0.0647074, -0.00424981, -0.0388072, -0.0349791, -0.0127205, -0.0227878, -0.0132793, 0.000325441, -0.0201527, -0.0698737, -0.0250852, -0.00572598, 0.0228726, -0.0161837, -0.0811077, -0.0506127, -0.0133296, -0.0102222, 0.0522746, 0.0346773, 0.0100087, -0.0253867, -0.0320554, -0.0362527, -0.0400844, -0.0196763, -0.0374001, 0.0156113, -0.0116012, -0.0373243, -0.0353758, 0.0013845, -0.010003, -0.0392245, -0.0147591, -0.0145394, 0.0236094, 0.0459318, 0.0242263, -0.0265317, -0.0194038, -0.0640072, -0.0692444, -0.000735998, 0.0464936, 0.0207609, 0.017241, -0.0459683, -0.0254987, 0.000901937, -0.00223148, 0.0121433, -0.0394902, -0.0432096, 0.0025264, -0.0143993, -0.0045439, 0.0331641, 0.0146621, -0.0662122, -0.0838493, -0.0163658, -0.0120157, -0.0387185, -0.0289307, 0.0100734, 0.015204, -0.0497836, -0.0708784, -0.0720855, 0.00342381, -0.00539124, 0.0441977, 0.0289112, 0.00476539, -0.0278342, -0.0594826, -0.0343131, 0.046025, -0.00108182, -0.0451496, -0.0051446, -0.0229555, 0.000118971, -0.000104666, -0.0338601, -0.038628, 0.00028491, 0.0123519, -0.0140435, 0.00891137, -0.0596694, -0.0172925, -0.0613697, -0.0318812, -0.00975192, 0.0465288, 0.0153204, -0.00912416, 0.0291791, 0.0213233, 0.0175941, -0.0124656, -0.0181996, -0.094573, -0.0750788, 0.0182132, -0.739575, -0.0496455, -0.0206108, -0.0389361, -0.0682888, -0.0643188, -0.0304049, -0.0114112, -0.0366369, -0.100254, -0.0954103, -0.0561416, -0.0434796, -0.0435854, -0.0429659, 0.00277579, -0.0392421, -0.0566074, -0.0342156, -0.039825, -0.0408914, -0.0514576, -0.0727825, -0.0316281, -0.0898342, -0.0463076, -0.0166526, -0.0851252, -0.0754417, -0.0898169, -0.0553082, -0.00438392, -0.0462987, 0.0119541, -0.0551496, -0.0661694, -0.0173445, -0.0459182, -0.0369773, -0.0709928, -0.0160763, -0.0536339, -0.0596033, -0.0496266, -0.0528903, -0.0398872, -0.0120877, -0.116282, -0.0894613, -0.0412871, -0.0143011, -0.0112069, -0.0440447, -0.0896319, -0.0361277, -0.0824329, -0.03345, -0.0944345, -0.0455531, -0.056556, 0.00493658, 0.00325704, -0.0282444, -0.0468783, -0.0499279, -0.0750288, -0.0598955, -0.0600631, -0.0415287, -0.0624247, -0.0751375, -0.07542, -0.0769684, -0.107759, -0.0681049, 0.00421059, -0.0726924, -0.0444968, -0.0802696, 0.00763047, 0.00581253, -0.0315741, -0.00814235, -0.0108451, -0.0668899, -0.0635467, -0.068995, -0.00929964, -0.0709566, -0.0643983, -0.0686108, -0.0620625, 0.0202665, -0.0203784, -0.0691576, -0.0112308, -0.063319, -0.04922, -0.0564424, -0.0445442, -0.00541246, -0.0731533, -0.0189112, -0.010542, -0.048382, -0.0180941, -0.0626541, -0.0106307, -0.0129148, -0.048574, -0.10561, -0.0499563, -0.051571, -0.0596236, -0.0366818, -0.022084, -0.0477009, -0.0474668, -0.0351962, -0.0723828, -0.05699, -0.0476288, -0.0675356, -0.0175818, -0.0290793, 0.00294745, -0.0516129, -0.0674504, -0.0591712, -0.0259558, -0.0362879, -0.00655329, -0.0168307, -0.0252415, 0.00832891, -0.00384402, -0.00420308, -0.0451217, -0.0847842, -0.0796269, -0.0592741, 0.0198803, -0.0132898, -0.00400221, -0.0599613, -0.0756817, -0.0105208, -0.011555, 0.0415291, 0.0179768, -0.0811131, -0.0792654, -0.0654684, -0.075772, 0.00222039, 0.000986934, -0.0332605, -0.0624299, -0.0484755, -0.0234277, -0.0167233, 0.0112247, -0.0161871, -0.0646448, -0.0692972, 0.020661, -0.0315434, -0.0202193, -0.0680865, -0.0357692, -0.0669146, -0.106324, -0.0122138, 0.0437614, -0.0587564, -0.0979818, -0.0955787, -0.0868242, -0.00935125, 0.0359809, -0.0586289, -0.0626811, -0.0719876, -0.071337, -0.0153099, -0.0224324, -0.0293938, -0.0181053, -0.00598288, -0.036088, -0.0909451, -0.0790956, -0.0394988, -0.0902557, -0.0792903, -0.0622588, -0.0445403, 0.0226661, -0.0187413, 0.0281862, -0.0105143, -0.0792052, -0.0948212, -0.0338925, 0.0219567, -0.0464981, -0.0565407, -0.021033, -0.00590181, -0.0593511, 0.0148537, -0.0336698, -0.0675737, -0.0281726, -0.0308841, 0.00655282, -0.0455488, -0.0586083, -0.0580809, -0.0265725, -0.0294439, 0.00637567, -0.0434431, -0.0437927, -0.0232086, 0.0172139, 0.0142583, 0.00333738, -0.0415872, -0.0488166, -0.0552434, -0.0642265, 0.00592589, 0.0535338, -0.00889516, -0.0660349, -0.0394208, -0.0375727, -0.0290453, -0.0203716, -0.0135722, 0.0239917, -0.0414017, -0.0302906, -0.00681984, -0.0156988, -0.0203347, -0.0487629, -0.0112288, -0.0354991, 0.00835991, 0.0223875, 0.0391648, 0.0171438, -0.00710428, -0.0982725, -0.0793982, -0.0263257, 0.00517249, 0.00244617, 0.000149727, -0.0566061, -0.0688171, -0.0331143, -0.0313522, -0.0302832, -0.0085814, -0.0425123, 0.0383444, -0.0201559, 0.0275087, 0.0287917, 0.129362, -0.045905, -0.0214928, -0.0162627, 0.00939119, 0.0151882, -0.0335171, -0.0211018, 0.0211195, -0.0514623, -0.0564339, -0.0364003, 0.00262833, -0.0286715, 0.0334535, 0.0424069, 0.0164359, -0.0476744, -0.0277333, -0.0423256, 0.0453188, -0.00454843, -0.0355175, 0.021409, -0.0206087, -0.0480115, -0.0129496, 0.0200449, -0.0612897, -0.000504017, -0.0324821, 0.00899482, -0.0252326, -0.0483742, -0.0330522, -0.0734813, -0.0481243, -0.0113126, -0.00534165, 0.0169392, -0.014879, 0.0419214, -0.0280864, -0.0170344, -0.0900041, -0.00479877, -0.0637844, -0.0699775, -0.0208341, -0.776818, -0.0749849, -0.0631887, -0.0519441, -0.105774, -0.0688339, -0.0626887, 0.0121602, -0.00596821, -0.0327709, -0.0461916, -0.0056268, -0.045982, -0.106632, -0.0440209, -0.0346035, -0.0330462, -0.132043, -0.0921326, -0.0385791, -0.0354878, -0.047658, -0.0702282, -0.0483274, -0.0948014, -0.0353138, -0.0100665, -0.0651151, -0.0838767, -0.0523654, -0.0401009, -0.0312452, -0.0964652, -0.0220851, -0.0600637, -0.0268831, -0.0167956, -0.0661649, -0.0252408, -0.0130987, -0.0677041, -0.0764335, -0.0838677, -0.0888236, -0.0743285, -0.0327609, -0.054159, -0.125936, -0.0859119, -0.0673308, 0.00246119, -0.00869656, -0.00129533, -0.0519725, -0.0368636, -0.0416716, -0.0163354, -0.0647427, -0.0683275, -0.0606171, -0.021764, -0.0300707, -0.0018667, -0.0263672, -0.0280252, -0.113115, -0.0713782, -0.0451384, -0.0153657, -0.0386076, -0.0318588, -0.0706304, -0.0539308, -0.122247, -0.0904038, 0.019129, -0.0129344, -0.0731683, -0.0539683, -0.0476032, -0.029452, -0.0714549, 0.00974727, -0.0131409, -0.0714351, -0.0895084, -0.0113299, 0.0218681, -0.012457, -0.076019, -0.0413797, -0.0285677, 0.0469824, -0.016348, -0.102452, -0.0205566, -0.0555445, -0.0363584, -0.066848, -0.059489, -0.0404443, -0.0580459, -0.0687644, -0.00328147, -0.0305666, -0.055867, -0.0331186, -0.00204587, 0.0124493, -0.0509886, -0.0383987, -0.0655904, -0.0442903, -0.0270904, -0.0813453, -0.0521076, -0.0256982, 0.00470436, -0.0167332, -0.0133849, -0.0442964, -0.026994, -0.0497935, -0.0691929, -0.0515271, -0.0364735, -0.0565671, -0.0553967, -0.0504076, -0.00991547, -0.0587394, -0.0273799, -0.0424355, -0.0260957, -0.0313547, 0.0059216, -0.0360876, -0.0600753, -0.0321368, -0.0938354, -0.0703989, -0.0158486, -0.00906181, -0.0151715, -0.0884956, -0.0896041, -0.0222248, 0.00326443, 0.0344946, 0.0424367, -0.0474225, -0.0670096, -0.0765949, -0.0566945, -0.0388412, -0.0032084, -0.0161415, -0.0234013, -0.0177404, -0.00944138, -0.0211461, -0.0174054, 0.016528, -0.0409738, -0.0385579, -0.0314832, 0.000490546, -0.0223671, -0.0612451, -0.0141655, -0.0157974, -0.0495816, -0.0208403, 0.035435, -0.0172247, -0.0222152, -0.0998158, -0.0720435, -0.0485537, 0.0328897, -0.0364935, -0.0759479, -0.0728755, -0.0636257, 0.0328927, 0.00282776, -0.0323778, 0.0011394, -0.00497878, -0.0356472, -0.0430377, -0.0828387, -0.0773565, -0.0528383, -0.0267925, -0.0532484, -0.0453358, -0.0278575, -0.0195487, 0.0198103, 0.002949, 0.00671923, -0.0507343, -0.0220437, 0.0754904, -0.0435797, -0.0810757, -0.035058, -0.0592283, -0.059893, -0.0112118, -0.0685893, -0.0528156, -0.0240968, -0.0176231, 0.0081073, 0.0210096, -0.0798268, -0.0645386, -0.021419, -0.0576683, -0.0192899, -0.0779284, -0.0604495, 0.00142443, -0.00898182, -0.00612462, -0.0212373, 0.00494456, 0.00927067, -0.0310838, -0.01358, -0.0111793, 0.0308903, -0.0174379, -0.0652276, -0.0233303, -0.0234101, -0.0535355, -0.0496165, -0.0233539, 0.0391359, -0.0410584, 0.00583673, 0.022831, -0.0122194, -0.0238713, -0.00839937, -0.00882208, -0.0206766, 0.00351739, -0.0319467, 0.00981748, -0.0229801, -0.0158143, -0.0153692, -0.0610117, -0.0574068, 0.00159466, 0.0332098, 0.0324093, -0.053265, -0.0601773, -0.0570726, -0.0868558, -0.0614229, -0.0260499, -0.0744215, -0.0211158, -0.0523037, -0.0365605, -0.00512254, 0.0780777, -0.0335544, 0.0329347, -0.0285937, -0.0405335, 0.0215586, -0.0470628, 0.0115465, -0.00262702, -0.00870669, -0.0617889, -0.011989, 0.0138327, 0.0187163, -0.0033716, 0.0153545, 0.0422986, -0.0030061, 0.00373793, 0.00221515, 0.0228654, -0.00398195, -0.0497051, 0.0575432, -0.0253655, -0.0448083, -0.0263127, -0.0251518, 0.0325133, 0.0361373, -0.0385025, -0.00685966, -0.00422168, -0.0085305, -0.0374254, -0.0369469, -0.043072, -0.0304832, -0.0144836, 0.0256042, -0.0201521, -3.89814e-05, -0.0201626, 0.0100873, -0.0277777, -0.00684357, 0.0334133, -0.0646693, 0.0411268, -0.718498, -0.102663, -0.0490671, -0.0549279, -0.109355, -0.0927271, -0.0927137, -0.0157969, -0.0319257, -0.048806, -0.0729805, -0.0396241, -0.02906, -0.096826, -0.0229629, -0.0686462, -0.0391141, -0.0775347, -0.0537786, -0.071885, -0.0142033, 0.0308782, -0.02284, -0.0698335, -0.0545027, -0.0268157, -0.0183903, -0.0527515, -0.031198, -0.0638133, 6.16312e-05, -0.01156, -0.058875, -0.0271096, -0.0454965, -0.0356681, -0.0342389, -0.0383388, -0.0151538, -0.0140502, -0.0253131, -0.0394418, -0.0458992, -0.0728871, -0.077324, -0.0359508, -0.0472698, -0.0876958, -0.104177, -0.0747945, -0.102317, 0.0089494, -0.0759431, -0.0669928, -0.0733445, -0.0070107, -0.0603374, -0.0576957, -0.058796, -0.0509082, -0.0499539, -0.0364958, 0.00356877, -0.0284468, 0.0183183, -0.042092, -0.0738308, -0.0487784, -0.0453607, -0.0103923, -0.0266393, -0.019498, -0.0160751, -0.0426421, -0.0462346, -0.0340952, -0.0442064, -0.077612, -0.030355, -0.0146365, -0.0536697, -0.0865142, -0.0412822, 0.02965, -0.0443105, -0.0940191, -0.0708334, 0.00711191, -0.00919724, -0.0953636, -0.0712069, -0.0825659, -0.00611484, -0.0478864, -0.0560149, -0.0608922, -0.0265323, -0.100316, -0.0806756, -0.0536492, -0.0347065, -0.063572, -0.0792046, -0.0334952, -0.0404792, -0.0827961, -0.0605962, -0.0266922, -0.0443807, -0.0530508, -0.0367682, -0.0505705, -0.0730923, 0.0160308, -0.0317895, -0.0616633, -0.0483577, -0.0175993, -0.0304501, -0.000741959, -0.0713059, -0.0400457, 0.000812054, -0.0334294, -0.0520431, -0.0639094, -0.0469894, -0.0742251, -0.0380429, -0.0315058, -0.0538148, -0.073446, -0.029235, -0.0383147, -0.0757304, -0.0352354, -0.0619228, -0.0429226, -0.077073, -0.0692457, -0.111135, -0.0478442, 0.00365174, 0.00352132, -0.076178, -0.0896788, -0.0690075, -0.025871, -0.0173365, 0.0501999, 0.0164249, -0.061087, -0.0801578, -0.056138, -0.045046, -0.050709, -0.0210242, -0.0209626, -0.0274539, 0.00045836, 0.0181956, -0.031366, -0.0359292, -0.00356019, -0.0573004, -0.0815879, -0.0526388, -0.03803, -0.0402837, -0.0477805, -0.00316262, -0.031172, -0.00155592, 0.00739789, -0.00857973, -0.015358, -0.0802305, -0.0644903, -0.0625547, -0.00957584, -0.00485146, -0.0715349, -0.07391, -0.057169, -0.00705957, -0.0196859, -0.0849849, -0.0152829, 0.0218128, -0.0260577, -0.00958931, -0.0639027, -0.0524975, -0.0477766, -0.015554, -0.0278275, 0.00354445, -0.0613561, -0.0414958, -0.0531502, -0.00401115, 0.0196663, -0.0781429, -0.0432434, 0.0729641, 0.0293831, -0.059001, -0.000861168, -0.0524896, -0.0657548, -0.0367659, -0.0657616, -0.0812938, -0.0636754, -0.0265265, 0.00731564, 0.0157545, -0.0227417, -0.0894414, -0.0177668, -0.0287579, 0.0174159, -0.0428138, -0.0446088, 0.0143095, 0.000992656, -0.063663, -0.021351, -0.0326805, -0.0368941, -0.0391161, -0.0349088, -0.0160158, 0.0449944, -0.0200063, -0.049412, -0.0287597, -0.0363309, -0.0617168, -0.0276295, -0.00332284, -0.0105784, -0.0214573, -0.0514489, 0.0123365, 0.0230186, 0.0482959, 0.0258087, -0.0284995, -0.0127167, 0.0138688, -0.00845647, 0.0566815, -0.0452199, -0.0422353, -0.00862014, -0.0118862, -0.0431957, -0.0212373, 0.000227094, 0.060914, -0.0405462, 0.00254154, 0.0241539, 0.0066067, -0.0470436, -0.000962734, -0.05093, -0.00346208, -0.064685, -0.0572455, -0.00594974, 0.0146581, 0.000293255, 0.0508244, 0.0106665, -0.0596387, -0.0299177, -0.0115178, 0.020798, 0.00507259, -0.0355439, -0.0412456, -0.0196735, 0.0351475, 0.047237, -0.00847197, -0.0428138, -0.0238185, 0.0250542, 0.027289, 0.0104043, -0.025851, -0.0224159, -0.0387007, 0.0146263, -0.0772908, -0.0173255, -0.00199413, -0.0205808, 0.0466323, 0.0185752, -0.0184817, 0.00176024, 0.0580392, 0.0559176, -0.0388757, -0.0607758, -0.0222538, -0.00885093, -0.00282931, -0.023406, 0.0118876, -0.0304252, -0.0466759, -0.038113, -0.0422349, -0.0660487, -0.0163118, -0.0278941, 0.0315297, -0.697829, -0.0414059, -0.00121629, -0.00184155, -0.0646015, -0.0893511, -0.0973998, -0.025467, -0.0465147, -0.0245752, -0.0882505, -0.0530902, -0.00867307, -0.0366439, -0.0324138, -0.0365471, -0.074373, -0.0335205, -0.0238214, -0.0657133, -0.0595326, -0.014809, 0.0171458, -0.0644947, -0.0209098, -0.0238732, -0.0638736, -0.00671172, -0.0379475, -0.0791941, -0.0225239, -0.0326135, -0.079607, -0.0384098, -0.0781288, -0.0758944, -0.0402025, -0.00373805, -0.0263169, -0.0744951, -0.093002, -0.0537549, -0.0416257, -0.0215425, -0.0344592, -0.0274183, 0.0247571, -0.106587, -0.0848638, -0.098467, -0.0875058, -0.0366758, -0.0928522, -0.0879376, -0.063301, -0.05431, -0.0373291, -0.04322, -0.0527599, -0.0252094, -0.0430135, 0.00468922, -0.0155956, -0.0255539, 0.0292085, -0.0180072, -0.0186586, -0.0394915, -0.0705618, -0.0595838, -0.0362611, -0.0478125, -0.0679485, -0.0873084, -0.0290498, -0.0370935, -0.0613073, -0.078518, -0.0711763, -0.0227686, -0.0832093, -0.0123585, -0.0333507, 0.00626695, 0.00918746, -0.0699855, -0.0739596, -0.0375903, -0.0525763, -0.0556154, -0.0290151, -0.0189477, -0.0920246, -0.0727907, -0.0448126, -0.0339575, -0.0164667, -0.0611537, -0.0884488, -0.0533402, 