-8.912350237369537354e-02
-2.440897822380065918e-01
2.546447515487670898e-01
-3.385458588600158691e-01
3.665205836296081543e-02
5.402621626853942871e-01
5.135492682456970215e-01
4.393231868743896484e-01
-1.489885151386260986e-03
1.262025833129882812e-01
4.672408849000930786e-02
4.726450443267822266e-01
3.147785663604736328e-01
-3.556667566299438477e-01
4.575048089027404785e-01
-9.116999804973602295e-02
-1.520725727081298828e+00
2.531297206878662109e-01
2.943775057792663574e-01
7.920697331428527832e-02
-6.667611598968505859e-01
3.348544538021087646e-01
4.088284373283386230e-01
5.370463132858276367e-01
-6.052089333534240723e-01
2.641911506652832031e-01
1.053812727332115173e-01
6.058304011821746826e-02
-1.242314055562019348e-01
-1.053764820098876953e+00
1.810085624456405640e-01
4.999299049377441406e-01
-6.270091533660888672e-01
-1.685146689414978027e-01
4.911620020866394043e-01
3.929270207881927490e-01
1.311393827199935913e-01
2.751372158527374268e-01
1.307728886604309082e-01
3.064417839050292969e-02
1.787282824516296387e-01
1.331978887319564819e-01
-6.993969529867172241e-02
4.989511370658874512e-01
-4.237747192382812500e-01
3.094531297683715820e-01
2.332609295845031738e-01
4.208216071128845215e-01
-3.008995903655886650e-03
4.688172936439514160e-01
2.667147815227508545e-01
1.875751614570617676e-01
-2.078913599252700806e-01
-3.949571847915649414e-01
-4.856125712394714355e-01
-1.484808884561061859e-02
2.848212718963623047e-01
-2.084924280643463135e-02
-4.079921245574951172e-01
1.503583192825317383e-01
3.850060105323791504e-01
9.702055156230926514e-02
4.296905398368835449e-01
1.497423052787780762e-01
