-3.930037841200828552e-02,5.593179538846015930e-02,-4.429803695529699326e-03,8.743316680192947388e-02,-3.160201385617256165e-02,1.364195067435503006e-02,1.722545549273490906e-02,-3.563201054930686951e-02,1.792092993855476379e-02
-2.558839879930019379e-02,3.573603183031082153e-02,1.861689798533916473e-02,-7.200884819030761719e-02,5.009874701499938965e-03,5.258201435208320618e-02,-2.596197277307510376e-02,6.357692927122116089e-02,1.438169088214635849e-02
-1.730157993733882904e-02,3.286370262503623962e-02,4.007028415799140930e-03,3.241019323468208313e-02,4.368253517895936966e-03,-9.189948439598083496e-03,3.289974108338356018e-02,-4.104075487703084946e-03,2.824457176029682159e-02
8.813690394163131714e-03,5.809424910694360733e-03,-3.530712425708770752e-02,-1.909194141626358032e-02,-2.061987109482288361e-02,-8.556770533323287964e-02,-2.375254640355706215e-03,1.763837411999702454e-02,-1.885775849223136902e-02
-3.938346356153488159e-02,-6.571029126644134521e-02,2.482369076460599899e-03,-3.784421831369400024e-02,-1.000221446156501770e-01,-7.874643057584762573e-02,1.381524745374917984e-02,-5.251255258917808533e-02,-5.595088005065917969e-02
-4.786267504096031189e-02,-7.610968500375747681e-02,-1.252778619527816772e-01,-2.387250959873199463e-02,-1.142337471246719360e-01,-8.542274683713912964e-02,-1.219736412167549133e-01,-1.425859630107879639e-01,-7.889177650213241577e-02
-8.269933168776333332e-04,-8.680751919746398926e-02,4.187296330928802490e-02,1.320313755422830582e-02,-3.476827219128608704e-02,4.748896695673465729e-03,-1.919357851147651672e-02,2.700863778591156006e-02,2.105401083827018738e-02
-3.208095207810401917e-02,-1.010935604572296143e-01,-2.609415911138057709e-02,4.024123400449752808e-02,-6.947553157806396484e-02,1.187669951468706131e-02,-2.228962443768978119e-02,4.706159606575965881e-02,3.486462082946673036e-05
-7.155285030603408813e-02,-8.275237679481506348e-02,-1.046500205993652344e-01,3.140162304043769836e-02,4.919612314552068710e-03,2.229909226298332214e-02,-1.481011789292097092e-02,-2.543625608086585999e-02,-8.192761242389678955e-02
-6.968072149902582169e-03,1.242213845252990723e-01,8.674050122499465942e-02,7.492123544216156006e-02,1.069560125470161438e-01,7.351649552583694458e-02,4.750109463930130005e-02,7.651061564683914185e-02,1.882560849189758301e-01
-1.198928579688072205e-01,-4.192566499114036560e-02,-9.400672465562820435e-02,-6.408129632472991943e-02,-3.924007713794708252e-02,-6.721150875091552734e-02,-1.139114722609519958e-01,-8.771388977766036987e-02,-1.065707802772521973e-01
7.308088243007659912e-02,1.265503000468015671e-02,-2.460493333637714386e-02,3.558313846588134766e-02,3.453270718455314636e-02,1.576499268412590027e-02,1.323748677968978882e-01,6.048059836030006409e-02,6.966182589530944824e-02
-1.950380392372608185e-02,4.171765595674514771e-02,3.206482902169227600e-02,-1.579861529171466827e-02,8.004612475633621216e-02,-5.700538866221904755e-03,-3.125394508242607117e-02,1.107679381966590881e-01,4.785168543457984924e-02
-1.193225197494029999e-02,-3.766674315556883812e-03,-3.357075899839401245e-02,-8.570675551891326904e-02,-3.678528219461441040e-02,1.134546473622322083e-02,-1.212579756975173950e-01,-4.846688732504844666e-02,-4.899877309799194336e-02
6.479148566722869873e-02,1.339431554079055786e-01,-1.311473082751035690e-02,-1.699133589863777161e-02,-6.635491549968719482e-02,7.511512376368045807e-04,-2.804710529744625092e-02,-5.356273427605628967e-02,-7.242184132337570190e-02
-3.836379200220108032e-02,-2.010408788919448853e-02,-6.669930368661880493e-02,-7.846705615520477295e-03,-1.060240902006626129e-02,-1.537074148654937744e-01,-3.077721036970615387e-02,-5.974390357732772827e-02,-5.679111555218696594e-02
-7.302489876747131348e-02,-2.399282529950141907e-02,-5.858396366238594055e-02,-1.984119735425338149e-04,-4.517903551459312439e-02,-1.204383000731468201e-01,-3.900260850787162781e-02,-8.589179068803787231e-02,-4.803442582488059998e-02
7.999539375305175781e-02,1.598339229822158813e-01,7.954721897840499878e-02,5.821771919727325439e-02,1.840501278638839722e-01,1.639111340045928955e-02,1.035391464829444885e-01,5.752330180257558823e-04,3.623015061020851135e-02
4.868502914905548096e-02,2.092880755662918091e-02,3.627173230051994324e-02,3.343184664845466614e-02,7.962380349636077881e-02,1.289915572851896286e-02,-4.044921696186065674e-02,9.343134239315986633e-03,7.034729421138763428e-02
1.746782362461090088e-01,1.375112086534500122e-01,2.112632840871810913e-01,2.349819689989089966e-01,2.433261275291442871e-01,1.295071393251419067e-01,1.457010507583618164e-01,1.203529238700866699e-01,5.578523501753807068e-02
-6.375351548194885254e-02,5.619221366941928864e-03,-7.387620210647583008e-02,-1.907497644424438477e-02,-8.172746002674102783e-02,-5.804360285401344299e-02,-5.450028553605079651e-02,-2.410257933661341667e-03,-2.824488282203674316e-02
-2.950495295226573944e-02,-1.344313938170671463e-02,-8.066204935312271118e-02,3.632293641567230225e-02,6.138279289007186890e-02,7.528554648160934448e-03,5.876590684056282043e-02,4.508324712514877319e-02,6.003656983375549316e-02
6.654623150825500488e-02,6.314153224229812622e-02,-1.123166061006486416e-03,-3.462687507271766663e-02,1.013922244310379028e-01,6.576932035386562347e-03,1.496852189302444458e-01,9.619302302598953247e-02,5.821285769343376160e-02
-7.268204540014266968e-02,2.487335540354251862e-02,-7.943642884492874146e-02,-7.128501683473587036e-02,-2.817356772720813751e-02,-1.006092503666877747e-01,-4.628726840019226074e-02,-8.686493337154388428e-02,-9.535626322031021118e-02
-3.495586663484573364e-02,-2.134029939770698547e-02,6.284088362008333206e-03,-2.239402383565902710e-02,2.284210361540317535e-02,-2.923800051212310791e-02,4.217405989766120911e-02,-5.382013041526079178e-03,4.504100978374481201e-02
-4.339935258030891418e-02,-1.305034290999174118e-02,5.057699978351593018e-03,-5.725996941328048706e-02,-3.239868953824043274e-02,-3.528060019016265869e-02,-2.388331666588783264e-02,-1.285372488200664520e-02,-3.791612689383327961e-04
-5.493676662445068359e-02,-6.105297245085239410e-03,-6.979826837778091431e-02,-1.114851422607898712e-02,-3.895116597414016724e-02,1.373504847288131714e-02,-2.827760577201843262e-02,2.219540067017078400e-02,-8.938700705766677856e-02
-2.216303534805774689e-02,-7.524050772190093994e-02,-1.664632873144000769e-04,-4.003451764583587646e-02,-4.612657241523265839e-03,3.830391541123390198e-02,-1.105043757706880569e-02,-7.131045218557119370e-03,-1.623513549566268921e-02
-1.864865571260452271e-01,-1.006877869367599487e-01,-1.433537304401397705e-01,-2.295684255659580231e-02,-1.733719706535339355e-01,-1.085563078522682190e-01,-1.555842459201812744e-01,-1.334060281515121460e-01,-1.203785464167594910e-01
9.259904734790325165e-03,-6.924607604742050171e-02,-1.036191266030073166e-02,-4.111371817998588085e-04,-1.160363107919692993e-01,-1.400150265544652939e-02,-5.098325386643409729e-02,1.048721093684434891e-02,1.064539477229118347e-01
-4.202328994870185852e-02,-9.575450792908668518e-03,6.620556116104125977e-03,2.999933995306491852e-02,-1.793525298126041889e-03,-2.290501957759261131e-03,4.742274526506662369e-03,-1.419587153941392899e-02,-1.809808984398841858e-02
5.318014323711395264e-02,6.971374154090881348e-02,2.334473282098770142e-02,1.944486983120441437e-02,2.494267001748085022e-02,5.555185675621032715e-02,1.653991453349590302e-02,6.649821251630783081e-02,2.420599944889545441e-02
8.651476353406906128e-03,-8.011380583047866821e-02,-6.654507480561733246e-03,-1.818313449621200562e-02,-5.634933337569236755e-02,-2.390673197805881500e-02,-1.123435422778129578e-02,-4.616580531001091003e-02,-5.596233997493982315e-03
-1.136751566082239151e-02,3.472341224551200867e-02,9.202076494693756104e-02,4.601881955750286579e-04,1.173344403505325317e-01,8.820105344057083130e-03,3.308006748557090759e-02,4.576211050152778625e-02,5.880672484636306763e-02
-4.410394281148910522e-02,-5.645689368247985840e-02,-5.376277491450309753e-02,-9.700795263051986694e-02,4.728876426815986633e-02,1.405392680317163467e-02,-1.293000672012567520e-02,2.824449352920055389e-02,-5.411190912127494812e-02
-3.048737533390522003e-03,1.798178441822528839e-02,-9.391166269779205322e-02,-1.572118140757083893e-02,1.056754216551780701e-01,2.272033132612705231e-02,5.024596303701400757e-02,8.106990903615951538e-02,7.431106059812009335e-04
1.169132348150014877e-02,5.944103002548217773e-02,-3.316418081521987915e-02,-5.565651506185531616e-02,-2.544855698943138123e-02,2.228960208594799042e-02,-9.857132285833358765e-02,-3.922160714864730835e-02,-8.521051704883575439e-02
7.069503515958786011e-02,-2.901806682348251343e-02,1.775265485048294067e-02,-8.406786620616912842e-02,8.159863203763961792e-02,2.296898886561393738e-02,1.498537231236696243e-02,3.060159459710121155e-02,-1.220297254621982574e-02
-9.181130677461624146e-02,-1.198014616966247559e-01,-4.992789775133132935e-02,-9.432097896933555603e-03,-5.922074615955352783e-02,-4.512796923518180847e-02,-2.841433137655258179e-02,-2.239937521517276764e-02,-1.922437176108360291e-02
-2.830247394740581512e-03,4.051097854971885681e-02,1.922217570245265961e-02,-1.718555949628353119e-02,1.069903075695037842e-01,-8.628572523593902588e-02,-5.643941089510917664e-02,-5.246307235211133957e-03,-5.895593017339706421e-02
-2.086027525365352631e-02,-7.723211497068405151e-02,-7.867605239152908325e-02,-3.867479041218757629e-02,-2.894373610615730286e-02,-4.732270166277885437e-02,-4.027517884969711304e-02,1.625064015388488770e-02,-5.385036394000053406e-02
-1.410644315183162689e-02,1.601602649316191673e-03,-1.361196488142013550e-02,-1.366371754556894302e-02,-9.767216397449374199e-05,-4.007046669721603394e-02,-6.837902218103408813e-02,-2.890542894601821899e-02,-5.804666876792907715e-02
-5.121424049139022827e-02,-8.339739590883255005e-02,-4.088030382990837097e-02,1.973401382565498352e-02,9.343347698450088501e-02,-5.432904697954654694e-03,7.523117214441299438e-02,-2.908115647733211517e-02,1.177479699254035950e-02
9.388505481183528900e-03,4.081111773848533630e-02,6.768484599888324738e-03,6.557974219322204590e-02,-2.615346200764179230e-02,-6.038869917392730713e-02,-1.222339347004890442e-01,-2.614452270790934563e-03,-2.021902799606323242e-02
-4.834631085395812988e-02,-7.667186111211776733e-02,-1.292119026184082031e-01,1.035637557506561279e-01,3.561023622751235962e-02,-3.894888609647750854e-02,-1.216009072959423065e-02,4.733513668179512024e-02,-7.447867095470428467e-02
-6.680705398321151733e-02,2.492460608482360840e-02,4.557567834854125977e-02,-3.766349703073501587e-02,5.806540604680776596e-03,2.052695257589221001e-03,-3.437314927577972412e-02,2.216909080743789673e-02,2.854081988334655762e-02
-1.701982319355010986e-01,-1.364395301789045334e-02,-7.975385338068008423e-02,-3.142201155424118042e-02,-1.473715156316757202e-01,-7.020830363035202026e-02,-6.001033261418342590e-02,-1.075577139854431152e-01,-1.402914971113204956e-01
-4.606986418366432190e-02,5.414136871695518494e-02,5.354590341448783875e-02,-7.973209023475646973e-02,3.820231184363365173e-02,-2.265232801437377930e-02,-6.777494400739669800e-02,-5.345167964696884155e-02,-3.842511773109436035e-02
-5.832660943269729614e-02,-1.048219427466392517e-01,-9.902553632855415344e-03,-8.508216589689254761e-02,-6.096281111240386963e-02,-3.337201848626136780e-02,-1.274502873420715332e-01,-1.210029125213623047e-01,-4.763218760490417480e-02
1.114575751125812531e-02,5.354352667927742004e-02,9.195872396230697632e-02,7.232920080423355103e-02,6.067971512675285339e-02,1.180546730756759644e-01,4.345431923866271973e-03,1.638879328966140747e-01,3.369949758052825928e-02
6.578980479389429092e-03,-4.867422580718994141e-02,-1.755628385581076145e-03,3.719460591673851013e-02,-4.035513475537300110e-02,9.942626208066940308e-02,7.031520456075668335e-02,6.061289459466934204e-02,8.312319219112396240e-02
2.112195268273353577e-02,-4.601983726024627686e-02,1.473448704928159714e-02,-6.550984084606170654e-02,4.610722139477729797e-02,-1.085019297897815704e-02,-6.218445673584938049e-02,-3.146158531308174133e-02,-1.192646566778421402e-02
1.340168807655572891e-02,-2.893932722508907318e-02,4.533696174621582031e-02,-5.908574908971786499e-02,4.614442959427833557e-02,-5.858650058507919312e-02,-6.118777766823768616e-02,-2.114010415971279144e-02,1.023597344756126404e-01
3.118918463587760925e-02,7.051491737365722656e-02,5.241136252880096436e-02,7.901573926210403442e-02,6.891379505395889282e-02,2.823879383504390717e-02,2.486370876431465149e-02,2.652427926659584045e-02,1.857372745871543884e-02
1.550917979329824448e-02,1.070122141391038895e-02,4.639015533030033112e-03,-1.682601124048233032e-02,2.685735374689102173e-02,1.489047985523939133e-02,-2.623148635029792786e-02,-2.291381545364856720e-02,4.900540784001350403e-02
-1.046165525913238525e-01,-6.763413548469543457e-02,-1.647692024707794189e-01,-5.118738114833831787e-02,-5.065582692623138428e-02,-1.269803196191787720e-01,-1.361715048551559448e-01,-9.619807451963424683e-02,-1.249855011701583862e-01
2.334965951740741730e-02,5.469245836138725281e-02,-1.485378947108983994e-02,-4.260325059294700623e-02,-2.080295048654079437e-02,-4.869677592068910599e-03,1.124818157404661179e-02,5.947645008563995361e-02,-5.837174598127603531e-03
8.171436935663223267e-02,8.491194248199462891e-02,1.368706673383712769e-01,-1.666814647614955902e-02,-5.115400999784469604e-02,9.137370437383651733e-02,-3.704956173896789551e-02,3.241936489939689636e-02,1.944282464683055878e-02
1.268418785184621811e-02,-1.976186595857143402e-02,-3.535556420683860779e-02,1.735735870897769928e-02,-1.366747915744781494e-02,-3.204234875738620758e-03,3.209861367940902710e-02,-5.636431649327278137e-02,-8.602464571595191956e-03
-2.432214841246604919e-02,-9.417101740837097168e-03,-1.266720052808523178e-02,-3.861888498067855835e-02,-2.912183478474617004e-02,-2.673036977648735046e-02,-3.680390119552612305e-02,1.228472497314214706e-02,-7.899324409663677216e-03
9.236821532249450684e-02,7.643372565507888794e-02,3.757255524396896362e-02,8.367031067609786987e-02,-5.605240818113088608e-03,1.737821996212005615e-01,1.214769333600997925e-01,1.112323030829429626e-01,1.301631629467010498e-01
4.520302638411521912e-02,1.037784889340400696e-01,5.452507734298706055e-02,2.962146699428558350e-02,8.658450841903686523e-02,6.351488828659057617e-02,4.375334456562995911e-02,1.075974851846694946e-01,3.378192335367202759e-02
-9.517418220639228821e-03,-4.497078061103820801e-02,-8.028668910264968872e-02,2.714080363512039185e-02,2.980114519596099854e-02,8.890409953892230988e-03,-2.831074222922325134e-02,-2.142039686441421509e-02,-6.586920469999313354e-02
2.505110017955303192e-02,6.209990382194519043e-02,6.969658285379409790e-02,7.183109223842620850e-02,1.469871848821640015e-01,5.884061008691787720e-02,9.953327476978302002e-02,7.812426239252090454e-02,4.697496816515922546e-02
4.258235171437263489e-02,1.289642509073019028e-02,4.174172505736351013e-02,3.658869070932269096e-03,-6.722404062747955322e-02,-8.547370135784149170e-02,-3.374205902218818665e-02,1.955804973840713501e-02,-8.921376615762710571e-02
-5.229751393198966980e-02,-3.455474507063627243e-03,-5.668869242072105408e-02,1.251347456127405167e-02,1.345018595457077026e-01,-1.881797462701797485e-01,-4.593930020928382874e-02,-4.629930108785629272e-02,-6.037235260009765625e-02
-6.468749605119228363e-03,-8.128814399242401123e-02,-3.368358686566352844e-02,-6.989108771085739136e-02,1.677761599421501160e-02,4.801069945096969604e-02,-6.234924122691154480e-02,6.481123715639114380e-02,-1.882579736411571503e-02
5.347678437829017639e-02,7.011275272816419601e-03,-7.351439446210861206e-02,2.568040788173675537e-02,-1.793922781944274902e-01,-4.827238246798515320e-02,6.256748735904693604e-02,-3.542970865964889526e-02,3.182752057909965515e-03
-2.549036964774131775e-02,2.360312826931476593e-02,4.826732724905014038e-02,3.709025681018829346e-02,-1.132501382380723953e-02,-2.013530954718589783e-02,5.453419312834739685e-02,-9.119866043329238892e-02,6.932006776332855225e-02
1.184101309627294540e-02,2.379579003900289536e-03,-8.248124271631240845e-02,-8.390609174966812134e-02,1.314457599073648453e-02,-2.460885047912597656e-02,-1.747532188892364502e-02,3.188133239746093750e-02,-3.777116164565086365e-02
-2.790245227515697479e-02,2.298078313469886780e-02,-8.048901706933975220e-02,-5.354628711938858032e-02,-9.218867123126983643e-02,-2.180791273713111877e-02,-7.396990060806274414e-02,-5.260390415787696838e-02,-3.857751935720443726e-02
-1.036609187722206116e-01,-9.194722399115562439e-03,6.903927028179168701e-02,-5.106688663363456726e-02,-7.457311451435089111e-02,-1.559058725833892822e-01,-4.270495101809501648e-02,-1.906350702047348022e-01,-3.166223317384719849e-02
-3.002904169261455536e-02,7.151150703430175781e-02,-1.140628661960363388e-02,-3.381120786070823669e-02,-1.459707766771316528e-01,-1.704993844032287598e-01,3.914371877908706665e-02,1.208312902599573135e-02,-2.905795164406299591e-02
-1.047554332762956619e-02,4.353066906332969666e-03,-7.699603447690606117e-04,6.444939645007252693e-04,-5.701733008027076721e-02,-4.600750654935836792e-02,3.272372484207153320e-02,-7.145151495933532715e-02,4.406119231134653091e-03
-1.001456901431083679e-01,-7.727670669555664062e-02,-1.107121817767620087e-02,-5.518807843327522278e-02,-6.120451167225837708e-02,4.020792897790670395e-03,-7.962194085121154785e-02,1.177289523184299469e-02,-4.108699504286050797e-03
3.696688637137413025e-02,3.730295971035957336e-02,-1.729186996817588806e-02,-5.482606962323188782e-02,5.739529058337211609e-02,-1.527084875851869583e-02,3.174974769353866577e-02,-4.592261463403701782e-02,9.504616260528564453e-03
-3.087447024881839752e-03,2.720706909894943237e-02,5.058838427066802979e-02,4.179438576102256775e-02,-3.774298727512359619e-01,-5.977333337068557739e-02,-2.243063226342201233e-02,3.442876413464546204e-02,1.272009313106536865e-02
-2.836123667657375336e-02,1.058103814721107483e-01,-1.342014037072658539e-02,-2.573553286492824554e-02,-3.694882988929748535e-02,-9.011930786073207855e-03,5.861875414848327637e-02,-6.341916043311357498e-03,-3.593690320849418640e-02
-7.170326262712478638e-02,-2.500455453991889954e-02,2.008814364671707153e-02,-7.291110605001449585e-02,-2.799970842897891998e-02,-9.636032581329345703e-02,-6.414044182747602463e-03,1.799944415688514709e-02,9.976821392774581909e-02
7.782510016113519669e-03,-4.269246477633714676e-03,-6.801722198724746704e-02,-2.769324369728565216e-02,1.203453401103615761e-03,-1.606467552483081818e-02,1.069570984691381454e-02,5.815402045845985413e-02,1.730736403260380030e-04
-2.532680705189704895e-02,-6.630163174122571945e-03,6.555998325347900391e-02,-3.858147189021110535e-03,6.910569220781326294e-02,5.414532124996185303e-02,-4.715849459171295166e-02,1.873898692429065704e-02,-4.880109801888465881e-02
1.991331391036510468e-02,9.706255793571472168e-02,3.227171674370765686e-02,2.170662023127079010e-02,-1.422475129365921021e-01,8.861478418111801147e-02,7.515856064856052399e-03,7.264675945043563843e-02,4.094455018639564514e-02
4.573167115449905396e-02,1.454031020402908325e-01,3.057045163586735725e-03,-6.481707096099853516e-02,2.327225636690855026e-03,-9.185749292373657227e-02,-3.029289841651916504e-02,-5.213189497590065002e-02,1.420328021049499512e-02
-9.177632629871368408e-03,-5.426625162363052368e-02,-1.244406308978796005e-02,-1.254572123289108276e-01,-1.150006502866744995e-01,-3.922234848141670227e-02,2.323932945728302002e-02,9.021538496017456055e-02,-4.590973630547523499e-02
-1.265584258362650871e-03,-1.641566120088100433e-02,3.536011651158332825e-02,-4.559555649757385254e-02,1.398772895336151123e-01,-5.451395735144615173e-02,3.345778584480285645e-02,-1.013333424925804138e-01,1.739059202373027802e-02
-2.901069261133670807e-02,5.738317221403121948e-02,-3.706093877553939819e-02,2.992162946611642838e-03,5.903835222125053406e-02,-2.042967081069946289e-01,1.968508586287498474e-02,5.993755534291267395e-02,-2.514813328161835670e-03
-3.172582015395164490e-02,-4.970215633511543274e-02,-2.308157086372375488e-02,-2.393399477005004883e-01,7.323694974184036255e-02,-4.609182476997375488e-02,-5.127155035734176636e-02,-6.450070533901453018e-03,4.292676597833633423e-02
-5.966720357537269592e-02,-5.767323076725006104e-02,1.946236379444599152e-02,2.056408487260341644e-02,-1.938192695379257202e-01,-3.152689710259437561e-02,-3.802762180566787720e-02,-2.583628334105014801e-02,1.066523790359497070e-02
-1.135613303631544113e-02,-5.268787965178489685e-02,-6.158528104424476624e-02,-6.018143519759178162e-02,-3.933626413345336914e-02,-8.064389228820800781e-02,-8.593120425939559937e-02,8.423649519681930542e-02,-6.818848103284835815e-02
5.759190395474433899e-02,1.769855059683322906e-02,-5.335634201765060425e-02,-1.320593617856502533e-02,1.166204065084457397e-01,-4.629835486412048340e-02,-7.261557132005691528e-02,-3.391980752348899841e-02,-7.194596529006958008e-02
-3.101951442658901215e-03,4.178778827190399170e-02,-6.344531662762165070e-03,1.302406936883926392e-01,1.295622996985912323e-02,-4.132498800754547119e-02,2.543161623179912567e-02,9.655336290597915649e-02,1.146722771227359772e-02
-4.855646938085556030e-02,5.056200921535491943e-02,-3.393366187810897827e-02,-7.591051980853080750e-04,8.326786919496953487e-04,1.666425913572311401e-02,-2.054299227893352509e-02,-5.254956195130944252e-04,-5.949287116527557373e-02
-1.662856712937355042e-02,2.128500118851661682e-02,3.320734947919845581e-02,-2.907007336616516113e-01,5.800509080290794373e-02,9.694034606218338013e-02,5.431001633405685425e-02,6.289895623922348022e-02,3.893071040511131287e-02
-1.703667938709259033e-01,5.728873889893293381e-03,-6.251067668199539185e-02,-2.733939886093139648e-01,8.829068392515182495e-02,8.078116923570632935e-02,-5.197840183973312378e-02,-3.971331194043159485e-02,1.000190991908311844e-02
1.894120499491691589e-02,2.845977246761322021e-02,1.132064219564199448e-02,1.797847915440797806e-03,1.194628104567527771e-01,-9.039213508367538452e-02,5.100678652524948120e-02,4.235490038990974426e-02,1.036199703812599182e-01
2.622267045080661774e-02,2.494593337178230286e-02,-4.542154818773269653e-02,-9.684893488883972168e-02,1.862448081374168396e-02,-2.309680916368961334e-02,-3.513047844171524048e-02,-5.429162085056304932e-02,-3.329251706600189209e-02
-8.357267826795578003e-02,-5.096768029034137726e-03,-4.642383381724357605e-02,-3.028789162635803223e-02,-8.020919631235301495e-04,1.470160018652677536e-02,6.910961586982011795e-03,-5.224168673157691956e-02,4.661945253610610962e-02
-3.870140761137008667e-02,-9.269356727600097656e-02,6.356448400765657425e-03,-2.043310552835464478e-02,2.640772610902786255e-02,6.377185694873332977e-03,-8.283992856740951538e-02,-1.578231528401374817e-02,1.977473683655261993e-02
-1.385654206387698650e-03,3.312331065535545349e-02,-1.076981350779533386e-01,7.707981765270233154e-02,-9.116597939282655716e-04,-2.430294640362262726e-02,9.826519526541233063e-03,-4.163052514195442200e-02,4.426239803433418274e-02
-4.969999939203262329e-02,7.005789875984191895e-02,-4.548750445246696472e-02,-2.525128237903118134e-02,-2.984357625246047974e-02,-2.495842240750789642e-02,-3.209386020898818970e-02,-3.599522635340690613e-02,1.199538120999932289e-03
-3.141264664009213448e-03,-2.889108099043369293e-02,8.556786924600601196e-02,-1.198531035333871841e-02,6.959097832441329956e-02,5.449314267025329173e-05,1.120366435497999191e-02,7.316992850974202156e-04,1.306255627423524857e-02
-4.357878118753433228e-03,1.047127246856689453e-01,-1.349630858749151230e-02,1.771431975066661835e-02,7.170315086841583252e-02,-2.401919290423393250e-02,-6.185855716466903687e-02,1.145806629210710526e-02,1.687609776854515076e-02
5.388181284070014954e-02,2.139212377369403839e-02,3.453725948929786682e-02,-8.008038275875151157e-04,4.765000939369201660e-02,-2.567039988934993744e-02,-8.987892419099807739e-02,-2.857000217773020267e-04,1.669072359800338745e-02
5.691429600119590759e-02,-5.244597792625427246e-02,-2.946168929338455200e-02,1.889344118535518646e-02,-1.303986161947250366e-01,-5.480659380555152893e-02,7.076176255941390991e-02,-5.985279381275177002e-02,8.044186979532241821e-03
-1.657943613827228546e-02,-9.632152505218982697e-03,3.998426720499992371e-02,3.363449499011039734e-02,-1.179783195257186890e-01,-6.786556448787450790e-03,3.931016847491264343e-02,8.698785305023193359e-02,1.237432286143302917e-02
5.595738068222999573e-02,4.553633183240890503e-02,-1.804985105991363525e-02,4.894701391458511353e-02,1.705068349838256836e-01,4.422764852643013000e-02,5.510198697447776794e-02,5.791687592864036560e-02,1.393290758132934570e-01
4.920204728841781616e-02,7.982497662305831909e-02,7.479178160429000854e-02,-3.805526718497276306e-02,-2.345025986433029175e-01,-7.390382140874862671e-02,6.976426392793655396e-02,-7.488243281841278076e-02,-4.238568618893623352e-02
-1.114272326231002808e-02,-1.088298261165618896e-01,-8.106210269033908844e-03,-6.265775859355926514e-02,-3.800420090556144714e-02,-3.709591925144195557e-02,1.357063418254256248e-03,7.215745747089385986e-03,2.213356643915176392e-02
-1.185593232512474060e-01,-6.973479408770799637e-03,-7.693118602037429810e-02,-1.194132491946220398e-01,-2.343456000089645386e-01,-5.183224380016326904e-02,-2.697271108627319336e-02,8.855223655700683594e-03,-6.461563706398010254e-02
-3.239917382597923279e-02,6.005377322435379028e-02,-1.199399679899215698e-01,3.073498047888278961e-02,4.921015724539756775e-02,1.577389799058437347e-02,1.016531046479940414e-02,3.777901455760002136e-02,-3.366697579622268677e-02
3.380489349365234375e-02,-8.325582742691040039e-02,-4.550086800009012222e-03,-1.107707172632217407e-01,8.988110721111297607e-02,-2.439283207058906555e-02,-4.374967515468597412e-02,5.467566475272178650e-02,6.774034351110458374e-02
-1.608675345778465271e-02,6.028945371508598328e-02,6.632640212774276733e-02,-1.690790429711341858e-02,5.030653998255729675e-02,1.506001688539981842e-02,1.143102161586284637e-02,5.192142352461814880e-02,-1.333951111882925034e-02
-8.589701727032661438e-03,-5.567505583167076111e-02,-1.293730884790420532e-01,1.706096343696117401e-02,-1.987251788377761841e-01,-5.731721967458724976e-02,2.732944441959261894e-03,-5.555766168981790543e-03,-5.983731895685195923e-02
1.064566448330879211e-01,2.647421136498451233e-02,-9.969983249902725220e-03,2.815827354788780212e-02,2.612766437232494354e-02,-5.797448381781578064e-02,3.167302906513214111e-02,6.418897211551666260e-02,4.731856286525726318e-02
-7.197944819927215576e-02,1.681412570178508759e-02,-7.764844596385955811e-02,-3.209604695439338684e-02,7.935674488544464111e-02,-6.617674231529235840e-02,-5.771193653345108032e-02,-3.088207542896270752e-02,-1.423826217651367188e-01
-1.604373902082443237e-01,-5.873679369688034058e-02,-1.339497696608304977e-02,1.381720509380102158e-02,-3.200960531830787659e-02,-3.143412992358207703e-02,4.575314000248908997e-02,-2.744811819866299629e-03,-1.639351993799209595e-02
-1.139900609850883484e-01,1.983730308711528778e-02,-1.179823055863380432e-01,-8.893527090549468994e-02,-4.205202758312225342e-01,-1.007664352655410767e-01,-2.756933122873306274e-02,-1.139636412262916565e-01,-1.410471089184284210e-02
-6.223333254456520081e-02,1.235376577824354172e-02,-1.685150898993015289e-02,-1.448877900838851929e-02,4.675077274441719055e-02,-1.103307753801345825e-01,-1.551475282758474350e-02,-2.779625123366713524e-03,-6.963945925235748291e-02
2.029544860124588013e-02,-4.082263913005590439e-03,-7.229290436953306198e-03,-6.904991716146469116e-02,-2.788163125514984131e-01,-4.888085275888442993e-02,-6.311473995447158813e-02,3.165987879037857056e-02,6.012295186519622803e-02
7.613679766654968262e-02,1.120733842253684998e-01,9.079599380493164062e-02,-2.799262991175055504e-03,4.985014349222183228e-02,3.222953900694847107e-02,6.833201646804809570e-02,1.292383391410112381e-02,2.186051197350025177e-02
1.519141197204589844e-01,-2.775752544403076172e-02,-2.048413734883069992e-04,8.623062074184417725e-02,7.020144257694482803e-03,-1.690386235713958740e-02,-1.800044476985931396e-01,-1.238440349698066711e-01,-1.176604330539703369e-01
-8.364856243133544922e-02,-6.220280379056930542e-02,-1.904005557298660278e-02,-2.995174750685691833e-02,1.325639635324478149e-01,-4.634174052625894547e-03,8.629442006349563599e-02,1.024991739541292191e-02,1.928411051630973816e-02
-3.208476677536964417e-02,-4.775209352374076843e-02,2.375913970172405243e-02,-4.828147590160369873e-02,9.752744436264038086e-02,-2.553810179233551025e-02,-2.251516655087471008e-02,2.512155286967754364e-02,-5.088175833225250244e-02
4.647815600037574768e-02,2.478140778839588165e-02,2.955549955368041992e-02,-1.106691081076860428e-02,-2.602026462554931641e-01,4.187788069248199463e-02,-2.021536231040954590e-02,1.925660483539104462e-02,-5.784703884273767471e-03
5.103743448853492737e-02,3.443415462970733643e-02,-9.826309047639369965e-03,-4.517987370491027832e-03,5.254979711025953293e-03,-4.844937473535537720e-02,-2.399375848472118378e-02,5.151119455695152283e-02,-1.227524429559707642e-01
-6.515549030154943466e-04,5.847676098346710205e-02,2.855061925947666168e-02,2.450826764106750488e-02,7.096958160400390625e-02,2.263475471409037709e-04,4.216688126325607300e-02,7.479055225849151611e-02,1.583640091121196747e-02
-5.079253017902374268e-02,3.655238077044487000e-02,-3.058257978409528732e-03,-1.086298003792762756e-01,3.002922236919403076e-02,-3.081098757684230804e-02,-5.690895766019821167e-02,4.001520946621894836e-02,-1.903259777463972569e-03
-2.336813881993293762e-02,3.287291526794433594e-02,7.277520745992660522e-02,7.602281123399734497e-02,4.523018747568130493e-02,3.872901946306228638e-02,7.739584427326917648e-03,3.574601933360099792e-02,1.204393524676561356e-02
-1.729529723525047302e-02,5.338892713189125061e-02,-2.164899604395031929e-03,-3.210460394620895386e-02,-6.282179057598114014e-02,9.911522269248962402e-03,1.524839363992214203e-02,3.215277194976806641e-02,6.666015088558197021e-02
4.297316446900367737e-02,1.507857535034418106e-02,-2.531105838716030121e-02,-6.372916698455810547e-02,1.092078350484371185e-02,3.272435069084167480e-02,-1.648327708244323730e-02,7.017617672681808472e-02,4.464987292885780334e-02
-6.623624265193939209e-02,5.027130711823701859e-03,1.054952573031187057e-02,-1.889899186789989471e-02,-9.312625974416732788e-03,1.912443339824676514e-02,3.938582167029380798e-02,6.085309758782386780e-02,2.875892072916030884e-02
-3.706351667642593384e-02,6.594289839267730713e-02,-3.398157656192779541e-03,-4.499068483710289001e-03,-1.468595024198293686e-02,1.328805461525917053e-02,-1.761659793555736542e-02,-3.753983601927757263e-02,2.582721877843141556e-03
2.187050133943557739e-02,3.089429438114166260e-02,-3.077041730284690857e-02,-3.464354202151298523e-02,-2.686781343072652817e-03,2.018713951110839844e-02,-8.309371024370193481e-02,-1.962363533675670624e-02,-1.687620766460895538e-02
5.989139899611473083e-02,3.525359556078910828e-02,7.624685764312744141e-03,-7.377255242317914963e-03,2.537764050066471100e-02,-6.780960410833358765e-02,1.358371955575421453e-04,-1.391438674181699753e-02,-4.351166635751724243e-02
6.543452385812997818e-03,1.357188355177640915e-02,1.017534360289573669e-02,9.629609063267707825e-03,4.836140200495719910e-02,6.784609705209732056e-02,5.049793981015682220e-03,-3.542011231184005737e-02,1.037449017167091370e-02
4.726303741335868835e-02,5.420856550335884094e-02,8.021084219217300415e-02,2.310840599238872528e-02,1.463359314948320389e-02,2.755838632583618164e-02,-2.564109489321708679e-02,1.134569477289915085e-02,-4.048985242843627930e-02
2.951074764132499695e-02,7.380329072475433350e-02,6.327820010483264923e-03,-1.274540461599826813e-02,-8.945900015532970428e-03,-4.668610543012619019e-02,7.460886146873235703e-03,-6.047510076314210892e-03,-1.433071866631507874e-02
6.470063701272010803e-03,-6.024180352687835693e-02,-7.165852934122085571e-02,-4.364855214953422546e-02,2.665678225457668304e-02,-5.073318257927894592e-02,-5.809625983238220215e-02,-8.202177286148071289e-02,1.503167953342199326e-02
3.071752004325389862e-02,-2.628592960536479950e-02,2.037574537098407745e-02,2.024172805249691010e-02,-5.872566252946853638e-02,4.064898937940597534e-02,-1.708463020622730255e-02,-7.517362385988235474e-02,1.988257747143507004e-03
3.739457170013338327e-04,5.930547136813402176e-03,-1.760779996402561665e-03,6.229114718735218048e-03,-2.030036970973014832e-02,1.894643157720565796e-02,5.448093637824058533e-02,1.222397852689027786e-02,-1.697140932083129883e-02
5.737091228365898132e-02,6.908639520406723022e-02,3.291193395853042603e-02,2.222947077825665474e-03,2.472022734582424164e-02,1.216319482773542404e-02,2.267802320420742035e-02,6.915539503097534180e-02,4.127478227019309998e-02
-1.171534508466720581e-02,-1.686432212591171265e-02,3.731622593477368355e-03,9.837983176112174988e-03,-3.747206181287765503e-03,1.275164261460304260e-02,-5.475542694330215454e-02,-3.672773763537406921e-02,-3.855959977954626083e-03
-3.437601029872894287e-02,-1.472494285553693771e-02,-7.167533040046691895e-02,1.500860229134559631e-02,-6.600405275821685791e-02,-1.155484095215797424e-02,6.665600836277008057e-02,-6.091615557670593262e-02,-2.393951639533042908e-02
-2.469805441796779633e-02,1.442616223357617855e-03,-6.562239490449428558e-03,4.865064751356840134e-03,-4.758870229125022888e-02,-4.979424551129341125e-02,2.898529637604951859e-03,1.126068383455276489e-01,-4.682620987296104431e-02
2.792231366038322449e-02,5.093656107783317566e-02,4.993917047977447510e-02,-7.299880683422088623e-02,-7.035958766937255859e-02,4.599306732416152954e-03,-1.928695477545261383e-02,9.382130578160285950e-03,-3.834923356771469116e-02
-1.549340900965034962e-03,-5.139514431357383728e-02,-1.758495718240737915e-02,3.221061453223228455e-02,-1.260167825967073441e-02,1.860749535262584686e-02,6.407357752323150635e-02,7.446895819157361984e-03,4.136982560157775879e-02
3.507754206657409668e-02,7.346156239509582520e-02,5.924594402313232422e-02,9.574613720178604126e-02,1.011599153280258179e-01,-1.187197864055633545e-02,1.102351173758506775e-01,8.544706553220748901e-02,3.074473142623901367e-02
-3.495778515934944153e-02,2.150528831407427788e-03,-1.934204436838626862e-02,1.948893629014492035e-02,4.415117576718330383e-02,1.660886406898498535e-02,2.967638149857521057e-02,2.485128864645957947e-02,8.536782115697860718e-02
-2.383864484727382660e-02,-4.762376099824905396e-02,-3.383188322186470032e-02,-2.617584541440010071e-02,1.327374018728733063e-02,-1.286559365689754486e-02,3.703468292951583862e-02,1.047840807586908340e-02,6.717523187398910522e-02
4.085403308272361755e-02,2.696920000016689301e-02,-3.823371604084968567e-02,2.329621696844696999e-03,-6.714134011417627335e-03,-4.101436585187911987e-02,-3.039315156638622284e-02,-4.366577044129371643e-02,-6.127439811825752258e-02
-1.036744415760040283e-01,-5.165362730622291565e-02,-3.092515468597412109e-02,3.102247416973114014e-02,-2.958098798990249634e-02,-1.608965918421745300e-02,-6.250351667404174805e-02,1.344137638807296753e-02,1.489603705704212189e-02
-5.374301970005035400e-02,-2.480922453105449677e-02,-2.820476517081260681e-02,-5.158099345862865448e-03,5.641614086925983429e-03,-2.689404040575027466e-02,-4.213595390319824219e-02,-8.686884492635726929e-02,-4.693651199340820312e-02
2.604561299085617065e-02,3.385045379400253296e-02,-1.661039888858795166e-02,-3.788738697767257690e-02,2.763659134507179260e-02,-3.896520705893635750e-03,9.730795770883560181e-02,7.614737749099731445e-02,3.310061991214752197e-02
1.033638119697570801e-01,7.485241442918777466e-02,1.835159584879875183e-02,1.606429181993007660e-02,2.028069645166397095e-02,-1.883209869265556335e-02,1.456089504063129425e-02,2.518909610807895660e-02,6.898685544729232788e-02
3.435713052749633789e-02,-1.273915730416774750e-02,-8.247860707342624664e-03,-3.168291226029396057e-02,-2.665244042873382568e-02,-2.744594961404800415e-02,-7.177169620990753174e-02,-2.863813191652297974e-02,-4.498577117919921875e-02
-1.942344941198825836e-02,-3.820828348398208618e-02,-2.440115623176097870e-02,-1.926188915967941284e-02,1.087290793657302856e-02,1.570715568959712982e-02,1.697209849953651428e-02,5.816070735454559326e-02,6.325885653495788574e-02
-1.639035716652870178e-02,3.766261786222457886e-02,1.830265484750270844e-02,-7.169416546821594238e-02,-2.181560359895229340e-02,1.934655755758285522e-02,-7.896983623504638672e-02,-5.090494640171527863e-03,-3.404243290424346924e-02
7.471247762441635132e-02,6.422732491046190262e-03,-5.564707145094871521e-02,-2.416366152465343475e-02,-2.034857310354709625e-02,-4.116670414805412292e-02,2.767586335539817810e-02,5.890583246946334839e-02,9.955739974975585938e-02
-2.550551295280456543e-02,-4.356820508837699890e-02,2.259082719683647156e-02,-1.268084812909364700e-02,-1.898306794464588165e-02,-4.767282400280237198e-03,1.596404798328876495e-02,2.186875417828559875e-02,-2.029582113027572632e-02
-4.783498123288154602e-02,-6.887998431921005249e-02,-3.125248104333877563e-02,-1.578691601753234863e-02,4.715568199753761292e-02,-4.235528782010078430e-02,-3.539368882775306702e-02,1.421274151653051376e-02,3.089309670031070709e-02
-3.069998323917388916e-02,-3.242844343185424805e-02,1.454896107316017151e-02,-6.763312965631484985e-02,-2.859399281442165375e-02,2.575099468231201172e-02,-1.296780817210674286e-02,-4.493799433112144470e-02,-1.524445228278636932e-02
-1.226402819156646729e-02,4.607759788632392883e-02,-1.899254712043330073e-04,1.053575333207845688e-02,2.152656763792037964e-02,-1.083729881793260574e-02,5.266071110963821411e-02,4.507604241371154785e-02,4.077969491481781006e-02
1.102158129215240479e-01,7.441338151693344116e-02,6.981477141380310059e-02,4.814272746443748474e-02,3.469854220747947693e-02,-2.270906604826450348e-02,-9.040140546858310699e-03,5.246283113956451416e-02,-1.190611813217401505e-02
-1.254399716854095459e-01,-3.478417173027992249e-02,-3.139197453856468201e-02,-1.176243424415588379e-01,-3.192627802491188049e-02,-1.385216414928436279e-02,4.234832152724266052e-02,8.084129542112350464e-03,-3.567773848772048950e-03
6.218851357698440552e-02,7.358015328645706177e-02,3.176238015294075012e-02,-7.815489545464515686e-03,2.273838594555854797e-02,-8.779246360063552856e-03,-2.522326074540615082e-02,-2.582980319857597351e-02,-3.885406628251075745e-02
1.626828685402870178e-02,-1.583548635244369507e-02,-2.303027734160423279e-02,4.074295051395893097e-03,-1.503775082528591156e-02,2.384033985435962677e-02,-3.181049972772598267e-02,4.384281858801841736e-02,-4.368723928928375244e-02
4.925332590937614441e-02,7.335009425878524780e-02,5.180871114134788513e-03,3.951807972043752670e-03,-1.089677587151527405e-02,1.146320067346096039e-02,-5.039023235440254211e-03,-7.256466895341873169e-02,-7.070345338433980942e-03
1.783629064448177814e-03,3.926518559455871582e-02,2.179585397243499756e-02,6.876104162074625492e-04,-1.151224016211926937e-03,2.575323916971683502e-02,-5.477788392454385757e-03,3.546173870563507080e-02,1.622161641716957092e-02
-5.077940598130226135e-02,-1.428461261093616486e-02,-7.237744284793734550e-04,-6.328199058771133423e-02,-4.110952466726303101e-02,-4.297961294651031494e-02,-4.501944780349731445e-02,-2.586763165891170502e-02,-8.887449651956558228e-02
2.807899750769138336e-02,5.243086442351341248e-02,1.064236983656883240e-01,-3.574290871620178223e-02,-2.472563832998275757e-02,-4.078125581145286560e-03,2.156809531152248383e-02,1.342057064175605774e-02,-4.239942505955696106e-02
3.757229074835777283e-02,1.381922140717506409e-02,-5.158399231731891632e-03,1.040050480514764786e-02,2.989821322262287140e-02,2.065673656761646271e-02,2.706195414066314697e-02,-6.353522185236215591e-03,-6.863149814307689667e-03
-2.360709756612777710e-02,-1.837733760476112366e-02,-4.998859763145446777e-02,-2.341571822762489319e-02,-3.465923294425010681e-02,4.270490631461143494e-02,1.208985876291990280e-02,2.761580422520637512e-02,-2.584724454209208488e-03
4.006019234657287598e-02,9.407190978527069092e-02,5.668622255325317383e-02,-2.577368170022964478e-02,-5.047622323036193848e-02,8.770266547799110413e-03,-4.656633734703063965e-02,5.125796049833297729e-02,-2.869482524693012238e-02
6.317125260829925537e-02,5.097545683383941650e-02,4.171237349510192871e-02,3.635023953393101692e-03,1.994505338370800018e-02,-3.981978632509708405e-03,2.637878432869911194e-02,7.048809528350830078e-02,1.108039915561676025e-02
-4.239473957568407059e-03,-1.686204597353935242e-02,-4.892575368285179138e-02,4.225123301148414612e-02,-9.220900945365428925e-03,-3.871127590537071228e-02,3.225391358137130737e-02,-5.533322691917419434e-02,-5.183560401201248169e-02
-4.235305637121200562e-02,1.978579908609390259e-02,1.115003973245620728e-02,-4.201151058077812195e-02,2.353162504732608795e-03,-1.502354629337787628e-02,4.294830933213233948e-02,5.632675811648368835e-02,6.945080822333693504e-04
-1.012556627392768860e-02,5.813683196902275085e-02,7.089878618717193604e-02,5.694463104009628296e-02,-7.320551667362451553e-03,-9.532874450087547302e-03,3.666656091809272766e-02,-3.174881916493177414e-03,1.464904379099607468e-02
-1.289506792090833187e-03,-3.717298805713653564e-02,-8.212883770465850830e-02,-6.264153867959976196e-03,-2.656448341440409422e-04,2.462499216198921204e-02,-2.492256835103034973e-02,6.560549139976501465e-02,3.637426719069480896e-02
-1.928768865764141083e-02,2.036496764048933983e-03,-4.216138273477554321e-02,-1.037996262311935425e-01,4.232922568917274475e-02,1.782513968646526337e-02,5.451909452676773071e-02,1.422029137611389160e-01,7.335648685693740845e-02
-1.479985564947128296e-02,-6.289736926555633545e-02,-1.028188504278659821e-02,-2.270805090665817261e-02,-2.172924764454364777e-02,3.462956100702285767e-02,-1.388629246503114700e-02,2.694168360903859138e-03,-7.827173918485641479e-03
1.214246358722448349e-02,-3.297117725014686584e-02,3.053174004890024662e-04,-3.405380994081497192e-02,-3.118206188082695007e-02,-1.449166145175695419e-02,2.494163066148757935e-02,3.801399469375610352e-02,3.591528534889221191e-02
-5.859171506017446518e-03,1.305021345615386963e-02,-6.798730464652180672e-04,1.436916831880807877e-02,-9.996855631470680237e-03,-5.854294169694185257e-03,-2.113065449520945549e-03,7.267189025878906250e-02,-3.022352419793605804e-02
-3.418480977416038513e-02,1.017752289772033691e-02,-2.717936970293521881e-02,-8.260451257228851318e-03,-3.270837245509028435e-03,5.148772522807121277e-02,3.904382884502410889e-02,-4.829310812056064606e-03,3.923701122403144836e-02
1.987863890826702118e-02,2.335780113935470581e-02,5.015122890472412109e-02,-4.567454569041728973e-03,-3.013405483216047287e-03,1.924280449748039246e-02,-3.853049129247665405e-02,-5.837844312191009521e-02,-1.892988570034503937e-02
-4.316825792193412781e-02,2.517635561525821686e-02,4.856408014893531799e-02,3.976123698521405458e-04,1.227178797125816345e-02,-1.546896621584892273e-02,2.025105245411396027e-02,1.405096147209405899e-02,7.247263099998235703e-03
7.208596915006637573e-03,-3.347531333565711975e-02,-6.581441313028335571e-02,-2.055335603654384613e-02,-9.734733402729034424e-02,-2.808605134487152100e-02,-1.122759059071540833e-01,1.546188374049961567e-03,-2.254703454673290253e-02
-3.192443028092384338e-02,-4.239201545715332031e-02,-1.388152409344911575e-02,-2.036272361874580383e-02,-6.029757205396890640e-03,-6.960120983421802521e-03,-2.300269901752471924e-02,-2.173451520502567291e-02,2.383378148078918457e-02
1.323681604117155075e-02,4.491228144615888596e-03,8.636967977508902550e-04,-6.181895732879638672e-03,-2.017720229923725128e-02,-7.305311504751443863e-03,-4.660166427493095398e-02,-4.061366245150566101e-02,-2.930708602070808411e-02
-2.267627418041229248e-02,2.467785030603408813e-02,-1.345873344689607620e-02,-5.490806326270103455e-02,-5.246636644005775452e-02,-2.538883686065673828e-02,5.033006891608238220e-02,6.388881057500839233e-02,2.081101387739181519e-02
2.021419070661067963e-02,9.106992743909358978e-03,1.177191454917192459e-02,-5.076491087675094604e-02,-1.169035583734512329e-02,-1.363917067646980286e-02,-7.658131420612335205e-02,-4.790063481777906418e-03,-9.951417893171310425e-02
6.705079227685928345e-02,-6.230578292161226273e-04,7.411891222000122070e-02,-1.839035935699939728e-02,1.167324837297201157e-02,-1.328910049051046371e-02,-9.052494913339614868e-02,-8.088435977697372437e-02,-2.507276274263858795e-02
2.861753292381763458e-02,-3.546249587088823318e-03,-3.771282732486724854e-03,-2.204267680644989014e-02,3.004317358136177063e-02,1.837338134646415710e-02,-4.503836110234260559e-02,6.065565627068281174e-03,1.979622431099414825e-02
-1.772848889231681824e-02,5.872044712305068970e-02,4.150379449129104614e-02,-5.136758461594581604e-02,-1.041620373725891113e-01,1.700063236057758331e-02,-2.016416937112808228e-02,-1.127809565514326096e-02,2.667028084397315979e-02
5.323056131601333618e-02,-2.472303435206413269e-02,2.584365941584110260e-02,3.014792688190937042e-02,8.588684722781181335e-03,2.919238992035388947e-02,2.057310007512569427e-02,9.396052919328212738e-03,-2.060396596789360046e-02
-3.093939647078514099e-02,4.669376090168952942e-02,2.753086946904659271e-02,2.298633800819516182e-03,3.049563616514205933e-02,1.912433281540870667e-02,-1.114720871555618942e-04,2.685564756393432617e-02,2.192263677716255188e-02
-3.591929003596305847e-02,-1.945653557777404785e-02,6.345896050333976746e-03,6.834976375102996826e-03,-4.517686739563941956e-02,-4.524463042616844177e-02,-1.137056574225425720e-02,1.993962749838829041e-02,1.378058106638491154e-03
-3.118887916207313538e-02,-8.318775147199630737e-02,-1.323475688695907593e-02,-2.172063477337360382e-02,-4.350518807768821716e-02,-2.628727816045284271e-02,-4.142516851425170898e-02,1.117341313511133194e-02,-5.436660349369049072e-02
2.957080677151679993e-02,1.576972566545009613e-02,1.668588444590568542e-02,4.745127167552709579e-03,7.249752432107925415e-02,1.491165254265069962e-02,8.443332277238368988e-03,1.182374265044927597e-02,4.031063523143529892e-03
-4.781485721468925476e-02,-3.693523630499839783e-02,-2.826666831970214844e-02,-4.150417074561119080e-02,-5.760227330029010773e-03,-2.207878604531288147e-02,-2.563091367483139038e-02,2.718067262321710587e-04,-6.598034873604774475e-03
1.017026528716087341e-01,-2.543860115110874176e-03,5.759241059422492981e-02,-3.255857899785041809e-02,6.044276803731918335e-02,7.428276818245649338e-03,3.914168104529380798e-02,7.842360064387321472e-03,4.256257787346839905e-02
2.803676389157772064e-02,1.269340217113494873e-01,-2.931918203830718994e-02,1.279352791607379913e-02,6.251711398363113403e-02,1.263505686074495316e-02,-2.246806398034095764e-02,1.354064233601093292e-02,-1.436005905270576477e-02
4.259223863482475281e-02,1.238233968615531921e-01,-3.071557916700839996e-02,-1.914795301854610443e-02,-2.575329318642616272e-02,6.258674548007547855e-04,2.534657949581742287e-03,2.168969810009002686e-02,-1.207496970891952515e-02
1.775841601192951202e-02,8.122832328081130981e-02,4.269362986087799072e-02,-6.337405182421207428e-03,3.732218965888023376e-02,-1.905610598623752594e-02,-4.886936396360397339e-02,-1.834978163242340088e-02,1.108991540968418121e-02
1.839907956309616566e-03,8.400886505842208862e-02,3.902865201234817505e-02,2.699356712400913239e-02,-1.239218050613999367e-03,2.230461128056049347e-02,3.282838733866810799e-03,6.104749161750078201e-03,-1.121625304222106934e-03
3.818182647228240967e-02,-5.582075566053390503e-02,3.938765451312065125e-02,2.450261823832988739e-02,-5.787674454040825367e-04,9.526790119707584381e-03,5.091798026114702225e-03,-1.145738409832119942e-03,-5.871169269084930420e-03
2.817665226757526398e-02,9.193405508995056152e-03,-8.675136603415012360e-03,2.258162200450897217e-02,7.934918394312262535e-04,3.129149228334426880e-02,-3.373049944639205933e-02,9.631748311221599579e-03,-1.217051595449447632e-02
-4.317350313067436218e-02,4.062265902757644653e-02,-3.934800252318382263e-02,-3.501332551240921021e-02,-6.684818118810653687e-02,-2.967355307191610336e-03,5.804769694805145264e-02,1.188415475189685822e-02,1.574888452887535095e-02
-9.714280604384839535e-04,-3.393260389566421509e-02,1.408275403082370758e-02,-1.321410667151212692e-02,-7.818198762834072113e-03,-1.989394798874855042e-02,-1.926397904753684998e-02,-1.490099448710680008e-02,-1.408094912767410278e-02
5.121258087456226349e-03,-6.959965080022811890e-02,2.023438457399606705e-03,2.033560350537300110e-02,1.097397599369287491e-02,3.486841917037963867e-02,-2.122647128999233246e-02,4.201568197458982468e-03,-2.250805310904979706e-02
-1.687440276145935059e-02,-6.869593262672424316e-02,1.314407214522361755e-02,-4.045524820685386658e-02,-4.538102820515632629e-02,4.526167642325162888e-03,-2.113554999232292175e-02,2.853216137737035751e-03,-2.455407939851284027e-02
-3.469091374427080154e-03,-6.746120005846023560e-02,3.479241579771041870e-02,7.278499193489551544e-03,-3.114553913474082947e-02,1.403488870710134506e-02,2.693934179842472076e-02,4.864732734858989716e-03,2.235270664095878601e-02
1.234803535044193268e-02,1.689589768648147583e-02,2.401846833527088165e-02,-1.141054648905992508e-02,6.234142184257507324e-02,-7.051949854940176010e-03,3.338153660297393799e-02,4.004560410976409912e-02,-2.322280406951904297e-02
3.000431135296821594e-02,4.068154469132423401e-02,2.420506440103054047e-02,-6.299648899585008621e-03,-5.566253513097763062e-02,-3.776061162352561951e-02,-4.259602632373571396e-03,9.699518792331218719e-03,1.295644789934158325e-02
-6.572174839675426483e-03,3.036830015480518341e-02,-3.050228208303451538e-02,-2.929528057575225830e-02,6.679997779428958893e-03,-2.670480497181415558e-02,-2.331141568720340729e-02,2.466425299644470215e-02,3.493914380669593811e-02
-3.101125545799732208e-02,-7.622167002409696579e-03,3.546936437487602234e-02,9.059164673089981079e-03,5.191583186388015747e-02,-5.585239734500646591e-03,8.785849437117576599e-03,-1.669945009052753448e-02,8.730578236281871796e-03
2.312811836600303650e-02,7.110765576362609863e-02,-2.158959023654460907e-02,-2.074040845036506653e-02,-4.619813337922096252e-02,2.160698361694812775e-02,-1.812128163874149323e-02,-1.177198160439729691e-02,-4.999488964676856995e-02
1.494631543755531311e-02,3.813350945711135864e-02,3.565391153097152710e-02,4.376848042011260986e-02,-2.371988492086529732e-03,-1.153306849300861359e-02,7.594162598252296448e-03,-8.086886256933212280e-03,3.774713352322578430e-02
-6.746992003172636032e-03,3.300731256604194641e-02,-2.921016141772270203e-02,-3.109075874090194702e-02,3.175063803791999817e-02,3.727108240127563477e-02,-2.848289906978607178e-03,2.650748752057552338e-02,4.050205647945404053e-02
-2.294083312153816223e-02,1.644682325422763824e-02,-3.289477899670600891e-02,-1.831297576427459717e-02,-4.091692343354225159e-02,5.555052310228347778e-03,-2.842550165951251984e-02,3.529196605086326599e-02,1.435511186718940735e-02
-3.487854078412055969e-02,-5.603531375527381897e-02,-2.048102673143148422e-03,3.528441069647669792e-03,-3.389160614460706711e-03,3.736014012247323990e-03,-1.929052546620368958e-02,8.003815310075879097e-04,1.261539291590452194e-02
-2.072370797395706177e-02,-3.481792984530329704e-03,2.162338607013225555e-02,-3.450286341831088066e-03,-3.357541188597679138e-02,1.728174276649951935e-02,-1.288768555968999863e-02,-4.820863250643014908e-03,4.830840043723583221e-03
-2.413395047187805176e-02,-5.534514412283897400e-02,-7.729662954807281494e-02,-1.831680722534656525e-02,5.108077824115753174e-02,7.008074782788753510e-03,8.048591762781143188e-02,5.627576634287834167e-02,4.067546501755714417e-02
1.483796536922454834e-02,1.307220663875341415e-04,-2.805032767355442047e-02,1.395042892545461655e-02,-2.302068285644054413e-02,-1.780132576823234558e-02,-1.056943088769912720e-03,-2.653557807207107544e-03,1.151734963059425354e-02
2.718414738774299622e-02,5.175136029720306396e-02,1.248144358396530151e-02,-2.909533679485321045e-02,-5.574949900619685650e-04,-8.671442046761512756e-03,1.621687225997447968e-02,2.332241646945476532e-02,2.579076774418354034e-02
4.346887394785881042e-02,2.288745343685150146e-02,-4.442852921783924103e-03,-2.574681304395198822e-02,-5.501894745975732803e-03,-2.686572447419166565e-02,-2.178862504661083221e-02,-1.706218346953392029e-02,-2.156075276434421539e-02
-8.411584421992301941e-03,3.277467936277389526e-02,-4.932694137096405029e-02,1.861936785280704498e-02,6.814026087522506714e-02,3.245378285646438599e-02,5.402299389243125916e-02,2.136475220322608948e-02,2.881095930933952332e-02
5.154283344745635986e-02,5.773734673857688904e-02,3.964218497276306152e-02,3.012167662382125854e-02,2.999998629093170166e-02,2.636871486902236938e-02,-4.101486876606941223e-03,1.455288566648960114e-02,-1.224920805543661118e-02
-4.259251523762941360e-03,-3.348038345575332642e-02,2.040238678455352783e-02,-2.877815254032611847e-02,5.873938649892807007e-02,2.094274945557117462e-02,-5.116454884409904480e-02,3.191170096397399902e-02,-1.780490390956401825e-02
2.972989156842231750e-02,3.769921138882637024e-02,3.477937728166580200e-02,2.079047448933124542e-02,2.148782275617122650e-02,4.792693257331848145e-02,-5.206568166613578796e-03,-1.898512244224548340e-02,-1.248324848711490631e-02
-1.418445259332656860e-02,-5.018233880400657654e-02,-3.565426170825958252e-02,3.427926823496818542e-02,7.659209519624710083e-02,2.233637869358062744e-02,1.175416260957717896e-02,8.789362385869026184e-03,-6.801718845963478088e-03
1.169951166957616806e-02,-3.743376210331916809e-02,1.106096711009740829e-02,-9.902088902890682220e-03,2.807048521935939789e-02,-4.307201877236366272e-02,-4.605640470981597900e-02,-1.608511060476303101e-02,-3.572867438197135925e-02
3.563810838386416435e-03,5.238173529505729675e-02,2.914670854806900024e-02,3.563137352466583252e-02,2.126438356935977936e-02,-3.064006101340055466e-03,3.158849850296974182e-02,-7.303013466298580170e-03,1.556576229631900787e-02
-2.854262292385101318e-02,-9.521246701478958130e-02,3.172424063086509705e-02,2.613823860883712769e-02,2.168265357613563538e-02,-3.466551424935460091e-03,-1.799033023416996002e-02,1.826800592243671417e-02,2.743727341294288635e-02
-1.523458631709218025e-03,3.636004403233528137e-03,-3.446401655673980713e-02,-4.906132444739341736e-02,-4.119111225008964539e-02,-1.906028948724269867e-02,9.759746491909027100e-03,-3.386745229363441467e-02,-2.005948126316070557e-02
-9.750789962708950043e-03,1.690988801419734955e-02,1.788852550089359283e-02,6.695006508380174637e-03,3.929272666573524475e-02,9.145970689132809639e-04,4.225968942046165466e-02,2.234959229826927185e-02,3.844531485810875893e-03
2.262138761579990387e-02,4.280260298401117325e-03,-1.777158118784427643e-02,3.848721040412783623e-03,9.984990581870079041e-03,-2.530585788190364838e-02,-2.092907950282096863e-02,1.534705050289630890e-02,1.523665525019168854e-02
-1.484945230185985565e-02,-3.290566056966781616e-02,2.055431529879570007e-02,4.055335000157356262e-02,2.384257689118385315e-02,-1.482415013015270233e-02,3.374865278601646423e-02,-3.304195776581764221e-02,-1.627356541575863957e-04
3.260113298892974854e-02,-6.387712061405181885e-02,5.588959436863660812e-03,9.755793143995106220e-05,3.187846764922142029e-02,-4.300029575824737549e-02,3.029534034430980682e-02,3.698559477925300598e-02,1.898436620831489563e-02
-2.496132999658584595e-02,1.047748606652021408e-02,2.889958024024963379e-02,-3.149655088782310486e-02,-2.257672883570194244e-02,1.475522527471184731e-03,1.223410200327634811e-02,8.925937116146087646e-03,9.389968588948249817e-03
3.596100956201553345e-03,4.657105728983879089e-02,5.108515173196792603e-02,3.494410216808319092e-02,5.520547181367874146e-02,-1.329452265053987503e-02,2.666396088898181915e-02,-2.434048335999250412e-03,-6.504323333501815796e-03
1.653002761304378510e-02,1.739274524152278900e-02,7.006371021270751953e-02,-7.514439523220062256e-03,-5.495127290487289429e-02,-1.191641110926866531e-02,-2.076777163892984390e-03,-8.002606220543384552e-03,1.600160077214241028e-02
-1.663559488952159882e-02,-2.261643484234809875e-02,-4.177505895495414734e-02,4.190403595566749573e-02,2.751140110194683075e-02,1.033690385520458221e-02,-1.558163603476714343e-05,-1.427379436790943146e-02,-2.071764133870601654e-02
4.122164845466613770e-02,-1.924531906843185425e-02,2.678920514881610870e-02,5.489030107855796814e-02,1.067391484975814819e-01,-5.379673675633966923e-04,2.193156071007251740e-02,2.365870028734207153e-02,4.889535531401634216e-02
-4.758063331246376038e-02,-6.926098838448524475e-03,-3.592567751184105873e-03,4.680169746279716492e-03,-5.281868204474449158e-02,-2.666252106428146362e-02,1.367887365631759167e-03,2.734664082527160645e-02,1.735531724989414215e-02
3.593042492866516113e-02,9.748083353042602539e-02,1.821153331547975540e-03,2.460956014692783356e-02,1.941143348813056946e-02,-7.524575106799602509e-03,2.144424803555011749e-02,1.442731264978647232e-02,-1.067360769957304001e-02
1.255565602332353592e-02,6.957874447107315063e-02,1.319730933755636215e-02,1.783084310591220856e-02,8.489803224802017212e-02,7.485099136829376221e-03,2.394436113536357880e-02,1.356504019349813461e-02,-2.101161051541566849e-03
-3.484591376036405563e-03,1.856538839638233185e-02,-1.297406107187271118e-02,-3.964708186686038971e-03,-1.451639551669359207e-02,-1.017191354185342789e-02,2.857800945639610291e-02,3.284849226474761963e-03,1.883781701326370239e-02
7.001811638474464417e-03,1.539034117013216019e-02,8.457814343273639679e-03,-2.798362635076045990e-02,5.353473126888275146e-03,3.538426011800765991e-02,-4.704337101429700851e-03,4.884758964180946350e-03,-1.535848062485456467e-02
-3.756548091769218445e-02,-1.919171772897243500e-02,-3.204134851694107056e-02,-4.572544246912002563e-02,-3.295458853244781494e-02,-3.777024149894714355e-02,2.021885104477405548e-02,1.230994798243045807e-02,-4.061488434672355652e-03
2.078237943351268768e-03,-3.149605914950370789e-02,-7.207321934401988983e-03,3.954151272773742676e-02,4.188985750079154968e-02,3.487938782200217247e-03,-4.687727615237236023e-02,-1.286940462887287140e-02,-3.168814629316329956e-02
-2.799466717988252640e-03,-4.753902554512023926e-02,-4.076281189918518066e-02,-3.599671274423599243e-02,1.546310633420944214e-02,-1.915242336690425873e-02,-1.092418096959590912e-02,-4.971976578235626221e-02,-3.666826710104942322e-02
-1.306002726778388023e-03,1.451148372143507004e-02,3.516098018735647202e-03,6.057028076611459255e-04,1.456189993768930435e-02,1.127402391284704208e-02,7.334675174206495285e-03,1.030125888064503670e-03,-8.852333761751651764e-03
-2.881867624819278717e-02,3.741316869854927063e-02,7.025248557329177856e-02,4.521355032920837402e-02,-3.598905727267265320e-02,2.052875235676765442e-02,2.607231028378009796e-02,4.376697167754173279e-02,2.189726755023002625e-02
6.191749498248100281e-02,6.453729420900344849e-02,6.154300644993782043e-02,-3.802224621176719666e-02,-4.043570533394813538e-02,1.135095767676830292e-02,-1.571274921298027039e-02,1.939061656594276428e-02,-3.939976915717124939e-03
2.538108825683593750e-02,6.716850399971008301e-02,8.942293003201484680e-03,1.805661432445049286e-02,9.627095423638820648e-03,-2.117295935750007629e-02,-5.178086459636688232e-03,-1.136496569961309433e-02,5.316780414432287216e-03
-3.161310777068138123e-02,8.387000299990177155e-03,-7.919089868664741516e-03,-7.694818545132875443e-03,1.701171509921550751e-02,-2.846802817657589912e-03,-2.142688259482383728e-02,4.838331602513790131e-03,-1.485785283148288727e-02
-5.324334278702735901e-02,1.941561512649059296e-02,3.202441707253456116e-02,-8.377610705792903900e-03,4.376880079507827759e-02,-1.277882605791091919e-01,2.212926372885704041e-02,-7.246558368206024170e-02,4.183979704976081848e-02
1.555110216140747070e-01,4.213075339794158936e-02,-4.925957694649696350e-02,1.176876649260520935e-01,-3.363845348358154297e-01,-5.572653375566005707e-03,6.219700723886489868e-02,-2.546924911439418793e-02,2.958446508273482323e-03
4.344454035162925720e-02,6.750352680683135986e-02,1.633053645491600037e-02,-6.217619404196739197e-02,1.432428508996963501e-01,6.854597479104995728e-02,6.653675436973571777e-02,-1.600670814514160156e-02,5.821144953370094299e-02
-5.696356762200593948e-03,-7.814686000347137451e-02,-4.720059037208557129e-02,-2.300137877464294434e-01,-1.261979788541793823e-01,-3.683783859014511108e-02,-6.074691191315650940e-02,-1.592460125684738159e-01,-1.308438740670681000e-02
-2.457999391481280327e-03,-7.588719576597213745e-02,-2.684612758457660675e-02,-4.231216758489608765e-02,-6.126835942268371582e-02,-9.353894740343093872e-03,7.753676734864711761e-03,1.008724793791770935e-03,5.124146118760108948e-02
-8.061002939939498901e-02,-3.935439512133598328e-02,-2.694593742489814758e-02,-7.503827102482318878e-03,-5.629007518291473389e-02,3.111401945352554321e-02,-5.193747952580451965e-02,4.288085177540779114e-02,-5.030424892902374268e-02
3.106486424803733826e-02,-2.572288364171981812e-02,-1.153461984358727932e-03,-1.589230261743068695e-02,-2.357284392928704619e-04,5.135789979249238968e-04,8.603071421384811401e-02,3.418009728193283081e-02,1.848290488123893738e-02
2.295551262795925140e-02,3.601853549480438232e-02,1.470475550740957260e-02,-3.604653105139732361e-02,-1.240449845790863037e-01,-2.880624681711196899e-02,-4.071704298257827759e-02,8.257778733968734741e-02,-1.377015933394432068e-02
-1.772110164165496826e-02,-1.061271503567695618e-02,-2.521382272243499756e-02,-4.291478917002677917e-02,1.521568745374679565e-01,-5.169769376516342163e-02,-5.837884172797203064e-02,5.196749791502952576e-02,8.650712668895721436e-03
8.852057158946990967e-02,-1.725253164768218994e-01,4.415726289153099060e-02,-4.892189521342515945e-03,1.748129278421401978e-01,1.085167601704597473e-01,1.345809698104858398e-01,-7.191448658704757690e-02,4.884881153702735901e-02
-7.627040031366050243e-04,-4.543764144182205200e-02,-1.736555062234401703e-02,5.640949681401252747e-02,-2.065266296267509460e-02,3.169445844832807779e-04,-1.657817512750625610e-02,1.154494881629943848e-01,3.079127892851829529e-02
9.590058028697967529e-02,-3.548377752304077148e-02,3.491151705384254456e-02,4.403958097100257874e-02,1.502072215080261230e-01,7.914514280855655670e-03,4.300943389534950256e-02,7.583457976579666138e-02,2.381221204996109009e-02
2.486001700162887573e-02,-4.532780870795249939e-02,2.394082024693489075e-02,2.476420253515243530e-02,-9.050396084785461426e-02,8.768902719020843506e-02,1.151431575417518616e-01,2.127354033291339874e-02,4.178676754236221313e-02
-4.082542657852172852e-02,-8.756324648857116699e-03,1.532033924013376236e-02,4.034065455198287964e-02,-3.015545904636383057e-01,-1.831436157226562500e-02,-6.842772010713815689e-03,-2.218878595158457756e-03,7.932999730110168457e-02
-5.901964381337165833e-02,-1.718274801969528198e-01,6.180840358138084412e-02,-5.272703617811203003e-02,-1.006267815828323364e-01,1.043339222669601440e-01,2.100025862455368042e-02,-1.487173736095428467e-01,-1.025105267763137817e-01
2.846456877887248993e-02,-8.516742289066314697e-02,-2.601594850420951843e-02,-1.915198937058448792e-02,1.291053742170333862e-01,-3.743017092347145081e-02,1.782498694956302643e-02,-3.563486039638519287e-02,6.570338737219572067e-03
2.968668565154075623e-02,-2.317875996232032776e-02,1.610491424798965454e-02,-3.668556734919548035e-02,-1.495000571012496948e-01,1.825817860662937164e-02,-2.375691756606101990e-02,-6.248800829052925110e-02,5.484372377395629883e-02
2.836573123931884766e-02,-1.590935746207833290e-03,1.293385168537497520e-03,-4.682285338640213013e-02,-5.375593155622482300e-02,-1.776802912354469299e-02,2.088629826903343201e-02,2.949877455830574036e-02,4.215367138385772705e-02
-7.024735957384109497e-02,-6.610614713281393051e-03,-1.792963594198226929e-02,1.597735658288002014e-02,-1.489894837141036987e-01,1.821444183588027954e-02,-5.340824648737907410e-02,-2.086986154317855835e-01,-4.762886557728052139e-03
6.643627583980560303e-02,-7.885482162237167358e-02,7.899618707597255707e-03,-1.269328892230987549e-01,-7.114057987928390503e-02,-2.609186060726642609e-02,5.388607084751129150e-02,3.249106556177139282e-02,1.014408022165298462e-01
4.213570617139339447e-03,-2.459918521344661713e-02,2.763809822499752045e-02,7.652692496776580811e-02,-6.284955143928527832e-02,3.352529928088188171e-02,6.764463335275650024e-02,-1.815186813473701477e-02,6.533665210008621216e-02
2.615477703511714935e-02,-1.645419001579284668e-01,5.619286675937473774e-04,-5.268496274948120117e-02,1.256237924098968506e-02,-7.173392921686172485e-02,-3.586866706609725952e-02,-2.920515835285186768e-02,-5.839747190475463867e-02
-1.223173364996910095e-02,1.347547918558120728e-01,2.037283964455127716e-03,-5.693918094038963318e-02,-2.625032961368560791e-01,-2.096531679853796959e-04,-8.972147107124328613e-02,-7.504586130380630493e-02,-3.139520436525344849e-02
-3.146352991461753845e-02,-1.358067840337753296e-01,-2.717174775898456573e-02,4.995897039771080017e-02,4.980265349149703979e-02,-8.544879965484142303e-03,-8.596654236316680908e-02,-1.609187386929988861e-02,-6.070479005575180054e-02
-3.585692320484668016e-04,5.835762247443199158e-03,2.921448461711406708e-02,-3.634026646614074707e-02,3.600669652223587036e-02,-2.163720130920410156e-02,-1.582326926290988922e-02,-1.876212507486343384e-01,-6.897173076868057251e-02
3.737440332770347595e-02,-6.429278850555419922e-02,1.731097232550382614e-03,3.163897246122360229e-02,3.506142273545265198e-02,-5.897251889109611511e-02,3.262338042259216309e-02,9.144267067313194275e-03,-8.283393830060958862e-02
1.986083388328552246e-02,3.078559227287769318e-02,-9.328943490982055664e-02,2.407205849885940552e-02,8.925132453441619873e-02,-2.692985832691192627e-01,-4.093834385275840759e-02,-1.488237679004669189e-01,-9.489675611257553101e-02
2.522054687142372131e-02,3.328064829111099243e-02,-9.783679852262139320e-04,4.422324709594249725e-03,5.767500493675470352e-03,1.143360231071710587e-02,-3.682438284158706665e-02,1.779582723975181580e-02,-9.088091552257537842e-02
6.876789033412933350e-02,2.239495515823364258e-02,1.374845276586711407e-03,8.853132277727127075e-02,1.469834987074136734e-02,-2.632546611130237579e-02,4.584471881389617920e-02,-5.217955261468887329e-02,2.920396067202091217e-02
6.034001335501670837e-02,-2.890481799840927124e-02,2.016677148640155792e-02,-5.087258666753768921e-02,-2.676906585693359375e-01,-1.858198940753936768e-01,-5.905111506581306458e-02,-1.483132038265466690e-02,1.048050727695226669e-02
1.240492146462202072e-02,2.878151275217533112e-02,4.850891605019569397e-02,8.957901969552040100e-03,2.387332729995250702e-02,-1.555834710597991943e-02,2.131115645170211792e-02,-2.257477864623069763e-02,-1.590539887547492981e-02
2.897497080266475677e-02,-5.510494112968444824e-02,-3.287037089467048645e-02,-4.686754196882247925e-02,9.792688488960266113e-02,9.244284778833389282e-02,-7.978455722332000732e-02,-1.057755351066589355e-01,1.776346378028392792e-02
-5.878780409693717957e-02,2.172470651566982269e-02,5.923978239297866821e-02,5.509870871901512146e-02,-2.076166495680809021e-02,3.850217163562774658e-02,-5.378814414143562317e-02,-4.246195033192634583e-02,-7.338745519518852234e-03
8.731348067522048950e-02,1.530577540397644043e-01,2.383064664900302887e-02,-8.599884808063507080e-02,8.160097151994705200e-02,-9.752237796783447266e-02,3.510413691401481628e-02,-4.933186341077089310e-03,1.384267304092645645e-02
8.505707234144210815e-02,5.661745741963386536e-02,-5.813317745923995972e-02,6.800793856382369995e-02,6.738695502281188965e-02,1.089158188551664352e-02,8.821690082550048828e-02,3.897189721465110779e-02,-2.785780280828475952e-02
-2.047995664179325104e-02,-2.066457420587539673e-01,-4.115646705031394958e-03,3.189187729731202126e-03,-2.935636043548583984e-01,-4.161123186349868774e-02,-2.443973533809185028e-02,5.626255646347999573e-02,7.126003503799438477e-02
3.554794192314147949e-02,-1.042481139302253723e-01,-1.220888271927833557e-02,-9.993629157543182373e-02,5.686177685856819153e-02,5.034162476658821106e-02,3.438154980540275574e-02,-2.433167397975921631e-02,1.703546196222305298e-02
-1.562087517231702805e-02,3.195700794458389282e-02,3.462652117013931274e-02,-1.702280342578887939e-02,-2.423796504735946655e-01,4.814927931874990463e-03,2.455325983464717865e-02,-6.337999552488327026e-02,1.878901384770870209e-02
5.033054575324058533e-02,1.294037252664566040e-01,1.057483721524477005e-02,-4.632823541760444641e-02,7.346031814813613892e-02,1.528943143784999847e-02,1.092590987682342529e-01,4.524489864706993103e-02,4.185904562473297119e-02
8.795076981186866760e-03,1.082572937011718750e-01,-3.245208039879798889e-02,-2.196082845330238342e-02,2.104901522397994995e-01,-4.657714441418647766e-02,-7.000383920967578888e-03,1.148794684559106827e-02,-7.266162335872650146e-02
-1.837341673672199249e-02,8.800315856933593750e-02,-7.505986839532852173e-03,6.730815768241882324e-02,-1.738988757133483887e-01,7.362606376409530640e-02,-5.536828562617301941e-02,3.799100592732429504e-02,-2.001899294555187225e-02
2.829405479133129120e-02,1.286916155368089676e-02,5.459170415997505188e-02,-4.568596556782722473e-02,7.468087226152420044e-02,-5.451295152306556702e-02,1.421283651143312454e-02,1.035607047379016876e-02,7.347376644611358643e-02
1.528386492282152176e-02,-1.141644828021526337e-02,-3.983123227953910828e-02,-9.136348031461238861e-03,9.124259650707244873e-02,-2.525003254413604736e-02,1.116993930190801620e-02,4.092443268746137619e-03,1.047230288386344910e-01
1.158002112060785294e-02,7.013303227722644806e-03,-1.636474877595901489e-01,-2.503709681332111359e-02,-5.599378421902656555e-02,-5.646765232086181641e-02,6.380651891231536865e-02,-3.967082127928733826e-02,2.239231765270233154e-02
-1.681717857718467712e-02,-5.800970271229743958e-02,1.092728693038225174e-02,2.330247685313224792e-02,5.400267988443374634e-02,-1.538150012493133545e-03,-7.200983818620443344e-03,-1.118573322892189026e-01,-1.523356512188911438e-02
-4.464004933834075928e-02,-1.176373474299907684e-02,-7.837048918008804321e-02,-1.190310642123222351e-01,1.522237528115510941e-02,-1.133456826210021973e-01,-9.025315940380096436e-02,3.374920785427093506e-02,-5.261234566569328308e-02
-2.644034847617149353e-02,-4.141071345657110214e-03,-6.082267686724662781e-02,2.323492057621479034e-02,1.295906025916337967e-02,-3.693085908889770508e-02,6.018111016601324081e-03,-1.350593473762273788e-02,-3.952840808779001236e-03
2.819145657122135162e-02,1.071383431553840637e-02,-9.033081680536270142e-02,9.999779611825942993e-02,4.053526371717453003e-02,-2.223794814199209213e-03,-3.668896155431866646e-03,-1.572374068200588226e-02,-6.279417872428894043e-02
-1.046063657850027084e-02,8.134449273347854614e-02,-1.980486325919628143e-02,-6.781581044197082520e-02,1.976539939641952515e-02,8.158250898122787476e-02,2.046427689492702484e-02,-1.440694332122802734e-01,-6.397914886474609375e-02
6.845322251319885254e-02,1.582509726285934448e-01,7.437147200107574463e-02,6.480784714221954346e-02,-4.647811874747276306e-02,5.894515290856361389e-02,7.289137691259384155e-02,4.717846214771270752e-02,2.521503716707229614e-02
-2.003172412514686584e-02,-2.399779111146926880e-02,7.177250832319259644e-02,-6.540344562381505966e-03,9.508150629699230194e-03,5.369593948125839233e-02,7.461323589086532593e-02,6.067238748073577881e-02,-3.687327355146408081e-02
1.119352653622627258e-01,4.176272824406623840e-02,-2.164251729846000671e-02,-1.262894459068775177e-02,1.217505112290382385e-01,4.123063385486602783e-02,2.941543236374855042e-03,-1.089144051074981689e-01,-7.911772280931472778e-02
2.588224783539772034e-02,2.382189407944679260e-02,6.617871671915054321e-02,-1.630268990993499756e-02,1.389158219099044800e-01,-4.112165793776512146e-02,-7.249728590250015259e-02,-5.995127558708190918e-02,9.655007161200046539e-03
-5.422853305935859680e-02,-2.792195789515972137e-02,5.883235018700361252e-03,-6.004263460636138916e-02,2.579486370086669922e-01,2.388372272253036499e-02,2.575160004198551178e-02,2.672935836017131805e-02,-3.403715044260025024e-02
3.595058992505073547e-02,3.459854423999786377e-02,-4.337669909000396729e-02,-1.074887439608573914e-02,5.462437868118286133e-02,4.028902202844619751e-02,1.069085150957107544e-01,-5.005287751555442810e-02,1.224290486425161362e-02
-3.050347976386547089e-02,-5.643452331423759460e-02,2.271448262035846710e-03,1.150884106755256653e-02,1.489687561988830566e-01,3.304187580943107605e-02,-6.859874702058732510e-04,9.087051451206207275e-02,1.222753059118986130e-02
-2.888591587543487549e-02,-3.015276044607162476e-02,-1.470547541975975037e-02,-2.424873597919940948e-02,-1.239918842911720276e-01,-1.028751805424690247e-01,4.710452631115913391e-02,1.200677827000617981e-01,-5.925510544329881668e-03
-5.231321975588798523e-02,-4.539301991462707520e-02,-3.804987994953989983e-03,-1.950532197952270508e-02,-9.905622154474258423e-02,-4.878661781549453735e-02,-5.944262817502021790e-02,-1.673891954123973846e-02,-6.309200078248977661e-03
3.462395071983337402e-02,-7.752171251922845840e-03,-2.588118612766265869e-02,-5.813642218708992004e-02,5.444922298192977905e-02,-1.995440945029258728e-02,1.900061033666133881e-02,3.417063504457473755e-02,2.678957767784595490e-03
-1.221310719847679138e-02,5.632972344756126404e-03,2.755309827625751495e-02,2.398004755377769470e-02,3.580685332417488098e-02,-1.020511961542069912e-03,-1.304093934595584869e-02,-2.878794819116592407e-02,1.739651896059513092e-03
4.445530474185943604e-02,5.817866697907447815e-02,-1.224850397557020187e-02,7.903438806533813477e-02,-1.455650776624679565e-01,1.002326235175132751e-01,7.168738543987274170e-02,1.534493714570999146e-01,6.724730879068374634e-02
1.225467771291732788e-01,1.173338964581489563e-01,8.213556557893753052e-02,5.922894924879074097e-02,2.486125975847244263e-01,3.663242980837821960e-02,1.127246320247650146e-01,-9.543737024068832397e-02,1.706748306751251221e-01
-1.720005460083484650e-02,-6.335724145174026489e-02,-1.651674695312976837e-02,-8.169391006231307983e-02,1.410369127988815308e-01,-3.523011505603790283e-02,-1.724490709602832794e-02,-1.813767850399017334e-02,7.386928424239158630e-03
-7.231777068227529526e-03,1.113599911332130432e-02,1.121653709560632706e-02,-8.463697135448455811e-02,9.873235970735549927e-02,-1.482756529003381729e-02,7.672199606895446777e-02,-6.353054195642471313e-03,5.200789496302604675e-02
1.774987205862998962e-02,1.200555823743343353e-02,2.341769821941852570e-02,1.401673257350921631e-02,-4.738295823335647583e-02,1.163752377033233643e-02,4.600022360682487488e-02,1.641233451664447784e-02,-7.956180721521377563e-02
-3.898454457521438599e-02,3.808990865945816040e-02,1.014127675443887711e-02,-2.350511588156223297e-02,1.038096696138381958e-01,-8.453626185655593872e-02,-1.750381849706172943e-02,4.338589205872267485e-04,4.329873621463775635e-02
5.568201839923858643e-02,-7.493163459002971649e-03,-1.846667937934398651e-02,5.436821281909942627e-02,-8.517792075872421265e-02,-7.318506389856338501e-02,1.141373440623283386e-02,-4.821948334574699402e-02,3.923561889678239822e-03
4.264988750219345093e-02,3.875738009810447693e-02,6.545485462993383408e-03,6.141064316034317017e-02,3.335051611065864563e-02,-7.779280189424753189e-03,5.646592751145362854e-02,-8.108673617243766785e-03,4.766748473048210144e-02
-1.622935198247432709e-02,2.029940485954284668e-02,-3.589830175042152405e-02,-7.315702736377716064e-02,-1.134551241993904114e-01,-7.947281002998352051e-02,-8.226665109395980835e-02,-2.623870223760604858e-02,3.487091045826673508e-03
3.862691670656204224e-02,-3.719832748174667358e-02,4.667362570762634277e-02,-2.882308140397071838e-02,1.046766787767410278e-01,8.307875134050846100e-03,1.506763696670532227e-02,2.795399725437164307e-02,3.347927704453468323e-02
-4.520702734589576721e-02,1.096859923563897610e-03,-2.162941545248031616e-02,-1.383932400494813919e-02,-6.898752599954605103e-02,1.924760267138481140e-02,-1.656947284936904907e-02,-7.177993655204772949e-02,-1.750189065933227539e-02
-3.104129433631896973e-02,3.170198947191238403e-02,3.585604205727577209e-02,9.043702483177185059e-02,1.630586087703704834e-01,-1.169381663203239441e-02,-2.847015159204602242e-03,-1.141261402517557144e-02,4.134066775441169739e-02
-6.466736644506454468e-02,-3.227999433875083923e-02,5.028080940246582031e-02,-1.527031185105443001e-03,-3.929018601775169373e-02,-1.790645346045494080e-02,2.312649227678775787e-02,-3.594105318188667297e-02,-2.206696517532691360e-04
-6.365631520748138428e-02,9.210608154535293579e-02,-5.564626189880073071e-04,4.923617094755172729e-02,-1.947996020317077637e-02,-4.431878030300140381e-02,-3.031682223081588745e-02,-2.644420228898525238e-02,1.634099520742893219e-02
-3.423960506916046143e-02,3.992566093802452087e-02,7.144639641046524048e-02,-4.583295807242393494e-02,8.147175423800945282e-03,-8.687954396009445190e-02,-5.254967510700225830e-02,1.769873488228768110e-04,7.275915890932083130e-02
1.054114568978548050e-02,-2.659045904874801636e-02,-3.273830190300941467e-02,-5.658710002899169922e-02,-1.035116240382194519e-02,-3.422642499208450317e-02,-2.541310153901576996e-03,-6.520021706819534302e-02,-5.648083612322807312e-02
-8.817631751298904419e-03,1.629471406340599060e-02,-5.370355676859617233e-03,-2.474930137395858765e-02,-3.722049668431282043e-02,-3.861508145928382874e-02,-3.798449039459228516e-02,-2.951015159487724304e-02,-4.381936788558959961e-02
-3.792966902256011963e-02,-1.801061071455478668e-02,-3.185889218002557755e-03,-5.276482924818992615e-02,6.246077269315719604e-02,1.249917503446340561e-02,-1.971986889839172363e-02,-7.329233456403017044e-03,-2.058016322553157806e-02
3.775488212704658508e-02,3.843196481466293335e-02,1.940847141668200493e-03,-2.763013169169425964e-02,1.415012031793594360e-01,-1.339864451438188553e-02,-2.916563861072063446e-02,-2.792307175695896149e-02,2.450909093022346497e-02
4.651547595858573914e-02,5.943737924098968506e-02,3.830916061997413635e-02,2.347542345523834229e-02,-1.223058551549911499e-01,9.913354367017745972e-02,2.026242949068546295e-02,8.582081645727157593e-02,-2.479246817529201508e-02
-2.234524302184581757e-02,5.777748674154281616e-02,1.206460781395435333e-02,5.961435288190841675e-02,9.572028182446956635e-03,4.068887606263160706e-02,2.678640186786651611e-02,-1.059367135167121887e-02,9.346100501716136932e-03
5.657725036144256592e-03,-1.515894569456577301e-02,-2.690575458109378815e-02,-2.255502529442310333e-02,-4.226472228765487671e-02,-4.768287390470504761e-02,-9.357067756354808807e-03,8.051660843193531036e-03,-4.124962538480758667e-02
-1.846904866397380829e-02,-6.918648257851600647e-03,-1.191085111349821091e-02,-1.255239266902208328e-02,5.445685982704162598e-02,4.819840937852859497e-02,1.235610991716384888e-02,1.465393975377082825e-02,1.727920398116111755e-02
3.128262981772422791e-02,-2.605758793652057648e-02,-2.136875689029693604e-02,-1.350384205579757690e-02,1.289968192577362061e-01,5.333716981112957001e-03,4.807047173380851746e-02,-6.117408629506826401e-03,-2.150208503007888794e-02
6.578618776984512806e-04,-1.142292283475399017e-02,-3.961527347564697266e-02,2.216836251318454742e-02,1.457661539316177368e-01,4.568802192807197571e-03,4.411647096276283264e-03,-1.410957332700490952e-02,1.666730642318725586e-02
-7.402306888252496719e-03,3.683347254991531372e-02,-1.480656955391168594e-02,-2.232730761170387268e-02,5.673517659306526184e-02,-7.854130119085311890e-02,-2.437787875533103943e-02,-2.729481831192970276e-02,4.519704729318618774e-02
3.153484314680099487e-02,9.649989195168018341e-03,-2.694739773869514465e-02,2.574090473353862762e-02,1.192199587821960449e-01,8.056524395942687988e-02,3.757751733064651489e-02,3.289130330085754395e-02,3.587688878178596497e-02
6.668729335069656372e-02,3.042477183043956757e-03,6.117099151015281677e-02,-1.080472115427255630e-02,-2.150046871975064278e-03,-7.446790486574172974e-02,-2.668953686952590942e-02,-7.699549943208694458e-02,1.663583889603614807e-02
5.475782230496406555e-02,-2.686429768800735474e-03,7.947657257318496704e-03,7.124006748199462891e-02,-6.617011874914169312e-02,2.595917880535125732e-02,9.091648273169994354e-03,9.888944029808044434e-02,5.232387408614158630e-02
1.996091380715370178e-02,1.082630231976509094e-01,1.032706815749406815e-03,-1.473114127293229103e-03,1.487634629011154175e-01,2.015948295593261719e-02,-2.092483639717102051e-02,-1.226244587451219559e-02,-4.524366185069084167e-02
-2.949474006891250610e-02,3.889866918325424194e-02,1.929019391536712646e-02,3.504291176795959473e-03,1.013533025979995728e-01,4.042829945683479309e-02,-4.240592010319232941e-03,1.035723239183425903e-01,-9.311142493970692158e-04
1.215507183223962784e-02,-4.346584156155586243e-02,-1.235201302915811539e-02,-1.100037805736064911e-02,1.306263171136379242e-02,-4.649298265576362610e-02,4.199067770969122648e-04,-4.013303201645612717e-03,2.428438514471054077e-02
-4.418898746371269226e-02,3.833300620317459106e-02,-7.604789570905268192e-04,-1.516779959201812744e-01,6.518448889255523682e-02,2.878195047378540039e-02,2.931470982730388641e-02,4.390575364232063293e-02,-1.485477574169635773e-02
-2.406591735780239105e-02,3.680370748043060303e-02,-2.946986118331551552e-03,-4.054300859570503235e-02,5.249268561601638794e-02,7.690840214490890503e-02,-4.656053334474563599e-02,-5.073643475770950317e-02,-2.679981105029582977e-02
8.089621551334857941e-03,-4.938016831874847412e-02,7.423002971336245537e-04,-3.692071884870529175e-02,1.940203458070755005e-02,-1.246188487857580185e-02,-2.256430499255657196e-02,-4.034921526908874512e-02,-1.603203825652599335e-02
-1.583338156342506409e-02,-3.070258721709251404e-02,-6.342663615942001343e-02,2.542057307437062263e-03,-2.339538559317588806e-02,-8.794669061899185181e-02,-2.752659469842910767e-02,-6.560541689395904541e-02,-2.243153983727097511e-03
-5.026378855109214783e-02,-9.512773714959621429e-03,-8.573807775974273682e-02,-1.212869882583618164e-01,-5.126104503870010376e-02,6.556218117475509644e-02,2.766623534262180328e-02,8.095361292362213135e-03,1.554379332810640335e-02
-4.150613024830818176e-02,-5.688560009002685547e-02,4.375380277633666992e-02,6.758432090282440186e-02,5.093964282423257828e-03,4.493496567010879517e-02,1.592973247170448303e-02,7.828701287508010864e-02,-4.427077621221542358e-02
-9.155622683465480804e-03,1.610766537487506866e-02,2.546310797333717346e-02,4.712633322924375534e-03,-2.642867527902126312e-02,7.547509158030152321e-04,-2.914921613410115242e-03,-8.803592994809150696e-03,2.949597127735614777e-02
3.813720121979713440e-02,9.436573833227157593e-02,-5.748543515801429749e-02,-5.109677091240882874e-02,1.471150070428848267e-01,5.650485306978225708e-02,3.206071257591247559e-02,4.595756903290748596e-02,-1.169805601239204407e-02
-7.026345934718847275e-03,-1.572011597454547882e-02,-1.551538892090320587e-02,1.446656137704849243e-02,-4.412245936691761017e-03,-3.748872131109237671e-02,-2.092776354402303696e-03,2.707875147461891174e-02,2.891234681010246277e-02
-3.936395980417728424e-03,3.165528178215026855e-02,-2.136319503188133240e-02,2.063062787055969238e-02,8.191333711147308350e-02,8.178462274372577667e-03,3.153105080127716064e-02,5.562482029199600220e-02,-1.998698525130748749e-02
-1.093672513961791992e-01,-5.914429202675819397e-02,-4.665672406554222107e-02,-2.118242532014846802e-02,-5.957053229212760925e-02,-7.910776184871792793e-05,-7.160626351833343506e-02,-5.716465786099433899e-02,-4.784149676561355591e-02
-1.306853350251913071e-02,-2.202224358916282654e-02,-3.148462250828742981e-02,-1.848134212195873260e-02,-3.175512552261352539e-01,-4.599192366003990173e-02,1.071799080818891525e-02,-1.123528461903333664e-02,-3.909078985452651978e-02
-4.274335876107215881e-02,-1.482563558965921402e-02,1.063679624348878860e-02,3.107068361714482307e-03,2.882672124542295933e-04,-2.984120696783065796e-02,2.313126064836978912e-02,3.354187821969389915e-03,2.842088975012302399e-02
1.611620187759399414e-02,2.164289169013500214e-02,-3.855099156498908997e-02,-2.604829380288720131e-03,4.267166368663311005e-03,2.995247021317481995e-03,-4.284471273422241211e-02,-3.586362302303314209e-02,-7.235450204461812973e-03
3.285698965191841125e-02,2.773547172546386719e-02,1.732206158339977264e-02,2.103972062468528748e-02,-1.395243257284164429e-01,3.384478390216827393e-02,-4.291391000151634216e-03,-3.619841486215591431e-02,3.522914648056030273e-02
1.248328713700175285e-03,-4.415675252676010132e-02,9.630179405212402344e-02,-6.033309176564216614e-02,-8.918669074773788452e-02,-1.691116206347942352e-02,-1.422554627060890198e-02,2.224916592240333557e-02,-4.390516877174377441e-02
-1.200248673558235168e-02,-4.399362020194530487e-03,2.924874192103743553e-03,3.937041386961936951e-02,-7.558595389127731323e-02,4.521155357360839844e-02,9.563977830111980438e-03,3.121846169233322144e-02,-2.043282799422740936e-02
2.852159366011619568e-02,-1.811193674802780151e-02,1.694499701261520386e-02,7.655940204858779907e-02,-8.773864246904850006e-03,1.422303467988967896e-01,2.654121071100234985e-02,-1.966284215450286865e-02,9.248895570635795593e-03
4.000195488333702087e-02,3.890990838408470154e-02,5.134464055299758911e-02,5.229797959327697754e-02,9.054705500602722168e-02,1.041329279541969299e-01,2.757060900330543518e-02,9.656463563442230225e-02,-3.583618439733982086e-03
4.360910877585411072e-02,4.244688525795936584e-02,4.855589568614959717e-02,-5.830795690417289734e-02,1.061736196279525757e-01,4.314357787370681763e-02,8.445429801940917969e-02,1.753123849630355835e-02,4.303482174873352051e-02
4.774938523769378662e-02,-3.601599857211112976e-02,-1.876779273152351379e-02,8.150264620780944824e-02,2.452342025935649872e-02,3.142437664791941643e-03,-3.639535978436470032e-02,2.152420580387115479e-02,-2.175542060285806656e-03
-2.812247537076473236e-02,-2.064063400030136108e-02,-4.123506601899862289e-03,2.495487919077277184e-03,2.648222260177135468e-02,-6.512404233217239380e-02,-1.708403415977954865e-02,-6.776514649391174316e-02,-1.224304782226681709e-03
-4.996984079480171204e-02,6.386744230985641479e-02,1.442102435976266861e-02,1.340318098664283752e-02,8.067974122241139412e-04,-2.889080159366130829e-02,-3.924930840730667114e-02,-1.200779154896736145e-02,-3.682745620608329773e-02
-5.542296543717384338e-02,-3.752800449728965759e-02,-6.199130788445472717e-02,-1.280381437391042709e-02,-6.508747488260269165e-02,8.327143266797065735e-03,-4.254953190684318542e-02,1.446757232770323753e-03,-7.900863140821456909e-02
1.616757945157587528e-03,-4.017671197652816772e-02,-1.362168602645397186e-02,1.572906784713268280e-02,-1.775579303503036499e-01,8.169466629624366760e-03,1.667040959000587463e-02,-1.238170266151428223e-02,3.333563357591629028e-02
5.756548489443957806e-04,-2.072434639558196068e-03,-2.925788611173629761e-02,-4.981672391295433044e-02,-8.394515514373779297e-02,7.066425401717424393e-03,-6.045712158083915710e-03,2.059943228960037231e-02,-7.257111370563507080e-03
-1.514571253210306168e-02,-1.260773465037345886e-02,2.720959484577178955e-03,-6.598129868507385254e-03,1.110098528442904353e-04,2.988009154796600342e-02,1.861591637134552002e-02,-4.339088872075080872e-02,3.362092003226280212e-02
6.455212831497192383e-02,-8.618593215942382812e-03,-5.487458407878875732e-02,-4.082836955785751343e-02,-5.101979151368141174e-02,2.742815064266324043e-03,1.382711925543844700e-03,5.847733467817306519e-02,-3.690665215253829956e-02
4.136259853839874268e-02,6.223842874169349670e-02,2.770764939486980438e-02,2.203259617090225220e-02,1.278512477874755859e-01,-3.977334871888160706e-02,-1.713123545050621033e-02,-4.243282601237297058e-02,-3.743499051779508591e-03
-3.705005720257759094e-02,1.309511438012123108e-02,-2.217745175585150719e-03,1.319641526788473129e-02,-1.282747089862823486e-02,2.413916587829589844e-02,2.403778769075870514e-02,-9.441497735679149628e-03,1.297286804765462875e-02
-4.248204082250595093e-02,-5.671914666891098022e-02,5.907092988491058350e-02,-5.739689245820045471e-02,-4.140906408429145813e-02,-3.676143288612365723e-02,5.761300679296255112e-03,-4.099803790450096130e-02,-3.120429813861846924e-02
-2.052130177617073059e-02,-1.325907837599515915e-02,-3.425264265388250351e-03,1.494449749588966370e-02,-1.550756245851516724e-01,1.099413726478815079e-02,-9.544912725687026978e-03,-5.944555159658193588e-03,-2.896504476666450500e-02
-1.054812595248222351e-02,-7.092094980180263519e-03,6.293417513370513916e-02,-6.158692762255668640e-02,1.654942631721496582e-01,5.672869831323623657e-02,9.493514895439147949e-03,-1.796285435557365417e-02,3.820843994617462158e-02
-4.250538349151611328e-02,-5.209037289023399353e-02,-7.285462319850921631e-02,-7.722088694572448730e-02,-1.450563967227935791e-02,-6.009172275662422180e-02,-8.019715547561645508e-02,6.300108879804611206e-02,-8.247154206037521362e-02
-8.709456771612167358e-03,-2.458192873746156693e-03,-9.853917174041271210e-03,1.345274597406387329e-02,-1.285068970173597336e-02,3.321545571088790894e-02,-3.569466061890125275e-03,2.027522958815097809e-02,-4.673669114708900452e-03
-5.230766907334327698e-02,-2.563912793993949890e-02,-3.028935007750988007e-02,-1.152020879089832306e-02,-4.283130913972854614e-02,-2.589619904756546021e-02,-2.691323123872280121e-02,-5.331609770655632019e-02,-4.097206518054008484e-02
2.608264563605189323e-03,-2.640483714640140533e-02,-9.727125987410545349e-03,1.288732513785362244e-02,-8.414807962253689766e-04,2.795393578708171844e-03,4.023808985948562622e-03,4.379181936383247375e-02,3.658940643072128296e-02
-3.432548791170120239e-02,2.296162210404872894e-02,1.738291233777999878e-02,-1.674538850784301758e-02,1.505266223102807999e-02,2.608158439397811890e-02,-4.788488615304231644e-03,-1.104878494516015053e-03,1.309657935053110123e-02
1.620719395577907562e-02,-1.543790381401777267e-02,4.863841924816370010e-03,2.537157014012336731e-02,-4.004674777388572693e-02,6.381326913833618164e-02,1.224393863230943680e-02,1.681420579552650452e-02,1.230174675583839417e-02
-2.472178312018513680e-03,-1.683767139911651611e-02,-6.387582514435052872e-03,2.364556118845939636e-02,8.270233869552612305e-02,-5.246681626886129379e-03,-6.876500556245446205e-04,2.388272434473037720e-02,-7.528583519160747528e-03
-2.727955952286720276e-02,1.142352353781461716e-02,-1.269863825291395187e-02,1.769707351922988892e-02,4.035514593124389648e-02,-1.180519256740808487e-02,-1.881144940853118896e-02,-1.525787822902202606e-02,-3.744480013847351074e-02
9.002282284200191498e-03,1.523103564977645874e-02,3.204485401511192322e-04,1.441438030451536179e-02,-5.155090242624282837e-03,1.436658296734094620e-02,-2.103108353912830353e-02,-1.679467409849166870e-02,3.258775919675827026e-03
2.254171267850324512e-04,1.231509260833263397e-02,-6.795513909310102463e-03,-2.639515697956085205e-02,1.485727354884147644e-02,-7.030266802757978439e-03,-3.273846954107284546e-02,-7.099240901879966259e-04,-1.186534296721220016e-02
-3.936901222914457321e-03,-1.428196951746940613e-02,-2.581287361681461334e-02,-3.136364743113517761e-02,1.478461828082799911e-02,1.927754096686840057e-02,1.359385810792446136e-02,2.138216223102062941e-05,1.475702598690986633e-02
4.047066904604434967e-04,-2.101801335811614990e-02,7.583652622997760773e-03,1.520491112023591995e-02,-5.086743272840976715e-03,-5.235987249761819839e-03,-2.916032075881958008e-02,-7.168088108301162720e-03,-1.587605662643909454e-02
-1.821518875658512115e-02,-2.383039519190788269e-02,7.138708606362342834e-03,-4.532885737717151642e-03,1.346052065491676331e-02,-2.710599685087800026e-03,-1.940758712589740753e-02,-3.045847453176975250e-02,-1.261575706303119659e-02
-6.898367311805486679e-03,7.588171865791082382e-03,-1.805577240884304047e-02,-7.818654179573059082e-03,-7.328120060265064240e-03,4.177766386419534683e-03,-3.611103817820549011e-02,1.739835948683321476e-03,-1.379288360476493835e-02
1.098552253097295761e-02,2.437873929738998413e-02,4.380387254059314728e-03,3.850277140736579895e-02,-3.046840429306030273e-02,2.389816939830780029e-02,2.081367373466491699e-02,1.512322016060352325e-02,1.073445286601781845e-02
-2.672578953206539154e-02,3.488214313983917236e-02,-2.007854171097278595e-02,1.490948256105184555e-02,9.958573430776596069e-02,-2.613535849377512932e-03,-3.007545601576566696e-03,-1.608422584831714630e-02,-9.813702665269374847e-03
-1.167049445211887360e-02,-2.674293518066406250e-02,-2.634167298674583435e-02,-2.092293649911880493e-02,4.297314584255218506e-02,-1.384784840047359467e-02,-7.116248365491628647e-03,-1.391736324876546860e-02,-1.676856353878974915e-02
1.914418861269950867e-02,-5.129254888743162155e-03,2.867998741567134857e-02,5.108002573251724243e-02,-2.357506565749645233e-02,-6.106810178607702255e-03,-8.796461857855319977e-03,-2.264606952667236328e-02,-7.490699179470539093e-03
-3.469752892851829529e-02,1.452663727104663849e-02,-1.200905186124145985e-03,6.423058919608592987e-03,-8.011437021195888519e-03,-6.077272351831197739e-03,4.335506819188594818e-03,6.757054943591356277e-03,6.619172636419534683e-03
-1.227070298045873642e-02,1.319782459177076817e-03,4.141430836170911789e-03,8.721578633412718773e-04,-6.761579308658838272e-03,-3.933301777578890324e-04,5.441085901111364365e-03,-8.244719356298446655e-03,-1.020738948136568069e-02
5.077511537820100784e-03,1.069832500070333481e-02,6.577861495316028595e-03,-1.979414746165275574e-02,4.603682458400726318e-02,-2.492445334792137146e-02,5.076611787080764771e-02,2.261374145746231079e-03,-1.374259591102600098e-02
9.222092106938362122e-03,-2.150307595729827881e-02,6.938768201507627964e-04,2.961198240518569946e-02,5.556640215218067169e-03,-2.691063098609447479e-03,-2.005977556109428406e-02,-7.655653462279587984e-05,-2.478827908635139465e-02
1.489209011197090149e-02,1.842812262475490570e-02,1.716960594058036804e-02,1.349957380443811417e-02,2.008082519751042128e-04,-3.205369040369987488e-02,1.465494651347398758e-02,1.090736128389835358e-03,-3.559994697570800781e-02
3.037384152412414551e-02,3.182580694556236267e-02,-1.099908538162708282e-02,1.457393728196620941e-02,-2.893567644059658051e-02,1.335707586258649826e-02,2.367951534688472748e-02,1.491834409534931183e-02,-2.245864830911159515e-03
-3.084250539541244507e-02,1.616607536561787128e-03,-9.086366742849349976e-03,-2.231961674988269806e-02,1.042846404016017914e-02,-1.015983801335096359e-02,-2.543592266738414764e-02,-2.684951759874820709e-03,8.206360042095184326e-03
-9.026755578815937042e-03,-2.098348364233970642e-02,-1.299390755593776703e-02,3.396514430642127991e-02,7.565474137663841248e-03,-1.236009411513805389e-02,8.627157076261937618e-04,-9.600182063877582550e-03,-4.851877689361572266e-02
1.267184969037771225e-02,2.551190741360187531e-02,4.179656505584716797e-03,-1.581276953220367432e-02,1.274927891790866852e-02,-1.331535913050174713e-02,-1.168777048587799072e-02,-3.022608347237110138e-03,-7.867055013775825500e-03
5.880960263311862946e-03,2.049685455858707428e-02,-3.014174290001392365e-02,3.804564848542213440e-02,4.557023569941520691e-02,2.644522348418831825e-03,-2.751762745901942253e-03,-1.147561706602573395e-02,2.392215188592672348e-03
2.276133745908737183e-03,-1.816984824836254120e-02,-1.944922283291816711e-02,9.124869480729103088e-03,1.215260926983319223e-04,1.648234948515892029e-02,2.715904451906681061e-02,2.200756454840302467e-03,-2.333790180273354053e-04
-4.667839780449867249e-02,-7.682483177632093430e-03,-1.190002635121345520e-02,7.126691751182079315e-03,-1.420299895107746124e-02,-9.320333600044250488e-03,-3.157901018857955933e-02,5.221287719905376434e-03,-2.108925767242908478e-02
9.229667484760284424e-03,1.163676287978887558e-02,1.099311164580285549e-03,-1.898652699310332537e-04,1.674081664532423019e-03,-9.795768186450004578e-03,8.049537427723407745e-03,-1.397192291915416718e-02,-7.237875834107398987e-03
-5.700556561350822449e-03,-3.088166750967502594e-02,4.767501726746559143e-03,-1.820943690836429596e-02,6.992622744292020798e-03,-7.877919822931289673e-03,-2.066133357584476471e-02,-1.713988371193408966e-02,1.422764733433723450e-03
2.347643300890922546e-02,6.755392532795667648e-03,-1.760314963757991791e-02,3.674606978893280029e-02,-6.038444116711616516e-04,-3.805811284109950066e-03,-7.176400162279605865e-03,-5.255380179733037949e-03,-3.819986304733902216e-04
-1.517263520509004593e-02,-4.327248781919479370e-02,3.928117919713258743e-03,-1.801803335547447205e-02,-3.691877424716949463e-02,1.589979743584990501e-03,1.079313177615404129e-02,-2.169138379395008087e-02,-2.552222833037376404e-02
-1.006671227514743805e-03,-2.293618582189083099e-02,1.217270269989967346e-03,-2.576413191854953766e-02,-3.801975026726722717e-02,-1.076053641736507416e-02,-1.130910310894250870e-02,-1.905161701142787933e-02,-2.793832495808601379e-02
7.536500226706266403e-03,-9.090682491660118103e-03,-2.129410277120769024e-04,-1.426372583955526352e-02,-2.847515791654586792e-02,4.355366807430982590e-03,-1.988485688343644142e-03,-1.511420123279094696e-02,-2.950090914964675903e-03
5.063126329332590103e-03,-5.857591517269611359e-03,-3.545414889231324196e-03,6.641098763793706894e-03,7.145231589674949646e-03,1.443711761385202408e-02,-2.013446763157844543e-02,-3.821471333503723145e-02,8.491748943924903870e-03
3.857762785628437996e-03,-7.766130380332469940e-03,2.238618955016136169e-02,-1.471881195902824402e-02,5.223317071795463562e-02,2.722724713385105133e-02,2.776855602860450745e-02,2.300417982041835785e-02,1.347276382148265839e-02
-1.031890045851469040e-02,-1.181835122406482697e-02,1.785741373896598816e-02,3.164038571412675083e-05,3.872266784310340881e-02,5.236641503870487213e-03,-2.989674732089042664e-02,-5.129740387201309204e-02,-4.171350970864295959e-02
-2.133030444383621216e-02,2.060297131538391113e-02,-2.135556377470493317e-02,1.580547541379928589e-02,3.814107622019946575e-04,-9.634036570787429810e-03,-1.271857414394617081e-02,7.792459335178136826e-03,-2.139930054545402527e-02
-1.118640974164009094e-02,-3.767175367102026939e-03,-2.755106799304485321e-02,-2.523628249764442444e-02,4.130296036601066589e-02,-1.380647718906402588e-02,-1.135412137955427170e-02,3.314474830403923988e-03,-6.381317041814327240e-03
-1.551996078342199326e-02,-8.249707520008087158e-03,3.097837179666385055e-05,-4.270354285836219788e-03,1.499724201858043671e-02,5.957798101007938385e-03,-5.057655740529298782e-03,-7.222032174468040466e-03,-1.086775679141283035e-02
1.348462235182523727e-02,3.377417335286736488e-03,-1.387152820825576782e-02,-1.968046650290489197e-02,1.905275741592049599e-03,-1.015947852283716202e-02,-3.028120659291744232e-02,-1.340045593678951263e-02,1.421200111508369446e-02
-1.183594018220901489e-02,-1.998197694774717093e-04,1.209993846714496613e-02,1.903217198560014367e-04,7.171902805566787720e-02,-1.799461431801319122e-02,-3.792767971754074097e-02,-3.526670858263969421e-02,-1.440982613712549210e-02
-4.189338535070419312e-03,-1.595378667116165161e-02,-2.203852124512195587e-02,4.592836368829011917e-03,-7.627872284501791000e-03,1.947034150362014771e-02,8.570353500545024872e-03,5.435386206954717636e-03,-4.404299426823854446e-03
2.785003930330276489e-02,-6.292215082794427872e-03,-2.148021757602691650e-02,-2.498995140194892883e-02,7.019184529781341553e-03,1.380340009927749634e-02,5.328229628503322601e-03,2.064427919685840607e-02,-4.422212485224008560e-03
-1.595868356525897980e-02,2.212727442383766174e-03,-7.491103024221956730e-04,-3.579910844564437866e-02,2.940987423062324524e-02,-1.019726227968931198e-02,-2.342776954174041748e-02,-4.038698226213455200e-02,-1.088953390717506409e-02
4.598347842693328857e-02,2.735099382698535919e-02,7.379027549177408218e-03,-2.163716405630111694e-02,1.225516945123672485e-02,-6.016469560563564301e-03,1.025751605629920959e-02,-2.077141031622886658e-02,-1.062801107764244080e-02
3.756953403353691101e-03,-2.828402630984783173e-02,-3.500270098447799683e-02,-2.079528570175170898e-02,1.621633768081665039e-02,-2.565960772335529327e-02,9.903383906930685043e-04,-1.789937727153301239e-03,-3.729798132553696632e-03
2.266952395439147949e-02,3.011090913787484169e-03,-4.390400368720293045e-03,3.342144191265106201e-02,-3.020201064646244049e-02,1.503142993897199631e-02,-1.930046081542968750e-02,-1.460613496601581573e-02,-1.123159192502498627e-02
-2.124118432402610779e-02,-1.903191767632961273e-02,-1.550300326198339462e-02,2.407720685005187988e-02,8.135203272104263306e-03,-1.256911642849445343e-02,-1.520628947764635086e-02,-7.821164093911647797e-03,-6.750524509698152542e-03
-2.596257813274860382e-02,-2.777466550469398499e-02,2.571691758930683136e-02,-2.255674824118614197e-02,5.238177254796028137e-02,-3.414957225322723389e-02,-2.268548496067523956e-02,-2.403280884027481079e-02,-2.199575304985046387e-03
-1.081760972738265991e-02,1.261933147907257080e-02,-2.881099935621023178e-03,-2.971560461446642876e-03,2.436014451086521149e-02,3.861613199114799500e-02,-2.557388879358768463e-02,3.356973407790064812e-03,-4.831896629184484482e-03
1.028051786124706268e-02,-2.228307770565152168e-03,-3.569816472008824348e-03,7.187739945948123932e-03,-1.722281984984874725e-02,5.146652087569236755e-02,1.688338071107864380e-02,-4.898346029222011566e-03,-4.582872614264488220e-03
