-3.258689120411872864e-02,3.295929729938507080e-02,-2.952217869460582733e-02,-1.632486283779144287e-02,-1.315277162939310074e-02,2.030286565423011780e-02,-2.244688756763935089e-02,2.167980186641216278e-02,-8.356773294508457184e-03
1.448999997228384018e-02,-4.675551317632198334e-03,3.477146849036216736e-02,7.027173414826393127e-03,9.738434106111526489e-03,3.128808748442679644e-04,2.171628549695014954e-02,8.295548148453235626e-03,2.280152216553688049e-02
3.437870368361473083e-02,1.715333573520183563e-02,1.548036094754934311e-02,4.179746285080909729e-02,2.395753748714923859e-02,1.197250746190547943e-02,-6.333106011152267456e-02,5.959879606962203979e-03,-1.430402160622179508e-03
2.348356135189533234e-02,1.101610250771045685e-02,-4.788856953382492065e-02,3.355779871344566345e-02,-3.769635921344161034e-03,1.614629477262496948e-01,-1.370910555124282837e-02,3.797403303906321526e-03,9.084833785891532898e-03
-5.167507100850343704e-03,2.141664968803524971e-03,4.172547161579132080e-02,-8.034619502723217010e-03,2.953683491796255112e-03,8.277753368020057678e-03,-5.724598653614521027e-03,-2.399466000497341156e-02,2.177182398736476898e-02
-2.737555280327796936e-02,1.714633079245686531e-03,-2.835420705378055573e-02,1.353202387690544128e-02,8.172037079930305481e-03,2.237347327172756195e-02,1.369817298837006092e-03,-1.828598789870738983e-02,-1.267522480338811874e-02
-2.634488919284194708e-04,9.097068011760711670e-02,-8.281508088111877441e-02,-3.213749453425407410e-02,2.508572116494178772e-02,8.453846909105777740e-03,-2.870846539735794067e-02,-6.508633960038423538e-03,2.482103928923606873e-02
1.614111103117465973e-02,6.204957608133554459e-03,-4.580900538712739944e-03,-6.513540633022785187e-03,6.660141050815582275e-03,-1.973825506865978241e-02,-5.314695648849010468e-03,8.475826121866703033e-03,2.753582224249839783e-02
-3.536551818251609802e-02,2.158567681908607483e-02,2.484422922134399414e-02,-1.166955381631851196e-02,-6.573007442057132721e-03,7.072472362779080868e-04,-1.598997414112091064e-02,2.269087545573711395e-02,1.659357338212430477e-03
-1.021808013319969177e-02,7.359629869461059570e-02,-4.223969881422817707e-04,-2.950408961623907089e-04,-8.445832878351211548e-03,6.504263728857040405e-03,2.254524081945419312e-02,1.162010896950960159e-02,2.280771732330322266e-02
-6.139859557151794434e-03,-2.519880188629031181e-03,-5.942843109369277954e-02,1.461107190698385239e-02,3.169229626655578613e-02,1.732625961303710938e-01,6.572607159614562988e-02,7.106450200080871582e-02,-8.217719383537769318e-03
-2.808406017720699310e-03,3.249118104577064514e-02,-1.091664135456085205e-01,1.922625675797462463e-02,3.688967600464820862e-02,2.761551178991794586e-02,9.944100864231586456e-03,1.477778051048517227e-02,-6.805674172937870026e-03
3.101235628128051758e-02,7.219811435788869858e-03,-1.612529624253511429e-03,1.104849763214588165e-02,-5.705248564481735229e-02,3.963358700275421143e-02,7.219333201646804810e-02,8.752547204494476318e-03,-7.377358851954340935e-04
-5.608853418380022049e-03,8.585317991673946381e-03,1.029673740267753601e-01,5.839551333338022232e-03,-6.554245017468929291e-03,-1.437585218809545040e-03,3.134114667773246765e-04,2.356927143409848213e-03,7.467643357813358307e-03
2.803517319262027740e-02,1.211447292007505894e-03,-7.498797774314880371e-02,4.690241441130638123e-02,5.926180258393287659e-02,-1.319176703691482544e-02,3.407288342714309692e-02,-2.134546171873807907e-03,4.274572804570198059e-02
-1.161095499992370605e-02,-3.323202580213546753e-02,6.831564754247665405e-02,-1.488898787647485733e-02,1.350959111005067825e-02,5.537096876651048660e-03,8.222141303122043610e-03,3.609709814190864563e-02,1.399189513176679611e-02
-2.573661878705024719e-02,3.659445047378540039e-02,-8.824305608868598938e-03,-2.324824221432209015e-02,4.371033608913421631e-02,1.762543991208076477e-02,1.216330192983150482e-02,1.149656064808368683e-02,7.883591577410697937e-03
2.152547985315322876e-02,-2.769185416400432587e-02,5.239765346050262451e-02,-1.633088663220405579e-02,2.207948081195354462e-02,2.441529929637908936e-02,-2.291058190166950226e-03,-2.964325062930583954e-02,1.190103217959403992e-02
-1.585015282034873962e-02,-1.457869354635477066e-02,-1.915709115564823151e-02,9.316761977970600128e-03,-6.528969854116439819e-03,-1.947877928614616394e-02,-7.633278612047433853e-03,-2.805051917675882578e-04,-2.776516601443290710e-02
-3.420219989493489265e-03,8.187802508473396301e-03,-5.430819839239120483e-02,-3.167566610500216484e-04,1.622980693355202675e-03,1.418415457010269165e-02,4.717030562460422516e-03,-2.260599518194794655e-03,5.717979744076728821e-03
-1.076912228018045425e-02,-3.995577618479728699e-02,-3.833873197436332703e-02,-2.595242811366915703e-03,1.835869438946247101e-02,5.756549537181854248e-03,2.694433555006980896e-03,-3.551200497895479202e-04,-1.462708786129951477e-02
4.549639765173196793e-03,-1.923404075205326080e-02,-3.861334547400474548e-02,-8.710770867764949799e-03,-1.063506212085485458e-02,-2.256437763571739197e-02,-1.777002005837857723e-03,2.717297466006129980e-04,3.767164656892418861e-03
1.580256409943103790e-02,9.117843583226203918e-04,1.456607431173324585e-01,4.044211469590663910e-03,1.209549233317375183e-02,3.125060349702835083e-03,-1.169647322967648506e-03,3.243976738303899765e-03,4.496369883418083191e-02
1.052935514599084854e-02,-1.532461307942867279e-02,1.159509718418121338e-01,-1.598065346479415894e-02,1.889338251203298569e-03,8.357690647244453430e-03,1.374432700686156750e-03,8.866337011568248272e-04,-2.304174192249774933e-02
-1.766473799943923950e-02,3.567397221922874451e-02,5.398776382207870483e-02,2.893534116446971893e-02,3.487681597471237183e-02,-4.709346219897270203e-02,-5.903627723455429077e-03,-4.748462140560150146e-02,6.103793624788522720e-03
9.103523334488272667e-04,2.056212723255157471e-02,-2.490353770554065704e-02,2.626752667129039764e-02,-8.079519122838973999e-02,-9.774398989975452423e-03,-1.347659714519977570e-02,7.378461770713329315e-03,-1.176952384412288666e-02
8.618179708719253540e-03,-3.374292049556970596e-03,-5.935792997479438782e-02,-6.686821579933166504e-03,3.187422454357147217e-02,1.143089029937982559e-02,1.335189328528940678e-03,-5.034237168729305267e-03,1.302300486713647842e-02
-2.332902327179908752e-02,6.117900088429450989e-02,-8.875381201505661011e-03,-1.062411721795797348e-02,1.043567713350057602e-02,1.693670637905597687e-02,-1.645673997700214386e-02,-2.339900843799114227e-02,1.668206043541431427e-02
3.662867099046707153e-02,8.799354732036590576e-02,-1.578754186630249023e-02,6.596595048904418945e-02,3.452929481863975525e-02,-2.367504872381687164e-02,-6.499231792986392975e-03,1.033357623964548111e-02,4.743375815451145172e-03
3.519725054502487183e-03,3.994613885879516602e-02,3.383871540427207947e-02,-6.420176476240158081e-03,5.313958600163459778e-02,1.958464644849300385e-02,-4.188404884189367294e-03,2.460905350744724274e-02,5.567152053117752075e-02
-9.299927623942494392e-04,-3.103841282427310944e-02,-4.043955355882644653e-02,2.070978097617626190e-02,-7.936824113130569458e-03,7.886233180761337280e-02,1.977911219000816345e-02,1.083814539015293121e-02,1.326111331582069397e-02
-5.119318608194589615e-03,1.364674977958202362e-02,5.283408239483833313e-02,1.683889515697956085e-02,5.544142052531242371e-02,1.054486334323883057e-01,-1.765180937945842743e-02,3.059740550816059113e-02,1.724670175462961197e-03
1.745664514601230621e-02,2.144404873251914978e-02,4.543338716030120850e-02,2.942923270165920258e-02,5.336767993867397308e-03,4.794353991746902466e-02,4.874844104051589966e-02,-3.715363144874572754e-02,-1.307979132980108261e-02
-1.070733647793531418e-02,5.112468823790550232e-02,5.979176983237266541e-02,-9.564460255205631256e-03,-2.054910548031330109e-02,8.002816885709762573e-02,2.350928261876106262e-02,3.882822766900062561e-02,4.012109711766242981e-02
-3.973677754402160645e-03,3.402975946664810181e-02,5.359344929456710815e-02,1.063896715641021729e-02,2.595968311652541161e-03,-8.758148178458213806e-03,-4.282555729150772095e-02,-1.448037754744291306e-02,-1.169542502611875534e-02
8.870339021086692810e-03,1.129275653511285782e-02,-1.111878305673599243e-01,-3.284716513007879257e-03,4.309526644647121429e-03,7.982879877090454102e-02,4.644077643752098083e-02,3.088096156716346741e-03,2.484223805367946625e-02
7.343080942519009113e-04,1.638396233320236206e-01,2.561777457594871521e-02,4.586215317249298096e-02,4.197425767779350281e-02,1.961780153214931488e-02,2.638876996934413910e-02,4.927560687065124512e-03,-3.291568905115127563e-02
-1.057984190993010998e-03,2.865912765264511108e-02,3.639701381325721741e-02,-3.748241113498806953e-03,2.265213243663311005e-02,3.427609801292419434e-02,2.486081421375274658e-02,1.165368501096963882e-02,2.575167641043663025e-02
-4.131913185119628906e-03,1.244215480983257294e-02,1.587525457143783569e-01,8.858486078679561615e-03,2.309588715434074402e-03,7.649563252925872803e-02,-4.417146556079387665e-03,-8.378420025110244751e-03,-1.106023043394088745e-02
-1.583129167556762695e-02,6.069408264011144638e-03,-9.869089722633361816e-02,-9.902651421725749969e-03,-2.995680831372737885e-02,3.213249891996383667e-02,2.950302732642740011e-04,-1.845878735184669495e-02,-3.006772324442863464e-02
1.507813483476638794e-02,-1.648648269474506378e-02,-2.092764899134635925e-02,1.926211826503276825e-02,1.240730285644531250e-02,-2.866763807833194733e-02,3.074333071708679199e-02,-3.131775930523872375e-02,5.077748093754053116e-03
1.764807477593421936e-02,5.089915916323661804e-02,9.438702464103698730e-02,2.145559992641210556e-03,7.844772189855575562e-02,-2.688721567392349243e-02,-7.027529645711183548e-04,1.296238135546445847e-02,9.394797496497631073e-03
2.561199478805065155e-02,7.723104953765869141e-02,1.136516928672790527e-01,4.477433115243911743e-02,-2.552854595705866814e-03,-9.576080739498138428e-02,2.572294697165489197e-02,2.088212966918945312e-02,-2.486968971788883209e-02
-3.152716532349586487e-02,9.502362459897994995e-03,8.506920933723449707e-02,-8.472605608403682709e-03,-4.236529394984245300e-02,2.720901556313037872e-02,-9.392523206770420074e-03,1.376994792371988297e-02,2.538226731121540070e-02
-2.624886110424995422e-04,5.564223602414131165e-02,7.171235233545303345e-02,-2.759488299489021301e-02,9.816510137170553207e-04,-1.015694811940193176e-02,-5.882656574249267578e-02,-1.176374033093452454e-03,1.315850485116243362e-02
2.457099221646785736e-02,-1.141063775867223740e-02,1.463747471570968628e-01,1.359742600470781326e-02,-5.794003605842590332e-03,-5.046744272112846375e-02,8.109809830784797668e-03,2.865008078515529633e-02,-2.568138763308525085e-02
2.256441861391067505e-02,-3.416888788342475891e-02,4.175467044115066528e-02,-1.506778504699468613e-02,-1.590315997600555420e-02,-1.588297821581363678e-02,-2.815448213368654251e-03,-6.832037586718797684e-03,-5.065245088189840317e-03
-1.394246704876422882e-02,-9.549189358949661255e-02,1.354781240224838257e-01,3.089740872383117676e-02,5.222968384623527527e-02,8.154045045375823975e-02,5.635901913046836853e-02,7.821217924356460571e-02,1.398250460624694824e-02
8.172007277607917786e-03,1.867047511041164398e-02,-3.166759014129638672e-02,2.362794475629925728e-03,1.224813284352421761e-03,4.625815153121948242e-02,2.472764346748590469e-03,1.970125176012516022e-02,-3.413577377796173096e-02
-4.504009615629911423e-03,1.216940488666296005e-02,1.442502439022064209e-02,4.080030776094645262e-04,5.694861337542533875e-02,-2.912718616425991058e-02,-1.776219462044537067e-03,2.741404436528682709e-02,2.148873731493949890e-02
6.360647082328796387e-02,2.179628796875476837e-02,-2.152961678802967072e-02,4.532830044627189636e-02,3.157782554626464844e-02,-1.768263615667819977e-02,1.999089261516928673e-03,6.262622773647308350e-02,7.807335816323757172e-03
4.984544217586517334e-02,6.503707170486450195e-02,-6.404688954353332520e-02,-2.258959226310253143e-03,1.179061979055404663e-01,-2.536566555500030518e-02,1.037834398448467255e-02,-1.204901747405529022e-02,-3.473313152790069580e-02
2.252351865172386169e-02,5.030536651611328125e-02,3.949248790740966797e-02,9.778631851077079773e-03,-2.352016232907772064e-02,3.126225247979164124e-02,-1.561367977410554886e-02,-1.236944831907749176e-02,9.487256407737731934e-03
5.337973684072494507e-02,6.622830033302307129e-02,6.727529317140579224e-02,-5.564102437347173691e-03,6.627899408340454102e-02,-1.722617074847221375e-02,1.102925371378660202e-02,1.146650221198797226e-02,3.840519580990076065e-03
2.187902294099330902e-02,-4.032192751765251160e-02,-9.011988341808319092e-02,1.420787349343299866e-02,4.395320639014244080e-02,6.523360498249530792e-03,-2.566694514825940132e-03,5.875907372683286667e-03,9.964970871806144714e-03
2.148888632655143738e-02,-6.713567767292261124e-03,4.291434958577156067e-02,-1.529986388050019741e-03,1.174647361040115356e-02,5.449887830764055252e-03,1.952831447124481201e-02,3.140797140076756477e-03,4.796858131885528564e-02
-1.367451716214418411e-02,-3.381994739174842834e-02,-1.293427869677543640e-02,4.873562231659889221e-02,-1.404482685029506683e-02,-1.330346520990133286e-02,1.897047832608222961e-02,2.112159878015518188e-02,-7.400277536362409592e-05
-3.435214236378669739e-02,1.420405134558677673e-02,-8.732762932777404785e-02,-2.487376332283020020e-02,-1.532343961298465729e-02,-2.602588944137096405e-02,-1.740806922316551208e-02,-2.610394544899463654e-02,1.418952271342277527e-02
-1.526038069278001785e-02,3.593277931213378906e-02,2.800529124215245247e-03,3.599541634321212769e-02,-1.965988054871559143e-02,-2.228946052491664886e-02,9.761747904121875763e-03,8.723869919776916504e-03,1.404697261750698090e-02
-2.446746826171875000e-02,-3.497226163744926453e-02,-1.837981119751930237e-02,8.049846626818180084e-03,-1.577037200331687927e-02,1.682895980775356293e-02,6.049578078091144562e-03,2.042400464415550232e-02,-2.611500769853591919e-02
-3.265625610947608948e-02,-1.446074456907808781e-03,-8.450049906969070435e-03,-7.099963258951902390e-03,8.464851998724043369e-04,1.613699272274971008e-02,6.704733707010746002e-03,4.315764643251895905e-03,-1.693848520517349243e-02
-3.050623461604118347e-03,-5.299865733832120895e-04,1.333003747276961803e-03,-1.025531161576509476e-02,3.969279583543539047e-03,1.114091463387012482e-02,6.169199477881193161e-03,1.828430965542793274e-02,2.511105127632617950e-02
-9.834948927164077759e-03,2.282469160854816437e-02,6.535199284553527832e-02,-1.439661439508199692e-02,-3.078609146177768707e-02,-9.545995853841304779e-03,-2.953676506876945496e-03,5.045064724981784821e-03,-1.582881435751914978e-02
-4.058917239308357239e-02,3.033794276416301727e-02,5.748020112514495850e-02,-3.982756286859512329e-03,-2.279271930456161499e-02,2.338417246937751770e-02,4.509816691279411316e-02,3.965158481150865555e-03,3.873707726597785950e-02
3.272793442010879517e-02,4.529947042465209961e-02,2.662092447280883789e-02,2.594881225377321243e-03,2.124351263046264648e-02,4.822190478444099426e-02,3.537465259432792664e-02,4.816307500004768372e-02,2.725829184055328369e-02
-1.432853750884532928e-02,-3.257842268794775009e-03,-1.160525064915418625e-02,-2.269620634615421295e-02,-3.943854570388793945e-02,-1.133303809911012650e-02,-3.943882882595062256e-02,-1.121303532272577286e-02,-2.574136480689048767e-02
-2.594120986759662628e-02,-2.520521916449069977e-02,-4.333147779107093811e-02,-1.817847415804862976e-02,1.951512694358825684e-02,-3.584651276469230652e-02,1.860350742936134338e-02,6.403870880603790283e-02,2.946435846388339996e-02
-1.756522245705127716e-02,-1.760328374803066254e-02,-2.881704084575176239e-02,1.938696391880512238e-02,-2.262610010802745819e-02,-5.753936991095542908e-02,4.269868880510330200e-02,7.717963773757219315e-03,2.646772190928459167e-02
-2.748179808259010315e-02,-7.532179355621337891e-02,-1.465999055653810501e-02,-2.854431606829166412e-02,-1.782332547008991241e-03,-2.402777038514614105e-02,-4.860031232237815857e-02,-3.437498956918716431e-02,-2.063420601189136505e-02
-2.755571715533733368e-02,-2.191215939819812775e-02,-2.369356900453567505e-02,-2.718444727361202240e-02,-9.193287231028079987e-03,-2.651320397853851318e-02,7.164135575294494629e-03,-4.437720868736505508e-03,-3.694018349051475525e-02
2.898186212405562401e-04,3.068996034562587738e-02,-3.420400619506835938e-02,1.577146723866462708e-02,1.184130460023880005e-02,-1.984000951051712036e-02,-1.729408092796802521e-02,9.089018567465245724e-04,-2.283579669892787933e-02
-5.382924340665340424e-03,1.786450296640396118e-02,-4.116076161153614521e-04,2.995868586003780365e-02,3.697048127651214600e-02,-1.717172213830053806e-03,-1.285724528133869171e-02,-8.726745145395398140e-04,2.446072176098823547e-03
4.826160147786140442e-03,2.299613133072853088e-02,2.309451438486576080e-02,1.806037873029708862e-02,-1.266583707183599472e-02,5.275545408949255943e-04,-9.503374807536602020e-03,-2.391495741903781891e-02,-1.337447855621576309e-02
-3.573002293705940247e-02,-7.342687342315912247e-03,-2.722955681383609772e-02,-2.508946508169174194e-02,8.364953100681304932e-03,-1.940888352692127228e-02,-1.497096382081508636e-02,-1.544638443738222122e-02,7.058177143335342407e-04
1.585068926215171814e-02,-2.140334062278270721e-02,-1.689836569130420685e-02,1.262653060257434845e-02,6.540033500641584396e-03,-1.251489948481321335e-02,4.439922922756522894e-04,7.734629907645285130e-04,-2.384171634912490845e-02
-7.253759540617465973e-03,-4.517250228673219681e-03,3.310785070061683655e-02,1.342041976749897003e-02,1.346057560294866562e-02,2.007476752623915672e-03,3.483909880742430687e-03,-1.273962901905179024e-03,-1.395598170347511768e-03
-2.576734498143196106e-02,-3.162834048271179199e-02,9.172610938549041748e-03,-2.378252334892749786e-02,5.648991093039512634e-03,-1.422537770122289658e-02,-1.802237890660762787e-02,3.389189718291163445e-03,2.149613946676254272e-02
-1.144340541213750839e-02,-1.804437302052974701e-02,-6.166738457977771759e-03,-3.195728734135627747e-02,3.486543893814086914e-02,-6.599152460694313049e-03,-5.190861877053976059e-03,-1.763790100812911987e-02,-1.568508893251419067e-02
2.370435744524002075e-02,-6.176982540637254715e-03,-3.299229219555854797e-02,-1.672797650098800659e-02,1.367651764303445816e-02,1.763569749891757965e-02,-9.853892959654331207e-03,-6.750398781150579453e-03,-3.218093141913414001e-02
-1.718504726886749268e-02,-3.363377228379249573e-02,-2.707662433385848999e-02,-6.958329118788242340e-03,-2.761182002723217010e-02,-4.197995737195014954e-02,-1.912791095674037933e-02,-5.267993081361055374e-03,5.684683099389076233e-03
6.281453371047973633e-02,5.341851711273193359e-02,3.440535068511962891e-02,5.184826254844665527e-02,7.496592402458190918e-02,-4.780745599418878555e-03,6.063900515437126160e-02,7.864521443843841553e-02,2.667509764432907104e-02
-2.884569205343723297e-02,1.041733939200639725e-02,-2.167875319719314575e-02,-1.423866767436265945e-02,-3.180046007037162781e-02,1.548642199486494064e-02,-3.209314495325088501e-02,-1.351655367761850357e-02,-4.062911868095397949e-02
-1.457070093601942062e-02,3.073235042393207550e-02,8.881358429789543152e-03,7.045363541692495346e-03,3.561140596866607666e-02,-2.922821149695664644e-04,4.868929740041494370e-03,3.760236501693725586e-02,1.094196643680334091e-02
-3.680154681205749512e-02,-1.083766110241413116e-02,-4.900924116373062134e-02,7.091170176863670349e-03,-1.798105798661708832e-02,-1.500581949949264526e-02,-1.378165790811181068e-03,-1.058469060808420181e-02,3.270952031016349792e-02
1.487857941538095474e-02,2.790778642520308495e-03,2.026779763400554657e-02,1.164841558784246445e-02,-1.205638330429792404e-02,-7.424415554851293564e-03,3.309791907668113708e-02,3.444655239582061768e-02,2.043258957564830780e-02
-1.262605190277099609e-02,-2.907574875280261040e-03,-2.728370949625968933e-02,-9.355072863399982452e-03,-7.539252936840057373e-02,-1.689673587679862976e-02,-1.116658840328454971e-02,2.092688530683517456e-02,-7.164642680436372757e-03
-1.536684110760688782e-02,-5.870657972991466522e-03,-2.353128418326377869e-02,-5.531272385269403458e-03,3.839627280831336975e-02,1.112738903611898422e-02,-1.892981491982936859e-02,-2.784632146358489990e-03,-1.391849666833877563e-02
2.922569215297698975e-02,-6.240382790565490723e-03,8.926178328692913055e-03,1.091565098613500595e-02,2.430504187941551208e-02,-8.594859391450881958e-04,9.773004800081253052e-03,1.416150853037834167e-02,-1.815256476402282715e-02
-4.357566125690937042e-03,2.001606114208698273e-02,-4.480579122900962830e-02,-2.182750403881072998e-02,2.499724365770816803e-02,-1.619170419871807098e-02,-4.297647625207901001e-02,-8.849379606544971466e-03,-3.558340296149253845e-02
-6.190908607095479965e-03,2.751356735825538635e-02,-3.286368772387504578e-02,2.349303662776947021e-02,4.585839435458183289e-02,6.549881771206855774e-03,-4.973677452653646469e-03,4.461268708109855652e-02,-1.284217834472656250e-02
-6.321396213024854660e-03,2.656066790223121643e-02,-6.680308375507593155e-03,-3.531284630298614502e-02,1.922171330079436302e-03,-1.168283354490995407e-02,-1.590448990464210510e-02,1.055080723017454147e-02,-2.485498785972595215e-03
-3.879138827323913574e-02,-4.173734225332736969e-03,-1.985880732536315918e-02,-1.999620534479618073e-02,-4.055877402424812317e-02,-9.626171085983514786e-04,-5.081536993384361267e-02,-3.650094568729400635e-02,-3.312721475958824158e-02
-4.227940458804368973e-03,7.595546543598175049e-03,-1.839627698063850403e-02,-3.605680540204048157e-02,-5.819277372211217880e-03,-1.944856531918048859e-02,-4.685370996594429016e-02,-4.240660462528467178e-03,-5.613091588020324707e-02
-4.204645752906799316e-02,-1.594438962638378143e-02,-4.798364639282226562e-02,-1.901278831064701080e-02,-2.806536853313446045e-02,-2.406498184427618980e-03,-1.374137122184038162e-02,-1.426717732101678848e-02,-2.839037775993347168e-02
-2.884780615568161011e-02,1.264413446187973022e-02,3.261432424187660217e-02,-9.760195389389991760e-03,2.523471415042877197e-02,1.899124868214130402e-02,-1.511659566313028336e-02,2.259233966469764709e-02,7.504112087190151215e-03
-4.410006105899810791e-02,-2.913169935345649719e-02,-6.734003871679306030e-02,-5.234582349658012390e-02,-4.402559995651245117e-02,-4.575920850038528442e-02,-6.697271764278411865e-02,-2.849851176142692566e-02,-3.938568755984306335e-02
-6.087695434689521790e-02,-9.126991033554077148e-03,-5.760135874152183533e-02,-4.377341642975807190e-02,-2.935586869716644287e-02,-6.241551041603088379e-02,-5.040762200951576233e-02,-3.858891129493713379e-02,-2.301633171737194061e-02
7.654179818928241730e-03,1.429965067654848099e-02,-1.963703148066997528e-02,2.849893271923065186e-02,3.784660249948501587e-02,-2.109637018293142319e-03,1.494519691914319992e-02,1.431466732174158096e-02,-4.616846330463886261e-03
-1.386533025652170181e-02,-1.081494521349668503e-02,-3.918014094233512878e-02,3.015005402266979218e-02,-2.587127871811389923e-02,1.506057102233171463e-03,-2.382935769855976105e-02,-1.482441090047359467e-02,2.645765803754329681e-02
-6.674340693280100822e-04,3.653417527675628662e-02,9.968927130103111267e-03,2.232054807245731354e-02,3.942276909947395325e-02,-5.790456198155879974e-03,-2.875319682061672211e-02,3.184949234127998352e-02,7.373159751296043396e-04
-1.224093791097402573e-02,-3.388037672266364098e-03,6.083031184971332550e-03,-2.017589285969734192e-02,-1.955711282789707184e-03,2.892094431445002556e-03,9.347956627607345581e-03,-1.126846065744757652e-03,-2.950481697916984558e-02
-2.558035962283611298e-02,1.409883043379522860e-05,-7.088213693350553513e-03,-1.301244553178548813e-02,4.233861714601516724e-02,-6.724018137902021408e-03,-3.048975951969623566e-02,-1.432933006435632706e-02,-2.209795825183391571e-02
3.434087149798870087e-03,-5.806821398437023163e-03,2.099600806832313538e-02,3.114535659551620483e-02,6.280728150159120560e-03,-4.148596897721290588e-03,-3.357872599735856056e-03,7.888525724411010742e-04,2.906406670808792114e-02
-4.253235831856727600e-02,-6.117480370448902249e-05,5.926487967371940613e-03,-3.378070145845413208e-02,-8.358635241165757179e-04,-5.409790202975273132e-02,-1.531760487705469131e-02,-2.958469558507204056e-03,-2.744394168257713318e-02
2.721768431365489960e-02,3.944542631506919861e-02,-8.129881694912910461e-03,3.707406297326087952e-02,1.902296952903270721e-02,-1.150812022387981415e-03,1.628799922764301300e-02,2.047518827021121979e-02,1.226986292749643326e-02
-2.033550990745425224e-03,-3.170947311446070671e-03,-2.221916243433952332e-02,3.738638758659362793e-02,-2.998948330059647560e-03,-1.434059441089630127e-02,2.787237800657749176e-02,5.450384225696325302e-03,-3.114218078553676605e-02
1.794809661805629730e-02,1.519811525940895081e-02,9.333595633506774902e-03,-1.991944573819637299e-02,-9.420032612979412079e-03,-2.833343297243118286e-02,1.691763172857463360e-03,-3.019589185714721680e-02,-1.289743557572364807e-02
-3.610983863472938538e-02,-1.257019396871328354e-02,-9.097895599552430212e-06,2.186900470405817032e-03,-4.080899059772491455e-02,-1.422501634806394577e-02,-3.143442096188664436e-03,-2.423430792987346649e-02,1.409481745213270187e-03
7.032945286482572556e-03,3.267977386713027954e-03,-4.353833792265504599e-04,1.765774749219417572e-02,3.673939779400825500e-02,2.677150815725326538e-02,4.643588513135910034e-02,3.305569291114807129e-02,-6.084536202251911163e-03
1.257440820336341858e-02,1.515664905309677124e-02,6.226625759154558182e-03,-1.207928266376256943e-02,4.362402111291885376e-02,5.900009535253047943e-03,-7.918422110378742218e-03,3.369290754199028015e-02,-3.624149598181247711e-03
1.415934041142463684e-02,6.194320158101618290e-04,2.844287827610969543e-02,3.466165065765380859e-02,4.692471772432327271e-02,2.671362087130546570e-02,5.569081380963325500e-02,3.997077420353889465e-02,3.509028255939483643e-02
-2.089812979102134705e-02,3.059905953705310822e-02,7.975539192557334900e-03,8.300760760903358459e-03,4.343304038047790527e-02,1.858674548566341400e-02,-2.125499956309795380e-02,1.688780379481613636e-03,1.159777399152517319e-02
-1.265387283638119698e-03,1.232762821018695831e-02,1.159868855029344559e-02,1.896745897829532623e-02,6.615393329411745071e-03,-2.210031822323799133e-02,4.268757998943328857e-03,1.729797758162021637e-02,4.932595882564783096e-03
2.952515892684459686e-02,-1.737404242157936096e-02,2.032662928104400635e-02,8.951491676270961761e-03,3.301578387618064880e-02,-1.241343468427658081e-02,1.045723166316747665e-02,1.691304706037044525e-02,1.456485502421855927e-02
-3.328642109408974648e-03,2.030020579695701599e-02,-9.562325663864612579e-03,1.606518402695655823e-02,-6.504719611257314682e-03,2.898038737475872040e-02,1.959827169775962830e-02,1.155501604080200195e-02,2.334218472242355347e-02
-8.617045357823371887e-03,1.121969521045684814e-02,-1.532588526606559753e-02,-7.666188757866621017e-03,3.047475405037403107e-02,-1.458819210529327393e-02,-4.126768559217453003e-03,7.343176007270812988e-02,1.594271510839462280e-02
1.591276004910469055e-02,6.432396918535232544e-02,-1.903191022574901581e-02,2.931943628937005997e-03,3.130125999450683594e-02,-8.999686688184738159e-03,-7.740338332951068878e-03,3.586352616548538208e-02,-2.683475054800510406e-02
-4.913078993558883667e-02,-2.530107460916042328e-02,3.520005382597446442e-03,-3.458857908844947815e-02,-1.956508122384548187e-02,-1.407396607100963593e-02,-1.116530224680900574e-02,-2.658144943416118622e-02,2.289863675832748413e-02
4.127612337470054626e-02,1.522513851523399353e-02,8.830153383314609528e-03,-3.206258174031972885e-03,2.880227379500865936e-02,6.603243947029113770e-02,3.785913437604904175e-02,2.131522819399833679e-02,2.708775736391544342e-02
-2.154418081045150757e-02,-3.602571412920951843e-02,-1.421040017157793045e-02,-6.238844990730285645e-02,1.919532753527164459e-02,8.272300474345684052e-03,-4.310917109251022339e-03,-1.585320755839347839e-02,-2.283592475578188896e-03
-4.732847958803176880e-02,-6.017830967903137207e-02,-2.318241260945796967e-02,-2.164245583117008209e-03,1.138612907379865646e-02,-4.701709374785423279e-02,-5.530786700546741486e-03,-4.157072398811578751e-03,2.240148000419139862e-02
-3.739851759746670723e-03,-2.027369663119316101e-02,-1.383665483444929123e-02,-2.434214018285274506e-02,-2.928909100592136383e-02,9.327031439170241356e-04,-3.171623498201370239e-02,-3.813204169273376465e-02,-5.292082671076059341e-03
-2.998556569218635559e-02,-4.717417433857917786e-02,-4.549971222877502441e-02,-3.654398769140243530e-02,-2.130825817584991455e-02,-1.089657377451658249e-02,1.816622447222471237e-03,-4.761048778891563416e-02,-9.110814891755580902e-03
-1.082965359091758728e-02,6.580675952136516571e-03,-1.845663413405418396e-02,2.068629860877990723e-02,5.492931231856346130e-03,-5.740961991250514984e-03,1.664652838371694088e-03,2.172775333747267723e-03,1.338249538093805313e-02
5.314639769494533539e-03,4.711670801043510437e-02,3.009048104286193848e-02,5.656300857663154602e-02,6.194768100976943970e-02,2.904033102095127106e-02,2.991083078086376190e-02,4.097218438982963562e-02,3.438905999064445496e-02
4.939391743391752243e-03,-6.826533470302820206e-03,-3.901964798569679260e-02,-2.008627727627754211e-02,1.439903583377599716e-02,-1.332935970276594162e-02,-9.702976793050765991e-03,-4.288254771381616592e-03,-2.357393130660057068e-02
1.072601135820150375e-02,-7.633933331817388535e-03,1.292772218585014343e-02,6.503107957541942596e-03,-3.512483090162277222e-02,-2.584673697128891945e-03,7.702073547989130020e-03,2.305232174694538116e-02,-1.241996698081493378e-02
-2.605406939983367920e-02,-4.674161970615386963e-02,-2.712485194206237793e-02,-3.277989849448204041e-02,4.894074983894824982e-03,-5.859834142029285431e-03,-1.318465825170278549e-02,-1.004442479461431503e-02,-2.359618991613388062e-02
-1.103230286389589310e-03,3.390566213056445122e-03,-2.428963081911206245e-03,1.058318279683589935e-02,-1.344105321913957596e-02,1.503228954970836639e-02,-3.199627390131354332e-03,-1.027817744761705399e-02,-7.917603477835655212e-03
4.124032799154520035e-03,-1.196632976643741131e-03,-2.159535652026534081e-03,2.175127854570746422e-03,-8.965095505118370056e-03,1.144501031376421452e-03,-9.154854342341423035e-03,-5.486161448061466217e-03,-1.890985178761184216e-03
-1.403502654284238815e-02,-6.600650027394294739e-03,-1.245400775223970413e-02,1.010101847350597382e-02,-2.100079320371150970e-02,7.888044230639934540e-03,1.324821263551712036e-03,-2.857844578102231026e-03,4.192323423922061920e-03
1.024207938462495804e-02,-3.099539550021290779e-03,-2.189088054001331329e-02,-2.703168056905269623e-02,1.779519370757043362e-03,-3.259617835283279419e-02,-1.256892457604408264e-02,-7.153913378715515137e-02,-1.290783286094665527e-02
8.550778962671756744e-03,-5.570049397647380829e-03,1.575895212590694427e-02,-8.898348547518253326e-03,-3.816853463649749756e-02,-2.129280474036931992e-04,-9.043133817613124847e-03,-4.851422563660889864e-04,4.320490697864443064e-04
1.188395544886589050e-02,1.473053079098463058e-02,2.121866308152675629e-02,2.026694826781749725e-02,9.653320908546447754e-02,-6.108293891884386539e-04,1.143899373710155487e-02,2.070665918290615082e-02,-1.018435694277286530e-02
9.758924134075641632e-03,-2.078136242926120758e-02,-9.414121159352362156e-04,-3.647791594266891479e-02,1.805872283875942230e-02,5.014906637370586395e-03,1.146801467984914780e-02,1.569150574505329132e-02,-6.272838916629552841e-03
1.326884725131094456e-03,1.408514752984046936e-02,6.861017085611820221e-03,-9.883390739560127258e-03,-3.378586843609809875e-02,-4.166713450103998184e-03,1.781857758760452271e-02,4.123760387301445007e-03,2.229787642136216164e-03
1.527122780680656433e-02,-4.376389551907777786e-03,1.508918683975934982e-02,1.234852243214845657e-02,-3.184048831462860107e-02,-5.594111513346433640e-03,5.882921628654003143e-03,1.565386541187763214e-02,-2.652412746101617813e-03
-6.879826541990041733e-04,-7.977244444191455841e-03,2.305395528674125671e-02,-1.997765153646469116e-02,9.463788010179996490e-03,1.915528252720832825e-02,-1.271236315369606018e-02,6.308134470600634813e-05,1.356146764010190964e-03
8.474671281874179840e-03,5.718905944377183914e-03,-2.105255145579576492e-03,-4.687592852860689163e-03,1.929718814790248871e-02,-1.570377871394157410e-02,-2.859758026897907257e-02,-5.423923488706350327e-03,1.137025840580463409e-02
2.402024576440453529e-03,1.888510072603821754e-03,1.246051746420562267e-03,2.427319763228297234e-03,3.738467767834663391e-02,7.497414480894804001e-03,-2.938624704256653786e-03,-4.198087844997644424e-03,-1.277329400181770325e-03
1.475322339683771133e-02,-5.239068064838647842e-03,-2.828374505043029785e-03,-2.180029114242643118e-04,1.265211123973131180e-02,8.551676728529855609e-06,7.640271447598934174e-03,-1.967458985745906830e-02,-1.632455550134181976e-02
1.231260690838098526e-02,-1.179681159555912018e-02,-7.878737524151802063e-03,4.446763545274734497e-03,2.816726453602313995e-03,-5.584767088294029236e-03,-4.607793875038623810e-03,-6.134326569736003876e-03,-5.372527986764907837e-03
-5.405174102634191513e-03,3.558493778109550476e-02,-1.042249146848917007e-02,1.435603946447372437e-02,-1.056414935737848282e-02,-2.996510593220591545e-04,2.192491292953491211e-02,1.421635318547487259e-02,4.102756269276142120e-03
5.348653212422505021e-05,-3.408884629607200623e-03,5.216847639530897141e-03,1.555974781513214111e-02,1.213919464498758316e-02,-1.236788742244243622e-02,-7.663220167160034180e-03,-4.426303319633007050e-03,-1.860742643475532532e-02
1.791858673095703125e-02,2.625979669392108917e-02,-1.003449782729148865e-02,8.457215502858161926e-03,6.090132519602775574e-03,3.499406203627586365e-02,-4.792368039488792419e-03,7.741399109363555908e-03,2.889144420623779297e-02
-1.275369245558977127e-02,4.708989523351192474e-03,-1.418183743953704834e-02,-2.505755610764026642e-02,5.818305164575576782e-02,-9.551713243126869202e-03,7.231788709759712219e-03,-3.419711254537105560e-03,-9.864913299679756165e-03
1.126381568610668182e-03,-3.117953601758927107e-04,6.070891860872507095e-03,-2.448948333039879799e-03,1.272185612469911575e-02,-1.147895213216543198e-02,9.852018207311630249e-03,-1.009669248014688492e-02,5.859380587935447693e-03
6.671134382486343384e-03,6.263843737542629242e-03,2.844004891812801361e-03,-9.479388594627380371e-03,-3.209401667118072510e-02,3.194353776052594185e-03,1.187473163008689880e-02,-2.969205193221569061e-02,-1.208840683102607727e-02
1.005507167428731918e-02,1.469215494580566883e-03,-6.455525290220975876e-03,-3.164206864312291145e-03,6.107665970921516418e-02,-1.432538498193025589e-02,-3.874436952173709869e-03,-1.214643195271492004e-02,-1.000848226249217987e-02
-1.031540054827928543e-02,-3.348918864503502846e-03,1.187889210996218026e-04,-1.498065888881683350e-03,5.961337685585021973e-02,-6.554997991770505905e-03,-5.188025999814271927e-03,-3.323914017528295517e-03,5.592608824372291565e-03
1.348480582237243652e-03,6.283453665673732758e-03,-7.326805498450994492e-03,-7.531044073402881622e-03,-2.093612775206565857e-02,-7.930767722427845001e-03,-3.455604193732142448e-03,-3.864506958052515984e-03,-1.601794036105275154e-03
-3.575987182557582855e-03,6.910441908985376358e-03,5.564122460782527924e-03,1.067070569843053818e-02,-3.429498989135026932e-03,-7.072652224451303482e-03,3.640980692580342293e-03,1.190483197569847107e-02,4.116474185138940811e-03
-1.290854439139366150e-02,-3.261463949456810951e-03,9.207481052726507187e-04,-1.401277817785739899e-02,-5.253676790744066238e-04,9.003144223242998123e-04,-5.502733401954174042e-03,3.528935369104146957e-03,-2.307172166183590889e-03
1.097019761800765991e-02,-1.464903634041547775e-02,1.198680885136127472e-02,3.348373621702194214e-02,4.205929115414619446e-02,9.481286630034446716e-03,1.209677755832672119e-02,7.621508091688156128e-03,2.147584781050682068e-02
6.578442407771945000e-04,-1.551292464137077332e-02,6.180590018630027771e-03,3.312412183731794357e-03,-1.519906986504793167e-02,5.569588858634233475e-03,-5.013741319999098778e-04,-7.899894379079341888e-03,5.057302769273519516e-04
-8.373464457690715790e-03,-1.428433135151863098e-02,-1.310050673782825470e-02,-2.860326133668422699e-02,1.725018583238124847e-02,-1.483112294226884842e-02,-2.392167970538139343e-02,-5.772776901721954346e-03,1.229653600603342056e-03
2.666844753548502922e-03,-4.081198945641517639e-03,-1.161812432110309601e-02,-3.731863573193550110e-02,2.638898603618144989e-02,-1.022310368716716766e-02,5.621822085231542587e-03,-8.612568490207195282e-03,8.222821168601512909e-03
-3.818387165665626526e-03,-2.812209352850914001e-02,3.978280816227197647e-03,3.129055723547935486e-02,2.269756235182285309e-02,7.442824426107108593e-05,2.812597900629043579e-03,-4.085984546691179276e-03,-1.263798959553241730e-02
1.539030577987432480e-02,5.521470215171575546e-03,-5.377134773880243301e-03,-7.093072868883609772e-03,-1.705255918204784393e-02,-1.514315884560346603e-02,1.213754643686115742e-03,-1.741091161966323853e-02,-1.528447307646274567e-02
-5.079672206193208694e-03,-1.819864660501480103e-02,4.555583465844392776e-03,-1.277435477823019028e-02,-1.445640227757394314e-03,-2.235997235402464867e-03,-1.939671672880649567e-02,-1.518277637660503387e-02,1.412243116647005081e-02
2.840875834226608276e-02,-1.493373140692710876e-02,-2.287329547107219696e-02,8.491427637636661530e-03,1.751834340393543243e-02,-7.409726735204458237e-03,6.547996308654546738e-03,-5.387454759329557419e-03,-8.191292290575802326e-04
2.166971564292907715e-03,-1.450831349939107895e-02,2.615286596119403839e-02,-1.252107415348291397e-02,-2.193067595362663269e-02,1.057388959452509880e-03,1.458123419433832169e-02,-6.408038083463907242e-03,3.717377781867980957e-02
-2.214644290506839752e-02,-1.355475466698408127e-02,-2.898004651069641113e-02,-1.493111625313758850e-02,2.122954092919826508e-02,3.414315171539783478e-03,-7.067294791340827942e-03,1.629674434661865234e-02,-3.990406636148691177e-03
1.941780932247638702e-02,-2.560633607208728790e-02,1.834555342793464661e-02,-7.560522295534610748e-03,7.539142668247222900e-02,8.197939954698085785e-03,-1.459240331314504147e-03,-4.621081519871950150e-03,1.917760632932186127e-02
1.689015328884124756e-02,-3.276107134297490120e-03,-1.855800859630107880e-02,-1.114238332957029343e-02,1.652832329273223877e-02,1.964631490409374237e-03,-4.323659464716911316e-03,-1.920257695019245148e-02,-2.004705183207988739e-02
-6.810559891164302826e-03,1.394870225340127945e-03,-6.865532603114843369e-03,-6.074417848140001297e-03,1.918008737266063690e-02,-1.610887981951236725e-02,6.694242823868989944e-03,1.198648475110530853e-03,1.144657144322991371e-03
-7.536299992352724075e-03,-2.831572201102972031e-03,1.794747426174581051e-03,5.620616022497415543e-03,1.064147427678108215e-02,-1.956932479515671730e-03,2.380744554102420807e-03,-7.044344092719256878e-04,7.786165922880172729e-03
1.003740169107913971e-02,-4.580143839120864868e-03,4.824962932616472244e-03,3.318622708320617676e-03,-6.056980788707733154e-02,2.600490115582942963e-02,-1.559603866189718246e-02,1.656382717192173004e-02,3.346260869875550270e-03
-1.402592658996582031e-02,1.989349909126758575e-02,-1.361001777695491910e-04,-1.577621512115001678e-02,1.428922358900308609e-02,4.515931941568851471e-03,1.443356741219758987e-02,5.548795219510793686e-03,-4.525527474470436573e-04
1.229265984147787094e-02,1.091160532087087631e-02,9.505187161266803741e-03,3.506591077893972397e-03,1.044611074030399323e-02,1.814394257962703705e-03,-1.807150989770889282e-02,5.426660180091857910e-03,1.271739602088928223e-02
3.512642579153180122e-03,-1.004494819790124893e-02,-3.292532870545983315e-03,-2.013715542852878571e-02,4.110161215066909790e-02,5.880628712475299835e-03,-1.814902573823928833e-02,1.887392997741699219e-02,2.436827495694160461e-02
1.079358067363500595e-02,-4.952835384756326675e-03,8.904245682060718536e-03,-2.277546096593141556e-03,-2.343762293457984924e-02,3.560270881280303001e-03,5.855928757227957249e-04,4.637197125703096390e-03,4.555365070700645447e-03
3.036579489707946777e-02,-6.345664616674184799e-03,7.221315754577517509e-04,-2.720561996102333069e-02,2.949114888906478882e-02,-7.457259576767683029e-03,-9.162996895611286163e-03,2.580354921519756317e-03,2.911247080191969872e-03
1.031931242323480546e-04,-1.465429086238145828e-02,-1.499021146446466446e-02,1.912886090576648712e-02,-2.140626683831214905e-02,1.398001238703727722e-02,1.172635145485401154e-02,1.368691399693489075e-02,-1.679720915853977203e-02
6.084725726395845413e-03,-5.534129682928323746e-03,-5.794423632323741913e-03,-1.321742404252290726e-02,-2.431546710431575775e-02,-4.150791093707084656e-03,-1.162070408463478088e-02,-3.342389361932873726e-03,-2.014207653701305389e-03
-9.251662530004978180e-03,1.571960188448429108e-02,2.578724175691604614e-02,4.214489366859197617e-03,-3.328647091984748840e-02,5.085456185042858124e-03,1.865584589540958405e-02,-2.777371089905500412e-03,1.233535818755626678e-02
1.615782268345355988e-02,-1.739801466464996338e-02,-4.615696670953184366e-04,-2.574775554239749908e-02,-2.656531287357211113e-04,8.332611178047955036e-04,3.018159419298171997e-03,-1.638274081051349640e-02,1.054420415312051773e-02
-3.850299492478370667e-02,3.025495680049061775e-03,-3.246883302927017212e-02,-4.838241729885339737e-03,-1.022913679480552673e-02,1.129665784537792206e-02,-2.698212629184126854e-03,-5.366463679820299149e-03,-1.316478662192821503e-02
-2.046432578936219215e-03,-6.518684793263673782e-03,-1.560768298804759979e-02,-1.561704091727733612e-02,2.544566988945007324e-02,1.579431258141994476e-02,-1.068111695349216461e-02,5.471244221553206444e-04,-2.647014893591403961e-02
7.378618698567152023e-03,-1.533116679638624191e-02,1.785594737157225609e-03,-2.101773954927921295e-02,1.899999007582664490e-02,2.586578950285911560e-02,-3.826738521456718445e-02,3.162585571408271790e-02,-1.722086593508720398e-02
1.533565856516361237e-02,-1.379216834902763367e-02,-7.302926387637853622e-03,-1.426364202052354813e-02,6.323461979627609253e-02,1.920370571315288544e-02,1.463031675666570663e-02,-1.491287956014275551e-03,-3.384812967851758003e-03
6.019914988428354263e-03,-1.822379231452941895e-02,-1.134223584085702896e-02,-6.828098092228174210e-03,-4.171004518866539001e-03,-1.488093473017215729e-02,-1.522374455817043781e-03,-9.860321006271988153e-05,-2.720325952395796776e-03
7.208818569779396057e-03,-1.004052720963954926e-02,-5.649194587022066116e-03,7.835598662495613098e-03,-1.059328671544790268e-02,-1.310976874083280563e-02,-2.377673517912626266e-03,-8.001863025128841400e-03,2.939675003290176392e-03
5.813017021864652634e-03,-6.343980319797992706e-03,1.399357989430427551e-02,-1.067299302667379379e-02,-5.238714069128036499e-02,8.824133314192295074e-03,7.581603247672319412e-03,-6.587490905076265335e-03,-2.680197358131408691e-03
3.065616823732852936e-03,8.007644675672054291e-03,1.965794712305068970e-02,1.040381658822298050e-02,2.098652534186840057e-02,-9.783636778593063354e-04,2.982170321047306061e-02,8.348505198955535889e-02,2.704727230593562126e-03
-1.350881531834602356e-02,-5.979505367577075958e-03,-4.044692218303680420e-02,1.015406800433993340e-03,-1.812983863055706024e-02,-1.333124656230211258e-02,1.915260963141918182e-02,7.728354074060916901e-03,4.349225666373968124e-03
2.045639604330062866e-02,-8.149691857397556305e-03,-1.106083276681602001e-03,-3.379280911758542061e-03,-9.161226451396942139e-03,3.306357190012931824e-03,5.625755875371396542e-04,-1.710964739322662354e-02,2.403862308710813522e-03
-3.607454523444175720e-02,-6.969070527702569962e-03,9.384292177855968475e-03,1.095319865271449089e-03,-4.004107322543859482e-03,9.955511428415775299e-03,3.007715940475463867e-02,3.273400245234370232e-03,8.741611614823341370e-03
-2.075795829296112061e-02,-6.658993661403656006e-03,8.452076464891433716e-03,5.994547245791181922e-05,-4.884702153503894806e-03,-4.916112404316663742e-03,-1.600188948214054108e-02,1.871265657246112823e-02,-8.891934994608163834e-04
1.500445604324340820e-02,-1.546873897314071655e-02,4.206251353025436401e-03,-4.348795395344495773e-03,-2.014239551499485970e-03,1.538796233944594860e-03,1.496706437319517136e-02,-2.323296852409839630e-02,-8.521074429154396057e-03
1.250245515257120132e-02,8.917496539652347565e-03,1.349244639277458191e-02,2.996513387188315392e-03,5.590701848268508911e-02,9.210222400724887848e-03,-8.307845331728458405e-03,-2.568120602518320084e-03,-2.180936280637979507e-04
-1.244933530688285828e-02,2.095135394483804703e-03,-2.278661727905273438e-02,-3.665143996477127075e-02,-5.362983327358961105e-03,-1.980613684281706810e-03,2.157166600227355957e-03,-1.442011818289756775e-02,-7.551977876573801041e-03
-1.644250191748142242e-02,7.781503256410360336e-03,-6.761790253221988678e-03,1.926496438682079315e-02,-1.463778223842382431e-02,-3.983433917164802551e-02,1.677936315536499023e-02,2.494564652442932129e-02,-1.216084603220224380e-02
-1.870766282081604004e-02,9.917954914271831512e-03,6.673820316791534424e-03,3.684671362861990929e-03,-4.809983819723129272e-02,5.747058615088462830e-02,-1.693672500550746918e-02,-1.686084643006324768e-02,6.994354538619518280e-03
-1.076329499483108521e-02,-2.403835579752922058e-02,6.914432346820831299e-02,2.401188760995864868e-02,1.712345518171787262e-02,2.171358466148376465e-02,7.373650558292865753e-03,2.569811046123504639e-02,1.531457807868719101e-02
2.700863406062126160e-02,5.051418393850326538e-02,2.839649561792612076e-03,3.425215557217597961e-02,-3.499511629343032837e-02,-1.348890829831361771e-02,-3.792757913470268250e-02,1.672918722033500671e-02,6.965019740164279938e-03
-4.342757165431976318e-03,-3.738312050700187683e-03,-5.444833543151617050e-03,3.911207895725965500e-03,-1.218456216156482697e-02,9.036053903400897980e-03,-1.068052463233470917e-02,-1.377977989614009857e-02,1.181881409138441086e-02
1.110462658107280731e-02,3.315039351582527161e-02,1.344288140535354614e-02,-8.223001845180988312e-03,7.744849659502506256e-03,4.014014825224876404e-02,-3.432988002896308899e-02,-4.216244909912347794e-03,-5.562396347522735596e-02
1.092699449509382248e-02,4.574977792799472809e-03,4.914619401097297668e-02,-3.558003902435302734e-02,2.124954015016555786e-01,-1.499665081501007080e-01,5.720202252268791199e-02,2.041872218251228333e-02,-5.424995720386505127e-02
-8.533230982720851898e-03,-1.523501332849264145e-02,-4.609623551368713379e-02,7.869008928537368774e-03,-1.301114633679389954e-02,-9.817112982273101807e-02,-4.216889385133981705e-03,2.227126620709896088e-03,3.539538010954856873e-02
-1.372849801555275917e-04,4.877629131078720093e-02,2.428888715803623199e-02,2.921700710430741310e-03,7.404353469610214233e-02,-1.332074310630559921e-02,4.511076025664806366e-03,2.063114382326602936e-02,-1.062252093106508255e-02
-1.504550408571958542e-02,4.472944419831037521e-03,3.963855281472206116e-02,1.055354997515678406e-02,2.081955075263977051e-01,-9.462275356054306030e-02,-1.615257002413272858e-02,3.844086825847625732e-02,4.956682771444320679e-02
-3.712275996804237366e-03,3.723496943712234497e-02,1.028200089931488037e-01,1.335985865443944931e-02,-6.928586214780807495e-02,-3.364278748631477356e-02,-6.986757367849349976e-02,-1.163335144519805908e-01,6.124525517225265503e-02
1.078435685485601425e-02,3.771244734525680542e-02,-1.535446010529994965e-02,1.405543088912963867e-02,5.878078565001487732e-02,-1.122882291674613953e-01,1.540406141430139542e-02,-1.120123360306024551e-02,7.449422031641006470e-03
-3.442666726186871529e-03,-3.518078476190567017e-02,1.179385348223149776e-03,1.514356024563312531e-02,-5.514152348041534424e-02,-7.306429557502269745e-03,-4.749391600489616394e-02,-2.031992748379707336e-02,-2.156911976635456085e-02
3.252834780141711235e-03,-9.005825035274028778e-03,8.088333532214164734e-03,-4.351646173745393753e-03,7.110135629773139954e-03,-4.082376882433891296e-02,-1.046194322407245636e-02,3.946618817280977964e-04,1.602405682206153870e-02
5.384773830883204937e-04,-1.068258564919233322e-02,8.790417760610580444e-02,-2.364118956029415131e-02,6.179475039243698120e-02,-7.493919879198074341e-02,-3.496327623724937439e-02,3.417970612645149231e-02,4.878970235586166382e-02
-2.466142922639846802e-02,9.747192263603210449e-02,-7.504390180110931396e-02,2.170548774302005768e-03,-2.817685715854167938e-02,1.746844127774238586e-02,1.254960335791110992e-02,-3.148971125483512878e-02,-5.333949998021125793e-02
-4.500101134181022644e-02,-7.388223893940448761e-03,1.453211880289018154e-03,4.731370508670806885e-02,1.041000708937644958e-02,-1.036273986101150513e-01,-8.963487111032009125e-03,4.118794202804565430e-02,-1.951703615486621857e-02
1.870314590632915497e-02,-4.796986002475023270e-03,-3.801334276795387268e-02,-5.340982601046562195e-02,-9.072435647249221802e-02,1.275192350149154663e-01,1.274759322404861450e-02,-2.217385626863688231e-04,-4.125997424125671387e-02
4.230814427137374878e-02,4.284870810806751251e-03,4.287226498126983643e-02,-4.153955262154340744e-03,8.582548797130584717e-02,2.342565730214118958e-02,2.019089646637439728e-02,1.663876697421073914e-02,2.126722782850265503e-02
8.963059633970260620e-03,-4.461609572172164917e-02,5.961582995951175690e-03,-6.895169615745544434e-02,-4.639483988285064697e-02,9.284997358918190002e-03,-2.587757818400859833e-02,-4.065046831965446472e-02,-1.373928971588611603e-02
3.558650380000472069e-03,2.198098227381706238e-02,4.677744209766387939e-02,-9.559927508234977722e-03,-2.411331422626972198e-02,1.056256294250488281e-01,-6.377482321113348007e-03,-1.093916129320859909e-02,-6.459267437458038330e-02
-9.392427280545234680e-03,1.109281275421380997e-02,4.378131404519081116e-02,-3.311319276690483093e-03,6.778366863727569580e-03,-4.435170069336891174e-02,-3.195961937308311462e-03,-1.790194585919380188e-02,1.040908973664045334e-02
2.633050270378589630e-02,-2.284421026706695557e-02,-2.373289084061980247e-03,1.224140729755163193e-02,3.912057727575302124e-02,8.674053847789764404e-02,-5.009886226616799831e-04,1.047220677137374878e-01,1.812106557190418243e-02
9.207486175000667572e-03,2.831245958805084229e-02,-1.752922870218753815e-02,1.739467307925224304e-02,5.623828154057264328e-03,9.228327870368957520e-02,2.514949254691600800e-02,8.635315112769603729e-03,1.029320433735847473e-02
1.232683134730905294e-04,5.244183167815208435e-02,-2.703963592648506165e-02,-2.338438207516446710e-04,-4.439174383878707886e-02,7.326565682888031006e-02,1.555544883012771606e-02,1.324128708802163601e-03,-2.651718631386756897e-02
-7.693610154092311859e-03,1.390473730862140656e-02,-2.373486943542957306e-02,-5.208630859851837158e-02,1.776620149612426758e-01,-1.050041615962982178e-01,-8.553223684430122375e-03,-7.351014763116836548e-02,1.534743234515190125e-02
-2.560671884566545486e-03,-2.792948484420776367e-02,4.577471688389778137e-02,7.829643785953521729e-03,4.323155432939529419e-02,-1.370035856962203979e-01,-7.027717656455934048e-04,4.146118648350238800e-03,2.403059974312782288e-02
-6.572831422090530396e-03,-4.728456214070320129e-02,1.550537906587123871e-02,3.450012532994151115e-03,-2.260365895926952362e-02,3.826577449217438698e-03,1.554913725703954697e-02,-3.670839220285415649e-02,-1.359438057988882065e-02
-1.723841205239295959e-02,-5.995038431137800217e-03,-4.532624781131744385e-02,3.062748908996582031e-02,2.931612357497215271e-02,-5.128246918320655823e-02,2.655011601746082306e-02,5.957781150937080383e-02,3.041910566389560699e-02
4.258080944418907166e-02,-3.583786636590957642e-02,3.455075621604919434e-02,1.377592235803604126e-02,-4.139175266027450562e-02,9.842457622289657593e-02,5.356259644031524658e-03,4.635328799486160278e-02,-5.637052282691001892e-02
3.279935196042060852e-02,1.199029013514518738e-02,-1.013198401778936386e-02,2.054213732481002808e-02,2.635181508958339691e-02,-1.116947308182716370e-01,-3.822342492640018463e-03,1.627904362976551056e-02,3.293901681900024414e-02
3.124988637864589691e-02,4.202044010162353516e-02,2.463998831808567047e-02,1.918044872581958771e-02,-1.873491331934928894e-02,-5.686462298035621643e-02,2.908887527883052826e-02,2.748861443251371384e-03,6.675981730222702026e-02
-5.067824572324752808e-02,-4.516848176717758179e-02,-7.554960995912551880e-02,-3.517018258571624756e-02,-7.189081981778144836e-03,-4.424035549163818359e-02,-2.351038344204425812e-02,-5.828005820512771606e-02,-3.387235105037689209e-02
9.802271611988544464e-03,4.595981910824775696e-02,-2.189346123486757278e-03,-4.909494146704673767e-02,-6.048090755939483643e-02,-3.712561354041099548e-02,-2.837165445089340210e-02,3.790709003806114197e-02,9.707981348037719727e-02
-9.855105541646480560e-03,3.206468373537063599e-02,-3.925819322466850281e-02,-6.375572830438613892e-02,1.189601421356201172e-02,1.006797701120376587e-01,1.472404506057500839e-02,2.168001979589462280e-02,-4.390686750411987305e-02
1.508042868226766586e-02,2.189234085381031036e-02,2.138952352106571198e-02,-4.087146662641316652e-04,-2.682710764929652214e-03,-1.878768578171730042e-02,1.355673093348741531e-02,2.965110540390014648e-02,2.865105681121349335e-02
-4.878347367048263550e-02,-4.805674403905868530e-02,-2.230069367215037346e-03,-3.188427165150642395e-02,3.286835923790931702e-02,-4.788296669721603394e-02,-2.241419814527034760e-02,4.886414390057325363e-03,3.057463839650154114e-02
-1.288062799721956253e-02,3.520461544394493103e-02,-7.662187516689300537e-02,1.591619104146957397e-02,1.101834885776042938e-02,-7.253070920705795288e-02,3.143410384654998779e-02,1.996218413114547729e-02,-3.428407758474349976e-02
4.110664594918489456e-03,1.590780541300773621e-02,-4.584751650691032410e-02,-7.836740463972091675e-03,1.441543363034725189e-02,1.405539661645889282e-01,-2.545324340462684631e-02,-5.077004805207252502e-02,-3.850259631872177124e-02
-8.269138634204864502e-03,-3.840351104736328125e-02,-8.651942014694213867e-02,2.935870923101902008e-02,8.939371444284915924e-03,4.765817523002624512e-02,-2.342184819281101227e-02,2.227111347019672394e-02,5.344351381063461304e-02
5.293176695704460144e-02,-4.460335522890090942e-02,-3.739630058407783508e-02,3.941730782389640808e-02,6.277222931385040283e-02,-1.973532326519489288e-02,1.323547679930925369e-03,5.618000030517578125e-02,3.438925137743353844e-03
3.641049936413764954e-02,1.558282133191823959e-02,1.633241213858127594e-02,-5.694889649748802185e-02,5.675692576915025711e-03,-2.594060078263282776e-02,-3.083111159503459930e-02,4.573720693588256836e-02,-1.034003309905529022e-02
3.559064865112304688e-02,3.284935653209686279e-02,2.697877585887908936e-03,-2.767936326563358307e-02,-1.469758525490760803e-02,1.210499480366706848e-01,5.579767748713493347e-03,1.027414277195930481e-01,-2.127008587121963501e-01
-4.695474170148372650e-03,6.916241347789764404e-02,-1.580101251602172852e-02,-1.944286935031414032e-02,4.884611070156097412e-02,1.049140021204948425e-01,-1.490242313593626022e-02,1.268451008945703506e-02,1.873697526752948761e-02
-4.745304584503173828e-03,-4.986163228750228882e-02,-7.666147500276565552e-02,-4.609078541398048401e-02,-6.832251697778701782e-02,-5.970487836748361588e-05,6.057239323854446411e-02,5.046847090125083923e-02,4.538494348526000977e-02
5.492951348423957825e-02,5.691559612751007080e-02,-3.381680697202682495e-02,5.852870643138885498e-02,-2.027301117777824402e-02,8.121516555547714233e-02,5.364882946014404297e-02,3.939715027809143066e-02,-7.758121471852064133e-03
-1.680426299571990967e-02,-2.471600659191608429e-02,-6.880785524845123291e-02,-8.790199644863605499e-03,-1.860759407281875610e-02,1.061690971255302429e-01,-3.382815420627593994e-02,-9.273950941860675812e-03,1.933954469859600067e-02
3.979064896702766418e-02,5.186202004551887512e-02,-3.013285435736179352e-02,4.490788653492927551e-02,-1.168913245201110840e-01,3.339568153023719788e-02,4.695227742195129395e-02,-2.115174755454063416e-02,5.916374921798706055e-02
-1.335489563643932343e-02,-2.591276727616786957e-02,8.733156137168407440e-03,-1.477510295808315277e-02,2.487046271562576294e-02,-5.386267439462244511e-04,9.837157092988491058e-03,6.506582256406545639e-03,9.781230241060256958e-03
-1.329285558313131332e-02,-3.325521945953369141e-02,-8.598566800355911255e-02,-5.421163048595190048e-03,-9.972793050110340118e-03,-6.330286711454391479e-02,-7.721169851720333099e-03,1.500981510616838932e-03,-2.916808612644672394e-02
1.863648183643817902e-02,4.983812198042869568e-02,5.826558917760848999e-02,1.484443154186010361e-02,5.184900760650634766e-02,-9.934292733669281006e-02,-3.298050165176391602e-02,-5.321316886693239212e-03,-2.242462150752544403e-02
-4.217199515551328659e-03,-2.827403135597705841e-02,5.092755332589149475e-02,-8.108587004244327545e-03,1.533483155071735382e-02,-3.112705238163471222e-02,-1.309451181441545486e-02,5.732170492410659790e-02,-5.885701999068260193e-02
1.307317055761814117e-02,9.871842339634895325e-03,7.526762783527374268e-02,1.926110871136188507e-02,2.184235304594039917e-02,1.506232470273971558e-01,-2.318128757178783417e-02,-2.428643032908439636e-02,-3.140839189291000366e-02
1.890658895717933774e-04,4.555386304855346680e-02,6.300850305706262589e-03,4.603216424584388733e-02,1.643024571239948273e-02,5.663619376718997955e-03,2.020832337439060211e-02,-1.563861221075057983e-02,1.573294028639793396e-02
1.385485194623470306e-02,-6.843642797321081161e-03,2.007780037820339203e-02,3.762718662619590759e-02,2.633454743772745132e-03,-1.650208532810211182e-01,8.246542885899543762e-03,-1.016333978623151779e-02,2.135809697210788727e-02
1.468980219215154648e-03,-6.099677458405494690e-02,1.258943602442741394e-02,-7.029092311859130859e-02,1.386062894016504288e-02,-4.924872145056724548e-02,-1.177521329373121262e-02,-5.467163771390914917e-02,1.186278462409973145e-02
6.614679843187332153e-02,1.083042770624160767e-01,1.008106321096420288e-01,-1.127522345632314682e-02,2.488388493657112122e-02,6.472326070070266724e-02,-5.025945138186216354e-03,2.038467116653919220e-02,1.138763651251792908e-01
4.593309387564659119e-02,-3.718537464737892151e-02,5.922756344079971313e-02,3.024155739694833755e-03,9.716201573610305786e-02,-8.029291778802871704e-02,1.276097353547811508e-02,2.235995791852474213e-02,-8.683415129780769348e-03
-2.620027773082256317e-02,-3.115973249077796936e-02,1.772123947739601135e-02,-6.930328905582427979e-02,-5.338851828128099442e-03,-9.258041530847549438e-02,-4.172489419579505920e-02,-9.719291329383850098e-02,-3.509218245744705200e-02
5.877494066953659058e-02,4.477469250559806824e-03,3.072581812739372253e-02,2.281861193478107452e-02,-1.890985062345862389e-03,-3.435588628053665161e-02,1.507502142339944839e-02,2.112861908972263336e-02,3.307383973151445389e-03
-1.658391021192073822e-02,2.405592426657676697e-02,2.957076951861381531e-02,2.150056418031454086e-03,7.906380295753479004e-02,-1.154225394129753113e-01,5.832482594996690750e-03,4.344955552369356155e-03,-2.313453704118728638e-02
1.127118431031703949e-02,-7.820520550012588501e-03,3.828442469239234924e-02,2.276305109262466431e-03,-4.020789638161659241e-02,-5.951797962188720703e-02,-2.992222271859645844e-02,-8.444308768957853317e-04,7.462065201252698898e-03
2.508167410269379616e-03,6.948652118444442749e-02,-3.419726714491844177e-02,2.516910992562770844e-02,-4.680378362536430359e-02,1.471282243728637695e-01,-2.447960723657160997e-04,-2.159160003066062927e-02,-2.049734815955162048e-02
4.356833174824714661e-03,2.944848686456680298e-02,-2.244398929178714752e-02,1.274096965789794922e-02,-4.067969322204589844e-02,9.503518790006637573e-02,4.893190786242485046e-02,5.924205295741558075e-03,-4.428705724421888590e-04
7.040735799819231033e-03,9.025566279888153076e-03,-2.906647045165300369e-03,-7.677397225052118301e-03,9.847961366176605225e-03,-3.437267383560538292e-03,1.034186407923698425e-02,1.061563659459352493e-02,-5.046773701906204224e-03
1.032529957592487335e-02,-3.596217429731041193e-04,-5.010590888559818268e-03,5.338998511433601379e-03,-1.371472794562578201e-02,-6.160318385809659958e-03,-3.835108596831560135e-03,5.742996931076049805e-03,-1.168396323919296265e-03
-1.453635748475790024e-02,3.958895802497863770e-02,6.869268137961626053e-03,5.310152191668748856e-03,-5.603371188044548035e-03,-1.198737416416406631e-02,2.105792611837387085e-02,1.996547728776931763e-02,1.284510642290115356e-02
7.873491267673671246e-04,1.129194069653749466e-02,2.327508525922894478e-03,8.363602682948112488e-03,4.839716106653213501e-02,5.912361200898885727e-03,1.454620715230703354e-02,-3.123829700052738190e-02,1.048131473362445831e-02
-2.154138404875993729e-03,3.066912526264786720e-03,-7.799774874001741409e-03,2.024540491402149200e-02,9.968792088329792023e-03,9.749073797138407826e-05,2.451417094562202692e-04,-1.176319317892193794e-03,-8.224428631365299225e-03
7.345553487539291382e-03,8.489006198942661285e-03,-1.007888652384281158e-02,1.158318482339382172e-03,-3.218520060181617737e-02,-6.168119609355926514e-03,3.598980838432908058e-03,4.493840038776397705e-03,-2.943951170891523361e-03
-7.774690166115760803e-04,-4.089255817234516144e-03,-5.697472952306270599e-03,8.322023786604404449e-03,2.222735807299613953e-02,8.494048379361629486e-03,1.946340687572956085e-02,2.934214472770690918e-02,-2.413174370303750038e-03
-2.897656755521893501e-03,1.135796774178743362e-02,-5.944352131336927414e-03,-8.688414469361305237e-03,-1.668987050652503967e-02,-9.304584935307502747e-03,-1.012610364705324173e-02,-5.559088662266731262e-03,-5.139555316418409348e-03
-4.437512718141078949e-03,1.376596372574567795e-02,7.178180851042270660e-03,7.879463955760002136e-03,-1.248144730925559998e-02,-6.884307600557804108e-03,1.582800061441957951e-03,-1.791712269186973572e-02,-1.614141836762428284e-02
2.953149145469069481e-03,-9.563798084855079651e-03,5.978038068860769272e-03,-7.739308755844831467e-03,1.372646447271108627e-02,-8.807812817394733429e-03,8.312518708407878876e-03,8.829603902995586395e-03,-1.161623513326048851e-03
8.856630884110927582e-03,1.829372532665729523e-02,9.809844195842742920e-03,1.606130413711071014e-02,3.060686960816383362e-02,-1.979565015062689781e-03,-1.847599283792078495e-03,2.731954213231801987e-03,3.106104396283626556e-02
7.879910059273242950e-03,-6.540938280522823334e-03,-4.042151849716901779e-03,4.585751798003911972e-03,-1.349953282624483109e-02,1.687023090198636055e-03,1.000060583464801311e-03,3.716571722179651260e-03,1.937909284606575966e-03
-2.238754369318485260e-02,4.172895569354295731e-03,-4.038872662931680679e-03,-1.951312460005283356e-02,1.126600801944732666e-02,-5.390125326812267303e-03,8.148758672177791595e-03,9.167362935841083527e-03,-4.081035032868385315e-03
-1.801587291993200779e-03,1.015707850456237793e-02,6.827606819570064545e-03,-3.154592413920909166e-04,-1.303457468748092651e-02,-1.213942375034093857e-02,3.958626650273799896e-03,3.291243687272071838e-03,1.454056939110159874e-03
-2.331251837313175201e-02,-6.183817517012357712e-03,-1.444320892915129662e-03,-1.592008024454116821e-02,-2.359120547771453857e-02,1.287450175732374191e-02,-2.479152008891105652e-02,1.372685423120856285e-03,-2.628926886245608330e-03
-1.168861426413059235e-02,8.445899002254009247e-03,-5.922083742916584015e-03,-3.546622348949313164e-03,-2.833094634115695953e-02,2.328678499907255173e-03,-5.977017339318990707e-03,-9.206640534102916718e-03,-1.907951012253761292e-02
-6.188778206706047058e-03,-3.757453057914972305e-03,5.063246469944715500e-03,3.971795551478862762e-03,8.265600539743900299e-03,2.309882454574108124e-02,5.495520308613777161e-03,2.528403885662555695e-02,1.266737934201955795e-02
-9.223865345120429993e-05,1.115917184506542981e-04,7.622129283845424652e-03,-1.898927986621856689e-02,-3.195422887802124023e-02,-2.210076153278350830e-02,-1.497961208224296570e-02,-3.907318692654371262e-03,-1.429703272879123688e-02
-3.522658022120594978e-03,-4.361218889243900776e-04,-6.004258175380527973e-04,-1.451782765798270702e-03,-6.715709809213876724e-03,8.099608123302459717e-03,-7.747795898467302322e-03,-1.375787891447544098e-03,7.627155282534658909e-04
-1.112499460577964783e-02,5.619083996862173080e-03,7.269323803484439850e-03,-1.035111118108034134e-02,3.708897624164819717e-03,9.481386281549930573e-03,-4.065116401761770248e-03,-2.704539801925420761e-03,-1.062852889299392700e-02
5.533263552933931351e-03,-4.178591072559356689e-03,1.485584769397974014e-02,7.898448035120964050e-03,2.951057069003582001e-02,-4.073500167578458786e-03,9.025979787111282349e-03,-8.464635349810123444e-03,-1.259716972708702087e-02
-3.086189040914177895e-03,-1.856809132732450962e-03,-1.864607562310993671e-03,-9.912884794175624847e-03,-2.958746254444122314e-02,3.649748396128416061e-03,-3.043619915843009949e-03,-7.995354942977428436e-03,-1.460013096220791340e-03
1.427523139864206314e-02,6.951884366571903229e-03,-1.280273590236902237e-02,-2.032060147030279040e-04,-2.606560476124286652e-02,4.222473595291376114e-03,-2.651829738169908524e-03,1.077299378812313080e-02,5.619706935249269009e-04
3.886894788593053818e-03,-5.253933835774660110e-03,7.133162114769220352e-03,-3.521868959069252014e-03,1.655365223996341228e-03,-4.762710537761449814e-03,-2.481684205122292042e-04,-6.225027027539908886e-04,2.265353919938206673e-03
-8.262043818831443787e-03,8.241455070674419403e-03,4.813686944544315338e-03,-1.417796825990080833e-03,-1.481291488744318485e-03,-3.396682674065232277e-03,-1.749891205690801144e-03,7.340079173445701599e-03,3.870043437927961349e-03
3.932442050427198410e-03,3.340901341289281845e-03,2.400906756520271301e-03,2.628682181239128113e-03,8.870895951986312866e-03,1.615890115499496460e-02,9.118896909058094025e-03,2.873337641358375549e-02,1.009924896061420441e-02
-3.476839745417237282e-03,1.769331097602844238e-02,5.323107354342937469e-03,3.035595640540122986e-03,2.159911952912807465e-02,5.814348114654421806e-04,7.514153607189655304e-03,1.046491321176290512e-03,5.779130733571946621e-04
4.889294970780611038e-03,-9.484129026532173157e-03,9.309519082307815552e-03,-9.556007571518421173e-03,9.225943125784397125e-03,5.539857316762208939e-03,-1.272089779376983643e-02,3.615863155573606491e-03,2.195837209001183510e-03
5.432802718132734299e-03,-2.550948644056916237e-03,-7.005924358963966370e-03,1.526040869066491723e-04,1.589418761432170868e-02,9.592579677700996399e-03,1.689760945737361908e-02,-1.883742399513721466e-03,2.660145051777362823e-03
-5.983332637697458267e-03,-4.616246558725833893e-03,-2.917875070124864578e-03,-4.147774074226617813e-03,1.637527719140052795e-02,-6.531665567308664322e-03,1.880630734376609325e-03,-6.206244230270385742e-03,-1.155658252537250519e-02
-1.245300751179456711e-03,2.732481108978390694e-03,8.486280421493574977e-05,1.277060620486736298e-02,1.759371347725391388e-02,1.289054285734891891e-02,-8.266933262348175049e-03,-2.623606286942958832e-02,-5.651649087667465210e-03
-6.573289167135953903e-03,2.176568232243880630e-04,-7.573041133582592010e-03,-2.730161184445023537e-03,3.139949403703212738e-03,8.206655038520693779e-04,7.749336073175072670e-04,-4.974453710019588470e-03,-4.351630050223320723e-04
-5.756387952715158463e-03,6.554202409461140633e-04,2.153953537344932556e-02,-1.028534583747386932e-02,2.046203007921576500e-03,-1.159950438886880875e-02,3.729889867827296257e-03,-3.691738704219460487e-03,5.667302757501602173e-03
1.984682865440845490e-02,8.754154667258262634e-03,-1.206644694320857525e-03,-2.036003768444061279e-02,-1.490914449095726013e-02,1.117464713752269745e-02,-1.791286980733275414e-03,8.685373701155185699e-03,-2.086722961394116282e-04
-1.445893198251724243e-02,3.635129425674676895e-03,2.255400409922003746e-03,-7.018998265266418457e-03,-9.732607752084732056e-03,-2.760735806077718735e-03,-1.536738220602273941e-02,-1.098046358674764633e-02,9.909866377711296082e-03
-1.204790174961090088e-02,-8.676905184984207153e-03,1.065882574766874313e-02,1.945546269416809082e-02,2.252390235662460327e-02,7.874608039855957031e-03,-2.966302912682294846e-03,1.062135305255651474e-02,1.899199932813644409e-02
-7.693252060562372208e-03,-9.847183711826801300e-03,4.407602362334728241e-03,-1.378863677382469177e-02,9.480034001171588898e-03,-2.514982596039772034e-03,-1.155607122927904129e-02,-3.913805820047855377e-03,2.348625566810369492e-03
-8.686847868375480175e-04,-3.128043143078684807e-03,-5.319408606737852097e-03,-1.034640334546566010e-02,2.897311374545097351e-02,-2.153970673680305481e-02,-1.151842225226573646e-04,1.085824146866798401e-02,-7.579130586236715317e-03
-2.276705054100602865e-04,-2.150307875126600266e-03,-3.313058754429221153e-03,7.617402821779251099e-03,-1.471064146608114243e-02,-8.760431781411170959e-03,2.304225490661337972e-04,-8.877743035554885864e-03,-2.144998870790004730e-03
-5.703375674784183502e-03,3.197788726538419724e-03,2.421595342457294464e-02,1.793629303574562073e-02,6.414949148893356323e-02,1.563726551830768585e-02,3.774389857426285744e-03,1.650237478315830231e-02,-1.617849618196487427e-02
1.889823237434029579e-03,3.777543315663933754e-03,-1.326857786625623703e-02,-2.071758208330720663e-04,-7.181432563811540604e-03,8.636777289211750031e-03,1.397952670231461525e-03,-4.906530026346445084e-03,-1.003746502101421356e-02
6.094159558415412903e-03,-6.774504436179995537e-04,-3.691154997795820236e-03,-7.523296866565942764e-03,-1.433483045548200607e-02,-8.931974880397319794e-03,1.104795839637517929e-02,-6.658488418906927109e-03,-1.390546467155218124e-02
9.846866305451840162e-05,-2.159710042178630829e-03,-8.680062368512153625e-03,1.481612399220466614e-02,-9.456657804548740387e-03,-3.872186178341507912e-03,-9.597808122634887695e-03,-1.606547739356756210e-03,1.227111904881894588e-03
5.091757047921419144e-03,-9.286724962294101715e-03,-1.585335098206996918e-02,1.122517604380846024e-02,-5.336413159966468811e-03,-3.582179080694913864e-03,-2.825465635396540165e-04,-2.816433552652597427e-03,-5.908446386456489563e-03
1.480978354811668396e-02,-9.423867799341678619e-03,-8.562509901821613312e-04,4.940040409564971924e-03,8.424900472164154053e-03,1.236828742548823357e-03,4.539201036095619202e-02,2.516628801822662354e-02,-2.172330580651760101e-02
2.640487393364310265e-03,-2.569078933447599411e-03,-6.712591275572776794e-03,1.104177813977003098e-02,-1.853641006164252758e-03,-3.879316151142120361e-03,3.079602308571338654e-02,3.684840723872184753e-02,1.651773974299430847e-02
-1.332742813974618912e-02,-5.205600522458553314e-03,-6.028959061950445175e-03,8.914517238736152649e-03,2.567051909863948822e-02,1.984233409166336060e-02,-4.752470646053552628e-03,4.428368993103504181e-03,-3.617211477831006050e-04
-9.946465725079178810e-04,5.028842482715845108e-03,8.273510262370109558e-03,6.491793785244226456e-03,-1.356292609125375748e-02,-2.733113709837198257e-03,4.701319616287946701e-03,6.282649934291839600e-03,1.966928318142890930e-02
-6.605789996683597565e-03,-5.857949145138263702e-03,4.879374522715806961e-03,-2.159442519769072533e-03,8.616192266345024109e-03,1.382119022309780121e-03,5.211440380662679672e-03,1.364992186427116394e-02,1.203250978142023087e-02
-7.905697566457092762e-04,-1.405518851242959499e-03,-1.393606327474117279e-02,-1.479517947882413864e-02,-7.620133925229310989e-03,1.529224216938018799e-02,4.321127198636531830e-03,6.132292095571756363e-03,2.211241284385323524e-03
-1.774433627724647522e-02,4.748843610286712646e-03,1.534028095193207264e-03,9.327375330030918121e-03,1.971528399735689163e-03,-4.923246800899505615e-03,4.929703660309314728e-03,7.490917108952999115e-03,-5.476412363350391388e-03
-2.217217348515987396e-02,6.679091602563858032e-03,3.616736503317952156e-03,-1.500284578651189804e-02,3.395861759781837463e-02,5.356484092772006989e-03,-2.032558247447013855e-02,3.583410382270812988e-02,1.241396553814411163e-02
8.082575164735317230e-03,1.386829558759927750e-02,6.276484113186597824e-03,-1.293430291116237640e-02,3.206617897376418114e-03,-1.058164867572486401e-03,3.930544946342706680e-03,1.222400087863206863e-02,-1.876820228062570095e-03
-3.525594715029001236e-03,-4.518592264503240585e-03,1.882250769995152950e-03,-3.571987152099609375e-03,-2.890124730765819550e-02,-1.013859058730304241e-03,-5.626834463328123093e-03,-3.131404519081115723e-03,5.279282107949256897e-03
-4.767369013279676437e-03,7.740593980997800827e-03,-4.214226733893156052e-03,8.537001907825469971e-03,3.155560931190848351e-03,-6.240736693143844604e-03,2.473936043679714203e-02,7.756215520203113556e-03,-2.227538963779807091e-03
-7.531766314059495926e-03,9.324155747890472412e-03,8.158646523952484131e-04,2.275597071275115013e-03,7.161053363233804703e-03,-4.933108109980821609e-03,-1.682979986071586609e-03,1.875342614948749542e-02,-2.598470076918601990e-03
1.590079441666603088e-02,4.795562010258436203e-03,-2.869086107239127159e-03,1.174984034150838852e-02,3.136588260531425476e-02,-1.081844419240951538e-02,3.741077671293169260e-04,-4.975619539618492126e-02,-9.131887927651405334e-03
8.830768987536430359e-03,-1.679823966696858406e-03,-1.406581373885273933e-03,-2.950291847810149193e-03,-4.448616504669189453e-02,-1.087572518736124039e-02,-3.207437111996114254e-04,-1.517415326088666916e-02,1.697456813417375088e-03
-9.879025164991617203e-04,-6.753041874617338181e-03,4.489663115236908197e-04,8.258863352239131927e-03,-1.736841350793838501e-02,-1.277781184762716293e-02,1.815246941987425089e-04,1.090542646124958992e-04,-2.231107791885733604e-04
6.232814397662878036e-03,1.556544192135334015e-02,-7.087074685841798782e-03,-1.825015526264905930e-03,5.138067062944173813e-03,1.260050805285573006e-03,-1.330099254846572876e-02,8.438161574304103851e-03,1.111723482608795166e-02
3.622764954343438148e-03,-2.098191296681761742e-03,-5.553322844207286835e-03,-1.064396277070045471e-02,-1.043529249727725983e-03,1.966424460988491774e-04,-1.153951231390237808e-02,-5.897070281207561493e-03,6.517739966511726379e-04
6.529475562274456024e-03,-3.419607237447053194e-04,-3.537255804985761642e-03,3.642891068011522293e-03,6.894502788782119751e-03,-1.072985120117664337e-02,-1.443348941393196583e-03,-6.058258004486560822e-03,-1.126108132302761078e-02
-7.230078801512718201e-03,-3.999254200607538223e-03,-9.156526997685432434e-03,2.493131440132856369e-03,2.849753480404615402e-03,1.693405676633119583e-03,4.319552332162857056e-03,-4.976946860551834106e-03,1.016850676387548447e-02
1.030750852078199387e-02,2.821088954806327820e-02,-4.645173903554677963e-03,-7.682003080844879150e-03,1.029175240546464920e-02,8.939387276768684387e-03,-1.374545414000749588e-02,-5.810907459817826748e-04,-5.136335734277963638e-03
5.011751782149076462e-03,-4.015384241938591003e-03,-6.387469475157558918e-04,-6.957477889955043793e-03,9.909813292324542999e-03,-8.034397847950458527e-03,-1.949060522019863129e-02,-2.097707241773605347e-02,-1.813187845982611179e-03
-1.083478797227144241e-02,-1.810344681143760681e-02,-2.157249255105853081e-03,7.371951360255479813e-03,-1.682283915579319000e-02,-6.259545218199491501e-03,3.828886663541197777e-03,-3.047477453947067261e-02,1.092778285965323448e-03
-2.261502668261528015e-02,1.622956991195678711e-02,1.348133478313684464e-02,1.717144437134265900e-02,-2.264469303190708160e-02,-7.960140705108642578e-03,-2.656192705035209656e-02,7.263528183102607727e-03,-1.025776937603950500e-02
-2.327523939311504364e-02,-1.520690694451332092e-02,-1.268246583640575409e-02,-9.518894366919994354e-03,-3.870871383696794510e-03,1.386339031159877777e-02,-1.291546621359884739e-03,2.048464119434356689e-02,1.299749780446290970e-02
-1.358079910278320312e-02,-2.912675496190786362e-03,-9.061165153980255127e-03,-3.869252512231469154e-03,-9.672537446022033691e-03,-1.072566490620374680e-02,-7.176987361162900925e-03,-1.805756241083145142e-02,1.455189101397991180e-02
1.013806089758872986e-02,-5.158565938472747803e-03,1.379350945353507996e-02,1.575442403554916382e-02,2.628049999475479126e-02,1.481525483541190624e-03,1.935489661991596222e-02,-4.585628584027290344e-02,-1.073490083217620850e-02
-3.882724267896264791e-04,1.619882183149456978e-03,1.368042174726724625e-02,-1.138147665187716484e-03,7.190399337559938431e-03,-4.872172139585018158e-03,-2.040259074419736862e-03,9.527875110507011414e-03,3.782165236771106720e-03
-6.976967677474021912e-03,-3.421808127313852310e-03,-7.465895265340805054e-03,7.295110262930393219e-03,-2.551929280161857605e-02,1.725795911625027657e-03,-3.049528971314430237e-02,3.366843611001968384e-02,3.979319240897893906e-03
7.449896540492773056e-03,1.156896003521978855e-03,-5.909680854529142380e-03,-3.846444655209779739e-03,-9.562265127897262573e-03,-1.992844045162200928e-03,1.227130065672099590e-03,-1.490403246134519577e-02,1.508940570056438446e-02
-4.411966074258089066e-03,-6.263931747525930405e-03,9.330438449978828430e-03,1.564575824886560440e-03,2.658410696312785149e-03,1.051596645265817642e-02,-1.448251190595328808e-03,6.224940298125147820e-04,-3.077175933867692947e-03
-1.692415401339530945e-02,1.789628900587558746e-02,9.958359412848949432e-03,-4.284169699531048536e-05,2.182595618069171906e-02,1.065163221210241318e-02,-5.646966397762298584e-03,-1.004947628825902939e-02,3.168073948472738266e-03
6.479336880147457123e-03,-4.457916598767042160e-03,6.100816652178764343e-03,-2.889313036575913429e-03,8.182495366781949997e-04,3.277202602475881577e-03,-6.617136765271425247e-03,2.594085875898599625e-03,3.155493410304188728e-03
2.279973030090332031e-02,-1.757876016199588776e-04,-7.785275578498840332e-03,6.812139879912137985e-03,-1.234908029437065125e-02,4.204149357974529266e-03,-5.734236910939216614e-04,1.739780977368354797e-02,-1.260429620742797852e-02
2.861521672457456589e-03,4.195818211883306503e-03,5.066381301730871201e-03,-1.580041367560625076e-03,-8.532131090760231018e-03,-4.073015414178371429e-03,-2.877697162330150604e-02,-1.058461889624595642e-02,-8.785098791122436523e-03
-1.172751747071743011e-02,1.041846722364425659e-02,-6.257812958210706711e-03,-6.784915458410978317e-03,-1.465640682727098465e-02,-1.128079276531934738e-02,-2.616185136139392853e-02,3.470233827829360962e-02,7.901432923972606659e-03
-9.521237574517726898e-03,-1.645236276090145111e-02,-1.304972358047962189e-02,-2.035264112055301666e-02,2.146583050489425659e-02,-4.857842344790697098e-03,-2.011027187108993530e-02,6.396261509507894516e-03,-3.584073856472969055e-03
7.136639906093478203e-04,3.497176617383956909e-02,6.734342779964208603e-03,-2.923985710367560387e-03,3.683612868189811707e-02,4.794914275407791138e-03,-1.087530702352523804e-02,7.134110480546951294e-02,6.199104711413383484e-03
-3.062570281326770782e-02,-1.995210535824298859e-02,-4.004410002380609512e-03,-1.902628503739833832e-02,-4.846760071814060211e-03,-3.681541187688708305e-03,-1.397860795259475708e-02,-4.386865720152854919e-02,-2.468589693307876587e-02
1.136934198439121246e-02,-3.257459960877895355e-03,7.745743263512849808e-03,-5.590537562966346741e-03,1.136475056409835815e-02,-9.217568673193454742e-03,4.763246048241853714e-03,6.207464262843132019e-03,-1.435768353985622525e-05
-1.016866322606801987e-02,1.028741942718625069e-03,-1.632954576052725315e-03,-1.551315071992576122e-03,2.714778063818812370e-03,-2.708665560930967331e-03,-2.326438901945948601e-03,1.222362183034420013e-02,-2.371049672365188599e-02
1.527022756636142731e-02,2.419458935037255287e-03,3.062325529754161835e-03,-1.972384983673691750e-03,1.094023324549198151e-02,-1.029548887163400650e-02,3.444444015622138977e-02,-1.649431325495243073e-02,-2.562626264989376068e-03
-1.062883716076612473e-02,3.562404774129390717e-03,-7.670666556805372238e-03,-5.895026959478855133e-03,-2.214366337284445763e-03,-2.465552417561411858e-03,-9.234306402504444122e-03,-2.074174955487251282e-02,-2.190234139561653137e-03
-6.482152733951807022e-03,2.699829870834946632e-03,2.552818041294813156e-04,-5.367958452552556992e-03,-1.032402925193309784e-02,8.413537405431270599e-03,-1.673781685531139374e-02,8.738907985389232635e-03,-4.106342385057359934e-04
6.074531003832817078e-03,-7.710639853030443192e-03,9.537035599350929260e-03,7.336571812629699707e-03,-3.941332455724477768e-03,1.146172452718019485e-02,-5.898913368582725525e-03,3.898275084793567657e-03,9.442063979804515839e-03
7.628900464624166489e-03,1.046706084161996841e-02,2.986862557008862495e-03,8.876192383468151093e-03,2.392841270193457603e-03,3.713771933689713478e-03,6.076239049434661865e-03,-2.544653415679931641e-02,5.213347030803561211e-04
5.417379434220492840e-04,5.632606334984302521e-03,1.656688936054706573e-02,-9.179289452731609344e-03,4.802683368325233459e-03,-3.020183066837489605e-04,-3.527870401740074158e-02,-1.334290206432342529e-02,3.114206716418266296e-03
1.259565073996782303e-02,1.134283281862735748e-02,-1.027830317616462708e-02,-8.015651255846023560e-03,-5.972836632281541824e-03,-6.109560374170541763e-03,-4.591248556971549988e-02,4.203735850751399994e-03,7.335026748478412628e-04
-2.423991914838552475e-03,2.762476354837417603e-02,-5.685363430529832840e-04,-5.588734988123178482e-03,4.251828417181968689e-03,-5.938893082202412188e-05,-9.383307042298838496e-05,-7.332547567784786224e-03,-1.467090332880616188e-03
-1.905134692788124084e-02,-1.159157510846853256e-02,1.143917324952781200e-03,-1.788158528506755829e-02,-1.615916751325130463e-02,-3.752929624170064926e-04,-2.435369603335857391e-02,1.138487830758094788e-02,9.842530824244022369e-03
-2.555162832140922546e-02,-1.802304643206298351e-03,-1.149864587932825089e-02,-3.359834430739283562e-03,7.754265330731868744e-03,-1.320179551839828491e-02,-4.863972775638103485e-03,-3.788481233641505241e-03,1.469279080629348755e-02
-5.451669450849294662e-03,3.151678247377276421e-03,2.233379706740379333e-02,1.155310496687889099e-02,2.056537196040153503e-03,1.700664497911930084e-02,-1.639189943671226501e-02,1.859415508806705475e-02,7.293652743101119995e-03
-2.914088079705834389e-03,-5.492113530635833740e-03,-1.628629676997661591e-02,2.431774046272039413e-03,-8.393399417400360107e-03,-1.191134564578533173e-02,-2.274363115429878235e-02,-8.471639826893806458e-03,-5.399640183895826340e-03
-4.252742044627666473e-03,7.844082079827785492e-03,2.749851904809474945e-03,1.762224826961755753e-03,-5.338288377970457077e-03,8.461007848381996155e-03,1.271762512624263763e-02,1.569985598325729370e-02,2.688195928931236267e-02
3.587265312671661377e-02,2.789090760052204132e-02,1.452516019344329834e-02,5.675289314240217209e-03,2.280880138278007507e-02,3.034928580746054649e-03,2.364858286455273628e-03,2.624994702637195587e-02,-9.028750471770763397e-03
8.668628521263599396e-03,-2.677281852811574936e-03,-1.663238368928432465e-02,-1.384557504206895828e-02,1.863262243568897247e-02,-2.290245611220598221e-03,-6.555831525474786758e-03,-3.363340348005294800e-02,-2.441083639860153198e-02
2.399536967277526855e-02,2.493255399167537689e-02,1.911616697907447815e-02,-1.860547624528408051e-02,2.717923140153288841e-03,9.001178666949272156e-03,7.102497853338718414e-03,-2.853773534297943115e-02,-5.869919899851083755e-03
-1.103425864130258560e-02,-1.383578777313232422e-02,-1.706977747380733490e-02,-1.721603050827980042e-02,-1.183004863560199738e-02,-1.140568172559142113e-03,-1.005153078585863113e-02,1.596886105835437775e-02,-5.724310874938964844e-03
-1.326207350939512253e-02,8.562588482163846493e-04,5.930073093622922897e-03,-3.398056142032146454e-03,6.086512468755245209e-03,1.812612288631498814e-03,-1.154575683176517487e-02,-1.159571949392557144e-02,-6.161531899124383926e-03
1.685946248471736908e-02,7.610978791490197182e-04,5.459419451653957367e-03,1.711185462772846222e-02,-1.107038930058479309e-02,2.497181063517928123e-03,3.316482994705438614e-03,-1.911277510225772858e-02,2.856979146599769592e-03
1.535125728696584702e-02,-1.874290592968463898e-02,-7.469441276043653488e-03,8.974458090960979462e-03,-1.640297099947929382e-02,8.585304021835327148e-03,1.567582786083221436e-02,3.289673849940299988e-02,4.210597276687622070e-02
1.595519110560417175e-02,6.144284270703792572e-03,-2.609608694911003113e-03,1.337346155196428299e-03,7.043689256533980370e-04,9.626042097806930542e-03,-6.980600766837596893e-03,1.033840328454971313e-02,-2.613604767248034477e-03
3.624866530299186707e-02,2.119212597608566284e-02,3.344447119161486626e-03,2.270727604627609253e-02,1.998668350279331207e-02,-1.358282845467329025e-02,-1.510538998991250992e-02,-1.241504214704036713e-03,-1.625086925923824310e-02
-8.879360742866992950e-03,1.433676201850175858e-02,3.672543447464704514e-03,-1.547667756676673889e-02,-3.357055597007274628e-03,6.150973029434680939e-03,-2.035524882376194000e-02,-1.589930802583694458e-02,2.825007401406764984e-02
-6.795180030167102814e-03,-4.709354136139154434e-03,-3.273254027590155602e-03,6.956911529414355755e-04,-3.388946503400802612e-02,-1.269250083714723587e-02,2.981442399322986603e-02,-2.628489769995212555e-02,5.060739815235137939e-03
9.860504418611526489e-03,5.059929098933935165e-03,-4.478105693124234676e-04,5.281682591885328293e-03,1.417831797152757645e-02,2.583690453320741653e-03,1.569861359894275665e-02,-3.042826056480407715e-02,9.867168031632900238e-03
-2.187034301459789276e-02,6.863035261631011963e-03,-2.903139218688011169e-03,-4.677239060401916504e-02,1.175209041684865952e-02,5.373422172851860523e-04,-2.206174097955226898e-02,-1.083410624414682388e-02,-1.801594160497188568e-02
-2.070374973118305206e-02,-3.555816598236560822e-03,-1.359738782048225403e-02,-4.658639430999755859e-03,-5.265878979116678238e-03,-3.395234700292348862e-03,1.089023891836404800e-02,1.084924861788749695e-02,2.981876954436302185e-03
-1.387452939525246620e-03,-9.270708076655864716e-03,-1.945833489298820496e-02,-2.465953491628170013e-02,5.601134151220321655e-03,-8.845447562634944916e-03,-2.440340630710124969e-02,2.074737101793289185e-02,-4.644521512091159821e-03
-5.607390776276588440e-03,-2.849914366379380226e-03,1.003825757652521133e-02,-5.344976671040058136e-03,9.886947460472583771e-03,-9.326240047812461853e-03,1.001901179552078247e-02,9.652663022279739380e-03,-1.333036180585622787e-02
-1.609798707067966461e-02,-2.758843358606100082e-03,-8.000128902494907379e-03,5.981564754620194435e-04,-2.345820516347885132e-02,1.343659684062004089e-02,-1.450621709227561951e-02,1.955009065568447113e-02,-3.576719900593161583e-03
-6.177828647196292877e-03,-1.654317416250705719e-02,8.179806172847747803e-03,-7.035163231194019318e-03,4.931453149765729904e-04,3.377827582880854607e-03,-2.490419335663318634e-02,-1.212935661897063255e-03,-8.754580281674861908e-03
-9.241622872650623322e-03,1.072797272354364395e-02,2.790175378322601318e-03,1.566083519719541073e-03,2.494061551988124847e-02,4.666370805352926254e-03,-9.770622476935386658e-03,3.169624507427215576e-02,-7.360925432294607162e-03
-1.365867909044027328e-02,3.294170601293444633e-03,9.447380900382995605e-03,-7.878727279603481293e-03,-1.178775448352098465e-03,-5.722722853533923626e-04,-7.900646887719631195e-03,-2.253134502097964287e-03,1.741540618240833282e-03
-1.219957321882247925e-02,-3.203663975000381470e-03,3.940239548683166504e-03,-2.182550542056560516e-02,-2.355817705392837524e-02,-1.467955182306468487e-03,-2.529820660129189491e-03,-1.722057908773422241e-02,1.284054451389238238e-04
-1.967039861483499408e-04,5.231671500951051712e-03,5.299320910125970840e-03,-3.214643802493810654e-03,5.271207075566053391e-03,1.906763063743710518e-03,-8.825712837278842926e-03,1.284974440932273865e-02,-7.862229831516742706e-03
7.476720493286848068e-04,4.331887234002351761e-03,-8.080207742750644684e-03,1.641472615301609039e-02,8.955824188888072968e-03,2.998941810801625252e-03,-3.240661695599555969e-02,2.375476621091365814e-02,-3.745342837646603584e-03
9.621301665902137756e-03,2.486119791865348816e-02,2.853485941886901855e-02,8.150922134518623352e-03,2.257284149527549744e-02,3.691056743264198303e-02,2.198959933593869209e-03,-1.462084334343671799e-02,2.465998288244009018e-03
-5.758648272603750229e-03,-1.335094496607780457e-02,-1.685327151790261269e-03,-5.233660805970430374e-03,-1.179654616862535477e-02,-8.050726610235869884e-04,-1.552213635295629501e-02,3.878192603588104248e-02,-2.136424416676163673e-03
1.203817781060934067e-03,-1.402909681200981140e-02,-1.789303682744503021e-02,9.919920936226844788e-03,-3.216703608632087708e-02,-2.815565839409828186e-02,-2.564104273915290833e-03,-2.821614779531955719e-02,-9.722651913762092590e-03
1.460559386759996414e-02,4.367304500192403793e-03,-8.019070141017436981e-03,-1.352187711745500565e-02,9.528579190373420715e-03,-1.143676135689020157e-02,-1.338851545006036758e-02,2.244320139288902283e-02,-2.456835657358169556e-02
3.238503821194171906e-03,7.471384480595588684e-03,5.806291010230779648e-03,-6.240667775273323059e-03,1.432055979967117310e-02,-2.257088432088494301e-03,-3.323721140623092651e-02,1.682231761515140533e-02,1.391827035695314407e-02
-1.766581088304519653e-02,-1.408318639732897282e-03,-3.780379425734281540e-03,2.372634597122669220e-03,1.917483517900109291e-03,-3.547813743352890015e-03,7.269213441759347916e-03,2.004135865718126297e-03,-7.276002783328294754e-03
-8.444819599390029907e-03,7.006801664829254150e-03,-1.037001260556280613e-03,2.712622062972513959e-06,-8.829241618514060974e-03,2.000624081119894981e-03,1.959112659096717834e-02,-6.703395396471023560e-03,3.568988293409347534e-03
-1.093119196593761444e-02,3.356312401592731476e-03,5.025152582675218582e-03,-7.400793023407459259e-03,-2.092797309160232544e-02,-5.209583789110183716e-03,2.889415947720408440e-03,-1.745797134935855865e-02,-9.164640214294195175e-04
1.893801800906658173e-02,1.319066039286553860e-03,-1.892114058136940002e-02,4.048306029289960861e-03,-1.530542224645614624e-02,-2.001736126840114594e-02,1.839568838477134705e-02,8.125116117298603058e-03,-3.574983775615692139e-02
1.033328194171190262e-02,1.275903917849063873e-02,3.728839755058288574e-02,-1.179015170782804489e-02,-3.412866964936256409e-02,7.346427440643310547e-02,2.912448905408382416e-02,5.488865077495574951e-02,1.504066865891218185e-02
6.198494229465723038e-03,5.381013080477714539e-02,1.988733746111392975e-02,-9.433779865503311157e-03,-1.914362795650959015e-02,1.342208869755268097e-02,-9.002303704619407654e-03,-1.082608290016651154e-02,-1.985251903533935547e-02
-1.607014564797282219e-03,-1.780996448360383511e-03,6.472648121416568756e-03,-1.506621297448873520e-02,-5.203951150178909302e-02,-3.470318391919136047e-02,4.044548608362674713e-03,-1.349093858152627945e-02,-3.740646690130233765e-02
2.915539965033531189e-02,3.297281917184591293e-03,2.139396034181118011e-02,1.094789057970046997e-02,-7.976884953677654266e-03,-3.667479008436203003e-02,2.074168249964714050e-02,1.567631028592586517e-02,2.298483252525329590e-02
-1.848519220948219299e-02,4.136082250624895096e-03,-6.736609619110822678e-03,-1.736981235444545746e-02,2.339317649602890015e-02,4.327416792511940002e-02,-9.571657516062259674e-03,-1.472801156342029572e-02,-8.075964433373883367e-05
1.118785329163074493e-02,-7.031180430203676224e-03,-1.023782097036018968e-04,3.146424144506454468e-02,4.495337605476379395e-02,-1.841118372976779938e-02,-3.571800654754042625e-03,1.247796043753623962e-02,-2.688094787299633026e-02
-2.686007507145404816e-02,4.454660695046186447e-03,2.562762983143329620e-02,-2.217014878988265991e-02,7.924806326627731323e-02,-3.792743384838104248e-02,-1.463523949496448040e-03,-2.168045379221439362e-02,2.617316567921079695e-05
-4.437256604433059692e-03,-1.015637442469596863e-02,-6.715988274663686752e-03,-7.831379771232604980e-03,-1.101494533941149712e-03,-1.632574759423732758e-02,-4.202384036034345627e-03,-2.027161978185176849e-02,-1.474230270832777023e-02
1.204788498580455780e-02,3.057447820901870728e-02,2.303106337785720825e-02,3.700475767254829407e-02,1.147059649229049683e-01,-3.221857547760009766e-02,-1.848901621997356415e-02,6.937043741345405579e-03,-3.818080294877290726e-03
-7.855865987949073315e-04,1.993336481973528862e-03,-2.187382895499467850e-03,1.918734423816204071e-02,-1.729574141791090369e-04,-3.092874074354767799e-03,-1.666654134169220924e-03,1.449234690517187119e-02,1.559769734740257263e-02
4.974888172000646591e-03,-2.719450567383319139e-04,-5.603336263447999954e-03,4.979747813194990158e-03,1.698274165391921997e-02,-5.071718990802764893e-02,-7.040204945951700211e-03,-5.256167147308588028e-03,-6.632804870605468750e-03
-2.088258974254131317e-02,-1.510474923998117447e-02,-2.645926922559738159e-02,1.713498568278737366e-05,5.703464895486831665e-02,-2.255530841648578644e-02,-9.899468161165714264e-03,1.100552640855312347e-02,-3.867211192846298218e-02
-1.489342073909938335e-03,4.423409234732389450e-03,-1.456184964627027512e-02,-1.061350572854280472e-02,-9.407324716448783875e-03,-4.916287213563919067e-02,4.140945151448249817e-03,-8.246394805610179901e-03,-1.081200549378991127e-03
1.830283668823540211e-03,-9.274664334952831268e-03,5.049165338277816772e-02,1.149530988186597824e-02,1.063053533434867859e-01,2.192894183099269867e-02,3.618939593434333801e-02,-7.497954182326793671e-03,1.444500964134931564e-02
3.584129363298416138e-02,1.767964847385883331e-02,-2.046446688473224640e-02,1.087202876806259155e-02,-9.122612886130809784e-03,3.462025523185729980e-02,1.361099537461996078e-02,-2.434215694665908813e-02,3.544294834136962891e-02
-5.955647677183151245e-03,-5.408749356865882874e-02,2.577713131904602051e-02,1.183224521810188890e-04,-4.290960356593132019e-02,-1.200165878981351852e-02,-2.514410205185413361e-02,3.442425513640046120e-04,1.074961666017770767e-02
2.632136829197406769e-02,-1.716452650725841522e-02,4.393883980810642242e-03,6.806679069995880127e-02,1.007487648166716099e-03,4.835791513323783875e-02,3.313721716403961182e-02,-8.011031895875930786e-03,-1.690737716853618622e-02
-3.218515962362289429e-02,-3.601868078112602234e-02,-3.629648312926292419e-02,-2.418714575469493866e-02,2.795348875224590302e-02,-1.509005390107631683e-02,-3.162018209695816040e-02,3.897512797266244888e-03,-3.720368072390556335e-02
-2.297694049775600433e-02,1.599400304257869720e-02,-3.700940683484077454e-02,2.101070247590541840e-02,2.491252124309539795e-02,-1.137864310294389725e-02,-2.035517804324626923e-02,-1.165058743208646774e-02,6.673879921436309814e-02
-2.051608636975288391e-02,2.585699968039989471e-02,-2.382634766399860382e-02,1.115278527140617371e-02,1.679105102084577084e-03,4.425440728664398193e-02,7.960210205055773258e-04,-1.945474068634212017e-03,-1.802436541765928268e-03
-1.804729225113987923e-03,5.071850959211587906e-03,2.359850704669952393e-02,-4.267240408807992935e-03,1.008546724915504456e-02,-4.057829827070236206e-02,-8.520992472767829895e-03,-4.949089605361223221e-03,6.549210520461201668e-04
2.095027454197406769e-02,-2.364348433911800385e-02,-2.643612213432788849e-02,1.254138257354497910e-02,2.493055723607540131e-02,3.681209683418273926e-02,2.950600348412990570e-02,-1.158883795142173767e-02,4.431663081049919128e-03
-2.384792268276214600e-02,2.797684632241725922e-03,-1.306434907019138336e-02,-1.036351430229842663e-03,2.811182104051113129e-02,3.960669413208961487e-02,-1.670506596565246582e-02,-1.943529956042766571e-02,7.020534016191959381e-03
-3.999510034918785095e-02,-1.890261843800544739e-02,-7.930351421236991882e-04,5.681137088686227798e-03,-1.052578538656234741e-02,6.055186688899993896e-02,-9.881150908768177032e-03,-1.978799235075712204e-03,-5.744900554418563843e-03
2.121947892010211945e-02,2.269706875085830688e-02,3.210705472156405449e-03,3.482466936111450195e-02,6.791510432958602905e-02,-3.652035957202315331e-04,-9.628348983824253082e-03,-2.963302424177527428e-03,-1.135487854480743408e-02
5.805865395814180374e-03,1.499522104859352112e-02,-1.549686421640217304e-03,4.126027692109346390e-03,9.170328080654144287e-02,-1.912936754524707794e-02,1.085826475173234940e-02,1.255737803876399994e-02,6.343461573123931885e-03
5.093662999570369720e-03,1.167014148086309433e-02,2.976888976991176605e-02,-8.413360454142093658e-03,3.861625492572784424e-02,7.832220941781997681e-02,5.270198453217744827e-03,3.482897207140922546e-02,4.041479155421257019e-02
-6.701751146465539932e-03,3.238962218165397644e-02,1.233548391610383987e-02,2.912683784961700439e-02,-2.752529690042138100e-03,-7.251963950693607330e-03,3.053900413215160370e-02,5.976446345448493958e-02,4.981216415762901306e-02
-1.675457751844078302e-04,-2.260530134662985802e-03,1.883312873542308807e-02,2.170960418879985809e-02,2.781549096107482910e-02,3.609978780150413513e-02,1.268485561013221741e-02,-3.134039044380187988e-02,1.759405806660652161e-02
2.410146221518516541e-02,-9.815376251935958862e-04,1.346645783632993698e-02,4.549773037433624268e-02,-1.554895006120204926e-02,-7.179917884059250355e-04,3.925802186131477356e-02,-2.977430447936058044e-02,-1.755654066801071167e-02
2.611828967928886414e-02,1.164073962718248367e-02,3.275518119335174561e-02,1.859971135854721069e-02,5.628819577395915985e-03,5.655314028263092041e-02,1.541746594011783600e-02,1.853153854608535767e-02,4.720043763518333435e-02
1.852258108556270599e-02,-7.271944545209407806e-03,3.523326665163040161e-02,-5.470637232065200806e-03,1.429651025682687759e-02,-2.842920646071434021e-02,-1.167193893343210220e-02,-4.100111871957778931e-02,3.907130658626556396e-02
5.995264276862144470e-03,3.061283938586711884e-02,-4.130748286843299866e-02,-1.571755111217498779e-02,3.166466578841209412e-02,3.385569155216217041e-02,-9.753577411174774170e-03,2.516509965062141418e-02,7.083549280650913715e-04
1.999538205564022064e-02,3.332616761326789856e-02,1.684739068150520325e-02,1.351427519693970680e-03,6.855743471533060074e-03,7.622208446264266968e-02,2.292125858366489410e-02,-8.733406662940979004e-03,1.265828218311071396e-02
3.193284943699836731e-02,1.204585377126932144e-02,-4.480500239878892899e-03,-4.695238021668046713e-04,6.002728827297687531e-03,9.601721540093421936e-03,1.560798846185207367e-02,3.869838640093803406e-02,1.707587018609046936e-02
2.558359876275062561e-02,1.396220456808805466e-02,2.235738001763820648e-02,4.423792660236358643e-02,6.521512567996978760e-02,-2.530214143916964531e-03,2.357539022341370583e-03,1.526911184191703796e-02,2.834594622254371643e-02
-2.404497470706701279e-03,2.393762394785881042e-02,3.321372717618942261e-02,7.031915709376335144e-03,1.723627932369709015e-02,-4.113190807402133942e-04,2.492244355380535126e-02,3.264510631561279297e-02,2.572082355618476868e-02
2.500284276902675629e-02,-1.254554372280836105e-03,-6.586030125617980957e-03,2.261690422892570496e-02,-2.834904007613658905e-03,1.101109012961387634e-01,2.522781869629397988e-05,4.726384207606315613e-02,-3.505604341626167297e-02
1.372354384511709213e-02,-2.705993317067623138e-02,-2.683019079267978668e-02,5.083264037966728210e-02,6.390105187892913818e-02,-5.542334169149398804e-03,3.745994996279478073e-03,5.146369803696870804e-03,7.304813712835311890e-03
2.392343431711196899e-02,8.239804883487522602e-04,2.547155600041151047e-03,-1.151717826724052429e-02,-2.736806403845548630e-03,-3.525604680180549622e-02,1.021960563957691193e-02,-2.760201320052146912e-02,1.335268467664718628e-02
-1.321542449295520782e-02,2.120524458587169647e-02,-4.418356809765100479e-03,-2.089844085276126862e-03,1.921670697629451752e-02,2.447299659252166748e-02,-7.717948406934738159e-03,-3.702439367771148682e-02,6.217549555003643036e-03
4.280675947666168213e-02,1.984645612537860870e-02,2.906690165400505066e-02,-1.656970195472240448e-02,3.530623391270637512e-02,1.598962582647800446e-02,-1.501686591655015945e-02,2.303373441100120544e-02,-3.547195345163345337e-02
1.362883392721414566e-02,5.084113217890262604e-03,9.620987810194492340e-03,-7.962245144881308079e-04,-1.702986774034798145e-03,6.034603714942932129e-02,-6.230554427020251751e-04,-1.521127671003341675e-02,-1.481056399643421173e-02
2.478398382663726807e-03,-4.271605983376502991e-02,1.754221133887767792e-02,-1.461128238588571548e-02,-1.223587431013584137e-02,2.161151356995105743e-02,3.895109146833419800e-02,3.907340113073587418e-03,-2.703897468745708466e-02
5.782698863185942173e-04,2.440869994461536407e-02,1.327550387941300869e-03,-1.070551574230194092e-02,-2.209259010851383209e-02,6.337019801139831543e-02,2.330891415476799011e-02,-1.153467129915952682e-02,-2.597021311521530151e-02
7.984471507370471954e-03,-8.510313928127288818e-03,2.226049080491065979e-02,1.058728806674480438e-02,-1.954369479790329933e-03,3.920445218682289124e-02,1.795035414397716522e-02,7.267907727509737015e-03,2.241942659020423889e-02
-2.474522031843662262e-02,2.197846584022045135e-02,-2.189865894615650177e-02,1.983628794550895691e-02,1.008202601224184036e-02,1.139175053685903549e-02,4.875941947102546692e-02,6.468407809734344482e-02,9.557293727993965149e-03
3.150423481201869436e-06,5.014504306018352509e-03,2.286701090633869171e-02,-7.552532479166984558e-03,2.202274836599826813e-02,-2.034951932728290558e-02,-1.623453572392463684e-02,-5.693056154996156693e-04,7.552925962954759598e-03
6.253099418245255947e-04,2.969291061162948608e-02,5.148788169026374817e-02,5.352187436074018478e-03,3.151598572731018066e-02,2.984372712671756744e-02,-8.038607425987720490e-03,-1.613079337403178215e-03,-3.684283234179019928e-03
1.185227930545806885e-02,3.152630850672721863e-02,8.273409330286085606e-04,-6.430459208786487579e-03,3.021835722029209137e-02,7.206344977021217346e-03,2.874550037086009979e-02,-1.196570694446563721e-02,-5.313684232532978058e-04
