-2.314042896032333374e-01
1.123817414045333862e-01
7.052128016948699951e-02
-2.552186548709869385e-01
-2.596038281917572021e-01
5.544010996818542480e-01
2.588675916194915771e-01
-1.543053090572357178e-01
-2.201434411108493805e-02
-8.879256993532180786e-02
4.189307093620300293e-01
-2.504204511642456055e-01
-8.317290544509887695e-01
-2.094871252775192261e-01
1.977926194667816162e-01
-6.164596974849700928e-02
-1.621975302696228027e-01
-2.579162269830703735e-02
3.224157691001892090e-01
-2.704786658287048340e-01
-1.218913570046424866e-01
-8.902478218078613281e-02
2.335427254438400269e-01
-3.922380506992340088e-02
-1.379294246435165405e-01
3.129399418830871582e-01
-5.824528634548187256e-02
8.802262693643569946e-02
-2.607947885990142822e-01
1.065933518111705780e-02
5.644186735153198242e-01
6.139495968818664551e-02
-2.879861295223236084e-01
3.860271871089935303e-01
-3.653787970542907715e-01
1.508841514587402344e-01
1.302452683448791504e-01
-2.781828492879867554e-02
4.483565688133239746e-03
3.722009062767028809e-01
1.565942168235778809e-01
2.597643435001373291e-01
1.554480567574501038e-02
4.870339334011077881e-01
-1.705511510372161865e-01
-7.460449635982513428e-02
-8.241378515958786011e-02
3.067327737808227539e-01
5.509973503649234772e-03
-6.922638416290283203e-02
2.797504663467407227e-01
6.969407200813293457e-02
7.573685050010681152e-02
2.966950535774230957e-01
9.067253768444061279e-02
3.240257799625396729e-01
-1.578118205070495605e-01
-6.663285940885543823e-02
-1.315063089132308960e-01
1.013241633772850037e-01
-7.577086687088012695e-01
1.440906897187232971e-02
1.560874581336975098e-01
4.271258115768432617e-01
