3.877688199281692505e-02,2.628284040838479996e-03,-5.095947068184614182e-03,1.943834125995635986e-03,5.399818066507577896e-03,-5.942732095718383789e-03,-4.163180012255907059e-03,-5.380606744438409805e-03,-3.528586821630597115e-03
4.314274527132511139e-03,4.752652719616889954e-03,-1.267826301045715809e-03,-4.787779878824949265e-03,-1.257492788136005402e-02,-8.476113900542259216e-03,-1.159366802312433720e-03,1.802855357527732849e-02,-5.852614063769578934e-03
-9.923871606588363647e-03,-1.423736568540334702e-02,-6.099534686654806137e-03,-3.292068839073181152e-03,-6.240310147404670715e-03,-8.086577057838439941e-03,3.494097851216793060e-03,-3.133165417239069939e-03,-1.259077223949134350e-03
6.886485498398542404e-03,1.709107658825814724e-03,-1.016755588352680206e-02,-8.508852683007717133e-03,7.535840850323438644e-03,-8.720817975699901581e-03,-1.049237558618187904e-03,-1.578731648623943329e-02,-1.952324993908405304e-03
1.267546787858009338e-03,2.010577591136097908e-03,4.413546994328498840e-03,-5.231066141277551651e-03,-8.378458209335803986e-03,6.404907908290624619e-03,2.389497356489300728e-03,3.412998747080564499e-03,2.409636275842785835e-03
-2.639997750520706177e-03,-8.727819658815860748e-03,-8.794659748673439026e-03,-5.100357346236705780e-03,2.668959274888038635e-02,-3.073057625442743301e-03,-1.041758432984352112e-02,-4.772995132952928543e-03,1.777007617056369781e-02
-6.647408590652048588e-04,-4.103409592062234879e-03,-2.355209318920969963e-03,4.872510326094925404e-04,-5.313908681273460388e-03,-4.362789914011955261e-03,2.345570549368858337e-02,1.276939362287521362e-02,-3.552762093022465706e-03
-3.300001480965875089e-05,4.515097010880708694e-03,1.071691047400236130e-02,-4.465690813958644867e-03,1.528387796133756638e-02,-1.682847179472446442e-02,-1.036663446575403214e-02,2.803991734981536865e-02,-1.140219392254948616e-03
-4.925281275063753128e-03,1.750098890624940395e-04,-1.035658642649650574e-03,4.068496637046337128e-03,3.292183624580502510e-03,-2.901450032368302345e-03,-3.923770971596240997e-03,-7.432755548506975174e-03,-3.635264001786708832e-04
2.115134702762588859e-04,5.758275510743260384e-04,-3.469479503110051155e-03,4.964547697454690933e-03,-1.348386867903172970e-03,-6.819917820394039154e-03,3.369603364262729883e-04,4.084226675331592560e-03,1.147971022874116898e-02
-2.515180222690105438e-02,-8.374320343136787415e-03,-2.038743812590837479e-03,-1.049204077571630478e-02,-1.512615196406841278e-02,4.216782283037900925e-03,-1.184868859127163887e-03,9.210589341819286346e-03,3.180372528731822968e-03
-1.270712818950414658e-03,3.803314408287405968e-03,-6.612158380448818207e-03,-3.761305706575512886e-03,4.684247076511383057e-03,-1.671853475272655487e-02,3.872325876727700233e-03,2.524348162114620209e-02,-1.725057326257228851e-02
-5.946433637291193008e-03,8.852509781718254089e-03,-6.640830542892217636e-03,2.590719424188137054e-02,3.383000195026397705e-02,-1.778126694262027740e-02,-1.772808469831943512e-02,-3.046498401090502739e-03,-7.369914092123508453e-03
-1.244360394775867462e-02,-5.437550134956836700e-03,-1.661251531913876534e-03,-1.750902272760868073e-03,-1.563328504562377930e-02,-1.516087912023067474e-02,7.269611582159996033e-03,-1.450498495250940323e-02,-8.000056259334087372e-03
9.573340066708624363e-04,-8.647715672850608826e-03,-3.217845922335982323e-03,7.382124662399291992e-03,-8.030615746974945068e-03,1.658883690834045410e-02,2.138920361176133156e-03,-9.156736545264720917e-03,-6.288650911301374435e-03
8.764863014221191406e-03,-2.566213905811309814e-02,-8.089339360594749451e-03,1.318006496876478195e-02,2.090460062026977539e-02,-4.633556120097637177e-03,3.719388274475932121e-03,-1.308938721194863319e-03,-6.843938608653843403e-04
-4.928468260914087296e-03,-6.073938217014074326e-03,-6.402889732271432877e-03,6.934784818440675735e-03,1.486319303512573242e-02,-1.095493324100971222e-02,6.718259770423173904e-03,4.170453920960426331e-02,-2.476154593750834465e-03
-4.886446520686149597e-03,-1.912823878228664398e-03,-4.175033420324325562e-03,-6.015634862706065178e-04,-7.620583288371562958e-03,-5.937192123383283615e-03,9.086166508495807648e-03,-1.263850461691617966e-02,5.148414988070726395e-03
4.358939826488494873e-03,-1.077416469343006611e-03,-4.217857494950294495e-03,-2.300780965015292168e-03,-1.367832906544208527e-02,1.596447825431823730e-02,-4.079715348780155182e-03,3.488822607323527336e-03,-1.055531110614538193e-02
3.431275952607393265e-03,-1.195363583974540234e-03,-1.858992874622344971e-02,6.434532813727855682e-03,-4.281508736312389374e-03,4.269023425877094269e-03,-4.016797058284282684e-03,-1.424831803888082504e-02,-7.786787580698728561e-03
-2.309360075742006302e-03,1.894390094093978405e-03,-1.494442229159176350e-03,1.156863407231867313e-03,-2.328361012041568756e-02,-5.784557666629552841e-03,-5.742425564676523209e-03,7.012480404227972031e-03,-1.505254069343209267e-03
-2.778863999992609024e-03,5.995757877826690674e-03,-5.408541765064001083e-03,2.587078604847192764e-03,5.851382855325937271e-03,4.699211195111274719e-02,2.254127990454435349e-03,1.335233682766556740e-03,-8.045329712331295013e-03
-8.827226236462593079e-03,-7.085599936544895172e-03,-3.601304022595286369e-03,-2.733471803367137909e-02,8.949251845479011536e-03,-6.374850403517484665e-03,-1.790367416106164455e-03,-4.884063731878995895e-03,-2.846929128281772137e-04
-7.335958071053028107e-03,-1.569884642958641052e-02,-1.579539105296134949e-02,-1.227346807718276978e-02,-2.534823119640350342e-02,-1.628931984305381775e-02,-1.077100913971662521e-02,-6.730875466018915176e-03,-5.294567905366420746e-03
-3.342210315167903900e-03,-1.417235191911458969e-02,-1.053616683930158615e-02,-1.326864119619131088e-02,3.009051457047462463e-02,9.016106836497783661e-03,-4.687100648880004883e-03,5.045533180236816406e-03,-4.824039060622453690e-03
1.366864307783544064e-03,9.710642509162425995e-03,2.528163371607661247e-03,8.880218490958213806e-03,-1.511646201834082603e-03,4.480144940316677094e-03,5.302525125443935394e-03,8.303518407046794891e-03,-5.994612351059913635e-03
-1.247814949601888657e-02,-2.980822138488292694e-02,1.690477132797241211e-02,-1.131275482475757599e-02,9.185279719531536102e-03,1.746568828821182251e-02,-1.029941160231828690e-02,1.059791259467601776e-02,-4.003600683063268661e-03
-7.072787266224622726e-04,-3.076687688007950783e-03,-2.854221034795045853e-03,-1.900183781981468201e-02,1.911355881020426750e-03,8.994427509605884552e-03,-1.959780044853687286e-02,-1.299071218818426132e-02,-1.237913127988576889e-02
-6.200938019901514053e-03,2.712795138359069824e-02,2.205658145248889923e-02,-1.933890744112432003e-03,3.426200151443481445e-02,-9.875779040157794952e-03,-1.574804261326789856e-02,-4.545563366264104843e-03,-1.341279875487089157e-02
4.276627209037542343e-03,-8.063212037086486816e-03,-1.508782501332461834e-03,5.967352772131562233e-04,-1.956485910341143608e-03,4.806515644304454327e-04,1.310316938906908035e-02,7.230510469526052475e-03,-3.118426771834492683e-03
6.239944137632846832e-03,8.655784651637077332e-03,-3.837575903162360191e-03,1.721303723752498627e-02,-2.444815263152122498e-02,3.440219210460782051e-03,-5.671482533216476440e-03,2.777768298983573914e-03,-2.541291061788797379e-03
1.718542166054248810e-02,1.122715766541659832e-03,7.101996336132287979e-03,-1.649847812950611115e-02,-1.704662665724754333e-02,-1.049890197464264929e-04,1.959962828550487757e-04,-3.427989035844802856e-02,-3.517061704769730568e-03
-1.869520201580598950e-04,-5.267903208732604980e-03,-2.035405021160840988e-03,-1.271637040190398693e-03,-2.310737781226634979e-02,-5.133111495524644852e-03,2.408931963145732880e-03,-9.064889512956142426e-03,-3.174437908455729485e-03
1.776003045961260796e-04,5.981307011097669601e-03,4.551785532385110855e-03,3.136992687359452248e-03,4.623926244676113129e-03,9.025094914250075817e-04,5.084391217678785324e-03,-2.480139490216970444e-03,-1.622769515961408615e-03
5.105860065668821335e-03,2.262020017951726913e-03,5.943667143583297729e-03,-6.009265780448913574e-03,1.509163714945316315e-02,8.993349911179393530e-05,6.136075826361775398e-04,5.412227939814329147e-03,-6.581364199519157410e-03
-2.559797838330268860e-03,2.874675393104553223e-02,-2.388873137533664703e-02,7.871207781136035919e-03,3.382619237527251244e-03,2.060930430889129639e-02,-1.328124082647264004e-03,-8.076850324869155884e-03,-2.183694858103990555e-03
-8.808767423033714294e-03,-5.032279877923429012e-04,1.070365402847528458e-02,1.146134827286005020e-02,-8.695127442479133606e-03,9.521177038550376892e-03,4.704319871962070465e-04,1.697177626192569733e-02,1.572955632582306862e-03
5.733415484428405762e-03,-1.845207251608371735e-02,1.102551585063338280e-03,-2.958684461191296577e-03,8.024718612432479858e-03,-7.544747204519808292e-04,7.771162316203117371e-03,1.219028513878583908e-02,-2.923805965110659599e-03
-5.121759139001369476e-03,-9.200254135066643357e-05,-9.132652543485164642e-03,-7.184552494436502457e-03,5.310205742716789246e-03,2.531670965254306793e-02,-5.061595584265887737e-04,2.729424089193344116e-02,-2.529416233301162720e-02
4.476111498661339283e-04,-3.018235787749290466e-03,-1.082109753042459488e-02,6.291368976235389709e-03,-1.571047492325305939e-02,1.748091541230678558e-02,7.958206348121166229e-03,-3.133527189493179321e-02,4.927944391965866089e-03
2.373133087530732155e-03,-6.001463159918785095e-03,5.143714137375354767e-03,-5.838679149746894836e-03,3.262185258790850639e-03,8.616260252892971039e-03,-1.697858097031712532e-03,-4.815081600099802017e-03,2.079418627545237541e-03
-9.624819271266460419e-03,-1.392927765846252441e-02,-6.595996208488941193e-03,6.027617491781711578e-03,1.082549896091222763e-02,8.650182746350765228e-03,-3.881704062223434448e-03,6.333073833957314491e-04,9.579439647495746613e-03
-6.606750655919313431e-03,-6.566071417182683945e-03,-2.804130315780639648e-03,-1.634073071181774139e-02,-6.983726751059293747e-03,-1.215062453411519527e-03,-1.033559627830982208e-02,-1.110755465924739838e-02,6.742025288986042142e-05
5.918203969486057758e-04,-6.367393769323825836e-03,-4.014191217720508575e-03,-3.151591867208480835e-03,9.627674706280231476e-03,-1.062441430985927582e-02,-1.695524086244404316e-03,-1.749387709423899651e-03,-8.166337385773658752e-03
3.768300302908755839e-05,-6.946760113351047039e-04,-1.570545835420489311e-03,-8.230570820160210133e-04,-6.894890102557837963e-04,-5.494704004377126694e-03,1.236543175764381886e-04,4.188036546111106873e-02,1.424975809641182423e-03
2.302080683875828981e-04,4.303056281059980392e-03,9.245446883141994476e-03,1.121082901954650879e-02,-1.582822203636169434e-02,-1.138872839510440826e-02,5.701190675608813763e-04,6.098415236920118332e-03,-1.176336873322725296e-02
-7.985431700944900513e-03,-3.619776805862784386e-03,-4.312703676987439394e-04,-1.659904420375823975e-02,7.503160089254379272e-02,-5.901786033064126968e-03,3.000986995175480843e-03,-6.072990945540368557e-04,-9.507514536380767822e-03
9.392536012455821037e-04,4.344982560724020004e-03,-2.017336199060082436e-03,-2.027392853051424026e-03,-1.846183091402053833e-02,-7.578810676932334900e-03,5.011125002056360245e-03,-4.005252383649349213e-03,-3.180596511811017990e-03
8.962806896306574345e-04,-7.029627449810504913e-03,2.640028670430183411e-02,-5.193817894905805588e-03,-5.713673308491706848e-03,1.631113328039646149e-02,-4.277529660612344742e-03,-9.557239711284637451e-03,-4.714827984571456909e-03
6.667105481028556824e-03,-3.667710581794381142e-03,3.284023609012365341e-03,5.969744175672531128e-03,1.266036555171012878e-02,2.254266478121280670e-02,7.059796713292598724e-03,7.409396581351757050e-03,-8.265414275228977203e-03
7.312140893191099167e-03,9.481172077357769012e-03,9.172011166810989380e-03,1.076974347233772278e-02,1.841070689260959625e-02,3.295883163809776306e-02,2.374324249103665352e-03,1.220901776105165482e-02,1.018234528601169586e-02
8.961138315498828888e-03,1.910784514620900154e-03,6.730089429765939713e-03,5.782723426818847656e-03,-1.116446126252412796e-02,-2.315481106052175164e-04,-1.055487524718046188e-02,9.484589099884033203e-03,-9.933151304721832275e-03
-6.741377874277532101e-04,-8.188747800886631012e-03,1.587088801898062229e-03,-1.243773009628057480e-02,-8.039983920753002167e-03,1.122387219220399857e-02,2.475661225616931915e-03,1.854239404201507568e-02,5.101556889712810516e-03
2.114719897508621216e-02,9.995418600738048553e-03,8.520098403096199036e-03,1.106344908475875854e-02,-2.807905199006199837e-03,2.755314810201525688e-03,1.363778673112392426e-02,2.356055192649364471e-02,6.846656091511249542e-03
-1.343548647128045559e-04,-1.929790480062365532e-03,1.320979837328195572e-02,1.339637488126754761e-02,3.317095711827278137e-02,-1.820824341848492622e-03,5.707920063287019730e-04,-1.488156709820032120e-02,-3.237551776692271233e-03
4.240284906700253487e-04,-3.814632538706064224e-03,-3.151036216877400875e-04,3.299276577308773994e-03,9.080017916858196259e-03,1.542044454254209995e-03,7.326738443225622177e-03,-1.214072923175990582e-03,1.353672007098793983e-03
1.799299614503979683e-03,1.876915246248245239e-02,1.034364569932222366e-02,-1.456141751259565353e-02,4.111959133297204971e-03,1.124239643104374409e-03,-3.728735726326704025e-03,-1.597694586962461472e-03,-4.204629221931099892e-04
-4.963797982782125473e-04,7.103163748979568481e-03,6.353914504870772362e-04,-9.080831892788410187e-03,3.679271042346954346e-02,3.662949195131659508e-03,-1.306205987930297852e-03,-2.240603417158126831e-02,9.241488878615200520e-04
-2.866998314857482910e-03,5.879059433937072754e-03,-9.531803079880774021e-04,-1.458357553929090500e-02,3.078237920999526978e-02,4.139782686252146959e-04,-5.768896662630140781e-04,-3.322553820908069611e-03,1.352312508970499039e-02
-8.554224856197834015e-03,-2.180664427578449249e-02,-2.153472742065787315e-03,7.586950086988508701e-04,1.805218169465661049e-03,6.613409612327814102e-03,-2.618940779939293861e-04,-8.629349060356616974e-03,1.052945619449019432e-03
4.802115145139396191e-04,2.756597241386771202e-03,-2.069936366751790047e-03,8.131600916385650635e-03,1.526472275145351887e-03,-2.272990532219409943e-02,-3.795931814238429070e-03,-1.697055436670780182e-02,-8.246222510933876038e-03
6.492881948361173272e-05,1.728904433548450470e-02,-3.696991130709648132e-03,3.983553033322095871e-03,-1.601186767220497131e-02,-2.281975233927369118e-03,-1.732363598421216011e-04,-2.150014042854309082e-03,6.615979131311178207e-03
3.886234713718295097e-03,3.891723696142435074e-03,5.714794155210256577e-03,6.892860867083072662e-03,1.319602597504854202e-02,2.508049830794334412e-03,4.949045251123607159e-04,1.746369060128927231e-03,1.276876282645389438e-04
-8.599184453487396240e-03,9.056785143911838531e-03,5.154253449290990829e-03,-4.712697118520736694e-03,7.185831665992736816e-03,4.943198873661458492e-04,-1.483425777405500412e-02,-2.548262244090437889e-03,2.773922635242342949e-03
1.998527534306049347e-02,-7.124838884919881821e-03,-7.466278038918972015e-03,-2.150495303794741631e-03,1.295203529298305511e-02,-8.889621123671531677e-03,-1.781997736543416977e-03,-6.345052737742662430e-03,-2.283426700159907341e-03
3.531382419168949127e-03,-4.390547983348369598e-03,-3.923655021935701370e-03,-6.136724259704351425e-03,3.837768221274018288e-03,-3.315026406198740005e-03,3.756427671760320663e-03,1.079429220408201218e-02,4.386473912745714188e-03
5.687953904271125793e-03,-3.526080772280693054e-02,6.828141398727893829e-03,2.133438363671302795e-02,-1.780073740519583225e-03,-6.432686932384967804e-03,-1.866723760031163692e-03,-1.602957258000969887e-03,-4.780525807291269302e-03
1.657243585214018822e-03,9.967930614948272705e-03,1.309697167016565800e-03,-1.392011065036058426e-02,2.143636532127857208e-02,-1.502697169780731201e-02,-4.638896323740482330e-03,-2.251512184739112854e-02,-9.291407652199268341e-03
-7.714295643381774426e-04,8.690381655469536781e-04,2.621169202029705048e-03,1.842611120082437992e-03,7.062201946973800659e-02,-2.275111764902248979e-04,-4.560501256491988897e-04,-3.348675556480884552e-03,7.549840374849736691e-04
-8.128274232149124146e-03,-9.893285110592842102e-03,3.201694460585713387e-03,3.875455586239695549e-03,-2.275967225432395935e-02,-3.104679519310593605e-03,-6.369824521243572235e-03,-2.554377168416976929e-02,-1.207086816430091858e-02
2.925347362179309130e-04,-2.299395855516195297e-03,-3.496239660307765007e-03,1.211309339851140976e-03,-2.474555978551506996e-03,-4.382775630801916122e-03,2.294762246310710907e-02,4.852038342505693436e-03,-5.011488683521747589e-03
-1.116995420306921005e-02,-6.431800778955221176e-03,1.824216800741851330e-03,-4.021137952804565430e-03,1.912870816886425018e-02,-2.284878306090831757e-02,-4.200513940304517746e-03,1.430894155055284500e-02,-1.613301597535610199e-02
-8.332135155797004700e-03,2.282717963680624962e-03,-2.708974992856383324e-03,4.334217403084039688e-03,2.475150115787982941e-02,-2.912252675741910934e-03,-3.455071244388818741e-03,-1.066206459654495120e-04,-4.443250596523284912e-03
-1.093601062893867493e-02,2.348330244421958923e-02,-2.379427663981914520e-03,-1.548139005899429321e-02,-6.072604097425937653e-03,1.354931015521287918e-02,9.551289491355419159e-03,7.729780860245227814e-03,9.033163078129291534e-04
-1.823973469436168671e-02,-8.962533320300281048e-04,2.209403784945607185e-03,-3.904778277501463890e-03,-2.552148327231407166e-02,7.889037951827049255e-04,9.415913373231887817e-04,3.501619910821318626e-03,-4.924465320073068142e-04
-9.976567700505256653e-03,1.083490904420614243e-02,-5.179613828659057617e-03,-3.053703112527728081e-03,1.385048404335975647e-02,-4.289070144295692444e-03,-3.307564416900277138e-03,1.764163747429847717e-02,1.863457146100699902e-03
-1.147705363109707832e-03,6.349576171487569809e-03,1.719081774353981018e-03,-1.207785680890083313e-02,-2.517665922641754150e-02,6.509790662676095963e-03,-7.688181358389556408e-05,-8.973474614322185516e-03,9.368116967380046844e-03
-4.547235090285539627e-03,-6.461247336119413376e-03,-2.296179998666048050e-03,-1.137917302548885345e-02,-2.070403285324573517e-02,-8.576148189604282379e-03,-1.424908521585166454e-03,3.819304693024605513e-04,-8.597094565629959106e-03
-1.610835664905607700e-03,2.691299596335738897e-04,-5.253628478385508060e-04,1.354106818325817585e-03,-2.667864086106419563e-03,4.048801027238368988e-03,1.359699410386383533e-03,1.118316198699176311e-03,-3.092529485002160072e-03
1.506478642113506794e-03,-8.541882969439029694e-03,-2.652342896908521652e-03,6.731903646141290665e-03,2.796093374490737915e-02,-1.019843271933495998e-03,7.124343421310186386e-03,-3.624281845986843109e-03,-2.025938010774552822e-04
-4.054490709677338600e-04,-3.559607313945889473e-03,-3.684245049953460693e-03,5.755592603236436844e-03,7.830967195332050323e-03,5.756892729550600052e-03,4.899911116808652878e-03,-8.095236495137214661e-03,-1.191667467355728149e-02
-2.363276667892932892e-03,-2.232988178730010986e-02,-1.040541101247072220e-02,-1.421398110687732697e-02,-2.198852412402629852e-02,-8.902728557586669922e-03,7.905174046754837036e-03,-1.300328690558671951e-02,-9.193128906190395355e-03
2.612127456814050674e-03,4.364546912256628275e-04,-5.295139271765947342e-03,4.385163541883230209e-03,-1.227278541773557663e-02,2.640106016770005226e-03,-1.566369319334626198e-04,3.719875821843743324e-04,-1.983476686291396618e-04
-1.547455694526433945e-02,-1.561881136149168015e-02,-3.136393055319786072e-02,-1.846452243626117706e-02,-1.793891750276088715e-02,-2.769854851067066193e-02,-1.174556184560060501e-02,-1.005296013318002224e-03,-1.533833891153335571e-02
-3.236923599615693092e-03,-3.611962776631116867e-03,6.724362028762698174e-04,-2.261475846171379089e-02,-4.045291803777217865e-03,4.642203450202941895e-03,-1.063956064172089100e-03,-3.950084093958139420e-03,-3.301825927337631583e-05
-4.719324409961700439e-03,2.901721978560090065e-03,-5.596621427685022354e-03,-7.896795868873596191e-03,8.900930173695087433e-03,3.035218454897403717e-02,1.617918605916202068e-03,-6.518394220620393753e-04,1.028723828494548798e-02
-1.074527949094772339e-02,-1.285500265657901764e-02,-8.901552297174930573e-03,-1.365586649626493454e-02,-8.241734467446804047e-03,-5.200819112360477448e-03,-1.551033928990364075e-02,-1.128782331943511963e-02,-1.426881528459489346e-03
-8.566493168473243713e-03,-1.862535136751830578e-03,-1.383575727231800556e-03,7.196753751486539841e-03,-1.432258402928709984e-03,-2.096684416756033897e-03,-5.852201953530311584e-03,6.867910851724445820e-04,6.149034597910940647e-04
-3.821613267064094543e-03,-1.509135775268077850e-02,1.627170830033719540e-03,-8.202974684536457062e-03,3.206147998571395874e-02,1.765675283968448639e-02,-3.649428021162748337e-03,-4.148349165916442871e-03,-1.129139564000070095e-03
-1.092255581170320511e-02,8.654048666357994080e-03,-1.089823152869939804e-02,-9.063520468771457672e-03,-2.973310090601444244e-02,8.234027773141860962e-03,-7.849678397178649902e-03,-5.220678634941577911e-03,-9.541794657707214355e-03
1.283172704279422760e-02,2.742243744432926178e-02,1.535480841994285583e-02,-2.071751747280359268e-03,-5.245729349553585052e-03,-5.408073775470256805e-03,-8.752411231398582458e-03,-1.597321592271327972e-02,-1.151867955923080444e-02
-5.039041396230459213e-03,6.160956341773271561e-03,-4.953218158334493637e-03,1.970188895938917994e-04,-1.294752303510904312e-02,-6.652601528912782669e-03,-2.836395753547549248e-03,5.860047895112074912e-05,4.692439106293022633e-04
9.826627559959888458e-03,-2.088344842195510864e-02,1.311292056925594807e-03,-1.083448901772499084e-02,-8.040951564908027649e-03,1.768691930919885635e-03,3.319576149806380272e-03,-2.129915403202176094e-03,-8.877699263393878937e-03
7.997795008122920990e-03,-3.003545105457305908e-03,-1.280985452467575669e-05,-2.420620061457157135e-03,-4.832766018807888031e-03,-6.914228666573762894e-03,2.184525877237319946e-02,9.231250733137130737e-03,-2.526577189564704895e-02
-6.941152387298643589e-04,1.070433761924505234e-02,-3.758398117497563362e-03,1.834331452846527100e-02,-2.237833396065980196e-04,5.529851187020540237e-03,-1.043854188174009323e-02,-1.938918605446815491e-02,-6.566930096596479416e-03
-7.700675632804632187e-03,3.517601406201720238e-03,-1.603708788752555847e-02,3.534825518727302551e-02,-1.369708683341741562e-02,-9.146939031779766083e-03,-4.471045918762683868e-03,5.668070167303085327e-02,-5.008605774492025375e-03
4.427315201610326767e-03,5.610915366560220718e-03,4.251083824783563614e-03,-1.027280371636152267e-02,-3.880173712968826294e-02,-3.421887522563338280e-03,-2.132969908416271210e-03,-1.284622238017618656e-03,1.056405133567750454e-03
5.500551778823137283e-03,1.404753793030977249e-02,-2.385322237387299538e-03,1.394202117808163166e-03,6.701490376144647598e-03,-5.756068509072065353e-03,4.722720943391323090e-03,-4.401986952871084213e-03,1.661895192228257656e-03
-3.992630168795585632e-03,-6.418177508749067783e-05,-1.960851484909653664e-03,1.359218382276594639e-03,1.845822297036647797e-02,2.790993265807628632e-02,3.896533045917749405e-03,-8.877345360815525055e-03,-1.316414587199687958e-02
-7.518424186855554581e-03,1.789923571050167084e-02,4.031376913189888000e-03,2.984275808557868004e-03,1.554948510602116585e-03,1.124273240566253662e-02,-3.000443102791905403e-03,-5.769444163888692856e-03,4.212604835629463196e-03
-2.846063347533345222e-03,-1.206465065479278564e-02,-2.383638173341751099e-03,1.518459804356098175e-02,-2.301018871366977692e-02,1.411100197583436966e-02,4.120044875890016556e-03,2.550093270838260651e-02,7.588056381791830063e-03
-1.047755964100360870e-02,-3.548286855220794678e-02,-1.469042035751044750e-04,-9.047742001712322235e-03,-5.975297244731336832e-05,-4.922382504446431994e-05,-1.638702698983252048e-03,-6.499377544969320297e-03,7.843106985092163086e-03
-6.224853452295064926e-03,8.097688667476177216e-03,-7.795668207108974457e-04,-1.472894754260778427e-02,5.656618624925613403e-03,9.833913063630461693e-04,-8.993428200483322144e-03,1.744018867611885071e-02,-1.006135996431112289e-02
1.141058094799518585e-02,3.675423795357346535e-03,-6.954831769689917564e-04,3.688369644805788994e-03,-1.735686138272285461e-02,1.944240741431713104e-02,3.240049118176102638e-04,-1.549040991812944412e-02,9.776039980351924896e-03
-7.326275110244750977e-03,-4.419924225658178329e-03,4.578590393066406250e-03,-8.950080722570419312e-03,-2.939671464264392853e-02,5.579191492870450020e-04,-3.077386412769556046e-03,-7.982596755027770996e-03,-6.185975857079029083e-03
2.638923004269599915e-03,-7.441810797899961472e-03,4.791007842868566513e-03,-5.859709810465574265e-03,-1.029089745134115219e-02,2.864298224449157715e-02,3.815542731899768114e-04,7.538126315921545029e-03,-1.400009356439113617e-02
-5.127092823386192322e-03,-1.351914019323885441e-03,-3.974431660026311874e-03,-5.321145057678222656e-03,-7.535079028457403183e-03,8.017448708415031433e-03,-9.241884574294090271e-03,-9.171787649393081665e-03,-1.757231191731989384e-03
9.159232489764690399e-03,-3.623889526352286339e-03,-4.713354166597127914e-03,-5.944533273577690125e-03,-2.406977489590644836e-02,-1.778189616743475199e-04,7.762991823256015778e-03,7.553518563508987427e-02,-3.501950297504663467e-03
3.675797022879123688e-03,2.213699743151664734e-03,9.358107927255332470e-04,8.090205956250429153e-04,-2.508873585611581802e-03,8.699136087670922279e-04,1.822731457650661469e-03,-6.534738466143608093e-03,3.550841705873608589e-03
-8.107468485832214355e-03,-1.403246074914932251e-03,-1.363163720816373825e-02,3.244221443310379982e-04,-1.290263514965772629e-02,-6.791908759623765945e-03,-1.369212474673986435e-02,-1.942595839500427246e-02,-1.628043875098228455e-02
3.770191455259919167e-03,-5.470905452966690063e-04,-7.983719930052757263e-03,9.718728251755237579e-03,5.377831403166055679e-04,-1.050928980112075806e-02,4.232552833855152130e-03,3.157669445499777794e-03,-2.961226738989353180e-03
1.550945336930453777e-03,1.062335539609193802e-02,3.261797828599810600e-03,6.528715603053569794e-03,-7.238746155053377151e-03,5.233261268585920334e-03,9.172529913485050201e-03,5.790519993752241135e-03,8.026783354580402374e-03
3.235502867028117180e-03,-3.161358647048473358e-03,-7.158751599490642548e-03,7.206598296761512756e-03,4.668994806706905365e-03,2.721175085753202438e-03,3.308757441118359566e-03,-8.115511387586593628e-03,-5.295251961797475815e-03
7.794409524649381638e-03,8.262006449513137341e-04,5.289143882691860199e-03,2.341754588996991515e-04,-7.451689802110195160e-03,2.439764142036437988e-02,5.776920821517705917e-03,-4.168744198977947235e-03,2.525213547050952911e-02
-3.520784201100468636e-03,3.098986577242612839e-03,1.210539229214191437e-02,-4.863535985350608826e-03,1.198668684810400009e-02,-3.415713086724281311e-03,-1.300958916544914246e-02,-1.397994812577962875e-03,-4.465447855181992054e-04
-4.686886910349130630e-03,3.042669221758842468e-02,-5.361965391784906387e-03,-1.019734237343072891e-02,1.618204824626445770e-02,-1.330369897186756134e-02,-5.022389348596334457e-03,-7.670182734727859497e-03,9.827810339629650116e-03
2.359267324209213257e-03,-7.607508916407823563e-03,5.410728976130485535e-03,-3.891887143254280090e-03,-6.452395580708980560e-03,4.906274378299713135e-03,-4.428050015121698380e-03,2.247580327093601227e-02,-6.131896749138832092e-03
-9.014612063765525818e-03,2.056137425824999809e-03,-3.495293669402599335e-03,2.008808963000774384e-02,-2.605888061225414276e-02,-6.056767422705888748e-03,4.198167473077774048e-03,6.210118997842073441e-03,-5.088708829134702682e-03
-2.486132550984621048e-03,8.063964545726776123e-03,5.676451139152050018e-03,2.863056724891066551e-03,-4.413668997585773468e-03,7.323377765715122223e-03,-4.563565365970134735e-03,-5.605296697467565536e-03,-1.772569026798009872e-03
1.642248971620574594e-04,1.185209583491086960e-02,1.317947357892990112e-02,3.294315189123153687e-02,9.096957743167877197e-03,2.557082474231719971e-02,1.345249637961387634e-02,2.570506744086742401e-02,6.966970395296812057e-03
2.239383058622479439e-03,8.622330613434314728e-03,5.717521067708730698e-03,-5.312829744070768356e-03,-2.084995061159133911e-02,-2.950044116005301476e-03,-9.968227706849575043e-03,1.695065875537693501e-03,-3.237835131585597992e-03
-2.186601283028721809e-03,6.501468829810619354e-03,4.332470707595348358e-03,-8.798814378678798676e-04,3.369358927011489868e-02,6.828481331467628479e-03,-2.757868729531764984e-03,-2.264580689370632172e-02,-3.375869942829012871e-03
-4.126022395212203264e-04,2.580954506993293762e-02,5.399026442319154739e-03,-6.839583162218332291e-03,-1.646436564624309540e-02,-1.821444556117057800e-02,-5.040467251092195511e-03,1.638883166015148163e-02,-4.767275881022214890e-03
-1.056962832808494568e-02,-1.229908876121044159e-02,-1.333208288997411728e-02,-4.560315865091979504e-04,-1.039523165673017502e-02,1.105708722025156021e-02,-4.663389641791582108e-03,-6.103701889514923096e-04,1.413763151504099369e-03
-4.090054892003536224e-03,2.008659299463033676e-03,-1.033636834472417831e-02,1.922016148455440998e-03,1.058449503034353256e-03,-1.078110374510288239e-02,1.388323376886546612e-03,-2.993179112672805786e-02,1.849631662480533123e-03
5.097732413560152054e-03,1.699857227504253387e-02,-2.234780695289373398e-03,6.671002134680747986e-03,-3.420500142965465784e-04,-1.709678396582603455e-02,3.167677787132561207e-04,3.240728285163640976e-03,-6.015693303197622299e-03
5.876002367585897446e-03,6.646894384175539017e-03,4.909521667286753654e-04,1.260907948017120361e-02,2.372371964156627655e-02,7.947693578898906708e-03,2.974950475618243217e-03,9.594299830496311188e-03,-1.685505383647978306e-03
-1.409826334565877914e-02,2.792591229081153870e-03,4.870552103966474533e-03,7.564824074506759644e-03,7.139840628951787949e-03,1.210531033575534821e-02,-1.849086023867130280e-02,-1.540726795792579651e-02,2.615077793598175049e-02
2.303059771656990051e-02,-7.547379471361637115e-03,-2.430276246741414070e-03,-5.904392339289188385e-03,4.202845040708780289e-03,-3.558075986802577972e-03,2.241087611764669418e-03,-3.103781025856733322e-03,-3.069533035159111023e-03
1.015059417113661766e-03,-1.437653438188135624e-03,-2.048940397799015045e-03,-4.131130408495664597e-04,-1.558435522019863129e-02,-1.571010053157806396e-02,-3.084808355197310448e-03,3.233108669519424438e-02,-6.853982340544462204e-04
-4.709200933575630188e-03,-1.815549656748771667e-02,-2.086715772747993469e-03,1.601824164390563965e-02,3.920993767678737640e-03,-5.409878678619861603e-03,2.788294572383165359e-03,-2.625271677970886230e-03,-5.943001015111804008e-04
5.018144380301237106e-03,1.000981777906417847e-02,1.644678704906255007e-04,-4.221650306135416031e-03,6.013603415340185165e-03,-6.278789136558771133e-03,-4.894781392067670822e-03,-1.172770280390977859e-02,-7.643808494322001934e-04
1.240066019818186760e-03,7.310844957828521729e-04,3.934825770556926727e-03,-3.328127786517143250e-03,-3.189914673566818237e-02,5.965750315226614475e-04,1.248758402653038502e-03,2.226672600954771042e-03,1.680163317359983921e-03
3.836575895547866821e-03,2.778280060738325119e-03,3.351804567500948906e-03,1.537714805454015732e-02,1.084702834486961365e-02,-5.853989860042929649e-04,-2.960461191833019257e-03,1.489601330831646919e-03,3.926953650079667568e-04
2.162394113838672638e-03,-2.761523937806487083e-03,-1.994092250242829323e-03,6.780114490538835526e-04,-4.041081701871007681e-04,-3.774494165554642677e-03,2.915239892899990082e-02,1.297115581110119820e-03,-6.022601854056119919e-03
3.792943898588418961e-03,3.558648750185966492e-03,-1.604500721441581845e-04,-9.827784262597560883e-03,6.162747275084257126e-03,-1.814253395423293114e-03,2.077485667541623116e-03,1.421319413930177689e-02,-1.738545834086835384e-04
-4.935230594128370285e-03,-4.643578431569039822e-04,-1.224195933900773525e-03,5.979620851576328278e-03,2.049045637249946594e-03,-6.078041624277830124e-03,-1.290973392315208912e-03,-7.795188110321760178e-03,-4.771895240992307663e-03
-6.285141687840223312e-03,2.454563044011592865e-02,2.296384191140532494e-03,-1.533348672091960907e-02,-8.322215639054775238e-03,1.491740997880697250e-02,1.906620600493624806e-04,4.335604608058929443e-03,4.876193124800920486e-03
-7.602571975439786911e-03,5.566750653088092804e-03,-3.643576637841761112e-04,1.196065568365156651e-03,-4.961607046425342560e-03,-1.688146963715553284e-03,-3.236667485907673836e-03,1.153907040134072304e-03,-1.127505602198652923e-04
-7.130284793674945831e-03,-2.280142856761813164e-03,-5.839472636580467224e-03,5.259458906948566437e-03,7.526909932494163513e-03,-6.116039585322141647e-03,1.162763364845886827e-04,2.042126655578613281e-02,-3.011428751051425934e-03
-6.930358940735459328e-04,3.081221366301178932e-03,2.644617576152086258e-03,5.858014803379774094e-03,2.187431091442704201e-03,-7.033633068203926086e-03,-8.050209842622280121e-03,8.876482024788856506e-04,-8.024500682950019836e-03
-4.196050111204385757e-03,1.151664648205041885e-03,-1.242662314325571060e-03,-5.998420529067516327e-03,-1.652006804943084717e-02,-6.437555886805057526e-03,-3.356478875502943993e-03,1.572526874952018261e-03,-7.843392668291926384e-04
-5.069342441856861115e-04,-8.057801984250545502e-03,-5.584093742072582245e-04,9.763002162799239159e-04,-7.631633896380662918e-03,2.157331444323062897e-02,2.234895480796694756e-03,4.955937154591083527e-03,-6.930915173143148422e-03
6.929493043571710587e-03,-1.837866380810737610e-02,-1.621798961423337460e-03,-1.926526310853660107e-04,7.083910983055830002e-03,1.695939572528004646e-03,-4.372856114059686661e-03,2.006709109991788864e-04,7.393604028038680553e-04
-5.262234713882207870e-03,-2.198259113356471062e-03,-3.536285599693655968e-03,3.717356128618121147e-03,1.490984205156564713e-02,-6.054939702153205872e-03,1.001987233757972717e-02,4.086656495928764343e-02,-6.109986919909715652e-03
-1.590361585840582848e-03,-9.647388942539691925e-03,-4.335844889283180237e-03,1.297095324844121933e-03,-2.511798217892646790e-02,-3.119594883173704147e-03,3.242752281948924065e-03,-2.283619344234466553e-02,-2.223218791186809540e-03
3.121123183518648148e-03,3.612468950450420380e-03,-1.550586079247295856e-03,9.779048850759863853e-04,-6.849605124443769455e-03,1.530639640986919403e-02,4.522287752479314804e-03,4.406834021210670471e-03,-1.339694019407033920e-03
-9.224207140505313873e-03,6.214169785380363464e-03,-2.742518112063407898e-02,1.450078616471728310e-05,-1.001426763832569122e-02,-7.582994177937507629e-03,-6.319291889667510986e-03,6.944199092686176300e-03,-1.409976161085069180e-03
-2.426710445433855057e-03,6.656110053882002831e-05,9.927663486450910568e-04,-1.252459641546010971e-02,-6.123904138803482056e-03,-2.639458107296377420e-04,-3.001819597557187080e-03,-2.756645262707024813e-04,-1.314241817453876138e-04
-3.070421284064650536e-03,-2.903721062466502190e-03,1.188753289170563221e-03,-2.770005958154797554e-03,1.475916244089603424e-03,3.389926999807357788e-02,-4.326534923166036606e-03,-6.042922846972942352e-03,7.598855532705783844e-03
-9.566873311996459961e-03,-8.526710793375968933e-03,-1.053334027528762817e-02,-1.243350468575954437e-02,-6.658731028437614441e-03,-1.535538956522941589e-02,-5.590287037193775177e-03,-4.284783732146024704e-03,-2.990916371345520020e-03
-1.059686392545700073e-02,-6.614306475967168808e-03,-1.192710082978010178e-02,-8.278566412627696991e-03,-1.793471723794937134e-02,-4.908584058284759521e-03,-8.992193266749382019e-03,-8.809205144643783569e-03,-7.135629653930664062e-03
-4.685670137405395508e-03,-9.090869687497615814e-03,-5.001973826438188553e-03,-1.116398070007562637e-02,3.535727038979530334e-02,9.841209277510643005e-03,7.095502223819494247e-03,-3.256996860727667809e-04,3.981490444857627153e-04
1.681264024227857590e-03,3.403227543458342552e-03,-5.256959237158298492e-03,-2.320670755580067635e-03,-2.117867767810821533e-02,-1.989996060729026794e-02,2.036828955169767141e-04,-7.173540070652961731e-03,-1.666962355375289917e-02
-2.387254731729626656e-03,6.562172900885343552e-03,1.346566621214151382e-02,-1.078121736645698547e-02,-7.908094557933509350e-04,7.422604132443666458e-03,-1.092937868088483810e-02,-5.815652199089527130e-03,-2.160994103178381920e-03
-5.827364511787891388e-03,-2.132289577275514603e-03,1.427972747478634119e-04,-6.868412718176841736e-03,-2.376062422990798950e-02,-1.118304207921028137e-02,3.842512087430804968e-04,-6.086281966418027878e-03,-4.484891891479492188e-03
1.233810558915138245e-03,1.213797461241483688e-02,6.646486930549144745e-03,9.300118312239646912e-03,2.484407089650630951e-02,-5.557444412261247635e-03,-1.110670622438192368e-02,5.240591781330294907e-05,-7.521589286625385284e-03
-9.886979387374594808e-05,-6.438753916881978512e-04,-3.801653627306222916e-03,-6.998610217124223709e-03,4.525657277554273605e-03,-5.634901113808155060e-03,1.512506417930126190e-02,1.051537133753299713e-02,-5.738888401538133621e-03
-1.374977757222950459e-03,9.036453440785408020e-03,3.719827625900506973e-03,1.448907889425754547e-02,-2.420384995639324188e-02,2.078898716717958450e-03,-1.598278991878032684e-03,-1.515906420536339283e-03,-4.065212327986955643e-03
7.646968122571706772e-03,7.177024148404598236e-03,4.644194152206182480e-03,-8.079668506979942322e-03,-3.159554034937173128e-04,-4.420685581862926483e-03,-3.668880788609385490e-03,-2.225531451404094696e-02,5.600653123110532761e-03
2.271934645250439644e-03,7.309903739951550961e-04,-8.107953472062945366e-04,-3.871377324685454369e-03,1.391161978244781494e-02,-1.256643445231020451e-03,3.066307181143201888e-05,-2.844005357474088669e-04,2.779748523607850075e-03
-8.348390460014343262e-03,6.364089995622634888e-02,-3.295265138149261475e-03,-2.317322418093681335e-03,-4.474503453820943832e-03,-1.883979886770248413e-03,1.841747551225125790e-03,-4.958698526024818420e-03,-1.564891077578067780e-03
6.704251747578382492e-03,7.655945606529712677e-03,3.952307160943746567e-03,5.827622371725738049e-04,6.876806728541851044e-03,3.641585260629653931e-02,8.939296938478946686e-03,3.864038968458771706e-03,-9.803635999560356140e-03
-2.528090029954910278e-03,1.366084720939397812e-02,-2.911609224975109100e-02,-8.481528609991073608e-03,-8.912404067814350128e-03,1.280515268445014954e-02,-4.618628590833395720e-04,-4.624013963621109724e-04,-3.482404281385242939e-04
-6.666349712759256363e-03,-1.110009569674730301e-02,-6.160894990898668766e-04,4.271802492439746857e-03,-6.913851015269756317e-03,7.081595249474048615e-03,4.458462353795766830e-03,1.231369376182556152e-02,2.601785527076572180e-04
-9.340586140751838684e-03,-1.336086355149745941e-02,6.937985308468341827e-03,3.498672507703304291e-03,1.427856832742691040e-02,1.051321718841791153e-02,-1.520630670711398125e-03,1.181232219096273184e-04,2.819697605445981026e-03
-6.167843937873840332e-03,-2.095461357384920120e-03,-2.137680072337388992e-03,1.601553289219737053e-03,-4.643156658858060837e-03,1.062706019729375839e-02,-1.130331400781869888e-02,2.489469572901725769e-02,-7.782614789903163910e-03
-1.377735170535743237e-03,-1.773571129888296127e-03,1.410820172168314457e-03,8.059291169047355652e-03,-6.370292045176029205e-03,2.562170848250389099e-03,-2.083735074847936630e-03,-1.524685695767402649e-02,-5.147201009094715118e-04
-7.228307425975799561e-03,-9.248600341379642487e-03,3.044289303943514824e-03,-8.715468458831310272e-03,-2.345216087996959686e-02,8.954542689025402069e-03,-6.423869635909795761e-03,-5.321749951690435410e-03,-1.073506660759449005e-03
-6.569067016243934631e-03,-1.311395037919282913e-02,-4.927360918372869492e-03,3.818473196588456631e-04,-1.939225476235151291e-03,3.931748867034912109e-02,-6.770161446183919907e-03,-1.015775930136442184e-02,5.161899141967296600e-03
-3.077415283769369125e-03,1.867311366368085146e-04,-2.870249329134821892e-03,-5.587369203567504883e-03,6.654171156696975231e-04,1.528752874583005905e-02,-4.084934946149587631e-03,-8.858132176101207733e-03,-4.272750113159418106e-03
9.095267392694950104e-03,-2.282274654135107994e-03,-7.672561332583427429e-04,-2.685339190065860748e-03,4.800806287676095963e-03,-1.167305838316679001e-02,1.344085903838276863e-03,1.330390106886625290e-02,-4.981486126780509949e-03
1.130663207732141018e-03,2.253336366266012192e-03,1.481164712458848953e-03,2.183219417929649353e-03,-1.994053833186626434e-03,-2.356999786570668221e-03,2.196868183091282845e-03,-2.350549213588237762e-02,2.156206406652927399e-03
-7.177382707595825195e-03,-8.321261964738368988e-03,-8.875080966390669346e-04,1.978072803467512131e-03,2.506173774600028992e-02,-1.446515228599309921e-02,-1.642840914428234100e-02,-1.079057902097702026e-02,-1.418115105479955673e-02
1.361057456961134449e-05,-4.300265572965145111e-03,-3.232979681342840195e-03,-4.958272911608219147e-03,8.888633921742439270e-03,-2.010822994634509087e-03,-3.051640815101563931e-04,-1.094278646633028984e-03,-6.362107582390308380e-03
3.563003614544868469e-03,9.152934886515140533e-03,2.923947526142001152e-03,1.497324649244546890e-02,-1.775287836790084839e-02,5.843321792781352997e-03,1.343818008899688721e-02,2.739862306043505669e-03,2.938511606771498919e-04
6.151191890239715576e-03,7.288766792044043541e-04,-6.318951491266489029e-03,7.499781437218189240e-03,-4.440989345312118530e-03,9.421492926776409149e-03,1.836722251027822495e-03,-5.535092670470476151e-03,-5.831166636198759079e-03
6.956319790333509445e-03,-5.498225800693035126e-03,2.056563040241599083e-03,6.963231717236340046e-04,1.050660735927522182e-03,5.084997974336147308e-03,3.684213152155280113e-04,7.749451790004968643e-03,2.751934807747602463e-03
2.583862515166401863e-03,3.033493645489215851e-03,1.511420705355703831e-03,9.973971173167228699e-04,1.344021596014499664e-02,1.024030521512031555e-02,-2.881689928472042084e-03,1.600446761585772038e-03,5.623265635222196579e-03
6.702252198010683060e-03,2.246972545981407166e-02,1.655093743465840816e-03,-9.624551050364971161e-03,6.337753031402826309e-03,-1.327501889318227768e-02,-6.295740138739347458e-03,7.223085965961217880e-03,-2.465567318722605705e-03
9.048504289239645004e-04,-3.126391209661960602e-03,6.293396465480327606e-03,-2.274779602885246277e-03,-2.724630758166313171e-03,1.102156657725572586e-02,-3.611063584685325623e-03,1.328893657773733139e-02,-5.588321946561336517e-04
1.642319746315479279e-02,8.383079431951045990e-03,8.402893319725990295e-03,2.690279483795166016e-02,-1.494639273732900620e-02,2.794126281514763832e-03,-5.684411153197288513e-03,2.177809365093708038e-02,-2.786538330838084221e-03
-7.699681445956230164e-04,9.081904776394367218e-03,5.926141515374183655e-03,9.018059936352074146e-04,-2.559327706694602966e-02,2.482763025909662247e-03,-6.805434240959584713e-04,-4.778225906193256378e-03,6.930553354322910309e-03
4.112615250051021576e-03,-2.993795555084943771e-03,2.568622352555394173e-03,2.444219030439853668e-02,-4.144590813666582108e-03,4.435978829860687256e-03,1.226549595594406128e-02,-4.691424779593944550e-03,8.542498573660850525e-03
-3.240082412958145142e-03,1.587337814271450043e-02,6.494156084954738617e-03,-6.876504514366388321e-03,1.511859241873025894e-03,-2.751295141933951527e-05,-1.022082637064158916e-03,-3.255233634263277054e-03,-8.516859961673617363e-04
-2.594559453427791595e-03,2.483497839421033859e-03,8.169178618118166924e-04,-2.445064019411802292e-03,3.141619265079498291e-02,1.879193354398012161e-03,2.891964511945843697e-03,-9.208747185766696930e-03,-3.565512830391526222e-03
-3.756150137633085251e-03,1.660743355751037598e-02,1.519307377748191357e-03,-7.007298991084098816e-03,-2.452697046101093292e-02,9.952370310202240944e-04,1.032862113788723946e-03,7.043716963380575180e-03,5.588986910879611969e-03
-9.553186595439910889e-03,-9.415489621460437775e-03,-9.747796691954135895e-03,-1.581204589456319809e-03,-4.121895413845777512e-03,2.913683652877807617e-03,-1.016193185932934284e-03,-1.432020450010895729e-03,1.309522194787859917e-03
-1.167107489891350269e-03,-9.041918674483895302e-04,-9.315220639109611511e-03,1.332881744019687176e-03,-7.086702389642596245e-04,-1.803886890411376953e-02,2.817403757944703102e-03,-1.312162075191736221e-02,-3.233530325815081596e-03
4.569005686789751053e-03,4.739253316074609756e-03,3.022967604920268059e-03,2.727258251979947090e-03,-8.402980864048004150e-03,-6.070798728615045547e-03,-6.118487217463552952e-04,-3.760684747248888016e-03,-7.691630744375288486e-04
1.526443986222147942e-03,5.470498930662870407e-03,2.955434902105480433e-04,1.263581495732069016e-02,2.122915908694267273e-02,1.019975822418928146e-02,3.282366786152124405e-03,7.263172883540391922e-03,6.083652260713279247e-04
-5.334320943802595139e-03,2.012147800996899605e-03,8.442793041467666626e-03,1.375137828290462494e-02,-8.682169020175933838e-03,1.115185488015413284e-02,-1.378112100064754486e-02,-1.053588185459375381e-02,1.436270494014024734e-02
