1.564123779535293579e-01
-9.082686156034469604e-02
1.532235592603683472e-01
1.409573107957839966e-01
-1.814266592264175415e-01
-8.488558977842330933e-02
2.768023610115051270e-01
1.400057077407836914e-01
-3.631412088871002197e-01
1.224774271249771118e-01
5.883872881531715393e-02
1.718168109655380249e-01
1.027811691164970398e-01
1.468503773212432861e-01
-3.024110555648803711e+00
-1.037428304553031921e-01
-1.429360639303922653e-02
1.341480910778045654e-01
-6.113457083702087402e-01
-1.088007092475891113e+00
2.556770741939544678e-01
1.248393580317497253e-01
2.039496600627899170e-01
1.163720041513442993e-01
-2.623898386955261230e-01
1.206450238823890686e-01
4.680676162242889404e-01
1.201338097453117371e-01
1.779598295688629150e-01
2.383580058813095093e-01
1.164100989699363708e-01
-2.370443567633628845e-02
1.343787908554077148e-01
4.846513271331787109e-02
1.421617269515991211e-01
8.983487635850906372e-02
1.127043962478637695e-01
1.525830030441284180e-01
2.277759462594985962e-01
6.810859590768814087e-02
-1.589873433113098145e+00
1.323583871126174927e-01
1.221448555588722229e-01
1.663848906755447388e-01
1.311313062906265259e-01
3.554276749491691589e-02
1.746149659156799316e-01
2.250805124640464783e-02
3.043184578418731689e-01
1.056392565369606018e-01
6.291794776916503906e-02
3.417027890682220459e-01
1.858388334512710571e-01
3.425405323505401611e-01
1.265305727720260620e-01
1.988034993410110474e-01
1.542800664901733398e-01
1.855878531932830811e-01
1.814764589071273804e-01
-1.427808403968811035e-01
2.603752017021179199e-01
1.528689861297607422e-01
1.204413250088691711e-01
4.594984278082847595e-02
